0.420993,-0.158102,0.053234,-0.133098,-0.131180,-0.099462,0.352021,-0.319409,-0.089956,-0.202623,-0.248872,0.371370,0.070692,0.093673,-0.339068,0.091195,-0.006282,0.251184,0.065950,0.366909,-0.027856,0.322959,-0.129384,-0.074461,0.098112,-0.017134,0.397941,0.102695,-0.075780,-0.034075,0.028547,-0.019219,0.265809,0.047667,-0.259046,0.463929,0.198185,-0.320875,0.216014,-0.113557,0.080708,-0.112283,-0.052655,-0.035119,0.007895,0.159434,0.023260,-0.178466,-0.182546,-0.252153,-0.085665,-0.183963,0.393622,-0.121905,0.128683,-0.044042,0.353856,-0.073431,-0.066100,-0.079643,-0.051647,-0.033495,-0.178130,0.036051,-0.049267,-0.155656,-0.027337,-0.125941,0.480855,-0.457358,0.109087,-0.098280,0.129797,-0.045764,0.055358,0.205652,0.143007,0.043891,-0.052244,0.233091,-0.049216,-0.122748,0.252118,-0.523668,-0.021576,0.127533,0.165400,0.105126,-0.095995,0.180834,-0.346946,0.168479,-0.144605,-0.373094,-0.046236,0.000997,0.155800,0.065027,0.206589,-0.078920,-0.266851,-0.194030,0.050117,0.063084,-0.074998,0.316114,0.002842,-0.221809,-0.449508,-0.207483,0.421328,-0.204722,0.025782,-0.370995,0.474379,-0.200531,-0.026982,-0.109898,-0.008278,0.073759,-0.070477,-0.389782,-0.036426,-0.197272,-0.165071,-0.006216,-0.150229,0.150025,0.599183,-0.393614,0.210177,0.012880,0.086319,-0.154808,-0.195783,-0.291111,-0.114786,-0.087341,0.085960,0.442512,0.269791,-0.144624,-0.002177,-0.050433,0.141178,-0.123265,-0.027786,0.535295,-0.133083,-0.037151,-0.022687,-0.076155,0.281861,-0.232558,-0.118540,-0.510601,0.085918,0.005794,-0.124366,0.083291,-0.032927,-0.234711,0.337295,0.213004,0.382965,-0.074773,0.085080,-0.064722,-0.069489,0.014776,0.284391,-0.315781,-0.200661,-0.035879,0.204473,-0.311080,-0.043103,-0.041402,0.105795,-0.076089,-0.008492,-0.072151,0.170106,0.247735,-0.284909,-0.248616,0.094593,-0.034633,-0.166077,-0.230708,-0.076112,0.384595,0.096825,0.039352,0.032863,-0.318133,0.037563,0.043966,-0.192914,0.070312,-0.031934,0.478646,0.092211,-0.067652,0.110185,0.142513,0.207153,-0.245232,-0.216325,0.582688,0.074649,0.183419,0.417077,0.010814,0.317815,-0.031362,0.147532,0.319233,-0.217288,0.090244,-0.323392,0.501491,-0.240351,0.358472,-0.090159,-0.225061,0.349576,0.131663,-0.196562,0.407086,0.158603,-0.165315,0.088409,0.292124,-0.055588,-0.248801,0.446115,0.015705,-0.018732,-0.132275,0.012640,-0.063014,-0.020315,-0.154092,-0.243228,-0.040523,0.020977,-0.306233,0.227070,-0.286261,-0.220270,-0.333689,-0.260836,0.193775,-0.105373,-0.173348,-0.071392
0.070699,0.138266,-0.024196,0.163648,0.346202,-0.266621,-0.007562,-0.001515,0.578629,-0.204356,-0.061633,-0.153605,-0.025903,0.083447,0.093865,-0.138779,-0.226307,0.210409,-0.391138,-0.107018,-0.178222,-0.343836,-0.127204,0.302410,0.068853,-0.112486,-0.038008,0.146250,0.050313,0.024924,-0.020997,-0.136367,0.238225,-0.151869,-0.069709,-0.024289,-0.365265,-0.109305,-0.425085,-0.201251,-0.142958,-0.071737,0.043441,-0.209507,0.041934,-0.616111,-0.205958,0.091784,0.007598,0.058728,-0.175896,0.122848,-0.528535,-0.149811,-0.253000,0.359740,0.118090,-0.034766,-0.242027,-0.095213,0.267481,-0.104957,0.044027,-0.297794,-0.171025,-0.056556,0.101341,0.431393,0.097135,0.478144,-0.238734,-0.087413,-0.254664,-0.109152,-0.242319,-0.125253,0.313775,-0.232500,-0.032654,0.188059,0.058368,0.269438,-0.158119,-0.339734,-0.038375,0.326976,0.486210,0.116652,-0.168115,0.092119,-0.362550,0.016685,-0.045847,0.410741,-0.135050,0.219615,0.433095,-0.113364,-0.024162,0.094768,-0.123933,0.106730,-0.050882,-0.080216,-0.103308,-0.193136,-0.152785,0.016629,0.199761,-0.343517,-0.091073,-0.111549,0.288631,0.165800,-0.007318,-0.037109,-0.088523,0.116728,0.167163,-0.372904,0.204935,-0.083585,0.268598,-0.301395,-0.178076,-0.044166,-0.147787,-0.011518,-0.157794,-0.305979,-0.345209,-0.423314,-0.327079,-0.064488,-0.009460,0.220843,-0.167227,-0.001589,-0.159369,0.197015,-0.207935,-0.197324,0.018101,-0.024281,0.381796,0.271561,-0.049896,-0.027855,-0.012358,-0.247059,-0.085054,-0.626250,0.093101,0.196340,0.372763,0.335521,0.453198,0.187914,0.039188,0.078958,0.346790,-0.141356,0.030427,0.060451,0.205078,-0.035399,0.234393,-0.373354,-0.089451,-0.062854,-0.060197,0.097327,-0.147321,-0.112281,0.308119,-0.271180,0.170868,-0.050856,-0.029035,0.539377,0.139935,-0.045863,-0.057002,-0.148696,0.298387,-0.431718,0.302568,-0.146788,-0.385156,-0.029126,-0.106202,0.078578,-0.057359,-0.240487,0.052495,0.154182,-0.023418,-0.180085,0.023906,-0.134558,0.091810,-0.191374,-0.199015,0.355227,0.153886,-0.124711,0.159587,0.320180,-0.301505,-0.080092,-0.104013,0.334800,0.001689,0.463506,-0.139082,-0.031473,0.017263,-0.011721,0.459372,0.028983,-0.123998,0.273671,-0.074913,-0.143579,0.557979,-0.226311,0.436584,0.398228,-0.063454,-0.073741,-0.030234,-0.245094,-0.008280,-0.196234,-0.009717,-0.209418,-0.009517,-0.284050,0.182541,-0.174731,-0.048283,-0.203913,-0.113691,0.082013,0.136251,-0.183237,-0.010443,0.295170,0.315906,-0.082608,0.131805,0.095740,0.093558,0.403229,-0.027817,-0.283422,1.194041
-0.406625,-0.016215,0.018588,0.233677,0.265915,0.344707,0.120668,-0.061229,0.368029,-0.395142,0.041728,-0.131084,0.006545,0.265789,-0.003820,0.243695,-0.090754,-0.185629,-0.106131,-0.240725,-0.081074,-0.343628,-0.211840,0.336146,-0.071874,-0.248463,-0.238848,-0.419452,0.194485,-0.116662,-0.133362,-0.046928,-0.159172,-0.176359,0.472223,-0.074449,0.216681,-0.343203,0.502300,-0.167879,0.170147,0.381855,-0.231562,-0.159437,-0.087827,0.291751,0.014580,0.111805,0.353175,-0.171386,0.389188,0.455959,0.036032,-0.160825,-0.054433,-0.141616,-0.031997,-0.168448,-0.302116,0.307237,0.244933,0.116768,-0.023048,-0.022447,0.357165,-0.203608,-0.127062,-0.007043,-0.390391,0.054397,-0.210436,-0.014718,0.026180,-0.129055,-0.009628,0.224902,-0.227569,0.420410,-0.472626,-0.064093,0.230121,-0.209695,-0.229756,0.344052,0.765431,-0.615516,-0.008879,-0.201826,0.378864,0.213666,-0.021475,0.130195,-0.382973,0.270496,0.129958,0.283322,-0.142725,-0.055745,-0.154405,0.060860,0.145989,0.274351,-0.288244,-0.244250,-0.192780,0.008393,-0.006603,-0.191134,-0.200284,-0.248357,-0.384419,-0.096668,0.256300,-0.194410,0.237267,0.017369,-0.062908,0.417761,0.477887,-0.423888,-0.048613,-0.133239,0.171677,-0.199550,-0.387649,-0.358061,-0.109085,-0.268652,0.145738,-0.033446,-0.005870,-0.106137,0.227221,-0.184654,-0.222005,0.368828,-0.129815,-0.344505,-0.145034,-0.312673,-0.361517,-0.292984,-0.057438,-0.097259,-0.189195,-0.087343,0.481919,-0.017789,-0.171558,0.017794,0.026252,0.298921,-0.043937,-0.417181,-0.133167,-0.288593,-0.155782,-0.068714,0.207305,-0.103254,-0.086948,-0.226423,-0.133749,0.110968,-0.078671,-0.097827,0.251978,0.056983,0.133386,0.054050,-0.256149,-0.246659,0.114100,0.222265,-0.272938,-0.312815,-0.090502,0.065546,-0.008257,-0.015463,0.202602,-0.072768,-0.152378,-0.402411,-0.092688,0.232330,-0.213327,0.146720,0.126205,0.271790,-0.382728,-0.098673,0.042296,-0.254937,0.083159,-0.025978,-0.176479,-0.217898,0.408757,-0.189344,-0.381172,-0.098364,-0.040084,0.253120,0.204354,0.591760,-0.405380,0.348124,0.505449,0.512849,0.218558,0.116596,-0.228634,-0.097792,-0.047168,-0.040796,-0.214758,0.013674,-0.332828,0.137571,0.115494,-0.024823,0.299313,0.226907,0.017941,0.202563,-0.013659,-0.216447,-0.050281,-0.164047,-0.350634,0.068119,0.106648,0.454110,-0.145030,0.083721,0.107676,-0.031160,0.066913,0.185290,-0.057987,-0.120595,-0.000067,-0.156867,0.033150,-0.022475,0.027658,0.033731,-0.063460,0.004542,0.953067,-0.325244,0.327399,-0.177654,0.105552,-0.063593,-1.001743
0.140107,-0.119507,0.169486,0.204137,-0.034843,-0.176378,-0.248338,0.442088,-0.257805,0.378260,0.091144,-0.104456,-0.046050,-0.292735,0.099391,-0.228343,-0.034318,-0.101703,0.190627,-0.030257,0.226386,0.322465,0.066178,0.332837,-0.028588,-0.074822,0.204430,-0.278556,-0.434082,0.458855,-0.080082,0.096881,-0.095291,-0.157650,-0.033550,0.100515,-0.252823,-0.205840,-0.260751,0.497590,0.442591,-0.193864,-0.507105,-0.268897,0.015789,0.172467,-0.127819,0.180330,-0.170061,-0.079332,0.034957,-0.146362,-0.204055,0.204894,0.020469,0.268176,0.241609,-0.125641,0.177986,-0.137248,0.222874,-0.034927,-0.119535,-0.277607,-0.327604,-0.061761,-0.008517,-0.163153,-0.143288,0.148661,0.340928,0.383972,0.233533,-0.275931,-0.201886,0.002286,0.274064,-0.401392,-0.016745,-0.072957,-0.065283,-0.362246,-0.179906,0.302575,0.004190,0.248051,0.032151,-0.116045,-0.250923,0.146386,0.399678,0.095873,0.161616,-0.465605,0.143676,-0.060524,0.496884,-0.187501,0.036541,-0.003021,0.068336,0.140789,0.128424,0.027224,0.342101,-0.013959,-0.000903,-0.162795,0.415583,0.051150,-0.075663,0.001743,-0.432015,-0.086894,-0.149628,-0.092756,-0.248834,-0.760506,0.236127,0.038516,-0.143015,-0.114174,0.236423,-0.450847,0.051751,-0.021448,0.529927,-0.029784,0.449414,0.344619,-0.285051,-0.024325,-0.399864,-0.134929,0.070172,-0.412325,-0.152079,-0.101421,-0.101302,0.138921,0.602666,-0.055981,0.038007,-0.005399,0.217884,0.417859,0.207609,-0.080253,0.419925,0.325576,-0.141520,0.068071,-0.131561,-0.020919,-0.023611,0.212077,-0.202476,0.371791,0.030554,0.100594,0.021719,-0.096885,-0.406352,-0.145475,-0.404679,-0.134648,0.238960,0.247189,0.373758,0.238603,-0.368300,0.317014,0.406732,0.154623,0.393054,-0.262980,0.525616,0.264240,0.035591,-0.183123,-0.087250,0.120608,0.243657,0.078648,0.242260,-0.080538,-0.133929,0.089235,0.364544,-0.201988,-0.122209,-0.241503,-0.034834,0.181192,-0.007860,-0.133286,-0.071993,-0.038396,-0.181384,-0.083853,-0.037025,-0.418247,-0.177079,-0.310637,-0.433205,0.306843,0.110677,-0.065921,-0.029000,-0.210044,-0.126579,0.283328,0.242544,0.299203,0.119072,-0.241548,-0.086595,0.438809,0.250840,-0.156154,0.222059,-0.404069,-0.269683,-0.053676,0.119071,0.069250,-0.072842,0.106098,-0.066591,0.103401,-0.182287,-0.313829,-0.139592,-0.050870,-0.038921,0.020133,-0.206158,0.201201,0.392414,-0.134817,-0.112716,0.029895,-0.015911,-0.200135,-0.276236,-0.060425,-0.152594,-0.086155,-0.098081,0.386541,-0.118056,0.350817,-0.134261,0.469071,-0.178582,0.043508,0.226771
-0.213317,-0.171367,-0.105173,-0.055795,-0.244298,-0.035290,0.618069,-0.122767,0.159286,0.249383,0.196845,-0.080925,0.057806,-0.126330,-0.136576,0.282788,-0.409662,0.114193,-0.093478,-0.052121,-0.056799,-0.331617,0.057275,-0.285686,-0.092068,-0.048619,-0.264953,0.390841,0.455900,0.070909,-0.311854,-0.017636,0.492649,-0.107639,0.083151,-0.084492,0.392562,0.105693,0.209699,-0.241905,-0.495786,0.034605,-0.036453,-0.072705,-0.246358,0.123425,-0.308288,-0.421575,0.540543,0.014624,0.237846,-0.016764,0.137269,0.439716,-0.117305,-0.266663,-0.341474,-0.033745,-0.355346,-0.102978,0.292516,-0.246593,0.222215,-0.195768,0.243428,-0.102183,-0.053405,-0.306033,-0.068306,0.390030,-0.176227,0.358679,-0.139458,-0.133219,-0.107233,0.147808,0.000528,0.077109,-0.199021,-0.245711,0.258461,0.105314,-0.163203,0.073748,0.372400,0.208584,-0.332875,-0.185661,-0.369683,0.262614,-0.170133,0.179566,0.345497,0.131377,-0.073803,-0.153931,-0.056576,-0.093837,0.094580,0.095840,0.092572,-0.055217,-0.091814,0.264517,-0.030873,-0.385146,-0.086829,0.084683,-0.357445,-0.262274,0.395665,-0.102140,-0.368612,0.374475,-0.254038,0.161598,-0.091931,0.479576,0.014403,0.027555,-0.137693,-0.115189,-0.016384,0.299413,0.070267,0.090078,0.138788,-0.216902,-0.120154,-0.438435,-0.318551,-0.005032,0.333302,-0.156095,-0.022631,0.351914,0.171019,0.530390,-0.309316,-0.249574,-0.380471,0.637504,0.019598,-0.021888,0.326377,-0.118790,-0.182534,-0.049857,0.012601,0.535763,0.393685,-0.103178,-0.194873,0.073431,0.306521,0.389062,-0.154431,-0.129879,0.199119,0.186041,-0.124406,-0.003072,-0.102745,0.151344,0.150416,-0.142014,-0.055676,-0.158642,-0.001752,-0.227560,-0.120150,-0.588929,-0.116676,-0.243615,-0.407116,0.162060,-0.354704,0.133044,0.042700,0.281354,0.023333,-0.046286,-0.367162,-0.063842,-0.445424,0.182114,0.098310,0.498849,0.286533,-0.315344,-0.066457,-0.213688,-0.168627,-0.166987,-0.014993,0.117190,0.026460,-0.336576,-0.040668,0.103201,0.210310,-0.007476,-0.260307,0.272266,0.053356,-0.148530,0.061697,0.353438,-0.228997,-0.427063,0.212398,0.199714,-0.129276,-0.059961,-0.148089,0.072572,0.501801,-0.139675,0.017020,0.157339,0.112631,0.273809,0.347634,0.130134,0.646289,-0.216546,0.526826,0.057181,-0.032774,-0.074485,-0.208467,0.397348,-0.041746,0.202150,-0.128371,0.070528,-0.321371,0.278849,-0.156568,0.402051,-0.012842,-0.087358,0.007230,-0.007568,-0.120316,-0.132040,0.095949,0.398712,-0.016097,-0.351600,0.827453,-0.115972,-0.418498,-0.075772,-0.195231,0.105676,-0.133029
0.477723,0.092594,0.373507,-0.106770,-0.011234,-0.294574,-0.280253,-0.190221,0.352835,0.048748,0.392916,-0.068249,-0.058281,-0.043530,-0.429663,-0.382834,0.159347,-0.378264,0.222116,-0.112736,0.069295,-0.469507,-0.064608,-0.080740,0.425783,-0.002442,0.043921,-0.097236,0.529113,-0.162700,0.108209,0.201357,-0.193092,0.441251,-0.111096,-0.181643,-0.228209,-0.051375,-0.105568,-0.197899,0.011633,0.121512,0.212795,-0.166173,0.459238,-0.018273,-0.455943,-0.123214,0.132779,-0.210339,0.051593,-0.010448,0.031011,-0.224272,0.018346,0.007905,0.272325,-0.098283,0.112462,-0.080462,0.666832,0.215291,0.369180,0.223855,-0.108844,0.177617,-0.298282,0.103668,-0.215599,-0.276997,-0.022304,-0.139082,-0.025737,0.124888,-0.057958,-0.119300,0.066033,-0.306963,-0.279978,-0.343815,-0.241662,-0.123260,0.001594,0.201521,0.562552,0.005102,-0.083816,0.123491,-0.027479,-0.206627,-0.175290,0.113511,-0.298990,0.012356,0.273496,-0.294654,0.303250,-0.217462,0.306110,0.056267,0.179696,-0.297350,-0.450438,-0.053158,0.023722,0.211677,0.227959,-0.009370,0.497896,0.162719,-0.466638,0.474672,0.442054,0.267392,0.184676,-0.035219,0.041071,0.233983,-0.057341,0.270629,0.221922,-0.484308,-0.055694,0.283331,-0.073390,0.205091,0.477630,-0.254654,0.484249,-0.303231,-0.046666,-0.495492,0.343940,0.014390,-0.141432,0.108083,0.234712,-0.037068,0.225013,-0.017725,0.439320,-0.221357,-0.048377,-0.036874,-0.497602,0.033791,0.497992,0.044781,-0.098886,0.452008,-0.277691,-0.036610,0.336494,0.395172,-0.099170,-0.046728,0.257803,0.211889,0.139136,0.109627,-0.295188,-0.038559,0.534964,-0.120596,-0.186398,0.052035,0.142677,-0.127844,-0.355887,-0.141765,-0.111953,-0.021044,-0.023863,0.355540,-0.022165,0.075695,-0.116842,-0.096977,-0.082875,-0.216233,-0.034552,0.154383,0.280851,-0.280023,-0.253786,0.286484,0.418372,-0.066162,-0.284335,-0.254564,-0.109076,-0.037609,0.240177,-0.058885,-0.217623,0.149874,0.091678,0.210979,-0.265222,0.504106,0.257281,-0.070749,-0.148149,-0.136642,0.231223,-0.188946,0.059707,-0.124900,0.008138,-0.355218,-0.124232,0.079540,0.225199,0.045972,0.225109,0.090013,-0.136464,0.227292,0.277543,-0.453714,-0.205000,-0.155362,0.039443,-0.332728,-0.413761,0.234102,-0.003310,0.131296,0.291271,-0.029621,0.240405,-0.167778,-0.046343,-0.378697,0.408756,-0.024539,0.365490,-0.032659,-0.099973,0.003416,0.114763,-0.454887,0.046251,-0.158072,0.217024,-0.196061,-0.185998,0.227048,-0.228344,-0.104716,-0.019716,0.499475,-0.057025,0.637831,-0.094913,-0.133057,0.514488
-0.307483,0.398122,0.097923,0.562378,-0.288324,0.115149,0.342903,0.263252,0.006462,0.048335,0.157804,-0.163039,0.059957,-0.095761,-0.031063,0.517067,-0.287134,0.096520,0.533586,-0.090526,-0.249292,0.112803,-0.249102,0.226690,0.012460,-0.294915,-0.002922,-0.398064,0.127509,0.043126,0.221447,-0.106438,-0.172795,-0.036898,0.353394,0.283384,0.565230,0.348920,-0.131265,-0.322828,0.036391,-0.100620,-0.075094,-0.005724,-0.208139,0.487863,-0.057920,0.067453,-0.162137,0.314624,0.332560,0.275764,0.096463,0.119650,-0.162878,-0.150215,-0.452287,0.057470,-0.144444,-0.251782,0.071124,-0.456064,-0.273461,-0.118849,0.362507,0.029509,-0.175743,0.294892,-0.009977,0.358463,-0.006057,-0.084874,0.029692,-0.028105,-0.486287,-0.206341,-0.066862,0.530709,0.000389,-0.461850,0.431054,0.304511,-0.168903,-0.133030,-0.202314,0.102784,0.027829,0.157059,-0.213760,-0.561001,0.128169,-0.084326,0.159360,0.154894,-0.127479,0.392366,0.100289,-0.090303,-0.365846,-0.056586,-0.072752,0.654440,0.084745,-0.099958,-0.284545,-0.380428,-0.047910,0.388558,-0.141140,0.174645,-0.322155,0.015965,0.210519,-0.092653,0.139663,-0.138129,0.274881,0.417600,0.203260,-0.222647,0.111848,-0.186276,0.206368,0.281417,-0.226154,0.092431,0.455251,-0.133120,-0.056084,-0.387399,-0.169246,-0.004809,-0.117701,-0.175773,-0.283852,0.289897,0.213428,0.076164,-0.083764,-0.075742,-0.054430,-0.378293,-0.143605,-0.314385,0.326179,0.001323,0.150298,-0.292067,-0.030859,-0.177241,0.099768,0.283718,-0.129202,-0.086697,0.107516,-0.257544,0.144434,-0.242629,-0.213405,0.204430,-0.125324,-0.254044,-0.170171,-0.201147,-0.555145,0.016691,0.370458,-0.104086,0.113991,-0.086672,-0.042090,-0.183527,-0.287674,-0.374506,-0.009487,-0.212389,-0.182099,0.016106,-0.190949,-0.058970,-0.006136,-0.016254,-0.168459,-0.261721,0.188429,-0.331496,0.284249,-0.209155,0.025877,-0.289246,0.022755,-0.206597,-0.031241,0.088706,0.156390,0.012832,0.094841,-0.199332,0.206721,-0.018207,-0.047047,-0.067282,-0.062047,0.547045,-0.112802,0.289116,0.153919,0.479765,-0.062656,0.015890,0.167789,-0.103796,-0.132670,0.017356,-0.107556,-0.230684,-0.206178,-0.385442,-0.125354,0.221532,-0.211654,-0.029794,-0.038692,0.326254,0.053583,-0.044169,-0.113478,0.078543,-0.192246,-0.065281,-0.137645,-0.176963,0.019015,0.043906,-0.076029,0.517505,-0.145264,-0.018155,-0.191226,0.117440,-0.201183,-0.085114,-0.011215,0.096945,0.316956,-0.183578,-0.002868,0.139869,-0.322764,-0.165852,0.106884,0.194644,-0.129026,-0.235289,0.298562,-0.090774,0.308985
-0.311036,0.013574,-0.097819,-0.080443,0.064395,0.608978,0.066670,0.228994,0.285551,-0.153697,-0.016066,-0.046092,-0.267311,-0.037438,0.152755,0.180395,0.190610,-0.358529,0.196664,-0.165927,0.340102,0.079864,-0.278450,-0.219808,0.149026,0.024503,0.171513,-0.347696,0.032161,-0.180618,-0.006710,-0.388492,-0.033638,0.088454,0.186804,-0.004682,0.099923,-0.080818,0.008192,0.249247,0.075649,-0.187287,-0.156176,0.000186,0.023815,0.342569,0.067781,-0.024285,0.100764,0.002344,-0.100095,0.042578,0.188355,0.125041,0.486894,0.258379,-0.072244,-0.106971,-0.008905,-0.148465,-0.340415,-0.036986,-0.130274,-0.126067,0.122098,-0.017085,0.120169,-0.129475,0.355636,0.026316,0.106223,0.226192,-0.065032,0.031774,0.167726,-0.477645,0.132891,0.256584,0.069888,0.411078,0.099883,0.216522,0.077174,0.610056,-0.189144,0.568013,0.450551,0.455139,-0.065685,0.085502,0.190311,-0.294280,0.121884,0.353527,0.080957,-0.295858,-0.340652,0.199413,0.293718,-0.039259,-0.218960,-0.257263,-0.334356,0.149567,0.319684,0.057094,-0.105867,-0.012986,0.372537,-0.215295,0.182015,-0.196538,-0.012597,0.152074,0.267774,0.630650,-0.141429,-0.001994,0.192369,0.598682,0.325430,0.217210,0.111901,-0.173753,0.097671,-0.294446,-0.404870,0.405229,-0.134547,0.171438,0.192929,-0.077008,0.157695,0.323145,-0.186633,0.457789,-0.111498,-0.028033,-0.208707,0.029219,0.120471,-0.199651,0.111740,0.097026,-0.056750,-0.271050,-0.532311,0.130107,0.239306,-0.068195,-0.200655,0.010700,-0.181203,-0.355082,0.175585,0.343638,-0.100547,0.136547,0.390035,0.195714,0.209033,0.043807,0.061219,-0.378944,-0.106900,-0.187724,-0.381023,-0.015801,0.362551,-0.274921,0.236259,0.140454,0.217202,0.208996,0.267760,0.474735,0.098199,-0.129600,0.429803,-0.148312,0.026923,-0.221052,0.092034,0.198927,0.043670,0.039063,-0.104060,-0.172692,0.238544,0.487463,-0.011109,-0.018737,-0.111131,-0.323585,0.269619,-0.145605,0.159949,0.216928,-0.099312,0.312216,-0.024541,-0.003388,0.413636,0.471847,0.021072,0.034007,-0.503716,-0.635914,-0.000381,0.057732,-0.192005,-0.045523,-0.097456,-0.492703,0.195262,-0.200364,-0.249703,0.110307,-0.098388,-0.438697,-0.314884,-0.205063,-0.310913,-0.208697,-0.139020,0.046422,-0.116597,0.120622,-0.225004,-0.027887,0.015744,-0.280754,-0.020766,-0.033998,0.112777,0.348736,0.142027,-0.188664,-0.306925,0.177923,-0.393688,-0.172445,0.005773,0.189663,0.271058,-0.022831,0.029763,0.201454,0.157536,0.480602,0.194477,0.461072,0.014511,0.083063,0.008162,0.034371,0.822195
0.354306,-0.024892,-0.204278,-0.258330,0.333914,0.107038,0.064417,0.036575,0.022990,0.270979,-0.167477,0.001146,0.091280,0.008288,-0.043297,-0.232857,0.405260,0.022288,0.043454,-0.305744,0.136295,0.281367,0.612861,0.063181,-0.139154,-0.061306,-0.031795,0.005938,-0.183837,-0.302042,0.259630,-0.078624,-0.015016,0.411593,-0.233688,0.236782,-0.227771,0.223080,-0.123003,0.162721,0.232819,0.626974,0.235777,-0.206624,0.285371,-0.007499,0.255781,0.125311,-0.053065,0.245389,-0.315572,0.578411,-0.348176,0.350810,-0.240753,0.051682,0.162349,-0.363943,-0.196270,-0.455235,-0.074049,-0.064520,0.439302,0.268138,-0.620527,-0.089805,0.077593,0.167355,-0.201949,-0.356846,-0.400670,-0.081026,0.082763,-0.054080,-0.095039,0.060432,-0.096365,0.283565,-0.263895,0.086963,-0.391173,0.038063,0.315244,-0.097465,0.206349,0.073182,-0.188134,-0.375542,0.272483,0.038855,-0.274985,0.368840,0.220981,-0.051999,-0.122047,-0.008607,0.365602,-0.038467,-0.225214,-0.183734,-0.040306,-0.217680,0.189036,0.100179,-0.049826,-0.259184,0.225254,-0.189521,0.377248,0.504785,0.157449,0.034026,0.009970,-0.031450,0.023318,-0.033253,0.284445,0.183284,-0.497362,0.085329,0.278971,-0.154527,0.123118,0.231218,-0.176863,-0.104467,-0.281167,-0.311950,0.161570,-0.401826,-0.021560,-0.178402,-0.090004,-0.069486,0.007759,0.042967,0.423702,-0.199856,0.118673,-0.183908,0.015427,0.013870,0.014214,-0.152227,-0.260735,-0.148471,-0.014071,0.034018,-0.240004,-0.120840,0.459355,0.327117,-0.081457,0.312383,-0.155606,-0.142451,0.019901,0.475485,0.073540,0.093521,-0.007194,0.638392,0.286284,-0.237713,-0.127222,-0.188368,0.139760,-0.037125,-0.334774,0.239269,-0.083102,0.031518,0.366840,-0.172790,0.251144,-0.036641,0.182206,-0.132406,0.128995,-0.103482,-0.244143,-0.234145,0.464701,-0.245245,-0.273015,0.338985,0.055234,0.111209,-0.518390,-0.143711,-0.121389,-0.293107,-0.208888,0.371843,0.090262,0.071547,0.249863,0.049303,-0.055668,0.083352,-0.235941,-0.138910,-0.111216,-0.248583,0.103238,-0.163413,0.097448,0.287556,-0.037053,0.352638,0.230971,0.162354,0.316451,0.167518,0.070427,0.528208,-0.312680,0.074481,-0.213683,0.454261,-0.136520,-0.195326,0.135388,-0.271767,-0.298046,-0.125018,0.061769,-0.243820,-0.121261,0.072269,0.468326,0.223005,0.057590,0.144650,-0.010870,0.051680,0.221554,0.213913,0.284584,-0.340621,-0.050783,-0.171298,0.125985,-0.085592,-0.305138,0.256406,0.882182,-0.435230,-0.404430,-0.261852,0.032041,-0.281742,0.335894,0.069806,0.043729,-0.025274,-0.376858
0.239176,-0.070794,-0.289662,-0.421752,0.285683,-0.150195,0.094226,-0.072692,0.063970,0.234402,-0.232425,-0.119486,-0.184961,-0.040877,0.385678,-0.026392,-0.177895,0.046606,-0.259986,0.111473,-0.082900,-0.263186,0.417981,-0.337313,-0.244347,-0.060899,0.151472,0.167668,-0.193734,-0.329315,0.190615,0.123242,-0.119691,0.535491,-0.336313,-0.275753,0.110813,-0.232857,0.350646,0.078428,-0.368403,0.546361,-0.042339,-0.250960,-0.375763,0.242650,0.280178,-0.205262,0.074414,0.207577,0.292693,-0.207792,-0.016163,0.063330,-0.039671,0.001706,-0.007356,-0.133073,-0.270752,0.422281,-0.257145,-0.180657,0.148829,-0.242102,-0.023652,-0.057836,-0.102101,-0.024746,0.223280,0.106413,0.450531,-0.141392,-0.081067,0.214593,-0.006130,0.153365,-0.380903,-0.197345,0.027341,0.117938,0.308872,0.057883,0.155059,0.308499,-0.274617,-0.381370,0.018004,-0.229084,0.373250,0.405699,0.085394,0.359971,-0.255493,-0.281764,-0.105066,-0.107328,-0.185469,-0.006272,-0.236877,0.084534,-0.195227,0.009119,0.117853,0.090773,0.125137,-0.181003,-0.069336,-0.135866,0.147012,0.313917,0.308386,-0.024235,-0.353148,0.093705,-0.448962,0.033583,-0.104355,0.258374,-0.375984,0.103310,-0.276579,0.222290,0.225777,0.033045,0.102757,0.155728,-0.079965,-0.163562,0.147325,0.276136,0.171720,0.342486,0.109051,-0.124453,-0.043889,0.064363,0.281486,-0.100371,0.036402,-0.052475,-0.146220,-0.284860,0.258805,0.134779,0.008507,0.068792,0.017600,-0.162828,0.154938,-0.012188,-0.116762,-0.216150,0.347618,0.225148,-0.054320,0.183397,-0.276270,0.457944,-0.118108,0.240107,0.192080,-0.127809,-0.003987,0.331016,0.109442,-0.167435,0.018815,-0.138643,-0.140599,0.022178,-0.110739,-0.333633,0.253300,0.370884,-0.185798,-0.017674,-0.060666,-0.007537,-0.144769,-0.271260,-0.147946,-0.199424,0.338214,0.430609,0.005370,0.282623,-0.153055,-0.171726,-0.089828,0.089271,0.321440,0.000426,0.236064,0.456259,0.415382,-0.353254,0.252731,0.330777,-0.346571,-0.319463,-0.063122,0.067026,0.518844,-0.265334,-0.121375,-0.369070,0.300234,0.206814,-0.276519,0.084887,0.311014,0.258052,0.321700,0.160772,-0.177376,0.546798,-0.340898,0.091920,0.040706,0.172594,0.126020,0.046156,0.358761,-0.274217,-0.098875,0.721308,-0.347896,-0.275503,-0.330668,0.339357,0.634618,-0.151086,-0.357926,-0.168049,0.209931,0.665169,0.080483,0.015961,-0.141426,-0.144244,-0.104838,-0.112576,0.062107,-0.062375,-0.010594,-0.211922,0.135710,-0.374238,-0.029173,0.029361,0.061895,-0.174106,0.262053,0.140117,0.072356,-0.112371,-0.355800
0.109131,0.022957,-0.089077,-0.244147,-0.195077,0.503432,-0.150704,0.296980,-0.030295,-0.110342,-0.139148,-0.220781,-0.094902,-0.306132,-0.416499,0.171570,-0.016078,-0.150430,0.194547,0.218922,0.209254,0.370847,-0.298830,-0.244380,-0.160396,0.777909,0.129581,0.038036,0.006414,-0.037125,-0.120399,-0.194846,0.413436,-0.101278,0.329420,0.123749,0.139209,-0.188720,0.151460,-0.135677,-0.237679,-0.032936,0.021785,-0.198628,0.255290,0.182509,0.048695,0.121583,0.642084,0.236402,0.003578,-0.333071,0.268918,-0.040725,0.100731,-0.096513,-0.056027,-0.042712,0.007055,0.009593,0.037460,-0.170436,-0.224530,-0.158013,0.128859,-0.104022,-0.105335,-0.119046,0.121816,0.100298,-0.133500,-0.242413,0.275579,-0.168387,-0.152733,-0.344626,-0.195859,0.337718,0.316566,0.157323,0.312870,0.165367,0.244025,-0.012736,-0.067827,0.166030,-0.201443,0.405418,0.152833,0.086143,0.064508,-0.130538,0.132569,0.308979,0.380738,-0.423383,-0.141924,-0.084818,-0.372969,-0.008361,-0.403970,-0.074166,-0.446552,0.245258,-0.055388,0.244130,0.111455,-0.489648,-0.100649,-0.161444,-0.051087,-0.131430,-0.107054,0.098206,0.158886,0.118724,-0.238449,-0.022054,0.091885,-0.001476,-0.050179,0.233884,-0.311370,-0.065469,0.565628,-0.359088,-0.153907,0.030530,-0.215410,0.103877,0.117144,0.616352,-0.027979,-0.017665,-0.033268,0.524345,0.337265,-0.137924,-0.219706,-0.154624,-0.166602,0.147732,-0.268724,0.019125,-0.074883,-0.397014,0.017142,0.101384,-0.182967,-0.015353,-0.115546,-0.464474,-0.323882,-0.216301,0.136280,-0.025652,-0.125012,-0.363230,0.167108,-0.214003,-0.131834,-0.236614,0.120111,-0.243457,0.014077,0.173133,-0.061987,-0.041379,0.354836,-0.254642,0.159471,0.189442,-0.291090,-0.087621,-0.094765,0.452660,0.040158,-0.311838,0.029118,0.124501,0.102449,-0.265098,-0.119323,0.261734,0.206976,0.117505,-0.320935,0.615125,-0.183974,0.044369,-0.030315,0.377161,-0.209206,-0.284825,-0.316327,0.068667,-0.296939,-0.090347,-0.106255,-0.219602,-0.160354,-0.039020,0.111449,-0.213495,-0.267592,-0.174233,-0.212797,-0.501720,0.377479,0.418617,-0.571672,0.128209,-0.163961,-0.069688,-0.107493,-0.013660,-0.173512,0.026969,0.043468,-0.434636,-0.171011,-0.040526,0.254540,0.488728,0.068834,0.082912,0.232948,0.051003,-0.165565,0.096260,-0.179869,0.310623,0.468392,-0.110537,-0.185133,0.005649,0.186802,-0.170167,-0.259677,0.313837,-0.072402,-0.089177,-0.029317,0.286983,-0.342544,-0.059503,-0.219344,0.041678,0.445950,0.213079,0.053378,0.367917,0.064678,0.054656,0.597757,0.255027,-0.072189
-0.251221,0.060910,-0.113468,0.079897,0.265522,-0.371495,-0.014785,-0.003466,-0.119969,-0.222786,-0.331517,0.200721,0.266864,-0.140342,-0.084009,0.444162,-0.030994,-0.082514,-0.142811,0.334058,-0.048234,0.483152,0.290707,-0.321016,-0.036868,-0.077360,0.061995,0.436373,-0.300730,-0.005151,-0.211179,0.028266,0.257538,-0.317511,0.179813,0.422376,-0.348040,-0.084293,0.294746,0.062916,0.370757,0.453542,-0.145782,-0.102970,-0.167382,-0.043741,0.249697,0.161563,-0.204769,-0.065102,-0.133222,-0.203524,-0.055420,-0.102581,-0.003602,-0.332729,-0.099945,-0.161078,0.164828,0.003195,-0.011180,0.279986,-0.365760,-0.129318,0.509454,0.026301,-0.003960,0.104489,0.190190,-0.207610,-0.080656,0.559657,-0.048444,-0.047441,-0.047642,0.541247,-0.267349,0.124607,0.085078,0.098081,0.059486,0.092163,0.045481,-0.435911,0.017081,-0.215889,-0.050456,-0.123335,-0.104989,0.511242,-0.025044,-0.068272,0.095371,0.200201,-0.065475,0.032612,0.171065,-0.037603,-0.274870,0.220644,0.771120,0.101594,-0.274996,-0.076900,0.002165,0.333257,-0.009322,0.258959,-0.406156,0.036632,-0.135467,0.609210,-0.203652,0.233884,-0.333481,0.073731,-0.254685,-0.004419,0.066378,0.404687,-0.049480,-0.189072,-0.067991,0.103722,-0.316938,-0.101048,-0.292819,0.270216,-0.119519,-0.467109,-0.239001,0.560587,0.055137,-0.198464,0.092209,0.232695,-0.051867,-0.050535,-0.183231,-0.140475,-0.238339,0.481167,-0.404437,-0.018891,-0.215268,-0.137885,-0.198815,-0.042567,0.406118,-0.134366,-0.018815,0.188933,-0.074232,0.472089,0.149622,-0.291009,-0.171653,-0.338383,-0.071073,-0.144525,-0.068087,0.063217,0.239000,0.449292,-0.016816,-0.074105,-0.179682,0.343930,-0.050396,-0.043551,0.259761,0.274241,0.423975,0.162688,-0.296898,-0.278259,0.014958,-0.076656,-0.048745,-0.005880,-0.120611,-0.063496,-0.173058,-0.194894,0.156287,0.407798,0.095350,0.149386,-0.185101,0.225233,0.646069,0.307393,-0.120854,-0.150353,0.070090,-0.170428,-0.270351,-0.045130,-0.208779,-0.362824,0.179821,0.257154,-0.301292,-0.282411,0.267282,-0.354924,0.141565,0.254514,0.574360,0.135344,0.356247,-0.144500,0.013938,0.148098,-0.115656,-0.042386,0.059772,-0.201333,-0.317716,0.084743,0.627344,0.239346,0.169307,-0.071007,0.193320,-0.105776,0.049618,0.019826,-0.369864,-0.126476,-0.233127,0.118476,0.338471,0.169123,-0.013349,0.021890,-0.198148,0.309092,-0.581523,0.236253,-0.047265,-0.134346,-0.051050,-0.277613,-0.096784,-0.144623,-0.208957,-0.054963,0.157793,0.099968,-0.005259,-0.073204,0.576454,-0.103930,-0.090114,-0.106760,-0.869689
0.298644,0.259731,-0.144930,-0.113652,-0.095263,0.205571,-0.045923,0.096577,-0.189619,-0.282735,0.186021,0.454322,-0.152935,0.171905,0.202989,-0.124889,0.187997,-0.244692,0.153584,0.637571,-0.162734,-0.308850,-0.084211,-0.095282,-0.035046,-0.212459,-0.045192,-0.084208,0.294927,-0.138024,-0.281710,-0.119144,-0.023678,-0.364162,0.032219,-0.360325,-0.102113,0.060605,-0.049540,0.028501,0.068158,-0.166069,0.037005,-0.172001,-0.196833,-0.195505,-0.007736,-0.400702,-0.331586,-0.111569,-0.193713,-0.294600,0.006700,-0.374206,-0.210937,0.449270,0.051722,-0.114333,0.041986,0.038390,-0.125629,-0.134629,-0.253187,0.390629,-0.210742,-0.071078,0.065069,-0.045650,-0.270786,-0.151862,0.743077,-0.140805,0.227206,-0.319805,0.540878,0.055902,-0.127166,-0.331868,0.102847,-0.201479,-0.218078,0.052821,-0.105714,-0.158447,-0.032945,-0.285542,-0.032123,0.310502,0.455877,0.243356,0.057664,-0.157521,-0.142954,-0.127493,-0.046710,0.127881,-0.099031,-0.222164,0.367420,0.088165,-0.088117,-0.024878,-0.317276,-0.189040,0.038174,-0.012876,-0.060330,0.194393,-0.011699,-0.128524,-0.042887,-0.125622,0.018877,-0.244749,-0.267470,-0.341246,-0.074422,-0.049376,-0.360363,-0.113234,0.047850,0.257808,-0.321173,-0.029188,-0.553373,0.087225,0.068226,0.401755,-0.249488,-0.193171,0.166820,0.236303,-0.267773,-0.167592,0.728189,-0.237782,-0.144006,-0.008614,-0.283118,0.486451,0.662306,-0.222632,-0.000159,-0.018456,0.460794,-0.130446,-0.188425,-0.060912,0.218191,-0.039723,0.104868,-0.265162,-0.376130,-0.113706,-0.205693,0.099738,-0.172630,-0.017362,-0.048015,0.153504,-0.032444,-0.017114,-0.239177,-0.383981,-0.067547,-0.377518,-0.146764,-0.251112,0.226187,0.062092,-0.079413,-0.511992,-0.180917,0.033183,-0.118536,0.028151,-0.157076,-0.034784,0.011802,0.061654,0.512381,0.345352,0.253795,0.459521,-0.071244,0.105778,0.353585,-0.404072,-0.143717,-0.050230,-0.003400,-0.032179,-0.134343,-0.161926,0.233382,0.329161,-0.216248,-0.085957,0.043046,0.182505,0.031099,-0.011623,0.009859,-0.305030,-0.250428,0.170169,-0.346602,-0.067048,0.067184,0.484697,-0.145695,-0.281530,-0.075732,-0.172152,0.088808,-0.006424,-0.139064,0.450358,0.122510,-0.199767,0.040042,-0.505282,-0.104228,-0.178359,-0.126782,0.033834,-0.086818,-0.223888,0.080507,0.249225,-0.157624,-0.070383,-0.249412,-0.388483,-0.461157,-0.170713,-0.278093,-0.124207,-0.095094,0.019087,-0.048484,-0.339488,-0.000277,0.357046,-0.285835,0.013590,0.042801,-0.190263,-0.324639,0.413049,-0.111938,0.130508,-0.024608,0.052075,-0.048419,0.296754,-0.751003
-0.102936,-0.438193,-0.149694,-0.099050,-0.084862,0.347106,-0.065111,-0.194438,-0.459330,-0.167882,0.139607,0.047057,0.213428,0.172590,0.127556,-0.186940,0.522369,-0.012848,0.055601,0.727469,0.435920,0.186411,0.148685,0.217388,-0.282838,0.411043,-0.000649,-0.079020,-0.387316,-0.311487,-0.051069,-0.033535,-0.233291,-0.157439,-0.473340,-0.361521,-0.113218,0.345435,0.180067,0.273487,-0.046072,-0.215980,0.038740,-0.052982,-0.320199,0.004510,-0.006775,-0.136700,-0.427994,-0.049969,-0.094735,0.232498,0.114450,0.076256,0.052498,0.206263,0.100846,-0.188362,-0.210722,-0.237923,-0.116441,-0.099093,-0.034044,0.236183,-0.043556,-0.076255,-0.099549,0.011278,-0.071314,-0.261984,0.014694,-0.156689,0.095046,0.436128,-0.316135,-0.120672,-0.108091,0.309460,-0.288231,0.136576,0.188440,-0.367607,-0.062423,0.521006,0.010987,0.347233,-0.014148,0.308950,-0.066475,-0.220703,0.372085,-0.161834,-0.132478,-0.376926,-0.252784,0.411998,-0.169923,-0.100908,0.144542,-0.182485,-0.105678,-0.128366,-0.109642,-0.090691,0.225862,0.510593,0.301769,-0.011658,0.190650,-0.237191,-0.084569,0.267201,-0.052083,-0.017414,-0.070127,0.380357,-0.045289,-0.296014,0.388811,-0.281492,0.142063,0.333857,-0.187574,0.063071,0.055092,0.034358,-0.002802,0.265268,-0.357198,-0.403194,0.285628,0.008246,0.046570,-0.192201,-0.121199,-0.345184,-0.029137,0.021812,-0.232046,-0.046002,0.607271,0.433372,0.061049,-0.233866,0.449027,-0.215517,-0.036914,-0.030791,-0.081248,-0.386586,-0.448452,0.129670,0.036936,-0.134931,-0.360434,-0.006556,0.158019,-0.046587,0.216237,-0.116583,-0.068520,-0.045391,0.066140,-0.382272,0.269093,0.419630,-0.163719,0.265329,0.293372,0.115164,-0.231433,0.511660,0.157276,-0.144230,0.200498,0.177295,0.160154,-0.061538,-0.175252,-0.082498,0.081732,0.171705,-0.217548,0.288036,0.276629,-0.112741,-0.240450,0.091803,-0.108792,-0.153000,-0.008406,0.357136,-0.184281,0.291003,0.208416,-0.357413,-0.587234,-0.042939,-0.107447,-0.033995,-0.033190,0.126958,-0.122729,-0.229053,-0.296743,0.332984,0.032632,-0.215939,0.396914,0.063922,-0.100152,-0.047946,-0.181900,-0.242871,0.213910,-0.031247,-0.013906,0.148236,0.153134,-0.083875,0.280701,-0.423223,0.004810,-0.310873,-0.291564,0.490717,-0.067304,-0.621817,0.048550,-0.197470,-0.080471,-0.012193,0.030112,-0.039907,0.471457,0.081117,0.164721,-0.046491,-0.222910,-0.044784,-0.475465,0.460373,0.000584,-0.078841,-0.295078,0.397280,-0.010992,0.197038,0.400294,0.183121,-0.277509,-0.185658,-0.057384,-0.333877,-0.090607,0.526857,-0.145069
-0.005191,0.173178,-0.029602,0.292984,-0.075745,-0.086382,-0.401950,-0.113174,-0.061294,-0.211055,0.381998,-0.309767,0.163292,0.055051,0.202837,-0.126961,-0.152137,-0.000960,-0.033886,-0.121541,0.168029,0.140019,-0.224609,0.123712,0.103362,0.068507,-0.135269,-0.171847,0.317948,-0.164703,-0.048518,-0.114668,-0.043390,-0.248684,-0.056358,-0.131802,0.031091,0.311650,0.024196,0.366279,0.019015,-0.196996,0.577172,0.080850,-0.098442,-0.180607,-0.028083,0.268606,-0.122220,-0.039269,0.547388,0.456631,0.009798,-0.078048,0.026371,-0.211609,-0.479117,-0.025671,-0.036132,0.111309,-0.480448,-0.317634,-0.170028,-0.053144,-0.090126,-0.044716,0.120925,-0.326775,-0.211617,-0.119402,-0.019066,0.051246,-0.229817,-0.072868,-0.170263,0.177140,0.112879,-0.054988,-0.159693,0.039823,-0.343836,0.012969,0.224404,0.534463,-0.216212,-0.127297,-0.307831,0.304870,0.089255,0.001604,0.483909,-0.054016,-0.001723,0.016401,0.095453,0.011958,-0.651300,0.100608,0.054076,-0.049219,-0.084168,-0.207419,0.424887,0.042801,-0.289446,-0.416457,-0.073775,0.056764,-0.384298,0.452479,0.181027,-0.040987,-0.066590,-0.156954,0.592862,0.067219,-0.029138,-0.166407,0.180374,0.125607,-0.175058,-0.238583,0.351564,-0.115108,-0.053155,-0.193978,-0.070850,0.289450,-0.287921,0.258398,-0.324554,-0.184706,0.035983,-0.288925,-0.000156,-0.459431,-0.234112,-0.107388,-0.079043,-0.510691,-0.242678,-0.033147,0.389699,0.321353,0.160801,0.321234,-0.029970,-0.117334,-0.172272,0.030309,-0.166036,0.484379,-0.148996,-0.269081,-0.109859,0.247933,-0.360231,0.002901,0.570584,0.240384,-0.153179,-0.092485,-0.116575,-0.143827,-0.370986,-0.066246,0.389083,-0.192729,0.265717,0.338939,-0.245002,0.372636,0.420315,0.113146,-0.068080,0.188214,-0.114873,-0.034535,-0.128788,0.125785,0.145092,-0.061503,-0.021447,-0.329517,-0.273311,-0.153487,-0.131008,-0.263212,0.510354,0.236891,-0.011002,-0.247021,-0.100232,-0.163481,-0.044447,-0.419930,0.187810,-0.119814,0.176318,-0.280876,-0.032314,-0.165808,0.021280,0.473351,-0.338671,0.375652,0.354753,-0.026516,0.223573,0.193363,-0.278456,-0.547924,-0.138947,0.030321,-0.114385,-0.063646,0.005876,-0.095519,-0.111072,0.176670,-0.020028,-0.044446,-0.175992,0.111791,0.034785,-0.131270,-0.095025,0.252922,0.235442,0.191771,-0.037260,-0.065140,-0.071604,-0.253658,-0.188052,0.185743,-0.055451,-0.232435,0.020953,-0.350981,0.395725,-0.074205,-0.000441,0.230712,0.014615,-0.283000,-0.015033,-0.096801,0.121115,-0.279492,0.309899,-0.011205,-0.202126,0.439649,-0.273414,0.342297,0.466534
0.023429,-0.237134,0.219028,-0.200304,-0.096082,-0.116626,-0.215191,-0.162267,0.251376,-0.127466,0.112638,-0.137623,0.012469,0.313202,0.294079,0.105168,-0.131487,0.163039,0.594527,-0.124453,0.397215,-0.158227,-0.058600,0.011153,0.212845,-0.100169,-0.169910,0.081177,0.582898,-0.254844,0.671892,0.066789,-0.003864,0.147468,0.449892,-0.123188,-0.105667,-0.222993,-0.304333,0.124380,-0.038327,-0.120057,0.116930,0.325414,0.393539,0.205838,0.073993,0.169617,-0.092087,0.342153,-0.205542,0.169273,-0.094780,-0.257669,0.433310,0.124514,-0.165577,0.062934,0.020784,0.002797,0.233551,0.157263,0.401016,-0.233379,0.388050,-0.087105,0.216766,0.397947,0.257416,-0.417576,-0.001988,0.009280,-0.122413,0.190670,0.080264,0.041624,0.284993,-0.072216,-0.108508,-0.126397,-0.260754,-0.275511,0.114135,0.091176,0.013797,0.040012,0.212186,-0.153134,-0.055798,-0.093796,-0.110131,0.160428,-0.099982,-0.149917,-0.154811,-0.010225,-0.274511,0.729175,0.000072,0.012831,-0.041363,-0.023588,0.000394,-0.110057,-0.199994,0.286423,-0.226831,0.150541,0.039578,-0.048109,-0.438847,0.279258,0.549221,-0.473061,-0.054144,0.106501,0.279833,0.239928,-0.360863,-0.369510,0.442680,-0.060997,-0.171756,-0.010116,-0.116761,0.216323,0.027744,0.212447,-0.221215,-0.054969,0.209394,-0.224585,-0.293667,0.213684,-0.036283,-0.011551,-0.033338,-0.171998,0.114280,-0.398006,-0.260184,-0.143502,0.011475,-0.013451,-0.378641,-0.130128,0.328045,-0.094992,-0.058215,-0.213479,-0.150256,-0.099679,0.202565,0.225903,-0.257006,-0.142632,0.211937,0.137519,-0.033425,-0.153982,-0.141810,-0.096995,-0.086372,0.492818,-0.101010,-0.215221,-0.210717,0.190711,0.052540,0.248468,-0.089837,0.317359,-0.036998,0.610958,0.213008,-0.171919,0.029003,-0.120012,-0.161916,-0.143736,-0.227277,0.099258,0.002107,-0.110336,0.482795,0.201131,-0.189679,-0.169131,-0.070446,-0.090793,-0.008756,-0.305769,-0.050550,-0.191685,0.071577,0.042603,-0.065512,0.270779,0.094071,0.509616,-0.103002,0.109620,0.104583,0.057749,0.079189,-0.063632,0.015927,0.233658,-0.223208,-0.117828,-0.102023,-0.024683,0.142623,0.018048,0.387936,0.150179,-0.196870,0.087374,-0.458422,-0.169127,-0.034618,0.326589,-0.348405,-0.034196,-0.500678,0.182767,0.305022,0.397165,-0.151459,-0.206174,0.030853,-0.097545,-0.267960,-0.331947,-0.360428,-0.242410,0.038871,-0.093790,0.278543,0.542487,0.494335,-0.160132,0.012134,-0.092275,0.107852,-0.072807,0.048000,-0.487841,-0.212967,0.098454,-0.035400,0.151461,-0.214299,0.499604,-0.245283,-0.218493,-0.437075
0.025916,0.068598,-0.128394,0.011549,0.209241,-0.164522,-0.062252,-0.110489,-0.459945,-0.127440,-0.066481,0.173910,0.236309,-0.030819,0.000424,0.350838,-0.185394,0.043383,-0.239081,-0.013784,-0.245774,-0.210796,-0.064601,0.023807,-0.044353,0.044277,-0.059628,0.640913,-0.015871,-0.337468,0.704523,-0.094685,-0.214109,-0.189113,0.005364,-0.087950,0.482916,0.756230,-0.440436,0.361951,-0.163538,-0.164203,0.247147,-0.120276,-0.058318,-0.252910,-0.138004,0.382966,-0.267850,-0.059006,-0.096684,-0.109723,-0.074683,0.106592,0.084225,0.122494,-0.565993,0.106544,0.139266,0.004872,-0.034382,0.383556,-0.167407,0.351455,0.307775,0.030958,0.418796,0.222092,0.348353,-0.088744,0.036971,0.441973,0.317652,-0.145901,0.095456,-0.170335,-0.012395,-0.209954,0.140492,-0.013050,0.008035,0.112475,-0.409192,0.216760,-0.096665,-0.346341,-0.121632,-0.304033,-0.168195,-0.334127,-0.160614,0.033797,0.300376,0.035966,-0.042114,-0.015527,0.225024,0.210886,-0.028006,-0.019404,0.314188,0.371370,0.625635,0.287042,-0.214165,-0.158231,-0.014127,0.141465,-0.809820,0.447737,0.269867,0.021391,-0.221584,-0.106336,0.179982,-0.389021,-0.101494,0.185766,0.301960,0.248556,-0.240041,-0.236090,0.614699,0.505555,-0.134141,0.287952,0.299094,-0.127235,0.048587,-0.328536,0.156996,-0.263194,-0.090409,0.628298,0.032147,-0.106662,-0.170917,0.008697,-0.016734,-0.218328,-0.158661,-0.185785,0.208084,-0.055633,-0.361385,0.355464,-0.548313,0.105690,0.014410,-0.168928,-0.190762,0.088495,-0.052374,0.041340,-0.066716,-0.075022,-0.299917,-0.333804,-0.045456,-0.350858,-0.205986,-0.261994,-0.098749,0.499818,-0.310932,-0.273927,0.027202,-0.002848,-0.285836,-0.108523,-0.076551,0.160623,-0.244637,0.034380,0.126153,-0.131140,0.076842,0.116377,-0.234537,-0.298010,-0.278173,-0.278123,0.017603,0.046182,-0.332398,-0.209104,0.109404,-0.297208,0.424375,-0.298474,0.183561,-0.124102,-0.167318,-0.498614,-0.458279,0.074465,0.435419,0.186346,0.019749,-0.322437,-0.019435,0.147198,-0.370686,0.424807,0.011130,-0.136644,-0.071029,-0.205903,-0.088622,0.034918,-0.036052,-0.154917,-0.179742,0.418318,-0.056061,0.028348,0.693152,-0.294347,-0.033052,0.304786,-0.014705,0.047680,0.148140,-0.307234,-0.085394,-0.115329,-0.203202,-0.092353,0.700315,-0.222467,-0.045272,-0.038487,-0.064617,0.514869,-0.033823,-0.428587,0.072938,0.154962,0.416504,-0.248806,0.287615,-0.175022,-0.007022,0.406507,-0.253074,-0.200848,-0.038633,-0.353422,-0.182869,-0.053493,-0.224281,-0.250127,0.206191,-0.015669,-0.077856,0.244609,-0.167128
-0.203866,-0.204517,-0.069864,-0.330709,-0.058625,-0.426737,-0.106629,0.022437,0.077521,0.044122,0.339461,-0.138870,0.131498,0.004184,0.507903,-0.382084,0.311816,-0.012163,0.091639,-0.092220,-0.076538,0.157530,0.274951,-0.173048,0.434032,-0.370512,0.024677,-0.330909,0.058282,0.168864,-0.124071,-0.125311,-0.066730,-0.119173,0.209509,-0.160375,0.005186,0.089831,0.219372,-0.227440,0.027459,-0.110562,-0.233069,-0.158183,-0.219368,-0.326237,-0.037350,0.205308,-0.292542,-0.039858,-0.251419,-0.257477,0.486922,0.208816,0.382359,0.261173,-0.375700,0.088948,0.105332,0.022698,0.439662,0.071468,-0.507379,0.392078,-0.099168,-0.119917,-0.184841,0.145922,-0.163261,0.441811,-0.187093,-0.270806,-0.177185,0.226880,-0.178486,-0.013903,0.431791,-0.191964,-0.018500,-0.078855,0.101766,-0.250191,0.302274,-0.308817,-0.124027,0.477337,0.000491,0.259766,-0.141420,-0.137820,0.116060,0.086979,-0.077637,0.075872,-0.024958,0.412596,0.011900,0.009404,-0.157934,0.052107,-0.081591,-0.167763,0.089000,0.477175,-0.212905,0.166136,-0.083585,-0.095620,0.212675,-0.007898,0.119105,-0.287204,-0.070057,0.078625,-0.042532,0.041264,0.015111,-0.027862,0.366167,-0.219224,0.159313,-0.121232,-0.156550,-0.023415,0.025380,0.067464,-0.280527,0.122933,0.183901,-0.277001,0.395119,0.141338,0.063933,-0.202789,0.055457,0.447171,0.072839,0.057212,-0.093798,-0.073033,0.197152,0.445223,0.330336,-0.022491,0.029300,0.062193,-0.411926,-0.089173,0.053683,0.166048,-0.073222,0.044935,0.387385,-0.312596,0.367276,0.422297,-0.031401,0.205309,0.012444,-0.308552,-0.042226,-0.062242,0.278687,0.144039,-0.326759,-0.104753,-0.290860,0.031590,0.148583,-0.149883,-0.184871,0.348543,0.084374,0.046203,0.146246,-0.383805,0.251363,-0.119592,-0.000462,0.586099,0.143663,-0.078864,-0.099702,-0.121988,0.239756,-0.309453,0.094522,-0.312013,-0.082001,-0.348654,-0.014682,0.293496,0.096137,-0.159158,-0.046493,0.067293,0.217284,-0.103521,-0.153934,-0.274308,-0.028129,-0.089321,-0.158140,-0.176837,-0.281599,-0.157257,-0.227355,-0.033477,-0.028564,-0.156054,0.059061,0.131445,0.079526,-0.009808,-0.200304,-0.066307,0.116851,-0.261255,0.167120,-0.342394,0.441948,-0.190623,0.031247,-0.032896,0.268765,-0.302378,-0.068947,0.492265,-0.308683,-0.348786,-0.092578,-0.133838,0.670804,-0.022626,-0.228517,-0.061674,-0.158021,-0.089825,-0.185053,0.171701,0.001700,0.093164,-0.021104,-0.433476,0.288884,0.524389,-0.021320,0.104325,0.217904,0.046518,-0.326422,0.272272,-0.162510,0.182833,-0.085675,-0.140027,1.223874
-0.034865,-0.136963,-0.213085,0.349543,0.402850,-0.173063,0.420886,-0.205931,-0.099584,0.183791,-0.481717,-0.184953,-0.082130,-0.109615,-0.183998,0.091227,0.155677,0.447115,-0.156840,-0.086403,0.008378,0.414436,-0.091515,-0.058227,-0.079087,-0.108665,0.041985,0.176148,0.023023,-0.092194,0.265958,0.243071,-0.173298,0.136181,-0.155285,-0.314630,-0.389710,-0.044010,-0.302773,-0.399288,-0.171195,-0.300372,-0.147814,-0.153873,-0.025476,0.050587,-0.354989,-0.181610,0.263909,0.359332,-0.395684,0.081367,0.011389,-0.353176,0.080051,0.240596,0.384081,0.101321,-0.222660,0.296867,-0.326000,0.217213,0.187105,-0.030970,0.064641,0.443377,0.215051,-0.130986,-0.037623,0.618552,-0.092125,0.103869,0.209058,-0.113935,0.007906,-0.440531,-0.008865,-0.075507,-0.332801,-0.196878,-0.123784,0.238175,0.036489,-0.152740,-0.170302,0.119776,0.524952,-0.294735,-0.252163,-0.057650,-0.149182,0.118087,0.085971,0.289399,-0.297243,-0.407033,-0.047498,-0.257197,-0.184246,0.164250,0.288912,0.075770,-0.115612,0.130316,0.067875,-0.014769,0.075041,-0.248760,0.253957,0.080636,-0.438049,-0.126882,-0.123602,0.226317,-0.083713,-0.048135,0.190133,0.056394,0.099463,-0.084485,0.163134,0.419114,-0.188983,0.234108,-0.020827,0.058856,-0.398647,-0.296689,-0.453633,-0.158844,0.061113,-0.052709,0.141150,-0.286264,-0.040903,-0.043216,0.180627,0.183605,-0.261970,-0.106416,-0.087310,-0.155996,0.132104,0.202842,-0.011171,-0.206025,0.313874,-0.181216,-0.229201,-0.049627,0.063935,-0.170630,0.185644,0.341070,0.424338,0.069406,0.098056,-0.241026,0.145736,0.372432,0.254457,0.231598,-0.273399,0.044742,0.311219,0.042068,0.063980,-0.109539,-0.377898,-0.230853,-0.003775,-0.137160,-0.174530,-0.134590,0.054756,0.478415,0.426503,-0.019975,0.435152,0.350344,-0.276209,0.045559,0.232357,0.109281,-0.035917,0.404419,-0.041096,-0.288513,0.032710,-0.150611,-0.137775,-0.301639,0.044865,0.132534,-0.065876,0.268353,-0.447620,-0.204141,0.088686,-0.161804,0.083660,-0.134659,0.177987,-0.197482,0.106065,-0.143387,0.350236,0.414215,-0.007428,-0.370725,0.449574,-0.255999,-0.148330,-0.112109,0.104275,-0.177388,0.431191,0.141627,0.094933,0.343106,-0.239213,0.230543,0.385233,0.469814,-0.412663,0.628003,-0.198860,0.303771,-0.218419,-0.214562,0.266849,0.067283,-0.041805,-0.017131,-0.114275,0.413508,-0.044559,-0.332976,0.055997,-0.317482,-0.061685,0.072732,-0.031466,-0.380896,0.096368,-0.048815,-0.227658,0.406589,0.113286,0.043505,-0.309235,-0.149142,-0.323164,-0.481371,0.198614,0.104317,1.051121
0.267044,-0.081541,0.483427,-0.071420,0.048500,-0.293595,-0.147727,0.256738,0.479778,0.294845,-0.025173,-0.013520,-0.045835,-0.039679,-0.342144,-0.109110,-0.261716,-0.005190,-0.206714,-0.351884,-0.180883,-0.216993,0.326540,0.403850,-0.017082,-0.180387,-0.089773,0.154514,0.036217,0.091110,-0.181162,0.242395,-0.233226,0.450265,-0.173857,0.271009,0.059918,-0.090856,0.425869,-0.307394,0.155970,0.452263,-0.161786,0.450678,0.579944,0.277545,0.054086,0.457631,-0.023886,-0.062014,0.050855,-0.091026,0.039099,0.258329,-0.431789,0.077539,0.250501,0.288777,0.177050,-0.081479,0.006199,0.403165,0.320061,0.109330,-0.264216,0.270060,-0.041172,0.044139,-0.428558,-0.352720,-0.096405,-0.038516,-0.281247,0.152755,0.351213,0.235602,0.342095,0.197182,0.186504,-0.055272,-0.169233,-0.135937,-0.080350,-0.034983,0.024419,-0.057861,-0.237115,-0.066351,0.129419,-0.237572,-0.093482,-0.117242,-0.181487,0.050846,-0.385071,0.046412,0.168368,0.041185,0.486921,-0.077067,0.344716,-0.121082,0.082689,-0.022810,-0.144202,-0.451760,0.558087,0.192935,-0.245443,0.159180,-0.292709,-0.262608,0.151855,0.161709,-0.015329,-0.222692,0.176343,-0.301167,-0.318982,-0.042940,-0.004958,-0.108938,-0.276831,-0.049076,0.395126,0.141242,0.094282,0.209273,0.091163,-0.160847,-0.009885,-0.102392,0.287641,0.055166,-0.089718,-0.391774,-0.284278,0.072909,0.566965,0.299464,0.035399,0.322109,-0.083478,0.115351,-0.240718,0.093772,0.450222,0.021212,-0.186071,-0.007138,0.139773,0.127765,0.121662,0.195438,-0.344400,-0.100515,0.035605,-0.012410,-0.216576,-0.053299,-0.165674,0.218538,-0.047907,0.100977,0.080794,0.366288,-0.156741,0.011235,-0.233017,-0.230405,-0.192440,0.320414,0.039615,-0.089246,0.133768,0.158346,-0.181322,0.368926,-0.082059,0.313710,-0.134744,0.295658,-0.068245,-0.232067,-0.070859,-0.103758,-0.031423,0.149782,-0.215467,-0.229802,0.147536,0.061443,0.519811,0.073632,-0.360287,0.397951,-0.020565,0.189304,-0.114480,0.147034,0.329781,0.401971,-0.012329,-0.194580,0.150308,-0.255271,-0.244013,-0.136093,0.049106,-0.134551,0.103125,0.192902,-0.020861,-0.009240,-0.222549,-0.160280,0.274408,-0.193873,0.172559,0.035189,0.261073,-0.091456,-0.232933,-0.158407,0.277354,-0.469045,-0.192033,-0.161282,0.123786,0.291489,0.580067,0.224053,-0.288700,-0.269095,0.388762,-0.059183,-0.004885,0.152040,0.298589,0.269681,-0.031257,0.502010,0.006986,-0.209066,-0.218836,0.398579,-0.058415,-0.064134,-0.076332,0.203218,-0.177566,-0.148205,-0.314482,-0.357840,0.472559,-0.128219,-0.276153
0.236461,0.232785,-0.000477,0.125313,-0.123347,0.633617,0.152821,0.184530,-0.302685,-0.028089,-0.107608,0.010049,0.039917,0.343067,0.017200,-0.076921,0.134953,-0.160214,-0.068101,0.007887,-0.081262,-0.013863,-0.191465,-0.002142,-0.008009,-0.122141,0.057568,-0.080460,-0.179560,0.396561,-0.299228,0.024736,-0.109554,-0.028879,0.091291,0.171956,-0.122246,0.167196,0.221816,0.168266,0.565180,-0.114054,-0.052487,-0.129517,-0.175884,0.112471,-0.008475,-0.082076,0.415387,-0.279884,0.571536,-0.088551,0.354928,0.131533,-0.109677,-0.273545,-0.046845,-0.074424,0.394730,0.066996,-0.256608,-0.242897,-0.139363,-0.122929,-0.303416,-0.101877,0.143235,-0.046477,-0.072389,-0.041379,-0.117411,0.027581,-0.106441,-0.292717,0.127245,0.171737,-0.240536,0.055641,0.210358,-0.206819,0.057239,0.389727,0.018085,0.469811,-0.299643,-0.291792,0.079326,0.151085,0.524439,-0.160786,0.557528,-0.179508,0.060635,0.389625,0.172458,0.264231,-0.031294,0.202850,0.307841,-0.114228,0.013968,-0.043871,0.050436,-0.180978,0.250352,0.113360,-0.026041,0.010722,-0.081236,-0.060827,0.162783,-0.096199,-0.214554,-0.196325,-0.178173,-0.010785,-0.000048,-0.073891,0.108723,-0.122510,0.049076,0.218082,-0.010187,-0.124724,-0.338452,-0.057745,0.061255,0.180899,0.150104,0.295423,0.106195,0.036337,-0.258089,0.048561,0.029916,-0.411021,-0.114566,-0.047767,0.011502,0.247159,0.168866,0.011015,-0.422330,0.183105,-0.061244,0.289355,-0.099994,0.369837,0.125715,0.237815,0.062444,0.261490,-0.056554,-0.236055,-0.211005,-0.198093,0.118175,0.357267,-0.061624,-0.497788,-0.062825,-0.229971,-0.073519,-0.123614,0.218505,0.016626,-0.237742,-0.032702,0.255623,0.143320,0.352763,-0.342552,0.002944,-0.298399,-0.256309,-0.310296,-0.105635,-0.076361,-0.137658,0.093005,0.001191,0.136067,0.166407,-0.140435,0.104222,-0.072730,-0.114511,-0.212408,0.156560,0.188982,-0.051014,-0.035825,0.161517,-0.145785,0.211573,-0.275453,0.194335,-0.228631,0.288486,0.197418,-0.124120,-0.112426,-0.087486,-0.108431,0.119221,0.327188,0.166571,-0.329504,-0.234390,0.023812,-0.119239,0.065892,0.049552,-0.002377,0.274053,-0.003230,-0.120418,-0.081191,-0.112630,-0.116085,0.147957,0.234573,-0.294437,0.187675,-0.246811,0.017841,-0.033570,0.065134,-0.100251,0.027333,-0.195115,0.166966,-0.381573,-0.089229,0.012729,-0.080137,-0.034719,0.074156,-0.115019,-0.314389,-0.293950,0.505202,-0.007854,0.325989,-0.036425,-0.048867,-0.087658,-0.218404,-0.058557,0.165529,-0.196268,0.384617,-0.104358,-0.291816,-0.019766,0.064419,0.170512
-0.065041,0.042982,0.232481,0.089040,-0.031126,-0.270248,-0.127241,-0.056577,-0.180540,-0.172851,0.219183,-0.039997,-0.062231,0.045255,0.213594,-0.113140,0.242324,-0.130417,-0.113390,0.137296,-0.295689,-0.119598,-0.120346,-0.033945,-0.279919,0.345136,0.158680,-0.079748,0.200557,-0.069980,-0.493920,-0.082450,-0.037116,-0.004636,-0.144120,-0.385733,0.103730,0.017396,0.086161,-0.279949,-0.248482,-0.180622,0.327368,0.680914,0.145178,-0.452376,-0.094206,0.078236,-0.154176,-0.264288,-0.093669,-0.291661,-0.138384,-0.252126,-0.153361,0.025801,0.300006,0.658819,0.248477,0.174591,0.035542,0.103060,0.094476,-0.065139,0.084546,0.333813,-0.428413,-0.066909,0.082392,-0.125805,-0.086086,-0.100678,-0.099304,0.368953,0.531000,-0.107721,-0.086985,-0.136306,0.188294,0.238690,0.205858,0.048272,0.138563,-0.511480,-0.110947,0.048066,-0.095341,-0.037455,-0.037519,-0.027161,-0.035443,-0.081486,-0.071198,0.041551,0.310038,0.251082,-0.089547,0.011235,0.182674,0.027085,-0.241764,-0.191487,-0.090693,-0.275996,0.093236,0.159940,0.033466,0.372946,0.117672,0.026093,-0.202015,-0.045506,-0.196266,-0.329770,0.145590,-0.166671,-0.125304,-0.017589,-0.276016,-0.343619,-0.358084,0.352743,-0.097104,-0.059968,0.188654,0.212140,-0.159598,0.058373,0.087507,0.148941,-0.113288,-0.162826,-0.049453,0.581163,0.050349,-0.023443,0.202232,-0.085628,0.369713,0.175983,-0.488049,-0.188072,-0.218157,-0.032053,-0.273037,0.068314,-0.115688,-0.000240,-0.109745,-0.040470,0.085919,0.346048,-0.070138,0.269095,0.002171,-0.140425,0.217407,0.071748,-0.388111,-0.015015,-0.012655,0.084540,-0.108445,-0.412256,0.225522,0.340831,-0.246704,0.521631,0.170536,0.212725,-0.026835,0.206412,-0.010512,0.058570,0.080706,-0.215654,-0.117111,-0.047123,0.100032,-0.296155,0.227915,0.473948,-0.103648,0.324034,0.119246,-0.423269,0.409391,-0.122127,-0.000464,0.693013,-0.006699,0.028285,0.157266,-0.031308,-0.299475,0.414012,-0.141244,-0.096430,0.264832,0.080016,-0.062789,-0.136021,-0.333703,0.394439,0.346778,-0.088515,-0.361582,-0.117052,-0.106235,-0.419174,-0.184012,-0.062368,-0.388018,-0.007788,-0.174670,-0.050763,-0.120516,0.027776,0.535432,-0.120901,0.244990,0.224868,-0.217248,-0.218573,-0.151110,-0.171717,-0.143589,-0.119989,0.298795,-0.031300,-0.463016,-0.028826,-0.053750,0.357012,0.349010,-0.209288,0.121170,0.094573,-0.096867,0.150747,0.303229,0.388378,-0.001309,-0.066758,0.346511,-0.080514,-0.079218,0.259851,-0.073744,-0.262210,0.083789,-0.362883,0.123134,-0.053208,-0.422758,-0.144240,0.926882
-0.179730,0.050665,-0.201135,-0.056713,-0.039419,0.042861,-0.254233,0.166134,-0.017733,-0.125361,0.368433,0.126185,-0.121722,-0.149536,0.121118,-0.072952,-0.027739,-0.033232,-0.077560,-0.118885,-0.030369,-0.043394,-0.088233,-0.136446,-0.016568,0.661933,0.134202,-0.049448,-0.228157,0.013920,0.038088,-0.008235,-0.109972,0.350734,-0.171138,-0.130446,0.458792,0.035683,-0.420554,0.326241,-0.201815,-0.076751,0.606819,0.764919,-0.152554,-0.218710,-0.006187,-0.196537,-0.126105,-0.224044,-0.030256,-0.200494,-0.085323,-0.142899,0.207330,-0.177876,-0.162787,-0.018539,0.719812,0.429932,-0.170644,-0.256688,0.168662,0.374552,-0.292675,-0.097198,-0.110584,-0.020849,-0.083663,-0.072544,-0.419476,-0.031582,0.050817,0.224038,0.178388,-0.035037,0.011561,-0.152258,-0.117032,-0.234378,-0.174504,0.056739,-0.131365,-0.271157,-0.015595,-0.325932,-0.018630,0.069289,-0.153645,-0.154262,-0.107804,-0.112283,-0.045692,0.008740,-0.106017,-0.016653,-0.030115,0.054499,0.244720,-0.148978,-0.054329,-0.040630,0.403979,-0.086545,0.219577,-0.104479,-0.111280,0.009438,-0.202282,0.075465,0.492332,-0.211535,-0.073524,-0.158653,-0.181706,-0.193150,0.006649,-0.042058,-0.199531,-0.105379,-0.194786,0.345727,-0.086722,0.026426,0.307446,0.070942,0.165185,0.209075,-0.221000,0.120662,0.048731,-0.144031,0.042708,0.066981,0.331593,-0.161366,0.020109,-0.065908,-0.105816,0.324174,0.254405,-0.129018,0.116611,0.068022,-0.100255,0.034566,-0.075214,-0.009881,0.117316,-0.289416,-0.197186,-0.181644,0.078012,-0.182157,-0.050420,-0.132005,0.018865,-0.154214,-0.245135,-0.101041,-0.021462,-0.169042,-0.188412,-0.237952,0.348741,0.413709,-0.035005,-0.325685,-0.298435,0.390680,0.445252,-0.099052,-0.243670,0.071841,-0.112029,0.037709,-0.184228,-0.036975,-0.036519,-0.173957,0.574977,-0.175679,-0.069547,-0.066059,-0.058532,-0.144115,-0.099149,0.088174,-0.100413,0.295291,-0.001211,0.499277,-0.027163,-0.094473,0.104079,0.195600,-0.025689,-0.120087,0.406957,-0.065685,-0.094521,0.100776,0.003510,-0.156280,0.013699,0.209118,-0.319088,-0.118170,-0.091799,0.142367,-0.041036,0.070612,-0.101846,-0.152803,0.113874,-0.002170,-0.046878,-0.102067,0.366713,-0.212910,-0.036381,0.126681,-0.102101,-0.202103,-0.085073,0.013452,0.005148,-0.082837,0.371963,0.305882,-0.063790,-0.014090,0.123298,-0.029536,-0.128493,-0.036042,-0.274388,0.157050,-0.024497,0.021484,0.575310,0.364193,-0.000200,0.489215,-0.061980,0.078200,-0.000686,-0.218863,-0.144305,-0.124443,-0.415590,-0.024956,-0.124693,-0.229849,-0.060619,-0.030262,-0.639507
-0.381481,0.008622,-0.160044,-0.116714,-0.393123,0.326050,0.273259,0.011145,-0.262570,0.283873,-0.196425,0.158421,-0.278922,-0.097790,-0.332133,0.092941,0.267468,0.131938,-0.162868,-0.178450,-0.129349,0.172872,0.398265,0.328285,-0.102097,-0.113859,0.030054,-0.065006,-0.201774,0.459057,-0.444180,0.392189,0.297893,-0.103760,0.444868,0.461348,-0.048023,-0.171179,-0.113321,0.010542,-0.329761,0.068512,-0.147986,0.266120,-0.017995,0.013027,0.559030,-0.255182,0.347256,0.290320,0.370017,-0.112177,-0.223263,0.003665,-0.327660,-0.133332,-0.175837,-0.135258,-0.180756,-0.230453,0.019774,0.168335,0.101704,-0.151143,-0.007821,-0.133633,0.081118,0.016049,-0.329138,0.162314,0.346374,-0.169443,0.219459,-0.089901,-0.214375,-0.069076,0.141973,-0.238654,0.343767,0.414369,0.364273,-0.010685,-0.003358,-0.450896,-0.360330,0.136738,-0.057565,-0.085560,-0.003892,-0.260528,-0.008682,0.064393,-0.208624,-0.728553,0.462942,-0.460723,-0.107608,-0.072971,-0.504155,0.112805,-0.303602,0.061997,0.770167,-0.064679,0.021271,0.257792,-0.351331,-0.221759,0.277780,-0.464798,-0.128580,0.450810,-0.109206,0.354558,-0.178786,0.240676,0.071601,-0.292124,-0.386794,0.078877,0.027682,-0.069039,-0.158060,-0.100808,0.602874,-0.450617,-0.157794,-0.518548,-0.061323,0.315804,-0.167970,0.442955,-0.095794,-0.150422,-0.075068,-0.036134,0.048626,0.258377,0.215436,-0.147512,-0.542519,0.346700,-0.001483,-0.032118,-0.015393,0.148828,0.216097,0.034333,-0.108308,0.219728,0.150365,-0.206789,-0.012083,-0.057725,0.091864,-0.013963,-0.019736,-0.143174,-0.296593,-0.033513,0.388734,0.305569,0.328738,-0.301895,-0.020549,-0.158713,-0.067149,0.092146,-0.486567,0.166553,0.236899,-0.285771,0.068614,-0.476902,-0.171632,0.385139,0.261517,-0.450446,0.052496,-0.101092,-0.062485,-0.140863,-0.410366,0.342723,-0.273035,-0.029991,-0.208879,0.460598,0.401333,-0.055319,-0.356219,-0.020346,-0.251891,0.552113,-0.497774,-0.467145,0.142933,0.149657,-0.207701,0.205508,-0.191460,-0.103756,0.303385,-0.485486,-0.124280,-0.219643,-0.121162,-0.239159,-0.128052,-0.446675,0.136400,-0.018229,-0.092901,0.147883,-0.258218,-0.098909,-0.205860,-0.019229,-0.091828,0.413035,-0.266122,0.162124,0.385046,0.180965,0.121498,-0.166845,-0.019232,-0.244401,-0.006128,-0.160585,-0.094718,0.232702,0.164794,-0.007295,0.054842,-0.280889,0.124717,0.251904,0.221183,0.119001,-0.101145,0.039187,0.053673,-0.052010,-0.137566,-0.031665,0.323890,0.301498,0.283052,-0.072891,-0.006621,-0.153510,0.207492,-0.388181,0.339635,-0.045779,0.284180
-0.234110,0.168487,0.376534,-0.006674,0.013829,-0.000336,-0.211819,-0.163834,0.321948,0.113916,-0.451276,0.045309,0.094120,0.053612,0.049652,-0.030833,-0.207851,-0.111893,-0.103012,-0.371173,-0.030113,0.168390,-0.164654,0.077801,0.068878,-0.046765,-0.316515,-0.348257,-0.313732,0.450742,0.821432,0.148607,-0.045654,0.098694,-0.453470,0.416703,-0.246359,-0.213894,-0.085098,0.105230,-0.202856,-0.108413,-0.259868,-0.017704,0.331233,-0.007409,-0.300316,-0.116679,-0.113094,-0.045544,-0.289452,0.329814,-0.257486,0.145188,0.023949,-0.482954,0.373846,0.627396,-0.005685,-0.051260,-0.105897,0.442440,-0.156938,-0.087703,0.183380,0.362932,-0.036859,-0.333099,0.397381,-0.144881,0.074989,-0.372406,-0.100143,0.063281,0.187788,0.236597,-0.171624,0.352715,0.479777,0.310444,-0.225146,-0.296846,-0.131847,0.066467,0.079482,-0.185614,-0.082688,-0.278783,-0.152293,-0.019760,-0.254950,-0.131713,-0.183622,0.112319,-0.211835,0.158395,-0.133453,0.017564,0.063933,-0.042483,-0.205586,0.161792,-0.440545,-0.477278,0.180555,-0.229393,0.117023,0.232426,0.132603,0.357247,0.078140,0.010962,0.309047,0.328222,-0.076372,0.096842,-0.153426,0.085058,-0.099683,0.150955,-0.114213,0.141605,-0.065487,-0.155750,0.279404,0.021899,0.162678,-0.211023,-0.140605,-0.264304,-0.119240,-0.077651,-0.002459,0.605551,0.111415,-0.414368,-0.330892,0.296102,0.596605,0.239689,0.087015,-0.192395,-0.077136,0.019721,0.167688,-0.078727,0.195106,-0.100714,0.018197,0.159901,0.186951,0.128487,-0.114540,0.010456,-0.145168,-0.082499,0.273735,-0.178435,-0.159223,-0.178581,0.104985,0.488110,-0.226618,0.319245,0.281328,0.497540,0.009149,0.286955,-0.008321,-0.276692,0.097101,-0.349027,-0.317287,-0.186299,-0.186309,0.061423,-0.368857,0.513347,-0.219286,-0.088562,-0.335726,0.197463,-0.050041,-0.030282,0.405454,-0.035684,0.138001,0.200289,-0.288348,0.457294,-0.099916,0.027502,0.432002,0.242776,0.366893,0.093200,0.037862,0.223886,0.217885,-0.043404,0.514975,0.028040,-0.021926,0.203675,0.272117,-0.138676,-0.027546,-0.098491,-0.061314,-0.124116,0.001086,-0.297231,-0.060305,-0.207610,-0.260090,-0.084070,-0.259002,-0.138772,-0.168099,0.028351,-0.303294,-0.034915,-0.277944,0.095365,-0.121888,-0.171510,-0.060602,-0.147408,0.150377,0.033695,0.268084,-0.121300,0.062494,0.332295,0.311906,-0.280380,-0.043803,-0.012017,-0.006475,-0.538496,-0.043850,0.002153,-0.008384,0.000704,0.401554,0.291453,-0.118745,0.406612,-0.151483,-0.058574,0.048007,0.029003,0.193359,-0.197395,-0.128236,-0.288472,-0.710188
0.033274,-0.072247,-0.003309,0.183403,-0.333502,-0.308986,-0.166223,-0.227443,-0.437052,0.381168,-0.101960,0.323954,-0.022996,-0.099479,-0.126771,-0.338013,-0.332073,0.442000,-0.187299,0.022262,-0.033783,-0.389619,-0.145792,-0.384767,0.064943,-0.079907,-0.214558,0.489352,-0.395175,0.358317,-0.501902,-0.000956,0.117028,-0.442749,-0.166980,-0.250474,-0.314792,-0.101500,-0.128812,-0.220715,0.390392,-0.232822,-0.214803,-0.087801,-0.188689,-0.347268,0.510968,-0.099910,-0.153791,-0.117736,-0.420609,-0.197513,-0.148689,0.024421,0.059850,-0.144147,0.423955,-0.093529,-0.067856,0.061382,-0.187466,-0.178972,0.246505,-0.069899,-0.139264,-0.094277,0.243094,-0.093046,0.143401,0.190307,0.065359,0.007674,-0.165830,-0.007700,-0.037110,-0.023856,-0.265025,-0.387677,0.190626,-0.130884,-0.422060,-0.005713,-0.100513,-0.309076,0.163827,-0.162267,-0.164426,-0.315806,-0.048395,0.203772,-0.158597,-0.323785,0.589042,-0.307943,0.146982,-0.359021,0.070350,-0.063233,-0.261055,-0.066412,0.308696,0.086836,-0.006310,0.174619,-0.057283,0.135911,-0.226038,-0.119534,0.155007,-0.456970,0.386062,-0.101415,0.342288,-0.075304,-0.062621,-0.059820,0.447149,-0.509093,0.046226,0.496844,-0.311729,-0.057293,-0.101833,-0.004866,-0.001201,0.249551,0.209986,-0.261837,0.247149,-0.073894,0.044124,0.129127,0.089622,0.032067,-0.006930,0.236470,-0.117530,0.070676,0.142402,0.106595,-0.125181,0.186928,0.017677,-0.031621,0.066745,-0.122389,-0.364048,-0.018187,0.034371,-0.137182,0.431325,-0.342010,-0.080115,-0.122878,0.201180,0.151218,-0.022968,-0.352261,-0.169876,0.212389,0.260888,0.260932,-0.006690,0.395416,0.076435,-0.039881,0.262233,-0.071489,-0.018657,-0.158498,0.210939,0.127482,-0.279452,-0.086919,-0.177626,0.235988,-0.160370,0.371026,0.309621,-0.213009,-0.218448,-0.068432,-0.183905,-0.159917,-0.304366,0.088470,-0.472081,0.268668,0.255474,-0.148028,0.403313,-0.238498,-0.169042,0.497077,-0.036745,0.209693,0.214564,0.237360,-0.159077,0.115074,-0.028643,0.071034,0.649442,-0.075591,-0.016408,-0.052502,0.628165,0.262770,-0.080155,-0.262187,-0.195709,-0.222218,0.330279,-0.290907,0.018153,0.160587,0.575453,-0.233634,-0.420991,0.079852,-0.219440,-0.342621,0.128978,0.222206,0.702403,-0.252200,-0.130530,-0.175973,0.298202,-0.174888,-0.111444,0.274044,-0.095954,-0.122948,-0.142422,-0.133320,-0.298188,-0.262811,0.283744,0.011226,-0.027493,-0.013720,-0.001099,-0.050142,0.453409,0.063836,-0.168369,-0.127027,-0.052663,-0.263496,-0.358563,-0.347883,0.122545,-0.283865,0.007735,-0.033747,-1.182761
0.459037,0.100905,0.079706,-0.017929,-0.449336,0.154213,0.190804,0.334970,-0.680680,0.102751,0.132626,-0.389313,-0.428850,-0.222073,0.500409,-0.234244,-0.505598,-0.592107,-0.077781,-0.466023,0.299589,-0.640204,0.426384,0.149401,-0.086138,0.037643,-0.304471,-0.470102,-0.129865,0.404680,-0.315149,-0.243778,-0.001091,0.182467,-0.021870,0.094258,-0.143110,0.316531,0.179372,0.109829,0.280410,0.268882,0.003999,0.032661,0.412138,0.043937,-0.041585,0.364105,-0.387963,0.185064,-0.436562,0.023004,0.133821,-0.471686,-0.188665,0.036471,0.283267,-0.218508,0.440724,-0.384629,-0.157594,0.330701,-0.383812,-0.081012,0.317618,-0.124710,-0.212352,0.217068,0.065573,0.145650,0.401935,0.373619,0.349343,-0.066784,0.313220,-0.275976,-0.338840,0.049472,-0.313979,-0.371904,-0.064599,-0.510523,-0.538412,-0.449551,0.500040,-0.311544,0.209786,-0.341823,-0.348699,0.258526,0.139336,0.425537,-0.422915,-0.023815,0.406793,-0.067686,0.093746,-0.037700,-0.024150,0.222556,-0.386668,0.098961,-0.282387,-0.489272,-0.080232,-0.325866,-0.332671,0.103418,-0.349369,-0.162275,-0.260328,-0.282805,0.013504,0.331489,0.071589,-0.406090,0.331866,-0.153416,-0.685494,-0.410807,-0.305088,-0.071735,-0.060849,0.206719,-0.436283,0.570507,-0.654932,-0.464170,0.060435
0.208494,0.141844,0.425521,0.450677,0.400234,0.319391,-0.446471,0.237299,0.329727,-0.105341,-0.163670,0.047572,-0.251591,-0.382816,0.074336,0.179516,0.455685,0.393384,-0.272349,-0.018117,0.458658,0.426793,0.054503,-0.437769,0.193559,0.283411,-0.449749,0.046904,0.147129,-0.132124,0.422318,-0.875777,-0.597872,-0.277735,-0.196942,0.191192,-0.239612,0.044573,0.158419,-0.229798,-0.430520,0.101930,-0.481292,0.255092,0.208119,0.605356,-0.300756,-0.273277,0.497607,-0.483670,-0.299801,0.190264,-0.422232,0.457970,-0.491665,-0.321908,-0.261179,0.136886,0.434628,-0.193425,0.122855,0.090697,0.384608,-0.061149,0.203625,-0.186765,0.342883,0.013765,0.016037,0.393192,0.413101,0.413944,-0.141167,-0.175765,0.225581,0.417373,0.114125,0.369018,-0.178866,-0.464076,0.078083,-0.033515,-0.525049,0.095968,-0.464413,0.087117,-0.396826,-0.002341,-0.347671,-0.427289,-0.399242,-0.002390,0.061514,-0.199526,0.023454,-0.277518,-0.127701,0.079121,0.008033,-0.547225,-0.471091,-0.173497,0.203019,-0.070891,-0.592552,0.163983,-0.275758,-0.053726,0.281540,-0.356776,0.283006,0.345773,-0.042592,-0.047882,0.204773,0.107479,-0.406245,-0.454520,-0.160760,-0.314807,0.378278,0.320442,0.310376,-0.218429,-0.418652,-0.117699,0.667670,0.366797,0.381195
-0.377079,0.344706,-0.263062,0.116500,0.119362,0.293319,0.262623,-0.150124,-0.310227,0.278035,0.254799,0.361605,0.147625,-0.051072,-0.056338,0.092848,-0.245381,-0.415159,-0.377945,-0.584763,-0.242167,-0.327793,0.292348,0.236278,-0.387499,0.378529,0.222734,-0.267292,-0.444268,0.452689,-0.454517,0.428069,-0.026770,0.115510,-0.108987,0.365181,-0.572224,0.055542,0.129004,0.395965,-0.531839,0.143876,-0.342584,-0.106174,-0.198586,0.204169,0.193050,-0.289999,0.284170,0.157535,0.252931,-0.406746,-0.284005,-0.247243,-0.413904,-0.506005,-0.151450,-0.317953,0.122393,-0.381889,-0.086224,0.345052,-0.201933,0.283292,0.319927,0.360160,0.109668,-0.513534,0.280384,0.174812,-0.258714,0.163372,-0.100605,-0.426668,0.125069,-0.414907,0.277365,-0.048884,0.025268,0.486375,0.380638,0.033853,-0.297007,0.118358,-0.329150,0.304232,-0.451952,-0.428281,0.364496,-0.485281,0.258641,-0.161495,-0.126357,-0.109105,0.196378,0.364915,-0.271590,-0.140055,0.120210,-0.334521,-0.474340,-0.201210,-0.013974,0.126161,-0.041381,0.069799,-0.046862,-0.163393,0.449337,0.094251,0.157083,0.379157,0.176530,-0.288755,-0.378658,-0.325125,-0.430107,-0.121540,0.447376,-0.128899,-0.279553,0.360705,-0.044858,-0.124798,0.254765,-0.031177,0.257641,-0.588737,-0.033667
-0.140602,0.290232,-0.290978,0.441825,-0.003433,-0.355046,0.377370,-0.068762,-0.264397,0.350023,0.081204,0.474307,0.315287,0.235788,0.084401,-0.419030,-0.363278,0.056930,-0.115084,0.245558,0.236676,-0.221189,-0.072055,0.107773,0.398291,-0.106633,-0.201592,0.024920,-0.111199,0.388256,-0.433108,-0.997120,0.098598,-0.400024,-0.350146,-0.401964,0.240440,0.099893,-0.329764,-0.130252,0.200985,0.118315,0.405155,0.359228,-0.045795,0.445997,-0.164821,0.449325,0.049475,0.025635,0.008892,0.318373,-0.445587,0.206159,-0.008654,-0.012953,0.371914,0.007031,0.491831,-0.281233,0.691827,0.282915,0.019219,0.126992,0.011491,0.480119,-0.381737,0.031344,-0.155745,0.568749,-0.240740,-0.203751,-0.706687,-0.106871,0.259842,-0.015081,-0.319484,0.391856,-0.197544,0.247808,-0.475019,-0.634723,-0.222841,0.083920,0.001300,0.502586,-0.379249,0.110586,-0.366087,-0.451261,0.174147,-0.249431,0.325521,-0.211282,-0.320078,0.545723,0.195174,-0.053540,0.194749,-0.127050,0.337839,-0.199503,-0.599732,-0.342329,-0.872241,0.113808,0.101716,0.043388,-0.211766,0.215291,-0.080284,-0.260526,-0.462898,0.057335,-0.100777,0.390850,0.186505,0.283770,0.241794,-0.219972,-0.443495,-0.151611,0.065328,-0.101415,0.409839,0.024800,-0.448703,-0.110304,-0.461913
0.129583,-0.300849,-0.195876,-0.637909,0.170637,-0.415755,0.190924,-0.044261,0.060324,0.203127,0.225349,-0.337848,-0.583533,-0.263288,-0.080221,-0.354523,0.096193,0.233834,-0.219570,-0.462154,0.074460,0.381304,0.352042,0.373671,0.065954,-0.022299,0.316522,-0.167062,0.062637,-0.220779,0.079039,-0.497247,-0.288146,-0.425505,-0.325219,0.190091,-0.426176,0.179655,0.115017,0.259400,0.087093,-0.478990,0.353388,0.183503,-0.254560,0.351297,-0.068424,0.196719,-0.470520,-0.493656,0.451866,-0.135836,0.304317,0.398526,-0.447911,-0.278010,0.405894,0.453930,0.003016,-0.259656,-0.168401,-0.042958,-0.282057,-0.097150,0.122365,-0.261037,-0.402713,0.206693,-0.102963,-0.259245,0.048077,-0.436083,-0.028462,0.163519,-0.426803,-0.302931,0.132247,0.360398,0.271505,-0.196642,-0.328410,0.169924,-0.206167,-0.583992,0.144014,0.092188,-0.151122,0.336712,0.115331,0.205000,0.129225,-0.180571,0.038344,-0.665106,0.432225,0.144576,-0.046740,-0.111779,0.230756,-0.200852,-0.288217,-0.000923,-0.552219,0.296326,-0.686779,-0.234191,-0.104454,0.191302,0.210225,0.045436,-0.698042,0.347795,-0.386172,0.518457,0.234778,0.167056,-0.220508,0.327931,0.273315,-0.164680,0.179312,0.248016,0.487179,0.300549,-0.395151,-0.308767,-0.292017,-0.158694,0.399970
0.502666,-0.016143,-0.440515,0.074067,-0.110660,0.117681,-0.259156,0.589925,0.069071,-0.574864,-0.084758,0.015680,0.345795,-0.611751,-0.264472,-0.258950,-0.141237,-0.245133,-0.313476,0.360384,-0.027331,-0.812894,0.238909,0.257212,0.270367,0.067133,-0.291141,0.257183,0.181466,-0.386327,0.161796,0.137204,-0.430288,-0.455181,-0.183741,-0.144151,0.380161,0.191119,0.274716,-0.373625,-0.239708,-0.391797,0.374757,-0.477183,0.120960,-0.300648,-0.301939,0.249329,-0.037489,-0.399958,-0.487192,-0.232867,-0.174669,-0.372524,-0.043469,0.293507,-0.542653,0.103609,-0.090964,-0.339278,0.519697,0.008158,-0.358858,0.272432,-0.415452,-0.155853,-0.437456,0.099819,0.372522,-0.024551,-0.460698,-0.250951,-0.407869,0.133387,-0.317760,-0.467723,-0.424610,0.478360,0.365379,0.147349,-0.444646,0.307518,-0.458603,-0.425602,0.501687,-0.387014,0.018322,0.109630,-0.398183,0.342296,-0.724183,0.141052,0.446736,-0.300235,-0.389341,0.406915,-0.420104,-1.230716,0.332858,-0.373062,0.304518,0.292997,-0.433894,0.382961,0.140214,-0.044449,0.261152,0.381948,-0.386120,-0.410722,-0.274905,-0.497117,-0.065388,0.347272,-0.084152,0.119342,0.336589,-0.463725,0.071486,-0.060580,-0.300627,0.368371,-0.480930,-0.098361,-0.260571,-0.310708,0.267657,0.277015,-0.021686
0.282411,0.239272,0.263850,0.472503,0.347217,0.106453,-0.031486,-0.447645,-0.031625,-0.232904,-0.346567,-0.151275,0.079728,0.459876,-0.428786,-0.220469,0.057582,0.095973,0.404863,-0.734967,-0.257056,0.389096,0.359157,0.464080,-0.259111,0.381503,-0.110583,0.202803,-0.038022,-0.080119,-0.150868,-0.281184,-0.494185,-0.217350,-0.679892,0.255229,-0.203994,-0.362655,0.424533,0.238931,-0.066628,0.067147,-0.344651,-0.249293,0.416255,0.381690,-0.018502,-0.101805,-0.080511,0.098009,-0.237091,0.196413,0.024022,0.313493,0.408635,-0.207527,-0.137185,-0.403972,-0.001137,-0.121839,-0.469012,0.105745,-0.249805,0.211915,-0.498879,-0.299806,0.520703,0.426758,-0.154239,0.322262,-0.113795,0.265778,-0.415957,-0.021273,-0.562821,0.308420,-0.421803,0.038069,0.472716,0.324811,-0.461778,-0.136605,0.000291,0.693259,0.344581,0.774247,-0.402278,0.441436,-0.266490,-0.024322,-0.252207,-0.343966,0.286379,0.157135,0.338307,-0.234156,-0.107720,-0.336746,0.667273,-0.420242,0.290706,0.322281,-0.310179,0.079233,-0.136468,-0.048144,0.051947,0.464478,0.333959,-0.088073,0.050619,0.463387,-0.053175,0.255073,-0.339671,-0.215341,0.468417,0.176834,-0.311469,-0.322721,0.359959,-0.378938,0.414165,-0.308409,0.200873,-0.551893,-0.085503,-0.251463,-0.375750
0.054784,-0.164777,-0.217555,-0.662803,0.056634,0.260572,-0.208740,-0.211919,0.086240,-0.336998,-0.312592,-0.221687,-0.332595,0.176216,0.152460,0.344324,0.109611,0.293754,-0.473016,-0.385961,0.021455,0.425897,0.152353,0.379250,0.230838,0.055741,-0.135776,-0.435493,-0.450227,0.237859,0.229965,-0.714121,-0.160984,-0.256898,-0.022698,-0.374479,0.246748,-0.251266,-0.325712,-0.560388,-0.009835,-0.452114,-0.489400,-0.020421,-0.239393,-0.078559,-0.096851,0.283113,-0.154784,0.370404,0.212227,0.072060,0.414187,-0.268586,0.277968,-0.474794,-0.861870,-0.495333,0.034169,0.014245,0.155434,0.257399,-0.079781,0.437742,0.339049,0.428991,0.364972,0.411500,0.095494,0.397302,0.414083,-0.076419,0.284167,0.494157,-0.016311,0.225250,-0.437160,-0.302970,-0.087255,-0.205459,-0.201837,-0.310619,-0.457146,-0.043737,0.320582,0.625562,-0.367807,-0.077475,-0.450950,-0.154332,-0.009070,-0.030633,0.178914,0.210420,-0.183158,0.331541,-0.491803,-0.103279,-0.164821,-0.348350,-0.146556,-0.400179,0.072755,-0.220083,0.163156,-0.148364,0.046547,0.331278,0.041708,0.120048,-0.030135,-0.177711,-0.139209,-0.179886,0.141249,0.431961,0.385422,0.050738,0.015305,0.404107,-0.164192,0.461801,-0.023713,-0.287664,0.367553,-0.430427,0.075804,-0.044544,-0.338744
-0.413907,0.372137,0.054465,-0.101985,-0.246571,0.006339,0.223144,0.096563,-0.124807,-0.284895,0.171294,0.404416,0.297136,0.471643,-0.347640,0.137744,-0.066776,0.377503,0.017828,-0.784068,0.086359,-0.585964,-0.133817,0.221578,-0.157708,0.237434,-0.131828,-0.545280,0.656711,-0.470665,-0.767477,0.272601,0.445754,0.303914,-0.643369,0.128451,-0.169291,0.479714,0.009834,0.220627,-0.514465,0.324190,-0.123225,-0.066311,0.347996,0.280683,0.195293,-0.059708,-0.448597,0.096167,-0.099562,0.502106,-0.211447,-0.116513,-0.247312,0.275736,-0.354019,0.608655,-0.209963,0.110906,0.485426,0.100330,0.091058,-0.232636,0.398284,0.466610,0.153316,0.160837,0.176409,0.253925,-0.055442,-0.368910,-0.992929,0.098229,0.033451,-0.163864,-0.128022,-0.415700,0.292969,-0.052477,0.411730,-0.090270,-0.001616,-0.850234,0.642242,-0.069631,1.002847,-0.393761,0.391113,-0.258066,-0.160847,0.158651,0.000948,-0.393808,-0.372434,0.357455,-0.060947,-0.330081,0.484731,0.597322,0.274538,-0.312736,-0.339123,-0.228028,-0.459947,0.439469,-0.356044,0.409473,-0.141463,0.345068,-0.231596,-0.106334,-0.267514,-0.033305,-0.028074,-0.122096,-0.002062,-0.239592,0.063233,-0.379331,0.419777,0.459786,-0.191569,0.027657,0.302528,0.065818,-0.299698,-0.837338,-0.507559
-0.053043,0.235010,0.211527,-0.510900,-0.484055,-0.020403,0.297565,-0.431247,-0.178875,-0.299608,0.104573,-0.453837,-0.374852,0.016249,0.118278,0.071115,-0.077432,0.323097,-0.359975,0.137760,-0.454123,0.015021,0.384276,-0.344766,-0.223016,0.070038,-0.239127,-0.501391,0.480933,0.372643,0.086841,0.004242,0.157046,-0.109361,0.318552,-0.130182,-0.614060,-0.454473,-0.092297,0.110112,0.391187,-0.343178,0.222027,0.472608,-0.307002,0.092425,0.476598,-0.018048,0.436913,0.463310,-0.343869,0.081196,0.245404,-0.249614,0.425631,0.308432,-0.207003,-0.345136,-0.246713,0.015689,-0.473094,0.253167,0.631914,-0.084979,-0.038811,-0.499968,0.053705,-0.434937,-0.317292,-0.070642,-0.030445,-0.275522,-0.459230,0.178777,-0.171062,0.304325,0.334723,0.422277,0.325221,0.007894,-0.165967,0.188825,-0.465711,-0.038880,-0.300589,-0.638121,-0.493371,-0.335126,-0.034635,-0.430629,-0.576220,0.455210,-0.070619,-0.233567,0.495388,-0.402434,0.140759,-0.769143,0.052262,0.014626,-0.374651,0.222829,0.369255,-0.036486,0.158314,0.154024,-0.299341,0.079143,0.096748,-0.435158,-0.154737,0.243794,-0.147250,-0.253924,0.162524,0.031566,0.150825,0.176532,0.254848,-0.305549,0.189774,-0.124490,-0.402217,-0.510171,0.358618,-0.146133,0.277367,-0.581561,0.146129
-0.291523,0.310986,0.129821,0.146158,0.426376,-0.073204,-0.285713,-0.330439,0.226417,0.264909,-0.189867,0.352649,-0.426081,0.118339,-0.382493,-0.189399,-0.203241,-0.132355,-0.096582,-0.313820,-0.169304,0.549349,0.315731,-0.393736,-0.043248,-0.222456,0.057491,0.532119,0.015319,-0.436829,-0.122109,-0.012401,0.193224,-0.032802,-0.777649,0.025692,-0.172008,0.212470,-0.299128,-0.270947,-0.867397,0.204791,0.007245,0.369851,0.223599,0.006228,-0.399559,-0.080702,0.201423,-0.497959,-0.402012,0.043402,0.281783,-0.371718,0.333578,0.260475,-0.477369,0.246698,-0.007965,0.221172,-0.334652,-0.014882,-0.370693,-0.179338,-0.301194,-0.447321,0.139514,0.405604,0.107400,0.051709,-0.141913,0.302027,-0.177968,0.129563,0.070648,-0.215274,-0.309476,0.010096,0.463701,-0.146212,-0.074731,-0.136400,0.288322,0.167674,-0.461687,0.014162,0.084863,-0.461951,-0.378089,0.100345,-0.250547,-0.283280,0.108253,-0.073966,0.185128,-0.538686,0.001656,0.282464,0.117424,-0.490175,0.277454,0.245082,-0.223584,0.488012,-0.579479,-0.311054,-0.301400,-0.305542,-0.459731,-0.029844,0.023276,0.450261,-0.297423,-0.102734,-0.467230,-0.377050,-0.154826,-0.031964,-0.804852,-0.360636,-0.465816,-0.479372,-0.055727,0.160994,0.148620,-0.192637,-0.611243,-0.346294,-0.515788
-0.244464,0.329283,-0.099565,0.323747,-0.029529,0.620566,-0.036480,-0.382741,0.098914,-0.364961,-0.386848,0.268783,-0.174737,-0.324717,-0.191599,0.377622,0.043794,0.050300,-0.258878,0.178489,-0.147578,-0.134674,0.001171,0.330366,0.016761,0.179640,0.189518,0.029527,-0.386183,0.113497,0.056776,0.201170,-0.105202,-0.401107,-0.315582,-0.200718,0.110704,0.033172,0.088899,-0.378860,-0.112611,-0.078610,0.149418,0.071186,-0.340639,0.641351,0.385139,-0.191536,0.315436,0.101136,0.383137,-0.151306,-0.383736,0.455819,0.448282,-0.375125,0.183952,-0.027200,-0.299235,-0.446567,0.436130,-0.117179,0.021692,-0.309868,-0.163644,0.008648,0.076456,-0.344378,-0.127130,0.134906,0.062291,0.165747,-0.687260,-0.223504,0.542227,0.435613,0.413248,0.020203,-0.079948,0.038413,0.046365,0.208112,-0.632517,0.359999,-0.398730,0.367289,-0.318421,0.491777,0.396906,-0.474401,-0.235659,-0.079133,0.403516,-0.101203,0.470784,-0.101579,-0.025552,0.051636,-0.097412,-0.067482,0.313007,-0.130476,-0.001797,-0.031817,-0.660607,0.114028,0.517047,0.167640,0.056256,-0.283210,-0.292792,-0.061195,0.087685,-0.092172,0.260404,-0.144188,-0.297265,-0.219959,-0.561412,0.083044,0.031576,-0.007043,-0.264243,-0.248030,0.160237,-0.334866,0.396112,-0.166097,-0.436666
0.094913,-0.144677,-0.382828,-0.343840,0.112041,-0.370044,0.345732,0.015899,-0.099039,0.442907,-0.465408,-0.192946,-0.146816,0.141454,0.247988,-0.431204,-0.113425,-0.356424,0.040890,-0.104222,-0.064151,-0.390325,-0.015426,0.216845,0.259286,-0.495461,0.094214,-0.561315,0.003367,0.366614,0.414235,-0.091471,-0.163677,-0.402761,-0.092737,-0.470117,0.462897,-0.473500,0.101123,-0.570509,0.382791,-0.205056,-0.136708,-0.167449,-0.103755,-0.020919,0.029203,-0.127908,-0.459190,0.230646,0.389127,-0.305142,-0.074041,-0.190747,0.293517,-0.615035,0.215719,-0.296584,-0.151835,0.128339,0.108229,-0.425224,0.240322,-0.241311,-0.368610,0.134878,-0.204740,-0.087622,-0.377186,-0.256683,0.451487,-0.295388,-0.663341,-0.347194,-0.416278,-0.101571,0.473141,0.336698,0.247986,-0.326180,0.263451,-0.071134,0.284144,-0.284491,-0.173562,0.363894,0.110361,0.142708,0.451435,0.092466,-0.006224,0.003983,-0.100615,-0.444037,0.333681,0.271087,-0.457679,0.069663,-0.128568,-0.161196,0.364624,0.346716,0.590738,-0.039961,-0.723571,0.461984,-0.289452,0.019147,-0.182627,0.089858,-0.272300,0.354372,0.342948,0.350914,-0.394598,0.013512,-0.256014,0.145323,-0.392854,-0.271051,-0.302991,0.172361,-0.163437,0.432397,-0.241464,0.267745,0.059381,-0.320715,-0.426925
0.206906,0.425721,-0.197121,0.386055,-0.207588,0.110985,-0.318859,-0.041804,-0.086271,0.192265,0.471943,-0.193905,-0.331536,-0.033010,0.184695,0.416119,0.436979,0.092647,0.243420,0.193482,-0.093971,0.543273,-0.029409,0.056756,0.425113,-0.209924,0.407119,-0.979988,0.102555,0.125831,0.181571,0.135892,-0.451444,0.220086,-0.367037,-0.256926,-0.244896,-0.122540,-0.311130,-0.580662,-0.212486,-0.368380,-0.467301,-0.315909,0.158757,-0.289592,0.011292,-0.116154,0.394463,0.415842,0.057273,0.066820,-0.027670,0.111059,-0.041085,-0.150113,-0.633002,-0.384056,-0.342985,-0.013724,0.042649,0.255683,-0.572007,-0.271466,-0.228195,0.273624,0.419018,0.133997,0.073228,-0.225724,-0.319746,0.420897,-0.004294,0.233820,-0.563096,-0.079620,-0.460976,-0.118030,-0.200123,-0.079207,-0.431238,-0.150845,0.028197,0.013023,-0.156167,0.254616,-0.328136,-0.277321,0.109504,0.294984,-0.341251,-0.057374,-0.035251,-0.322398,0.170859,0.158627,-0.212909,-0.230407,-0.430298,-0.298197,-0.049881,-0.127566,-0.011360,-0.245962,-0.047672,-0.430167,0.157784,-0.088601,-0.476877,0.277326,-0.415801,-0.285945,0.474074,-0.150963,-0.013152,0.081353,0.273177,0.436910,0.251920,-0.117131,-0.367153,-0.348814,-0.183690,0.084263,-0.447240,-0.037815,-0.322274,-0.369002,-0.050993
-0.016970,-0.495408,-0.020157,-0.608591,-0.231203,-0.388030,-0.070923,-0.177421,0.127819,-0.316443,0.162776,0.464242,0.014227,-0.170673,-0.272574,0.165169,-0.447247,-0.211222,0.164073,-0.245345,-0.107247,-0.092647,0.149811,-0.298552,-0.387467,0.182119,0.218980,0.188738,0.354470,0.086656,-0.137551,0.382897,0.266026,-0.021529,0.193910,-0.160847,-0.022150,-0.444051,-0.462822,-0.699806,-0.578420,-0.355394,-0.269613,0.309974,0.222534,0.109080,-0.346862,0.231830,-0.254860,0.266881,-0.413631,-0.468985,-0.760741,-0.415865,0.309471,-0.440479,-0.789774,-0.163118,-0.522352,0.483918,-0.163563,0.271031,-0.203949,0.282584,-0.268408,0.144676,-0.496355,-0.405197,-0.383079,0.451578,-0.436301,0.008882,-0.648345,-0.184489,-0.183795,0.054503,0.382943,0.305667,0.216572,0.456263,-0.032564,-0.436774,-0.403404,0.383654,0.195887,0.343519,0.199331,-0.068609,0.056502,-0.189636,-0.257941,-0.277944,-0.467505,-0.298345,-0.370835,-0.330455,-0.164348,0.069095,-0.090986,0.091963,-0.119146,-0.417982,0.077722,-0.083403,-0.018124,0.188580,0.278598,-0.253930,-0.421814,-0.312630,0.023280,0.049386,-0.200885,0.120400,-0.038930,-0.548626,0.463210,0.154746,0.119195,-0.053898,0.262463,-0.316733,-0.319923,0.027479,0.107204,0.102268,0.068097,-0.096286,-0.499187
-0.396862,0.114937,0.228839,0.463605,-0.269093,-0.509830,-0.165586,-0.359969,-0.401025,0.170571,-0.113945,-0.430346,0.284190,-0.504090,0.213981,-0.560932,0.342059,0.212979,-0.417098,0.079561,0.059315,-0.045980,-0.460480,-0.021194,0.297805,0.171884,0.338063,-0.983826,-0.423450,-0.065866,0.136106,-0.117166,-0.976803,-0.158672,-0.426196,-0.349372,-0.353441,-0.307368,-0.174608,0.270531,-0.088397,-0.109324,0.433529,-0.169948,0.073108,0.380485,-0.251685,-0.220823,-0.428234,-0.263532,0.096903,-0.014328,0.101390,-0.384646,0.280220,0.258814,0.483766,-0.418999,0.318491,0.039016,0.255595,0.209848,-0.519367,0.371872,-0.139101,-0.270493,0.606604,-0.313007,-0.227865,0.588525,0.181330,0.274184,-0.229723,0.003717,0.072016,0.433527,0.129654,-0.312890,0.376661,0.393753,0.450277,-0.633160,-0.176560,-0.130895,-0.639180,-0.156929,0.362851,-0.118334,0.215104,-0.474875,-0.205075,-0.411356,-0.357999,-0.707229,-0.065286,-0.442685,-0.471158,0.253186,0.468275,0.412463,-0.067018,-0.169801,-0.382327,0.159148,-0.756339,0.466739,-0.294539,-0.060211,0.280683,0.458093,-0.166883,-0.041096,-0.117737,-0.517290,-0.296401,-0.317452,0.134780,-0.175932,0.133637,0.460245,0.223601,0.047630,0.049443,-0.236763,0.341060,0.000754,0.437440,0.055664,-0.279195
-0.194970,0.091730,-0.057763,0.092760,-0.369829,0.255922,-0.283692,-0.517778,-0.524169,-0.532022,-0.589537,0.164272,-0.034610,0.159459,0.210740,-0.439144,0.384374,-0.072312,-0.159459,-0.358376,-0.394380,-0.332472,0.234330,-0.125010,0.253601,0.429431,-0.070341,-0.123139,0.363878,-0.101129,0.345616,-0.156162,-0.542993,-0.294115,-0.300320,0.100798,-0.654647,-0.433924,0.128969,0.685534,-0.018031,-0.401466,0.472113,-0.493171,-0.195485,0.318311,0.333016,-0.499779,-0.325523,0.235260,-0.355007,0.006600,-1.073850,-0.355450,-0.435863,-0.740274,-0.280732,-0.535883,-0.018568,0.494262,0.271032,-0.091378,-0.046906,0.328387,0.137142,-0.391370,0.463683,-0.269503,-0.116376,-0.062537,0.052782,0.210404,-0.218093,0.191779,0.193386,-0.384197,-0.222279,-0.221539,-0.357798,-0.180570,0.450619,-0.217964,0.338977,0.629094,-0.122789,-0.304202,-0.107502,0.258880,-0.033063,-0.482665,-0.220513,0.331878,0.104316,-0.508109,-0.255161,-0.102677,0.110159,-0.288663,-0.248443,-0.121784,-0.000846,0.477664,0.256442,0.087388,-0.292560,0.488216,0.118021,0.487077,-0.125775,-0.101248,0.183197,0.211223,0.308044,-0.242880,0.381873,-0.420767,0.442558,0.110668,-0.117467,0.142587,0.059773,0.206299,0.156135,-0.049035,-0.154357,-0.574318,0.119175,0.460198,0.333678
-0.220645,0.477180,-0.392298,0.521885,0.083313,-0.479212,-0.100349,-0.521219,-0.384160,-0.107554,0.141936,-0.259275,0.263417,0.171404,0.295810,-0.158518,0.057317,0.203798,-0.034830,-0.174419,0.386773,-0.000339,-0.409273,0.367922,0.318254,-0.367707,0.037389,-0.809224,0.356266,-0.066337,-0.694330,-0.129798,-0.134083,-0.396308,-0.033311,0.119459,-0.392009,0.177380,0.293625,0.473455,-0.687812,-0.431577,-0.382741,-0.047267,0.487043,0.280230,0.133938,0.226191,-0.062254,0.407870,0.396448,-0.353970,-0.582401,-0.428423,-0.373846,-0.637182,0.436659,0.055066,-0.381127,0.308926,0.101085,0.211716,-0.224336,0.055626,-0.061722,0.420376,-0.386323,-0.128966,0.160344,0.174093,0.485720,0.255279,-0.283996,-0.187168,0.143117,-0.282813,0.149045,-0.475364,0.380890,0.283208,-0.364551,0.156666,-0.379581,0.179232,0.345368,0.558389,-0.191730,-0.295627,-0.204065,0.201276,-0.669900,-0.118661,0.241379,0.356184,-0.183598,-0.233710,0.173556,-0.428792,0.374529,0.333638,0.198702,0.066413,-0.078177,0.190244,0.080006,0.446870,-0.046378,-0.079405,-0.313963,0.389511,-0.009625,0.018079,-0.250916,-0.230687,0.144182,-0.104857,-0.293935,0.005077,-0.711372,0.035785,-0.396187,-0.323149,0.166105,-0.299189,-0.083084,0.182504,-0.066294,-0.261103,0.052756
-0.397960,0.390387,-0.091197,-0.027036,-0.198143,-0.414933,-0.068428,0.151244,-0.061378,-0.451749,-0.469562,-0.142470,0.243987,-0.469724,0.241919,0.398662,0.098125,-0.381719,-0.379843,-0.061320,-0.316784,0.285881,-0.103551,0.008639,0.272588,0.235485,0.444101,0.303808,0.344065,0.143368,-0.306436,0.109918,0.842507,0.401781,-0.562786,-0.252481,-0.739497,0.414491,0.238866,-0.448624,-0.438672,0.478039,-0.304584,-0.301869,-0.274452,-0.072287,-0.362898,-0.078802,-0.294678,0.289772,0.094920,0.506865,-0.749472,-0.016825,-0.229354,-0.475858,-0.459350,-0.067848,-0.162330,0.026797,0.355736,0.318605,0.017026,0.444065,-0.365386,0.384198,0.138222,0.167934,-0.102675,-0.285241,0.495944,0.478282,-0.679918,0.101857,-0.273597,0.010538,-0.006233,-0.062675,0.447625,0.261514,-0.060327,-0.320769,-0.519391,0.226059,0.020057,-0.171220,0.627698,-0.381754,0.428392,0.165538,-0.296539,-0.340079,-0.150979,0.226833,0.262114,0.411312,0.347504,-0.691834,0.172776,-0.276277,-0.026733,-0.159023,-0.174825,0.425875,-0.433535,-0.456065,-0.176339,-0.373849,-0.312142,-0.252598,-0.049468,-0.164285,0.350728,-0.290522,0.259074,0.483186,-0.213626,0.321336,0.167482,-0.315262,0.283183,-0.467891,-0.277721,-0.373634,0.060365,0.142849,0.102537,-0.238667,0.339263
0.142842,0.148915,0.256432,-0.194381,0.228080,0.199770,0.232376,0.595822,-0.022877,0.151423,-0.490922,-0.225300,0.334546,0.092924,-0.260097,0.394459,0.168040,-0.111105,-0.027066,0.128671,-0.485413,-0.623043,-0.013359,0.443627,-0.241526,-0.051597,0.231741,0.340013,0.142266,-0.405887,0.300469,-0.422271,-0.302362,-0.269272,-0.315498,-0.452235,-0.194129,0.117802,-0.326909,0.340278,-0.094087,0.398377,0.177792,0.163486,0.366988,0.475415,-0.224097,0.427948,0.339361,0.475077,0.315366,0.224181,0.159925,-0.148042,0.244100,-0.800588,-0.080390,-0.251576,-0.102257,-0.344400,0.384795,-0.211626,-0.367656,0.427179,-0.041239,-0.022889,0.172109,0.361125,0.217134,-0.513206,0.174753,0.485847,-0.743415,-0.382753,0.411573,0.090782,0.139162,0.253612,-0.249642,-0.462826,0.319613,0.378034,-0.375581,0.231592,-0.071476,0.128428,-0.060512,-0.352170,0.464157,-0.432006,-0.676502,0.284019,0.494664,-0.051349,0.099137,-0.384882,-0.497451,-0.569371,-0.391929,-0.279697,-0.197844,-0.129334,0.370327,0.457640,-0.390850,-0.088408,-0.289577,-0.466249,0.230067,-0.033514,-0.535640,-0.420797,-0.214746,0.436042,0.248689,-0.011778,-0.350403,-0.300821,0.427475,-0.165118,0.449472,-0.145119,0.299944,-0.659457,-0.250494,0.054720,0.224187,0.339218,0.339834
0.127626,0.255214,-0.141061,0.379232,-0.307360,-0.545196,-0.262791,0.511599,0.188093,-0.518673,0.393599,-0.092651,-0.091196,-0.183142,-0.216753,-0.049542,-0.011046,-0.198131,0.106965,-0.098146,-0.301445,-0.743874,-0.300906,0.041760,-0.129973,-0.435783,0.004352,-0.105347,0.142472,0.403669,-0.392189,-0.454107,0.696197,0.129140,0.227889,0.281022,-0.690351,-0.186609,0.345259,-0.589059,0.054826,-0.483352,-0.498508,-0.175543,-0.029191,0.077431,0.347764,0.293878,-0.355067,0.430999,0.362652,-0.403662,0.041726,0.476082,0.319943,-0.513582,-0.664370,0.251141,0.318758,0.122562,0.235295,0.205252,-0.428258,0.365207,-0.108447,-0.348182,0.195610,0.013377,0.206231,0.282702,-0.017046,-0.374276,-0.441196,-0.258548,-0.193793,0.091110,-0.097964,0.294953,-0.297424,0.305478,-0.357439,-0.573531,0.331323,0.055203,-0.155814,-0.277209,-0.061579,-0.332301,0.233763,0.273566,-0.410677,-0.491911,-0.185652,0.252622,0.215968,-0.094625,-0.138983,-0.168208,-0.284688,0.310082,-0.182357,0.232513,0.024528,-0.278784,-0.259170,0.134162,-0.329799,-0.209031,-0.327481,0.070818,-0.076093,-0.109686,0.335633,-0.438516,-0.280308,-0.156683,-0.241872,0.100386,0.036158,0.028996,0.277005,-0.280970,-0.081304,-0.229760,-0.039969,0.239040,-0.191185,-0.479268,-0.185957
0.482785,0.335007,0.193684,0.225743,0.297570,-0.395100,0.374530,-0.237095,-0.073310,0.109839,0.010631,-0.111486,0.333764,-0.548629,-0.318614,-0.008158,-0.194244,-0.596506,-0.236700,-0.118491,-0.516427,-0.580855,-0.456737,0.476264,-0.190668,-0.409101,0.257341,-0.689728,0.239504,-0.130257,-0.089745,0.667518,0.016475,0.140214,-0.262161,0.138774,0.033341,0.062897,0.183682,0.040718,-0.176586,0.308049,-0.325596,-0.465500,0.328068,-0.130657,0.022152,-0.145494,0.395142,0.325806,0.090450,-0.350628,-0.253173,-0.303755,0.286210,-0.137447,-0.482412,-0.543175,0.468030,0.249979,-0.631242,-0.328720,-0.118345,0.122608,0.338257,-0.153111,0.310144,-0.198184,0.277134,-0.033433,0.473549,-0.455934,-0.447127,0.444438,-0.324837,0.453978,-0.482306,-0.083080,0.260981,-0.045763,0.165946,-0.043139,-0.561630,0.819930,-0.061436,0.382882,0.376449,0.007861,-0.218761,0.485864,-0.687050,0.447376,-0.260204,-0.312270,-0.296228,-0.382549,0.225299,-0.657786,0.161315,0.640939,0.453767,-0.458293,0.232008,-0.207064,-0.677001,-0.146815,-0.129047,-0.314353,0.130586,-0.152834,0.076709,-0.482526,-0.282816,-0.225242,-0.135048,-0.080239,-0.332330,0.188575,0.064311,0.164857,-0.372051,-0.033547,-0.472651,-0.120520,0.471789,0.103462,0.205919,0.288585,0.518841
0.207361,0.230116,0.241997,-0.229814,0.368730,-0.074899,-0.166729,0.000441,-0.304495,-0.293551,-0.453910,0.118582,0.069518,-0.657017,-0.136969,-0.356372,-0.199413,0.131162,-0.214805,-0.043827,-0.106556,-0.210490,-0.440605,-0.508637,-0.188952,-0.394780,0.439911,-0.859990,-0.452817,-0.235456,-0.409089,-0.115525,-0.616329,-0.114031,0.167152,0.368168,-0.365469,0.190467,-0.382739,0.092501,0.543132,0.371721,0.003810,-0.097731,0.167354,-0.023310,0.481913,0.077212,0.150305,0.367043,0.186753,-0.241466,-0.591479,-0.259093,0.493342,-0.365338,0.496937,-0.243788,-0.062418,-0.118390,-0.530702,0.195822,0.104841,-0.389130,0.077882,-0.106996,-0.311363,0.232726,-0.186622,-0.143661,-0.343025,0.117470,0.432765,-0.234089,-0.145591,0.183869,-0.115538,0.127586,0.114292,0.142423,-0.061404,-0.434413,0.005220,-0.148830,-0.157101,0.088427,-0.415419,0.153432,0.366496,-0.409877,-0.338077,0.046682,-0.241268,0.226382,0.291647,-0.231914,0.381792,-0.334326,-0.241206,0.094553,-0.214208,-0.333766,0.144102,0.130686,0.468531,0.481720,0.017668,-0.023882,-0.146824,-0.381318,-0.402834,0.101649,-0.088202,0.223418,0.240548,-0.274259,0.040120,0.381557,-0.528698,0.198351,-0.063076,0.255810,-0.191819,0.283647,0.076089,-0.107067,0.127325,-0.335898,0.124457
-0.003293,0.172571,-0.291991,-0.733312,-0.029718,-0.330002,-0.472091,-0.003758,-0.072755,-0.485727,-0.348306,0.017695,-0.281648,-0.317740,0.212704,-0.217785,-0.064923,0.140762,-0.219728,-0.016462,0.212611,-0.344678,0.194481,-0.501013,-0.234657,-0.279195,0.026988,-0.211082,0.186632,-0.071452,-0.324489,0.232181,-0.115759,0.487903,0.405620,-0.199351,-0.385608,0.432840,0.396069,0.293319,-0.285801,-0.489491,0.227674,0.153199,-0.275000,0.321265,-0.486998,0.302131,0.170445,0.019252,-0.243143,-0.356689,0.124759,-0.187779,-0.401875,0.106960,-0.642560,-0.010944,-0.309514,0.003969,-0.009978,0.178607,-0.533288,-0.188677,-0.038853,-0.226152,0.407206,0.115135,0.397866,0.014643,-0.345457,0.322825,-0.078881,-0.358143,-0.562884,0.138325,0.147106,0.021266,0.469349,0.240389,0.192143,-0.700794,0.355703,0.000821,0.222672,-0.487318,-0.453361,-0.331882,-0.148930,-0.418966,0.193704,-0.410000,0.005234,-0.615841,-0.290027,-0.319745,-0.106709,0.078180,0.062833,-0.057556,-0.211248,0.029294,0.181128,0.429333,-0.470671,0.275608,0.161756,0.285226,-0.152516,0.192934,0.235237,0.409942,-0.102144,-0.072105,-0.115311,-0.457567,0.032199,-0.169070,-0.905415,-0.053421,-0.112188,-0.071960,0.097720,0.217401,0.009481,0.212823,-0.114069,-0.872395,-0.092460
0.484974,-0.374270,-0.455060,-0.029225,0.519896,0.094407,-0.053853,-0.060638,0.121929,0.192392,0.305992,-0.179822,0.511634,-0.286627,0.396848,-0.128280,-0.258799,0.112969,0.030371,-0.230084,0.199037,-0.762494,-0.367303,-0.404091,0.271842,-0.201036,0.261344,-0.200173,0.516470,0.043870,-0.452506,0.388703,0.004199,0.193736,-0.254377,-0.485589,-0.117000,-0.383981,0.121519,-0.444972,0.165570,0.129172,0.420190,0.275053,-0.205212,0.140149,0.024885,-0.487525,-0.335226,0.038629,0.492859,0.452483,0.053842,0.498788,0.496703,-0.801580,0.208478,-0.089569,-0.388135,-0.060597,0.376851,-0.152560,-0.073809,0.475960,-0.003516,0.032995,-0.258064,0.219625,0.052619,0.160543,-0.480657,-0.275544,-0.118576,0.449297,-0.170360,-0.191765,0.409463,0.133194,-0.006022,-0.220762,-0.438078,0.152586,-0.161180,-0.302828,0.101034,-0.398096,0.654408,0.446417,-0.085551,0.016056,-0.435067,0.135117,-0.035746,0.525932,-0.482583,0.197962,0.045049,0.115967,-0.278246,0.204256,0.268694,0.418007,-0.281743,-0.366444,0.026224,0.154155,-0.399126,-0.100118,0.184988,-0.440112,-0.565246,-0.378208,0.369471,0.196035,-0.039973,-0.449494,-0.138140,0.438543,-0.111598,0.498253,0.453630,-0.474116,-0.104705,-0.189567,-0.032089,-0.224802,-0.397575,-0.410407,-0.205166
-0.476815,-0.267760,0.086787,0.266361,-0.408864,0.217770,0.014080,0.133825,0.172285,0.154447,-0.298489,-0.310203,0.263280,-0.215136,-0.013287,0.158097,0.063525,0.360143,0.452634,-0.410591,-0.067004,-0.560258,-0.483573,-0.171986,-0.165515,0.119306,-0.437948,-0.080191,0.163218,0.322152,-0.336848,-0.049038,-0.822351,-0.329458,0.007328,-0.291481,0.314548,0.425398,-0.237512,-0.841166,-0.370439,-0.005962,-0.475121,-0.299087,0.092174,-0.267722,-0.460618,0.389655,-0.149905,0.349899,0.478714,0.196749,-0.236822,-0.393318,0.067384,-0.382810,-0.574189,0.281974,0.129412,-0.140354,-0.141194,-0.073355,0.210966,0.360927,-0.101677,-0.227974,-0.312573,0.065835,-0.106451,0.211870,0.410503,-0.061297,-0.079821,0.059254,-0.377934,0.432426,-0.156462,0.171271,-0.036474,-0.441903,-0.459420,-0.406407,0.454421,0.069725,0.049441,-0.414515,0.672898,0.247719,-0.219531,-0.140794,-0.312593,-0.094540,0.221008,-0.155726,0.239887,-0.346711,0.254529,-0.134036,-0.161660,0.280824,0.009164,0.231677,-0.466096,0.391509,-0.926785,-0.113346,0.167241,-0.428726,-0.256602,0.034689,-0.299682,-0.028789,0.095261,-0.332484,0.172931,0.656135,-0.409479,-0.404101,-0.379289,0.271484,0.159361,0.147742,-0.143875,0.328910,0.000617,-0.514326,-0.224932,0.492546,-0.391584
-0.299670,0.289628,-0.375162,-0.359970,0.358293,0.394116,0.152607,-0.186126,-0.779253,0.406549,0.111678,-0.155689,0.189537,-0.165285,0.396313,-0.002338,-0.214327,-0.524424,0.414711,-0.237341,-0.645359,0.015207,0.443110,0.375348,0.117392,0.208968,0.473342,0.206977,-0.318762,0.255722,-0.315304,0.107826,-0.174071,-0.203500,0.216943,0.083008,-0.548342,-0.385105,0.221138,-0.185185,-0.218140,-0.209806,-0.121917,0.056223,0.004843,0.393501,-0.478341,0.435481,-0.451546,-0.135546,-0.250070,0.186140,-0.175304,-0.196665,-0.477385,-0.078434,-0.191577,-0.172602,0.095431,0.063279,-0.194011,0.115694,0.250683,0.009007,0.120987,0.334130,-0.028947,-0.083587,-0.051376,0.437390,0.379525,-0.212992,0.030745,-0.012820,-0.363181,0.084807,0.459214,0.188995,-0.012141,-0.444420,0.319406,0.586723,-0.618240,0.342135,-0.361224,0.546492,-0.023268,0.100177,-0.171240,0.177942,-0.245653,0.062091,0.484059,0.020774,-0.216350,0.095444,-0.307714,-0.407457,-0.034507,-0.392435,0.286333,0.171848,0.562472,-0.447389,-0.268020,-0.022759,-0.451651,-0.240706,-0.372678,0.255944,-0.354486,-0.322942,0.234120,0.349056,0.444860,-0.588585,-0.101293,0.272980,-0.568579,0.381097,0.376680,0.169507,-0.085070,0.009831,0.241278,-0.633607,0.379409,0.394953,-0.108134
0.402472,0.417305,-0.354704,-0.828170,0.005519,-0.508828,0.641473,-0.053280,0.008901,0.018912,-0.306273,-0.414912,-0.143717,0.318650,-0.259020,0.083725,-0.176984,0.083925,0.042805,-0.474165,-0.053056,-0.020004,0.369650,-0.124110,-0.172991,-0.103370,-0.468118,-0.202834,0.207250,-0.213694,-0.486488,-0.582090,0.169978,0.203163,-0.657427,0.109961,-0.308663,0.270136,-0.131088,0.003927,-0.078459,-0.215840,-0.368563,-0.160858,0.393673,-0.480589,-0.285385,0.246593,-0.131342,0.019582,0.081478,-0.076689,-0.115384,-0.179846,0.368353,0.096486,0.373359,0.151843,0.055926,0.456014,0.079096,0.464647,0.228582,0.361077,0.426267,-0.351888,-0.084752,-0.118343,0.223199,0.353919,0.293954,0.238740,-0.258413,-0.137883,0.424046,0.293416,0.017094,0.224707,0.057443,-0.204468,-0.431747,-0.180796,-0.156485,-0.194765,-0.747609,-0.500429,0.279635,0.099523,-0.443815,0.335047,-0.438575,-0.428303,-0.413775,-0.100726,-0.080198,0.062752,0.036610,-0.071092,-0.024783,0.052219,0.152915,-0.347879,-0.357109,0.079653,0.103848,0.481299,-0.429972,-0.268672,0.483423,0.261169,0.514600,-0.153632,-0.496123,0.042451,-0.241664,-0.258288,0.361869,-0.017622,-0.413464,-0.148887,-0.136717,0.066879,0.173031,-0.154078,-0.072256,-0.062403,0.394418,-0.230179,0.015172
0.011823,-0.262788,0.497080,-0.817326,0.181540,0.116275,0.040020,-0.276030,-0.346705,-0.184436,-0.313484,0.066609,0.242661,-0.235461,0.131029,0.221242,-0.505480,-0.126088,0.431156,-0.694778,0.296075,-0.007897,0.039959,0.283132,-0.032018,-0.361324,0.203883,0.186325,0.102718,0.378479,-0.161884,0.122564,-0.038689,-0.442488,-0.622816,0.120234,-0.382288,0.015029,0.066596,-0.673798,-0.865898,0.381752,0.323445,0.279145,0.461291,0.290459,0.101164,0.375258,-0.459017,-0.057127,0.401888,0.416406,0.406491,-0.122686,-0.113033,0.061868,-0.463867,-0.055430,0.122231,0.213975,-0.458130,0.328894,-0.931695,0.379487,0.265241,0.016093,-0.079716,0.006034,-0.487122,0.333572,0.088787,-0.494178,0.178107,0.239811,-0.410011,0.405831,0.300987,-0.235424,-0.275804,-0.280811,0.169575,-0.284662,0.140978,0.068721,-0.394321,0.026622,-0.281033,-0.006657,-0.053886,0.328839,-0.297234,-0.492763,-0.318972,-0.130041,0.005477,0.192605,-0.241746,-0.373089,0.231440,-0.149334,0.486155,-0.280782,0.161983,-0.265139,-0.351767,0.196078,-0.764375,-0.203129,-0.134168,0.469076,-0.030148,-0.338011,0.305200,-0.252404,0.354722,-0.454074,-0.031351,-0.180418,-0.277419,-0.131504,0.194268,0.326668,0.330739,0.172050,-0.462918,0.057520,-0.592015,0.515702,0.329600
