-0.655469,0.008210,-0.373629,-0.848446,0.451266,0.416829,-0.065185,1.213203,2.491922,2.965890,-0.054875,-0.571860,-0.296972,0.105419,-0.269622,-1.556331,-1.996753,0.033032,0.503128,1.900930,1.217163,2.198040,-0.163810,2.103122,1.443834,0.906422,2.073299,1.020101,0.375379,0.058657,-0.414064,-0.583874,0.465203,2.068770,-0.559891,-0.320325,0.784308,-0.542917,0.809223,0.306317,-0.156908,-0.359057,-0.167374,0.460090,0.640141,-0.746509,1.443606,0.020711,-1.035434,1.213035,-0.995718,-0.112605,1.771719,-0.306654,0.865220,-1.431817,0.750731,-0.495852,-1.165765,-0.926363,1.379561,-1.552773,0.758189,-0.138625,0.184766,-0.016033,-0.139227,-0.343545,0.052244,-0.484316,-0.229440,-0.499986,-0.394386,-0.399341,-0.103732,0.797300,0.211442,-0.448940,-0.612242,0.072450,0.461738,0.326687,0.612476,0.237254,-0.400785,-1.665570,-0.124742,0.221896,-0.046647,1.021043,-1.334017,0.649687,1.599472,-0.575741,1.357984,-0.309683,-0.239798,-0.023772,-0.453145,-0.121073,-0.224921,-0.556395,-0.473175,0.915983,0.186891,-0.450860,0.019565,0.314983,-1.640936,0.300384,0.966484,0.127917,-0.684350,-0.739160,0.331678,0.064307,0.388251,0.223821,-0.324019,1.287042,0.315665,-0.239521,-0.425087,0.477882,-0.122915,-0.082437,0.699234,-0.258656,1.556474,-0.310525,-0.438676,0.231495,1.033377,0.736928,-0.458377,0.430127,-0.546230,-0.498036,-0.540834,-0.199343,-0.533496,0.014666,-0.192123,0.077446,1.107944,2.134568,-0.361602,-0.516800,0.684851,-0.072222,-0.444898,-0.576674,0.700390,2.929049,0.230319,0.419256,0.072987,1.166170,-0.319449,1.704784,0.003231,-0.238257,1.575651,0.891177,-0.277442,1.693855,-1.061652,-0.657504,0.414658,-0.007672,0.393294,1.334445,-0.510607,-0.829675,0.590761,-0.764861,0.941522,0.725022,-0.242672,0.372659,1.557161,-0.101142,0.016447,0.004017,0.784686,-0.275139,3.123090,2.750160,0.097675,-0.250829,0.593405,0.407566,0.300867,-0.461021,-0.262664,-0.584303,-0.789715,-1.400482,0.223315,-0.113679,-1.256361,0.936412,-0.095776,1.089733,-0.079307,-0.173190,-0.270666,-0.451577,0.174977,0.491738,-0.689612,-0.272966,0.394942,-0.516723,-0.319582,-0.934590,-0.230414,-1.435984,0.354483,0.717363,0.219997,1.559142,-1.199752,1.024696,-0.489887,-0.238392,-0.078035,0.050349,1.207980,-0.170500,0.567960,2.007680,0.936679,-0.238276,0.107047,-0.199032,-0.714850,-0.402482,-0.678496,-0.860897,-0.397515,0.155291,-1.878207,0.321968,-1.269401,0.177213,0.770507,-0.454895,-0.165521,0.424141,-0.754059,-1.760441,0.364093,0.462900,-0.211359,-0.575594,-2.435692
-2.225262,2.680886,-0.006899,0.630867,0.260261,-0.314875,0.144909,0.184494,0.613893,-0.001305,1.280267,-0.242015,-0.400111,0.061913,1.012036,-0.482461,0.170942,0.024071,-0.374540,0.362153,-0.777433,-0.515870,-0.056626,0.892432,0.105321,-0.177283,-0.130207,1.635249,-0.050933,-0.188284,-0.264667,0.424608,-0.577718,0.782653,-0.160229,-1.840475,-0.345744,1.712126,1.247414,1.174116,1.704010,-0.354664,0.081147,-0.579901,-0.420551,-0.516359,-0.597149,-0.781090,-0.886915,-0.429254,-2.532876,-0.196642,-1.458774,-0.756372,-0.616594,-0.135691,0.489489,-1.071899,0.164476,-0.047921,-1.598271,-0.691507,-1.446914,0.715543,-0.306997,0.189714,1.375515,0.569556,0.074867,-0.305030,-1.088034,-0.815292,-0.202119,-0.151842,0.416787,-0.872560,-0.721763,-0.843746,-0.387887,-0.349546,0.216039,0.457457,-0.269052,2.510048,-0.649209,1.499496,-0.377120,-0.125621,-0.361901,-0.376290,-1.877668,-0.117009,-0.414071,2.880442,-1.001935,-1.352261,-0.565084,-0.296891,-1.978102,0.323325,1.194492,0.820598,-0.297740,-0.857263,-0.310374,-1.237698,0.311565,1.526211,0.207918,-0.467498,1.510816,-0.409082,1.317201,-0.711351,1.765469,-0.163366,-1.072214,0.785303,-0.999785,0.309531,0.040601,-0.364786,-0.954414,0.033103,-0.467037,0.505988,-1.515477,-0.579655,-0.393711,-0.332834,-0.448191,-0.674138,-0.982825,-0.026156,0.736304,1.207594,-0.272610,-0.695800,0.201347,-0.080973,-0.670165,0.722741,-0.751227,0.083643,-0.869488,1.503064,0.514047,-0.341427,-0.311867,-0.535858,-0.029093,-0.382774,-0.574664,-1.194436,0.297333,-1.068278,-0.001726,0.936520,0.281565,-0.882325,-0.637878,-0.389652,-0.672296,-0.190263,0.169460,0.298533,0.524487,-0.275951,0.787466,1.022679,-0.827381,1.264266,-0.320124,0.570137,-1.268065,-0.100788,-0.624708,0.172801,-0.708345,-0.418615,-1.235842,-0.808269,0.666727,0.032101,0.639670,0.262185,-0.620780,-0.081305,-0.642438,-0.989724,-0.038605,-0.744628,-1.297430,0.500901,0.310392,-0.957749,0.565710,0.858172,0.206303,0.062460,-0.373990,-0.309113,-1.008770,2.105405,2.895040,-0.615759,-1.658750,-0.340340,-1.107118,-0.455551,-1.218064,1.516201,1.686967,0.159522,0.407179,0.031555,0.391677,-0.075565,0.616476,-1.113838,0.910764,0.734352,1.371652,-1.238341,-0.536930,-0.822362,-0.167128,-0.182016,-0.014727,0.391053,-0.225742,-0.586338,-0.913788,0.901238,-0.484925,-1.479208,-0.092901,-1.049511,0.051406,-1.110159,-1.443394,-0.148673,0.113044,-0.615803,-0.461344,-0.648183,-0.185886,0.424851,0.201060,0.325899,-1.396409,-1.623905,-0.184533,-0.122759,0.353873,-0.131811,3.181171
-1.169682,-1.132931,0.335054,1.813329,-0.150838,-0.661362,-0.119780,-0.198705,0.748494,-0.766525,0.886577,-0.871981,0.187281,-0.136078,1.028489,0.777534,-0.758523,-0.510554,1.202819,1.010343,0.505879,-1.358034,-0.204768,-1.244085,-0.150497,1.405455,-1.425702,-1.601790,-0.042123,0.301655,-0.224336,-0.386108,1.885514,-1.986195,-0.372465,1.715093,0.986562,-2.006596,-0.499832,0.299774,0.499639,0.641704,-1.357364,-2.527631,0.093846,0.997884,-0.748526,-0.747373,0.481507,0.795224,1.383827,-0.332769,2.235277,-0.642373,-0.616876,-0.536150,-1.464595,-1.449315,1.369872,-0.790052,1.604842,1.841314,-0.774304,-1.522680,0.057609,2.608180,-0.887123,-0.017737,-1.744013,1.287168,-0.254703,0.028169,0.188312,0.010423,-0.144203,0.243980,0.995571,1.200806,0.105848,-0.220389,-0.311092,-1.002015,0.840646,0.318951,-0.507508,-0.002079,-0.158911,-0.224518,-0.432060,0.101013,2.256746,0.655969,1.247786,-0.254959,0.388497,-0.045303,-1.159725,0.056299,0.897371,-2.814382,0.636987,-1.331027,-0.658662,-0.854037,-0.223613,-0.995775,-0.049043,-1.177870,0.252805,0.059416,-0.983597,0.969100,0.024515,0.738563,-1.195991,-0.123032,-1.538101,0.472147,0.945971,-1.299330,-0.059450,-0.810808,-0.661334,0.026727,-0.790512,-0.719886,0.784220,1.014823,2.224873,-0.033199,-0.596996,-0.276685,1.010182,-1.005516,-0.206033,0.181254,1.435664,-0.031631,0.916121,0.240988,0.165803,0.121823,0.305814,-0.011029,-1.620220,-2.516529,0.186050,1.210891,-0.461910,-0.325439,-0.609181,-0.856250,-0.374594,-0.439434,-0.288986,0.044533,0.698129,-1.136863,0.081496,-0.679248,0.108881,-0.376890,2.200668,-2.153514,-0.001606,-0.023267,-0.939402,-1.026594,-0.705827,-0.721086,0.646984,-1.501305,-1.504248,0.131712,0.251745,-0.171832,-0.921461,-0.453875,0.795687,-0.395137,-0.145582,0.643648,-0.814977,0.435886,-0.366622,-0.350081,-1.420426,-0.745725,0.983089,0.183172,2.505910,1.052898,1.472372,0.438965,-0.530760,0.686253,-0.670963,-0.379620,0.021628,1.521171,0.724763,-0.519007,-0.125519,0.116724,0.016329,1.054909,0.714330,0.390196,0.107730,-0.090632,1.278178,-0.468751,0.793975,0.048675,-0.072138,-1.391622,-1.794705,-2.330511,-0.239849,-1.134792,-1.042228,-0.516350,0.205821,-0.871834,2.089702,-1.196955,-0.162465,0.071419,0.257178,-0.127509,-0.011677,-0.237049,0.226795,0.471708,0.107231,0.883617,1.756241,-0.024202,-0.744170,0.472031,-0.740217,0.139594,-2.048645,-0.179627,2.051681,0.183037,-0.074679,-0.044339,-1.823437,-0.565196,1.040795,1.229076,0.028500,-0.320042,-0.137807,1.058525,-0.010051
3.230789,1.380462,0.179826,-0.342824,0.036962,-0.342920,-0.011384,0.354786,0.388554,-0.800774,1.434043,0.027314,-0.395487,0.270496,-0.623589,-2.039521,-0.914313,-0.513169,0.042408,-0.924877,-0.732115,-0.018432,0.053505,1.490689,-0.569483,-0.185545,-0.557131,0.581720,-0.578050,-1.116904,0.113608,0.457090,-2.275652,-0.885188,-1.008933,-0.773843,-0.276854,1.335634,0.846580,-0.646505,0.917141,-1.124830,-0.084487,-0.980655,-0.248305,0.216987,1.688447,0.016428,-0.548983,-1.045886,0.770614,-0.728842,0.817500,2.067938,-0.069935,0.917618,-0.446329,0.401538,0.176349,1.505348,-1.000101,0.630463,-0.757885,-0.498192,-0.337053,-3.429335,2.520241,0.447977,-0.578061,0.167966,0.351596,-0.668265,0.095884,-0.165265,0.032720,-0.221816,-0.859371,0.081730,-0.037584,0.736819,-0.335916,0.208873,-0.372094,0.515622,0.951291,-1.192191,0.491497,-0.300467,-1.224818,-1.995807,0.675240,0.011049,1.949851,-0.492669,0.318789,-0.977957,-0.567458,-0.351284,1.965133,1.398926,-0.846877,0.844325,0.571112,0.135118,-0.755030,-1.599326,0.659214,0.511010,0.319432,0.165994,-0.925893,-0.513747,0.538381,-1.033001,-0.129064,0.991604,3.282501,0.004321,-2.062833,-0.837535,0.425804,1.020124,1.491709,0.326744,-0.765038,0.588654,-1.028546,-0.040880,-0.178520,0.518504,-1.109985,0.934206,-0.157674,-1.425220,0.418182,0.068277,-0.671724,-0.069958,0.509798,-0.603086,0.740287,0.252175,0.714082,0.103043,-0.522011,0.695299,-0.242068,-1.098959,-0.464438,0.318002,0.794545,-0.849062,-0.302230,-0.414270,-0.068406,-0.110239,0.509364,0.553240,-0.705546,0.325221,0.421201,-1.172007,2.039663,1.220117,0.790511,0.731084,0.681953,2.141653,0.992035,0.042221,1.247301,0.147639,-1.051279,1.404200,2.178313,-0.204911,-0.570334,0.138892,0.020136,-0.146359,0.373458,0.265226,-1.191552,2.020258,-1.666556,-0.847846,0.096325,-0.724227,-0.602949,-1.382006,-0.017984,-0.123207,1.842457,-1.091500,0.336395,-0.120369,-0.418817,-1.035302,0.112309,-0.323265,-0.958202,-0.483311,-0.854769,0.159887,2.131183,1.880972,-0.568798,-0.167470,-0.737362,-1.129099,-1.042182,-0.891774,-0.664965,0.173339,0.032553,1.073173,2.373417,1.479171,-0.203317,-0.793779,-0.228295,-0.395261,-0.871554,0.164130,-0.120267,0.137541,0.055806,0.491663,-0.338197,-0.070633,-0.083228,0.396347,0.701821,0.134483,-0.702986,-0.190434,-0.401435,0.459990,-0.212534,1.184343,-0.440383,-0.562031,-0.549144,-0.501423,0.496347,-0.549272,-0.503409,0.099989,1.252670,0.506998,-0.946473,1.101878,-0.452377,0.707544,-0.186485,0.309946,1.965664
-2.777778,-1.055688,0.253374,1.789278,0.345026,1.881735,0.167102,0.246870,1.005981,-1.140637,0.237754,0.025808,0.590799,-0.519440,0.329644,0.354654,0.644910,-0.781025,-1.057204,-0.335783,-0.817166,-0.360718,0.188745,-0.675757,-0.914027,-1.079891,-0.330397,0.201839,-0.453163,-1.230328,0.204607,-0.483767,2.753557,-0.679410,0.597946,1.708834,-0.819736,-0.445790,1.064949,-0.768992,1.280861,-0.321091,-0.800735,-0.775900,-0.640544,-0.606777,-0.087953,-0.432656,1.051201,-1.070011,0.172598,-0.394495,-1.451693,-0.267030,-0.662976,0.546986,-2.050167,-1.771932,1.663763,-0.632672,0.047731,1.005660,-0.502531,-0.250916,-0.547503,1.193117,-0.927242,0.668057,-0.535220,0.254552,0.680548,-0.066050,-0.037558,0.144750,0.538757,0.857286,-0.115269,0.763375,0.722820,-1.407076,0.707979,0.668530,0.503574,0.645792,1.141079,0.095995,-0.129474,-0.039507,-0.120979,-1.677457,-1.023408,-0.296901,-1.783694,0.736229,-0.449599,-1.930967,-0.908761,-0.109091,-0.762279,-0.513419,-0.482131,0.615088,-0.306792,0.191253,-0.466585,1.405650,0.228175,0.863144,1.207739,0.120167,-0.724567,0.105943,0.420266,-1.133452,2.640586,-0.702870,0.612809,-0.724652,1.834598,-0.466055,-1.589048,-0.974571,0.510296,-0.437575,-0.050576,0.268748,-0.099174,-0.578187,0.319074,-0.598226,-0.596067,-0.713210,-0.312821,-1.214439,0.374100,0.125480,-0.193614,-0.917167,-0.798424,0.275216,-1.466643,0.677251,-0.340186,0.122715,-0.034740,-1.448246,-0.142365,2.499278,0.782598,0.040161,-0.650088,-0.156929,0.979806,-1.472242,0.994697,-1.365188,-0.959722,0.773655,-0.180884,-0.098262,-0.026318,0.749533,-3.195871,-0.944453,0.634087,-0.529540,-0.301323,-0.432654,0.586909,2.172415,-0.927476,0.619401,0.301106,-0.872754,-2.739663,-1.456241,-0.936406,-0.044817,0.966741,0.045981,-0.034548,0.215715,0.034297,-0.401441,0.349266,-0.292343,1.081673,0.205374,0.027171,0.023194,1.465500,1.315741,-1.394793,0.559687,-0.235960,-0.077219,-0.101709,1.281372,-0.221926,2.873708,2.474009,-0.749250,-0.203619,0.095420,-0.249926,-0.679270,1.413801,0.496506,-0.280883,-1.547448,1.058245,1.052345,2.514438,-0.424898,-0.700228,2.133898,-0.046740,1.168765,0.247569,0.452416,0.657808,-0.687496,0.785447,0.547003,-0.185118,-2.466967,0.288764,-0.265318,-1.503502,0.331857,-0.692766,-0.810399,-0.406487,0.265535,2.828682,-0.359335,-0.724789,0.561363,0.444973,-0.566690,-0.598483,0.385491,0.390897,-1.344873,2.728686,-0.426216,-0.411866,0.397629,-0.209447,0.515644,0.670034,-2.351077,0.143782,0.052441,-0.047167,0.514510,0.748193
0.773019,0.600438,-0.031834,0.853600,-0.083783,-0.128090,-0.990596,0.708033,1.264171,0.055982,1.262793,0.566638,-0.381064,-0.114572,0.499646,-0.337102,0.902050,0.557047,-0.357724,-0.417131,-0.837997,0.087437,-0.040800,-0.333879,0.883444,-1.308693,0.477692,-0.422169,-0.159485,-1.264514,-0.141240,0.252591,0.108394,-0.875450,0.451883,-1.066322,-0.434920,-0.455192,0.478805,-1.047976,-0.054691,-0.558286,-2.142968,0.286372,-0.484708,-0.717877,0.817378,0.532311,0.797244,-0.041058,-0.515173,0.544230,-0.913673,-0.791823,-0.037312,-0.390048,1.854722,-0.568156,1.078391,0.894828,0.011110,1.007847,1.767815,1.851615,0.482983,0.000805,0.376239,2.644027,-0.609572,-0.066383,-1.213970,-1.101186,-0.274848,-0.273844,-0.265111,-0.043619,1.336038,1.537547,-1.425873,-0.248830,0.086624,-0.130945,-0.569186,0.220788,0.353536,1.429207,-0.386857,0.018710,1.098938,-1.259036,0.380468,0.408515,-0.416585,-0.322546,-1.307371,2.184026,-0.877765,0.186149,0.180435,-0.093814,2.033649,-0.582736,-0.677891,-1.610402,-0.102209,-0.198787,0.056792,-0.441170,0.109457,-0.159757,0.061329,0.582295,1.681473,0.811389,1.537888,0.374064,1.409343,0.253072,1.898881,-0.033187,-0.485730,0.371220,0.147855,-0.271955,0.274475,0.466795,-0.642770,0.163571,-0.851745,-0.182995,-0.181675,-0.423767,-0.935424,0.022715,-1.045162,0.227122,1.367318,-0.151188,0.822934,0.641429,-0.079606,-0.492143,-0.271529,0.320731,-0.617341,-0.167139,-0.010435,-0.101974,0.643639,-0.021036,0.553415,1.432087,-1.930419,4.050749,0.157679,0.967739,-0.470464,-0.798803,0.294612,0.674204,-0.164995,1.059387,-0.035800,-0.855971,0.141456,-0.836105,1.886052,0.068384,-0.007721,0.269215,0.590370,0.210001,0.046130,-0.446852,-1.203764,-1.410809,0.231151,-0.149942,0.147556,0.431390,-0.795757,0.340398,-0.468393,-0.472353,-0.474970,1.198352,-0.985243,0.141980,-0.756752,0.198459,0.001370,-0.729306,0.856956,-0.395085,-0.352626,-0.256393,0.876765,-0.966038,0.354552,-0.029153,-0.123786,-1.149469,0.492493,-1.115597,-0.894597,0.490945,-1.159213,0.438424,-0.447804,-0.600210,-0.241872,0.387142,1.354252,0.127063,-0.377691,1.728234,-0.836910,0.652732,1.179043,0.454942,-1.322435,-0.170941,-1.150187,0.396990,-1.627309,-1.572973,-0.360699,-0.507398,1.158378,0.524065,0.794335,-0.011920,-0.561285,-0.281397,1.163368,-0.493892,-0.779419,-0.700089,0.383958,1.166820,0.261383,-0.322777,0.244221,-0.789230,1.429595,0.456369,-0.459774,-0.765968,0.047097,-0.582972,0.653967,1.217575,0.494913,-0.068633,-0.128802,-0.652262,0.490779
-0.601578,-0.071689,-0.197285,0.874162,0.294558,-0.956542,0.830765,-1.150914,-0.429611,-0.304289,0.090224,1.272167,0.518488,-0.173690,0.630735,1.166232,-1.236162,-0.413340,-0.121140,-0.895906,0.771607,1.848497,0.597791,-1.311258,-1.027677,1.022618,-0.480206,-0.420550,-0.171930,1.024187,-0.081862,0.044663,1.204356,-1.043614,1.468032,1.423663,-0.322067,0.743271,-0.550560,0.213089,3.424156,-0.319184,0.448280,-1.306710,-0.284203,-0.083137,-0.725536,-0.163634,0.921853,-0.795947,0.773431,-0.385973,1.570787,-0.185841,0.933312,0.249993,-0.035254,-1.932974,0.560385,-1.306615,0.143023,0.751670,-0.708280,-1.272200,-0.586000,1.502750,-0.189247,-0.618254,-1.767136,-0.442105,-0.705967,-0.242343,0.039132,0.130182,0.074912,-0.802242,-1.190201,-1.629308,-1.275628,-0.840569,0.545123,0.463355,0.125303,1.010912,-0.373621,-0.094923,0.288286,0.019324,-0.634501,-0.909396,0.086528,-0.235006,1.195126,2.929558,0.803383,-1.105670,-1.321991,0.601419,-2.481249,-0.267805,0.426415,-0.618401,0.406363,-1.214957,0.149258,-2.789434,-0.265037,0.679409,0.873938,-0.050437,-0.315933,0.221748,0.108655,-0.105996,-0.143635,2.413246,-0.383644,1.134611,0.372736,-1.011174,0.429779,-0.610423,-1.478302,0.319822,-0.400382,-0.249885,-0.003659,0.349285,-1.401071,-0.368282,-0.325741,-0.300396,0.587423,-0.589337,-1.209660,-0.157259,0.516086,0.888422,-0.913755,-0.556851,-1.311750,0.355184,2.740580,-0.057424,0.304256,-0.806686,-0.305314,-1.742831,-0.534211,-0.035081,-0.621566,-0.711667,-0.789145,-0.262010,0.751249,-0.055651,1.602270,-0.074040,0.257411,-1.568747,0.056153,-1.283663,1.291182,-1.245659,-0.621038,0.762528,-0.305488,-2.246638,-0.296635,-0.090748,-0.526286,-0.759496,-0.136380,-0.095135,0.315392,-0.148065,0.675867,-0.257197,1.072755,-0.177960,2.459234,-0.384858,1.820907,1.434812,-0.533552,-0.376475,0.068982,-3.468260,0.368769,-0.190103,0.206816,0.083225,-0.575797,1.410136,-0.227416,0.619018,-0.563105,1.231925,-0.068211,-0.006291,-1.064187,1.086320,0.074990,-0.819912,1.398023,0.653471,1.780817,0.628625,0.852120,0.218728,-2.783044,-0.336429,0.615314,-0.472769,0.617573,-2.554696,-0.752450,0.697328,0.353357,3.876557,0.335179,-0.591420,1.044577,0.385724,2.532324,-2.587858,1.373664,0.955346,-1.087706,0.259753,0.442204,0.825330,0.245457,0.504289,-0.900681,1.969539,1.291418,0.046634,-0.776444,1.663467,0.046846,-0.122733,0.955778,0.995781,1.180807,0.406281,-0.888210,0.615045,-0.403419,-0.236233,0.161219,1.356260,-0.794525,-0.471081,0.592570,0.986317,0.018996
1.125985,-0.088362,0.384071,0.622790,-0.365314,1.035399,0.426991,0.959611,-1.127473,0.032091,-1.623492,1.327977,0.657740,0.840945,1.591678,-0.491577,-0.115421,1.390950,1.106087,0.072780,0.426025,-0.180296,0.262030,-1.825679,-1.297809,-0.087978,0.455105,-0.795395,0.831993,1.286817,0.036467,0.457431,-0.379101,0.434731,2.168150,-1.080260,0.496206,-0.113354,0.083984,-0.424020,-0.862955,-0.649439,1.151706,0.973642,0.998469,0.722923,-0.875241,0.620545,1.959025,1.675603,1.261588,3.970761,0.451749,-1.184077,-0.274291,-0.220371,-0.047417,-0.992439,-0.802114,-0.308622,0.906549,0.182641,-0.883794,1.230077,0.724555,-0.859521,0.633319,-0.195517,4.433288,-0.265756,0.568778,-0.995467,0.394911,-0.095882,0.114295,-0.377701,-0.022505,-0.681421,0.671082,0.588361,-1.746593,0.485523,0.916986,-0.524917,0.801859,0.122828,0.138886,-0.006728,-0.997475,-0.002491,1.181179,-1.163802,-0.288860,0.346178,0.197573,-1.145118,0.809644,0.597961,1.729314,1.119600,-0.123948,-0.165127,0.359513,-1.593448,-0.230463,1.284218,0.234272,-1.099983,-0.944375,0.573073,1.189897,-0.428757,-0.621220,-1.263266,0.301863,-0.688124,-2.669113,1.086775,-0.418803,1.081218,1.388003,-0.689089,-1.779515,0.457321,-0.890407,0.174671,-1.720273,0.746476,-0.314328,0.433521,-0.827196,0.002619,-0.623620,0.029901,1.465337,-0.917689,0.935516,-1.087414,-0.469750,0.003200,-0.098380,-0.949324,0.026570,-0.014480,1.077083,0.228914,-1.065546,-0.254011,-0.076344,1.105456,0.827818,-0.117422,-0.021414,-1.682393,0.288762,-0.188286,-0.017298,0.636939,-1.091948,-0.966195,0.317159,-0.195532,-1.170989,-0.759003,-2.114636,0.705759,0.845306,1.004601,-0.534246,1.566241,0.359797,1.898793,-0.289183,-0.647490,-0.394768,-1.729314,-0.024683,0.861626,-0.695225,0.603844,-1.472380,0.357444,1.649927,0.061741,0.228472,-0.223776,0.329255,0.179170,-0.422036,-0.463945,0.495588,-0.062544,-0.125683,-0.326570,0.900354,-0.181984,1.342191,1.749575,0.126960,-1.203072,-0.084175,0.701165,0.589949,0.422312,-1.739106,-1.434257,0.423635,0.048274,-0.885741,-0.463469,-1.141875,0.953512,-1.508820,0.898457,0.912567,-2.226554,-1.064702,0.986121,-0.071341,0.032438,1.275386,-0.469397,-1.166603,-0.580320,-1.391728,1.374058,0.374775,-0.150945,-1.620437,0.490518,-0.438221,-0.464915,-0.643056,0.285841,0.271246,0.425025,0.209290,0.171981,1.042821,-0.296297,-0.141896,-0.495280,-1.896661,-0.103063,-1.609587,-0.299937,-0.761629,0.192148,-0.341375,0.725610,-0.088872,-0.065441,-0.154686,0.594496,0.074334,-0.084886,2.431048
2.003169,0.099230,0.082952,-1.094802,-0.620011,-1.347110,-0.253261,-2.321812,-1.291521,-0.078245,-0.618880,-1.307181,-0.438759,0.282162,-1.204764,0.396839,-2.531893,1.348776,0.067288,-0.700060,0.524043,-1.390937,0.094078,-2.477979,2.958063,-1.189373,-0.153470,1.102426,0.692374,-0.229732,0.107741,-0.460866,-0.029691,0.464291,-0.440670,0.599569,-0.054801,0.570301,-0.135542,-1.422795,-2.346069,3.820719,0.206133,-0.601125,0.242394,-0.739489,0.824581,0.123002,0.576033,-1.286341,0.398976,-0.433007,0.896120,1.599333,-1.111752,-0.000860,1.875754,2.070721,0.055362,-0.440536,0.935105,-0.781963,1.284256,-0.484190,0.475083,0.434955,0.160814,-0.515676,0.283641,-0.098643,-0.104931,-0.213519,-0.040023,0.168515,-0.128317,0.772714,-0.351308,0.530721,-0.578770,0.830137,0.963542,0.307962,0.656342,0.641561,-0.729146,0.089765,0.094094,0.473597,-1.037383,1.010731,-0.219998,-0.339568,-0.776806,-1.082818,-0.748572,0.844594,-1.559469,-0.022827,-0.007291,0.367775,1.258467,-0.626886,-0.105645,1.162443,-0.094108,2.134555,-0.062238,1.670176,1.260850,-0.212159,0.349066,-0.173112,-0.219718,2.203045,1.074904,2.114851,-0.210017,-0.755660,2.477375,-0.656290,0.203811,-0.459826,0.602723,-0.117286,-1.240983,-1.005128,-0.202254,-0.101886,-1.398163,-0.422057,-1.907186,-1.772615,0.149865,2.363224,-0.902304,-0.280194,-0.448615,0.427306,1.217254,0.275670,0.311763,-0.364739,0.668697,0.052095,0.153094,-0.702118,-0.347900,-1.143046,0.526440,0.433584,0.276717,-0.164732,0.680363,-0.605835,-0.042296,-0.125530,0.606759,0.393806,-0.512501,1.841515,-0.006028,0.951498,0.289578,0.904857,-0.005697,0.405207,1.234823,-0.196202,1.298472,-1.096132,-0.390628,0.311792,-1.267202,0.687997,1.230088,-0.146774,0.301053,0.047100,-0.145367,-0.076791,-0.318302,0.209384,-0.875919,-0.467236,0.882045,1.064473,-0.087890,0.501589,-0.889237,-0.337571,1.626271,-0.444403,-0.270747,-0.337524,0.190457,-0.060626,-0.518389,-0.752466,-0.060516,2.216189,-0.158722,0.292445,0.647037,-0.326795,-0.327307,-0.600641,-0.145733,-0.149651,0.098715,-1.566862,0.774885,0.428796,-1.191294,0.147225,-0.175733,0.901131,-0.150675,-1.034999,-0.117469,1.815356,-0.805236,-0.475762,-0.262830,-0.406164,1.750862,-0.302800,-0.748550,-0.246754,1.521414,0.591088,1.083762,-0.531631,0.489146,-1.470211,0.043947,-0.038623,0.294666,-0.338303,0.492298,-0.252134,0.234690,0.162035,0.947025,-0.648839,1.484642,0.684849,1.857523,-0.016282,-1.319949,-0.159957,-0.253982,1.785328,1.765845,0.374781,0.363345,-0.320591,-0.475277
1.304146,-0.835307,0.426733,-1.413772,0.386596,-1.218361,-0.190550,-1.544010,-1.649383,-0.300425,-1.224545,-0.652754,-0.340153,-0.384578,-0.675987,0.327537,-0.956056,-0.232639,-0.076701,0.211711,1.371473,-1.291430,0.015629,-0.568136,2.376893,-1.240925,0.642789,1.390194,-1.043509,0.684996,0.584131,-0.344683,0.945655,0.703459,-1.104379,-0.497782,0.825542,-1.009230,-0.028995,-2.150637,-0.715464,2.090798,-1.862367,-0.774785,0.674319,0.797952,0.804183,0.943312,1.174357,-0.265358,2.452001,1.520797,-1.285301,-1.477252,-1.448207,-0.482842,2.581251,1.754753,-0.841730,-1.331811,0.596632,-0.258933,-0.215750,0.174561,1.538409,0.891086,-0.369661,-0.348821,0.842574,-0.142659,0.563697,0.677622,-0.173757,0.369611,-0.437573,0.675551,0.718846,-0.676813,-0.639313,1.489002,1.156989,-0.676491,0.207659,-0.102244,-0.178948,-0.943413,0.130560,-0.021831,1.492052,1.504463,1.296382,-0.185980,0.538766,-0.542947,-0.537505,0.795576,-0.724672,0.591520,2.162321,0.677732,0.935341,-0.732239,0.217426,-1.062698,0.064197,-0.521170,-0.187432,2.613611,-0.374466,0.915159,-0.701656,0.408709,-0.423942,-0.783399,-0.941187,1.369092,-0.055962,-0.774869,0.812534,1.539854,0.140543,0.540704,1.440026,0.042736,-0.756268,-1.146603,1.361543,1.522214,-0.998763,0.340830,-0.589773,0.697054,-0.621366,0.158954,-0.934717,-0.610080,-0.554366,0.126280,-0.178691,-0.826661,-1.174260,0.399366,0.656555,0.008587,0.720859,-0.834935,0.638736,-0.701501,-0.005773,1.549507,0.088391,-0.331718,0.417772,-1.465846,-0.252894,-0.505021,-0.704997,1.026552,-0.573071,1.310552,0.420534,0.471792,-0.745676,-0.021583,-1.624966,-0.245002,1.376894,-0.493086,-0.226217,0.976668,-1.461370,-0.452694,-0.987214,-0.332216,-1.537385,-0.362886,0.953442,0.269997,0.789632,0.055698,-0.206488,1.051565,0.132646,-0.240164,0.032124,-0.160282,-0.356658,-0.597242,0.593271,-0.155765,0.572021,0.354558,1.545006,0.177179,-0.203709,-0.474286,0.349016,-1.761144,-0.306819,2.684439,-1.087221,-0.906156,2.703105,-0.703169,0.005156,0.042469,-0.864274,-0.128218,-0.646301,1.010426,-0.655255,-0.200982,0.309366,-0.382570,0.076277,0.332352,-0.273405,-1.025287,0.322925,-1.304659,-0.481914,-0.187522,2.020321,-0.138870,0.244514,0.243776,-0.147216,0.247593,0.626235,-0.078188,2.745640,-0.646407,-0.327604,-1.140561,0.178059,-0.660122,0.667739,-0.143548,1.559773,1.054898,1.179977,1.021203,0.159656,-0.218852,-0.795717,0.748551,3.936561,-0.109694,-0.712627,-0.004775,-0.691779,-0.287742,1.805136,0.701508,0.121160,-0.736245,0.199329
0.113839,-0.629094,0.542727,0.212753,-0.904271,0.256490,1.149265,1.690560,-0.745724,0.388171,-1.197340,1.550685,-0.420251,-0.164024,-0.150482,0.158721,1.993558,1.336537,1.164055,1.617313,-0.985355,0.324993,-0.162474,-1.170687,-0.563403,-1.019665,1.016672,-0.413817,0.680868,0.333123,0.120916,-0.506690,-0.070010,-0.732646,2.332563,-0.326393,0.733887,-0.630969,0.172348,0.700066,-0.757876,-1.371000,2.480450,0.963674,-0.425716,-0.717575,-1.095309,-0.042876,0.425842,0.566524,1.225658,1.107738,1.815135,-0.836595,-0.829049,0.074302,-2.294015,-0.697652,-1.456136,-0.380684,2.135492,-1.257019,0.906203,3.841231,1.205914,1.610391,-0.693327,0.260187,0.033568,0.351065,0.136260,0.277359,0.588412,0.113034,0.013216,-0.077109,0.202940,-0.397369,0.209135,-0.250402,-1.485919,0.410605,1.831440,-2.217698,0.677605,-0.787672,-0.741579,-0.047887,-0.069618,-0.370090,-0.572111,-0.043075,-0.515883,0.606373,0.404996,-1.061263,2.136873,-0.145877,-1.214779,1.170571,-1.043691,0.356555,1.328703,1.663640,0.506182,0.459015,-0.338218,-0.092872,-0.684884,-0.147077,-1.005157,0.203444,-1.068203,-0.392755,1.794468,-0.577494,-2.135447,0.098446,0.426572,-0.371927,0.284734,-0.260078,0.294392,-0.396454,1.009727,-0.225686,-0.472398,0.514726,1.442703,-0.142220,-0.394610,0.438857,1.097564,-1.183135,0.384834,0.092992,1.418001,-1.344549,-1.108324,-0.338694,-0.475063,-0.512074,-0.129408,-0.132961,0.251771,-0.608637,-0.462367,0.616151,-0.438420,-0.465803,0.350556,-0.700104,-1.416142,-1.642120,0.855906,1.149896,-1.276747,0.663546,-0.198984,-1.093186,-0.315062,-1.260861,-0.648014,-0.256345,-1.218954,1.702827,-0.576946,1.382386,-1.246123,0.374232,-0.198218,2.806653,-0.806936,-1.712723,0.867045,0.813083,-0.956705,-0.008511,-1.081598,0.020881,-3.029085,-0.438448,-0.204791,-0.586368,-1.027710,-0.433257,1.030916,1.918323,-0.864541,0.762836,-1.020246,0.235427,-0.347568,-0.499208,-0.279783,0.773131,0.115948,-1.411612,-0.098100,-1.032006,1.495151,0.002704,-0.836589,0.060055,-1.520516,-0.850798,1.263647,-0.312470,-0.963442,0.493164,2.104224,1.181683,-2.238953,-0.328522,-0.470051,0.148697,-0.192884,0.914932,0.019983,2.321433,0.632920,0.084108,0.855420,1.593792,-0.206658,2.300041,0.158708,-0.471128,-0.460018,-0.533955,-0.372464,-0.600134,-0.036771,-0.066637,0.788915,0.794912,-0.340831,0.644795,-0.008570,1.463082,-0.989542,0.160262,3.281483,-0.654084,-0.086320,-0.380286,-1.274656,-0.087176,0.016358,0.503554,1.565112,-0.197630,-0.586566,0.557505,-0.364056,-0.561941,-0.350204
0.596169,0.404996,0.273914,0.614074,-0.556653,0.143105,-0.570246,1.705272,-2.090051,0.247478,-1.296936,-0.024525,2.109971,-0.214241,-0.285999,0.886926,-1.399675,1.063687,-0.925192,0.748312,0.741604,-1.178635,0.401705,-1.653055,-0.991222,2.205189,0.299776,0.759898,0.061748,0.050464,0.083288,-0.122270,1.436025,-0.815604,0.641249,-0.664900,-1.388038,-0.896835,0.372392,2.745618,0.401650,1.298760,-0.523855,-0.885228,0.109179,1.748784,0.463626,1.029258,-2.226635,1.210163,-0.935330,-0.600434,1.121915,1.856543,-0.777089,0.193916,-0.871709,2.382122,1.122234,1.726693,1.949388,0.149743,-1.901861,0.378026,-0.164518,1.800851,-0.757550,-0.367940,0.580051,-0.560258,0.581671,2.730540,0.324623,-0.903434,-0.274059,3.213622,-0.974519,-0.747556,0.446761,2.870081,1.263067,-0.622572,-0.247240,-1.154460,-0.739058,-1.215417,-0.251786,-0.480903,-0.176795,-0.832681,0.483666,-0.561355,-0.071470,-0.615230,0.598278,-0.768469,1.430037,-0.265954,-0.081351,-0.229842,-1.034023,0.395647,-0.204637,-0.114598,0.619696,0.871085,-0.268395,0.060939,-0.471013,-0.232724,-0.900875,0.277165,-0.568937,-0.390836,-1.048571,-0.752347,0.147093,-0.355508,-0.338654,-0.578059,-0.997489,-0.710118,0.503588,-0.605937,-0.168518,0.337904,-0.059951,-0.927614,-0.296630,-0.430653,-0.609101,1.075560,-0.760293,-0.629952,2.290870,-0.341603,-0.306720,-0.540454,0.447176,-0.755172,2.574103,-0.042118,-0.412935,-0.007284,-2.004713,-0.375551,0.695148,-0.860037,0.631626,-0.455625,0.363546,-0.558615,0.192123,-0.547341,0.153161,-1.496176,-0.934571,0.954123,-0.081718,0.124325,-0.132749,0.092622,1.893318,3.243034,0.026777,-0.491834,1.746889,2.870608,-0.470095,-0.429386,0.391903,-0.141018,-0.659800,-1.007626,-0.324852,-0.258216,0.685057,-0.358191,-0.306607,0.263924,-2.302938,0.087347,-0.663757,0.164085,0.963141,-0.575428,-0.698793,1.834250,3.238016,-0.065128,2.497666,1.847326,0.238284,1.296933,0.200954,0.759422,-0.763862,-0.945864,0.006469,-0.342993,-0.141205,-0.117755,-0.263395,0.161262,0.871303,-0.698959,0.636626,-0.061433,-0.565471,0.926373,-0.040830,-0.754314,0.265856,-0.111238,-0.246254,0.959722,-0.743923,-1.483102,0.027729,0.596198,-0.402830,-0.252822,1.509578,1.106000,1.252118,-1.310789,-0.049949,0.126913,-1.430278,-0.129013,-0.334046,-0.358167,0.162890,-0.233165,0.025505,0.649570,1.097738,0.183408,-0.856987,-0.297361,-0.497217,0.742691,-1.440650,-0.742482,-0.967807,-0.362701,1.961251,0.038431,0.832795,-0.664768,2.071755,-1.628937,0.262023,-1.340213,0.259509,0.308051,-0.397201
-0.692790,-0.300510,-0.109125,-1.218255,-0.540303,-0.017841,-0.378915,1.258623,-0.796896,-0.476153,-0.615287,2.173282,-0.594931,-0.175822,-0.673023,-0.122203,-1.592685,-1.555809,1.540211,0.228826,0.690891,0.556818,-0.364938,1.982376,-0.914769,2.147160,2.118519,-0.585125,-0.587773,0.295667,-0.426494,1.602223,-2.060849,-0.395517,-0.485803,-0.687124,1.816207,-0.423409,0.094700,0.049242,-1.490218,-0.441588,0.080702,-0.690468,-0.395987,1.997466,-0.691401,0.523382,0.408985,1.687712,-1.619886,-0.831386,0.380524,-0.987007,3.829856,-0.174614,-1.229387,-0.946154,-0.709909,2.312675,-0.688082,-0.646229,-1.488717,-1.441489,-1.006903,-0.450539,0.867377,-0.102145,-1.057285,-0.704658,0.162112,0.209868,0.352358,-0.586440,-0.187443,-0.118570,-1.000718,-0.554157,0.449700,-0.681586,-0.209171,-0.550406,-0.732524,-0.532915,-0.721997,1.541537,-0.278692,-0.722110,0.633253,2.227803,0.481920,-0.019134,1.872879,-0.408982,0.991280,-1.072583,-0.827689,0.188643,2.392900,-0.278606,-0.901775,-0.940587,-0.932138,0.698788,-0.731160,0.600604,-0.434679,-0.306059,-1.038858,0.027972,-0.329641,-0.437356,-0.080891,-0.188280,1.614973,-0.584519,-0.581536,-0.809413,2.148111,-0.878590,-0.818608,0.915196,-0.287887,0.635835,-0.308514,-0.753469,-0.564391,1.993110,-1.718362,-0.398770,0.379207,2.741314,0.412762,-0.645392,1.622932,-0.374855,-0.571814,-0.027858,-0.396375,-0.129336,0.121534,-0.436771,-0.473035,-0.180872,1.019025,0.671292,-0.324830,-0.087738,-0.450454,0.476610,-0.725137,-1.097043,-1.200799,-0.850343,-0.448502,-0.218423,0.952991,-0.784934,0.784572,0.112540,-0.160262,-0.372139,-0.374780,1.272154,-0.472117,-0.877527,0.194346,-0.193719,0.076819,0.992919,-0.167296,-0.076148,-0.081977,-0.488909,-0.869965,0.050342,0.197897,-0.598612,-0.711330,-0.864604,0.231192,-0.241403,0.857969,2.090513,-1.380501,-0.377921,-0.123107,0.705249,0.153942,0.251387,-0.692315,-0.123362,0.858808,-0.059897,-0.105918,-0.739968,-0.203728,-0.829795,-0.070571,-1.094276,-0.629393,-0.791411,-0.490556,-1.816596,-0.168976,3.177683,-1.197073,-0.604935,0.136731,2.480459,0.246692,0.740395,-0.361855,0.571317,-0.980648,-0.604348,-1.173732,1.094716,-0.306956,-0.528081,-0.635347,0.850966,-0.776961,0.683213,-0.015565,3.349054,0.154732,2.153754,-0.892992,-0.189130,0.202251,0.130647,-0.308649,1.461484,0.006326,-0.352010,-1.805863,-0.539469,0.130057,1.625068,-1.466915,-0.244900,1.173451,0.905373,-0.680996,-0.508068,-0.492556,-0.392327,-0.100755,0.124585,0.011696,-0.208211,-0.319424,-0.383228,-0.473681,0.304830,-2.476249
0.556068,-1.293006,-0.180535,-0.530468,-0.205476,-0.477943,-0.579324,1.291832,-2.206225,0.452486,-1.095109,-0.459933,0.067126,0.449685,0.607747,-2.060873,1.276141,-0.041276,1.137393,0.740768,0.300691,0.452335,-0.119214,0.525816,-1.740772,2.127301,0.435108,-1.295665,1.371389,-1.179702,-0.462212,0.899823,0.401126,-1.051443,-0.616306,1.232438,0.475257,0.379081,-1.255307,0.612955,-1.887193,0.257003,0.237308,0.867208,0.179930,-0.296646,-0.386592,0.957000,0.870093,1.693346,0.528425,-0.492143,0.228577,-1.008976,1.699404,-0.116343,0.506448,-0.170998,-1.701933,0.063807,-0.725367,-2.356990,-0.204982,-0.052453,0.198167,-0.941156,-0.145370,-0.405471,-0.700843,0.227709,-0.043651,0.684263,0.194633,0.049272,-0.542419,0.215982,-1.144543,-0.043945,-1.615111,0.753312,-1.362812,0.207940,0.608871,-1.122144,-0.387871,1.108005,0.260830,0.193329,2.178386,0.927366,1.745662,-0.987413,0.672296,-0.888027,1.238435,0.792980,0.448522,-0.520215,1.441322,-1.017459,-0.902401,-1.135051,0.227690,0.721832,-0.279762,-0.594607,-0.041534,-0.268557,-1.155858,0.023325,-0.755401,0.065710,-0.253178,-0.265330,0.991398,-0.805437,1.191197,-1.066761,-1.876180,-1.005546,1.273003,2.561878,-0.591140,0.389065,-1.154945,0.521006,-1.745979,0.103126,-1.357491,-0.383816,2.037951,0.884026,0.405974,-0.631476,1.380800,-0.270342,-0.191669,-0.812283,-1.544874,-0.474936,1.834420,-0.490176,-0.076198,0.036529,0.409038,0.045331,-0.421992,-0.369927,0.132500,-0.155680,1.064525,0.520061,0.009306,0.220859,-0.460451,0.824431,-0.133049,-1.458667,-0.175127,0.885235,0.125970,-0.541584,-0.341190,-0.294051,-0.116471,0.307531,-0.882155,1.035226,0.229614,-0.562253,1.298440,0.252008,-0.580855,1.850194,2.250666,-1.008759,-1.067223,0.147827,-0.351277,-0.467799,0.701733,0.362473,1.479001,-1.984027,-2.228608,-0.620789,-1.583127,1.155085,0.824895,0.088449,-3.176229,0.087164,1.295226,-0.391293,0.614150,-0.429080,-0.499924,-0.990240,-0.369502,-1.245855,-0.647071,0.851198,-0.843277,-0.509391,-0.534629,0.506329,0.176588,-0.592480,-0.328935,0.934337,-0.382622,0.586821,-0.884358,0.072119,-0.819834,-1.005514,-1.349692,0.768001,-0.229835,-0.292255,-0.604507,0.584467,-0.982738,-0.268013,-0.259914,1.180197,-0.361185,0.323968,-0.834682,-0.583703,-0.040852,0.897155,0.913413,0.456853,0.202426,0.365104,2.292009,-0.205041,0.811147,-0.489527,-0.336557,-0.528875,-0.004071,-0.231479,-1.093016,-0.409984,1.418660,-0.518581,-0.684432,-0.080529,0.849114,-0.086043,-0.143988,-0.349136,-0.878882,1.512262,-0.630901
-0.844062,-1.468790,0.057852,-0.686393,0.374202,-1.460788,-0.167946,-0.912334,0.392070,-1.059770,1.013778,-1.279230,0.293496,-0.090238,-0.057443,-1.993436,-1.990011,-1.133444,1.418059,-0.739491,0.868521,1.309884,0.158830,-0.195737,-1.172103,-1.426781,-0.380477,-0.187281,-0.518329,0.301253,0.027893,0.405029,-1.755070,-0.120469,-0.310599,1.029270,0.066076,0.661961,-1.689414,-1.266539,1.755879,0.273878,0.707007,-0.834892,-0.560089,-0.994154,1.090991,-0.195416,1.267530,0.254623,0.180089,-2.137822,-0.267283,-0.302808,0.389133,-0.635915,-2.017847,-0.845645,-0.299662,0.611793,-0.821024,1.545412,-1.019461,-1.705590,0.521770,-0.611829,0.962541,-0.467216,-0.827687,0.229543,0.876638,0.579229,0.117255,1.421112,-0.009797,-1.483911,0.049946,1.280030,-0.391544,-0.462631,-0.581875,-0.026437,-1.210232,-0.267312,0.652937,-1.088974,0.448207,0.081738,-0.784849,-1.162888,0.086908,0.435912,-0.346938,-0.169865,-0.650584,3.198256,0.060834,0.313927,1.004539,0.225729,-0.933215,2.095778,0.596567,1.368516,0.058505,-1.143757,-0.346332,0.199177,1.787395,-0.253119,-0.357623,0.368412,-1.134866,0.207459,-1.281942,-1.010769,0.417377,1.283291,-1.758854,-0.308560,0.280534,-1.070658,-0.249029,0.105966,-0.173000,-0.414597,-0.284482,0.484410,1.688701,0.227470,-0.426426,-0.942342,-0.202249,-0.542802,0.002696,1.166480,-1.304094,2.240602,-1.408638,-0.050815,1.260503,0.573469,-1.503003,-0.147750,1.072190,-1.262083,1.235267,-0.846952,-0.674132,-0.319827,-0.157851,0.038337,0.175910,-0.909566,-0.264236,-1.351761,0.711382,0.626291,-0.187218,-1.111805,0.144151,-0.925592,-0.080630,0.830342,-0.828361,-0.889303,-0.683352,-1.718485,-0.211075,-2.425778,-0.224665,-0.851048,-0.921567,-0.528358,1.310454,0.829951,0.014768,-0.142923,-0.036048,-0.197422,1.642508,0.889513,0.684622,0.839362,-1.221077,-0.184071,0.901271,-3.034862,0.262478,0.242044,-0.896326,-0.585312,0.253735,-0.088711,-0.578473,-0.073402,0.307315,0.727214,-0.318002,0.289391,-1.077736,-0.573027,-0.550316,1.119532,-0.598764,1.297347,-0.594004,0.563207,0.706234,1.626914,-0.776382,-0.869744,-1.401188,-0.024195,0.695220,-2.178589,1.850662,0.517527,-0.081210,0.044619,-1.168027,-0.295581,-0.315494,-1.289408,-0.468706,-1.858362,-0.061873,-0.463997,-0.695241,0.478840,-0.115596,-0.389258,1.094728,2.000778,-0.692606,0.495475,1.422869,-0.250499,0.207654,1.594528,0.317118,-0.184893,-0.887216,3.949530,0.661124,0.311720,-0.596361,0.248816,0.151880,-0.674186,-0.191754,-0.488166,-0.442171,0.456492,-0.348053,1.305181,3.055469
-2.704212,-1.235386,-0.097440,0.030970,-0.317853,0.257422,-0.711393,-0.434740,-0.019744,0.763471,0.733750,-0.071001,-0.053965,-0.168425,0.087501,2.363271,-1.304411,0.483896,-0.371402,-0.781058,-0.406219,0.175714,-0.057713,-1.175551,1.333433,-0.040007,-0.138134,0.613304,2.786220,-0.205179,-0.305206,0.098035,-0.291601,-0.821235,0.208427,-0.840684,-0.191917,0.719033,0.616585,0.981465,0.353427,-0.472426,1.319025,-0.411023,-0.824568,0.196758,-0.594419,-0.758138,-1.992974,-1.376628,-0.313173,0.716958,0.146492,0.596372,0.480653,-0.177950,2.361622,0.261013,0.354111,1.176400,-2.138191,1.710590,0.963868,0.151893,-0.134520,1.123146,0.758391,0.374176,1.830189,-0.267539,-1.271147,-0.839206,0.409089,-0.071229,-0.419741,-0.252851,1.630593,-0.132919,-1.151366,-0.138413,-0.263920,-0.243690,-0.161501,0.560701,-0.842127,0.186689,0.279918,-0.457727,-1.874542,-0.888392,0.845880,-0.189861,-0.363283,-0.519831,0.497012,1.790010,-1.581305,-0.197974,-0.956596,-0.533969,0.936495,1.083648,-0.515572,0.946556,0.202759,0.646507,0.714465,0.074770,-0.306338,-0.410347,1.847828,-0.047034,1.754073,0.397161,1.390013,0.615080,-1.502498,0.333266,-0.182723,0.597202,0.472138,-1.187304,-1.013612,-0.349388,-0.596424,0.957695,-0.225796,-0.173991,-0.692338,-0.091615,-0.531150,-0.512971,-0.243623,0.513485,-0.730047,0.719052,1.822876,1.483519,0.951208,-0.604217,-0.147509,-0.252893,0.114508,-0.081288,1.354747,0.365694,-0.506352,-0.857757,0.282279,-0.530363,1.134279,0.139130,-0.009685,3.273223,0.012447,1.072353,1.007995,0.306958,0.605012,0.869212,-0.134233,2.335103,-1.258823,-0.336256,0.618667,-1.062673,-0.264580,-0.723699,-0.039544,0.505574,1.540745,0.674785,0.641875,0.812407,0.712017,0.199838,-0.707731,-0.105582,-0.172775,0.413413,1.794229,-0.550957,0.747511,-0.531771,1.320684,0.611893,-0.359553,-0.202289,-0.252261,-1.632016,0.316322,-0.758140,-0.748867,0.415967,-0.673008,0.017547,1.027367,2.766616,-0.012106,-0.196171,-0.234690,-0.480717,0.241128,-0.644641,-0.192556,-0.538268,0.909178,-0.118212,-0.751659,0.445709,-0.565749,0.006465,0.127003,-0.616180,1.578690,-1.482621,-1.199097,-0.236875,-0.761795,-0.424461,-1.365700,-0.610816,-1.319446,-0.217981,-0.433246,-2.485129,-0.546408,0.069389,0.854042,-0.167691,-0.722906,-0.079470,-1.087564,0.741120,-0.213885,-0.346707,-0.407280,-0.299191,0.508444,-0.438978,1.870208,-0.073775,-1.558475,-0.453702,0.572795,-0.029036,-0.604597,-0.304691,-0.568003,-0.399825,1.399767,0.744866,0.665756,-0.340914,0.656492,-0.395043,-0.679041
-2.281935,1.364488,0.346271,-0.247318,0.402519,-2.552590,0.439955,1.129062,-1.666144,-0.322356,-0.983812,0.727701,0.701322,0.766054,-1.538138,0.327913,-0.800708,0.682802,0.541552,-1.049518,0.635058,0.431247,0.169560,1.219152,-0.706496,-0.913091,-0.344698,-1.090115,-0.786386,1.698901,0.735077,-1.592200,-0.415565,0.246900,-0.943348,1.713047,0.165175,1.120860,-1.353039,0.531770,0.304662,-0.891175,-1.629068,-0.406621,-0.061859,0.167400,0.378520,-1.228772,0.884111,-1.167600,-1.699771,-0.651471,-1.510354,-0.385100,0.567272,1.572671,-1.054130,-0.200444,-0.435477,-0.780252,0.798020,0.344514,-0.473971,-0.774834,0.102593,-0.490717,-0.216303,-0.449047,0.412115,-0.308715,-0.718453,-0.391739,-0.397746,-0.213237,0.024912,-0.641453,-1.036366,-0.040400,0.145148,0.128722,1.007957,0.364037,-0.675507,-1.016518,-0.468137,-1.256353,0.124599,1.131090,0.065791,-0.549963,-0.337957,-0.106954,-0.290080,-0.457365,-0.153311,1.120807,-0.537213,0.038126,1.094272,0.463321,-0.620562,1.767171,-0.763198,0.105356,0.732400,0.587959,-0.441259,-0.093899,1.944916,-0.876516,0.340909,-0.637305,-1.573058,-0.785005,-0.500887,2.466613,-0.493280,-0.558577,-0.554579,0.883078,1.201307,0.029732,1.303133,-0.066328,-0.417051,-0.503233,0.819478,0.160586,0.165611,-0.324121,0.060446,0.071807,0.471968,-0.084528,-0.617784,0.053184,-1.375123,1.847302,-0.456438,-0.364196,0.732433,0.320083,-0.257314,0.053940,-0.718367,0.630360,0.777895,-0.187233,-0.315681,0.279536,-0.656693,0.128174,1.520612,-0.409166,-0.246478,-0.941480,-1.545098,0.570003,0.763508,-1.281989,0.342997,-0.379124,-0.780794,0.990939,0.179810,-1.049400,-0.408124,-1.641887,2.067790,-0.795013,-0.383950,-1.340696,3.260931,0.142218,-0.669960,1.567663,0.730576,0.004784,-0.362548,-0.371741,2.250460,0.318446,-0.799297,0.217501,1.127717,0.375079,0.661224,-2.311497,0.514457,-0.314979,-0.884356,-0.245000,-1.259916,1.331711,-0.175843,-0.092352,0.565366,4.309235,-0.190180,0.549633,0.555212,0.250044,-1.031077,0.763197,-0.451252,0.049279,1.072699,0.066510,1.461581,-1.826584,0.592199,-0.956074,1.522794,-0.627930,0.363620,2.822086,1.973140,-0.396586,-0.212098,-0.873203,1.066145,-0.501933,-0.065205,-0.825687,-0.837207,-1.496952,0.482463,-0.235600,0.182113,0.249657,-0.296346,1.126773,0.711870,-1.977496,-0.615186,1.175292,0.499692,0.379972,-1.372842,0.729836,0.749555,-0.403311,-1.554559,1.750242,0.511052,0.042482,-0.772213,-0.040938,3.220332,-0.190054,-0.360048,-1.144930,-0.872314,0.149139,-0.503413,2.264758,1.155068
-0.824773,2.725498,-0.282774,-0.027615,-0.412427,1.211616,0.635133,1.117326,-0.312931,-0.709664,-0.117414,-0.540334,-0.207188,-0.186423,1.625847,0.356674,-0.432556,-0.278733,-0.729949,2.232921,-0.747044,0.857943,0.402361,-0.418716,0.552129,0.617922,0.454410,1.363754,0.107875,-0.401150,0.004226,-1.611059,0.656233,-0.575495,1.450210,1.759186,-1.325945,0.328071,0.059302,0.580620,0.044842,-0.665288,0.844986,-0.900496,-0.227781,-0.320378,-1.218859,0.781935,-1.392583,-0.498599,-1.183719,0.020217,0.176762,-0.421491,0.094273,-0.426518,-0.527349,1.137269,-1.642605,-0.605890,-1.553915,-1.286155,-0.873139,3.709335,-1.128761,-1.896702,2.070414,0.019115,0.099384,1.373245,0.571372,-0.216561,-0.240639,0.206194,0.488727,-1.201785,0.629455,-0.303708,-0.367435,-0.594434,-1.216877,0.971564,0.970963,1.455917,1.549630,0.356472,0.510730,-0.030503,-0.433141,0.602677,-1.866889,-0.220666,-1.511767,0.557291,1.333281,0.930207,-0.818110,-0.403498,-0.063013,1.351844,-0.853194,0.242266,0.400338,2.132653,-0.156135,-0.785747,0.424788,1.045685,-0.035952,-0.110977,0.236321,0.961197,0.380683,-0.967535,-0.239178,0.291618,0.007736,0.585932,-0.465292,0.687834,1.562535,-0.719971,0.330842,-0.592557,-0.227808,0.226724,-0.509773,-1.038385,-1.382537,-0.620427,-0.444314,-0.001717,0.026864,-0.980847,-0.047183,0.511970,1.303517,-1.145040,-0.603158,-0.336893,0.223247,-0.287050,-1.476327,0.073046,1.082297,-0.712652,-1.206637,-0.386124,0.156940,-0.575785,0.311304,-0.172467,0.430763,-1.402873,1.118262,0.660308,-2.348739,0.641878,-0.424125,-0.176172,-0.408145,-0.570772,0.666563,-1.329664,0.143902,-0.561709,-0.703173,1.287637,-0.202803,0.518711,-1.897330,0.545771,-0.123715,-0.462901,-0.000037,-1.281693,-2.243143,0.318808,1.511527,0.266545,-0.221590,-0.403874,1.268873,-0.911764,-1.567529,-0.355839,0.579652,1.243159,-0.774923,-0.915002,-0.520959,0.428905,-1.325797,-0.251452,0.362115,-0.452289,0.284048,-0.965869,0.547550,-0.524947,-1.174763,0.997450,-0.053267,2.473752,-0.289837,-0.447054,-0.646798,-0.831514,0.074827,1.677600,-0.240258,0.037735,-0.402511,0.945668,-0.143870,-0.030804,-0.296802,-0.829099,-0.287507,-1.175905,-1.061851,-0.707947,0.155889,-0.348622,-1.113982,-1.738176,0.022409,-0.365937,-0.342755,0.173918,-0.609144,-0.286938,0.440473,1.039565,0.078102,-0.710639,-0.429055,0.466640,-0.102977,-0.569792,-0.933535,0.736329,0.582797,-0.663254,-1.252948,-0.499744,-0.533813,0.815074,-0.579857,0.805220,1.207853,-0.490965,-0.151744,0.981140,0.112876,-0.045989,1.911669
0.997546,0.756046,-0.807647,2.361869,0.846300,0.250270,-0.323343,0.323143,1.418754,0.578766,1.293609,-1.637862,0.322613,-0.606412,1.086092,-0.419130,0.011741,0.002895,-0.861415,0.046774,0.246308,-0.877012,0.230274,0.214227,0.871130,-3.628177,-0.661063,-0.079016,-0.265327,-0.680404,0.150219,-1.392151,-0.677207,3.643716,-1.185539,-1.321537,-0.349179,-0.536216,-0.405714,-0.712886,3.153141,-1.534836,2.414832,0.119890,-0.075800,-0.515924,-0.074700,-0.118340,0.867389,-0.444746,-0.054502,0.617700,-1.692531,-0.886659,-0.919638,-0.466355,-0.279868,0.046171,1.546293,0.270504,-0.278836,-1.073914,0.556086,-0.939190,-0.060645,0.233845,-1.405071,-0.971461,-1.187645,0.077829,0.036584,-0.256104,0.004364,-0.124816,0.041633,0.877811,-0.157750,-0.872166,0.309266,-0.306155,2.604882,-0.203756,0.904049,1.202222,-1.112222,0.950883,0.203285,-0.350031,-0.419218,-1.815791,0.199960,-0.332280,0.145651,1.782298,-0.113209,-1.107518,2.961551,0.255131,-1.439668,0.344961,0.672845,0.043052,-0.291096,-0.967940,0.229655,0.013111,-0.312824,-0.324207,1.222957,-0.785210,2.012765,0.211033,-1.689217,-0.979171,-1.553420,-1.823649,-0.567068,-0.732300,1.473468,-0.839427,0.665602,-0.651025,-0.319311,0.303774,-1.114808,0.346584,-0.351575,-0.515463,1.512679,0.018565,0.067447,-1.319713,-0.139660,1.263027,-2.678842,1.755535,-0.801791,0.106009,-0.593114,1.245197,-1.505162,0.838870,-1.212644,-0.006395,-1.235107,2.034023,0.105188,-0.329318,0.082548,-0.108275,-0.554243,-0.333889,-0.033668,-1.588630,0.484147,-0.503505,-0.216580,-0.840169,0.714643,0.031654,-0.076221,1.572247,1.121862,-0.335016,-0.475817,1.233987,1.598322,-0.864301,-0.632970,-0.965719,-1.435072,0.551182,-0.671364,0.888653,0.589666,0.271008,0.950044,0.241598,0.932470,0.455737,-2.857590,0.179926,0.405262,-0.442558,-0.269426,0.294427,1.149297,-0.123460,-0.157282,1.290016,-0.684562,0.352619,-0.748921,-0.529086,0.605699,0.226940,-0.119221,-1.255563,0.228440,0.201640,1.195075,1.442731,1.753762,1.471364,-0.168436,-0.450880,0.278813,0.561037,-1.283267,-0.512394,-0.651209,0.454444,1.248826,-0.604609,-0.636969,-0.254015,0.264701,0.509807,0.303405,-0.533848,0.900419,-0.170400,0.998852,-0.976779,-0.961260,2.333099,-0.181495,-0.538409,0.087176,-0.294171,0.285352,2.641868,1.571576,-1.085101,-0.220304,-0.060581,-1.123398,0.812293,0.301699,-1.935739,1.021882,1.094253,2.846133,-0.305065,-0.622223,0.956602,-1.037830,0.391211,0.247456,1.087184,0.032006,-1.142881,0.397229,1.083202,0.470229,-1.083540,-0.395984
1.036212,-0.651139,0.066963,-0.975654,0.467000,1.058191,-0.059991,-1.346897,1.909683,1.149638,-0.279130,-1.497234,-0.126376,-0.403683,-0.346563,3.458176,2.553924,0.063257,-1.486995,1.025209,-0.959111,-1.361126,-0.127373,0.748421,0.199233,1.363524,0.169683,-0.098729,-0.371683,0.176407,0.478787,-0.294476,-1.976778,-0.350385,0.047111,0.011612,-0.546466,1.663584,0.503852,-0.362426,-1.230393,1.471190,-1.502112,0.906595,-0.372776,-0.969929,0.406348,-0.938570,-0.877135,-1.459826,0.010166,-0.564386,-0.179972,1.791391,-0.877560,-0.328040,0.867896,0.829740,0.131138,1.445106,-0.185671,-0.018952,0.844861,-0.806955,-0.251591,-0.104203,-1.003926,-0.309260,-1.870013,0.133492,0.375983,0.751936,-0.136497,0.285201,-0.009655,0.238310,0.787510,1.735681,0.167853,-0.579429,0.936652,-0.172662,-0.829281,-0.200250,0.453966,0.468476,0.028729,0.114034,2.717306,-0.857350,-1.423100,0.374045,-0.961570,-0.676139,0.202731,-0.903769,-1.045834,0.020840,-1.157202,-0.560815,0.777706,-0.013920,-0.836693,-0.843524,-0.454854,0.370966,0.533612,-1.534088,0.126976,0.895980,0.822652,-0.120159,0.314178,0.575534,-1.346072,-1.073307,0.289944,-0.329933,-0.176811,-0.512537,-0.302746,2.104593,1.753130,-0.291208,2.093556,-0.399422,-0.876552,-0.774360,-0.879939,-0.132859,2.104542,-0.929264,-0.514032,-0.046040,2.088236,-0.635335,-0.047189,-0.299516,1.861340,1.606567,0.297724,0.423657,1.030902,0.076363,-1.973685,1.126972,1.434445,-0.309451,0.036809,0.057701,-0.107588,2.082772,-2.159169,-0.222082,-0.229211,2.895042,0.209654,-0.934626,-0.273538,0.959206,0.261442,1.055952,-1.383636,-0.063265,0.356390,-0.551436,-0.971077,0.224232,-0.319015,0.546536,1.018018,-1.512422,2.042914,0.493821,-0.345440,0.379929,0.003767,0.315362,0.625511,-0.591697,1.560005,0.454569,-1.923884,0.048104,0.428967,0.982556,-2.035166,1.106933,-0.648240,0.875316,0.703998,0.038808,0.307068,-0.502660,0.321468,-0.330392,-0.285993,-0.655401,0.193776,-1.342587,-0.177065,-0.356299,1.402856,-0.993693,1.540439,-0.627424,-0.573463,0.230811,-0.401283,-1.404672,0.564365,-0.091407,-0.017569,0.364151,0.115865,1.734894,1.217031,-1.742771,-0.650745,-1.210076,-0.446017,0.651439,-1.128831,-1.186601,-1.010142,-0.777660,0.098570,-0.095794,2.716481,-0.119816,-0.620583,-0.628153,-1.182492,-0.211960,-0.055816,-0.451442,1.087117,0.411357,-1.479866,-0.633294,0.295849,0.279570,-1.683701,-0.880353,0.259273,0.416297,1.969517,0.306842,1.879938,0.462901,-0.621239,1.613079,1.026077,0.337899,0.471545,0.139000,-0.060145
-0.763252,-0.173720,-0.280358,-1.063100,0.460705,-0.422420,0.103449,-0.661326,2.187907,-0.159242,-1.247557,0.051340,-0.132191,0.054115,0.016724,-1.620021,-0.416511,-0.034240,1.674675,-0.644472,0.244353,-0.208040,-0.133615,-0.073946,-0.722585,1.212603,0.002093,-1.051663,-0.784967,0.010836,0.131101,0.762095,-1.625997,2.018748,-1.006046,-0.309479,0.190090,-0.287742,1.009910,0.739155,-1.595225,-0.345106,1.082421,-2.387214,-0.287610,0.765265,-0.021515,0.512794,0.962867,-0.020149,0.652056,-0.052565,1.373038,2.511518,0.516468,-0.262630,-1.513324,-0.919504,1.812849,0.013627,-0.948055,-1.274407,-0.623607,-1.431228,0.574874,-1.941385,-0.557000,-0.313979,-0.411178,-0.305673,0.918943,0.650829,0.374887,-0.047009,0.334958,-0.705659,-1.097387,0.922789,1.871255,0.681674,-2.011659,0.164883,0.055417,-0.947368,0.622029,-1.412395,0.030983,0.387338,-0.048847,1.530731,1.730483,0.463379,1.121602,-0.312375,0.169578,1.771908,-0.691192,0.397239,0.532999,0.325312,-1.381409,-1.184601,1.867684,-0.930276,-0.152571,-2.320606,-0.155042,-0.489181,-1.884814,0.627107,0.043403,-0.008983,-0.378304,1.955769,-0.780150,-0.133076,0.690818,1.034286,-0.012369,-0.172178,-0.946692,1.619935,-0.847250,0.213986,-0.942521,0.171162,0.681324,0.535327,2.385073,0.331529,0.723854,-0.002789,-0.001104,-0.584449,-0.038603,-0.733909,0.053771,-0.119815,0.906484,0.164637,0.495683,-0.643058,-0.787658,0.052130,-0.903850,-0.225591,-0.461513,1.088896,-0.724065,0.131468,-0.301408,-0.233965,1.231429,1.288974,-0.612931,-0.157927,-1.229722,-1.020423,-0.664023,0.726518,-0.223290,-0.857426,0.350678,-0.972106,1.554534,0.457211,-0.877442,0.609111,0.316339,-0.087717,-0.680597,-1.418122,-0.320301,-0.659209,-0.379606,0.446223,-0.755242,-0.140066,-0.829066,-0.543549,0.000581,0.143720,-1.163814,-0.075978,1.482151,-0.567733,-0.449512,1.149096,0.414318,0.440342,-0.474943,-0.553958,0.836692,-0.305595,-0.340220,1.109489,-0.479483,-0.813224,-0.026841,-0.520146,-0.853070,-0.662070,-1.025259,-1.717342,0.309948,-1.078218,-0.044525,0.519871,0.198383,0.392966,-1.540096,-0.472690,-0.945181,-0.076306,-0.318172,-0.698748,-0.737959,0.703496,0.526151,-0.724984,1.161980,0.721013,-1.134827,0.498933,2.223825,3.618323,0.342435,-0.941856,-0.633341,-0.060218,-0.075555,-0.242870,-1.270015,0.945725,-0.126888,0.292581,-0.911059,0.326875,-0.497165,0.589147,-1.862596,-0.405902,1.434546,0.802890,-0.478587,-0.378459,-0.705751,0.017627,-0.642793,0.210758,-1.063488,0.743772,-0.718012,-0.025132,0.076420,0.191217,1.142952
-0.187982,-0.481254,-0.116765,-1.155715,-0.392558,0.480830,-0.185242,-0.929294,-0.427725,-0.080678,-0.219388,-0.265997,-0.180822,-0.130469,0.334429,0.038774,1.035393,-0.306393,-0.788928,-0.840738,-0.285310,-0.556968,-0.289173,2.223963,0.097329,0.705685,-0.896085,-1.123101,-0.115587,-0.975019,0.199348,0.958193,-0.021138,0.051581,0.247699,0.469610,0.667808,-0.754382,-0.864299,-0.123522,-2.349061,-0.028563,-0.370777,2.737620,0.594564,-0.342546,0.192666,-0.392104,-0.236197,-0.125746,-1.128569,0.234272,-1.143545,0.505435,-1.178255,-0.408870,0.237847,-0.450375,-0.976409,0.956815,-1.107706,0.324462,1.094119,0.059407,-0.452839,-1.520039,0.086205,0.872339,-0.256066,-0.104941,-1.035982,-0.148553,-0.486651,0.599456,-0.155118,-0.821884,1.619093,0.020869,-1.242233,-0.310336,-1.194334,-0.824854,0.499122,-0.829850,-0.110358,1.404275,-0.008649,-0.228762,0.583044,0.416100,0.524213,0.202674,0.107591,-0.045029,-1.302192,-0.068588,0.475429,-0.295019,-0.757794,-0.038311,-0.432566,-0.268614,0.506275,-1.462479,0.826908,-0.824641,0.275668,-0.125044,-0.650920,0.336145,-0.430050,0.254891,1.360206,1.854015,-1.402895,-0.115657,1.405897,0.988301,0.000829,-0.381788,-0.956410,0.021312,-0.656036,0.209030,2.159467,0.482630,2.467202,0.033005,0.446331,0.359789,3.719534,-0.728966,-0.001134,4.180298,0.063593,-0.636341,0.310310,0.205340,1.401197,0.063856,-0.035351,-0.437938,-0.970635,0.206585,-1.245172,-0.501211,-0.082206,0.541995,-0.555290,0.292720,0.271132,1.644330,-1.387659,1.121917,-0.164097,0.308249,0.744475,-0.452790,0.804694,-0.386861,-0.491271,-0.334368,1.169819,-0.440381,-0.571853,-0.190931,-0.371212,1.050101,0.574279,-1.595392,2.510704,-0.529749,2.410371,-0.298221,1.143208,1.725800,-0.444020,-0.331189,-0.614494,0.644915,-0.355685,-0.641970,0.637968,-0.181294,0.026493,0.795846,-0.643200,-0.927672,-0.475106,1.084089,0.283270,-0.509610,0.189462,-0.324362,0.353582,0.287783,-1.289586,1.696547,0.211489,0.351395,-1.398875,-0.240315,-0.727511,-0.262317,0.188030,-0.041431,-1.331995,-0.045308,-1.065373,0.148330,-0.789259,-0.184950,-0.966319,0.123276,0.665773,-0.255980,1.528074,0.163325,0.031498,-0.519003,0.059271,0.626386,-0.190082,-1.352067,1.272031,0.841357,-0.435253,-0.098125,1.120848,-0.299672,0.012991,-0.612850,-0.711763,-1.200397,0.202754,-0.558343,-0.182854,-0.355556,0.823433,0.550398,0.738300,-0.317566,1.872886,-0.082064,0.090703,-0.029004,-0.202698,-0.254090,-0.492382,-0.033494,0.223997,1.218069,-0.487609,-0.914027,0.066112,-0.934193,0.175812
-0.765436,0.016666,-0.275454,-1.396280,-0.373881,-0.072657,-0.368784,-1.041097,-1.056350,0.340007,-0.663149,1.529516,-0.488358,-0.046216,-1.630349,0.404213,0.595090,-0.665459,-0.549075,-0.722039,-0.156442,-0.600353,-0.322808,2.367535,-0.475002,2.474590,-0.192700,-0.907186,-0.389382,1.106821,-0.013103,2.027873,-1.468181,-0.145895,-0.249616,-0.331992,0.428017,-1.083953,-0.297515,1.319974,-1.057108,-0.484520,-0.244443,3.202081,-0.643046,0.258777,0.193536,0.818563,-1.334312,0.893730,-1.911361,-0.338489,-0.031278,-0.559567,1.739234,-0.551355,-1.706057,-1.139378,-0.826359,1.382078,-0.748306,-0.484462,-0.812506,-0.465198,-0.304673,-0.668883,0.031087,-0.121964,-1.116397,-0.227119,-1.284416,-0.902108,0.187121,-1.013313,-0.203996,-0.931760,0.348868,-0.556850,1.253949,-0.692513,-0.510776,-0.730071,-1.081170,-0.564418,-0.093131,2.206309,-0.222573,-0.435531,1.751780,1.969022,0.008591,2.653375,-0.031855,-0.460359,-0.338409,0.669318,1.614596,-0.371079,-1.379775,-0.155457,-1.082895,-0.550610,-0.939395,1.392136,-0.170634,-0.098815,-0.013658,-0.478436,-0.699114,0.257686,-0.354430,-0.243179,0.011667,-0.296787,-0.624438,-0.654829,-0.599380,-0.009233,-0.503032,-0.232439,-0.779829,1.809674,-0.621534,-0.339418,1.770211,-0.911829,2.212421,-0.445430,-0.056529,0.136059,3.244537,1.443293,-0.296262,-0.792242,0.227965,-0.417965,-0.203162,1.719633,-1.438994,-0.687747,1.235201,-0.463545,-0.554237,0.031672,-0.196041,0.458953,-0.386589,0.129805,-0.641738,-0.883792,-0.038833,-0.435867,-0.231355,2.875894,-0.486533,-0.289692,1.348916,-0.538282,-0.063141,-0.312364,-0.168342,-0.516574,0.118865,-0.389732,-0.384546,-1.101720,-1.118772,-0.534094,-0.548887,-0.473741,-0.202068,-0.485748,1.606962,-0.378259,-0.463007,1.132955,-0.623785,-0.224125,-0.699331,0.019096,0.588242,-0.819560,0.983242,-0.642399,1.624250,-0.559774,-0.194536,0.942459,-0.560759,-0.238864,-0.607863,-0.447134,0.363664,-0.607273,-0.252991,0.117791,-0.741516,0.880674,-0.033474,-0.632475,-0.359720,-0.556391,-0.722128,-0.876406,-0.775061,0.243885,0.452464,-0.551337,-0.036580,1.717662,-0.492009,-1.180986,-0.609008,0.985322,-0.309970,-0.094436,0.598612,1.072362,-0.406960,-0.441885,2.021791,0.506076,-0.446532,0.002666,-0.547156,0.640354,0.392490,0.559342,-0.804520,-0.229834,-0.273880,-0.526368,-1.065887,0.589944,-0.697739,-0.853610,-0.776872,-0.660524,0.866663,-0.496777,1.796758,-0.367168,-0.730938,0.993295,-0.740544,-0.679952,-0.721760,-0.306169,-0.766229,-0.807467,0.609854,0.893025,-0.610109,-1.040850,-0.479001,-1.422007,-3.730736
2.110754,-0.231625,0.004370,0.475881,0.149947,-0.161929,1.182255,0.418311,0.105214,0.198724,0.263962,1.091139,-0.348478,0.131690,-0.043420,-0.048719,4.149615,-0.011897,-0.100059,0.170087,-0.750753,-0.690263,0.065219,-1.245990,-0.216402,-3.379750,0.183692,1.420509,-0.180189,-0.535509,0.152600,-0.892107,1.852874,-1.080468,0.093451,0.189065,0.011818,0.532424,0.760459,-2.483222,-1.163792,0.515288,0.890500,1.283230,1.609711,-0.185669,-0.788159,0.237586,0.326988,0.538601,0.722799,-0.460581,-0.415118,-1.330889,-1.023257,1.240918,-0.136605,3.150107,0.930549,-1.685446,1.857789,0.631979,0.545055,-0.404603,-0.118301,0.995418,-0.428660,-0.605342,-0.105667,0.619230,1.711117,1.616337,-0.088304,0.947554,0.961960,-0.016519,0.270751,-0.683604,1.817934,0.138688,0.083105,0.354539,0.414390,-0.023390,-0.036408,0.050053,-0.254602,1.274515,-1.361780,-2.014029,-1.237695,-0.566363,-1.466920,-0.305027,-0.645387,-0.874988,1.925632,-0.364508,-1.819217,0.453083,-1.089376,0.216805,-0.067276,0.429440,-0.138054,0.982935,-0.113309,-1.267827,1.092015,-0.555740,-0.858191,-0.222161,-0.881394,0.491932,0.524479,-0.639115,-0.584450,-0.839927,-2.011141,1.639887,-0.340928,-1.212712,1.180368,0.414902,1.145565,0.983121,-0.156273,-0.366744,-0.661091,0.552591,-2.036169,1.680426,1.266838,0.603140,-1.333792,0.427499,0.376978,-0.329906,-0.825018,-0.266101,-1.480824,-0.226524,-0.483737,-0.178401,-0.367833,-1.381320,0.227403,1.906554,0.313350,-0.709768,-0.058652,0.194719,0.034679,-0.726664,-0.188016,1.417366,-0.316825,-1.125789,0.026508,-0.062541,0.296529,-0.699637,-1.566057,-2.033832,0.741381,1.811714,-1.213456,-0.088551,0.084849,-0.061625,0.017965,0.360035,-1.471187,1.170531,0.666496,2.372379,0.965809,0.126992,0.435861,0.616470,0.803025,-0.245585,-2.446759,-1.098262,-0.916318,-0.556078,-0.390792,1.269366,0.376886,0.775991,-1.431677,-0.592474,-0.721861,-0.793480,-0.033591,0.506687,-0.418873,-1.688289,0.367914,-0.634513,1.449739,0.895569,0.077197,0.467143,-0.629419,-1.078681,0.104128,0.919878,6.125293,-0.785860,2.632684,0.365225,-0.313489,-0.456251,0.334270,0.689880,1.639142,-1.247455,0.594651,-0.024155,1.496821,-0.165348,1.255351,1.584781,-0.875830,1.488724,-0.386072,-0.524694,-0.007679,0.066789,-0.810699,0.051785,1.666047,-0.503348,-0.489031,-0.747946,-0.437804,0.597772,-0.237479,-0.355581,-0.041414,0.253980,0.208765,-0.679701,-0.302188,0.178990,-1.239459,0.359894,-0.414099,0.114376,-1.844840,0.190124,-1.929019,0.085196,0.326732,-1.032266,0.327107
0.606280,-0.669425,-0.323046,0.516427,0.285617,1.557637,-0.349906,-0.924108,0.506419,0.417502,1.212010,-0.949355,-0.411605,0.340750,-0.356693,1.428104,2.187750,0.028793,-1.232694,-1.493614,-0.802322,0.055443,-0.239816,0.021140,0.763787,0.322534,-1.425134,-0.691980,-0.179386,0.904249,-0.141203,0.813077,0.907980,0.889909,-0.961008,-0.315301,-0.541033,-0.008172,0.037726,2.919851,0.611833,0.701013,0.343747,1.765732,0.930224,-0.119326,-0.029107,-0.523420,-0.462187,-0.316485,0.734171,0.476445,-0.928037,1.040045,-0.600165,-0.474621,2.177862,1.395016,-1.319610,-1.249170,-1.090118,1.508884,2.963889,-0.286576,-0.336207,-0.289288,-0.728053,0.027408,1.630024,-0.330328,-0.848842,-1.119813,-0.335788,-0.022121,-0.232165,0.639726,0.435355,0.370111,1.008537,-0.638671,-1.248253,-0.691791,-1.640383,-1.322957,-0.540943,0.117254,0.129663,-0.253762,-0.088237,2.356535,-0.701596,-0.138876,-0.757618,-0.661293,-0.840391,-0.638848,1.285913,-0.049545,1.348450,-1.709576,1.590314,-0.652090,0.597532,-1.806983,0.574448,1.490297,0.160603,-0.968148,-1.329453,0.809628,-0.265621,-1.039328,0.786887,2.030094,-1.271867,-0.079738,0.931341,-0.488112,-1.453579,-0.014801,-0.811750,-0.329111,-0.482993,-0.625540,2.207478,0.168543,1.503857,-0.646493,1.966478,-0.528855,-0.604753,-0.999776,-0.234744,1.260196,-0.914310,-1.368933,-1.472418,-0.744466,2.730901,1.146691,-0.249094,-0.653074,1.724471,-0.236935,-0.281710,1.030355,-0.695180,1.173226,0.254429,0.197175,-0.393867,1.967598,1.038403,0.347167,-0.888653,0.119784,1.554423,-1.022690,0.983074,-0.769619,0.286355,0.341078,-0.786209,-0.646390,1.574537,-0.984006,1.090801,-0.053920,-1.169990,0.222643,-0.185013,-1.287301,1.901429,0.015720,-0.315855,-0.126321,1.887737,-0.121367,-0.939640,0.241375,0.977601,-0.697108,0.029508,1.095195,2.159483,1.510991,-1.199880,-2.085682,-0.566398,1.516619,0.190534,-0.474688,-0.746167,0.274734,0.187923,0.221045,0.917333,2.607379,-0.379959,-0.528356,1.980386,-0.623581,-0.449484,-1.449972,0.071406,0.197900,0.701372,0.026240,-1.103389,-0.936549,1.965182,-0.131409,0.030647,0.608202,-0.193239,-1.158765,-1.552303,1.582049,-0.590104,-0.828926,-1.952268,0.853691,-0.466730,0.998338,0.305013,1.216256,-0.079081,0.107141,1.922870,-0.314288,0.045062,-0.154967,-0.011539,-1.114610,-0.719233,0.904749,-0.538576,-0.116925,-0.091744,-1.833683,0.872501,-1.140461,-0.066602,-0.248743,1.038547,0.635887,0.408547,-0.342988,-0.712846,-0.653122,-1.779435,0.573012,1.283286,-0.892743,0.015096,-0.546934,-2.160758
2.040236,0.281009,0.128686,0.204644,0.162411,1.585911,0.246026,-1.135885,0.786718,-1.390141,1.528150,0.027699,-0.232122,0.211087,-0.994495,-1.274192,0.924568,-0.537763,-1.364650,-0.823435,-0.286344,2.289766,-0.356600,0.581586,-0.122345,-0.833836,-1.213430,0.674592,-0.229643,-0.227305,-0.655621,-0.532478,1.007644,0.254257,-0.301885,-1.474965,-1.050249,-0.571587,-1.078012,-1.764493,1.215718,-1.149294,-1.602687,0.496519,-0.119229,0.002101,-0.369412,-0.794434,-1.981663,-0.184924,1.623686,-0.495504,-1.708031,0.361942,-0.071866,2.424587,1.970435,0.224269,1.211947,-1.873635,0.518402,0.048133,1.003364,0.363235,-0.330213,0.635374,-1.394380,0.270535,2.494843,-0.107672,1.264244,0.270046,-0.462663,-0.377531,0.070453,0.037159,-0.564704,0.169249,0.545702,-0.568263,2.445506,0.483734,-1.359062,1.506674,0.687544,-1.968253,-0.225280,-0.189680,-0.407756,1.044181,-1.389380,-0.350359,-0.453616,-1.047164,-0.413349,-0.734691,0.277037,0.170282,-0.197592,0.112350,1.490278,0.877354,-0.009292,1.454894,0.114655,2.714326,-0.589718,-0.891773,0.810593,-0.850474,-0.472834,-0.477360,0.879096,-1.229631,-1.508421,-0.773144,1.618404,-0.838624,0.747583,1.573780,-0.595377,-0.704363,0.809385,0.136755,-0.072771,0.211952,-0.069949,-1.172911,-1.126774,-0.227903,-0.269507,-0.602307,-0.435982,-0.750330,0.060964,-0.222057,-0.578896,-0.229329,-0.689369,0.611572,-0.765388,1.552144,1.910018,-0.243708,4.037977,0.617873,1.208721,0.968293,1.126313,0.312637,-0.687128,-0.468029,3.019389,-0.272572,-0.702269,-1.501799,0.136197,0.938399,-0.145819,-0.175651,0.160192,1.484869,0.322925,3.914866,1.781997,-0.715778,-0.501714,-0.526651,-0.818081,0.102211,-0.508169,-0.621020,-0.507775,0.592740,-1.593480,-0.617697,1.336756,-0.434413,0.598449,-0.200255,-1.963636,-0.186195,-0.861758,-0.407959,-0.396277,-0.338968,2.126982,-0.799965,-0.242042,-0.795979,-1.012599,0.189531,-0.797043,0.558506,-0.130525,-0.494690,1.513829,-2.257800,-0.444498,-0.980238,1.925904,1.061839,1.298798,0.730049,-0.807167,-0.280355,-0.872801,-0.534630,0.668022,-1.245076,2.033667,-0.898285,0.641137,-0.582140,-0.035207,2.315658,0.559942,-0.472094,-0.418086,1.612535,0.778176,-0.972645,1.274865,0.714425,-0.589479,0.132602,0.020594,-0.068906,-0.988637,-0.189215,-0.455849,-0.909746,-0.633989,-0.275403,-0.084325,-0.453939,-0.951789,0.022263,-0.565050,-1.956706,0.504599,0.187649,0.088187,-0.376440,-2.144571,0.002567,-0.855413,-0.269416,2.087589,-0.754289,-0.504791,-1.189694,-0.389559,-0.275484,-0.201584,-0.371293,-3.001002
0.454478,-0.033846,0.084801,-0.150946,0.146630,0.457987,0.725197,0.146899,-1.293517,0.673111,0.903918,-1.296928,-0.356761,0.333691,0.351292,-0.510405,-0.615106,0.002349,-0.077735,-0.447352,0.749042,-0.681989,0.961619,0.732705,-0.051738,-0.439356,-0.479541,-0.637517,0.140733,-0.124516,-0.373496,-0.495724,0.230781,0.182661,-0.328858,0.094299,-0.109100,0.180511,0.390383,0.355852,0.348735,0.209216,0.173359,-0.202486,0.260140,-0.456198,-0.081247,0.322599,-0.418890,0.106556,-0.473294,0.638705,0.329979,-1.365684,-0.232509,-0.197866,0.241298,0.169809,0.106186,-0.710805,-0.728399,0.302343,-0.353381,0.025581,0.317403,-0.340668,-0.071506,0.766123,-0.171742,0.893872,0.382533,0.373797,-0.035486,-0.193765,0.935320,-0.038719,-0.307775,0.224976,-0.404291,-0.993424,-0.068089,0.108355,-0.745745,-0.225544,0.815954,0.207333,-0.043908,-0.069662,-0.706003,-0.359372,-0.400019,0.353092,-0.422917,-0.231456,0.397253,-0.405174,0.684868,-0.089056,0.073474,0.275872,-0.846194,0.075365,0.178860,-0.573465,0.030998,0.129595,0.280369,0.652440,-0.256433,0.003351,0.060126,-0.876441,0.195758,0.015350,0.070641,-0.655161,0.716627,-0.153323,-1.093780,-0.733656,-0.305088,0.038273,-0.127149,-0.558161,-0.494431,0.249187,-0.094952,-0.897157,-0.178811
0.208066,0.074355,0.428351,0.551871,0.721330,0.048741,0.216740,0.262961,-0.085671,-0.557694,-1.032096,-0.119577,0.043760,-0.781749,0.120647,0.049539,0.325484,0.397627,-0.272302,-0.737911,0.688258,0.574095,0.058795,-0.619422,0.136838,0.543331,-0.693622,-0.405772,0.339268,-0.565940,-0.106739,-0.457251,-0.490610,-0.277464,-0.442560,0.191338,-0.412783,-0.169554,-0.330176,-0.045580,-0.311289,0.197500,-0.478919,0.177637,0.675420,0.279200,-0.682060,-0.333152,0.416961,-0.434308,-0.031698,0.186446,-0.477756,0.664584,-0.660875,0.354098,-0.389651,-0.009001,0.423415,-0.525725,0.139875,0.173523,0.424881,0.232550,0.204127,0.218573,0.708548,0.170259,-0.090054,0.044303,0.355536,0.414071,-0.295932,-0.559708,0.294243,0.586888,0.128963,1.102933,-0.160849,-0.745317,0.103589,-0.430088,0.249221,-0.140097,-0.492777,-0.055376,-0.541384,0.539711,-0.370893,-0.082144,-0.206077,-0.024053,0.061520,-0.116802,0.062318,-0.448782,-0.153069,-0.010747,0.006613,-0.432351,-0.664989,-0.344238,0.255152,-0.150921,-0.420206,0.489586,-0.712371,0.199788,0.285359,-0.271336,0.239512,0.231013,-0.275201,-0.102249,0.202772,-0.003764,-0.576929,-0.454466,-0.139459,-0.313917,0.378277,0.179053,0.041719,0.226455,-0.390645,0.289962,0.623257,0.130536,0.332332
-0.379198,0.324407,-0.264407,0.048894,0.184365,0.165230,0.240280,-0.043083,-0.196829,0.227031,0.538500,0.391521,0.107262,0.102497,-0.133666,0.168507,-0.285646,-0.518243,-0.377944,-0.318823,0.192205,-0.196742,0.404971,0.188303,-0.384183,0.393761,0.165661,-0.426836,-0.603419,0.518095,-0.175913,0.297305,-0.287033,0.114419,-0.023798,0.365277,-0.584451,0.029456,0.135683,0.458621,-0.250688,0.133860,-0.389349,-0.194693,-0.236488,0.248860,0.242840,-0.335732,0.250365,-0.006888,0.272168,-0.422350,-0.163279,-0.223244,-0.454094,-0.106640,-0.400900,-0.249690,0.058466,-0.568622,-0.032774,0.353563,-0.115778,0.235430,0.319007,0.374177,0.254352,-0.526632,0.275859,0.312430,-0.250907,0.163235,0.247157,-0.565560,0.210253,-0.485410,0.253397,0.111651,0.024599,0.391138,0.383088,0.013843,-0.290650,0.244342,-0.306893,0.515436,-0.551054,-0.592012,0.387174,-0.543897,0.397099,-0.183214,-0.126569,0.131172,0.169818,0.426078,-0.069316,-0.088442,0.121599,-0.181384,-0.744112,-0.264122,0.443132,0.072096,0.051668,0.028837,-0.070330,-0.167832,0.412945,-0.001186,0.131051,0.292783,0.269440,-0.206921,-0.379215,-0.307129,-0.311413,-0.121592,0.108197,-0.189226,-0.279555,0.227513,-0.201058,-0.288548,0.210985,-0.072900,0.396535,-0.516052,-0.045012
-0.149640,0.150362,-0.289103,0.441551,0.437917,-0.594183,0.798768,0.026881,-0.389794,0.367325,-0.149258,0.174198,0.383872,0.332668,0.006688,-0.733922,-0.272861,-0.054050,-0.115113,0.574810,-0.030861,-0.344927,-0.062297,-0.083614,0.386299,-0.265218,0.343260,0.000894,0.418785,0.527618,-0.053296,-0.468781,0.549623,-0.399045,-0.196237,-0.401397,0.333952,0.068179,-0.351011,0.322521,0.015544,0.101068,0.292981,0.369769,0.019364,0.525928,-0.425026,0.292258,-0.125390,-0.034768,0.065177,0.249571,-0.562015,0.580451,0.287386,0.293211,0.390738,0.398557,0.474398,-0.299079,0.362208,0.502628,0.151173,0.179126,0.010743,0.425173,-0.415905,-0.140850,-0.013074,0.498973,-0.297187,-0.203390,-0.310708,-0.273522,-0.027679,0.225160,-0.307311,0.159124,-0.230613,0.519580,-0.474693,-0.738832,0.363538,0.234748,-0.001282,0.697897,-0.477837,-0.358870,-0.322257,-0.318162,0.470287,-0.274230,0.325871,-0.560312,-0.376770,0.375042,0.561749,-0.118350,0.040659,0.084812,0.622567,0.036824,-0.259989,-0.437017,-0.471440,0.078710,0.286495,-0.363855,-0.290213,0.142470,0.253478,-0.429193,-0.193774,0.185345,-0.099593,0.493203,-0.047525,0.283893,0.450477,-0.121766,-0.443486,-0.330619,-0.026774,-0.175132,0.460414,-0.014975,-0.529328,0.520053,-0.385834
0.126288,-0.402627,-0.195241,-0.581659,-0.220338,-0.425462,0.190175,0.086428,0.254524,-0.189788,0.281367,-0.276803,-0.592934,-0.151288,-0.018695,-0.446171,0.031300,0.155690,-0.219602,-0.291638,0.054755,0.141460,0.218920,0.384927,0.044106,-0.013773,0.275192,0.284663,0.047047,-0.224571,0.450155,-0.197325,0.174452,-0.425528,-0.026387,0.189847,-0.091729,0.180075,0.033529,0.364292,0.163375,-0.445194,0.272121,0.152057,-0.316620,0.295301,-0.102269,0.216271,-0.431054,-0.521053,0.406936,-0.282604,0.341202,0.670447,-0.720174,-0.291379,0.363358,0.396978,0.022060,-0.054554,-0.174172,-0.064374,0.210476,-0.130316,0.122759,-0.372459,-0.211468,0.282352,-0.123620,-0.365064,0.001534,-0.436046,0.342299,0.049028,-0.314901,-0.427483,0.194353,0.340032,0.276279,-0.112773,-0.325189,0.456309,0.210097,-0.484671,0.281672,0.426816,-0.200604,0.293075,0.036598,0.262429,0.335439,-0.171849,0.038430,-0.444038,0.421387,-0.055600,-0.049450,-0.151091,0.051544,-0.132147,-0.257471,0.283808,-0.405109,0.267639,-0.336936,-0.278128,-0.375968,-0.112779,0.201004,0.240246,-0.264112,0.213571,-0.448024,0.382652,0.235269,0.068930,0.097932,0.327930,0.789117,0.000936,0.179330,0.401982,0.591396,0.526973,-0.445351,-0.319122,-0.377216,0.400048,0.449860
0.490109,0.149342,-0.441726,0.961729,-0.216965,0.275524,0.263530,0.425043,0.330744,-0.118033,-0.497218,0.066710,0.105825,0.211848,-0.316647,-0.783577,0.138559,-0.655518,-0.313417,0.583924,-0.358941,-0.372104,0.049731,0.365888,0.296222,-0.012672,0.155821,-0.122079,0.100559,-0.545895,0.310134,-0.154478,-0.097572,-0.453009,0.291833,-0.144031,0.407501,0.070681,0.497724,-0.123876,0.175792,-0.286630,0.427990,-0.430067,0.435835,0.207732,-0.734381,0.320742,-0.122843,-0.046924,-0.184190,-0.377959,-0.390111,-0.174601,0.000478,0.343659,-0.045965,-0.423084,-0.069733,-0.420746,0.287425,-0.006008,0.323663,0.328018,-0.416901,0.229045,-0.477303,-0.083407,0.403159,0.269425,-0.407383,-0.251075,-0.222364,0.614946,-0.314053,-0.442458,-0.502507,0.537632,0.379856,0.306513,-0.444849,-0.061696,-0.288101,-0.491668,0.941260,0.468556,0.009598,0.306418,-0.646650,0.132318,-0.201772,0.280664,0.446610,-0.757813,-0.403484,0.204249,-0.741060,-0.481095,0.330211,-0.334780,-0.074273,0.217778,-0.803345,0.595322,0.396768,0.387434,0.313848,-0.009545,-0.443053,-0.908034,-0.435400,-0.365049,-0.256882,0.432434,-0.085890,0.121699,0.894791,-0.463726,0.460924,-0.004887,-0.300608,0.114963,-0.610060,-0.467416,-0.075415,0.576341,0.496240,0.225974,0.068582
0.295045,0.302633,0.262223,0.350539,0.173089,-0.003677,0.014646,-0.257193,0.338252,-0.131931,-0.684431,-0.136431,0.042645,0.594058,-0.342074,0.102762,-0.170013,-0.122735,0.404869,0.028687,-0.448159,0.288481,0.473079,0.688452,-0.247779,0.700480,0.005352,0.144017,0.266764,-0.062787,0.271778,0.251936,-0.146841,-0.217952,-0.565265,0.255085,-0.286666,-0.418465,0.300794,-0.067324,0.495636,0.086099,-0.175088,-0.300787,0.600163,0.183031,-0.105713,-0.085536,-0.094189,0.135853,-0.000427,0.021798,-0.096819,0.190959,0.508142,0.160570,0.347852,-0.347789,-0.022661,-0.288510,-0.379997,0.064151,0.340749,0.309519,-0.498862,-0.407469,0.550521,0.397379,-0.224373,0.518145,-0.086243,0.265875,-0.168583,-0.011366,-0.520473,0.528086,-0.411124,0.450274,0.511924,0.156826,-0.455587,0.140309,-0.051934,0.225265,0.538886,0.023961,-0.022623,0.596601,-0.205352,0.166174,-0.115173,-0.319791,0.286355,0.563939,0.292361,-0.333507,-0.252792,-0.413825,0.322366,-0.405491,0.343797,0.363970,-0.050911,0.125522,0.394362,-0.013122,-0.269995,0.475153,0.329433,0.095819,0.440148,0.454544,-0.030256,0.107633,-0.339331,-0.407497,0.524191,0.176855,-0.177547,-0.633735,0.359959,-0.683856,0.108649,-0.387014,0.241350,-0.197314,-0.181391,0.158068,-0.433296
0.065159,-0.080507,-0.212348,0.170581,0.437079,0.208288,-0.102885,-0.097754,0.443424,-0.831041,-0.797455,-0.668537,-0.151676,0.289877,0.429653,0.078139,0.315642,0.327686,-0.472865,0.756001,-0.635387,-0.062155,0.262073,-0.054801,0.272865,0.055657,-0.039267,-0.382230,-0.425023,0.337625,0.291023,-0.199697,-0.365683,-0.254297,-0.093345,-0.373376,0.458698,-0.285840,-0.324450,-0.414325,-0.153547,-0.412510,-0.586198,-0.084151,-0.162883,0.155445,-0.254782,0.288460,-0.087513,0.483842,0.224749,-0.089362,0.128410,-0.280937,0.533100,-0.708761,-0.126496,-0.506938,-0.096467,0.023520,0.430167,0.174514,0.027166,0.455692,0.337116,0.555971,0.542259,0.037851,0.021673,0.282777,0.461824,-0.076169,0.190779,0.493756,0.168617,0.263024,-0.453481,-0.508858,-0.103255,-0.920915,-0.204216,-0.198291,-0.310146,-0.287793,0.068579,0.062818,-0.506130,0.225345,-0.307141,0.102415,-0.100113,-0.071460,0.179037,0.380812,-0.073792,0.328016,-0.642868,-0.037958,-0.107301,-0.303357,-0.338257,-0.530050,0.763640,-0.184092,0.073055,-0.357362,-0.069584,0.540382,0.058698,0.072917,-0.285943,-0.333729,-0.050361,-0.077696,0.140638,0.172034,-0.060754,0.050805,0.021419,-0.009756,-0.164195,0.458465,-0.128895,-0.076273,0.268101,-0.923887,-0.049188,0.220050,-0.364156
-0.415513,0.484661,0.054927,-0.442759,-0.713006,-0.093302,-0.104076,0.420792,-0.389677,-0.635378,-0.599054,0.378187,-0.071339,0.632119,-0.378572,-0.082710,-0.879447,0.574208,0.017735,-0.515190,0.144268,-0.253347,-0.492780,0.269695,-0.212704,0.171965,-0.171968,-0.538913,1.547587,-0.247795,-0.284036,0.445655,0.352832,0.304836,-0.457621,0.127247,-0.196751,0.626659,0.042057,0.187581,-0.359503,0.280402,-0.106873,-0.076038,0.493503,0.493275,0.072078,0.088989,-0.527498,0.107180,-0.318343,0.582764,-0.165946,0.048239,-0.183801,0.168681,-0.115563,0.723131,-0.169003,-0.083084,1.245112,-0.086083,-0.290254,-0.380137,0.397146,0.370336,-0.374380,0.415586,0.068458,0.335832,0.017001,-0.368748,-0.332985,0.082666,-0.180953,-0.155034,-0.238638,-0.872045,0.310772,0.059920,0.414641,0.860209,-0.277657,-0.792919,0.795689,-0.035210,0.203333,-0.427488,0.388939,-0.460979,0.286089,0.039426,0.001123,-0.601242,-0.411698,0.004156,0.021396,0.042731,0.443135,0.113770,0.297499,-0.157153,-0.380064,0.046411,-0.172691,0.679710,-0.277916,-0.029335,-0.198167,0.221439,-0.292232,0.250507,-0.432656,0.261281,-0.026122,-0.469616,-0.210309,-0.239513,-0.018436,-0.669166,0.419784,0.334554,-0.085396,0.025381,0.465336,0.651350,-0.769656,-1.004183,-0.378314
-0.048263,0.254531,0.213616,-0.499256,-0.550515,0.102927,-0.227223,-0.402639,0.244526,-0.110369,0.451001,-0.578331,-0.412061,0.284036,0.162446,-0.106946,0.012978,-0.128798,-0.359923,-0.214838,-0.263856,0.390317,0.348478,-0.371376,-0.208205,0.204752,-0.311149,-0.079456,0.413600,0.631693,0.124831,-0.205803,0.224827,-0.108018,0.421542,-0.130000,-0.307835,-0.396204,-0.073447,0.272252,0.749370,-0.373276,0.137203,0.477590,-0.318497,0.046405,0.383950,0.046920,0.446076,0.441107,-0.402446,-0.285399,0.393902,-0.537511,0.434493,0.223134,-0.277646,-0.608179,-0.276197,0.168087,-0.474948,-0.130604,0.305344,-0.059846,-0.038525,-0.477007,-0.189302,-0.358566,-0.301615,0.088103,-0.029652,-0.275411,-0.116333,-0.155937,-0.094497,0.218383,0.354746,0.395847,0.404096,-0.009480,-0.174829,0.563775,-0.181495,0.214805,-0.371156,-0.754150,-0.493889,-0.559709,-0.194443,-0.602793,-0.357805,0.524776,-0.070446,-0.475028,0.447778,-0.127150,0.211273,-0.310484,0.008194,0.203277,-0.251549,0.013733,0.498625,-0.097849,0.138875,0.139549,-0.295916,-0.056588,0.140273,-0.448871,0.177691,0.126440,-0.264270,-0.039727,0.163602,0.186658,0.222504,0.176614,0.446411,-0.340309,0.189795,0.238560,-0.136209,-0.483988,0.398130,-0.448899,0.114102,-0.168883,0.232856
-0.290893,0.369981,0.130285,0.513714,0.561727,0.065885,0.177689,-0.331633,-0.275975,0.285488,0.155569,0.353671,-0.217880,0.121571,-0.208517,-0.478898,-0.125056,0.314350,-0.096617,-0.159891,-0.211008,0.063255,0.076868,-0.160058,-0.120442,-0.639369,0.268567,0.004662,0.140269,-0.359490,-0.007172,0.211165,0.307437,-0.031784,-0.145098,0.025047,0.026701,0.220806,-0.336884,0.228201,-0.297290,0.125886,-0.013355,0.432517,0.162344,0.249740,-0.581003,-0.125499,-0.046253,-0.332647,-0.288264,0.262258,0.335659,0.036495,0.509334,0.085150,0.054163,0.244218,0.082808,0.256667,0.356616,0.058670,-0.012623,0.067806,-0.301036,-0.322474,0.198192,0.592528,0.300214,0.153221,-0.082763,0.301986,-0.076052,0.365600,0.061042,-0.169622,-0.304860,0.012700,0.463811,0.128045,-0.067746,0.261971,0.689900,0.267468,-0.246024,-0.253736,0.271784,-0.526002,-0.286326,0.168603,0.373995,-0.283390,0.108284,0.259559,0.136686,-0.354907,-0.022383,0.352519,0.224156,-0.125656,0.378589,0.181895,-0.055015,0.541560,0.082878,-0.170910,-0.257151,-0.432763,-0.439640,-0.144008,0.148010,0.352350,-0.175729,-0.168702,-0.466916,-0.430994,-0.154336,-0.031959,-0.059628,-0.153861,-0.465812,-0.583976,-0.184577,-0.023143,0.284056,-0.017720,-0.427883,0.142704,-0.389957
-0.242302,0.556791,-0.103655,-0.123364,0.031920,0.705596,0.366437,-0.203599,0.412572,-0.594307,-0.697594,0.086750,-0.469832,0.447830,-0.046812,0.200331,-0.258449,0.159074,-0.258870,0.610311,-0.641376,-0.117665,0.134583,0.050830,0.019290,0.354175,0.733649,0.289411,-0.664276,0.310654,0.036530,0.384486,0.337020,-0.403591,-0.249736,-0.200838,0.257250,0.021623,0.191745,-0.089594,0.322072,-0.121381,0.082927,0.013341,-0.427810,0.469731,0.532721,-0.226291,0.435195,0.245980,0.718955,-0.431322,-0.838418,0.230701,0.656514,-0.159704,0.092125,-0.242742,-0.386530,-0.661024,0.399754,0.068068,-0.084397,0.116441,-0.164919,-0.079186,0.187915,-0.505765,-0.189817,0.349287,0.085722,0.165678,-0.431260,-0.304189,0.515478,0.279216,0.374000,0.204622,-0.084824,-0.318740,0.048417,0.496743,-0.418016,0.499430,-0.301337,-0.405286,-0.453725,0.835362,0.410667,-0.574476,-0.083298,-0.130389,0.403400,0.181659,0.597644,-0.193543,-0.119517,0.149891,-0.103490,-0.013286,0.183526,-0.691791,0.394291,0.156718,-0.521625,0.110023,0.766656,0.212701,0.008991,-0.189966,0.076876,-0.080286,0.184524,-0.193054,0.258366,-0.005080,-0.211237,-0.219984,-0.658857,-0.340758,0.031561,0.303319,-0.310300,0.216935,0.111510,-0.509624,0.353417,-0.631453,-0.457066
0.092477,-0.206567,-0.379315,-0.135600,0.204241,-0.416313,0.207756,-0.149307,0.004950,0.322338,-0.451418,-0.298683,-0.161866,0.196762,0.264961,-0.420593,0.024713,-0.308949,0.040961,0.014653,-0.144947,-0.406599,-0.019036,0.138169,0.266964,-0.543913,0.088554,-0.479930,-0.078898,0.461412,0.467914,0.070556,-0.126486,-0.401628,0.057988,-0.468844,0.509104,-0.493194,0.163634,-0.442841,0.415066,-0.217675,-0.233894,-0.178337,-0.136618,-0.109510,-0.014299,-0.201705,-0.469681,0.202809,0.330663,-0.352839,0.130142,-0.263936,0.419877,-0.421306,0.300117,-0.375974,-0.166205,0.051272,0.257405,-0.414518,0.094710,-0.353572,-0.369460,0.082409,-0.218572,-0.197230,-0.385693,-0.351672,0.405862,-0.295386,-0.459743,-0.375741,-0.427644,-0.099366,0.430933,0.399471,0.215480,-0.517112,0.263299,-0.073989,0.441957,-0.169241,-0.086578,0.165800,0.146702,0.142026,0.426562,0.125351,0.002967,0.000985,-0.100638,-0.319658,0.345864,0.456630,-0.529053,0.002937,-0.142454,-0.025896,0.326516,0.303617,0.386251,-0.130886,-0.482950,0.419832,-0.474798,-0.034534,-0.175768,0.071097,-0.196743,0.325143,0.347578,0.438916,-0.394418,0.031626,-0.322457,0.145326,-0.597881,-0.286956,-0.302989,0.210655,-0.308415,0.547126,-0.336446,0.330179,-0.016549,-0.294694,-0.431610
0.207274,0.429988,-0.198060,0.419808,-0.337000,0.170407,-0.288466,0.264388,-0.081885,0.242144,0.553751,-0.332833,-0.456466,0.008052,0.242875,0.589170,0.558120,0.175161,0.243424,0.052553,0.192234,0.358500,0.045008,0.166848,0.422380,-0.331607,0.555851,-0.529154,0.239774,0.219282,-0.020460,0.207196,-0.412374,0.220062,-0.304154,-0.257077,-0.223861,-0.172984,-0.235382,-0.466808,0.141823,-0.367616,-0.481932,-0.342028,0.246459,-0.560430,0.024592,-0.090162,0.388561,0.403840,0.088917,0.051197,0.363137,-0.043083,0.129221,-0.475082,-0.480439,-0.427683,-0.365909,0.069881,0.236472,0.250972,-0.542323,-0.350388,-0.228365,0.292856,0.515708,0.114042,0.036238,-0.174120,-0.347983,0.420900,0.281817,0.294527,-0.532265,-0.053399,-0.469554,-0.081006,-0.224895,-0.221622,-0.431546,0.016267,-0.506074,0.063135,0.303752,0.000628,-0.286026,-0.114562,0.149814,0.335368,-0.156288,-0.055094,-0.035342,-0.189717,0.169886,0.281235,-0.133727,-0.418269,-0.399128,-0.227860,0.012109,-0.280575,0.320230,-0.204842,0.094672,-0.461026,0.093124,-0.056156,-0.461783,0.325026,-0.220618,-0.352173,0.417965,-0.066790,-0.013794,0.091483,0.279676,0.436896,0.057740,-0.203416,-0.367152,-0.432348,-0.069812,0.034781,-0.481213,0.155753,-0.558012,-0.353925,-0.028230
-0.017256,-0.689095,-0.020479,-0.823605,-0.472451,0.090178,0.496204,-0.400782,0.212175,0.053828,0.699652,0.246392,-0.079790,-0.496005,-0.349296,-0.122093,-0.351051,-0.212167,0.164053,-0.434369,-0.003320,-0.127877,0.475652,-0.101667,-0.399265,0.249703,0.242769,-0.013583,0.155258,-0.192931,0.195302,0.353763,0.372960,-0.020355,0.189814,-0.160853,-0.020395,-0.468342,-0.281694,-0.316992,-0.378211,-0.291696,-0.315793,0.242253,0.281506,0.346921,-0.395067,-0.157028,-0.375984,0.286331,-0.346055,-0.274019,-0.527158,-0.685628,-0.198827,-0.159945,-0.527456,-0.068877,-0.518392,0.695827,-0.702458,0.101827,-0.076426,0.635541,-0.268671,0.029459,-0.616157,-0.267511,-0.450855,0.121456,-0.436357,0.009531,-0.258206,-0.307066,0.284961,-0.006532,0.261802,0.518551,0.221316,0.326576,-0.024990,-0.544466,-0.258925,0.013329,-0.603865,0.497253,0.250836,0.032993,-0.235426,-0.352763,0.179606,-0.335361,-0.466943,-0.277037,-0.353951,-1.290711,-0.531286,0.114345,-0.082987,0.328386,-0.274848,-0.575202,-0.431919,-0.221976,0.072961,-0.123599,0.595053,-0.537110,-0.446028,-0.226541,0.319440,-0.518881,0.280789,0.414084,-0.036752,-0.264211,1.262994,0.154867,0.383749,-0.079687,0.262450,-0.131247,-0.277715,-0.054268,0.031521,0.351359,0.092267,0.519735,-0.546735
-0.402316,0.034554,0.228475,-0.229848,-0.356724,-0.506476,-0.600759,-0.024095,-0.527260,0.832405,-0.247894,-0.204508,0.381164,-0.061764,-0.148103,-0.780285,0.390653,0.037051,-0.417094,-0.119504,0.429240,0.045256,-1.085750,-0.105273,0.330648,0.231349,0.613851,-0.815532,-0.822422,0.038145,0.251643,-0.443445,-0.063028,-0.160868,0.115389,-0.348835,0.057215,-0.436108,-0.034495,0.456577,0.647964,-0.090676,0.290230,-0.304070,0.013718,0.395582,-0.997016,-0.459211,-0.537006,-0.742378,-0.337272,0.380698,0.210864,-0.463308,0.916386,0.227524,0.220162,-0.213609,0.219338,-0.332929,-0.058620,0.174934,-0.531633,0.346242,-0.140057,-0.400403,0.283456,-0.329446,-0.475890,0.732230,0.042379,0.273850,0.071308,-0.654466,-0.064575,0.372506,0.071063,-0.111552,0.334730,1.041788,0.435894,-0.721017,0.390272,-0.105256,0.173336,-0.255150,0.094865,-0.394988,0.076690,-1.050274,-0.203018,-0.399161,-0.358108,-0.727460,-0.103498,-0.274217,-0.591891,0.434162,0.337048,0.203216,-0.457699,-0.500224,-1.222919,-0.138270,-0.146094,0.686346,0.948738,0.025000,0.180598,0.028104,-0.049039,0.317071,0.017415,-0.374986,-0.296644,0.150520,-0.084226,-0.175919,0.153804,0.488724,0.223616,-0.439701,-0.446164,-0.324721,0.248332,0.602422,0.538911,-0.035965,-0.380968
-0.178757,0.175089,-0.057712,-0.197877,-0.431260,0.406684,0.340373,-0.768717,0.073841,-1.000053,-0.500630,-0.136444,-0.142777,0.384492,0.151396,-0.407318,0.305248,0.064192,-0.159470,0.571535,-1.015915,-0.755304,0.161518,-0.467126,0.268496,0.583377,0.079575,0.250115,0.738784,0.191043,-0.006558,-0.079170,-0.756839,-0.295639,-0.451874,0.100711,-0.277084,-0.483736,0.098100,0.496499,-0.283360,-0.419053,0.642472,-0.550836,-0.127975,0.249473,1.155228,-0.604309,-0.381103,0.217214,-0.004496,-0.647024,-1.504063,0.148104,-0.610834,-1.026137,0.067853,-0.022461,-0.057551,0.538513,0.843085,0.052281,-0.003420,0.176713,0.137306,-0.353632,0.220180,-0.919759,-0.301303,-0.363632,0.067355,0.210346,-0.064633,0.323955,0.174255,-0.384891,-0.118035,-0.030334,-0.295829,-0.179656,0.447251,0.862466,0.184357,0.257630,-0.122335,-0.452984,-0.720204,0.111580,-0.205999,-0.235534,-0.047226,0.531542,0.104285,0.049899,-0.346315,0.283981,0.054897,-0.170764,-0.396095,-0.183400,0.358705,0.842982,0.035210,0.184412,-0.260111,0.395500,-0.609609,0.335889,-0.021429,-0.392556,0.178414,0.292634,-0.376236,-0.653842,0.381868,-0.686567,0.264080,0.110647,0.103558,-0.140398,0.059822,0.531646,0.212943,0.332654,-0.150725,-0.818074,-0.797203,0.273071,0.214434
-0.221728,0.325027,-0.391837,0.258806,0.050926,-0.489240,0.125701,-0.770244,-0.309944,0.442788,0.468394,-0.350654,0.493258,-0.268660,0.303261,-0.001167,0.025198,-0.016851,-0.034783,-0.501779,0.351592,-0.148576,-0.651784,0.438803,0.356588,-0.590067,-0.156465,-0.292319,0.446279,-0.233687,-0.442095,-0.028896,-0.080392,-0.395576,0.165894,0.120101,-0.314665,-0.046466,0.255026,0.377102,0.054441,-0.462889,-0.422205,-0.075548,0.766805,0.081284,0.261896,0.300305,-0.086704,0.345983,0.304654,-0.391939,0.178417,-0.614764,-0.212114,-0.424643,0.268567,0.137887,-0.453515,0.116886,0.637955,0.345996,0.392697,-0.027958,-0.060523,0.629933,-0.620247,-0.360149,0.202803,-0.177958,0.482126,0.255355,0.148124,-0.162499,-0.247675,-0.003629,0.241603,-0.317186,0.365468,0.346178,-0.368851,-0.462703,-0.420645,0.369154,0.410565,0.245079,-0.125199,-0.446307,-0.122590,-0.227983,-0.468036,-0.124745,0.241449,0.229449,-0.193529,-0.008048,0.449880,-0.155028,0.095952,0.221886,0.227707,0.015070,0.127454,0.345573,0.338882,0.555349,-0.009566,-0.416380,-0.291437,0.330671,-0.066785,0.125932,-0.394850,-0.336789,0.143906,-0.047588,-0.182120,0.005106,-0.262483,0.144571,-0.396180,-0.309112,0.336897,-0.503812,-0.155290,0.214286,-0.345276,-0.130100,0.025124
-0.395850,0.424720,-0.093875,0.275147,-0.019382,-0.091775,-0.137116,0.084863,0.122589,-0.492776,-0.403379,0.108512,0.099195,-0.472973,0.388812,0.089345,0.219265,-0.391045,-0.379931,0.502238,-0.162932,0.799887,-0.112641,-0.210737,0.304942,0.693499,0.071106,-0.120540,0.188111,-0.028356,-0.074719,0.257962,0.436837,0.400553,0.069477,-0.253138,-0.447654,0.783584,0.425549,0.020781,-0.306767,0.616984,-0.321131,-0.252255,-0.327465,0.330660,-0.338239,0.035329,-0.414859,0.330972,-0.022777,0.166032,-0.130439,-0.099577,-0.334487,-0.376766,-0.179368,0.015188,-0.152973,0.025915,0.538457,0.101203,0.563167,0.497934,-0.365553,0.091763,0.804791,0.110548,-0.085158,-0.237565,0.492713,0.478474,-0.113248,0.326006,-0.469282,0.086822,-0.035282,0.259909,0.453206,-0.050106,-0.066330,-0.324074,-0.325962,0.172025,-0.265211,-0.243503,0.176947,-0.411634,0.490678,0.265411,-0.076081,-0.473530,-0.150865,0.507207,0.318388,0.258855,0.234538,-0.356207,0.173011,-0.171663,-0.280029,-0.210896,-0.320077,0.488809,-0.266119,-0.595565,0.306962,-0.425789,-0.290215,0.168238,-0.312863,-0.468636,0.749137,-0.451533,0.257687,0.314180,-0.127940,0.321337,0.214287,-0.304115,0.283150,-0.834594,-0.307462,-0.209674,0.000337,0.353174,0.364895,0.259368,0.401845
0.148785,0.465856,0.260021,0.196597,0.146974,0.228589,0.538945,0.723854,0.238307,-0.004388,-0.348575,-0.502224,0.345291,0.268968,-0.164413,-0.014991,0.194897,-0.062485,-0.026991,0.752067,-0.445003,-0.709843,-0.380129,0.168576,-0.213693,0.267142,0.227469,0.784224,-0.113558,-0.415734,-0.090747,-0.231524,0.143148,-0.267341,-0.367744,-0.451840,-0.137603,-0.322257,-0.254361,0.454294,0.118722,0.390635,0.295449,0.151996,0.465899,0.401308,-0.617138,0.333116,0.600434,0.787143,0.275469,0.131568,-0.041199,-0.272756,0.307034,-0.305498,0.322326,0.242550,-0.193896,-0.456920,0.307634,-0.333671,-0.089731,0.862994,-0.041311,0.146891,-0.161002,0.271260,0.199941,-0.523691,0.239430,0.486175,-0.245283,-0.630109,0.495736,0.463347,0.016635,0.121152,-0.241684,-0.641181,0.323707,0.046213,-0.437900,-0.007973,-0.660140,0.098762,0.014412,-0.506043,0.790819,-0.349002,-0.038453,0.204580,0.494918,-0.391949,0.114613,-0.576920,-0.975402,-0.230643,-0.372969,-0.192460,-0.735619,-0.285928,0.609803,0.583474,-0.057422,-0.107240,-0.329414,-0.100941,0.302754,-0.348103,-0.400401,-0.664386,-0.360878,0.182105,0.250629,0.040372,-0.056306,-0.300737,0.363481,-0.487146,0.449487,-0.009111,0.437041,-0.507958,-0.154116,0.184045,0.390433,0.984565,0.420595
0.120569,0.159224,-0.139866,0.644168,-0.211619,-0.629457,-0.533480,0.630490,0.339354,-0.580490,0.515540,0.146371,-0.116648,-0.402845,-0.129412,-0.069722,0.081540,-0.075483,0.106973,-0.051797,-0.255012,-0.261041,-0.403046,0.111118,-0.100241,-0.614056,-0.151214,-0.113108,0.243498,0.450840,-0.239587,-0.050713,0.225196,0.130076,0.316482,0.281525,-0.366121,-0.385446,0.188576,-0.210362,0.325051,-0.454279,-0.610949,-0.201308,-0.152370,0.305438,0.277445,0.211910,-0.323032,0.474965,0.182526,-0.400424,0.387161,0.310078,0.416360,-0.151460,-0.519181,0.304653,0.293796,-0.022667,0.127712,0.285659,-0.271955,0.373778,-0.107522,-0.546420,0.342160,0.053819,0.168796,0.448259,-0.026391,-0.374222,-0.104193,-0.416322,-0.385582,0.300888,0.029686,0.160545,-0.317257,0.358545,-0.358863,-0.385259,0.438087,0.254013,-0.235438,-0.358281,-0.065851,-0.474407,0.366536,0.680207,-0.409763,-0.532901,-0.185595,0.502632,0.258151,-0.109442,-0.158731,-0.093481,-0.291412,0.307246,-0.238445,0.455295,-0.123219,-0.326145,-0.189258,0.063467,-0.263326,-0.274891,-0.291847,0.166803,-0.258369,0.061338,0.429761,-0.587305,-0.279340,-0.222576,-0.533019,0.100388,0.039075,-0.000057,0.276999,-0.405802,-0.170522,-0.253505,-0.100286,0.118326,-0.218638,-0.289017,-0.159281
0.496593,0.430435,0.192262,0.437234,0.534282,-0.371140,0.536583,-0.360970,0.078899,0.301497,-0.328525,-0.040483,-0.020876,0.084312,-0.226544,-0.032997,-0.014907,-0.498566,-0.236714,0.119285,-0.432662,-0.453483,0.119199,0.521567,-0.149883,-0.753605,0.318096,-0.393852,0.030832,-0.541438,0.071920,0.272250,-0.279611,0.140793,-0.309641,0.138121,0.134840,0.167594,0.299754,0.163531,-0.551526,0.311468,-0.396362,-0.499659,0.419874,-0.148881,0.033377,0.026780,0.432570,0.788130,0.243727,-0.579051,-0.439672,-0.080708,0.451051,0.115894,-0.282522,-0.415562,0.426648,0.288341,-0.612660,-0.278747,-0.043096,0.213208,0.338558,-0.235959,0.835224,-0.042861,0.253993,-0.046246,0.448767,-0.456340,-0.447824,0.780828,-0.482712,0.512369,-0.500407,0.320379,0.257390,-0.246589,0.169172,-0.090312,-0.411573,-0.042387,0.033735,-0.076508,0.536206,0.529356,-0.405716,0.308575,-0.487763,0.445676,-0.260534,-0.022319,-0.245064,-0.391546,0.278663,-0.568973,0.188802,0.422415,0.333347,-0.603953,0.455255,-0.334584,-0.417755,-0.261835,0.198097,-0.429643,0.163086,0.033882,0.366512,-0.579913,-0.527922,-0.355931,-0.136738,-0.348050,-0.559294,0.188477,-0.167809,0.222420,-0.372055,-0.211319,-0.484525,-0.027971,0.430860,0.438735,0.199702,0.392658,0.417898
0.206426,0.188225,0.243027,-0.282736,0.347857,-0.064611,-0.022123,0.368377,-0.307605,-0.334647,-0.437357,0.175447,0.150273,-0.449664,-0.067820,-0.301990,-0.124855,0.411228,-0.214789,0.158271,-0.091801,-0.326806,-0.435318,-0.401449,-0.183219,-0.432913,0.425883,-0.350408,-0.547684,-0.254791,-0.147285,-0.137447,-0.376282,-0.114017,-0.114783,0.368307,-0.133957,0.182120,-0.501216,0.063619,0.450259,0.383091,-0.027843,-0.099589,0.197463,0.020542,0.518610,0.048796,0.152441,0.328698,0.177024,-0.201147,0.061336,-0.287407,0.414597,-0.519507,0.194830,-0.287668,-0.058320,-0.113306,-0.396931,0.167213,0.439786,-0.403397,0.078007,-0.135110,-0.344157,0.303144,-0.190981,0.052464,-0.340101,0.117533,0.176226,-0.276942,-0.181730,0.197596,-0.103745,0.171101,0.118423,0.095270,-0.060783,0.010835,-0.257593,0.164437,-0.210670,0.391282,-0.327333,0.177139,0.357876,-0.393835,-0.217757,0.044483,-0.241214,0.444408,0.295368,-0.237372,0.413177,-0.083696,-0.003202,0.072243,-0.278139,-0.340146,0.172300,0.115832,0.197082,0.418628,-0.133829,0.440403,-0.141370,-0.335786,-0.000358,0.098308,0.032382,0.388433,0.240861,-0.275290,0.084113,0.381574,-0.197966,0.174344,-0.063075,0.278168,-0.209574,0.213013,0.060683,-0.073767,0.359930,-0.141996,0.029207
0.002428,0.205475,-0.291003,-1.288214,0.047681,-0.650388,-0.051607,0.474152,-0.480230,-0.303925,-0.697382,0.229895,-0.234151,0.102807,0.364317,-0.969843,-0.175285,0.018698,-0.219724,-0.483091,0.939993,0.230689,0.723688,-0.791181,-0.186706,-1.079740,0.139545,-0.064720,0.506216,0.308307,-0.068524,0.188245,-0.005830,0.488204,0.181536,-0.200379,-0.268542,0.516819,0.152874,0.201747,-0.631394,-0.488178,0.283026,-0.016577,-0.321692,0.678919,-1.400095,0.934486,0.236757,0.222088,-0.024112,0.150606,0.130853,0.059466,-0.391593,0.379928,-0.627472,-0.178346,-0.369198,-0.083003,-0.164063,0.130875,-0.881187,-0.101377,-0.039404,-0.026752,0.345069,0.475205,0.140570,0.222513,-0.305043,0.322920,0.321987,-1.033626,0.061851,-0.303849,0.154985,-0.135798,0.506479,0.326442,0.202486,-0.129364,0.078906,-0.511446,0.808802,-0.177675,-0.852531,-0.172018,-0.019457,-0.873169,0.145225,-0.402211,0.005295,-1.015624,-0.271463,-0.233766,-0.252781,-0.196725,0.018128,0.354330,0.111448,-0.217945,-0.231401,0.371421,0.229689,0.470186,0.620467,0.803167,-0.152433,-0.416537,0.483089,0.073044,-0.280475,0.081598,-0.116295,-0.978412,0.408597,-0.169000,-0.164227,-0.212756,-0.112191,-0.188890,0.173176,0.844411,0.109995,0.962593,-0.002091,-1.199235,-0.248275
0.482138,-0.511460,-0.453272,0.028609,0.556299,0.284361,0.187987,-0.340025,0.131363,-0.024632,0.147412,0.045851,0.365438,-0.319604,0.368143,-0.347638,-0.596234,0.517304,0.030350,-0.360485,0.763350,-0.813927,-0.544008,-0.350664,0.255847,-0.185617,0.095660,-0.429416,0.403906,-0.259476,-0.449180,0.403148,-0.591637,0.194752,0.034839,-0.485673,-0.418668,-0.243123,-0.374504,-0.423696,0.338854,0.187841,0.458887,0.226071,0.009748,0.477600,-0.153305,-0.390950,-0.324572,0.140763,0.443303,0.640282,-0.389389,0.193559,0.428658,-0.644438,0.254570,-0.006834,-0.442174,0.068824,0.270448,-0.137730,0.093385,0.662617,0.000588,0.067007,0.039280,0.313679,0.007530,0.150824,-0.440281,-0.275444,-0.153978,0.620581,-0.491719,-0.214734,0.641682,0.357009,0.019139,-0.159085,-0.446188,0.022829,0.062067,-0.296929,-0.252434,-0.350078,0.205914,0.177869,-0.327594,0.039682,-0.396459,0.131475,-0.035524,0.338754,-0.474382,-0.034404,-0.105938,0.003897,-0.222228,0.010171,0.427426,0.885259,-0.461668,-0.345739,-0.082290,0.219392,-0.112835,-0.098166,0.231323,-0.544667,-0.347161,-0.088741,0.476427,0.219176,-0.036912,-0.696544,-0.223325,0.438579,-0.168377,0.392751,0.453640,-0.549619,-0.173010,0.304968,-0.076624,-0.255753,-0.499077,-0.622976,-0.224796
-0.461348,-0.163186,0.078534,0.047769,-0.429903,0.416076,0.183314,0.019336,0.564374,0.437969,0.175030,0.055655,0.255486,-0.187554,-0.058825,0.469612,0.319203,0.358498,0.452670,-0.818688,-0.085690,-0.182027,-0.637540,0.117863,-0.114580,0.049169,-0.452815,0.060470,0.077318,0.381648,0.198139,0.382179,-0.411408,-0.329723,0.343947,-0.290998,0.254365,0.419687,-0.035447,-0.444354,0.339413,-0.054704,-0.358420,-0.221419,0.082950,0.034324,-0.174645,0.358790,-0.136949,0.478535,0.567839,0.249613,-0.149237,-0.256915,0.064309,-0.095333,-0.302086,0.664309,0.229593,-0.252124,-0.285105,0.161950,0.949295,0.514552,-0.101119,-0.075373,-0.429770,0.170365,-0.059990,0.220815,0.368947,-0.061495,0.509988,-0.032505,-0.355778,0.438477,-0.126075,0.116684,0.004180,-0.111136,-0.443073,-0.121860,0.471813,0.394533,0.181081,0.042715,0.574712,0.708141,-0.372906,0.101510,0.170599,-0.008106,0.220892,-0.046526,0.270672,-0.447869,0.325809,-0.058971,-0.171121,0.206680,0.150878,0.234125,-0.961978,0.292791,-0.151267,0.023344,0.393593,-0.506035,-0.200187,0.070222,-0.095167,0.108730,0.304262,-0.468151,0.173308,0.513090,-0.153718,-0.404143,0.249583,0.659183,0.159364,0.112211,-0.075183,0.472218,0.028636,-0.179024,0.001894,0.607786,-0.259434
-0.285520,0.347679,-0.374270,-0.039915,-0.050160,0.581392,-0.097995,-0.104616,-0.425417,0.736467,0.365426,-0.290090,0.262064,0.392921,0.324781,-0.060266,-0.163872,-0.398737,0.414775,-0.027813,-0.691434,0.463585,0.294612,0.339470,0.174523,0.198151,0.263619,0.371804,-0.379826,0.353115,-0.563891,0.197357,0.176056,-0.202721,0.366045,0.083209,-0.190909,-0.835546,0.493934,-0.068835,-0.297627,-0.173114,-0.204406,0.062134,0.021416,0.606632,-0.607712,0.374413,-0.373031,-0.207652,-0.405775,0.309427,0.265744,-0.491305,-0.558959,0.455942,-0.165226,-0.130236,0.131444,0.098029,-0.330085,0.018909,0.305483,0.091317,0.120517,0.454788,-0.382714,-0.057856,-0.056480,0.510715,0.379820,-0.212946,-0.106238,-0.040607,-0.321312,0.230267,0.327164,0.077419,-0.005646,-0.418072,0.317738,0.578051,-0.488831,0.460943,-0.289566,0.283887,0.107628,0.023218,-0.074728,-0.068521,0.068797,0.007502,0.484104,-0.051826,-0.191563,-0.006395,-0.580747,0.124772,-0.023969,-0.454117,0.399832,-0.018057,0.480449,-0.210229,-0.180962,-0.147269,-0.021495,-0.182849,-0.350478,0.235503,-0.483911,-0.304507,0.109361,0.527171,0.445204,-0.279578,-0.174537,0.272999,-0.022053,0.401517,0.376684,0.220918,0.025165,0.074661,0.217956,-0.352669,0.410599,0.279241,-0.147577
0.418763,0.518941,-0.351434,-0.395739,0.183715,-0.608194,0.458902,0.211883,0.455392,-0.546102,-1.035071,-0.536902,-0.402382,0.128680,-0.318389,-0.070210,-0.022880,-0.392420,0.042927,-0.129785,0.451865,0.008170,0.315848,-0.325995,-0.226831,0.003889,-0.648429,0.109724,0.073443,-0.025631,-0.302842,0.091726,0.298403,0.204674,-0.088401,0.110333,-0.153438,0.680998,-0.205574,-0.219237,0.147356,-0.351802,-0.580761,-0.094287,0.478168,-0.692110,-0.388091,0.412982,-0.105378,-0.034010,0.198963,-0.227994,0.338959,-0.126342,0.052719,0.545936,0.484803,-0.536777,0.161395,0.328016,0.359315,0.459115,0.535035,0.484552,0.427648,-0.148333,-0.010812,0.009228,0.455548,-0.459517,0.432188,0.238791,-0.248772,-0.494183,0.181421,0.155535,-0.024179,0.446931,0.121900,-0.263289,-0.422099,-0.014277,-0.768978,0.138889,-0.585935,-0.343769,0.113142,-0.547190,-0.431496,-0.078939,-0.236900,-0.493338,-0.413868,-0.107503,-0.104133,0.076009,-0.004690,0.033154,-0.009871,-0.110673,0.463515,-0.474323,0.297979,-0.131346,0.159826,0.791615,0.072779,-0.438685,0.532595,-0.081916,0.344879,-0.200074,-0.080511,0.296228,-0.240533,-0.637576,0.452454,-0.017583,0.207470,-0.006418,-0.136699,0.658005,-0.467471,0.266565,0.102220,0.162510,-0.071233,-0.252383,0.269499
0.036296,-0.227088,0.496141,-0.655329,0.208185,0.267381,0.332115,-0.458664,0.475278,-0.405567,-0.520011,0.040951,0.362382,-0.262036,0.161270,0.436023,-0.664375,0.050840,0.431170,-0.070460,0.101599,-0.144673,0.240257,0.199220,0.039022,-0.683798,0.251351,0.078962,-0.071940,0.042709,-0.255157,-0.310377,-0.295126,-0.441816,-0.454022,0.120153,-0.199821,0.098354,-0.040469,-0.400674,-0.614508,0.448635,0.331033,0.120110,0.822919,0.564613,0.367692,0.606513,-0.490367,0.030463,0.385509,0.524523,-0.183558,-0.042239,-0.041846,-0.531544,-0.114368,-0.275840,-0.005029,0.083497,-0.294849,0.249201,-0.485696,0.268562,0.265634,0.392056,0.255606,0.114245,-0.632814,0.131674,0.172189,-0.494130,0.035011,0.596902,-0.499986,0.443317,0.283479,-0.215639,-0.241548,-0.507232,0.161256,-0.396743,0.277255,-0.676537,-0.382213,0.204087,-0.672861,0.192755,0.197165,0.409225,-0.403363,-0.526373,-0.318958,0.313122,0.062648,0.000146,-0.214819,-0.268793,0.271177,0.268222,0.426781,-0.364595,0.371911,-0.173501,-0.057465,0.147521,-0.705901,-0.285512,-0.150741,0.322454,0.527829,-0.159186,0.108734,-0.493277,0.354724,-0.812054,-0.058945,-0.180372,0.135192,-0.219319,0.194267,0.088490,0.209898,0.319152,-0.391991,0.155208,-0.771345,0.380018,0.225928
