0.184665,-0.209496,0.021888,-0.440568,-0.009525,-0.255835,0.059120,0.255093,-0.185821,0.261682,-0.445969,0.208965,-0.132438,0.167731,0.091588,-0.261132,-0.045742,-0.141261,0.064211,0.425487,0.429237,0.681524,0.012581,-0.287893,0.184193,-0.007013,0.365435,0.474569,0.531135,-0.050482,-0.153736,-0.248284,0.585854,0.483392,-0.318985,0.180029,0.019082,0.232041,0.115097,-0.048586,-0.240511,-0.033665,0.244942,-0.053042,0.230448,-0.104314,0.175737,-0.112053,-0.150923,-0.098212,-0.163150,0.023479,0.306406,-0.342433,0.482934,-0.176520,0.019592,0.140015,-0.542215,-0.271895,0.323700,-0.334180,0.134917,-0.234450,0.379448,0.089194,-0.174427,-0.248923,0.178070,-0.279433,-0.341413,-0.027476,0.026490,0.115615,-0.106820,-0.118269,-0.177437,-0.103873,-0.133262,0.278306,0.415409,0.043454,0.372081,-0.423471,-0.314452,-0.336196,-0.015522,-0.027159,0.127846,0.233345,-0.391017,0.301085,0.429799,-0.468294,0.168749,-0.105643,0.034365,-0.027092,0.270563,0.281647,-0.243781,0.065606,-0.100938,0.361722,0.069024,-0.387580,-0.010360,-0.301098,-0.513136,-0.069416,0.223910,-0.085123,-0.352414,-0.129609,0.062805,0.206624,0.143214,0.180289,-0.328921,0.519587,0.210530,0.072101,-0.175620,0.325580,-0.071857,-0.051815,0.503871,-0.099940,0.453592,-0.423991,0.011170,0.188132,0.370809,-0.010088,-0.430258,-0.023974,-0.081022,0.102729,-0.286448,-0.216474,-0.113038,-0.032565,-0.130244,-0.004390,0.476175,0.306460,-0.162224,-0.304736,-0.206228,-0.226405,-0.308476,-0.303460,0.434609,-0.185890,-0.036939,0.006373,-0.119414,-0.031173,-0.124860,-0.074355,0.119887,-0.242641,0.775439,0.681755,-0.123534,0.088971,-0.117170,-0.444627,0.003081,-0.134860,-0.234719,-0.163038,0.332712,-0.171750,0.145890,0.270013,0.573735,0.046339,-0.176217,0.034186,0.323139,-0.144277,0.049911,-0.014806,-0.048477,-0.178118,0.566443,0.078315,0.445378,-0.166972,0.037570,0.553041,0.096667,0.044704,-0.005352,-0.083504,0.092255,0.038917,0.029534,0.283562,-0.295791,0.237324,0.190420,0.065654,-0.309412,0.228164,0.073995,-0.163240,0.164530,-0.062957,0.190199,0.011691,-0.259617,-0.058935,-0.360872,-0.443886,0.043615,-0.039750,0.053248,0.241067,0.056620,0.117684,-0.285860,-0.171847,-0.081370,0.025723,0.203204,0.074363,-0.020525,0.019367,0.179861,0.173640,0.134875,-0.354245,-0.175502,0.014610,-0.261617,0.255609,-0.448400,-0.131559,0.065427,-0.202620,-0.103620,0.206191,-0.140267,0.003470,0.063229,-0.081702,-0.053186,0.136771,-0.579141,-0.329398,0.067768,-0.002701,-0.008502,-0.256981,-0.039398
0.210479,0.432663,0.034467,-0.049713,0.043585,-0.266205,-0.001881,0.086230,0.074236,-0.123334,0.200442,0.003730,0.096680,-0.106966,-0.027099,0.076922,-0.299973,-0.131851,-0.310807,-0.161896,-0.326936,0.011624,0.073353,0.770147,0.002031,-0.126892,-0.093183,0.299711,0.192653,0.252035,-0.146007,0.014624,-0.852287,-0.181448,0.503148,-0.437493,-0.116134,0.100511,0.148705,-0.036182,0.014687,-0.342515,0.163199,-0.055393,-0.159102,-0.060857,0.040040,-0.153351,-0.165420,0.063981,-0.456594,-0.213838,-0.452754,0.450140,-0.247278,0.134283,0.279613,0.021712,0.021847,0.588813,-0.512723,0.207603,-0.161617,0.074148,-0.304338,-0.067604,0.372664,-0.009782,0.207082,-0.172983,0.340880,-0.272699,-0.107485,-0.155471,0.395162,-0.311006,-0.171377,-0.376741,0.318987,-0.177194,0.059603,0.176818,-0.185682,0.540850,-0.091995,0.451354,-0.006407,0.034891,-0.220387,-0.175926,-0.636852,-0.082084,-0.143467,0.319100,0.084510,-0.114941,-0.150211,-0.161047,-0.077589,0.395004,0.329802,0.502271,-0.190002,-0.151357,-0.226416,0.165956,-0.005162,0.324463,0.349362,-0.139264,0.255600,-0.115930,0.160374,-0.402551,0.305173,0.206748,-0.159062,-0.266394,0.267933,-0.034885,0.437145,-0.206283,-0.120480,-0.086727,-0.289631,0.069900,-0.288543,0.097803,-0.160341,-0.097188,-0.224520,-0.262985,-0.162018,-0.112039,-0.095917,-0.021790,-0.160856,-0.043069,0.356380,0.185646,-0.105864,0.115709,0.039723,0.004251,0.064870,0.011480,0.011538,-0.285583,0.061200,-0.091730,0.180186,-0.187510,0.056028,0.359852,0.338542,-0.320145,0.223797,0.185417,0.316048,-0.118211,-0.125939,0.016975,-0.209446,-0.065124,0.427035,-0.126017,0.286857,0.145564,0.184010,0.342756,-0.010154,0.321448,-0.071015,0.307570,0.339282,-0.279087,0.004863,-0.003542,-0.316320,0.167750,-0.507122,-0.103320,0.024682,0.231507,0.060307,0.002984,-0.081548,-0.280423,-0.375395,-0.122576,-0.211743,-0.431589,-0.264489,0.096774,-0.000640,-0.271852,-0.180516,-0.242037,0.012856,0.236363,-0.168256,-0.097653,-0.465853,0.084234,0.454619,-0.121721,-0.092003,-0.187531,-0.467321,-0.291894,-0.424294,0.006475,0.561236,0.168497,0.047182,0.513360,0.234378,0.177364,0.006366,0.273037,0.071114,-0.089749,0.634897,-0.078251,-0.224861,-0.388082,0.124717,0.008068,-0.066400,0.158864,-0.414722,-0.095105,0.265904,0.142040,-0.339890,-0.389376,-0.055588,-0.190461,0.182707,-0.217343,-0.252091,0.087826,-0.001382,-0.042135,0.125765,-0.257677,-0.346955,0.124165,-0.013584,-0.102607,0.675442,-0.192381,-0.136829,-0.190797,0.040780,0.052039,0.045085
-0.104644,-0.282424,-0.087780,0.022409,0.221602,0.255134,0.092874,-0.395933,0.293749,-0.157824,0.186905,-0.258237,0.088758,-0.153933,0.116140,0.785423,-0.251920,0.529419,0.273956,0.072342,0.322718,0.083303,-0.057994,-0.196178,-0.087327,0.195569,-0.207800,-0.312144,-0.262655,-0.231939,-0.102816,0.048021,0.685811,-0.429255,0.107396,0.481143,0.170393,-0.313578,-0.141268,-0.254425,0.326668,0.357011,-0.423477,-0.464217,-0.058917,0.025806,-0.251371,-0.020911,0.274901,0.122162,0.362765,-0.058497,0.457127,-0.234239,-0.370520,-0.317439,-0.327983,-0.006231,0.324990,-0.061055,0.190028,0.170964,-0.402714,0.019061,0.025930,0.294530,-0.267861,0.089702,-0.239459,0.330235,0.167004,-0.055210,0.290608,-0.217724,-0.038046,0.345203,0.122907,0.483921,-0.194642,-0.186817,0.162789,0.143631,0.202540,0.266588,-0.152975,-0.114150,-0.002617,-0.033780,0.009255,-0.174360,0.188032,-0.156617,0.060144,0.485753,0.168732,-0.140009,0.187848,0.352624,-0.079255,-0.261444,0.021733,-0.250720,-0.089341,-0.043029,0.025816,-0.302628,-0.051304,0.006462,-0.080301,0.256983,-0.117864,0.150012,0.253637,0.374880,-0.533776,-0.333974,0.038521,0.141941,0.348233,-0.207867,-0.198944,-0.164318,-0.105052,-0.210798,0.011693,-0.094986,-0.121263,0.132831,0.417771,0.074088,-0.249305,0.108293,0.270184,0.175215,0.014275,0.008324,0.321667,0.037393,0.188490,0.239791,-0.352174,0.238798,-0.188674,0.023167,-0.488359,-0.249398,0.231376,0.769670,-0.082153,0.135721,-0.370613,0.102396,-0.164320,-0.353405,0.012017,-0.082106,-0.102626,0.142818,-0.147989,-0.202817,0.129389,0.019389,0.057622,-0.277783,-0.487994,-0.235087,-0.015179,-0.162879,-0.295566,-0.230647,-0.119342,-0.334470,-0.116995,-0.137993,-0.457203,0.117162,-0.195602,0.034405,0.282215,-0.317473,0.488809,0.490576,-0.308865,0.049902,-0.227186,-0.126219,-0.312789,-0.140559,0.108836,0.196333,0.749766,0.187186,0.103380,-0.020842,-0.024232,-0.024589,0.051377,0.323179,0.092392,0.013354,0.340807,-0.305540,-0.022548,-0.001360,0.090610,0.287271,0.003459,0.265218,-0.041505,0.384362,-0.009499,-0.045863,-0.089006,-0.067751,-0.113929,0.063775,-0.097186,-0.189630,0.072605,0.446049,-0.190600,0.064368,-0.079701,0.187740,0.604184,-0.048825,0.032179,0.060458,-0.039958,-0.050271,0.337754,0.171344,-0.073373,0.300456,0.492279,0.447737,0.017435,0.554403,0.143462,0.442760,-0.122398,0.057203,-0.129310,-0.144781,-0.000909,0.001364,0.272763,-0.052632,-0.189506,-0.239910,0.418542,-0.113914,0.156053,-0.279535,-0.035338,0.376009,-0.031856
0.244736,0.182830,-0.090768,-0.558537,-0.063318,-0.243613,-0.109535,0.199399,0.237372,-0.188222,0.146291,0.125047,0.110281,0.025572,-0.181480,-0.234121,-0.199856,-0.271540,0.286209,-0.214036,-0.014039,-0.112569,0.124444,0.840916,0.065227,-0.331806,-0.016216,0.224184,0.042399,0.014138,-0.045066,0.394325,-0.448058,-0.159910,-0.109681,-0.387913,-0.352680,0.256452,0.081309,-0.040123,0.285247,-0.175421,0.095766,-0.183957,-0.326429,-0.033854,0.118695,0.264625,0.077836,-0.110309,0.059702,-0.075947,-0.346248,0.372820,-0.262330,0.510603,0.160973,-0.425482,0.184118,-0.036954,-0.298877,-0.241775,0.173205,-0.133969,-0.120197,-0.118805,0.484437,0.144802,0.077520,-0.016198,0.679244,0.061593,-0.010227,-0.150951,-0.003214,-0.176687,-0.148692,-0.126677,0.283792,0.375731,0.121818,-0.263125,-0.088568,0.352496,0.241444,0.512654,0.051970,-0.018625,-0.175858,-0.069334,0.431546,-0.263794,-0.068615,-0.017532,-0.075644,0.176884,-0.224463,-0.080584,0.695395,-0.107468,0.228044,0.440197,0.043776,-0.017658,-0.330208,-0.252361,0.007066,0.170067,0.225644,0.125408,0.064027,-0.090319,0.117309,-0.318385,0.017356,0.208860,-0.194879,-0.286370,-0.208109,0.037989,0.241089,0.041832,-0.113849,0.301155,-0.143730,0.044579,-0.370109,-0.003631,-0.201176,0.267464,-0.253667,0.015569,-0.440700,-0.475558,0.307597,-0.115794,-0.499885,0.053507,-0.016438,-0.020074,0.198372,0.143239,-0.031292,-0.016514,0.234154,0.246694,0.243365,-0.379085,-0.162062,0.032461,0.108612,-0.176255,-0.007302,0.306732,0.270768,0.050385,0.287828,0.309234,-0.185665,0.066125,0.180645,-0.066597,-0.006284,0.144551,0.377109,-0.017901,-0.018072,0.346735,0.313231,0.436575,0.477642,0.039071,-0.165535,0.633277,0.603307,-0.469079,-0.052652,-0.055825,-0.179176,-0.354610,-0.336495,0.378976,-0.262101,0.269074,-0.248384,-0.333948,-0.031978,-0.310338,-0.037651,-0.182620,-0.122670,-0.029096,0.117876,0.036760,0.028691,-0.215359,-0.156249,-0.354205,0.082431,-0.026258,-0.224166,-0.000701,-0.208009,-0.219616,0.307764,-0.230252,-0.261110,-0.042185,-0.299873,-0.392198,-0.012780,-0.024864,0.410666,0.293523,-0.276248,-0.117097,0.080677,0.027959,0.169104,-0.096323,0.180342,-0.169330,0.067414,0.208752,-0.205533,-0.216315,0.104325,-0.001397,-0.191544,0.071072,-0.112431,-0.030609,-0.039569,-0.085993,-0.254442,-0.271713,0.014718,-0.070548,0.169485,0.015590,-0.185672,0.110932,0.129536,-0.158925,0.025267,-0.133801,-0.242575,0.073397,0.153760,-0.074883,0.179079,0.436969,-0.201721,0.068906,-0.002922,0.179735,0.020356
0.381599,-0.073375,-0.159640,0.201484,0.043502,0.234509,-0.087299,-0.080378,0.096634,-0.136715,-0.107812,-0.140225,0.382026,-0.111852,0.026088,0.406887,0.160718,-0.063461,-0.454745,0.284006,-0.390320,-0.298938,0.105656,-0.056308,0.272552,-0.253452,-0.045552,0.054870,-0.161528,-0.197642,-0.215466,-0.070894,-0.059164,-0.292141,0.338757,0.168613,-0.157581,-0.153920,0.039229,-0.277919,0.271793,0.080046,-0.030462,-0.193297,-0.142415,-0.168332,-0.036298,-0.148569,0.098606,-0.017141,0.251460,-0.237797,0.065613,0.008745,-0.400915,0.428698,-0.319836,-0.136777,0.440798,-0.111908,0.255092,0.010595,-0.103037,0.163856,-0.221071,0.510514,-0.038039,0.167471,-0.179682,0.015096,0.089901,0.175281,-0.050841,-0.142311,0.254414,0.089973,-0.213418,0.272929,0.167553,-0.355452,-0.132939,0.067207,0.157598,0.638856,0.236283,0.032242,-0.009271,0.079580,-0.096756,-0.078685,-0.549825,-0.278992,0.000053,0.500516,0.164006,-0.233054,0.000660,0.144372,-0.286329,0.288759,0.063033,0.365381,-0.190457,-0.355435,-0.141963,0.574463,-0.048359,0.315096,0.196542,0.030785,-0.091033,0.095387,0.244232,0.126283,0.043073,-0.333921,0.270245,0.011226,0.169206,-0.001675,-0.288811,-0.432827,0.259398,-0.107161,-0.097513,0.096889,-0.328671,-0.169779,0.109913,-0.244218,-0.212474,-0.149908,0.030950,0.068968,0.202653,0.158475,0.560035,0.065446,-0.248957,0.196675,-0.341954,-0.040436,-0.394474,0.004676,-0.227038,-0.348977,0.061220,0.207621,0.178015,-0.003896,-0.014861,0.014889,-0.241060,-0.167063,0.356038,-0.284121,-0.267232,0.207264,-0.004604,-0.066137,-0.087175,0.338343,0.124077,-0.075053,0.153873,-0.176385,-0.005175,0.370657,-0.134288,0.019659,-0.078519,-0.025782,-0.146951,-0.209221,-0.212851,-0.172662,-0.194456,0.072664,0.311798,0.077703,-0.377311,0.083795,-0.221969,-0.006730,-0.186645,0.319021,0.226704,-0.118930,0.006559,-0.055437,0.028896,0.282331,-0.190204,-0.028972,-0.033709,0.039618,-0.060331,-0.339963,0.036895,-0.032648,0.491723,-0.152603,-0.241654,0.508916,-0.063075,-0.343398,0.007428,0.173193,-0.388767,0.257163,0.503395,-0.024881,0.486672,-0.129861,-0.185587,0.444342,0.186445,-0.249093,0.115873,0.433247,0.259977,-0.215525,0.344622,0.043229,0.264140,-0.594954,0.188639,-0.038635,-0.239441,0.350158,-0.298771,0.010426,0.082005,0.056224,0.324690,-0.028593,-0.114962,0.111752,0.084842,0.287443,-0.153595,0.300113,-0.057960,-0.133402,0.020967,0.196423,-0.025497,0.189791,0.457316,-0.066139,0.323766,-0.332154,0.003869,0.007431,0.010275,0.259846,0.075101
0.608316,-0.140134,-0.091511,0.009642,-0.211503,0.359286,-0.060452,-0.040559,0.177484,0.066745,0.181094,-0.063417,0.036913,-0.028746,-0.060700,-0.010761,0.254949,0.025026,-0.466124,-0.086825,-0.113688,0.085045,-0.046807,-0.345208,0.539742,-0.416690,0.056373,0.118091,0.132084,0.073579,-0.121727,0.300046,-0.033095,-0.161852,0.282167,-0.404904,-0.183777,-0.167082,-0.092919,-0.126034,-0.084082,-0.093319,-0.047737,0.423000,-0.254469,-0.096749,-0.011514,0.110210,0.246523,-0.037493,-0.054968,0.097146,-0.306382,-0.191684,-0.366794,-0.119836,0.612791,-0.355861,-0.145791,-0.115547,0.051737,0.122151,0.124955,0.026068,0.076907,-0.088894,0.060314,0.505311,0.014691,0.186273,-0.035811,-0.376615,-0.065877,-0.028360,-0.003411,-0.000457,0.151137,0.221484,-0.219709,-0.094003,-0.115639,-0.102694,0.040059,0.294311,0.125260,0.165655,-0.001663,0.082800,0.219890,0.198419,-0.021683,-0.013858,0.000821,0.084581,-0.236656,0.115999,0.114015,-0.096753,-0.264939,-0.017682,0.384383,-0.170856,-0.261376,-0.146489,-0.023874,0.338470,0.066671,-0.078176,0.210269,-0.143668,0.026639,0.115398,0.156538,-0.035453,0.190272,-0.055948,-0.298117,0.058854,0.049143,-0.048501,-0.327533,0.008784,-0.175522,0.066874,0.131304,0.114320,-0.184332,-0.092980,0.021680,-0.048497,0.295579,-0.143416,-0.263887,0.048085,-0.144658,-0.196193,0.470321,0.312923,0.052437,0.143136,-0.056461,-0.012331,0.325680,0.011197,0.160177,0.117601,-0.029842,0.045059,-0.017212,0.083034,0.433118,0.484488,-0.183802,0.441650,0.062995,0.199973,0.298871,-0.037027,0.147553,0.471843,-0.112654,0.430988,-0.160424,-0.097249,-0.035563,-0.070244,0.316681,0.215422,0.135726,-0.057404,0.165022,0.282824,-0.020867,0.390112,0.095298,0.000382,-0.160064,0.035755,0.212872,0.146177,-0.251470,0.161585,0.344436,-0.214807,-0.136835,0.260188,-0.326553,0.275803,-0.463098,-0.106578,0.036180,-0.385498,0.177680,-0.329655,0.034382,0.004425,0.054786,0.025608,0.061710,0.248665,-0.179818,-0.335717,0.314089,0.178972,-0.237348,-0.182854,-0.265473,0.100416,-0.352558,0.404129,-0.022861,0.130517,0.293235,-0.168668,0.212223,0.284034,-0.221534,0.134859,0.236326,0.071150,-0.236404,-0.180553,-0.043763,-0.031124,-0.077285,0.039468,-0.047219,-0.006620,0.246527,0.066495,0.056776,-0.080325,-0.237733,0.129945,0.137829,-0.363916,-0.061186,-0.295712,0.490271,0.249495,0.194424,-0.046486,0.156546,0.025247,0.107578,-0.057912,-0.066731,-0.125015,-0.308193,-0.100908,0.106343,0.102784,-0.202002,0.016938,-0.020233,-0.437422,0.094025
-0.310701,0.148957,-0.160516,0.396358,0.147269,-0.132229,0.022365,-0.039997,-0.084392,-0.212242,0.055468,-0.160438,0.262352,-0.038047,0.138378,0.618477,-0.350428,0.580453,0.521912,0.221947,-0.078040,0.009393,-0.129144,-0.124742,-0.086330,0.031778,-0.110434,-0.145334,-0.194667,-0.000598,-0.127458,-0.220937,0.309235,-0.007776,0.187408,0.100464,0.054199,-0.187397,-0.223920,-0.150589,0.238368,-0.427256,-0.284698,-0.303242,0.199968,-0.056410,-0.131623,-0.102400,-0.021315,0.016200,-0.334996,-0.060710,-0.043690,0.261412,-0.225499,0.073566,-0.305038,0.181508,0.692362,0.142522,0.309273,0.206474,-0.405657,0.358854,-0.325047,0.345731,-0.064144,-0.082244,0.114218,-0.042982,-0.369484,-0.109917,0.201799,-0.042739,-0.178665,-0.026677,-0.210229,-0.181451,-0.152967,-0.279494,-0.176633,0.386329,-0.078881,-0.030299,0.035696,-0.209827,0.015296,0.070816,-0.216383,-0.201496,-0.743639,-0.172219,-0.301444,0.724338,0.271589,0.017468,0.093725,0.439567,-0.187013,-0.109058,-0.223238,-0.133636,0.001341,-0.162764,0.073852,-0.340311,-0.049082,-0.024464,-0.026224,-0.033543,0.101106,0.157060,0.084303,-0.109933,-0.372346,0.042996,0.036292,0.147121,0.168238,-0.358884,0.172325,-0.385308,-0.126423,-0.403504,-0.217767,0.113456,0.275786,0.148690,-0.106170,-0.237514,-0.267302,-0.035797,0.423668,0.053230,0.481149,0.360114,0.096454,-0.280535,0.165969,-0.121164,-0.274178,-0.079066,-0.098996,-0.010816,-0.454372,-0.228139,0.145209,0.273754,0.088065,-0.026563,-0.273191,-0.214124,0.124472,-0.176149,0.031866,-0.186182,-0.087651,0.343330,0.137321,-0.444111,-0.055623,-0.268789,-0.105588,-0.039504,-0.274362,0.159048,0.163603,-0.342878,-0.137905,-0.296003,-0.139080,-0.226200,-0.327173,-0.244325,-0.109174,-0.053826,0.179554,-0.005933,0.220380,-0.334607,0.271890,-0.234340,0.003773,0.049187,0.000288,-0.246467,0.181847,-0.575355,0.316530,-0.041932,0.522354,0.046606,-0.205971,0.458054,-0.024720,-0.035785,-0.046025,0.193119,-0.019724,0.085497,0.252146,0.276201,-0.022206,0.251365,0.534562,-0.145342,0.184451,0.358328,0.093216,0.305770,0.007762,-0.021185,-0.038567,0.011826,0.069831,-0.266965,-0.274374,0.176652,-0.182647,0.274627,0.319883,-0.104967,0.008151,-0.035720,0.464039,-0.215071,-0.125713,-0.003399,-0.120606,-0.033609,0.173716,0.033127,0.155098,-0.041827,0.510153,0.314015,0.206476,0.296938,-0.047856,-0.105968,-0.032811,0.016786,-0.203417,-0.166017,0.197156,0.073737,-0.117742,0.019781,0.456616,-0.058056,0.458389,-0.159174,-0.177942,-0.085935,-0.024433,0.591372,0.069045
-0.321400,0.173501,-0.054605,0.106364,-0.031616,0.253182,0.105463,0.181703,0.093394,0.111716,0.098505,0.025386,0.351538,0.025745,-0.002654,-0.154190,0.094770,0.274633,0.302167,0.315163,-0.068148,0.050000,0.004990,0.190380,-0.041677,-0.369073,0.031662,0.235085,0.097094,-0.109435,0.000131,0.219021,-0.268740,-0.022677,0.007490,-0.217358,0.307446,-0.049569,0.088570,0.079143,-0.192430,-0.281624,-0.104646,0.033307,-0.176915,0.048159,-0.234386,0.461705,0.441754,-0.219785,0.170658,0.229174,-0.177740,-0.309636,0.295737,-0.051428,0.159197,-0.308182,-0.457019,0.066474,-0.020516,0.041173,0.219300,0.147973,0.246430,-0.111955,0.206424,0.051398,0.106415,-0.154462,-0.230040,0.030890,0.023065,-0.098131,-0.064532,-0.086262,0.346256,-0.064187,-0.295824,0.210591,-0.389687,0.134639,0.222425,-0.347811,0.476308,0.187828,0.021472,0.196913,-0.127778,-0.120755,0.629468,-0.075941,-0.105489,-0.102917,-0.090714,0.283289,-0.069830,-0.197994,0.369614,0.107526,-0.244437,0.254392,0.099548,0.334081,0.214870,0.251878,0.061711,0.130434,-0.016457,0.059756,-0.111917,-0.065066,-0.041893,-0.148757,0.476664,0.303848,-0.158772,0.237119,-0.274136,0.050134,-0.161869,-0.030273,0.068087,-0.270874,-0.089285,0.050061,0.136563,0.143260,-0.018625,0.533719,-0.366840,-0.315110,0.002500,-0.132944,-0.061650,-0.319481,0.137337,0.054472,-0.100010,-0.232510,0.336610,-0.138056,-0.034999,0.005549,0.089544,-0.192781,-0.197458,-0.147003,0.265695,-0.102209,0.577444,0.078698,-0.234005,0.013933,0.405808,-0.195949,-0.247486,0.377277,-0.001717,-0.032530,-0.124988,-0.230173,-0.197218,-0.179610,0.075676,0.352805,-0.099030,0.696139,-0.006051,0.610633,-0.054828,0.258699,-0.165489,-0.178976,0.338781,-0.152443,-0.165241,0.079290,0.307719,0.192745,0.297873,-0.179811,0.068383,0.130654,-0.204689,-0.030950,-0.087965,-0.019912,-0.010958,-0.058550,-0.089614,0.064013,-0.269948,0.089188,-0.007839,0.028354,0.495080,-0.341914,0.066118,-0.116471,-0.071010,0.188022,-0.039700,0.204826,-0.069377,0.006774,-0.010771,0.001392,0.275200,0.252427,0.085521,-0.011652,-0.136427,0.178647,-0.065909,-0.056425,-0.041937,-0.338261,0.213498,-0.271193,0.036863,0.020120,-0.331082,0.048382,-0.273541,0.086279,-0.033308,-0.053242,-0.023251,-0.043187,-0.157446,-0.176020,-0.492108,-0.167066,-0.067887,-0.107902,0.011834,-0.031918,0.178890,0.305578,0.098603,-0.157943,-0.047019,-0.021239,-0.208895,-0.039707,-0.362105,0.178164,0.057307,-0.025235,-0.189799,-0.062799,-0.128112,0.455364,0.024148,0.093845,0.188590
0.315514,-0.113303,0.158928,-0.145943,-0.222810,-0.501687,-0.136906,-0.294900,-0.136694,0.297714,0.124070,-0.123596,0.072431,-0.054466,-0.149809,-0.302720,-0.107978,0.251002,-0.084020,-0.505323,0.309196,-0.202341,0.016918,-0.348626,0.293803,-0.092889,0.067037,0.461715,0.211550,-0.100707,-0.024522,-0.088532,-0.031457,0.117803,0.047576,-0.024383,-0.483414,-0.078290,0.224200,-0.059758,0.308854,0.599383,0.457620,-0.010208,-0.082511,-0.084825,0.188089,0.141942,0.347821,-0.228334,-0.077946,-0.361202,0.365385,0.620092,-0.165502,-0.093900,0.566722,0.388101,0.224337,-0.321514,0.250015,-0.069508,0.148881,-0.381451,0.096673,0.290586,-0.032421,-0.031470,0.414872,-0.126070,0.003295,-0.099677,-0.065297,0.027845,0.042563,0.280867,-0.184745,0.207371,-0.102840,0.549212,0.336855,0.039288,0.196322,0.133319,-0.180791,-0.395279,-0.005743,-0.066847,0.056594,-0.304941,-0.126825,-0.076902,0.013643,-0.125568,-0.404975,-0.196204,-0.246461,-0.166394,-0.377350,0.065049,0.422121,-0.140667,0.047019,-0.305844,0.006502,0.087496,-0.020381,-0.044983,0.187701,-0.275517,-0.003306,0.016108,-0.153817,0.527381,0.269839,-0.083906,-0.172659,-0.169141,-0.275628,0.373898,-0.193631,0.137203,0.339880,0.206856,-0.293970,-0.103829,-0.218979,-0.041533,-0.235862,-0.364869,-0.355781,-0.203083,-0.260166,0.219481,0.006167,-0.251950,-0.141361,-0.029235,0.668943,0.033727,-0.284274,0.218954,-0.012590,0.001508,0.018415,0.245646,-0.090629,0.044700,0.338823,0.027131,-0.093853,0.339720,0.218304,-0.476846,0.017398,0.106869,-0.205157,-0.095532,-0.270763,0.266006,-0.015429,0.414988,-0.149095,-0.267478,-0.112682,0.054858,-0.040880,-0.081985,0.192432,-0.254946,0.019052,-0.115228,0.093101,0.158361,0.055742,-0.098913,0.122681,-0.149495,-0.115412,0.076350,-0.396227,0.364423,-0.235869,-0.323252,-0.113112,0.510108,0.278174,0.380337,-0.476344,0.103755,0.578536,0.011314,0.052490,-0.246363,-0.009706,0.204731,-0.066711,-0.291679,-0.031011,0.197971,-0.013546,-0.009420,0.297235,-0.091357,-0.063461,-0.335686,-0.007953,0.312518,0.194231,-0.484516,0.318900,0.025484,-0.133036,0.075981,-0.308669,0.283992,-0.048594,-0.108340,0.024315,0.351480,-0.222745,-0.190112,0.309180,-0.085331,0.289307,-0.048098,-0.145726,-0.033184,0.507667,-0.011629,0.034238,0.063168,0.179626,-0.340963,-0.037496,-0.051712,0.075262,-0.293215,-0.028472,0.027071,-0.117786,0.046184,0.243223,-0.302770,0.259833,0.051520,0.544177,-0.171319,0.021533,0.057538,-0.195113,0.382727,0.763706,-0.104824,0.007432,-0.098834,-0.057813
0.497470,-0.069120,0.201997,-0.117643,0.040567,-0.160538,0.105253,-0.283910,0.110767,-0.124046,-0.028104,-0.233465,-0.192112,0.097859,-0.052475,-0.306500,-0.148064,0.078193,0.155643,-0.144199,0.432696,-0.151117,-0.150139,-0.536282,0.281410,-0.344845,0.260207,0.240628,-0.186161,0.003132,0.252015,-0.366309,0.151947,0.045163,-0.003269,-0.336295,0.093735,-0.068279,-0.088161,-0.024482,0.119100,0.480794,0.147681,-0.098663,-0.004357,0.227887,0.314077,-0.207022,0.062481,-0.448049,0.323498,0.346232,-0.311318,-0.509256,-0.247730,-0.001332,0.307214,0.152213,-0.191373,-0.442088,0.424962,-0.220913,0.191294,0.194537,0.277358,-0.211449,0.029100,0.035546,0.200529,0.297589,0.139295,0.024824,-0.174043,0.318816,-0.150951,0.396214,-0.076725,-0.055073,0.069549,0.346728,0.485334,0.103522,0.238207,0.125421,0.095039,-0.603508,-0.019582,-0.010463,-0.038665,0.263969,0.370860,0.117473,0.219753,-0.305890,-0.377988,0.012318,0.273927,0.213133,0.093774,0.015647,0.110063,-0.418892,-0.019980,0.210691,0.048270,-0.007516,-0.008213,0.312043,0.213537,-0.119319,0.445286,0.003649,-0.199609,-0.001091,0.026032,0.245345,-0.064751,-0.387103,-0.138328,0.388195,0.227206,0.117203,0.469426,0.392031,-0.263197,-0.182131,0.137841,0.044946,-0.020362,0.516846,-0.005990,0.285898,-0.318341,0.110111,-0.556165,-0.188969,-0.010400,-0.109331,0.166252,-0.146556,-0.059673,0.510602,0.161818,0.003339,0.314016,0.333554,0.306495,0.016016,-0.149177,0.395279,0.050757,-0.010153,0.144889,-0.411479,-0.236483,0.141891,-0.285277,0.031202,0.115905,0.393549,0.057438,0.053430,-0.087272,0.428164,-0.158557,-0.083041,0.168269,-0.456577,-0.182589,-0.167199,-0.278887,-0.223400,-0.202359,0.103803,-0.006637,-0.068309,0.143243,-0.024972,0.046800,0.047024,-0.202487,0.345175,-0.102082,-0.336581,-0.064035,0.013214,0.402422,-0.023088,0.208504,0.138275,0.324193,0.256939,0.250077,-0.241135,0.002246,-0.203702,0.113383,-0.088966,-0.034365,0.024080,-0.566549,-0.115006,0.456070,0.338397,-0.215801,0.238388,-0.199907,-0.179439,0.155780,-0.169606,-0.188810,0.028072,0.056000,-0.151222,0.167037,0.193164,0.449688,0.189317,0.141440,-0.453421,-0.140575,-0.060905,-0.123611,-0.305182,0.049809,0.097694,-0.293944,0.021508,0.247801,0.088877,0.481278,-0.029036,-0.394479,-0.264633,-0.093436,-0.194475,0.054637,-0.251874,-0.106608,0.029235,0.063550,0.166878,0.399313,-0.124733,0.011082,0.056703,0.481898,-0.202456,-0.124818,-0.023732,-0.393565,0.193994,0.022487,0.370997,-0.024518,-0.174238,-0.032561
-0.592524,0.218260,0.195628,0.518809,-0.134195,0.184179,0.006111,0.268357,-0.455738,0.002288,-0.276776,0.297032,-0.147628,-0.295273,-0.088076,0.323668,0.403623,-0.110776,0.001047,0.710381,-0.088685,0.024743,0.031761,-0.517682,-0.557183,-0.248608,0.205748,0.067586,-0.087317,0.188523,0.072192,0.163995,0.102329,-0.049176,0.352090,0.167412,0.246739,-0.283692,-0.027339,-0.028746,-0.224562,0.021382,0.137940,0.232637,-0.294270,-0.065545,-0.012361,0.303630,0.014422,0.063093,0.005394,-0.140026,0.489506,-0.213055,0.149837,-0.035010,-0.300850,-0.161189,-0.182676,0.184619,0.046462,-0.075727,0.141747,0.129670,0.033825,0.257205,0.003503,-0.025094,-0.383912,0.170920,-0.381955,-0.155276,0.367887,-0.099829,-0.069389,0.050288,-0.006396,0.099326,-0.101360,-0.074201,-0.474307,0.317967,0.431136,-0.355603,0.093326,-0.036477,0.001891,-0.039861,-0.098685,0.022629,0.211506,0.072528,0.296048,-0.044543,0.683640,-0.041502,0.002145,-0.330035,-0.424655,0.108767,-0.178180,0.317085,0.176322,-0.072717,0.211838,0.122466,-0.000319,-0.028015,0.030128,0.090130,-0.346535,0.378824,0.059766,0.068938,0.062880,-0.328205,-0.458974,0.358263,0.180674,-0.163416,-0.136529,-0.040930,0.214931,-0.043366,0.069655,0.010384,-0.252978,-0.137184,0.421133,-0.283063,-0.222329,0.124649,0.223776,-0.067879,0.198607,-0.129032,0.704975,-0.070758,-0.273463,-0.211501,-0.046818,-0.300072,-0.173924,-0.020699,-0.034427,-0.224619,-0.275417,0.200350,0.316283,-0.002323,0.247791,-0.160994,-0.506567,-0.062825,0.161548,-0.172398,-0.274301,-0.132540,0.003196,-0.259240,-0.228959,-0.118552,0.092413,0.014992,-0.217471,0.571600,0.029351,0.343608,-0.059521,0.172160,-0.372514,0.512866,-0.157160,-0.363228,-0.071216,-0.173095,-0.270569,-0.013494,0.097068,0.128908,0.169051,-0.237585,-0.377596,-0.032349,-0.328518,-0.077340,0.058280,0.709833,-0.016188,-0.183098,-0.208881,0.421495,-0.243536,-0.085969,-0.009271,0.028446,-0.049494,-0.182025,-0.093657,-0.446715,0.483214,-0.099728,-0.110003,0.286853,-0.503299,-0.302803,-0.190755,-0.256677,0.195466,0.615526,0.786813,-0.020586,-0.446845,-0.024078,-0.232105,-0.024246,0.239548,-0.289394,-0.041370,0.120038,0.036193,-0.097856,0.296198,-0.029419,-0.131123,0.625085,-0.157319,-0.070257,-0.319707,-0.297454,-0.169902,-0.032767,0.187369,0.016934,0.366484,0.255438,-0.010081,0.003519,0.165081,0.424539,-0.066077,-0.134999,0.174741,0.281210,-0.215592,-0.001697,0.201997,0.173467,0.602205,0.041306,0.399457,-0.098012,-0.084631,-0.013272,-0.003409,0.153707,-0.034641
-0.237734,-0.191399,0.135311,0.139998,-0.101844,-0.463887,-0.119355,0.407068,-0.448313,-0.020876,-0.148819,0.341427,0.417593,0.050497,-0.011896,0.040143,-0.102912,0.189369,0.009699,-0.072051,0.326724,-0.466899,0.018221,-0.192624,-0.069920,0.053491,0.165532,-0.135393,-0.007902,-0.117241,0.069026,-0.109680,0.317905,0.155544,0.031314,-0.017272,-0.125780,0.520591,0.145700,0.289326,0.144448,0.318653,0.646343,-0.186204,-0.108885,0.173192,0.394845,0.188883,0.001351,-0.058394,0.370969,-0.351729,0.478617,0.331612,0.078683,0.490031,-0.312841,0.422986,0.246410,0.033591,0.227894,-0.090895,-0.028450,0.023614,0.283603,0.270469,-0.127114,-0.192127,0.020042,-0.152107,-0.392787,0.398246,-0.063869,-0.298505,0.068069,0.069328,-0.399692,0.048300,-0.036216,0.642483,-0.052482,-0.306417,0.192945,-0.359991,-0.101036,-0.093795,-0.016132,-0.009205,0.024936,-0.260260,-0.168131,0.151165,0.359160,0.135400,0.013951,-0.351292,-0.098240,0.020305,0.014561,-0.097109,0.089395,0.165146,-0.132858,-0.410252,0.111820,0.251087,0.012285,0.153059,0.274251,-0.036512,-0.117202,0.110794,0.036315,0.400440,-0.319004,-0.451457,-0.136861,-0.131546,-0.159359,0.054194,-0.328031,-0.352283,0.246369,-0.012848,-0.038144,-0.050974,0.121987,0.097468,0.091541,-0.848995,-0.193643,0.072613,-0.023481,0.046944,0.337271,0.524142,0.034166,0.017538,0.191026,-0.298523,-0.068212,0.134805,-0.205573,0.011218,-0.406216,0.109608,0.125046,-0.212791,0.329609,-0.308435,-0.042195,-0.176357,-0.172490,0.003884,0.219319,-0.103527,-0.113151,-0.105729,0.009154,0.125453,0.107347,0.284181,0.516287,0.291942,-0.125824,-0.284845,-0.164224,-0.168684,0.176946,-0.086488,-0.017519,-0.418172,0.257795,-0.363977,-0.172339,-0.084466,0.389313,0.051293,-0.291618,0.369034,-0.263482,-0.163355,-0.420351,-0.284755,-0.035190,0.209059,0.296170,0.022000,0.469427,-0.153173,0.395639,0.497994,0.265161,0.223769,-0.025688,0.607127,-0.140501,-0.321107,0.131172,0.194942,0.407559,0.025168,-0.386958,-0.368730,0.425230,-0.046033,-0.043645,0.311510,-0.124498,0.143310,-0.040552,-0.031209,-0.338802,-0.139381,-0.144129,0.041403,-0.136957,-0.445299,0.112945,0.377715,0.107899,-0.005880,0.326536,0.151836,0.221245,0.134404,0.056597,-0.023724,-0.119616,0.012330,0.106856,0.232057,0.394670,0.133559,0.287543,0.538274,-0.009627,0.158537,-0.219958,-0.149950,0.019873,0.029225,-0.133422,-0.105923,-0.102935,0.225284,0.257992,0.007800,0.135935,-0.149013,-0.049272,-0.296304,0.180587,-0.332213,0.063682,0.298415,-0.016644
-0.418906,0.222940,-0.003452,-0.257725,-0.099044,0.368964,-0.100125,0.309915,-0.456958,-0.070738,-0.514313,0.557548,-0.255529,-0.091756,0.188819,-0.131128,-0.183561,-0.439695,0.310706,0.343979,0.119784,0.341930,-0.029337,-0.292632,-0.269408,0.363098,0.301445,-0.218001,-0.180360,0.817473,0.014052,0.635392,-0.250369,-0.049470,-0.081005,-0.220942,0.359241,-0.132267,-0.052826,-0.084099,-0.712507,-0.088365,0.056604,-0.035025,-0.398132,0.230247,-0.133340,0.157918,-0.078272,0.459090,0.034468,-0.113811,-0.004997,-0.301139,0.373003,-0.056258,-0.398502,-0.091972,-0.376113,0.466593,-0.285565,-0.455229,-0.399599,-0.027617,-0.245599,-0.304070,0.273692,-0.105249,-0.534695,0.032632,0.400834,-0.167480,0.080667,-0.293208,0.043044,-0.342594,-0.334045,-0.263309,0.499559,0.337466,-0.080659,-0.003693,0.010279,-0.257099,-0.092819,0.410234,0.006521,-0.153585,-0.191730,0.741802,0.632709,0.417581,0.450376,-0.313689,0.578019,0.446138,-0.209547,-0.143605,0.553965,0.026189,-0.552168,0.180264,0.046474,0.513933,-0.228217,-0.267299,0.148632,0.176162,-0.336217,0.039034,-0.252839,-0.295528,-0.153681,-0.112833,-0.308988,-0.147553,-0.243357,0.017990,-0.090482,-0.287335,-0.175777,0.103392,-0.088833,0.381008,-0.154777,-0.165746,0.181367,-0.135294,0.421157,-0.597865,0.635517,0.477608,0.211328,-0.227104,-0.125180,-0.319627,-0.099644,-0.016689,-0.299208,-0.262301,0.251630,-0.135820,-0.213701,0.027308,-0.014400,-0.063254,-0.220443,-0.295574,-0.108117,0.156803,-0.115936,-0.493906,-0.184158,-0.326501,0.234582,-0.282408,0.080209,0.009059,-0.054387,0.164038,-0.018745,-0.263755,0.192312,0.135779,-0.018751,-0.120140,-0.233145,0.291986,0.307013,0.429118,0.024031,0.540860,-0.273152,-0.226444,-0.109267,-0.246522,-0.114714,-0.019898,-0.242962,-0.372535,0.485371,0.176074,0.073072,0.523193,-0.311461,-0.173752,-0.273376,0.108816,0.043565,-0.170604,-0.166998,0.190276,0.547978,0.237234,0.046006,-0.445228,-0.067090,-0.098007,-0.036272,-0.605909,-0.303181,-0.392288,-0.459618,-0.452506,-0.189505,0.552710,-0.099072,-0.353366,-0.139727,0.343742,-0.069017,0.047605,-0.242570,0.406337,-0.501869,-0.213859,0.127105,0.231983,-0.149101,-0.313278,-0.049965,0.234446,-0.385771,0.018547,-0.359558,0.449331,0.439700,0.306177,-0.344438,-0.111405,0.028957,0.017827,-0.269225,0.109109,-0.335250,-0.106800,-0.456138,0.160956,-0.119085,0.158183,-0.215059,-0.057794,0.131655,0.469736,-0.241252,-0.350095,-0.171508,0.043405,0.239639,-0.018463,-0.360609,-0.007009,-0.134869,-0.030184,-0.011887,-0.034939,-0.160584
-0.084078,-0.175189,-0.256138,-0.258738,-0.153077,0.308695,0.031833,0.327693,-0.527889,0.023345,-0.119238,0.083880,0.042133,0.049730,-0.008001,-0.476633,0.154226,-0.107554,0.332406,0.136254,-0.139301,0.389206,-0.031171,-0.091731,-0.171002,0.174460,0.138326,-0.172262,0.078644,-0.271505,-0.185587,0.064609,-0.372307,-0.063726,-0.302357,-0.182164,0.066471,0.538013,-0.085821,0.520291,-0.239550,0.167025,0.108205,0.082741,-0.153154,0.102861,-0.132195,0.025574,0.070810,0.076306,0.127221,0.544859,0.369352,-0.123727,0.488593,-0.234790,-0.292321,-0.281626,-0.336490,-0.010132,-0.185533,-0.087423,0.172835,0.074163,0.443518,-0.345402,0.146371,0.078148,-0.385267,0.209319,0.056150,0.009525,0.084326,0.143879,-0.098075,-0.234284,0.111877,-0.008063,-0.294593,0.183621,-0.275139,0.021511,0.537067,-0.365776,0.093209,0.661402,0.000667,-0.007136,0.719582,0.386747,0.803387,0.157274,0.308177,-0.516386,0.108921,0.428989,0.100933,-0.225523,0.516581,-0.134262,-0.298767,-0.066641,0.245416,0.344807,-0.275948,-0.151355,-0.032534,-0.235265,-0.237170,0.035206,-0.104612,0.279320,-0.154251,-0.276818,-0.085507,0.088147,-0.156878,0.033966,0.060464,-0.282734,0.033027,0.439121,-0.296241,-0.057943,0.285917,-0.010627,-0.060692,-0.055831,-0.303431,-0.310428,0.538758,0.294879,-0.172337,-0.185036,0.177053,-0.055487,-0.027273,0.066981,-0.439537,-0.122586,0.643952,-0.337139,0.094250,-0.011366,0.009119,0.070800,-0.118884,-0.315511,-0.184510,-0.252313,0.276243,0.293982,-0.029233,0.208531,0.034494,0.240814,-0.131542,-0.033507,-0.218196,0.171042,0.056540,-0.108681,-0.089247,-0.077436,-0.057670,-0.041863,-0.137917,0.370429,0.180991,0.225534,0.220536,0.396883,0.249122,0.079743,0.523840,-0.261423,-0.231724,0.078708,-0.150671,0.016293,0.194669,0.044580,0.286628,0.254975,-0.317810,-0.374943,-0.393403,0.188330,-0.079419,0.000729,-0.278299,-0.123504,0.302262,-0.149099,0.041466,-0.014525,0.081133,-0.165834,0.011688,-0.477484,-0.235268,0.020271,0.259833,-0.339324,-0.555121,0.422407,-0.018333,-0.169581,0.318658,0.085396,-0.208657,0.094301,-0.348792,0.101541,-0.081478,-0.303036,-0.386968,-0.017557,-0.091303,-0.325629,-0.155344,-0.222661,-0.297951,-0.075395,-0.382202,0.471713,-0.181294,-0.086320,-0.149093,-0.058616,-0.031525,-0.025191,0.056960,-0.069217,-0.093277,0.058542,0.251927,-0.367568,0.172154,0.247919,0.300455,-0.092108,-0.123915,0.035785,-0.104741,-0.221049,0.121943,-0.087336,-0.234207,0.266009,-0.322620,0.158139,-0.148192,0.400663,-0.030193,-0.271800,-0.003973
-0.303262,-0.020491,-0.310722,-0.257376,0.161262,-0.221265,-0.027058,-0.162857,0.109116,-0.297135,0.218332,-0.250910,-0.169904,0.210731,0.175752,-0.191536,-0.327909,0.304419,0.626985,0.102239,0.163533,0.208918,0.033074,0.548261,0.154021,-0.209480,-0.256335,-0.179053,-0.181699,-0.072134,-0.125910,0.060003,-0.299232,-0.205326,-0.078784,-0.023364,0.138083,-0.303371,-0.051631,-0.218246,0.139027,-0.299064,-0.050871,-0.299694,0.063317,-0.213790,-0.238296,0.184295,-0.147092,0.221130,-0.101358,0.442816,-0.219089,-0.086714,0.469770,-0.052230,-0.489125,-0.308892,0.144024,0.049475,-0.317997,0.045540,-0.390809,0.375669,0.025326,-0.012274,-0.118403,-0.264520,0.173156,0.109415,0.337592,0.003778,0.137820,0.179174,-0.141734,-0.222494,0.236579,-0.335673,-0.168629,-0.251446,0.361405,0.149949,-0.228207,0.048843,0.032442,0.102374,-0.000178,0.184549,-0.248822,0.009792,0.576026,-0.317553,-0.170885,0.458616,-0.260360,0.096517,0.207384,0.399913,0.243456,-0.024847,-0.287379,-0.048723,-0.104425,0.284382,-0.073068,-0.430715,-0.153085,-0.151665,-0.252664,0.010976,0.096783,-0.012020,-0.215306,-0.383244,-0.414423,0.088754,0.189332,0.064018,0.326689,-0.269216,0.343416,0.212963,-0.199892,-0.173093,-0.060903,0.199312,0.043412,0.193372,0.034887,0.472530,-0.071250,0.041097,0.207175,-0.225097,0.083976,0.353771,-0.236234,-0.267529,-0.290116,0.063320,0.500929,0.146759,-0.126775,-0.005742,-0.260849,-0.249710,0.314986,0.008288,-0.304505,-0.048568,-0.021983,-0.188746,0.474603,-0.118979,-0.400912,0.045664,-0.120797,0.445982,-0.089660,-0.444122,0.097240,-0.319788,-0.240669,-0.176638,-0.025589,-0.189037,-0.147020,-0.232064,-0.199528,-0.107695,0.110947,-0.195657,-0.250724,0.131003,0.352192,-0.145872,-0.201533,-0.003628,0.323950,-0.332824,0.624723,0.177894,0.288426,0.119612,-0.196135,-0.412610,-0.089864,-0.344368,0.224464,-0.090890,0.016115,-0.218855,-0.026326,-0.040345,-0.022236,-0.148363,-0.086738,0.074250,-0.038007,0.212442,-0.181636,0.119249,0.054930,0.105783,0.139187,0.112793,0.124476,-0.125946,0.328325,0.017361,-0.443523,-0.025101,0.002861,-0.134962,0.226609,-0.463993,-0.222155,0.475360,-0.052656,-0.255600,0.171009,-0.082990,-0.432550,-0.059597,0.142195,-0.331499,-0.065937,-0.003538,-0.214010,0.065081,0.210550,-0.122397,0.105436,0.070150,-0.008632,-0.092546,0.280116,0.029708,0.299281,-0.137652,-0.026696,0.034028,-0.230634,0.030637,0.245445,-0.089797,-0.316825,-0.000114,0.167369,0.027858,0.132838,0.065654,-0.164623,0.437197,-0.043051,0.170570,0.175956
0.249228,-0.288088,-0.096283,-0.134315,-0.052572,-0.458740,-0.026238,-0.214175,0.099143,-0.005745,0.261888,-0.109906,0.016683,0.112429,-0.019970,-0.332350,-0.275035,-0.075343,-0.434719,-0.210848,-0.145543,0.230405,0.051247,0.153081,0.330247,-0.098316,-0.188566,-0.024814,0.609511,-0.005520,-0.350200,0.003134,-0.132628,0.072788,0.262215,-0.492994,-0.159450,-0.177553,-0.059968,0.043739,0.213092,-0.440609,0.034747,0.276798,-0.109716,-0.083957,-0.184093,-0.106810,-0.208387,-0.211332,-0.374618,0.284873,-0.374344,0.002125,0.165277,-0.347446,0.522504,-0.255040,-0.033296,0.508891,-0.314908,0.535187,0.082280,0.129400,0.078715,-0.316957,0.060140,-0.182718,0.583847,-0.292000,-0.478569,-0.278643,0.051308,-0.141665,-0.038236,-0.205574,0.373074,-0.273347,-0.265729,0.212300,-0.154194,-0.113935,-0.183068,0.237112,-0.065296,0.249383,0.026298,-0.084596,-0.106302,-0.348283,-0.329903,-0.236253,-0.276733,-0.034262,-0.139319,0.184478,-0.039154,-0.011472,-0.313843,-0.219001,0.269421,-0.249444,-0.320364,-0.058012,0.240001,0.136872,0.103300,0.119090,0.132705,-0.265701,-0.000268,0.178810,0.261245,-0.425346,0.015222,0.531362,-0.445070,-0.114505,-0.042794,0.100621,0.470645,0.319268,-0.544856,-0.203430,-0.043318,-0.027224,0.117400,-0.026782,-0.298677,0.010258,-0.371357,-0.189475,-0.150881,0.201111,0.019945,-0.022313,-0.093206,0.356771,0.473799,0.055703,0.258849,-0.149715,0.637712,0.013675,0.165346,0.180520,-0.043453,-0.077079,0.010499,0.051330,0.321571,0.248188,0.112744,0.743425,-0.052178,0.123691,0.528771,0.018534,0.305643,0.101189,-0.157849,0.208975,-0.188152,-0.067370,-0.117803,-0.171678,0.224886,-0.196326,-0.000041,0.098978,0.308627,0.531861,0.560592,0.347174,0.413013,-0.172288,-0.117489,-0.055422,-0.336739,0.298154,0.203690,-0.263549,0.485173,-0.191915,0.113478,0.098013,-0.316522,-0.224791,-0.383246,-0.172026,-0.148899,-0.474118,-0.132734,-0.280137,-0.011363,-0.062421,0.028350,0.343025,0.017882,0.279740,-0.159977,0.034479,-0.125066,-0.311468,0.194393,-0.116305,-0.138669,0.099489,-0.259994,-0.093893,-0.376824,-0.003604,0.194682,0.216904,0.470000,0.052303,-0.462859,0.351257,-0.065840,-0.130460,-0.307427,-0.330713,0.008501,-0.141147,-0.057968,-0.245376,-0.253839,-0.018195,0.322079,0.051854,-0.306428,-0.028691,-0.064157,0.042926,-0.200425,-0.378950,0.170767,-0.383530,0.310869,-0.110321,0.649786,-0.126232,0.076454,0.238845,0.072571,-0.188731,-0.244194,-0.160175,-0.447200,-0.094798,0.492232,0.229774,0.027831,-0.170799,0.058485,-0.325872,-0.067285
-0.373145,0.487297,0.561130,0.254925,0.128704,-0.454576,0.187327,0.117662,-0.101738,-0.165460,-0.062723,0.050843,-0.176403,0.342805,0.006850,0.202208,-0.275490,0.377742,0.251207,-0.078951,-0.259404,0.065275,0.016659,0.259194,-0.318106,0.153861,-0.069494,-0.119129,-0.126973,0.047515,0.306396,-0.395487,0.483980,0.053645,-0.257943,0.072431,0.121443,0.369894,-0.009752,-0.006944,0.098245,-0.355852,-0.033242,-0.344446,0.268586,0.078987,-0.020878,-0.297355,-0.208071,-0.399396,-0.242183,0.114943,-0.162364,-0.043031,0.299378,0.315215,-0.334436,0.104318,-0.175938,-0.063171,0.058935,0.259305,-0.410680,0.150295,-0.236771,0.076953,0.004925,-0.329217,0.325515,-0.327386,-0.024274,-0.008352,-0.069044,0.346228,0.131451,0.220848,0.027128,-0.361204,0.008827,0.032390,0.239895,0.237676,-0.410278,-0.008688,-0.086952,-0.469152,-0.028390,0.003488,-0.255352,-0.264530,-0.274683,-0.313674,-0.157547,0.322999,0.111790,-0.008252,-0.237774,0.200704,-0.027308,0.048491,-0.041314,0.136047,-0.115366,0.127351,0.077796,-0.055339,-0.065934,-0.269616,-0.011898,0.084614,0.369883,-0.102867,-0.247795,-0.223293,-0.026092,0.351739,0.218843,-0.299997,0.360374,0.194083,0.474163,0.182702,-0.002552,0.003713,-0.155967,0.029252,0.041456,0.312985,-0.076392,-0.517786,-0.161071,-0.075837,0.096663,0.282605,-0.236405,0.331682,-0.183277,-0.636454,-0.097019,-0.260292,0.158021,-0.043366,-0.127979,0.012827,0.050627,-0.318057,0.280975,-0.177781,-0.204427,0.146089,-0.069224,0.096064,0.569968,-0.409983,-0.471792,-0.217011,-0.506972,0.067713,0.151211,-0.335740,-0.137609,-0.338988,-0.067619,0.441253,-0.099743,0.009553,-0.042407,-0.272998,-0.142891,-0.108236,-0.352305,-0.066558,-0.140106,-0.261191,-0.116993,0.473398,0.171829,-0.059693,0.013979,-0.293574,0.245602,-0.164473,-0.070848,0.001212,0.824099,0.139633,0.433690,-0.601512,0.141098,0.263965,-0.237012,-0.030167,-0.182409,0.430455,-0.019658,-0.146210,0.290369,0.535001,-0.082710,0.115408,-0.216450,0.487862,-0.103210,0.200136,0.213583,-0.014396,0.526813,-0.135659,0.595645,-0.392054,-0.128157,-0.034728,-0.097789,-0.223218,0.331532,-0.064675,0.158761,0.278887,-0.389726,0.033149,0.263860,0.024670,0.320309,-0.033641,-0.118263,-0.513767,0.158266,-0.068315,-0.086737,-0.154833,-0.007319,0.041910,0.493500,-0.261719,-0.167407,0.280329,0.342030,0.027944,-0.547156,-0.330402,-0.226335,-0.104287,-0.154983,-0.023092,-0.186791,-0.194517,-0.380509,-0.002945,0.432207,-0.040385,-0.048610,-0.390611,-0.123366,0.126254,-0.010184,0.202343,-0.009514
-0.026034,0.212430,0.014026,-0.235665,-0.026633,0.208867,0.070591,0.310030,-0.299596,-0.092510,-0.237979,-0.073084,-0.116108,-0.040445,0.002269,-0.020011,-0.070865,-0.324485,0.153321,0.341682,-0.211750,0.056219,0.102192,-0.144142,-0.070110,-0.301151,0.126196,-0.120936,0.013833,0.041181,0.069748,-0.069117,-0.435962,-0.172887,0.357360,0.049741,-0.119467,0.165819,-0.023711,-0.073315,-0.271478,-0.229536,0.057064,-0.076905,-0.103431,0.045676,-0.198233,0.144538,-0.249335,-0.026909,-0.500824,-0.200769,0.138384,0.003533,0.531610,-0.187885,-0.214623,-0.262828,-0.402154,0.404526,0.021106,0.024936,-0.050452,0.191168,-0.291204,-0.307862,0.219103,0.110908,-0.003228,0.146542,0.419384,-0.050945,-0.135861,-0.015957,-0.043720,-0.290788,0.297176,-0.179918,-0.189846,-0.250443,0.032086,0.459084,0.635278,0.506709,0.050213,0.774161,0.014748,0.121188,0.131761,-0.092374,-0.386993,-0.034522,0.043820,-0.077907,0.329861,-0.153839,-0.090672,-0.209842,-0.004409,0.526105,-0.186160,0.089966,-0.154440,0.577727,-0.222646,-0.290024,-0.002670,0.291408,0.421478,-0.279988,-0.041298,0.107910,0.252446,-0.390045,0.394820,-0.091199,0.163647,0.020369,0.422846,0.038516,0.479462,0.011972,0.044325,-0.064447,-0.129936,0.104452,-0.352548,-0.244997,0.103236,-0.484676,-0.208108,0.162160,-0.051848,-0.271771,0.273917,0.362354,0.121161,0.042830,-0.552951,0.001212,0.223241,-0.243076,-0.170621,-0.006273,0.345035,-0.175346,-0.152205,-0.250899,-0.251891,-0.210088,0.176715,-0.117106,-0.004171,-0.030453,0.501580,-0.257056,-0.161545,0.329796,-0.187260,-0.118570,0.137790,-0.042169,-0.131975,-0.315398,0.071044,-0.296373,0.073862,0.195561,-0.075987,-0.043955,-0.153050,0.793613,0.092128,0.000631,0.567555,-0.267722,-0.367549,0.059125,-0.095509,0.010019,-0.097770,-0.076300,-0.099034,0.220390,-0.221488,-0.287767,0.142406,-0.010070,-0.068214,-0.383081,-0.371409,0.013332,-0.069070,0.106612,0.002290,-0.197705,0.043740,-0.108633,0.110016,-0.181151,0.092301,0.278433,-0.101205,0.309154,-0.363366,-0.152406,0.003613,-0.245624,0.025396,-0.017892,-0.093857,0.001050,0.413206,-0.044076,0.063788,0.368112,0.284098,0.304614,0.160207,0.100208,0.233231,-0.068583,0.221695,-0.163102,-0.469172,-0.393561,-0.002296,0.030552,-0.149106,0.115406,-0.279057,-0.086314,0.261027,0.143241,-0.020521,-0.183706,0.326004,-0.057139,0.292657,0.225108,-0.006077,0.231489,0.034634,0.048673,0.004997,-0.276313,-0.116438,0.003623,-0.116850,0.038048,0.352107,-0.421931,-0.054846,0.326741,-0.003082,-0.170232,0.123003
0.347909,-0.335106,-0.054763,0.136174,0.074281,0.013747,0.070468,-0.294625,0.308482,-0.112086,0.088836,-0.143410,-0.204313,-0.177285,0.053409,0.187672,-0.161809,0.045541,-0.036844,-0.045829,0.103427,-0.120933,-0.106665,0.283415,0.183389,-0.222964,-0.151247,0.365688,0.075003,-0.171367,0.029814,-0.219268,-0.043120,0.286062,0.159649,-0.178275,-0.019780,0.187459,-0.011394,-0.346023,0.218782,-0.278171,0.005859,0.010437,0.326331,-0.093778,0.101375,0.132683,0.102728,-0.091127,-0.230619,-0.122071,-0.212185,-0.037988,-0.354053,0.089852,0.280619,0.215978,0.381760,-0.085544,0.199027,0.077877,0.046867,-0.015935,0.140676,0.401394,-0.086421,0.170366,0.184618,-0.033471,0.199746,-0.015890,-0.185707,-0.044289,0.213091,0.018661,-0.029255,-0.192123,0.173084,-0.267909,0.354991,0.143518,0.129622,0.418760,-0.200316,-0.098665,0.039196,-0.022924,-0.399393,0.097112,-0.147031,0.055415,0.092837,0.145428,-0.193699,-0.313753,0.198437,0.109860,-0.343616,-0.123841,0.271330,0.190496,-0.113473,-0.050009,-0.080145,0.162707,-0.059919,0.181801,0.336577,-0.338994,0.233959,0.000541,-0.004131,-0.212105,0.141060,0.014054,0.479995,0.079869,-0.354250,-0.109062,0.239520,-0.295205,0.171956,0.115513,-0.145599,-0.019852,0.272739,-0.270783,-0.132123,-0.113605,-0.114065,-0.040732,0.011923,-0.008295,-0.416783,0.105130,-0.254273,-0.021945,0.130338,0.197012,-0.324680,0.555596,0.123386,-0.008421,0.092382,0.119825,0.082929,0.224569,0.057661,-0.161257,-0.302003,-0.230172,0.226401,-0.074797,-0.023935,0.038567,0.059075,-0.033190,0.129807,-0.378014,0.030598,0.083010,0.351514,0.154600,0.436435,-0.000678,0.044916,-0.278034,0.001205,-0.028559,-0.319179,-0.074432,-0.185369,0.295562,-0.042871,0.028728,0.540959,-0.058165,0.278266,0.222529,-0.281222,-0.116403,-0.182187,-0.210906,0.180967,-0.056102,0.094560,-0.073606,0.083881,0.220186,0.125839,-0.003477,-0.222749,-0.268123,-0.008639,0.019970,-0.128313,-0.212281,-0.071708,0.292013,-0.029707,-0.187670,0.339966,0.269167,0.142035,-0.194065,0.005168,-0.001773,-0.153204,-0.140532,0.104945,-0.014726,0.350668,-0.014685,-0.074003,0.345470,0.312684,-0.200023,-0.033354,0.209701,-0.019014,-0.140757,-0.056888,-0.347743,0.390344,0.061878,-0.125170,-0.009326,0.368808,0.214773,0.033864,0.134408,0.129789,-0.170979,-0.104447,0.035543,-0.244177,-0.041714,0.063180,-0.386525,-0.006324,0.141418,-0.076864,0.026309,0.510600,0.556328,-0.052126,0.077061,0.222218,0.082783,0.020941,-0.073879,0.050203,-0.114907,-0.011776,-0.195392,-0.023071
0.456022,0.103680,-0.149852,-0.151706,0.105430,0.347862,0.021376,-0.192787,0.455206,0.351677,-0.136318,-0.158523,0.065492,-0.102949,-0.144128,0.099357,0.767047,-0.281258,-0.284404,-0.045229,-0.193768,-0.411462,0.071551,0.338699,0.098356,0.461009,0.054349,-0.400783,-0.099344,-0.238898,0.072822,-0.232352,-0.308866,0.309353,-0.246679,0.405982,-0.156829,-0.003464,0.013191,0.148283,0.118560,0.574294,-0.260278,0.275120,0.359919,0.003385,-0.014205,-0.164598,-0.176564,0.090944,-0.044814,-0.264541,0.172196,0.242010,-0.385133,0.087652,0.239502,0.110007,-0.016948,-0.146414,-0.055029,-0.162455,0.425776,-0.108382,-0.037105,-0.433802,-0.111615,0.154606,-0.275718,0.008049,0.347196,0.351250,-0.143188,0.253970,-0.094740,0.022179,0.580338,0.454931,-0.048675,-0.165936,-0.065116,-0.076578,-0.295880,0.050513,0.260585,0.035706,-0.003941,0.077011,0.795352,-0.309487,0.037988,0.116905,-0.084900,-0.152145,0.074877,-0.330244,-0.183585,-0.009579,-0.161607,-0.018163,0.146908,-0.222655,0.249581,-0.242916,-0.128304,0.083864,0.018865,-0.006596,0.070637,0.253286,0.134428,-0.128028,0.128481,0.206125,0.370610,0.015296,0.457001,-0.149123,0.197423,-0.145918,-0.252048,0.012651,-0.019425,-0.230267,0.358183,0.072017,-0.272217,-0.362710,-0.132548,-0.074763,0.527939,-0.055629,-0.025202,0.249288,0.353378,-0.067347,-0.120956,0.222630,0.040870,0.566816,-0.060296,-0.156085,0.262343,0.007781,0.153266,-0.161738,-0.077503,-0.102419,-0.120904,0.000796,-0.078406,0.327445,-0.138330,-0.059260,0.053316,0.525520,0.079668,-0.149700,-0.490653,0.163451,0.031806,0.227458,-0.190014,-0.130622,0.118607,-0.110514,-0.153768,0.257221,-0.022037,0.110825,0.553594,-0.369604,0.390732,0.339927,-0.188185,-0.119528,-0.290236,0.064977,-0.014689,-0.146977,-0.453198,0.227186,-0.244863,0.080665,0.079851,0.374720,-0.168317,0.101811,-0.040580,0.011159,-0.212981,-0.134919,-0.143913,0.131401,0.059129,-0.037181,-0.083241,-0.116883,-0.004574,-0.083805,0.168848,0.049208,0.059380,-0.061804,-0.074164,-0.084705,0.164590,-0.059192,-0.020925,-0.350444,0.001247,-0.015510,0.389751,-0.137381,0.317056,0.013857,0.015629,-0.229201,-0.087818,0.027530,0.033123,0.033273,-0.314738,0.066856,-0.139723,-0.180979,0.046412,-0.025604,0.756281,0.077370,-0.105491,-0.035133,-0.107194,0.109527,0.005868,-0.025934,0.121582,0.082945,-0.268326,0.028498,0.072445,0.094081,-0.081998,-0.365581,0.081267,0.351685,0.467542,-0.064511,-0.265945,0.203987,-0.361908,0.234616,0.528415,0.161371,0.035707,0.079202,0.072155
-0.369917,0.068534,-0.187222,-0.011978,0.205703,0.181452,0.018249,-0.184555,0.447792,-0.110481,0.160887,-0.068445,-0.033286,0.045988,-0.054889,0.271258,0.113554,0.129833,0.433174,-0.130011,0.236852,-0.187197,-0.055187,0.459394,-0.230331,0.666499,-0.311481,-0.317599,-0.416232,0.051329,-0.039818,0.333559,-0.108394,0.010075,-0.272828,0.158498,0.375297,-0.161247,0.090785,0.142199,-0.252383,0.071796,-0.286278,-0.292889,-0.028281,0.132685,-0.084046,0.081892,0.212208,0.343068,0.679520,0.178500,0.215181,0.076772,0.133791,-0.076952,-0.343775,-0.183338,0.297620,-0.196435,-0.332441,-0.066805,-0.071630,-0.007923,-0.095529,-0.231030,-0.256115,0.036670,-0.456997,0.048170,0.194146,0.239419,0.016932,0.014316,-0.032436,0.165696,0.034751,0.182930,0.100274,-0.075564,-0.271241,-0.254705,-0.406534,-0.323252,0.157208,-0.145960,-0.014255,0.038808,-0.008986,0.191663,0.653097,0.147578,-0.148353,0.014816,-0.122237,0.003418,-0.169386,0.182524,0.613001,-0.216564,-0.428205,-0.108333,0.258212,-0.039394,0.026300,-0.421009,-0.028387,-0.214233,-0.327758,0.696222,-0.190275,-0.327041,0.035667,0.553800,-0.260022,-0.140206,0.148778,0.147553,-0.030271,-0.348307,-0.443663,0.132852,-0.167768,-0.243537,0.104319,0.035731,0.079279,0.054460,-0.087076,0.265712,0.168206,-0.011131,0.183793,0.083946,0.289231,-0.283713,-0.206203,-0.119102,0.149842,-0.057921,0.266174,-0.053523,-0.261718,0.003685,-0.274800,0.134005,-0.166154,0.035903,-0.133934,0.173988,-0.035303,0.079194,-0.299681,-0.089846,-0.252540,-0.067747,-0.113450,-0.237170,-0.045871,0.019099,0.107380,-0.274261,-0.243316,-0.239160,-0.034958,0.185557,-0.306863,0.216079,-0.089473,-0.107520,0.214726,-0.510465,-0.172675,-0.057996,-0.460363,0.143610,-0.037767,-0.021986,0.045509,-0.501936,0.484311,0.397386,-0.228173,0.322078,0.245524,-0.151980,-0.155578,-0.027370,0.233486,0.524541,0.252162,-0.283715,0.187432,0.312621,-0.012054,0.078704,-0.019062,0.152155,-0.067567,-0.398154,-0.109527,-0.155128,-0.347937,-0.440809,0.255225,0.392749,0.315486,0.388103,0.300912,0.113233,0.005390,-0.030133,-0.217621,0.036839,-0.165461,-0.349317,-0.314228,-0.152833,-0.032392,-0.364965,-0.060445,0.361717,-0.373452,0.700599,0.077163,0.411755,0.139151,-0.031951,-0.290106,0.023686,0.304769,-0.027172,-0.260272,0.083919,0.197137,0.515067,-0.100617,0.242363,-0.158038,0.197387,-0.377995,-0.185589,-0.146635,-0.100793,0.102118,-0.097532,-0.030145,0.008905,-0.040189,0.150702,-0.418406,0.272418,-0.137071,0.023466,0.002506,0.562141,0.042095
-0.670837,-0.055418,0.018389,0.083276,-0.023665,0.136375,-0.002909,-0.264898,0.150426,0.236686,0.131071,-0.119885,-0.125628,-0.067745,0.002460,-0.001504,0.242462,-0.048127,-0.192620,-0.429574,-0.091039,0.021948,0.009089,-0.259587,-0.002222,0.580333,-0.222127,-0.378902,-0.023012,0.181589,0.026849,-0.066395,0.063978,0.040436,-0.065685,0.121834,0.173263,-0.267336,0.006999,0.138762,-0.558084,-0.078695,-0.200914,0.548567,0.340046,-0.030286,0.024942,-0.011152,-0.230164,0.391920,-0.325598,0.171247,-0.021644,-0.081839,0.075707,-0.206346,-0.137059,-0.082912,-0.311527,0.240685,-0.202678,0.186170,0.282426,-0.103784,-0.389314,-0.448587,-0.169517,-0.052847,0.145606,-0.114595,-0.455360,-0.060093,-0.015308,0.095136,-0.072617,0.013678,0.433047,-0.001958,-0.151313,-0.339586,-0.215466,-0.322912,-0.370319,-0.339090,-0.129305,0.097200,-0.009623,0.027889,0.235194,0.091433,-0.071841,0.075776,-0.219470,-0.120830,-0.261608,0.081852,0.068736,-0.082700,-0.256726,0.049181,0.097127,-0.397641,0.178145,-0.073427,0.510948,-0.217961,0.089160,-0.076539,-0.246758,0.038389,-0.087528,-0.161734,0.128833,0.330802,0.009044,-0.097393,-0.254367,0.137544,0.226218,0.018814,-0.217669,0.253722,-0.302260,-0.084606,0.601737,0.058317,0.146911,0.005175,-0.276584,0.214609,0.575308,-0.179444,0.012723,0.551797,0.031790,-0.157915,0.022188,0.075814,0.236850,-0.188554,0.053707,-0.307718,-0.143311,-0.019935,-0.229792,-0.143829,-0.225608,-0.057398,-0.067196,0.221702,0.268348,0.384514,-0.355179,0.352640,-0.230425,0.070200,0.425946,-0.256489,0.039748,0.230263,-0.041014,-0.268462,-0.132141,-0.165108,-0.305633,0.050805,0.032408,-0.003210,0.127805,-0.229185,0.137797,-0.038162,0.328196,-0.201583,-0.289209,0.580235,-0.219168,-0.065849,0.100047,0.311625,-0.199176,-0.184068,0.534622,-0.071400,0.499483,0.354730,-0.275628,0.082070,-0.267591,0.187860,-0.008160,-0.367584,-0.127058,-0.159232,-0.017922,0.007066,-0.130482,0.417096,-0.070492,0.090165,-0.107946,0.326049,0.229378,-0.282821,0.162459,0.006423,-0.085104,0.032575,-0.088048,0.193383,-0.324550,-0.018246,-0.231008,-0.000298,0.470513,-0.188248,-0.249619,0.378404,-0.053877,-0.265303,-0.229941,0.392804,-0.108958,-0.154957,-0.109259,0.394683,-0.075461,-0.054987,0.124986,-0.135591,0.166282,-0.053995,-0.080701,0.487439,-0.093408,0.134215,-0.143880,-0.150389,0.149955,-0.195386,0.133145,-0.104637,-0.108454,0.093176,0.001114,-0.056936,0.161021,-0.153987,-0.481573,-0.034772,-0.043110,0.264925,0.086833,-0.327630,-0.017736,-0.392893,0.017022
-0.458991,-0.101944,0.036590,-0.274573,-0.136616,0.009194,-0.209386,0.256337,-0.388211,0.245421,-0.365345,0.162602,-0.165599,0.246811,0.080343,-0.345673,-0.075988,-0.365055,-0.317977,-0.268626,0.334770,-0.024131,-0.057851,-0.522988,-0.181784,0.657467,-0.184822,-0.471710,0.259782,0.335394,-0.042726,0.491292,-0.016311,-0.268692,-0.182545,0.224559,0.246423,-0.278670,-0.041923,0.504926,-0.560132,-0.262448,-0.173900,0.442911,0.176023,0.107436,-0.202546,0.138860,-0.224018,0.497919,-0.365455,-0.107114,0.312749,0.008701,0.481353,-0.286852,-0.239009,-0.375266,-0.427438,0.706654,-0.464495,-0.469032,-0.354249,-0.060432,0.127973,-0.374385,-0.023800,-0.122683,-0.252711,-0.181154,-0.588998,-0.298295,0.212768,-0.213222,-0.065175,-0.068806,-0.012380,-0.019674,-0.164912,-0.224614,-0.361906,-0.298355,-0.355838,-0.379234,-0.293215,0.395185,-0.010550,-0.197394,0.159050,0.233685,0.374803,0.333540,0.020857,-0.245963,0.321855,0.572823,0.217344,-0.030397,-0.065586,-0.225205,-0.492015,-0.357895,-0.009151,-0.126784,0.355821,-0.301719,0.131983,-0.196132,-0.452633,0.112176,-0.266612,0.115154,-0.193524,0.071243,-0.320400,-0.192762,-0.416807,0.356353,0.241072,0.067561,-0.247756,0.223649,-0.442687,-0.010985,0.318206,-0.147834,0.176124,0.137504,0.194387,0.066467,0.728756,0.256313,-0.043386,-0.011027,-0.117624,-0.297040,-0.192211,0.486887,-0.230831,-0.280294,0.432889,-0.308416,-0.056646,0.015209,-0.302099,-0.066206,-0.203021,-0.144939,-0.272538,-0.284046,0.181396,0.021610,-0.257126,0.520838,-0.264025,0.137157,0.583213,-0.333584,0.071948,0.167076,-0.091458,-0.242141,0.088648,-0.211535,-0.368878,-0.141700,-0.206805,-0.335002,0.141731,-0.216105,0.237456,0.173630,0.223128,-0.365684,-0.260774,0.542668,-0.255241,-0.035422,-0.610799,-0.194572,0.404939,-0.398605,0.577509,0.191250,0.150634,-0.248211,-0.248826,0.402374,-0.268687,-0.003197,-0.270363,-0.371281,0.629888,-0.112239,-0.008548,0.257804,-0.099290,0.394941,0.037489,-0.542641,-0.300146,0.195830,-0.318608,-0.396714,-0.130241,0.486488,-0.058434,-0.015534,-0.297681,0.200676,-0.461057,-0.051252,-0.366135,0.356206,0.003353,-0.198597,-0.312379,0.250648,0.086084,-0.333630,-0.299735,0.187443,-0.271395,-0.027248,-0.329497,0.571757,0.427819,0.182148,-0.381039,-0.194396,0.106098,-0.081230,-0.302127,0.371110,-0.324250,-0.322209,-0.178717,-0.166540,0.113043,0.077611,0.603984,-0.166415,-0.005200,0.681272,-0.383878,-0.318933,-0.253122,-0.218318,-0.618492,-0.137688,-0.147634,0.430647,-0.214116,-0.347424,-0.020670,-0.402811,-0.210285
-0.099997,-0.085914,0.112465,0.425397,-0.082816,0.474050,0.295068,0.364240,-0.542247,0.062705,0.040322,0.034591,-0.217199,-0.119317,-0.041473,-0.085502,0.272053,-0.126998,-0.288231,0.229873,0.001409,0.056868,0.218361,-0.352963,-0.522603,-0.297290,0.150518,0.528102,-0.043760,-0.142593,0.375390,-0.320693,0.462534,0.113189,-0.242517,0.654005,0.010086,0.184221,0.130632,-0.201345,0.435334,0.179239,0.308003,0.289574,0.337408,-0.061460,-0.189254,-0.049033,-0.207690,-0.099991,-0.030699,-0.124750,0.295471,0.093131,-0.569969,-0.105773,-0.048351,0.548698,0.257261,-0.654533,-0.124893,0.012613,0.518897,-0.391321,0.112809,0.429066,-0.058140,-0.232161,-0.073167,0.265144,-0.037764,0.238827,0.105974,0.573196,0.026945,-0.162362,-0.199188,0.028999,0.255725,-0.249675,0.219623,-0.095416,-0.091707,-0.278135,0.014769,-0.318972,-0.012085,0.065731,-0.082237,0.013668,-0.069208,0.030208,-0.210338,-0.405565,-0.310846,-0.155169,0.101606,-0.356295,-0.149281,0.297111,0.396891,-0.066718,0.307364,-0.050904,-0.112909,0.306916,-0.048939,-0.460243,0.016914,0.074070,-0.395689,0.055099,-0.389674,0.070302,0.587271,-0.363417,0.204980,0.113867,-0.166624,0.153235,-0.087031,-0.003734,0.367643,0.128158,0.070939,0.082057,-0.158834,0.180317,0.209184,0.219426,-0.136492,0.053002,0.242889,0.086481,0.189364,0.172975,-0.157256,-0.320274,-0.266248,-0.028635,-0.191216,-0.014210,0.079043,-0.021607,0.209587,-0.165367,0.005154,0.206429,0.248413,-0.082529,-0.227113,-0.195552,0.270584,0.060485,-0.293756,-0.016589,-0.239933,-0.479350,-0.293460,-0.136956,-0.054620,-0.088192,-0.019238,-0.178097,0.262136,0.636812,0.048048,0.005129,-0.112508,0.031293,-0.152483,-0.277973,0.065657,-0.006129,-0.255133,0.413846,0.104355,0.011764,0.264173,0.372556,-0.269532,-0.212398,-0.282547,-0.128350,-0.043749,-0.122915,-0.154297,0.639236,0.391376,0.156874,-0.458193,0.264781,-0.213712,-0.222003,0.033420,0.286759,-0.016683,0.202752,-0.019212,0.082934,0.476963,0.044221,0.447167,0.374847,-0.388824,-0.216709,0.040493,-0.268444,0.515288,-0.274040,0.518893,0.018320,-0.559005,-0.276787,0.140896,-0.040044,0.471193,-0.419440,0.077360,-0.074662,0.279535,0.382048,0.102592,0.067718,-0.164556,0.191024,-0.074102,-0.073128,-0.302583,-0.127136,-0.184033,-0.001439,0.370390,-0.156646,0.065675,0.406411,0.115608,0.184008,0.162776,-0.431985,-0.290569,0.046517,0.097874,-0.428880,-0.081572,0.289255,0.003570,0.330348,0.157135,0.334523,-0.064891,-0.182802,-0.312923,0.048790,-0.046302,-0.057103,0.068865
0.262483,-0.273844,0.097694,0.583279,0.076612,-0.147311,-0.025084,-0.301611,0.562373,0.305454,0.291436,-0.033934,0.028157,0.047215,0.148267,-0.061012,0.352091,0.101848,-0.434752,-0.641662,-0.341921,-0.153543,-0.195938,0.060204,0.072463,0.403849,-0.005259,-0.372388,0.112910,-0.076215,-0.034470,-0.125102,0.456949,0.175063,-0.437537,0.139660,-0.160315,0.121219,0.107699,0.361384,0.136715,0.438247,-0.191227,0.181668,0.235650,0.011886,0.160989,-0.487844,-0.013685,0.070953,0.469806,0.140095,-0.426940,0.083563,-0.289325,-0.243256,0.395549,0.589173,0.220718,-0.154512,0.151254,0.408599,0.293495,-0.446164,0.058520,-0.118299,-0.344835,-0.032983,0.139784,-0.040258,-0.394606,0.267435,-0.260929,0.053748,-0.058019,0.235167,-0.309146,0.307257,0.308211,-0.123130,-0.226312,-0.343571,-0.450084,-0.607154,-0.291610,-0.613949,-0.008245,-0.117191,0.117759,0.067660,-0.540010,0.331902,-0.232137,-0.236259,-0.194735,-0.032465,0.252695,0.066556,-0.159190,-0.381924,0.163083,-0.378182,0.274009,-0.313328,0.073356,0.263866,0.035292,-0.116594,-0.343818,-0.071258,-0.080327,-0.377417,0.165924,0.673589,-0.159366,0.144913,0.206233,0.058791,-0.443457,0.214830,-0.212823,0.101149,0.101553,0.028372,0.414919,-0.077780,0.553936,0.240349,-0.213595,-0.421729,0.237330,-0.205323,-0.088010,0.155250,-0.262889,-0.086041,-0.152917,0.101448,0.441191,0.328879,-0.487741,-0.183320,0.431910,0.003032,-0.240333,0.342675,-0.167802,0.432560,0.185337,0.174567,-0.426142,0.215634,0.075688,0.222659,-0.445894,0.520900,0.745182,-0.386235,0.419567,0.314601,0.135303,0.508647,-0.069940,-0.203925,0.140641,0.130883,0.128507,-0.422366,-0.211852,-0.331211,0.095880,-0.543387,0.254765,-0.083834,-0.599924,0.567690,0.387284,0.009198,0.108513,0.290493,-0.195489,-0.463607,0.415746,-0.294019,0.823254,0.544496,-0.158837,0.075772,-0.244878,0.340608,-0.003559,-0.345289,-0.162290,0.208095,-0.019408,0.311982,0.062095,0.426737,-0.040335,0.457208,0.179019,-0.191360,0.166925,-0.496086,0.269556,-0.015119,0.114929,0.347749,-0.210192,-0.187723,-0.056046,-0.018502,-0.156248,0.000612,0.062284,-0.191076,-0.359506,-0.061323,-0.142960,-0.317370,-0.291673,0.441330,0.004517,0.241511,0.366562,0.044480,-0.132334,-0.038492,0.584935,-0.059484,0.012489,-0.009908,-0.279103,0.123530,-0.049610,-0.079027,-0.195854,0.025899,-0.444990,-0.272047,-0.017115,-0.311200,-0.218088,0.189449,-0.084276,0.124816,0.373003,-0.063876,-0.472382,-0.044088,-0.325473,0.222266,0.391592,-0.354383,0.097907,-0.265544,-0.100066
0.613747,0.164155,0.114740,0.016365,0.100716,-0.029610,-0.179869,-0.332542,0.411424,-0.148018,0.257849,0.046423,-0.034889,-0.034333,-0.187715,-0.097240,0.062037,-0.400073,-0.417399,-0.148294,-0.317765,-0.187270,-0.029865,0.365895,0.130571,-0.420946,-0.060311,0.298218,-0.384987,-0.219611,0.427074,-0.194970,0.039468,0.201823,-0.036753,-0.001015,-0.346694,-0.050505,-0.281483,-0.251236,0.266797,0.098671,-0.376244,-0.199576,-0.136713,-0.034050,0.555846,-0.475656,0.129496,-0.370295,0.448362,-0.140563,-0.606288,-0.079915,-0.140624,0.463350,0.519472,0.360888,0.162732,-0.721139,0.606169,-0.035245,-0.177980,-0.147050,-0.141536,0.525735,0.012176,0.367092,-0.101130,0.113714,0.356395,0.175500,-0.251968,-0.179561,0.085040,0.338160,-0.241545,0.235827,0.334957,-0.053364,0.201915,-0.243194,-0.220513,0.461826,0.088978,-0.639449,-0.013853,-0.194899,-0.329886,-0.151494,-0.451781,-0.286020,-0.176110,-0.023796,-0.411720,-0.243806,-0.134494,-0.000245,-0.192214,-0.272906,0.182311,0.304154,-0.125036,-0.134375,-0.202515,0.679776,-0.090316,0.023535,0.179290,-0.133853,0.255681,-0.002994,0.021023,-0.234318,-0.172200,0.171253,0.603473,-0.360956,-0.506152,0.046144,-0.056410,-0.459403,0.597893,0.254326,-0.171276,-0.147927,-0.179507,-0.147716,-0.215520,-0.182433,-0.304371,-0.212345,-0.288123,-0.605675,-0.518842,0.159697,0.148668,-0.082449,-0.161160,0.435468,-0.557794,0.470453,0.215653,-0.022659,0.549971,0.368553,0.322350,0.285879,0.185255,0.201461,-0.442883,-0.232487,0.069133,-0.291154,0.008609,-0.022767,-0.336024,-0.156401,0.267983,-0.042931,0.060700,0.286806,0.089324,0.474053,0.502455,-0.175391,0.170269,-0.056903,-0.093935,-0.077517,-0.282730,-0.269226,-0.452360,0.085168,-0.082760,-0.372498,0.256190,0.029810,-0.083178,0.087563,-0.363086,0.094443,-0.115878,-0.333826,-0.294171,-0.004844,0.394785,-0.314375,0.059143,-0.253550,-0.278468,0.409786,-0.276483,-0.191552,0.013359,0.011436,0.018158,-0.263244,-0.080552,0.096892,0.270394,-0.239504,0.137183,0.284292,-0.026226,-0.232374,-0.093672,-0.186299,-0.318354,-0.458728,0.337418,0.028527,0.502488,-0.275609,-0.072044,0.317653,0.524472,-0.237160,-0.146325,0.242836,0.154219,-0.299324,0.461105,0.004533,0.254923,-0.428747,-0.207348,-0.042959,-0.100922,-0.037723,-0.166364,0.037425,-0.216611,-0.406820,-0.021777,-0.403321,-0.155952,0.166029,-0.589762,-0.247280,-0.105094,0.327630,0.378923,-0.208259,-0.014650,0.354114,-0.222661,0.154480,0.262886,-0.128848,-0.058987,-0.334543,-0.058101,-0.089511,-0.026685,0.064835,-0.203606
0.476417,0.055910,0.081795,-0.197555,-0.501951,0.259846,0.403214,0.048728,-0.613907,0.185760,-0.108985,-0.506717,-0.249122,0.119464,0.423079,-0.205601,-0.697336,-0.443684,-0.077787,-0.499927,0.412359,-0.624796,0.602357,0.199989,-0.198134,0.021507,-0.337269,-0.616288,0.046273,0.495373,-0.154456,-0.283144,0.436055,0.141135,-0.116751,0.094219,0.012759,0.286854,0.236515,0.339245,0.219000,0.268883,0.168009,-0.097198,0.415221,-0.195501,0.008998,0.348294,-0.398149,0.179112,-0.436685,0.000787,0.166132,-0.439307,-0.177778,0.268670,0.453209,-0.026267,0.438821,-0.337864,-0.286733,0.330851,-0.363855,-0.206206,0.314239,-0.125272,-0.251569,0.336117,0.039887,0.346922,0.339475,0.373598,0.176668,0.008276,0.434489,-0.308883,-0.288547,0.120621,-0.354703,-0.384016,0.014854,-0.159423,0.070365,-0.276634,0.508798,-0.361862,0.456949,-0.430844,-0.520497,0.277310,0.044049,0.428805,-0.422915,0.096828,0.406348,-0.068957,0.182641,0.194041,0.137342,0.312290,-0.367195,0.229876,0.077682,-0.556417,0.243109,-0.328732,-0.029185,0.121771,-0.343046,-0.236641,-0.069165,-0.257533,0.213136,0.287338,0.073775,-0.505150,0.346374,-0.153405,-0.491686,-0.373467,-0.305074,-0.047480,-0.098632,0.333448,-0.520866,0.374572,-0.523449,-0.368812,0.033301
0.188142,0.154019,0.423513,0.487712,0.444395,0.271689,-0.412289,0.294513,0.231622,-0.051736,-0.343539,0.069407,-0.206024,-0.352724,0.044306,0.081652,0.439577,0.279729,-0.272407,-0.101619,0.486987,0.545578,0.117026,-0.508304,0.319889,0.317903,-0.450681,-0.024850,0.236107,-0.151651,0.118718,-0.377824,-0.386657,-0.275976,-0.365046,0.191056,-0.249056,0.139053,0.155167,-0.046102,-0.557340,0.101408,-0.499411,0.304003,0.224719,0.515322,-0.347316,-0.335440,0.494951,-0.519536,-0.300113,0.255754,-0.040830,0.531239,-0.491617,-0.100436,-0.312242,0.134399,0.484280,-0.225014,0.188228,0.090228,0.186425,-0.030784,0.206194,-0.101588,0.447516,0.049186,-0.010696,0.388520,0.444443,0.413863,-0.218426,-0.169213,0.241911,0.396584,0.069905,0.424838,-0.145727,-0.439672,0.125200,-0.222228,0.001286,-0.251771,-0.382979,-0.072042,-0.435930,0.103304,-0.386532,-0.433981,-0.089367,-0.003106,0.061481,-0.230494,0.022573,-0.180406,-0.139928,0.122219,0.021219,-0.424982,-0.479066,-0.252444,0.335052,-0.040741,-0.342967,0.165479,-0.365153,0.015840,0.304156,-0.342292,0.282025,0.352787,-0.066057,0.085532,0.203811,0.383451,-0.475464,-0.454532,-0.157275,-0.314231,0.378276,0.402528,0.250822,-0.090827,-0.386744,0.194493,0.417178,0.329417,0.409570
-0.407269,0.328226,-0.262275,0.198296,0.093139,0.251715,0.309653,-0.152874,-0.222091,0.104294,0.348154,0.437940,0.150143,-0.021302,-0.060705,0.185865,-0.286131,-0.412357,-0.377879,-0.397707,0.236548,-0.240775,0.247388,0.201981,-0.313606,0.352616,0.212718,-0.293572,-0.531699,0.407064,-0.224751,0.319947,-0.263631,0.137607,-0.000902,0.365306,-0.603902,0.077429,0.069526,0.416403,-0.405653,0.143698,-0.386619,-0.129417,-0.171871,0.162488,0.160830,-0.313538,0.282978,0.148179,0.253528,-0.512365,-0.156793,-0.213393,-0.409197,-0.044178,-0.377985,-0.339308,0.060208,-0.481509,-0.129027,0.345581,-0.187819,0.273765,0.317551,0.349444,0.241825,-0.545157,0.298260,0.257558,-0.306959,0.163366,0.270106,-0.433466,0.139622,-0.388260,0.285050,-0.002172,0.002260,0.423709,0.328561,0.082334,-0.159771,0.299097,-0.446769,0.461694,-0.586271,-0.391222,0.324442,-0.515357,0.492914,-0.161828,-0.126364,0.125465,0.196388,0.392829,-0.263220,-0.074270,0.152096,-0.290179,-0.542567,-0.235858,0.284044,0.130893,0.074821,0.072088,-0.103869,-0.203634,0.466655,0.093873,0.187240,0.406393,0.322914,-0.171426,-0.379235,-0.371003,-0.472555,-0.121533,0.161106,-0.138304,-0.279553,0.292442,-0.021356,-0.247791,0.205424,0.012820,0.352896,-0.421896,-0.021859
-0.215707,0.284782,-0.291353,0.330188,-0.095623,-0.362435,0.347576,-0.448027,-0.175064,0.436640,0.046266,0.581745,0.126181,0.541112,-0.058250,-0.508506,-0.475770,-0.039914,-0.115136,0.192043,0.347925,-0.229963,-0.235449,0.288415,0.374685,-0.095532,-0.244615,-0.045104,-0.168967,0.217163,-0.155941,-0.575892,0.093762,-0.440481,-0.302363,-0.401983,0.308911,-0.004629,-0.412980,0.324680,0.300643,0.118137,0.406975,0.321914,-0.026251,0.341932,-0.215572,0.325878,0.045855,-0.012919,0.008944,0.236452,-0.620373,0.110543,-0.035011,0.135158,0.284906,0.382033,0.400603,-0.430781,0.583471,0.281674,0.062932,0.093688,0.010373,0.435799,-0.503808,-0.043932,-0.115451,0.520965,-0.195938,-0.203747,-0.416949,-0.198126,0.178525,-0.002041,-0.312878,0.279404,-0.116905,0.176806,-0.548200,-0.570875,0.010759,0.131800,-0.440482,0.404381,-0.416385,0.081737,-0.378917,-0.490848,0.267315,-0.249154,0.325508,-0.543549,-0.321725,0.463511,0.186595,-0.084909,0.077073,-0.024634,0.256488,-0.123971,-0.553198,-0.403992,-0.577834,0.112469,0.115467,-0.315374,-0.258739,0.226593,0.150454,-0.233669,-0.519384,0.051175,-0.101483,0.460309,0.194745,0.283764,0.159030,-0.290760,-0.443494,-0.289181,0.123744,-0.298290,0.438073,-0.127018,-0.387640,0.108251,-0.492227
0.084979,-0.414025,-0.196777,-0.302603,0.115144,-0.446210,0.256022,0.061888,0.181008,0.043180,0.336545,-0.400089,-0.503586,-0.402874,-0.094142,-0.400878,0.049702,0.069488,-0.219632,-0.223655,0.109545,0.134902,0.284355,0.377366,0.049110,-0.054797,0.302775,0.033628,0.036917,-0.273323,0.268056,-0.263625,0.163825,-0.436169,-0.092550,0.189967,-0.319361,0.130856,0.064147,0.354614,-0.023405,-0.479344,0.291274,0.096606,-0.286990,0.372051,-0.142683,0.169183,-0.471741,-0.554506,0.451675,-0.165576,0.278091,0.350217,-0.464507,-0.312892,0.296970,0.392259,-0.046368,-0.352258,-0.130845,-0.043709,-0.034884,-0.172095,0.120146,-0.315356,-0.379570,0.107456,-0.189847,-0.310604,0.033545,-0.436084,0.276009,0.151015,-0.547366,-0.343244,0.103696,0.305377,0.259294,-0.279503,-0.372571,0.311710,0.099175,-0.603827,0.203108,0.452100,-0.174586,0.318222,0.146930,0.158623,0.325102,-0.182178,0.038347,-0.507631,0.431481,0.125644,-0.103620,-0.175256,0.067316,-0.198915,-0.378486,-0.023407,-0.460423,0.255729,-0.403310,-0.234434,-0.359115,0.015049,0.204977,0.053709,-0.246934,0.279442,-0.445461,0.408617,0.234663,0.132606,-0.257402,0.327925,0.342693,-0.192525,0.179311,0.141140,0.490219,0.302872,-0.440012,-0.368682,-0.320695,0.259995,0.383485
0.579725,0.006537,-0.443189,0.448187,-0.175273,0.456723,0.051633,0.552609,-0.029448,-0.601878,-0.038461,0.069908,0.390679,-0.053385,-0.240010,-0.450239,0.067906,-0.365072,-0.313606,0.429944,-0.195838,-0.505097,0.226008,0.128361,0.222977,0.149829,-0.310583,0.017250,0.275072,-0.444993,0.432364,-0.220380,-0.283702,-0.462139,0.226296,-0.144365,0.553317,0.102846,0.315161,-0.137104,0.259910,-0.391419,0.440510,-0.544497,0.122386,-0.220755,-0.251871,0.230918,-0.036075,-0.429033,-0.487936,-0.221252,-0.358018,-0.548818,-0.058108,0.336792,-0.110877,-0.204796,-0.028338,-0.327783,0.298147,0.006368,-0.063086,0.356523,-0.421170,-0.197689,-0.482460,0.089804,0.341937,0.052464,-0.428882,-0.251012,-0.287784,0.170539,-0.116717,-0.436771,-0.471156,0.419745,0.217543,0.034081,-0.460175,0.056355,-0.029217,-0.444900,0.382464,-0.072041,-0.084192,0.081835,-0.424544,0.488920,-0.398955,0.143605,0.446722,-0.334244,-0.390366,0.133694,-0.555302,-0.488996,0.293548,-0.403199,0.265862,0.373104,-0.334661,0.431032,0.330716,-0.046452,-0.161362,0.414017,-0.389312,-0.430229,-0.438487,-0.510064,-0.122361,0.342435,-0.084892,0.081380,0.321970,-0.463740,0.485775,-0.004652,-0.300631,0.468135,-0.532491,0.055043,-0.309839,-0.063647,0.344582,0.497286,0.002530
0.282540,0.177332,0.262466,0.402436,0.282983,0.144901,0.002795,-0.410991,0.210088,-0.285194,-0.361384,-0.186064,0.009279,0.440844,-0.391839,-0.243368,-0.140437,-0.171874,0.404841,-0.035363,-0.487022,0.066026,0.283687,0.455803,-0.310327,0.346117,-0.119529,0.169826,-0.059262,-0.148506,0.366283,0.194442,-0.194515,-0.242106,-0.622889,0.255171,-0.104058,-0.418462,0.363785,-0.108904,0.099853,0.067134,-0.369347,-0.302660,0.424927,0.172714,-0.056405,-0.119673,-0.081960,0.058150,-0.237260,0.126851,-0.204441,0.230854,0.399457,0.187008,0.290078,-0.369047,-0.077544,-0.172710,-0.487928,0.105572,0.066702,0.163770,-0.504444,-0.356254,0.341583,0.190773,-0.281532,0.429680,-0.152598,0.265794,-0.226361,-0.095128,-0.498333,0.285679,-0.446918,-0.031288,0.393942,0.214528,-0.563953,0.180647,-0.153127,0.272002,0.356929,0.259449,-0.269273,0.416437,-0.355838,-0.110122,-0.084413,-0.344392,0.286385,0.416416,0.338090,-0.169608,-0.191041,-0.505485,0.329813,-0.529886,0.219091,0.284133,-0.234064,0.042826,0.336707,-0.048429,-0.128652,0.272223,0.329727,-0.095684,0.229171,0.460825,0.025207,0.291764,-0.339809,-0.225675,0.399905,0.176835,-0.150312,-0.357730,0.359958,-0.421312,0.380886,-0.308676,0.124373,0.040425,0.043912,0.148894,-0.490950
0.144469,-0.172136,-0.216525,-0.492809,0.145154,0.287392,-0.203748,-0.143361,0.265063,-0.427970,-0.332056,-0.117454,-0.390371,0.251107,0.227669,0.362253,0.174681,0.304181,-0.472885,0.039981,-0.255151,0.317741,0.188562,0.274519,0.280978,0.059270,-0.155570,-0.344780,-0.464790,0.265768,0.337697,-0.164859,-0.195784,-0.241857,-0.058767,-0.374267,0.310943,-0.222957,-0.291587,-0.501520,-0.084703,-0.451529,-0.504591,-0.030160,-0.183671,-0.036348,-0.050086,0.330061,-0.148230,0.392491,0.212737,-0.005240,0.447602,-0.260556,0.329169,-0.372391,-0.091250,-0.600034,-0.064093,0.017170,0.094782,0.258246,0.029954,0.464746,0.332901,0.514174,0.355424,0.378970,0.058304,0.428814,0.443004,-0.076358,0.226158,0.433003,0.124952,0.298313,-0.466366,-0.302164,-0.188071,-0.269978,-0.332517,-0.449157,-0.414732,-0.496033,0.100218,0.186046,-0.500600,0.065490,-0.502587,-0.127085,0.018003,-0.030209,0.178922,0.428983,-0.181755,0.372861,-0.574199,-0.035595,-0.096906,-0.417691,-0.108205,-0.545888,0.523600,-0.187817,0.107837,-0.146416,0.350783,0.339469,0.045565,0.110236,-0.532037,-0.090963,-0.091398,-0.289138,0.140108,0.464790,0.253359,0.050752,0.142265,0.400179,-0.164194,0.564468,-0.070460,-0.150916,0.325491,-0.249498,0.058206,0.139201,-0.329374
-0.453254,0.275580,0.053606,0.029415,-0.425326,0.060801,-0.167881,-0.002229,-0.187942,-0.249644,0.265758,0.341460,-0.157003,0.281543,-0.260157,0.349759,-0.382666,0.395514,0.017742,-0.638973,0.448924,-0.319263,-0.141965,0.198549,-0.247347,0.286872,-0.175855,-0.373155,0.625887,-0.473048,-0.503004,0.437085,0.212002,0.270122,-0.466071,0.128131,-0.367630,0.421321,0.011582,0.334407,-0.428060,0.323570,-0.026314,-0.211696,0.368155,0.210997,0.215404,-0.081277,-0.454943,0.042151,-0.100259,0.425500,-0.198736,-0.101582,-0.275998,-0.037542,-0.124667,0.607622,-0.182630,0.106238,0.381099,0.099406,0.074093,-0.418353,0.397639,0.233091,0.011562,0.223927,0.058911,0.344286,0.050889,-0.368955,-0.342448,0.027202,0.178871,-0.209081,-0.064192,-0.440572,0.314549,-0.159320,0.446043,0.420287,-0.474281,-0.579315,0.592310,0.083099,0.397077,-0.438616,0.098601,-0.207561,0.289079,0.157932,0.000939,-0.087414,-0.373000,-0.137012,0.000605,-0.006304,0.472149,0.188339,0.302932,-0.143805,-0.059572,-0.205614,-0.181232,0.437471,-0.518040,0.385488,-0.165780,0.316437,-0.411880,-0.091824,-0.226069,0.097728,-0.028002,-0.252157,0.068560,-0.239606,-0.072904,-0.393539,0.419790,0.389789,-0.223577,0.145646,0.297637,0.479430,-0.362433,-0.343931,-0.386855
-0.045407,0.242290,0.212265,-0.463099,-0.528773,0.156676,-0.240558,-0.253035,0.206624,-0.293579,0.380138,-0.388436,-0.414008,-0.010276,0.223748,0.149123,-0.194936,0.123559,-0.359972,-0.285922,-0.360628,0.227954,0.331829,-0.204100,-0.240644,0.132536,-0.260638,0.023060,0.425188,0.371277,0.160880,-0.222881,0.215228,-0.114517,0.404282,-0.130199,-0.410270,-0.466861,-0.064699,0.326313,0.475464,-0.343179,0.300857,0.489332,-0.303649,0.130454,0.600613,-0.027779,0.432132,0.521908,-0.343848,0.020212,0.209635,-0.312951,0.431234,0.226368,-0.294755,-0.359474,-0.275064,0.013146,-0.383267,0.253411,0.203199,-0.127941,-0.034386,-0.542027,-0.094195,-0.464235,-0.319476,-0.046341,-0.016422,-0.275559,-0.133262,0.115953,-0.112669,0.310362,0.384696,0.416011,0.279624,-0.006742,-0.244394,0.473164,-0.084321,0.195389,-0.414820,-0.448824,-0.520478,-0.354555,-0.084667,-0.387277,-0.275243,0.457349,-0.070612,-0.078493,0.496019,-0.310193,0.178632,-0.483685,0.009005,0.113251,-0.337581,0.262570,0.364708,-0.040773,0.121552,0.154691,-0.555200,-0.080811,0.110254,-0.437190,0.104944,0.264205,-0.330267,-0.308394,0.162758,0.013533,0.202773,0.176530,0.385782,-0.242138,0.189783,-0.056016,-0.422088,-0.496842,0.296883,-0.335078,0.399218,-0.177966,0.215532
-0.324055,0.310024,0.128278,0.159396,0.460500,-0.075106,0.028199,-0.366343,-0.034982,0.278118,0.162144,0.315052,-0.401407,0.238451,-0.288259,-0.290474,-0.309802,0.274149,-0.096649,-0.261075,0.175025,-0.062353,0.273372,-0.412101,-0.191647,-0.211066,0.026504,-0.095454,0.102163,-0.500587,-0.111166,0.095823,0.106331,-0.064950,-0.260988,0.025473,0.247661,0.167788,-0.350893,0.190151,-0.376697,0.204539,0.018258,0.323897,0.239198,-0.056821,-0.373348,-0.103108,0.193887,-0.540123,-0.402263,0.092415,0.303389,-0.349295,0.334735,-0.217278,-0.062141,0.341636,0.024995,0.208872,0.007910,-0.015608,-0.018681,-0.311676,-0.300228,-0.311835,0.157112,0.409904,0.184256,0.142921,-0.040118,0.301972,-0.192355,0.221484,0.159252,-0.274731,-0.260171,-0.056620,0.537498,-0.128948,-0.082217,-0.016368,0.307015,0.096608,-0.362408,-0.379790,0.193504,-0.521188,-0.311278,0.106617,0.282693,-0.282221,0.108229,0.090516,0.183972,-0.344323,-0.007486,0.359498,0.221641,-0.113696,0.307572,0.317697,-0.085905,0.451931,-0.033301,-0.314171,-0.526888,-0.219480,-0.469702,-0.031971,0.163214,0.468336,-0.249268,-0.306795,-0.467247,-0.249578,-0.172662,-0.031971,-0.171437,-0.384911,-0.465816,-0.560872,-0.052104,0.316150,0.138886,-0.074416,-0.443621,-0.105038,-0.506136
-0.186996,0.320299,-0.097991,-0.058216,-0.051047,0.443933,0.123927,-0.403960,0.225808,-0.389575,-0.360909,0.413048,-0.212414,-0.133009,-0.117203,0.484938,-0.105859,0.022200,-0.258736,0.305593,-0.208681,0.030933,-0.048552,0.132217,0.090746,0.221876,0.208757,0.082284,-0.417941,0.162803,-0.072213,0.439653,0.163006,-0.351954,-0.194508,-0.200479,0.206839,0.057407,0.042538,-0.171382,-0.230476,-0.078615,0.118993,0.088413,-0.316487,0.507609,0.358126,-0.168447,0.325676,0.108480,0.383941,-0.203738,-0.168759,0.427364,0.466291,-0.071974,0.147374,-0.047934,-0.383557,-0.483979,0.400302,-0.116364,-0.260369,-0.213392,-0.164607,0.057589,0.082523,-0.421804,-0.137437,0.076459,0.075030,0.165788,-0.376152,-0.202371,0.505597,0.511467,0.400123,0.081129,-0.113706,0.029474,0.032923,0.313122,-0.368301,0.420988,-0.462327,-0.162347,-0.353464,0.588448,0.394071,-0.455875,-0.019457,-0.078732,0.403522,0.245527,0.472186,-0.141520,-0.073741,0.143161,-0.157278,-0.059077,0.358053,-0.191539,0.129985,0.062485,-0.465765,0.117066,0.477021,0.145255,0.016495,-0.265045,-0.188506,-0.011127,0.078505,-0.120199,0.259943,0.029415,-0.331765,-0.219947,-0.409955,0.113830,0.031577,0.075031,-0.252199,0.077503,0.159397,-0.207468,0.442198,-0.308466,-0.401205
0.083541,-0.164607,-0.382069,-0.384875,0.092981,-0.365920,0.358849,-0.078384,-0.043478,0.418622,-0.430692,-0.274790,-0.120577,0.257608,0.174697,-0.420963,-0.022715,-0.355960,0.040969,-0.197056,0.111784,-0.333884,-0.019529,0.138806,0.229613,-0.534010,0.126949,-0.484988,0.061040,0.475328,0.444492,0.088241,-0.207579,-0.420540,0.075715,-0.469892,0.482748,-0.518600,0.134277,-0.472092,0.482772,-0.204963,-0.173681,-0.174126,-0.053189,0.030055,0.016856,-0.095231,-0.463528,0.192820,0.389428,-0.299970,0.109899,-0.125564,0.307526,-0.332065,0.318267,-0.307187,-0.179893,0.108409,0.350644,-0.424895,0.102123,-0.280531,-0.369599,0.160196,-0.274303,-0.069517,-0.366338,-0.276646,0.471692,-0.295397,-0.441234,-0.394459,-0.475858,-0.113803,0.491700,0.287110,0.279622,-0.310410,0.298368,-0.067565,0.465096,-0.232446,-0.133779,0.312364,0.133462,0.135579,0.439979,0.100185,0.040930,0.004054,-0.100629,-0.383580,0.333954,0.423383,-0.481548,-0.002105,-0.180466,0.069835,0.445433,0.348528,0.368326,-0.045077,-0.465108,0.461239,-0.366208,0.022519,-0.192294,0.042819,-0.240019,0.416790,0.298342,0.380074,-0.394710,0.042732,-0.259295,0.145315,-0.446407,-0.281392,-0.302989,0.159504,-0.200914,0.487241,-0.240731,0.312368,0.067144,-0.315180,-0.413767
0.210235,0.437206,-0.197167,0.418669,-0.209711,0.153447,-0.282885,0.281951,0.033470,0.125353,0.494263,-0.211364,-0.391466,0.061486,0.201646,0.516561,0.448893,0.166521,0.243425,-0.063479,0.157174,0.279302,-0.084999,0.117534,0.387242,-0.251956,0.428185,-0.481749,0.099440,0.141322,0.030477,0.227527,-0.391760,0.195537,-0.283413,-0.256952,-0.216874,-0.116452,-0.303439,-0.447740,0.182616,-0.368478,-0.507420,-0.293430,0.142392,-0.403826,0.042341,-0.124169,0.393864,0.422650,0.057312,0.089724,0.308450,0.123369,-0.036931,-0.377295,-0.459434,-0.402186,-0.339460,-0.016210,0.132324,0.256132,-0.416947,-0.315426,-0.230574,0.276482,0.427152,0.104886,0.056799,-0.119488,-0.340616,0.420878,0.302323,0.284851,-0.525420,-0.094163,-0.470249,-0.120502,-0.203019,-0.098318,-0.471885,-0.050834,-0.240691,0.045813,0.163587,0.098680,-0.271688,-0.245207,0.151781,0.285880,-0.083496,-0.057643,-0.035246,-0.173460,0.171275,0.241148,-0.245402,-0.414699,-0.365691,-0.211660,-0.056913,-0.154439,0.096847,-0.238114,0.115392,-0.429563,0.275428,-0.159060,-0.473243,0.266931,-0.270160,-0.320544,0.396435,-0.107365,-0.012918,0.014081,0.310404,0.436911,0.130844,-0.079851,-0.367153,-0.370565,-0.145888,0.087177,-0.453959,0.352325,-0.313161,-0.288368,-0.007510
-0.005420,-0.495708,-0.020511,0.105703,-0.258075,-0.327932,-0.030651,-0.056466,0.102348,-0.301198,0.196048,0.486728,0.022765,-0.000275,-0.269567,0.280594,-0.371383,-0.187606,0.164047,-0.223940,0.316204,0.215835,0.131054,-0.262335,-0.373487,0.175447,0.225857,-0.422599,0.354397,0.102399,0.280016,0.416063,0.420168,-0.017183,0.252358,-0.160855,0.290672,-0.467287,-0.325900,-0.339580,-0.095091,-0.355563,-0.280701,0.307409,0.204592,0.173084,-0.343408,0.230049,-0.248012,0.285581,-0.413661,-0.461142,-0.450619,-0.426479,0.302208,-0.186900,-0.465013,-0.141036,-0.491045,0.471917,-0.191175,0.270959,-0.232902,0.306333,-0.265579,0.118990,-0.415913,-0.421668,-0.388046,0.478326,-0.458472,0.008902,-0.195716,-0.179556,-0.107171,0.058732,0.379259,0.294713,0.212454,0.487643,-0.041678,-0.380985,-0.078374,0.119255,-0.124025,0.255839,0.196401,-0.035486,0.119317,-0.154790,0.279753,-0.278333,-0.467492,-0.339325,-0.370404,-0.387902,-0.165661,0.259098,-0.094319,0.339333,-0.105060,-0.420603,-0.165625,-0.070459,0.135338,0.189078,0.428468,-0.243119,-0.432034,-0.311828,0.148981,0.012168,-0.166800,0.299308,-0.038899,-0.458210,0.464797,0.154747,0.095313,-0.008962,0.262463,-0.339415,-0.276792,-0.055901,0.107848,0.245466,0.124448,0.042136,-0.484358
-0.451913,0.061549,0.227385,-0.035232,-0.353348,-0.567426,-0.229812,-0.358153,-0.256055,0.220157,-0.083237,-0.480378,0.297932,-0.257109,-0.133190,-0.588924,0.374514,0.126931,-0.417164,0.309755,0.392070,-0.152428,-0.525426,0.107727,0.324366,0.141497,0.338213,-0.616475,-0.468948,-0.118157,0.252530,-0.353921,-0.369676,-0.191508,0.204951,-0.349339,-0.050197,-0.365217,-0.208843,0.460161,-0.137742,-0.109816,0.381222,-0.269800,0.051464,0.377590,-0.378446,-0.326672,-0.425995,-0.348742,0.096712,0.050630,-0.200931,-0.322652,0.255501,0.007607,0.309908,0.033812,0.320985,-0.063230,-0.102349,0.208071,-0.391984,0.371550,-0.143781,-0.325631,0.341143,-0.451535,-0.384638,0.455988,0.196521,0.274185,0.161398,-0.119446,0.069395,0.423629,0.111830,-0.477116,0.451247,0.372763,0.453613,-0.263286,0.127895,-0.026272,-0.056634,-0.152532,0.264605,-0.136627,0.156890,-0.527033,-0.191965,-0.412781,-0.358015,-0.453937,-0.067587,-0.540838,-0.513495,0.439330,0.375794,0.267297,-0.138952,-0.085250,-0.385569,0.101542,-0.056834,0.465599,0.009834,0.017308,0.252752,0.446453,0.148164,-0.079048,-0.409506,-0.373781,-0.297672,-0.266793,0.106436,-0.175951,0.160676,0.375668,0.223597,-0.115180,0.119106,-0.197857,0.372666,0.367571,0.138575,-0.134717,-0.291708
-0.139446,0.076096,-0.057671,0.019482,-0.446398,0.416363,-0.024649,-0.425343,-0.137965,-0.333296,-0.548579,0.165175,-0.105971,0.216585,0.240120,-0.408599,0.359365,0.000962,-0.159456,-0.035017,0.048917,-0.454000,0.226995,-0.239227,0.200112,0.515729,-0.015845,0.481771,0.423373,-0.127749,-0.053195,-0.039804,-0.531520,-0.300451,-0.413372,0.100782,-0.373145,-0.446336,0.156119,0.541709,0.033550,-0.401456,0.586791,-0.514938,-0.193462,0.312039,0.371938,-0.511842,-0.332359,0.241794,-0.355022,-0.069671,-0.644012,-0.475864,-0.442327,-0.478147,0.106706,-0.396289,-0.021481,0.473202,0.542220,-0.091725,0.084630,0.354446,0.130591,-0.468762,0.310043,-0.319527,-0.261400,-0.095456,0.094509,0.210339,-0.026007,0.107297,0.505483,-0.373907,-0.230394,-0.235971,-0.461989,-0.176641,0.426639,0.010662,0.459442,0.105562,-0.129225,-0.239674,-0.196720,0.208819,-0.103873,-0.481468,-0.089434,0.335172,0.104302,-0.095913,-0.255586,0.098385,0.072736,-0.152486,-0.407361,-0.276191,0.003603,0.528264,0.139192,0.032418,-0.221569,0.487864,-0.122713,0.426651,-0.131831,-0.107288,0.107574,0.229982,0.165625,-0.204377,0.381586,-0.386151,0.458346,0.110663,0.065281,0.117003,0.059781,0.375947,0.079338,0.200058,-0.205394,-0.346190,0.147673,0.416361,0.252977
-0.282894,0.427101,-0.392294,0.229934,-0.006544,-0.438262,-0.025587,-0.577273,-0.214216,-0.186100,0.259267,-0.375768,0.244785,-0.147981,0.383431,-0.161228,-0.070691,-0.005175,-0.034820,-0.240602,0.234360,-0.227432,-0.560161,0.353947,0.257934,-0.412730,0.008520,-0.395987,0.280325,-0.098660,-0.306312,-0.083744,-0.046967,-0.421386,0.111236,0.119559,-0.286700,0.059770,0.200592,0.399629,-0.037556,-0.431813,-0.472469,-0.054946,0.473684,0.283251,0.071272,0.214129,-0.061210,0.412437,0.396510,-0.406695,0.111504,-0.410849,-0.378663,-0.531414,0.214884,0.150358,-0.511544,0.233304,0.565041,0.211891,0.408352,-0.057683,-0.060758,0.367642,-0.449159,-0.323580,0.150412,-0.013923,0.498971,0.255334,0.093610,-0.296043,-0.217884,-0.339573,0.204113,-0.606339,0.438519,0.333632,-0.436016,-0.351633,-0.113025,0.336165,0.239559,0.326468,-0.179412,-0.406770,-0.186647,0.167851,-0.492570,-0.118240,0.241382,0.209046,-0.184153,-0.354005,0.128970,-0.172604,0.066977,0.241263,0.159597,0.131966,0.043877,0.125621,0.284040,0.445755,-0.033805,-0.399949,-0.336512,0.384552,-0.120103,-0.013999,-0.364960,-0.312058,0.143778,-0.153764,-0.239214,0.005070,0.005821,-0.027721,-0.396190,-0.514370,0.235040,-0.309268,-0.111092,0.256203,-0.145388,-0.205646,-0.029718
-0.408743,0.337552,-0.092570,0.603447,-0.243568,-0.341261,-0.217567,0.112810,-0.035073,-0.683411,-0.630329,-0.135474,0.044036,-0.302855,0.295904,0.059148,0.097685,-0.501065,-0.379896,0.363618,-0.418731,0.328956,-0.259881,-0.202176,0.250793,0.285513,0.495725,0.159947,0.321317,0.093505,-0.204123,0.152755,0.426401,0.402043,-0.035388,-0.252563,-0.499528,0.343521,0.188844,0.064137,-0.390359,0.477890,-0.447907,-0.283022,-0.318952,0.059697,-0.454784,-0.038479,-0.286569,0.227182,0.094581,0.429260,-0.212361,-0.018142,-0.219896,-0.550210,-0.284527,-0.001207,-0.228216,-0.090253,0.503802,0.318756,0.376788,0.365623,-0.360043,0.413877,0.181676,0.040042,-0.193963,-0.336148,0.602291,0.478277,-0.218658,0.045490,-0.403503,0.000605,-0.016179,-0.147548,0.432909,0.217021,-0.121965,-0.094877,-0.382785,0.146046,-0.211396,-0.255324,0.373307,-0.319590,0.478213,0.215994,-0.161414,-0.342029,-0.150978,0.472884,0.262126,0.283696,0.142197,-0.480510,0.151656,-0.147386,-0.065658,-0.145774,-0.440512,0.476521,-0.371026,-0.455296,0.258310,-0.562422,-0.320963,-0.219147,-0.626685,-0.232793,0.360474,-0.393485,0.257961,0.396490,-0.271366,0.321321,0.329348,-0.316854,0.283177,-0.548403,-0.316832,-0.326161,0.045021,0.179984,0.114828,-0.101966,0.296939
0.235451,0.166791,0.254247,0.189796,0.256664,0.253012,0.344746,0.419469,0.006971,0.071392,-0.601370,-0.149109,0.319222,0.289300,-0.313668,0.376762,0.192862,-0.184370,-0.027144,0.543723,-0.243017,-0.387433,-0.077700,0.475928,-0.228761,-0.110861,0.242882,0.495156,0.093851,-0.511323,0.193139,-0.268561,0.054848,-0.262268,-0.405973,-0.452290,-0.265963,0.007593,-0.362637,0.363684,-0.112244,0.398410,0.111024,0.136715,0.391528,0.394344,-0.326928,0.412803,0.347002,0.424414,0.315144,0.142418,0.116517,-0.277349,0.228155,-0.115727,0.284238,-0.172023,-0.123923,-0.396191,0.370294,-0.212717,-0.299390,0.531045,-0.052491,-0.011634,0.082700,0.279036,0.165292,-0.491286,0.174910,0.485877,-0.283185,-0.382709,0.415661,0.216216,0.034475,0.209386,-0.354588,-0.533768,0.286126,0.152653,-0.451761,-0.126184,-0.276513,-0.054900,-0.128153,-0.222232,0.463834,-0.409675,-0.148817,0.281353,0.494688,-0.010186,0.099424,-0.369372,-0.635420,-0.168656,-0.361980,-0.278713,-0.302267,-0.243385,0.407472,0.493853,-0.096089,-0.089528,-0.150993,-0.530563,0.217692,-0.050594,-0.486049,-0.411694,-0.334753,0.474696,0.247686,0.201713,-0.423038,-0.300824,0.325282,-0.116928,0.449467,-0.119382,0.299356,-0.407506,-0.232593,0.232226,0.299805,0.500983,0.381928
0.164921,0.302703,-0.139677,0.491358,-0.262070,-0.486653,-0.360129,0.502934,0.258865,-0.654642,0.451272,-0.056096,-0.461541,-0.352921,-0.186340,-0.037298,0.089434,-0.253767,0.107081,-0.192896,-0.514303,-0.295360,-0.460175,0.055727,-0.189261,-0.397001,0.070949,-0.282880,0.096750,0.462969,-0.223866,-0.013349,0.354088,0.151935,0.354219,0.281309,-0.464550,-0.183624,0.331864,-0.218324,0.200403,-0.483542,-0.554654,-0.109866,-0.057680,0.174906,0.362869,0.324903,-0.350401,0.481893,0.363323,-0.417135,0.326381,0.512731,0.350741,-0.278357,-0.481088,0.337172,0.258464,0.089143,0.221085,0.207187,-0.217072,0.385646,-0.105682,-0.366506,0.407050,-0.065740,0.204530,0.305464,0.032908,-0.374209,-0.066005,-0.281823,-0.231293,0.147780,-0.029355,0.302214,-0.309658,0.302689,-0.429107,-0.385972,0.407899,0.279370,-0.300888,-0.263095,-0.077843,-0.318525,0.290362,0.321934,-0.358781,-0.490935,-0.185620,0.441914,0.216850,-0.199389,-0.216833,-0.053650,-0.291666,0.347297,-0.183538,0.315001,-0.154577,-0.224238,-0.151097,0.135197,-0.302729,-0.387162,-0.301394,0.106169,-0.174008,-0.124869,0.472324,-0.532059,-0.279995,-0.178567,-0.179848,0.100397,0.423054,0.082386,0.277005,-0.307948,-0.037344,-0.156371,-0.096602,0.229312,-0.164359,-0.141671,-0.121119
0.598787,0.302371,0.192604,0.563068,0.303624,-0.336753,0.276035,-0.119253,0.111399,0.053891,-0.117924,-0.055197,0.234113,-0.020478,-0.304775,0.122658,-0.124438,-0.614428,-0.236750,0.119589,-0.545151,-0.382374,-0.461454,0.211876,-0.202900,-0.460930,0.315336,-0.375729,0.246259,-0.179591,-0.040414,0.266329,-0.262291,0.178296,-0.315664,0.138659,0.305772,0.052189,0.215617,0.102976,-0.140951,0.308559,-0.387155,-0.506585,0.316189,-0.068455,0.067669,-0.078601,0.403406,0.354164,0.090434,-0.393232,-0.351186,-0.374772,0.295426,0.019780,-0.288680,-0.367372,0.431487,0.225884,-0.471179,-0.328639,-0.037308,0.137730,0.337025,-0.173882,0.360720,-0.301353,0.247926,-0.144529,0.419223,-0.455889,-0.454381,0.513759,-0.364340,0.503097,-0.509793,-0.060378,0.172627,-0.087609,0.074437,0.034639,-0.549637,0.145704,0.230603,-0.037298,0.375874,0.094281,-0.334680,0.486861,-0.484160,0.446468,-0.260147,-0.064786,-0.293005,-0.440248,0.158191,-0.500072,0.155647,0.374445,0.428001,-0.569428,0.448980,-0.166117,-0.423891,-0.145730,0.401256,-0.438375,0.130123,-0.149444,0.436987,-0.530261,-0.509659,-0.293321,-0.134109,-0.123160,-0.406314,0.188585,-0.046525,0.224073,-0.372057,-0.032082,-0.464604,0.101695,0.415877,0.211201,0.222086,0.393365,0.411763
0.205759,0.225471,0.242006,-0.347257,0.377428,-0.042557,-0.020966,0.351176,-0.274032,-0.290493,-0.440586,0.106043,0.102189,-0.428058,-0.109002,-0.330139,-0.145597,0.334264,-0.214791,0.192672,-0.071870,-0.328334,-0.444367,-0.505611,-0.197981,-0.400806,0.440234,-0.351388,-0.444183,-0.236602,-0.145937,-0.134171,-0.408045,-0.121130,-0.111470,0.368170,-0.037946,0.187284,-0.436294,0.059923,0.386235,0.371705,0.023213,-0.087977,0.169974,0.029367,0.484274,0.074394,0.149550,0.370985,0.186734,-0.244535,0.011395,-0.263734,0.500012,-0.492478,0.198196,-0.219158,-0.067847,-0.101737,-0.397890,0.195859,0.391040,-0.381445,0.076634,-0.098781,-0.334369,0.269326,-0.187189,0.108656,-0.356747,0.117467,0.179683,-0.248955,-0.150065,0.184071,-0.124420,0.120058,0.097080,0.142313,-0.069144,0.097536,-0.304728,0.117204,-0.253415,0.379867,-0.372538,0.155825,0.386083,-0.409810,-0.209254,0.046599,-0.241271,0.418635,0.291736,-0.122123,0.379332,-0.066380,-0.005814,0.068206,-0.204870,-0.353494,0.144067,0.125886,0.200409,0.481748,-0.169274,0.400524,-0.132629,-0.385858,-0.024260,0.105572,0.014620,0.356998,0.240437,-0.266467,0.033347,0.381557,-0.234258,0.190745,-0.063075,0.289370,-0.204184,0.206531,0.065008,-0.089036,0.351030,-0.104362,0.032534
-0.100688,0.050298,-0.291778,-0.495057,-0.091669,-0.458606,-0.374563,-0.029104,0.096261,-0.537044,-0.735727,-0.133168,-0.451381,-0.340616,0.185837,-0.362939,-0.046004,0.285414,-0.219779,-0.353049,0.588404,0.013922,0.243693,-0.731755,-0.139870,-0.285409,0.059398,0.072208,0.366818,0.056907,0.064163,0.341134,0.047962,0.489170,0.334114,-0.199452,-0.387892,0.492822,0.368235,0.139315,-0.577295,-0.490074,0.171818,0.134604,-0.295252,0.452826,-0.628248,0.342672,0.161302,-0.128495,-0.243185,-0.320584,-0.071422,0.028977,-0.385851,0.145592,-0.475497,-0.029161,-0.196417,0.085690,0.126283,0.177166,-0.306732,-0.360820,-0.033965,-0.206224,0.483063,0.210581,0.290045,-0.104395,-0.394412,0.322891,0.474129,-0.238999,-0.541842,0.045537,0.061939,0.014778,0.648599,0.321730,0.306308,-0.005044,-0.043382,-0.268676,0.418720,-0.486639,-0.557057,-0.299887,-0.147477,-0.443204,0.486507,-0.415531,0.005220,-0.195631,-0.290640,-0.323086,-0.085305,-0.034174,-0.026750,0.487829,-0.117311,-0.020862,0.057911,0.371117,0.382067,0.274506,0.292684,-0.063513,-0.157160,0.193135,0.385076,0.357282,-0.182704,0.033388,-0.115081,-0.514174,0.010957,-0.169068,-0.384002,-0.121397,-0.112189,-0.148487,0.034611,0.665402,0.085245,0.582579,-0.162017,-0.602550,-0.095897
0.493043,-0.431472,-0.455080,0.068413,0.508730,0.243317,0.001389,-0.363064,0.033704,0.338535,0.258338,-0.298405,0.269720,-0.012609,0.430051,-0.014459,-0.303918,0.141065,0.030371,-0.083078,0.382713,-0.536522,-0.342930,-0.385095,0.198140,-0.251250,0.247875,-0.482488,0.440519,0.081798,-0.275815,0.420111,-0.180327,0.195203,0.051824,-0.485600,-0.468150,-0.439968,0.120073,-0.428825,0.178322,0.129145,0.472397,0.175048,-0.187249,0.106535,0.083132,-0.468800,-0.335398,0.054239,0.492646,0.429067,0.005961,0.515001,0.490278,-0.487066,0.271249,-0.225165,-0.376781,-0.110896,0.356247,-0.151591,0.069127,0.362778,-0.000523,0.049276,-0.216738,0.265486,0.021246,0.218649,-0.430761,-0.275544,-0.136825,0.503591,-0.095203,-0.175310,0.489391,0.142311,0.007539,-0.273404,-0.405593,0.208523,0.066207,-0.270714,0.198900,-0.475393,0.382635,0.391367,-0.291519,-0.016991,-0.293233,0.137672,-0.035729,0.502841,-0.481754,-0.095743,0.088417,0.165640,-0.232217,0.061113,0.249090,0.505473,-0.316188,-0.401388,-0.065341,0.152888,-0.424799,-0.081934,0.187189,-0.472254,-0.266424,-0.339518,0.472245,0.283644,-0.037901,-0.336225,-0.105827,0.438550,0.023770,0.522492,0.453638,-0.527971,-0.112608,0.006140,-0.120837,-0.169534,-0.495441,-0.545148,-0.207847
-0.492930,-0.367329,0.087728,0.311672,-0.652093,0.528951,-0.190204,0.169258,0.376846,0.127721,-0.139667,-0.175602,0.063110,-0.130476,-0.054486,0.158035,-0.002742,0.420387,0.452638,-0.476595,-0.054305,-0.290828,-0.660957,-0.011292,-0.095555,0.256605,-0.450433,0.007547,0.034139,0.400103,0.053402,0.284230,-0.564127,-0.341192,0.245370,-0.291507,0.383774,0.371529,-0.219208,-0.344211,0.366263,-0.005647,-0.455259,-0.394451,0.049289,-0.217646,-0.364748,0.409158,-0.147528,0.383028,0.478717,0.208740,-0.130300,-0.584209,0.049247,-0.363511,-0.400138,0.393698,0.112343,-0.156800,-0.230663,-0.073843,0.521122,0.361142,-0.093313,-0.280420,-0.282132,-0.102688,-0.154541,0.406002,0.434075,-0.061377,0.411909,0.077725,-0.514969,0.393694,-0.113634,0.120586,-0.025899,-0.525041,-0.584737,-0.147916,0.468795,0.133368,0.179477,-0.237509,0.337487,0.236872,-0.352454,-0.239782,0.286054,-0.095385,0.221005,-0.016043,0.241165,-0.534314,0.188758,-0.082324,-0.214512,0.111064,0.180498,0.215369,-0.475227,0.457495,-0.249987,-0.109516,0.399478,-0.543318,-0.268230,0.088898,-0.092308,-0.077620,0.248313,-0.439958,0.172264,0.548471,-0.364021,-0.404119,-0.319520,0.308722,0.159369,0.162487,-0.071009,0.501286,0.021359,-0.513190,-0.284290,0.476278,-0.358154
-0.222856,0.247565,-0.374326,-0.287534,0.312942,0.432179,0.240136,-0.081167,-0.400251,0.400352,0.104337,-0.089639,0.146050,0.259028,0.407916,0.037480,-0.208605,-0.651856,0.414787,0.071697,-0.649640,0.386901,0.417283,0.296060,0.123961,0.227395,0.453945,0.253787,-0.370033,0.265048,-0.534860,0.129622,0.159836,-0.174806,0.298394,0.083158,-0.472498,-0.396179,0.174992,-0.123568,-0.484526,-0.209593,-0.143101,0.023669,0.033269,0.312987,-0.469892,0.443740,-0.446861,-0.103076,-0.249776,0.072206,0.001683,-0.290075,-0.465858,0.325226,-0.232773,-0.104174,0.017157,0.007323,-0.273347,0.116922,0.168183,0.019906,0.119771,0.298581,-0.077584,-0.133409,-0.125540,0.445669,0.370485,-0.212985,-0.173436,0.009641,-0.247972,0.138749,0.469916,0.248769,-0.125926,-0.531299,0.243988,0.446658,-0.421097,0.308378,-0.396225,0.276202,-0.072010,0.134874,-0.247197,0.276763,-0.015244,0.063375,0.484073,0.072424,-0.215221,0.110745,-0.334637,0.009556,-0.041443,-0.589703,0.254279,0.119712,0.485785,-0.436978,-0.248433,-0.021755,-0.427286,-0.285943,-0.380043,0.253945,-0.549749,-0.280782,0.116818,0.330735,0.445033,-0.546431,-0.172791,0.272987,-0.124273,0.415446,0.376684,0.201765,-0.110539,0.117717,0.115813,-0.481064,0.374020,0.384393,-0.215048
0.425739,0.434495,-0.354906,-0.521036,0.125396,-0.642937,0.482837,-0.085914,0.025430,-0.013206,-0.424827,-0.451128,-0.043946,0.217664,-0.226149,0.000343,-0.229091,-0.324716,0.042798,0.178238,0.107679,0.102538,0.406388,-0.009787,-0.174138,-0.181246,-0.430266,0.021868,0.147582,-0.338691,-0.299683,-0.030072,0.116623,0.201207,-0.212170,0.109933,-0.302935,0.309429,-0.183553,-0.306239,-0.090448,-0.215768,-0.343515,-0.102768,0.403193,-0.625556,-0.361393,0.175869,-0.134094,0.042180,0.081569,-0.167514,0.323183,-0.155881,0.391398,0.398373,0.361071,-0.102437,0.073217,0.458970,0.191516,0.465612,0.420853,0.362707,0.424063,-0.435415,0.083959,-0.131498,0.333908,0.208113,0.311066,0.238867,-0.371785,-0.090363,0.170092,0.314676,0.004411,0.322318,0.021087,-0.245445,-0.493842,-0.077395,-0.591828,-0.146999,-0.581636,-0.430241,0.240174,0.105736,-0.501090,0.280730,-0.393750,-0.425784,-0.413727,-0.090327,-0.080234,0.041284,0.031801,0.109818,0.098197,-0.182641,-0.000913,-0.395282,0.060177,0.009744,0.035828,0.479459,-0.172747,-0.485598,0.507256,0.249813,0.555186,-0.126312,-0.021527,0.094366,-0.241133,-0.355236,0.338573,-0.017590,0.045580,-0.125669,-0.136725,0.029234,0.108485,-0.268831,-0.154677,0.086204,0.381909,-0.383449,0.145501
0.080735,-0.309042,0.498376,-0.565387,0.163388,0.491167,0.190930,-0.347904,0.279298,-0.233157,-0.227570,0.082174,0.367775,-0.042986,0.260450,0.372215,-0.606694,0.082937,0.431223,-0.328573,0.090686,0.391506,-0.003988,0.471844,-0.054392,-0.440895,0.206642,0.094504,0.184415,0.401799,-0.045462,-0.223538,-0.193105,-0.426731,-0.366408,0.120344,-0.278097,-0.015508,0.041847,-0.473537,-0.441990,0.382245,0.335229,0.154904,0.536047,0.205025,0.228238,0.418883,-0.460221,-0.025751,0.402224,0.330441,0.248230,-0.088897,-0.078132,-0.121953,-0.025876,-0.126763,0.031934,0.140216,-0.351068,0.330201,-0.620146,0.283720,0.268629,0.098125,-0.045560,-0.040739,-0.547425,0.448052,0.098693,-0.494057,0.122458,0.199771,-0.403728,0.446484,0.334344,-0.222828,-0.255323,-0.347670,0.092360,-0.084498,0.308462,-0.536469,-0.447269,0.221300,-0.386108,0.014923,0.080318,0.362387,-0.280032,-0.492543,-0.318912,0.055619,0.007998,0.054831,-0.220718,-0.061373,0.303267,0.189977,0.496081,-0.348682,0.320644,-0.256020,0.030334,0.195672,-0.420389,-0.151691,-0.140055,0.431287,0.538062,-0.240317,0.392887,-0.317643,0.355701,-0.485216,-0.096317,-0.180392,0.372441,-0.083679,0.194270,0.306831,0.325443,0.220731,-0.523104,0.202914,-0.572941,0.297929,0.313727
