2.945787,-0.416949,0.601399,-0.667763,-0.030356,-0.079510,0.482858,-0.444925,-0.095503,-0.286533,-0.578734,-0.230740,-0.320371,0.105357,-0.805182,0.436801,-0.530167,-0.742164,-0.326184,0.325439,-0.017515,-0.297079,-0.010530,-0.378830,0.202883,-0.948560,-0.688372,-0.493006,-0.177523,-0.015835,-0.544907,-0.653350,0.232602,1.517273,-0.528990,0.023012,-1.750023,-0.358078,-0.515822,-0.216379,-0.589534,0.491538,-0.302745,0.411922,-0.301956,0.597123,-0.342066,-0.158462,0.334815,0.751231,-0.448909,-0.571206,0.252930,0.094332,0.853143,0.057456,0.254018,0.212056,1.086318,-0.195170,-0.096747,1.031939,0.001554,-0.171981,0.239281,-0.770063,-0.425956,-0.555275,0.014581,0.116847,-0.859693,0.367800,-0.022506,0.770886,1.170206,1.448935,-0.083376,0.076932,-0.679891,0.055595,-0.457573,-0.294337,0.182207,-0.575740,-0.256923,-0.037839,0.130678,0.219171,-0.295771,-0.033758,0.306626,-0.232265,0.188762,-0.370319,-0.375817,-0.499707,-2.027694,-0.623136,0.381201,-0.021199,-0.453736,0.261443,-0.399883,-0.115235,-0.414856,-0.353908,-0.310093,0.238768,-0.454475,0.125228,-0.385382,-0.814852,-0.127597,0.637939,-0.412980,-0.623186,0.671756,0.096898,-1.190607,1.476978,0.073658,-0.012509,0.164017,-0.825793,-0.631545,-1.202071,0.041281,-0.639418,-0.044258
-0.505497,1.115263,-1.514673,-1.186559,0.019615,-1.156638,0.557625,0.399386,-1.874807,-1.101898,-1.151962,0.159189,0.210596,-1.335097,-2.390962,-0.667249,-0.126478,-0.686832,-0.222835,-0.420177,0.256711,-0.291968,0.679174,1.806819,-0.951522,-1.272399,-1.163702,-0.133087,0.280868,0.540618,0.057870,-0.265244,1.359928,-0.701935,-0.080932,0.048212,0.453687,-0.621219,0.489226,0.033486,-0.167316,-0.077581,-0.661042,-0.325357,1.486414,0.626974,-0.508493,0.993820,-1.439613,-0.838571,-0.401078,-0.670837,-0.286871,-0.888640,0.941187,0.277896,0.162867,1.133807,1.408054,-0.562356,-2.239867,-0.504404,-0.663344,-0.558163,0.152923,1.718050,-0.596938,-1.137996,-0.379242,0.305442,-0.116561,0.405516,-0.624636,-2.691878,-0.818855,-0.962386,0.005204,-0.095032,1.135526,0.067231,0.263927,-1.138162,-0.467532,-0.625376,0.912229,-1.001027,0.101334,0.453587,-0.426509,-0.192464,0.589240,-0.268981,-0.106303,0.806977,-0.482282,-0.717982,0.716261,0.149950,-1.817549,-0.255516,-1.452211,0.262667,-0.668485,0.261527,-0.196562,0.017313,1.433805,1.901980,-1.923852,-0.781469,-0.274183,-0.900063,-0.658922,0.308676,-0.894163,1.118551,-0.767629,-0.466610,-0.098448,0.447878,-0.245108,-0.064637,1.727922,1.037126,-0.255510,0.696758,0.242041,-0.424471,-0.564175
-1.126000,-1.022335,-0.749885,1.244068,0.754631,-1.527284,1.306758,0.446430,1.007518,1.032963,0.259723,-0.215453,-0.167579,1.099902,-1.075602,-0.246599,-0.300328,-0.031114,0.163709,0.170611,0.478793,2.275516,0.278849,-0.021833,-0.334318,1.309428,0.152377,-1.814843,-0.457900,0.131274,-0.409068,-0.527145,1.127742,-0.986824,-0.025685,0.207193,0.604056,0.663639,0.272707,-0.733949,-0.683890,-0.101781,0.356582,-1.110517,0.537843,0.673087,-0.487984,1.461571,-0.462651,0.420612,-0.042337,0.134754,0.373525,0.209446,-0.524196,-0.026874,-0.368315,-0.469382,0.051663,-0.106902,0.338554,0.890606,-0.992112,-0.250916,-0.418049,0.594683,0.903256,0.009542,-0.663692,0.243910,0.861015,0.414207,-0.562016,-0.315077,0.338386,-0.311807,0.328898,-1.102900,0.334446,-0.637954,-0.866221,0.125601,-0.725085,-0.756585,-0.357611,0.246787,-0.961538,-1.985050,0.267420,1.337202,-2.507662,-1.329949,-0.293326,-0.392920,-0.000535,-0.688290,-1.060402,-0.330822,-0.316758,-0.935664,-0.662417,0.061283,-1.933872,-0.503796,-0.027441,-0.438891,-0.856984,-1.531331,0.396107,-0.651526,0.061202,1.050075,-0.666172,0.021994,0.427088,-0.779514,-0.762369,-0.375486,0.089150,-0.373588,-0.421484,-0.864590,0.730805,0.583375,0.195484,0.312878,-0.459578,0.248508,-0.498961
-0.896326,0.751087,1.248733,0.023096,0.264014,0.501713,0.880254,0.608556,-0.677716,-1.411632,-0.090298,-0.681287,0.087134,-2.439675,0.669139,-0.855708,-0.208324,-0.864620,-0.003624,-0.715656,-0.159499,-0.747557,1.600575,-0.646859,-1.618149,0.217614,-0.877021,-0.017851,0.119351,-0.892966,-0.351182,-0.494076,1.422790,0.282811,-0.126000,0.278781,0.471592,0.192342,-1.084569,-0.067639,-0.146186,-0.160229,0.030326,-1.013473,0.097111,0.059235,-0.883251,-0.780500,-0.457857,-0.841943,-0.403024,0.561585,0.856924,-0.213424,-1.453137,-0.309620,-0.433502,-0.011761,-2.902128,-0.698989,1.598959,-0.958195,-1.152277,0.737824,0.208892,-0.247975,0.009266,-0.906139,-0.275726,1.318280,1.418291,0.114102,-0.182776,0.119350,1.133196,-1.049521,0.382185,-0.128216,-1.040660,-0.131143,0.516698,-0.367187,-0.206979,-1.018130,-0.093319,-0.046692,-0.728451,-1.047657,-0.512106,-1.335186,1.987983,1.232877,-0.308778,0.279089,0.427216,-0.769836,1.262122,-0.343217,-0.333670,-0.155439,2.160657,-0.432587,1.358666,0.170683,-0.067544,-0.456424,1.186780,-0.859242,0.586409,0.733802,0.029357,0.612108,-0.826833,-0.780905,0.221899,0.021924,-1.212619,-0.427947,-0.994166,0.409218,0.286815,-1.792366,-0.879452,1.822052,-0.932591,0.960075,-0.190939,0.124913,0.105733
-0.549034,1.468756,-1.041011,1.185702,-0.123789,-2.564722,0.632192,-0.261833,-2.996795,1.591849,1.094487,-0.047438,-0.333060,-0.234587,-0.223575,0.111046,-0.403317,0.392065,0.486940,0.023240,-0.459165,-1.956821,0.301246,-0.824780,-0.403434,0.429580,0.125956,0.748744,0.996365,-1.028280,-0.237516,-0.332085,-1.198119,0.693648,-0.226996,-0.161993,0.063580,0.306280,0.414053,-0.435565,-0.587697,-0.178512,0.041239,-0.046798,-2.063969,0.042463,-0.368458,-0.872365,-0.860728,-1.512603,0.240427,1.191110,0.776857,0.050082,-0.112781,-0.172786,-0.350306,-0.136055,0.685577,0.014726,0.195580,-0.521682,-0.191661,-1.974249,-0.023471,0.099281,0.089421,0.252725,-0.090500,-0.358796,-0.199911,-0.282552,0.067575,-0.938127,0.206527,1.178223,0.271064,-1.296158,-0.279858,-0.290511,2.226235,-0.493348,0.092943,-0.220120,-0.843268,-0.765053,-0.661137,-0.748510,1.924528,-1.613813,-0.416404,-0.359977,0.073229,-1.114687,0.348503,-0.079130,1.565976,-0.397739,-1.019705,-0.727924,-0.562632,-0.729683,-0.043475,-0.243454,0.109178,-0.005146,1.110879,2.573999,-1.712492,0.231606,0.217753,-1.452423,-0.599802,0.229671,-1.724790,-0.735709,0.024680,0.092142,-0.744946,0.183409,0.475489,-2.877265,-0.726228,-0.807221,1.638467,0.463743,-0.122046,3.067518,-0.610219
1.328305,0.107773,-0.195568,0.918872,-0.368922,1.035107,-0.161273,-1.738521,-1.700316,1.174009,0.468941,-0.325319,0.231517,-0.190242,0.331012,1.842285,2.021637,-0.595357,-0.072554,-1.812941,-0.986497,-2.240829,1.362287,-0.390399,-0.727163,2.439993,-1.512684,-0.004171,1.600056,-0.338933,-0.278787,-0.206341,0.644288,0.287743,-0.308600,-0.442563,0.479637,-1.293098,0.302855,-0.701537,-0.159153,0.483783,-0.171057,-1.168637,0.891958,-0.818096,-2.405325,0.140918,1.163043,-1.000699,0.349453,0.622017,2.039881,1.332775,0.218686,1.840411,-0.914798,-0.522656,1.824893,-0.176566,-0.752385,-0.626815,0.364381,-0.770406,0.063882,-1.098000,-0.156157,-1.196347,-0.851603,-0.979037,-0.359385,-0.287790,-0.662993,-0.666415,1.825885,-0.085866,-0.231254,-0.478473,-0.276431,-0.315239,-0.514896,0.020546,-0.172455,-0.082301,0.328135,0.124972,-0.638202,-0.966617,0.303402,0.511052,-1.105372,0.075220,0.463318,0.391019,0.461570,-0.363203,0.692490,-0.377324,-0.557482,-0.919887,0.398534,-0.324755,-0.095251,0.147133,-0.742102,0.169786,0.712526,0.210073,-0.926723,0.548118,0.033210,1.392454,-0.105882,-0.067250,1.298561,-1.272980,0.336597,0.495973,0.385676,-0.302770,-0.026039,-2.026723,-0.620067,-1.392978,-0.082736,-0.228929,0.331289,1.705325,-0.634730
-0.443010,-0.707914,-1.496040,-2.092550,0.589414,-0.306813,-0.047364,1.047074,1.920325,0.137434,1.661121,-0.996906,0.285221,-2.126578,-0.770486,-0.365921,-0.129568,-1.201613,0.041796,-0.715298,0.167358,-0.473317,-0.607549,-2.359682,0.378395,-0.781896,-2.102377,1.762470,-0.309998,0.323758,0.004539,-0.393991,-0.996536,-0.308132,-0.099396,-0.265139,0.012021,0.327683,-1.592980,-0.590420,0.010003,0.371487,-0.654983,1.465710,-0.803552,0.479107,-0.275882,0.369908,0.208009,-0.293161,0.468465,-0.899453,-0.574365,-0.250082,-0.087952,0.009713,-0.304449,-1.628422,0.312325,-0.051334,0.118280,0.077843,1.569824,-0.480103,-0.122264,1.990766,-0.253441,-0.953816,-0.248399,-0.686204,0.209779,-0.176348,-0.478613,-1.291447,0.461220,0.266210,-0.377747,-0.083449,1.359068,-0.407974,0.006384,0.817462,-0.021432,0.203077,0.747025,-0.847987,-0.335509,1.665881,1.242285,0.419915,1.514869,-0.169069,0.436070,-0.722747,-0.421514,0.908153,0.257036,-0.332842,0.140126,0.016923,-1.170086,-0.129942,-1.264619,-0.389950,-0.488181,0.098855,1.919004,-1.555048,-0.528590,-0.590302,0.416921,-1.331213,-0.436779,0.161013,-0.638481,-1.513808,-0.139111,0.224892,-1.283452,0.185383,0.286122,-0.993804,-1.191155,-1.503755,0.574337,-0.786699,-0.084956,-0.380893,0.108440
0.592537,0.860360,-1.773807,1.204881,1.162827,1.248962,-0.587090,-1.695069,1.549301,-0.192831,-0.172203,0.890923,-0.300378,-1.332003,1.297854,-1.963962,-0.024364,-1.145505,-0.361622,-0.676460,1.425402,0.189382,0.689544,0.691757,-1.695090,-0.778529,-1.892528,1.411985,0.117299,-0.900783,-0.130350,-0.032512,-0.440537,0.503161,-0.055679,-0.011914,-0.336163,-2.246707,0.178364,0.122553,-0.270807,0.030876,-0.553493,-1.036518,-0.666034,-1.384718,1.300014,-0.138871,-1.068058,0.922665,-0.476063,1.047346,0.229785,0.663996,-0.647615,-0.341690,-0.255318,0.900176,0.941712,-0.105750,0.631662,1.406778,-0.332002,-0.174105,-0.389936,1.046968,0.698329,-1.213921,-0.282233,-1.385472,-1.243963,-0.373746,0.245550,-0.826293,0.977057,-1.043877,-0.111984,0.976204,-0.615116,-0.297005,-0.437935,-0.320119,-0.398643,-0.303313,1.211964,-0.704835,-0.477403,0.286459,-0.909612,-2.784632,0.513493,-1.580817,-0.445400,0.214810,-0.192734,-0.101435,0.032936,-0.588311,-2.105648,-0.286227,-0.786554,-1.633766,-1.433038,1.348902,-0.456153,-0.034793,1.343155,-1.604045,-0.472662,-1.762765,0.059267,-0.546274,-0.653066,0.322814,-1.470888,-0.235026,-0.416611,0.156405,0.562572,-0.227998,0.316024,-0.773812,-0.183903,-0.971029,0.319364,-0.421799,0.145934,1.014820,0.010706
-1.814270,0.667202,0.692139,-0.790983,1.503158,-1.517470,-0.281259,0.624436,0.258358,0.508685,-0.220564,-0.390948,0.005466,-0.177760,-0.602801,-0.991630,0.456909,1.085782,-0.418244,-0.449864,-0.239859,0.137165,-1.248561,0.774842,-0.376159,0.814290,0.655413,0.297179,0.060728,-0.008112,0.176598,-0.528223,-1.174600,0.565590,-0.502023,0.391727,0.776900,0.258240,-2.070096,-0.392762,0.255298,-0.427337,0.544848,-0.357889,-0.416135,0.305518,-0.557737,-1.293923,0.246560,0.296035,0.399644,-2.359213,-0.025022,0.367060,-1.560561,0.890826,0.083179,-0.179346,-1.024740,-0.164179,0.101902,0.867488,-0.528693,-0.736392,-0.435230,0.748082,0.033814,-0.180028,0.172556,0.652713,-1.387854,-0.214476,-0.537263,-0.675545,-0.205262,-0.358875,0.145913,-0.029521,0.213191,-0.194282,-0.210484,-0.118439,-0.234457,-0.656752,-0.291926,0.076278,-0.455778,-0.589494,-0.156147,0.852939,-0.934445,1.375400,-0.271655,2.047265,0.461206,-1.161621,0.633981,-0.386825,-0.238772,-0.661330,-1.116912,-0.656647,-1.973245,0.005859,-0.472724,0.274413,-0.183583,0.995854,0.105120,0.268417,0.265289,2.104854,0.087698,1.426048,-0.194787,0.137584,-0.231136,0.141120,-1.210550,-1.206173,-0.105178,0.668294,-0.571068,0.241136,-1.285124,0.247260,0.001750,0.412742,0.026238
1.482131,0.147947,-0.012629,0.582576,0.872393,-0.586547,1.083599,0.376415,0.088003,-0.960724,0.141011,-0.205417,0.177442,0.148467,0.983909,0.059322,-0.044469,0.008526,0.329046,-0.500101,-1.632482,-0.267163,1.369039,-0.122518,-0.067664,-0.195782,-0.095749,0.469973,0.488415,-0.210828,0.121470,-0.210997,0.049012,-0.844149,-0.823478,0.383371,-0.268709,-0.686147,0.729165,-0.271332,-0.747036,-0.466855,-0.088692,0.846171,0.796430,-0.222870,1.359643,-1.249770,-0.106638,-1.372317,0.138698,0.470336,-2.502740,0.121776,-0.666598,-0.037257,-0.262530,0.170488,1.895314,-0.514729,-0.752215,-0.152977,0.691515,-0.582271,0.413305,0.072907,-1.656163,1.689745,0.092465,-0.814817,-0.032400,0.382524,-0.501705,1.358929,-0.273654,-1.301856,0.099682,1.002565,-0.532941,-0.531294,-0.107013,-0.726998,0.039558,-0.506925,1.297446,1.107292,-0.030115,2.494208,-0.736169,0.784621,-1.021624,-0.616070,-0.293855,0.318587,0.440936,0.086211,-0.369415,-0.171799,0.204358,-0.810952,0.521728,0.098124,-1.811479,0.355545,-0.450326,-0.003591,-0.490688,-0.362425,0.040441,-0.209228,-0.105074,-1.227366,-0.710122,-0.219423,-0.548544,-1.316518,1.099928,0.088043,0.482077,0.165730,-0.189478,-0.395211,-0.641911,0.404367,0.072830,-0.744076,0.332800,-0.653014,-0.380696
-0.287867,-0.889533,0.679687,-0.508392,0.035283,2.548639,0.520338,0.823122,0.374726,-0.667286,-1.814401,1.840390,-0.281316,0.851643,-0.046886,-1.854131,-0.323632,1.297977,0.297619,-0.392385,-0.027215,-0.293520,0.133907,-0.233277,1.561459,1.575568,0.723777,-0.907969,0.533031,0.201918,-0.571855,-0.523032,0.426381,-0.158646,-0.297361,-0.100673,0.184580,-1.800162,0.519302,-0.682262,0.127724,0.168004,-0.055506,0.484917,-0.785842,-1.711822,-0.189032,0.633594,1.603216,0.592623,-0.263686,0.022819,-0.749660,-0.178789,0.030120,-0.541140,-0.660902,-0.086296,-1.401659,-0.348210,2.387834,0.373073,0.015838,0.695242,0.495226,0.465660,-0.110932,-2.022142,-0.632011,0.908732,-1.033612,-0.148914,-0.010043,-1.380496,-0.532925,0.638576,0.220253,0.996229,-1.345316,-0.285553,1.267460,-0.903184,-0.383879,-0.002309,-2.155991,0.986929,-0.511174,-0.065762,-2.257875,-1.703119,1.592628,-0.494219,-0.320295,-0.606499,0.379680,-0.292944,0.080661,-0.485658,1.034755,0.003850,-0.248558,-0.737929,-2.535615,0.290284,-0.231385,-0.466437,-0.915108,-0.176503,-0.427132,0.629388,0.689136,-0.568168,-0.115492,1.793395,0.415572,-0.067744,-0.621536,-0.238245,-0.375092,-0.135474,0.162616,0.366538,0.984878,-0.339521,0.514351,-0.314817,0.475011,-0.224716,0.054122
-1.543166,0.213313,0.270903,-0.917295,0.089796,-0.633879,-0.937974,0.030395,0.558322,-0.792543,0.379435,0.474984,-0.052058,0.093953,0.340026,-0.841304,0.141884,-0.413392,0.452444,-0.225076,0.006138,-0.320043,-1.112152,-0.583457,-0.026969,0.672293,0.769423,0.973493,-0.042290,0.123899,-0.484058,-0.684750,-1.731088,1.524956,0.221841,-0.277595,0.831352,0.172655,-0.992276,0.361311,-0.025243,0.001211,-1.135222,-0.387769,0.215693,0.256662,-0.088572,-1.051411,-0.457373,1.122762,-0.444001,-0.217270,-0.102589,-0.221378,1.397515,0.370902,0.102457,-0.185886,-0.802901,-0.391176,-0.153700,1.646460,-0.284005,-0.592830,0.099617,1.626737,0.610031,0.254747,0.262265,0.811296,1.482466,0.492367,-0.182657,-1.746369,-0.373394,-0.825687,-0.183261,-1.558727,-0.225435,-0.293535,-0.486136,-0.983479,-0.359831,0.416597,-0.919617,0.080641,0.416738,0.804167,-1.827720,-0.037201,-0.506317,-0.611561,0.046605,-0.651837,0.478968,-0.699271,-1.282458,-0.005851,0.244104,-0.346655,0.982096,0.327502,0.851198,0.070894,0.269391,-0.448150,1.029643,0.996288,1.192989,1.320723,0.138196,-0.130815,-0.314628,-1.780778,-0.220911,-0.868132,0.709332,-0.216819,-0.157241,0.189872,0.478226,-0.576501,0.881749,-0.003215,-0.068689,-0.590533,0.014132,0.570796,-0.156436
0.708207,0.681278,-0.508813,1.467332,-1.182050,0.584233,-1.027523,1.219645,-0.425421,-0.485840,0.044131,0.324508,0.137238,-1.880735,0.699376,0.950804,-0.741446,-0.696211,-0.205803,-0.353903,-2.751738,-0.738185,0.105351,0.230816,1.450078,0.392852,-0.207914,-0.574325,0.150364,0.255700,-0.199676,-0.306262,0.875851,-0.071801,-0.387497,0.083755,0.336308,-0.536572,-0.167153,-0.213668,-0.174006,-0.142799,1.307933,-0.194180,-0.246282,1.840466,0.069477,-0.344833,0.687061,0.020347,0.255956,0.707179,-0.063509,0.513532,0.364793,-0.961792,-0.193366,0.384490,0.793185,-0.288450,-0.013797,0.294140,-0.908653,0.024044,-0.206165,-0.571485,1.255725,-0.088953,0.012285,-0.047984,-0.450107,-0.398053,-0.146526,0.235399,0.876389,0.738285,0.075687,-0.486517,0.253911,-0.459065,0.097248,-0.481412,-0.150932,-0.580865,-0.131489,-0.819750,-0.377547,-1.533470,-0.320180,-1.172561,-0.492378,-0.016451,0.187590,-0.505448,0.053624,-0.425787,-1.740366,-0.696962,-0.736463,-0.215479,-0.265928,-0.421850,-0.137432,2.213731,0.019520,-0.217474,0.018563,-0.200320,-0.525335,0.257284,0.345979,-0.458190,-0.121130,-1.897063,-0.400634,0.849234,-1.454643,0.132164,-0.406591,0.990099,0.213806,1.207496,1.556920,0.844264,0.344560,0.219220,-0.304683,-0.508356,-0.054066
0.552109,-1.070827,0.577611,-0.226301,1.122251,1.433179,-1.416378,1.190916,-0.210129,-1.148842,-1.087871,-0.963911,0.304912,-0.174760,1.182014,0.193702,0.025712,1.164746,0.028529,0.036615,-0.727422,0.161999,-0.601875,0.061909,-1.311183,-0.189756,-0.278849,0.384949,0.128051,-0.326361,-0.074733,-0.250233,0.362168,-0.019911,0.122534,-0.029623,1.239635,0.574762,-0.245583,-0.248291,-0.153169,-0.278770,-1.505868,-0.116501,0.682166,-0.775342,-0.985960,0.980885,-0.799395,0.904593,0.099165,-0.567299,0.053563,1.498007,0.199396,0.011058,-0.061764,-1.974450,0.277000,-0.106698,0.028422,0.140133,-1.186867,0.437100,-0.018934,-1.938218,-0.829684,-0.978510,-0.079973,-2.489374,0.627579,-0.444019,0.067495,1.025373,0.510205,-0.670710,-0.102526,1.054704,-1.037174,-0.283001,0.090542,-0.833726,-0.555789,-0.101675,0.283218,0.255429,-0.249488,-0.948308,0.143190,-0.041227,0.123724,1.567278,0.401703,-0.582806,-0.182724,0.898232,-1.172730,-0.653329,-0.738011,-0.577486,-0.085556,-0.689984,2.239968,-0.196618,-0.429724,-0.303020,-1.258541,-0.579338,0.049114,2.065487,-0.450559,-1.520717,0.045618,-0.534231,-0.968318,-1.116606,-1.323074,0.264390,-0.459046,-0.077752,0.153495,0.724604,-1.613213,-1.505040,0.635125,0.033835,0.224196,-0.371046,-0.191867
-0.890510,-0.473812,0.046767,0.363981,-0.136829,-0.570380,-1.582204,-0.070297,1.397387,-0.010905,0.557414,-1.577709,-0.049124,-0.984561,1.231271,-0.673622,-0.566549,0.223225,0.001797,-0.157580,1.289861,-0.152430,0.397376,-0.966147,-0.087709,-1.760746,-0.168069,0.148338,0.379243,0.304878,-0.558522,-0.142514,1.295399,0.270428,-0.307574,-0.321171,0.972217,0.540985,0.226737,-0.092768,-0.150100,-0.173819,0.596021,1.804923,-0.843372,-0.371484,-0.554677,0.776067,1.217326,-2.043335,-0.350739,-0.864638,0.135766,0.562179,-0.184156,0.004967,-0.544690,-1.635138,1.555443,0.098027,0.079453,-1.146271,-1.820868,-0.246949,-0.255392,-1.559463,-0.945425,-0.561799,-0.413549,-0.753273,-0.022041,-0.419085,-0.472762,0.482437,-1.348343,-2.078710,-0.305225,-0.109106,0.737702,-0.128579,-0.167761,0.843976,0.078269,-0.579519,-0.287514,-0.963751,-0.753700,0.530364,1.908099,2.323895,0.660122,-1.016747,0.027332,-0.581214,0.016305,-0.041426,-0.468462,-0.154890,0.476284,-0.482703,-0.978589,0.907637,-1.980681,-1.795601,0.062670,0.279341,-2.126684,-0.453628,-1.276497,-1.621104,0.147256,-0.744511,-0.185123,-0.498545,0.127595,-0.971017,-1.937627,-0.031314,-0.971511,-0.301459,0.274173,0.208815,-0.004098,1.421888,-0.736663,0.589754,-0.520292,0.941870,-0.276334
-0.743824,1.733665,0.025671,-2.619478,-0.348708,-0.212964,-0.413993,-1.818616,-0.325728,1.864067,0.508364,-0.495598,0.133386,0.620116,-2.343690,0.002889,-0.214589,-0.264509,0.418333,0.023054,0.684682,0.095855,0.982739,0.486583,-0.537041,-0.087686,-0.166180,0.462022,-1.018931,1.201671,-0.685188,-0.322119,-0.470172,0.217333,-0.644711,-0.058634,0.429322,0.324349,-0.186193,-0.374748,-0.156635,0.061753,0.483040,-1.092600,0.390885,0.119438,0.045517,-0.080569,-0.040903,0.219331,0.389021,0.144276,-0.112742,1.087360,0.303864,0.081492,-0.543636,0.034466,-1.537295,-0.495074,-0.781328,0.702002,-0.105017,-0.141620,-0.131897,1.869728,0.849116,-0.753874,-0.263795,-1.894963,-1.241290,0.093540,-0.478720,0.647096,-1.212380,-0.954741,-0.477534,0.144823,0.552467,-0.250773,-0.292620,-0.568339,-0.245254,-0.109682,0.256184,-0.784663,-0.475275,0.604497,-0.812464,0.241570,0.978341,-0.089596,-0.463545,0.938913,-0.429420,-0.369753,0.541025,-0.632665,-0.368668,-0.385119,0.241894,-0.703571,1.120439,-0.509295,0.125200,-0.103616,-1.264590,-0.438584,0.396314,-0.667076,-0.236918,0.332721,0.098431,0.054852,0.285608,1.827397,0.091617,-0.332262,-0.486320,-0.130523,0.314974,-2.044465,1.072047,1.669608,0.414876,-0.287266,0.426827,-1.083476,-0.515566
-1.555826,-0.020640,1.203855,-2.905839,-0.873251,0.219068,-0.140159,0.174342,1.370652,0.280993,-0.540966,-0.715958,0.245283,-1.895352,-0.910482,-0.321215,-0.386881,0.614744,-0.415759,-0.266891,-0.287380,-0.373001,1.513584,2.281715,1.223274,-1.245046,0.048028,0.910575,-0.209952,-0.644051,-0.736699,0.091466,-2.262973,-1.207369,-0.499241,0.234183,-0.385319,0.175606,0.023542,0.152247,-0.562248,0.461154,-0.284647,-1.641829,-0.130273,-0.792255,-0.422057,0.334254,-1.101192,0.123991,0.371581,0.345717,-0.021877,-0.433999,0.514261,0.147654,-0.277576,-0.372539,-0.044469,-0.259819,-1.137265,-0.252208,0.866898,0.777192,-0.059260,-2.872255,-1.762567,-0.851915,-0.332970,0.190639,0.620611,0.518722,-0.492723,1.208078,-1.550298,0.277394,0.396826,-0.813436,-1.141059,-0.516157,-0.723848,-0.261391,-0.507549,0.183994,-0.071688,1.145409,-0.470247,0.337059,1.060966,-0.070594,0.449269,0.130843,0.425632,0.576351,-0.248950,0.553969,-0.237644,-0.016619,1.817408,0.215321,-1.743881,0.210666,-0.117389,-0.660205,0.228373,0.447303,0.056387,-1.215823,0.832829,0.622000,-0.450150,0.054504,-0.714659,0.139418,-1.064664,-0.848279,0.213868,0.202301,0.512132,-1.148849,-0.268353,-0.864176,0.655269,0.625221,0.561948,-0.608142,-0.504644,0.677723,-0.124533
-0.033709,0.517691,0.683291,-0.561361,0.421672,-0.035083,-1.215697,-0.148394,0.647240,-1.723385,0.966843,0.390347,-0.234740,1.033693,-1.254898,-0.634011,-0.339030,1.240480,0.149654,0.103832,0.020219,-0.344221,0.490935,-0.331357,-1.732765,-0.973116,-0.199467,-0.209125,0.411702,1.364032,-0.256527,-1.050359,-0.449764,0.055951,0.163405,0.120439,0.002943,-0.250903,-0.836242,-0.202403,-0.214527,-0.113016,0.776549,0.899387,-1.471729,0.828006,0.125700,-0.696740,-0.643914,1.176665,0.224206,1.154641,-0.299783,-0.262913,-0.952783,-0.427160,-0.046137,0.052921,0.553906,-0.468899,-2.375584,-1.314030,-0.068267,-0.154352,0.300468,-0.456487,0.835848,-1.794555,0.147949,0.363391,-0.609371,0.077198,-0.158761,1.454483,1.198528,0.491262,0.416259,-0.735067,-0.875871,-0.276626,1.346591,-1.065500,-0.172634,0.048657,1.599553,-0.153696,0.085583,-0.999980,-0.344276,-1.266433,0.443005,0.558411,0.389661,-0.224164,-0.076105,1.431875,1.922757,-0.760212,-1.073475,-0.013663,-0.857264,-1.477448,-1.188737,0.382880,-0.121563,0.201792,0.882112,-0.765341,-0.861496,0.499076,0.199777,-0.071080,0.126493,-0.057167,1.275484,-0.282049,-0.598854,0.292222,-1.818629,0.015771,0.120988,-0.405505,-0.907218,-0.561160,-1.089065,-1.780510,-0.514300,0.786090,-0.403431
-0.997630,-2.370133,-2.539964,0.786085,-1.101370,-1.233412,1.003676,0.396612,-0.384813,-2.045808,2.622020,-0.683868,-0.181110,0.073234,-0.953621,-0.628309,0.349549,1.895805,-0.404949,-0.178013,-0.309366,0.359653,0.009792,2.098884,0.808137,0.935630,-1.654212,0.060715,-0.278797,-0.540764,0.143360,-0.128088,0.745436,-1.763305,-0.326807,-0.483312,-1.926269,0.095093,-0.797743,-0.513339,0.019288,-0.491433,-0.655442,0.472341,0.019176,-0.028017,-0.549413,-0.621292,1.072154,-0.860412,-0.155605,0.199646,0.939269,0.069316,-0.236008,0.035980,-0.051455,-0.248266,0.803262,-0.173763,2.796557,-0.464987,-0.623759,1.462209,-0.475275,-2.315362,1.162832,0.388696,0.244755,0.436511,-0.912113,0.408934,0.023258,-1.572811,1.329318,-0.360149,0.035210,1.089979,-2.012353,-0.082505,-1.418926,0.605301,-0.096596,-0.076360,0.241257,-1.582168,-0.029802,-0.319767,0.661710,0.876073,-1.305977,0.499301,-0.131363,-1.186186,0.417009,1.637953,0.555777,0.029399,-1.892366,0.257767,-1.354249,-0.225996,-0.602132,-0.237498,-0.043239,-0.082391,1.259952,-0.027993,0.442857,-1.954425,0.065055,-1.160961,-0.633724,-1.998853,-0.252961,-0.661335,2.153189,0.203938,-1.153765,-1.085087,-0.489743,-1.343444,1.363335,-1.607526,-1.572796,-0.245338,0.066660,-0.114348,-0.404001
-0.940226,-0.213654,-0.167129,0.616299,-1.058728,-0.717224,-1.559500,1.930998,-1.128540,1.342995,-0.146396,-0.507182,-0.081975,-0.385706,1.744769,-0.103955,0.357027,-0.339375,-0.312066,0.338228,0.162894,-0.000434,-0.171812,0.297114,-0.301713,0.607415,-1.342455,2.225608,-0.683709,0.345888,-0.683430,-0.124334,0.866744,0.744843,-0.409127,-0.078865,0.116675,-0.646405,1.684751,-0.646221,-0.181438,-0.315629,-0.576980,-0.352668,-0.599313,-0.016128,0.047705,-1.140790,-0.877363,0.917669,-0.416267,-0.154007,-1.787864,0.551785,-1.203395,-2.402578,0.191524,-0.367360,-0.093797,-0.192091,1.471119,-0.979404,-0.342341,-0.269821,0.282836,-0.423456,-0.599904,-0.628449,-0.282883,0.389999,-0.228592,0.324688,0.094444,-0.838300,0.665894,-0.801714,-0.079878,0.235302,-1.480609,0.046271,1.052206,-0.587212,0.055540,-0.232973,0.878960,-0.377124,0.083868,-1.045936,-0.349466,0.606111,-1.498444,-1.063977,0.498539,1.637534,0.282502,-0.109950,0.134784,-0.151130,-0.409252,-0.683737,0.512429,-0.281080,0.231134,-0.061798,-0.647317,-0.415199,-0.240999,-0.209003,0.993562,-1.897190,0.163702,0.269531,-0.487290,0.042254,0.599865,-0.985425,-0.452095,0.031731,0.166626,-0.866398,-0.071097,1.009047,-0.548853,0.160960,-0.466028,-2.252527,-0.128519,-0.088079,0.028586
0.378527,0.245612,0.543757,-1.299306,-1.404979,1.621976,-2.070436,1.076253,-0.159222,-0.571207,-1.184231,-0.182293,-0.251752,0.207451,1.953514,-1.550284,0.512995,-1.866516,0.053042,-0.531880,0.562415,-0.600275,-1.797369,-0.085209,-0.234159,0.870247,-0.485895,-1.720211,-0.064824,0.982303,-0.120678,-0.212482,-1.077678,-0.209935,-0.537656,-0.151281,-0.297705,0.414169,0.137862,0.145379,-0.751034,-0.045923,-1.208335,-0.134188,-0.939545,1.916714,-0.688173,0.883849,-0.228367,-1.089689,-0.456399,-0.259426,-0.581451,1.345444,-0.847539,1.018586,-0.685835,-0.769086,0.027488,-0.355777,1.103540,0.058526,2.026039,0.006106,0.165672,0.243765,0.094627,-1.753831,-0.020836,2.017693,0.061904,-0.238027,0.049904,-0.545507,-0.890837,-0.215745,0.158146,-0.659219,0.045852,-0.732770,-0.555355,-0.199738,-0.064188,-0.080040,0.195152,0.160406,-0.029999,1.406270,-0.617708,0.356226,1.148625,-0.051757,0.170152,-0.802357,-0.130339,0.072008,-0.625216,-0.608580,-1.012274,-0.697686,1.072215,-0.041139,0.494524,-1.051999,-0.608440,0.145045,-0.584840,0.727245,-0.151350,-1.637644,0.102970,1.443079,-0.556753,-0.722152,-0.657234,0.531827,-1.194688,-0.379522,-1.627745,-0.169876,0.057694,0.366140,-0.738511,1.712943,0.557467,-0.501798,0.388075,0.459359,-0.711134
-0.445102,-1.455085,0.084637,-0.021607,-0.906052,0.027053,-3.127627,-2.159010,1.311005,-0.869543,-0.669403,-0.184553,0.012443,-0.714448,0.161429,-1.235635,2.431528,-0.895212,-0.297902,-0.593634,0.194400,-0.127570,-0.991674,0.379602,0.041929,0.708804,0.120110,0.514247,-0.280195,-0.659319,-0.703715,-0.541009,-0.243061,-0.433199,-0.611095,0.072679,-0.043810,0.015701,0.245111,-0.325260,-0.446635,-0.163599,-0.549320,0.826351,-0.047262,-0.382520,-1.304625,0.996343,0.885060,-0.519755,0.230969,-0.921748,0.218009,-1.309760,0.209355,0.810014,-0.115308,-0.443585,0.330587,0.024631,-0.640585,-0.222707,-0.501622,0.177525,-0.143644,-0.098517,-1.343881,-2.091522,-0.666952,0.082258,-0.498294,0.475723,-0.598612,-0.617080,-1.133345,-0.743236,0.355957,1.390407,-0.288113,-0.225679,-1.211868,-0.666470,-0.366854,-0.271107,0.260252,1.101900,-0.174165,0.063399,-1.109778,1.508592,0.577733,0.154965,-0.153546,0.741317,0.330181,-0.647946,0.425303,-0.312462,0.038650,0.036987,-0.893193,0.210421,0.720442,-0.473463,-0.548503,0.048806,-0.139042,0.090567,-0.280843,1.287459,-0.007346,1.636834,-0.238287,-0.148606,0.432006,0.918231,0.602650,0.216962,-0.026926,-0.476527,-0.319713,1.318390,-1.878978,-1.362150,-2.159409,0.782246,-0.411475,-0.312960,-0.308169
0.630468,0.295210,-0.791108,0.905745,-0.203878,0.339242,-0.772477,-1.130274,-0.217237,0.267420,2.192526,-0.719186,-0.326448,0.968099,2.060326,0.979583,0.153502,-0.129741,0.074792,-0.426573,1.522827,-0.113445,-0.379834,-0.432603,-0.765567,-0.121731,0.081293,-0.454111,-0.453927,-0.773029,0.072135,-0.217888,-0.657793,-0.738778,-0.743452,0.126904,-0.344759,-0.216507,-0.490526,-0.162419,-0.390148,0.360832,-0.696132,0.315343,0.087668,0.034710,-0.634977,0.348164,-1.235334,0.496252,-0.078906,-0.545272,0.052416,-1.902162,-0.183246,0.015368,-0.228853,0.100645,-1.687086,-0.603609,-1.686620,-0.730364,0.172652,-0.106121,0.298406,0.067113,-0.498300,-0.007632,-0.606247,-0.340651,-0.377193,-0.192500,-0.741514,0.901625,-2.130519,-0.380306,0.254930,-1.334425,-0.357179,0.029111,0.243583,0.319658,-0.506888,-0.228021,-0.085680,1.641556,-0.680844,-0.003739,-0.043399,-0.556529,-0.042440,-0.601449,0.479275,-0.004434,0.097722,-0.412418,-0.463586,-0.498735,0.146761,-0.493998,0.512878,0.140323,-0.197644,-0.787061,0.019250,0.430154,0.810015,-0.568665,0.610422,0.150294,-0.250892,0.226988,-0.302630,0.127341,-0.325864,0.698500,0.160833,0.329921,0.791565,-0.987287,-0.365687,-0.479694,1.518934,0.669634,1.118742,-0.651340,-0.364166,-0.350948,-0.686271
-0.504422,-0.372193,0.301942,-0.464062,0.356451,2.153972,2.591905,-0.140544,0.157130,0.042599,0.776757,-0.260870,0.022452,0.498382,0.961935,-1.205599,0.609270,-0.026245,0.032750,-0.695928,-1.685670,0.164348,-0.806811,-0.020137,0.660885,-2.805376,0.424281,-0.383592,-0.239167,-0.431940,-0.409523,-1.048816,-0.573221,0.605444,-0.646694,0.488553,0.428054,0.028659,-0.165966,-0.434255,-0.661886,0.377108,-0.052242,2.487820,-1.288077,0.011383,-0.257831,-0.868829,-0.273573,-1.573243,0.488205,-0.653511,-1.119159,0.960364,0.091543,1.527077,-0.716043,0.082893,-1.841037,0.061654,-0.710598,0.242864,-0.383025,2.613595,0.156694,-2.262220,1.053397,1.724804,0.149296,0.965927,-1.112713,0.121590,-0.643706,-0.717392,-0.046729,1.245036,-0.458594,0.407141,-0.175988,-0.091688,-2.451667,-0.397184,-0.401861,-0.747919,0.643972,-0.361905,-0.010187,0.007586,-1.511603,-0.853208,0.485340,-0.127286,0.376154,-1.925129,0.397251,0.654516,1.498117,-0.377629,-0.404714,-0.595146,0.370367,-0.195008,-1.024835,0.292772,-0.613554,0.113521,-1.166498,0.556589,-1.360675,1.328242,0.580097,-1.649768,0.179331,0.416769,-2.104278,-0.651087,0.046539,0.252981,0.513629,-1.614493,-0.196377,2.520048,-0.649676,-1.598612,-0.827022,-0.310379,-0.305467,-0.056459,-0.311926
0.284539,-0.031400,0.730579,-1.389800,-1.447973,1.085180,2.554809,-1.188148,0.607308,0.574797,-0.239718,-0.710739,0.150858,0.278988,-0.755859,-0.706082,-3.898088,-0.625362,-0.457811,0.192992,0.344914,0.138634,-0.616689,-0.121545,0.369800,1.063846,1.190924,-2.280545,0.863113,0.633761,0.428653,-0.371205,0.522733,-0.902277,0.148321,-0.144961,0.665644,-0.711204,0.460659,-0.286822,0.090485,-0.027664,-0.921537,-0.934525,2.203791,0.475038,0.446083,-0.027027,-1.361847,-0.385733,0.467833,-0.390694,0.741060,-2.409836,-0.640275,-0.925867,-0.003273,-0.141852,-0.151271,-0.084020,1.021368,1.643142,0.100136,0.119794,-0.450568,0.821556,0.416992,1.055578,0.080033,-0.450636,1.379275,0.252845,-0.310842,0.892340,-1.363421,1.513946,0.124623,1.458507,0.450885,-0.275823,0.285539,0.403833,-0.497935,-0.104925,-1.902376,-1.427490,0.065211,-0.646652,1.157312,-0.395281,1.025221,0.484971,0.456064,-0.010644,0.423319,-1.682112,-0.126144,-0.126387,-0.569465,-0.053192,0.041942,-0.174707,0.347403,0.233371,-0.515026,-0.014796,0.685745,-0.688248,0.285581,0.598018,-0.496186,-1.004608,-0.326533,-0.002623,-0.841538,-1.283202,0.499275,-0.008202,-0.855569,1.065466,0.370712,0.142919,-0.268429,0.941899,-0.359593,0.401877,0.342958,1.285103,-0.060559
-0.963917,-0.235479,2.273714,-0.834492,0.536302,-1.756839,0.095249,-1.758665,0.479771,1.228533,-0.916465,-0.029482,0.431435,-0.702577,-1.154810,0.053222,-0.581803,-0.351315,-0.348173,-0.579101,0.036501,0.291990,0.128077,-0.050821,0.152511,0.580494,2.031502,-1.558225,-0.278257,-0.251858,-0.025758,-0.378264,-0.179255,1.585229,-0.242449,-0.054168,-0.212172,-0.589912,-0.159337,-0.567791,-0.464638,0.456147,1.197280,0.727435,-0.543424,-0.204427,-0.416312,-1.302139,-0.944915,-0.308811,0.326904,1.270272,-0.145683,0.969565,0.512792,-0.025670,-0.102489,-0.442902,0.113994,-0.682699,-0.032127,-0.538093,1.565330,-1.120975,0.279007,-0.116535,0.551194,-0.089526,-0.037299,-0.821112,1.820955,-0.023582,-0.580266,2.580464,-0.010995,0.291249,-0.451238,0.110075,0.427035,-0.468270,1.182947,-0.606517,-0.491078,-0.119724,-0.223579,-1.435291,-0.337763,-0.582756,-0.414763,-1.257587,-0.233298,0.006681,-0.142587,-1.782958,-0.497281,-0.992699,0.466878,0.062835,1.835565,-0.171720,0.880867,-0.172291,-0.218688,0.410898,-0.541518,-0.051662,0.690685,-0.798207,0.506531,0.402298,-0.155320,-0.374572,0.122110,0.567777,1.057358,-1.517109,-1.078340,-0.130068,-0.190953,-0.329457,-0.241761,-0.782932,-0.832951,-0.620065,-1.909623,0.437680,-0.485480,-2.987537,-0.318302
-1.686945,0.574364,1.858072,-0.315416,-0.113631,1.121539,0.234799,0.394409,-0.665556,0.352186,-0.229278,0.423323,1.733004,-0.784238,-2.364864,-1.494746,0.168672
-1.609563,-0.585287,-0.118349,0.540122,2.053116,1.110358,-1.471758,-0.191093,1.254738,0.206684,1.917397,-1.472176,-0.319486,-0.194056,-1.388267,0.310690,-0.047773
-0.593222,-0.666844,-0.106729,1.654471,-0.215040,0.968560,0.345754,-2.495089,1.729278,-1.235902,-0.712608,1.358459,0.826660,-0.410586,1.248101,-1.958970,0.097763
-0.714458,-0.366596,0.592042,-0.425151,0.735782,-0.308123,0.868740,1.070636,1.194602,0.874546,0.295645,0.964125,0.854645,-1.210881,-3.288240,-1.895449,-1.021998
-0.767636,0.278212,0.498310,0.049802,-0.492960,0.151118,-0.589365,0.928415,0.414037,0.736694,-2.501947,-0.071992,-0.716310,0.205335,1.056547,0.838063,0.225070
-0.606568,-0.019960,1.293735,-0.977903,0.328411,0.171943,1.151494,-1.112731,-1.121985,-1.767433,0.963896,-0.581100,3.768253,1.088599,-0.748106,0.023110,0.341000
0.152834,0.239214,0.522176,0.384176,-1.796543,0.351952,-2.188435,-1.789885,-0.355768,0.862148,0.816839,0.780748,-3.187223,0.705919,2.951325,-0.292102,-0.228799
-0.428179,0.611136,-1.451555,-0.727825,1.296320,0.138510,0.624293,1.255979,2.768292,-0.353185,-0.938530,1.660810,0.681298,-1.678878,-1.359610,-0.439077,0.398596
0.575166,0.181418,2.120021,-0.009259,-2.094705,-0.006667,-1.643824,1.644589,-1.723148,-0.290530,0.681042,1.805988,1.144728,-0.615662,-2.390708,0.585717,0.332675
1.639075,0.213122,-1.474704,0.238363,-0.078619,-1.854174,0.212300,-1.082537,-0.838992,0.924499,-0.155786,-1.640745,-1.291321,1.888510,0.180298,0.986360,-0.213016
-0.470445,-0.426954,-0.234387,-1.159888,2.080609,-0.411247,-0.797916,-1.182221,-1.710078,-0.465243,1.047642,-0.067880,1.062768,1.446443,0.496363,-0.190860,-0.127838
0.240517,-0.188326,-0.729798,0.705979,-0.886207,-0.662294,-0.730825,1.340316,-0.838475,-0.831067,0.318683,0.263361,-0.067755,0.249473,0.033471,0.572216,0.199823
-0.329335,0.013791,0.421823,-0.334096,-0.073339,-0.514023,0.347696,0.155218,-0.476105,-0.527190,-0.319065,0.086392,-0.389751,-0.429441,0.425329,0.158656,-0.320514
0.753808,-0.249000,0.376347,1.257451,-2.353066,-1.477574,2.596116,-1.222550,0.410370,0.044391,-1.697480,0.639050,0.121796,-0.071860,-1.571277,0.478728,-0.295420
0.186700,0.260798,0.333855,-1.601629,1.339952,0.312307,-0.126072,1.381443,1.802410,0.209397,0.260557,-0.756600,2.194976,-0.447913,-3.989945,-0.483673,-0.328709
-0.681437,-0.692031,1.034828,0.650193,-0.076284,0.664582,-0.327140,-0.780736,-0.987480,1.537520,0.163540,-0.852343,1.540308,-0.226380,-1.930095,-0.972811,-0.198912
-0.614773,-0.158869,-0.869845,0.540158,1.813716,0.697065,-0.037903,2.273572,-0.480686,0.812019,-1.806426,1.099010,2.117198,-0.959601,0.471101,0.714387,-0.218408
0.349600,-0.034917,-0.888480,-0.437949,0.324288,-0.673649,0.004719,1.307763,0.044516,-0.352716,-0.821820,-0.544662,-1.472052,-0.601950,0.677382,2.578595,-0.379532
-0.337222,-0.053124,-0.360081,-0.434047,-0.241924,-0.434526,0.198808,-0.125108,0.205674,-0.481562,-0.354366,0.286917,0.219417,-0.153420,-0.108436,-0.270188,0.216749
-0.230698,-0.147837,0.402149,-0.250449,-0.161136,0.614224,-0.278627,-0.433477,0.469413,-0.165699,-0.486411,-0.213383,0.590836,0.787887,0.116938,0.450703,0.197710
1.185697,0.016832,-0.554746,-0.094731,-0.562987,-0.004696,-0.224499,-0.509038,-1.482438,-1.299917,-0.312392,0.615366,-0.627245,2.142971,2.101911,0.280963,0.107164
0.509175,-0.044203,0.330492,0.095815,0.301980,1.914280,-0.893782,0.378148,-0.280217,-0.040521,0.581564,-0.585211,1.105921,0.278119,-0.524847,-0.137193,0.146653
-0.234446,0.115204,-0.290280,-0.416442,0.690832,0.547005,0.013888,1.372307,0.852545,1.358241,-2.286245,-1.727479,0.996990,-1.196941,0.236621,1.228704,-0.168897
1.249529,-0.756168,-0.308857,1.746405,-1.150030,3.975454,-0.513911,-1.045657,-0.720978,0.114057,0.064204,-1.284144,-0.851856,0.221274,0.912514,-1.379904,-0.183482
-0.742654,-0.164204,0.582694,-0.471302,0.638406,0.311792,-0.090521,0.410112,-0.763886,-1.528639,-0.966556,0.536189,1.853626,-1.383485,0.309301,1.015578,0.344278
1.407221,0.782577,0.076189,-0.369263,-0.839508,0.771504,-0.966965,-1.748659,0.735077,0.798993,1.863915,-0.331550,-0.456540,0.035958,-1.428279,-1.321964,-0.424944
-0.121580,-0.053069,-0.742489,-0.618996,0.879857,-0.978172,-0.370234,-2.282536,2.629366,-0.674575,0.171688,0.888864,0.148076,-0.284101,0.003670,0.273200,-0.390265
0.161996,0.206701,0.619046,0.669483,0.305308,2.463459,0.441194,-0.832348,-1.536786,0.153726,-1.643703,-1.023122,-0.043075,0.343487,-0.832628,1.338462,-0.285026
-0.896896,-0.244875,-0.736050,0.141127,0.436378,-0.662172,-0.306190,1.036372,0.478683,0.522325,1.278759,-0.038934,-0.228726,-0.717985,0.113328,-0.911295,0.089565
-0.671635,-1.181213,0.186021,0.455863,0.954731,0.143916,-0.279253,-0.156624,-0.659726,-0.541625,-0.347281,0.563378,1.173198,0.897001,-0.475150,-0.711641,0.037789
0.479852,-0.008274,0.288541,-0.327286,0.018139,-0.160465,-0.073322,-0.072076,0.383613,-0.245647,0.510040,0.479833,0.416941,0.411302,-0.071351,0.289302,-0.235188
0.160878,0.677666,0.305647,0.256451,-0.128218,-0.361808,0.012131,0.142335,-0.693483,0.094335,0.405627,0.344811,-0.445885,0.097410,0.292924,-0.378485,-0.408982
-0.253778,0.520338,0.520391,-0.510241,-1.177729,0.625337,1.550523,1.129830,-1.132232,1.765775,-2.149731,-2.248443,0.764007,-0.137649,1.247110,-0.471518,0.730032
-0.295272,1.410935,0.210430,-0.995165,-0.690657,-0.454778,-0.152684,-1.835411,-1.300917,0.364991,-1.375108,0.780135,0.230834,0.539080,1.669448,-0.158224,0.120650
0.049964,0.399479,0.401250,-0.459050,0.269295,0.084903,0.485310,-0.353197,0.419206,0.226308,0.487999,-0.042916,0.461469,0.292733,0.467580,-0.012916,0.331974
-0.138112,0.474360,-0.113049,0.015320,0.435553,-0.270889,-0.411374,-0.081155,0.008208,-0.057350,-0.027553,-0.491970,-0.381666,-0.358277,-0.212550,-0.458489,0.436014
0.520661,-0.063437,-0.380839,0.026837,0.462346,-1.490203,0.418633,-0.881412,1.214123,0.663326,1.831471,-0.728880,1.065051,0.041834,-1.323700,0.588042,0.057764
-0.531413,0.027004,0.017448,0.007245,0.356668,0.697675,-0.174411,-0.656866,1.045843,-0.459140,0.231591,-0.447922,1.547546,0.440757,0.772476,-0.239992,0.196378
0.500052,-0.029442,0.210469,-0.591701,0.656758,-0.385478,0.585014,-0.276215,-0.433916,-0.247513,0.790143,1.338043,1.221539,-0.436100,1.141208,-1.617733,-0.814860
0.490994,0.051813,0.086654,0.518272,-0.371733,0.145816,0.441399,0.110040,0.324353,-0.254772,0.368537,0.357746,-0.257359,-0.253957,0.318107,-0.013089,0.274588
-0.064384,0.115434,0.519772,0.449940,0.382166,0.067828,0.347474,-0.163511,0.257214,-0.404201,0.435265,0.521725,-0.169954,0.168970,-0.041721,-0.190364,-0.068994
0.350331,-0.037346,-0.432049,-0.018637,-0.467261,0.323491,0.091106,0.406701,-0.385375,-0.438322,-0.322049,-0.491348,0.248236,-0.258078,0.392219,-0.308719,-0.491310
0.670907,0.031228,0.665936,0.099464,-1.377322,-0.067655,0.732044,-1.340292,-0.239567,1.670579,0.230453,0.176045,-0.016278,-0.357561,-0.796190,-0.151441,-0.059731
0.717237,2.144332,0.822542,-1.023854,-2.308271,0.328931,0.347910,-1.290930,-1.313047,1.703691,-0.165946,-0.845015,0.959481,-0.372213,-0.244279,0.004314,0.324699
-0.687424,-0.181101,0.241820,0.014349,0.708360,1.188896,-1.071767,0.643247,-0.441927,0.135258,0.894312,-3.023624,-1.283368,2.560592,-0.035759,-0.555133,-0.361273
-0.163321,0.514031,-0.169696,-0.659687,0.703444,1.276053,-0.798968,-0.315798,-0.967927,-1.407231,0.316340,1.884770,0.937663,-0.689505,-0.263885,-0.748400,0.119375
0.859170,-0.092652,-0.386402,0.816633,-0.067021,-0.235753,0.061152,0.218260,-1.883664,0.064872,-0.170767,-1.391927,-1.767703,1.059641,-0.651118,0.770660,0.071047
0.748024,-0.089734,0.508538,-0.929472,-0.128183,-1.850941,0.334425,1.575565,-0.510836,-0.103028,0.047866,0.134112,1.892656,-0.256645,-0.722990,0.892016,-0.502150
-0.544666,-0.309487,0.966296,-0.040442,-0.025054,-1.953284,-0.181499,-1.995173,-1.050228,-0.891148,-1.220445,1.252535,0.862971,2.358713,0.845328,0.454285,0.191921
-0.442263,-0.163431,1.060196,-0.752189,0.805860,-0.408140,1.208952,-0.688499,-0.492952,-1.507058,-1.131043,1.568865,2.203974,-0.139433,-2.638389,0.953522,0.080742
-0.213795,-0.165090,0.436261,0.221326,-0.394067,-0.104510,-0.349769,-0.196544,0.427180,0.066625,-0.180407,-0.479757,-0.107650,-0.050756,0.266823,-0.389391,-0.034562
-0.469928,-0.254581,-0.353097,-0.471996,1.305414,-0.076188,-0.021458,0.990738,0.594189,2.857671,-1.834592,0.251746,-0.256515,-1.102275,0.364930,-0.905869,-0.676327
-1.017465,0.160670,0.371926,0.121595,0.304087,-0.813844,-0.124313,0.856502,-1.533388,-0.561403,-0.084490,-0.713853,0.295618,1.079911,1.769873,1.847540,-0.137195
-0.174016,0.073812,0.240581,0.179567,0.128530,0.131911,0.825982,-0.121422,2.064031,0.885850,-2.322192,0.338768,-0.274941,-1.514132,-0.356793,1.140029,0.381330
-0.693051,-0.376941,1.004562,-0.113940,0.629063,0.256316,-0.239055,-0.569219,1.001898,0.095585,-1.756484,-0.611451,-0.541449,0.633348,-0.212699,0.018377,0.491778
-1.430404,0.422461,0.732107,-0.460715,0.270669,-0.303502,-1.283884,1.139231,-0.428794,1.189693,-0.184224,0.198873,0.182321,-0.908323,1.393289,1.591449,0.554924
0.358186,-0.311434,-0.346794,0.397000,-0.223677,0.438638,0.316900,-0.247955,0.302669,-0.170627,0.288201,0.393540,0.047426,0.049340,0.429723,0.313270,-0.263169
0.617426,0.237863,0.310168,0.092878,-0.970226,-1.081984,0.549169,-0.669920,0.898826,1.028983,0.908727,1.284277,-0.741817,-0.564166,-0.576360,-0.603786,0.241374
0.192453,-1.057041,-0.148808,1.290567,-0.205994,1.173486,0.853187,-0.879341,-0.926647,-1.695967,1.113129,2.148206,-1.162376,-1.122090,3.189540,-0.848932,-0.393786
-0.035029,0.294597,-0.005796,0.472923,0.027910,0.061216,0.567300,-0.213345,-0.009356,0.484920,0.094867,-0.265379,0.339563,0.545865,-0.084504,-0.201148,0.490091
0.486258,0.242868,0.654645,0.466568,-1.761654,-0.003753,-1.403079,0.304480,3.332988,-0.549905,-0.407247,1.170372,-0.881118,1.224515,-2.523775,-1.242752,-0.303814
-0.034191,0.771876,0.896976,-0.464919,-0.806391,-1.399569,-0.277226,0.370542,-1.934431,1.597810,0.530544,-0.088685,-0.493114,-0.162568,-0.234046,-0.074879,-0.077485
-0.603497,-0.374590,0.018787,0.932039,0.441799,0.759750,-1.939759,-1.565889,-0.141891,-1.238113,2.668836,1.124758,-1.270900,0.796641,0.999789,-0.812407,0.273462
-0.446117,-0.245224,-0.212262,-0.762103,1.327590,-0.330101,-0.671503,-1.509383,0.938408,-0.743291,0.225360,0.377873,-0.072466,-0.595660,1.989862,-0.010043,0.763231
-0.145182,0.334543,-0.469035,-0.296199,0.142956,-0.072351,-0.381590,-0.384285,-0.316663,0.112781,0.264493,-0.237648,-0.229554,-0.303989,-0.384120,0.215250,-0.460018
0.687569,0.106121,-0.633329,0.165946,-0.417573,-2.253651,-0.613553,1.230431,0.446736,0.431655,-0.131657,1.154118,-4.022683,-0.301365,-0.390253,1.287403,-0.146025
-0.037416,-0.397741,1.309983,-0.405668,0.231506,-0.010938,-1.608039,1.478439,1.142660,0.315968,0.045664,0.196362,-0.551091,-0.356623,1.033739,-0.503872,0.677662
0.122133,0.581365,-0.228344,0.218584,-0.738661,0.855062,-0.105731,-1.248027,1.128649,0.623149,0.734837,-0.877964,-3.011917,0.011689,1.965611,-1.658210,-0.454914
0.114413,-0.398658,0.188570,-0.424536,0.258631,0.484289,0.421029,0.040499,0.065127,-0.111696,0.047865,0.474464,0.227877,0.255201,-0.132417,0.439925,0.162291
-0.588539,0.353047,-0.442887,-0.541333,0.802138,0.474058,-2.163296,0.238847,2.436685,-0.579562,1.112269,0.778839,-0.560132,-1.145052,-0.001476,1.082992,-0.009194
0.605438,-0.323717,-1.144741,0.179395,0.177551,-0.444193,-1.096005,1.120986,1.324662,-0.036404,-0.634471,0.698949,-0.682513,0.824533,2.106565,-1.839048,0.024789
-0.259114,-0.215424,-0.151739,-0.422058,0.527072,-0.228001,0.220708,-0.233840,-0.307772,-0.433451,-0.165996,-0.167647,-0.228777,0.339273,0.455153,0.247605,0.253814
-0.417048,0.258608,0.226903,0.341973,0.009722,-0.063197,0.468034,-0.165422,-0.242754,-0.099298,0.463058,0.153674,0.352452,-0.152454,0.474378,0.414897,0.413008
-0.301665,-1.432190,1.110687,2.257506,-0.992065,1.512565,-0.415417,1.933763,-2.486679,1.340335,0.229221,-0.766538,0.415029,-0.932786,-1.484251,-0.561073,0.568380
-1.395264,0.344130,0.941338,-0.753142,0.268561,-0.652929,0.640602,-1.780692,1.008798,1.335114,-1.542449,1.417711,-0.307068,-1.931186,1.466778,0.727790,0.000181
-0.623920,-0.166071,1.060150,0.715876,-1.424971,0.830517,0.779095,-1.182791,-0.608681,-2.493747,-1.026103,1.245242,-0.832568,-0.657043,1.190060,1.868593,-0.099123
0.207561,0.145230,-0.198103,-0.543223,-0.456418,-0.414158,-0.379938,-0.276638,0.039789,-0.197364,0.387683,0.168803,-0.445049,-0.341147,-0.468548,0.014492,0.455975
-0.704662,-0.822186,1.005002,1.272988,-0.543611,0.939362,0.633530,-1.460890,0.223331,1.024127,1.036064,-1.882594,-0.572279,-0.841864,1.064154,-0.407411,-0.039486
0.435957,-0.540386,0.189357,-0.703412,-0.318744,-0.533410,-1.047672,0.121350,1.946407,0.748169,-0.000588,-1.356788,-2.025663,0.462761,0.245245,0.957744,-0.109142
0.263591,-0.151268,0.251206,0.109825,0.260928,-0.238311,-0.389240,0.486752,0.237722,0.545115,0.516451,-0.021044,0.224917,0.527100,0.050082,-0.101755,-0.409291
1.018632,-0.012026,-1.213099,-0.923632,1.528698,-1.554157,0.259317,0.481527,-0.093544,1.775055,-0.657179,-0.008421,2.074776,-2.377743,2.159309,0.575937,-0.197559
0.019865,0.166511,0.590397,-0.025903,0.072878,1.455111,0.026649,-1.241433,0.224763,0.511486,0.332632,0.513108,0.069503,-0.619053,-0.187809,-0.749535,-0.443060
0.462874,0.451452,-0.000395,-0.058092,0.085652,-0.322110,0.286858,0.357636,0.132814,-0.017593,0.234586,0.234053,0.186547,-0.106684,0.121474,0.417905,-0.188651
0.306408,0.548439,-0.225407,0.539079,0.329769,0.299380,0.204131,-0.644951,-0.179359,-0.584078,-0.061052,-0.084812,0.145840,0.371689,0.053439,0.197303,-0.373005
0.857620,0.517249,0.002370,-0.372478,-0.586072,1.367589,0.979818,2.253217,0.648160,0.320004,0.211525,-1.728321,0.672236,-0.348899,-0.224831,-2.029131,0.184078
0.855979,1.655157,-1.195225,-0.451316,-0.859928,-0.211981,0.373627,0.650464,-1.938601,-0.170173,-0.812284,1.318119,0.812027,-0.840508,-0.790112,0.901857,-0.044789
0.098156,0.453695,-0.220814,0.530195,0.177531,-0.240883,0.338963,0.250901,-0.328385,0.012146,-0.134558,0.496962,-0.208655,0.291414,0.052598,0.227044,0.495522
-0.916281,0.726722,0.917269,0.188459,-0.387594,1.667769,-1.216415,1.090629,-1.856597,0.730199,-0.619329,-0.332608,-0.185123,-1.629409,-0.344483,1.709977,0.377662
1.230726,-0.118337,-0.575897,-0.127275,0.587701,-0.784109,0.074658,2.603017,-1.531507,-1.464492,-0.931003,1.330636,-1.338704,0.187595,1.082533,0.266495,-0.618945
1.286832,-0.096009,-0.065460,1.774321,-2.309584,0.112389,0.230591,0.977612,-2.193537,0.316991,-0.563534,0.944936,-3.449593,0.611412,0.462484,-0.483302,-0.315064
-0.473183,-0.856749,1.912932,-0.356616,0.268169,-0.018306,-1.470722,0.514500,-0.866379,-0.702165,0.835891,-0.440579,3.203676,0.772380,-0.160906,0.918544,0.356315
0.011169,0.303852,0.504742,-0.297066,-0.474302,-0.905702,-0.475480,-0.224629,-0.484561,1.838470,0.123589,-0.943378,0.081041,-1.287573,-1.114448,1.279504,0.193402
-0.325493,0.480889,0.051151,-0.352411,0.091766,-0.019564,-0.387903,-0.434776,-0.431639,-0.260953,-0.033558,-0.248920,-0.460397,-0.429795,0.401104,-0.031068,-0.052420
0.421172,0.449798,-0.856223,-0.114081,-0.153519,1.385793,0.857701,-0.245591,-1.282779,0.930312,0.529592,-1.608349,-1.667665,0.099404,-1.046877,-0.416272,0.429419
0.168698,0.424756,0.061486,-0.373077,-0.242939,-0.052519,0.322171,-0.346083,-0.451520,-0.531811,-0.491371,-0.516388,-0.229707,0.132089,-0.425699,0.122127,0.264781
-0.344434,-0.430329,0.252465,0.692655,-0.832825,-0.649812,0.336459,1.120595,1.569246,-0.333367,0.661269,0.546767,-1.417869,-0.375818,-1.491859,0.243302,0.195859
0.708921,-0.328249,-1.239746,0.327271,-0.257942,-0.699730,0.983857,-1.296766,0.513917,0.468971,0.278047,-2.062624,-0.781000,-0.053071,3.123739,1.095424,-0.044781
0.035577,-0.301083,0.022494,0.260166,0.459775,0.472228,0.376833,0.493442,0.043821,-0.453383,0.136102,0.189106,0.501263,0.132608,0.029860,-0.012760,0.309873
-0.693837,-0.637454,1.096194,0.840042,-0.624558,0.233483,-0.609987,0.446081,-0.020522,-1.078494,0.122274,2.395368,-1.876063,-1.395957,1.292140,-0.420189,-0.559316
-0.381494,0.423141,0.033142,0.407994,0.411508,0.044700,-0.217919,0.448559,-0.118395,0.175661,-0.123995,0.448504,-0.406544,0.349939,-0.431520,0.451744,0.218324
-0.404906,-0.095144,-0.807586,-0.124950,0.901590,0.977884,0.922521,0.814748,1.959351,0.254148,-0.235614,-1.198548,-0.011902,1.014545,-0.962940,-2.962567,-0.260766
0.118941,-0.033519,0.567607,0.143700,-0.281365,-0.056598,-0.189028,-1.205323,1.137705,-0.312382,0.567001,0.620690,0.329507,0.459131,-0.576176,-0.390589,0.315906
-0.006296,-0.514324,0.232873,0.164943,0.784445,-1.768202,2.068762,0.350041,0.357792,-0.880053,-0.348092,-1.730485,1.124573,1.708958,-2.074100,-0.174781,0.542642
0.884306,-0.332815,-0.243042,-0.585982,-0.220536,-0.519703,0.889361,1.147139,-0.179998,-0.954724,-0.922624,0.427793,0.856427,-0.696929,-0.457003,0.525634,-0.451376
0.407572,0.405645,0.496378,-0.262079,0.179278,0.371822,0.426243,0.295833,0.479873,0.335032,0.152769,0.415590,0.163702,-0.114397,0.029525,0.271044,0.407156
-0.202838,-0.397724,0.311140,0.084394,0.077973,-0.200908,-0.398609,-0.118410,0.322019,-0.186983,0.040927,-0.128021,0.283989,-0.347643,0.227537,-0.206395,-0.138634
-1.299074,0.064873,0.411159,-1.612022,2.043117,-0.515340,-0.857248,-0.290204,2.790406,-0.245003,-0.118626,0.358649,0.196063,-1.365106,2.008980,0.699058,-0.460326
-0.481435,0.954262,-1.786722,-1.378544,0.933976,0.411026,-0.829192,-1.565584,1.647051,0.314592,0.117147,-0.589793,-0.334519,0.327121,3.232262,-1.079188,0.211567
-0.259407,0.268660,-1.154841,-0.117551,0.463686,1.191774,-1.998902,0.377793,0.567867,1.359269,-0.158004,-0.018198,-1.171331,0.492534,1.086472,-2.220063,0.808580
0.540585,0.474596,0.118405,-0.136622,-0.745530,0.646820,-0.500453,-1.297873,-1.196671,-1.187786,-0.395595,-0.454162,3.317000,0.070421,0.356796,1.943412,0.608535
-0.206388,-0.050855,0.226457,-0.484558,0.526682,0.036117,-0.150602,-0.536791,-0.823433,0.153023,0.127382,-0.370467,-0.020436,-0.031525,1.004008,0.104072,-0.377422
0.090844,0.104091,-0.024814,-0.004544,0.141541,-0.912381,0.404708,0.232461,0.438471,-0.981190,0.489910,-0.898807,-2.770424,1.528046,-2.150740,1.028754,0.092990
-0.191291,0.081073,-0.063976,-0.010415,-0.029028,0.459638,-0.279129,-0.290943,0.446519,0.021403,-0.080255,0.279091,-0.099528,0.642063,-0.253362,0.335585,0.173374
-0.464447,-0.879063,0.416154,0.423994,0.584812,-0.265604,0.695933,0.470629,-0.869608,1.663321,1.010930,-1.047440,-0.569114,0.043109,1.385842,-0.549602,0.099183
-0.051138,-0.597713,-0.286989,0.278852,0.954436,-0.616626,1.458917,1.693082,0.264390,0.749852,-0.635545,-2.518704,-1.858342,-0.688144,0.864928,1.068708,-0.300232
-0.293211,0.670142,0.700739,-1.717230,1.282491,-0.840688,-0.314498,0.487863,-1.354042,-0.502202,0.396108,-2.292007,1.235104,0.331578,0.251919,2.475799,0.193943
0.036311,-0.764908,0.571682,1.696327,-0.947922,0.916633,-0.846617,-1.319913,-1.915136,-0.692940,1.640094,-0.369458,-1.216611,1.158630,1.666210,-0.584950,-0.197011
-0.330823,-0.482134,0.217222,0.191384,0.039046,-0.375927,-0.063588,-0.331002,0.020460,-0.031761,0.050585,-0.152574,-0.343861,-0.422597,0.362277,-0.247088,0.336074
0.162314,-0.666427,1.179561,0.855882,-0.530463,-0.446559,0.500919,-0.553745,0.997377,-0.077943,1.238733,-0.713449,-1.266141,-0.197915,-1.350893,1.254223,-0.456522
-1.321094,0.074046,0.373407,0.285231,0.402044,0.663107,-1.004297,-1.602200,-1.439140,0.997835,0.463841,0.234220,-0.291066,-0.512122,-0.374585,0.676781,0.118880
-0.307843,0.050555,-0.436765,-0.179173,0.466110,0.190120,-0.036611,-0.494558,-0.048301,-0.484913,0.354028,-0.346522,-0.233198,-0.298364,-0.486784,-0.199777,-0.397390
0.700775,0.445330,1.015925,0.003015,-3.258168,1.524174,1.038103,-1.246933,0.839786,-1.877753,0.554362,0.610602,1.196601,-0.111011,-2.267451,-0.986684,0.489923
0.237005,-0.200703,-0.504224,-0.246100,0.612873,-0.768533,-0.906472,-1.457832,-1.267597,-0.565860,-0.107688,2.128752,2.665278,-0.478363,0.344246,0.365300,0.438243
0.685220,-0.199659,-1.327410,-0.805808,1.583845,0.585202,-0.702165,2.922114,0.569359,0.609635,-0.040178,-1.545677,2.444896,0.162141,-1.553213,-1.081730,0.923435
-1.659326,-0.893898,0.568180,0.343362,1.464803,-1.242245,-0.629888,0.614177,0.554223,0.328675,-0.851637,1.635253,2.546380,0.403060,-1.236923,-0.818107,-0.665385
-1.044849,0.032033,-0.144809,0.013043,0.859612,-0.824789,-2.425492,0.775257,-0.059788,1.657360,2.364633,-0.323615,0.035187,-1.328767,0.412161,0.850151,0.037473
-0.167609,-0.153985,-0.174535,-0.095772,-0.123141,-0.071638,-0.094617,-0.549309,0.124271,-0.140565,-0.124931,0.349482,0.143663,-0.533146,0.199905,0.504290,-0.429601
1.852377,0.341270,-0.146527,-0.166093,-1.194999,-0.726164,0.418205,-0.405092,-0.524977,-0.854166,0.550966,1.849212,3.299831,0.012336,-2.536138,0.469206,-0.547896
