-0.065140,-0.138681,0.041305,-0.247169,-0.085021,-0.317249,-0.086056,0.123550,-0.460103,-0.039476,-0.441111,0.110599,-0.134175,0.043146,0.144564,-0.164105,-0.131965,-0.158445,0.001815,0.165349,0.258373,0.333487,0.014100,-0.457560,0.191333,-0.202493,0.094373,0.235315,0.385623,-0.102161,-0.107022,-0.287295,0.340386,0.105828,-0.201512,0.059775,-0.005766,0.191089,0.032320,-0.266122,-0.188402,0.090296,0.150504,-0.100408,-0.025168,-0.095253,-0.012527,-0.072980,-0.113171,-0.245965,-0.223316,-0.033611,0.195503,-0.435557,0.282333,-0.231458,-0.128855,0.022799,-0.408283,-0.082969,0.100216,-0.192961,-0.144647,-0.079589,0.260444,-0.022914,-0.062386,-0.244394,0.026713,-0.121735,-0.429621,-0.100720,0.012072,0.089959,-0.065773,-0.172064,-0.214174,-0.086797,-0.086032,0.229767,0.238547,0.116062,0.338858,-0.310199,-0.297082,-0.092145,-0.002966,-0.086978,-0.075622,0.120532,-0.266025,0.112366,0.171220,-0.146002,0.033006,0.066066,0.043906,-0.035316,0.141463,0.196464,-0.216068,0.012565,-0.069394,0.245118,0.027284,-0.232602,-0.029458,-0.086990,-0.294909,-0.258403,0.066132,-0.104593,-0.372640,-0.277295,-0.015459,-0.016153,0.007873,0.020969,-0.251374,0.300846,0.026529,0.025250,-0.105548,0.324791,-0.187521,-0.097683,0.304966,-0.088752,0.265448,-0.421579,-0.049528,0.011329,0.230166,-0.054356,-0.308028,0.111041,0.005694,-0.078055,-0.300456,-0.291278,-0.173583,-0.046567,-0.099661,0.000391,0.211335,-0.072624,-0.152638,-0.216380,-0.131757,-0.353788,-0.223108,-0.248431,0.250370,-0.276735,0.088702,-0.087492,-0.256631,0.058525,-0.039454,-0.129059,-0.010265,-0.232811,0.391721,0.308233,-0.250158,-0.079985,-0.079447,-0.494246,-0.006080,-0.213457,-0.355327,0.124041,0.097899,-0.351927,0.073088,0.280374,0.130547,-0.023216,-0.066107,0.081296,0.346008,-0.317268,0.149149,-0.059659,-0.101212,-0.071519,0.274657,-0.222566,0.152630,-0.183583,0.030640,0.319158,0.049258,-0.057785,-0.007313,-0.121735,0.090407,-0.001002,-0.001506,0.141155,-0.208736,0.028432,0.035754,0.091294,-0.295462,0.093027,-0.043562,-0.169362,0.059883,0.121441,0.086875,0.011948,-0.325192,-0.128224,-0.289980,-0.235902,0.100060,0.065553,0.127743,0.081836,0.010995,-0.156520,-0.097339,-0.523985,0.025157,-0.061630,0.075968,0.022796,-0.150216,0.026917,0.146959,0.117791,0.028263,-0.192222,-0.111272,-0.028575,-0.144375,-0.004066,-0.176912,-0.080719,0.034567,-0.144252,-0.042168,0.065921,-0.140500,-0.132015,-0.043151,-0.116119,0.066896,-0.052530,-0.328169,-0.223752,0.070919,-0.041599,-0.008063,-0.302952,-0.094232
0.084195,0.041285,0.140250,0.015395,-0.184418,-0.323742,-0.109949,0.160378,-0.047312,-0.070757,0.055634,0.072708,0.147567,-0.116330,0.084724,0.135226,-0.337051,-0.191612,-0.106608,-0.147337,-0.212996,0.006619,0.060912,0.353680,-0.094338,-0.218416,-0.033918,0.185927,0.088848,0.189856,-0.196966,-0.027978,-0.445751,0.007974,0.231571,-0.401318,-0.280935,0.026697,0.139514,-0.094409,0.085727,-0.351740,0.061001,-0.027299,-0.096268,-0.085664,-0.149840,-0.075666,-0.126532,0.084606,-0.335857,-0.122909,-0.387325,0.295069,-0.314703,0.135488,0.243819,-0.069218,-0.008276,0.312470,-0.356518,-0.076038,0.011296,-0.134092,-0.209679,0.088164,0.114241,-0.155440,0.022429,-0.160052,0.113657,-0.165502,-0.039513,-0.004269,0.246332,-0.172619,-0.150418,-0.374630,0.286420,-0.186895,0.026039,0.150326,-0.047636,0.275813,-0.097224,0.187581,-0.003185,-0.121823,-0.297468,-0.222644,-0.424523,-0.132859,-0.214595,0.023449,0.235824,-0.124468,-0.134687,-0.124520,-0.149757,0.291095,0.169954,0.135395,-0.213056,-0.207489,-0.225786,0.144761,-0.036184,0.159209,0.052396,-0.066925,0.047378,-0.084209,-0.072174,-0.374817,-0.006185,-0.029636,-0.219509,-0.310934,0.192699,0.006481,0.042633,-0.069055,-0.129442,0.007615,-0.226806,-0.109548,-0.276612,-0.085033,-0.208986,-0.495094,-0.182881,-0.118063,-0.078437,-0.047759,-0.069628,-0.079527,-0.008502,-0.090298,0.287837,0.089627,0.095070,-0.008570,0.038086,-0.001081,0.000095,-0.082033,0.123351,-0.070485,0.068958,-0.104938,0.009515,-0.200343,-0.028194,0.295682,0.172262,-0.302093,0.136984,0.094767,0.124211,-0.240122,-0.078501,-0.029920,-0.230438,0.153652,0.110732,-0.095088,-0.087982,0.082231,0.114115,0.301592,-0.086694,0.175651,-0.191281,0.148213,0.221459,-0.301686,0.049680,-0.041876,-0.115711,0.036744,-0.344236,-0.097103,-0.024438,-0.077126,-0.122699,0.024441,0.104253,-0.235415,-0.218064,-0.206421,-0.175680,-0.301917,-0.269366,-0.031053,-0.004398,-0.341600,-0.173490,-0.175039,0.008226,0.028097,0.061656,-0.160989,-0.382544,0.036350,0.230799,-0.266320,-0.180357,-0.189617,-0.307089,-0.358912,-0.099290,-0.004493,0.095134,0.193421,-0.014572,0.315409,0.085296,0.116985,-0.040795,0.177267,0.016622,-0.208127,0.294317,-0.012337,-0.121052,-0.246351,0.089646,-0.012563,-0.124873,0.116566,-0.359350,-0.068032,0.047575,-0.071354,-0.079833,-0.236412,-0.102406,-0.360751,0.098862,-0.283216,-0.238076,0.046812,0.072118,0.002402,-0.097647,-0.067584,-0.232093,0.216856,-0.008483,-0.038083,0.274832,-0.104790,-0.079458,-0.146882,0.027080,0.000825,-0.115475
-0.115843,-0.027782,-0.060082,-0.041544,0.010749,0.155493,-0.106204,-0.421728,0.027788,-0.169125,0.058640,-0.246358,0.109317,-0.057318,-0.056537,0.323454,-0.185672,0.373199,0.339177,0.044945,0.068150,-0.047145,-0.091602,-0.153483,-0.025308,0.060454,-0.130746,-0.125238,-0.442663,-0.259366,-0.226589,-0.030516,0.297411,-0.201610,0.238727,0.032302,0.122500,-0.173387,-0.213830,-0.376437,0.140430,0.119040,-0.244550,-0.504231,-0.061833,0.029033,-0.143938,-0.021832,0.224815,-0.148181,0.179811,-0.153552,0.110627,-0.126380,-0.364673,-0.139344,-0.290732,0.164195,0.397651,-0.379613,0.081672,-0.052952,-0.208259,-0.016957,-0.085044,0.174354,-0.408708,-0.031271,-0.238607,0.231940,0.090808,0.011933,0.078767,-0.021078,-0.097214,-0.069196,0.165507,0.144990,-0.257139,-0.257514,0.077264,0.174676,0.134091,0.221219,-0.090545,-0.178485,-0.002854,-0.107172,-0.092634,-0.118107,-0.061312,-0.424551,-0.178417,0.040522,-0.192531,-0.236541,0.050763,0.177096,-0.067831,-0.199981,-0.182367,0.013032,-0.031544,0.120317,-0.022613,-0.002252,-0.050412,-0.267254,-0.198306,0.078200,-0.060812,-0.043297,-0.003260,0.232436,-0.474299,-0.173570,-0.113129,0.061423,0.159147,-0.369747,-0.145953,-0.201091,0.007054,-0.263475,-0.137412,-0.100853,-0.204995,-0.051613,0.048171,-0.087696,-0.202033,-0.103211,0.132804,-0.076004,0.051978,-0.251668,-0.048131,-0.061344,-0.019655,0.222454,-0.274602,-0.082326,-0.286459,-0.003556,-0.345301,-0.228285,-0.116912,0.486216,-0.037232,0.161321,-0.107643,0.171144,-0.067064,-0.418572,-0.183238,-0.215807,-0.356975,0.114119,-0.170640,-0.279402,0.042083,-0.076520,-0.292884,-0.152402,-0.228365,-0.076411,-0.116640,-0.054919,-0.274413,-0.119375,-0.175558,-0.402498,-0.307940,-0.064669,-0.350749,-0.054624,-0.091672,0.007010,-0.048937,-0.543423,0.005329,0.270883,-0.341315,-0.133182,-0.179203,-0.321339,-0.229225,0.095298,0.128688,-0.051161,0.467175,0.104925,0.059216,-0.034854,-0.013174,0.133361,0.168920,0.140544,0.002652,-0.157849,0.155917,-0.136277,0.134586,0.047901,-0.110629,-0.081190,-0.095554,0.204469,0.189139,-0.002123,0.070956,-0.023710,-0.130020,-0.199154,-0.093503,-0.119485,0.057791,-0.262826,-0.204416,-0.035630,0.069007,0.146250,-0.015425,0.063168,0.218300,-0.110557,-0.226372,-0.007108,-0.024510,-0.104643,0.183362,0.047816,-0.065151,-0.076538,0.061529,0.219186,0.154916,0.112478,0.189581,0.270134,-0.162967,-0.001846,-0.141950,-0.228505,-0.083771,-0.080441,0.189821,-0.030957,0.040262,0.102764,0.142988,-0.255186,0.251335,0.064066,-0.016684,0.242725,-0.099333
0.107061,0.132668,-0.188977,-0.307269,-0.130320,-0.163005,-0.087383,0.272132,0.116491,-0.152402,0.114613,0.046772,0.195904,0.061938,-0.186045,-0.296211,-0.237697,-0.264037,0.126153,-0.135733,0.024177,-0.209380,0.024112,0.485120,0.028365,-0.261052,-0.151931,0.046797,-0.099737,0.096399,-0.088789,0.159448,-0.463766,-0.041223,-0.112142,-0.400778,-0.359167,0.143483,0.042253,0.222163,0.219176,-0.130586,0.005354,-0.282190,-0.235690,-0.011533,-0.202161,-0.039719,-0.049759,0.075316,0.049222,-0.002174,-0.342237,0.264013,-0.096033,0.268865,-0.040464,-0.321161,0.108886,-0.032627,-0.310912,-0.131940,0.137555,-0.147964,0.001931,-0.062388,0.204941,0.019922,-0.000329,0.170595,0.384487,0.003495,-0.012342,-0.052543,-0.082242,-0.140511,-0.137830,-0.172788,0.212529,0.153618,-0.087320,-0.244898,-0.137466,0.195745,-0.039138,0.375375,0.026033,-0.092462,-0.221702,-0.101201,0.355245,-0.128145,-0.177704,-0.027640,-0.139001,0.043366,-0.141239,-0.111524,0.305766,0.034204,0.110234,0.178253,0.031331,-0.144020,-0.313597,-0.117625,-0.041347,0.009256,0.080521,-0.078812,-0.161298,-0.017881,-0.062860,-0.294066,-0.065296,-0.014477,-0.162058,-0.271887,-0.126893,-0.071159,0.093191,-0.012035,-0.107974,-0.047732,-0.139763,-0.076486,-0.331162,-0.054010,-0.265371,0.338747,-0.151603,0.027848,-0.457688,-0.410243,0.257199,-0.025304,-0.353518,-0.030033,-0.040992,-0.141041,0.252376,-0.003993,0.001688,-0.003528,0.065782,0.060482,0.259088,-0.336683,-0.009017,-0.117073,0.151080,-0.295881,-0.063501,0.284951,0.102056,0.094085,0.229305,0.160818,-0.133452,0.042217,0.070591,0.029568,-0.302833,0.003449,0.149388,-0.086359,-0.065774,0.222226,0.088865,0.193786,0.325025,-0.002197,-0.270873,0.289336,0.315553,-0.396683,-0.129502,0.004508,-0.112889,-0.368596,-0.197143,0.267422,-0.238541,-0.000007,-0.240948,-0.360782,-0.128974,-0.176566,0.093798,-0.216739,-0.291602,0.022592,-0.033414,0.111354,0.028669,-0.133304,-0.132494,-0.351945,0.052133,0.007670,-0.006270,-0.024470,-0.178169,-0.038544,0.266682,-0.110188,-0.099139,0.068861,-0.117371,-0.321233,-0.161186,-0.006563,0.151240,0.226990,-0.230431,-0.009204,0.005577,0.018829,0.143508,-0.190080,0.127694,-0.066483,-0.100612,0.137176,-0.176356,-0.168496,0.007923,-0.020855,-0.355809,0.060806,-0.190956,-0.073939,-0.041294,-0.188290,-0.065294,-0.208062,-0.033899,-0.250877,0.123873,-0.072443,-0.234485,0.131925,-0.012413,-0.147308,-0.065330,-0.047348,-0.233812,-0.026763,0.095292,-0.148807,0.068350,0.294359,-0.302384,0.085280,-0.005196,0.044981,-0.080107
0.209392,-0.136575,-0.110407,0.084464,-0.073581,0.174312,-0.093257,-0.172938,0.083430,-0.178361,-0.055688,-0.158789,0.223626,-0.063188,0.098957,0.231305,0.195971,-0.037403,-0.249551,0.151004,-0.216171,-0.191513,0.067765,-0.174799,0.189637,-0.253467,0.063212,-0.043201,-0.040161,-0.103599,-0.126885,-0.064120,-0.002779,-0.329727,0.187614,-0.068260,-0.053368,-0.209913,0.058381,-0.306125,0.116921,0.047153,-0.098720,-0.029110,-0.142486,-0.146843,-0.028225,-0.046896,-0.005162,0.143347,0.022539,-0.154972,0.001297,-0.069747,-0.353766,0.288398,-0.277440,-0.200647,0.166896,-0.102452,0.035067,-0.075791,-0.020716,0.104055,-0.197005,0.134012,-0.231764,-0.008047,-0.079109,0.032046,-0.058992,0.032142,-0.029808,-0.095013,0.122764,-0.104952,-0.173942,0.008593,0.173202,-0.283598,-0.064279,0.005785,0.076920,0.290988,-0.083969,0.175769,-0.002669,-0.073925,-0.198815,-0.073287,-0.307370,-0.202034,0.079818,0.072495,-0.061525,-0.158780,0.115388,0.035240,-0.317189,0.139022,-0.136288,0.217775,-0.212982,-0.184867,-0.135641,0.185659,-0.021910,0.375934,0.012763,-0.175333,-0.209542,-0.067571,-0.011724,0.125876,-0.027349,-0.322690,0.154870,-0.051380,0.101338,-0.004108,-0.280222,-0.439965,0.089007,-0.143430,-0.069364,-0.069775,-0.260470,-0.120688,0.177875,-0.539590,-0.123617,-0.199014,0.011491,-0.003822,0.072479,0.045643,0.151627,-0.024470,-0.242074,0.132027,-0.279253,-0.065519,-0.251887,0.002870,-0.227459,-0.133170,-0.041223,0.249926,0.067118,-0.105266,-0.056051,-0.038804,-0.223110,-0.127431,0.105239,-0.234791,-0.123057,0.137943,0.048702,-0.062428,-0.009128,0.151679,-0.038284,-0.205027,0.165643,-0.091254,-0.032751,0.156375,-0.099129,-0.074358,-0.148397,-0.046512,-0.147672,-0.125542,-0.164818,-0.051421,-0.329147,0.042717,-0.042409,0.062977,-0.327764,-0.132812,-0.186517,-0.041490,-0.186486,0.226625,0.064595,-0.122294,-0.102164,-0.109303,0.121308,0.216767,-0.094768,-0.177114,-0.017728,0.009826,-0.092937,-0.297178,0.021178,0.139073,0.143019,-0.149731,-0.051439,0.212082,-0.167562,-0.215572,-0.035837,-0.001536,-0.292419,0.200975,0.147633,-0.010600,0.218278,-0.088575,-0.178243,0.306232,0.199707,-0.239237,0.127506,0.019530,0.049921,-0.208543,0.130726,-0.065304,0.041596,-0.359318,0.145241,-0.019174,-0.139279,0.280243,-0.182863,0.024941,-0.114188,0.110698,0.087369,-0.168969,-0.165741,0.019492,0.110502,0.227870,-0.103832,0.100647,-0.047565,0.052820,-0.126096,0.108726,-0.022296,0.250021,0.107126,-0.147746,0.151449,-0.205646,-0.103691,-0.010839,-0.004717,-0.036672,-0.078127
0.357739,-0.107317,-0.134721,0.020403,-0.083038,0.210228,-0.089631,-0.381926,0.136918,-0.095650,0.110352,-0.094096,-0.194465,-0.121068,-0.070183,-0.053970,0.156196,-0.124840,-0.293637,-0.080139,-0.159267,-0.157058,-0.116833,-0.178969,0.285279,-0.323504,-0.079936,0.045843,-0.089660,0.017460,-0.051340,0.164339,-0.186320,-0.140894,0.158077,-0.311585,0.027874,-0.223732,-0.077290,-0.143981,-0.339683,0.027952,-0.267694,0.094903,-0.105137,-0.049912,0.003990,-0.000954,0.099041,0.074240,-0.036765,-0.012130,-0.362948,-0.378062,-0.322449,-0.144447,0.351961,-0.212788,-0.231300,-0.323109,0.022279,-0.059594,0.084731,0.171373,-0.108941,-0.097849,-0.075301,0.441942,-0.027060,0.075971,0.134333,-0.321855,-0.082201,-0.161251,-0.026743,-0.069312,0.145442,0.078761,-0.169288,-0.288747,-0.070592,-0.167215,-0.044115,0.281319,-0.033419,-0.040540,-0.008972,-0.051614,0.139683,0.233132,-0.260887,0.070176,0.059511,-0.132824,-0.328623,0.010625,0.100078,-0.100493,-0.172367,-0.010927,0.091145,-0.209491,-0.345747,-0.081642,-0.037569,0.283747,-0.056966,-0.074047,0.041714,-0.229112,0.087273,-0.068186,-0.016297,0.158518,-0.105095,-0.160395,-0.269264,0.006568,0.036893,-0.000619,-0.213894,-0.106640,-0.114233,0.065319,0.111657,-0.044271,-0.135003,-0.041883,0.070516,-0.337228,0.217368,-0.183882,-0.248140,-0.077815,-0.288776,-0.242692,0.190567,0.076017,0.057614,0.103425,-0.132874,-0.088695,0.216535,0.002415,0.140563,-0.059633,-0.155502,-0.024378,-0.146687,-0.118947,0.377110,0.153670,-0.217778,0.177017,-0.058143,0.137104,0.113146,-0.041405,0.076031,0.183158,-0.099260,0.213455,-0.221270,-0.115067,0.184853,-0.062575,-0.016284,0.154058,-0.014851,-0.156139,-0.054119,0.185024,-0.254693,0.225855,-0.021067,0.032364,-0.200200,0.051651,0.005763,-0.008204,-0.289572,0.138322,0.231978,-0.221479,-0.152102,0.234938,-0.272857,0.098932,-0.395016,-0.175480,-0.024233,-0.334438,0.123406,-0.271612,0.008152,-0.168017,-0.035686,0.055583,-0.036790,-0.029763,-0.134201,-0.293314,0.067175,0.157452,-0.225592,-0.098206,-0.183437,-0.024890,-0.352802,0.310384,0.079262,0.057479,0.155464,-0.148991,0.154248,0.282011,-0.031197,0.145784,0.084926,-0.154602,-0.168366,0.001547,-0.241071,-0.026637,-0.132544,-0.038592,0.042436,-0.008645,0.083658,0.027144,0.138592,-0.057736,-0.420223,0.056319,-0.055421,-0.321684,-0.173563,-0.224056,0.294568,0.090848,0.105217,-0.046451,0.048305,0.090925,-0.012174,0.008012,0.011521,-0.031194,-0.054702,0.001450,-0.015307,0.003829,-0.084233,0.000687,-0.024054,-0.388185,-0.055408
-0.177153,0.111909,-0.086549,0.283275,-0.059555,-0.156394,-0.070682,-0.057981,0.084902,-0.218841,-0.027015,-0.037127,0.159538,-0.069068,0.072868,0.301442,-0.307271,0.255946,0.337777,-0.007521,-0.059694,-0.039157,-0.131677,-0.129309,-0.110516,-0.116450,0.000030,0.081294,-0.241992,-0.049301,-0.279188,-0.265515,0.129725,-0.022443,0.150356,-0.022899,-0.017603,-0.112417,-0.097041,-0.260402,0.061668,-0.314996,-0.043495,-0.322961,0.200016,-0.078066,-0.166124,-0.027101,0.034264,-0.097763,-0.199564,-0.161844,-0.067762,0.191222,-0.339489,0.065651,-0.326676,0.120676,0.338101,0.058931,0.038068,0.047349,-0.135715,0.171149,-0.308206,0.143487,-0.073062,-0.214690,0.112409,0.008011,-0.267524,-0.187926,0.025529,-0.090881,-0.075252,-0.142904,-0.097996,-0.210284,-0.108153,-0.307066,-0.032675,0.183005,0.017788,0.035467,-0.050854,0.013575,-0.002053,-0.086144,-0.335133,-0.253782,-0.316973,-0.327657,-0.248436,0.171902,0.169473,0.002905,0.019717,0.252251,-0.221844,0.021324,-0.096760,0.010703,-0.059387,-0.171162,0.032793,0.062334,-0.030594,0.053164,-0.063317,-0.067048,-0.045248,-0.033078,-0.053005,-0.042874,-0.159532,-0.053171,-0.107147,0.020748,0.065576,-0.008866,-0.015748,-0.276151,-0.138105,-0.318977,-0.184221,-0.068237,0.075936,-0.017366,-0.115559,-0.437621,-0.215994,-0.120654,0.252924,0.035690,0.239241,0.049092,0.047423,-0.332768,0.107864,-0.022270,-0.003328,-0.077760,-0.165193,-0.002567,-0.387931,-0.428139,0.024876,0.191888,0.139143,-0.157696,-0.143987,-0.227443,0.025116,-0.148466,-0.029512,-0.167291,-0.249755,0.149104,0.160190,-0.428471,-0.047539,-0.160077,-0.161442,0.110498,-0.188758,-0.053450,-0.013843,-0.196446,-0.160185,-0.107999,-0.177609,-0.188890,-0.308986,-0.090599,-0.079499,-0.106102,0.185964,-0.032732,-0.010914,-0.298387,-0.143837,-0.159325,-0.329715,-0.192483,-0.057501,-0.066735,0.175717,-0.332715,0.162959,-0.166084,0.364158,0.113573,-0.298065,0.086369,-0.013631,-0.084879,-0.123991,0.067262,-0.054837,0.099490,0.174712,0.078658,-0.072107,0.161180,0.383031,-0.297833,0.076851,0.231203,0.009367,0.047755,0.134038,-0.019749,0.014780,-0.231094,0.025391,-0.105944,-0.078410,0.051555,-0.147050,0.052897,0.127832,-0.061918,0.081703,-0.039929,0.176164,-0.120264,-0.234963,-0.014162,-0.033609,-0.062281,0.061962,0.023163,0.070124,-0.096275,0.106993,0.227058,-0.000595,-0.071506,-0.004159,-0.204110,-0.195720,0.027920,-0.128908,-0.282699,-0.064193,0.107794,-0.014494,0.066211,0.239609,0.137601,0.322475,-0.095597,0.000924,0.031727,-0.013350,0.187764,-0.081708
-0.167791,0.113588,0.048516,-0.130354,-0.023712,-0.135222,-0.052710,0.019366,0.129145,-0.061086,0.018158,-0.002148,0.109121,0.082029,0.036133,-0.056481,-0.049182,0.041253,0.054291,0.098225,0.083906,-0.066538,0.035582,0.198275,0.042714,-0.177366,-0.150681,-0.099591,0.018315,-0.076390,0.100740,0.104424,-0.283977,0.046914,-0.013647,-0.141812,0.051419,-0.117660,-0.029899,0.178185,-0.193257,-0.187784,-0.107908,-0.227062,-0.212515,0.076002,-0.100733,-0.035566,0.167694,-0.137742,-0.004934,0.039877,0.024713,-0.179869,0.184893,-0.011783,-0.023846,-0.184798,-0.181538,0.073307,0.078117,-0.010924,-0.010677,0.012704,0.119164,-0.113758,-0.016717,0.041065,-0.008602,-0.076841,-0.199173,0.016628,0.057851,-0.031544,-0.008887,0.006503,0.205030,-0.109349,-0.252862,0.104641,-0.127400,0.089764,0.148029,-0.058613,0.004126,-0.056032,0.005433,-0.051852,-0.134333,-0.105139,0.231766,-0.082477,-0.069069,0.048910,-0.151690,0.036982,-0.102216,0.026977,0.079850,-0.162130,-0.264568,0.005473,-0.066277,0.114386,0.109351,-0.156276,-0.005922,0.023978,-0.026116,-0.153601,0.028564,-0.042876,0.075971,-0.197190,-0.036142,-0.006304,-0.025150,0.006238,-0.040857,-0.034375,0.039180,-0.007884,-0.129942,-0.250995,-0.141218,-0.068942,0.079410,-0.043880,-0.125726,0.209139,-0.139721,-0.183390,-0.043791,-0.133016,-0.170373,0.002989,-0.120554,-0.031727,-0.134848,-0.157803,0.062198,0.006886,-0.081482,-0.000398,-0.004829,-0.133479,0.021716,-0.000146,0.026150,-0.167484,0.190447,0.074922,-0.188200,-0.095470,0.055091,-0.122357,-0.175974,0.099602,-0.026086,-0.106345,-0.028214,-0.143111,-0.128939,-0.129422,0.040658,-0.076542,-0.158259,0.222178,-0.164801,0.033631,-0.113505,0.137546,-0.140009,-0.143110,0.211450,-0.164524,-0.202842,-0.014432,-0.051312,-0.094839,0.196080,-0.134166,-0.005115,-0.086933,-0.019207,-0.157195,0.216769,-0.229069,-0.057330,-0.042513,0.085783,-0.018088,-0.158307,-0.027927,0.000078,-0.067810,0.278370,-0.295157,-0.013745,-0.108985,-0.110526,-0.017009,-0.135776,0.042999,-0.046458,0.020846,0.076336,-0.016054,0.149423,0.002857,-0.119353,-0.007113,-0.039911,0.017300,-0.013514,-0.086788,-0.073890,-0.008427,-0.001029,0.098312,-0.102434,-0.209073,-0.105723,-0.000090,0.127344,-0.063301,-0.172648,-0.015741,-0.044641,-0.077774,-0.026854,-0.056776,-0.119512,-0.153623,-0.038204,-0.167935,0.011187,-0.136915,-0.065236,0.153114,0.092580,-0.109374,-0.043841,0.116421,-0.033774,-0.024983,-0.204802,-0.003627,-0.146702,-0.109243,-0.078592,-0.047809,-0.065909,0.104188,0.000250,0.023343,-0.054244
-0.019392,-0.032067,-0.031863,-0.082783,-0.153443,-0.346990,-0.083820,-0.241585,-0.108806,0.170416,0.157395,-0.056512,0.079302,-0.046585,-0.154510,-0.294836,-0.051019,0.178014,-0.064073,-0.434538,0.148090,-0.080191,0.002357,-0.351830,0.120125,-0.098033,-0.063940,0.253081,0.136981,-0.086516,-0.229349,-0.027592,-0.134392,-0.152812,0.061391,-0.122605,-0.250700,-0.053840,0.256457,-0.217662,0.213331,0.076538,0.187181,0.003632,-0.224677,-0.138902,0.071294,0.011745,0.418754,-0.156760,-0.090097,-0.454413,0.184198,0.460797,-0.116201,-0.247761,0.365262,0.099811,0.312011,-0.260123,-0.019659,0.047502,-0.122585,-0.351834,0.085242,0.294017,-0.014565,-0.166287,0.093928,-0.147800,0.049377,-0.231881,0.024761,-0.020614,0.104791,-0.079713,-0.208035,0.016980,-0.158833,0.296093,0.149606,0.072093,0.278688,0.211994,-0.145747,-0.298254,0.000207,-0.099130,0.146872,-0.274310,-0.089328,-0.209238,-0.070090,0.141012,-0.263443,-0.302469,-0.225534,-0.309124,-0.325596,0.027924,0.162748,-0.046065,-0.075935,-0.291859,0.006898,-0.370980,-0.052574,-0.090781,-0.023490,-0.300426,0.004639,-0.080806,-0.149428,0.122923,0.021534,-0.209888,-0.216229,-0.112631,-0.259171,0.242689,-0.124509,0.178326,-0.062395,0.213392,-0.148321,-0.104846,-0.301849,-0.024415,-0.251143,-0.469429,-0.335892,-0.119866,-0.121179,0.085615,0.153883,-0.101415,-0.122590,-0.057991,0.464005,0.173823,-0.348583,0.157617,-0.080876,0.000436,-0.086912,-0.090036,-0.151631,0.027836,0.168827,-0.108443,-0.135243,0.261128,0.128982,-0.369955,-0.127370,0.066702,-0.242369,0.091699,-0.155843,0.020873,-0.011004,0.322950,-0.220058,-0.279838,-0.176701,-0.058858,-0.065725,-0.116268,0.188463,-0.302750,-0.011552,-0.139096,0.159144,0.127395,-0.070756,-0.112154,-0.073136,-0.093232,-0.060355,-0.064267,-0.244490,0.273763,-0.382246,-0.291143,-0.131906,0.320110,0.021736,0.198413,-0.404706,0.020408,0.324160,0.025961,0.059484,-0.263933,-0.014203,0.125168,-0.067966,-0.333885,-0.001372,0.112168,0.029467,-0.117668,0.082941,-0.047076,-0.064764,-0.333483,-0.041764,0.186178,0.121439,-0.408125,0.254309,-0.015028,-0.047996,-0.032032,-0.389002,0.071289,-0.111203,-0.228441,-0.090339,0.290717,-0.267489,-0.195483,0.325611,-0.143563,0.180998,-0.061376,-0.145982,-0.013208,0.290972,-0.011912,-0.087698,-0.076277,0.122767,-0.200639,-0.153987,-0.161209,0.100624,-0.358189,0.040743,0.020679,-0.045753,0.064216,0.064673,-0.337436,-0.040363,-0.168665,0.296738,-0.167172,0.060145,0.156548,0.132813,0.115377,0.450854,-0.122340,0.010046,-0.085879,-0.094927
0.094419,0.015500,-0.118666,-0.283264,-0.078558,-0.065449,-0.106192,-0.305043,-0.053927,-0.258653,-0.118586,-0.130045,-0.097021,0.094524,-0.086194,-0.390126,-0.172887,-0.021584,0.273140,-0.057852,0.295852,-0.114531,-0.121954,-0.213004,0.309991,-0.303089,0.026289,0.020044,-0.255115,-0.067244,0.023076,-0.245784,-0.143662,-0.039154,-0.061605,-0.380229,0.014355,-0.209677,-0.169931,-0.103701,0.039295,0.115856,0.084732,-0.295259,-0.221111,0.065582,0.227994,-0.107428,0.064611,-0.380845,0.208923,0.219305,-0.214367,-0.476386,-0.295825,0.033304,0.035018,-0.145579,-0.015043,-0.277297,0.040347,-0.280337,-0.008671,0.058890,0.174745,-0.155848,0.058706,0.120110,-0.061528,0.177169,0.270300,-0.106176,-0.066019,0.145896,-0.098839,-0.007724,0.022552,0.033057,0.098288,0.200045,0.206626,0.106369,0.225212,0.208465,-0.072796,-0.287632,-0.000868,-0.115812,0.056622,0.219427,0.234936,-0.079148,0.102265,-0.270556,-0.336040,-0.079088,0.289790,0.237821,-0.074721,-0.067538,-0.065073,-0.200743,0.061650,0.143889,-0.039985,-0.049874,-0.021830,0.184642,0.043038,-0.168126,0.296888,-0.082834,-0.156110,0.095707,-0.281928,0.082953,-0.121593,-0.132182,-0.290926,0.003237,0.028678,-0.045562,0.208676,0.222745,-0.273400,-0.156014,0.208204,-0.110552,-0.055472,0.372129,0.015926,0.064036,-0.368838,-0.135872,-0.355066,-0.228825,-0.154799,-0.160330,0.026006,-0.206902,0.065177,0.259207,-0.097990,0.000953,-0.053280,0.045167,0.187823,-0.053151,-0.011344,0.161481,0.056212,-0.107399,-0.151818,-0.513059,-0.117664,0.205414,-0.287005,0.254514,-0.017929,0.229520,-0.039748,0.000031,-0.031996,0.303272,-0.131635,-0.114791,-0.106051,0.012803,-0.076027,-0.113261,-0.071636,-0.090050,-0.356772,-0.005243,-0.066006,-0.129983,-0.054113,0.008300,-0.085653,-0.308073,-0.123095,0.246990,-0.033335,-0.326567,-0.051709,-0.166100,0.134328,-0.032343,0.147452,0.040929,0.156778,0.271883,0.082392,-0.203492,0.009341,-0.178148,0.052923,-0.228417,-0.035510,-0.052830,-0.432602,-0.099374,0.033321,0.096978,-0.240466,-0.014363,-0.138176,-0.052525,0.044131,-0.027334,-0.099545,0.017819,0.039038,-0.081039,0.002012,0.025133,0.255536,0.056919,0.031023,-0.383656,-0.018155,-0.093138,-0.324254,-0.292171,0.120834,0.093700,-0.392966,-0.010098,0.056374,0.059016,0.271699,-0.053311,-0.356921,-0.343842,-0.080583,-0.035275,0.039885,-0.327274,-0.025072,0.034773,0.033289,0.158030,0.127131,-0.105968,-0.050161,0.095185,0.312763,-0.191140,0.077902,0.024995,-0.434086,0.083830,-0.085280,0.180296,-0.017035,-0.207849,-0.114756
-0.578999,0.040335,0.074584,0.314893,-0.039843,0.221903,-0.086184,-0.042035,-0.424059,0.006386,-0.145686,0.047405,-0.160558,-0.150045,-0.117163,0.163892,0.235128,-0.182853,0.061510,0.354852,-0.049075,-0.088125,-0.142874,-0.414832,-0.402537,-0.234516,-0.068544,0.055412,-0.226720,-0.117873,0.056658,0.141003,0.147764,-0.354759,0.208781,0.068225,0.217640,-0.379555,0.064184,-0.147091,-0.145483,-0.006892,0.223800,0.104460,-0.371366,-0.134587,-0.094098,-0.028777,-0.165604,0.106581,-0.042340,-0.217026,0.212712,-0.193037,0.081448,-0.071038,-0.318356,-0.080337,-0.197661,0.097841,0.123493,-0.127002,-0.050806,-0.043209,-0.027343,0.188092,-0.216925,0.006168,-0.226912,0.038185,-0.315083,-0.251040,0.149260,-0.180187,0.081188,-0.037284,-0.127450,0.057228,-0.173901,-0.067497,-0.279410,0.077692,0.270140,-0.326493,-0.025934,-0.197305,-0.005382,-0.084967,-0.084382,-0.029421,-0.056429,0.058759,0.244234,0.018579,0.492432,-0.096697,0.027269,-0.200309,-0.316461,0.121356,-0.187128,0.142298,-0.009773,-0.015938,0.293517,-0.004080,-0.071796,0.128782,0.181456,-0.010198,-0.383512,-0.047243,-0.106085,-0.181697,0.017207,-0.306061,-0.214904,0.056930,0.031744,-0.137606,-0.202201,-0.023321,0.078009,-0.004689,0.042180,-0.091350,-0.197564,-0.074559,0.133941,-0.000128,-0.258343,-0.044958,0.196171,-0.023270,0.025526,-0.138150,0.154174,-0.083155,-0.311957,-0.210769,-0.054472,-0.002825,-0.102649,0.001170,-0.044716,-0.220344,-0.184607,0.085866,0.292076,-0.121105,0.104751,-0.144771,-0.513053,-0.106394,-0.099109,-0.249102,-0.275915,-0.047315,-0.034035,-0.225608,-0.224480,-0.103705,0.284466,-0.063914,-0.073211,-0.037618,-0.056214,0.092533,-0.323783,0.065433,-0.427235,0.236193,-0.205311,-0.338965,-0.178763,0.111441,-0.259179,0.007318,-0.017679,0.261602,0.133678,-0.189042,-0.334005,-0.047168,-0.305326,0.053613,-0.009300,0.255323,0.078356,-0.052736,0.017140,0.282634,-0.184555,-0.111310,-0.009621,-0.045017,-0.080674,0.023985,-0.052795,-0.246980,0.185714,-0.253298,-0.110465,0.227540,-0.406099,-0.241984,-0.131077,-0.072048,0.197545,0.420795,0.320674,-0.013844,-0.157078,-0.221412,0.033244,0.075982,0.130290,-0.390444,-0.102685,0.028665,-0.103847,-0.203756,0.063930,-0.082707,-0.010278,0.309745,-0.234690,-0.034063,-0.317167,-0.067805,-0.212048,-0.082881,-0.025443,-0.006506,0.065771,0.276384,-0.134501,-0.091080,0.170287,0.172853,-0.059846,0.039590,-0.017841,0.197135,-0.087176,0.071131,0.114673,0.128280,0.191834,0.074155,0.255952,-0.249076,-0.229114,0.037685,-0.012942,0.083593,-0.093964
-0.307421,-0.080335,0.065951,-0.191518,-0.176355,-0.479288,-0.107777,0.254773,-0.344196,-0.064435,-0.264129,0.386553,0.297890,0.007162,-0.071140,0.099656,0.001670,0.094552,0.152143,-0.054641,0.209653,-0.317321,0.024484,-0.082326,0.025719,-0.133773,-0.003281,-0.194848,0.048018,-0.206619,0.012492,-0.074450,-0.054771,0.054373,-0.067606,-0.098551,-0.196633,0.340171,0.093356,0.209918,0.166729,0.060014,0.304830,-0.201698,-0.244466,0.121124,0.274570,-0.051453,0.018198,-0.195470,0.310958,-0.314145,0.282960,0.214052,0.197170,0.322360,-0.270360,0.071395,0.176642,-0.047666,-0.018188,-0.176938,-0.138139,-0.059954,0.188800,0.058595,0.054758,-0.152832,-0.056057,-0.034656,-0.320784,0.358371,-0.023357,-0.300339,0.014977,-0.054694,-0.410129,0.075244,-0.042843,0.449508,-0.281258,-0.265713,0.178693,-0.179774,-0.073220,-0.039645,0.002530,-0.100792,-0.080494,-0.181925,-0.019430,0.037809,0.127237,-0.054652,0.126935,-0.338550,-0.164010,0.039187,0.101922,-0.203345,-0.092397,0.116514,-0.020791,-0.225663,-0.048109,0.046172,-0.003857,0.025201,0.012815,0.000135,-0.114726,-0.069715,-0.075537,0.163641,-0.215521,-0.348920,-0.034796,-0.132848,-0.393769,-0.242128,-0.198371,-0.198324,0.143549,0.045072,-0.132246,-0.095531,0.089255,-0.141324,-0.194576,-0.706770,-0.158219,0.012673,-0.003025,-0.180890,0.153578,0.276214,-0.200591,-0.064704,0.036337,-0.310149,-0.137081,0.072114,-0.181526,-0.003340,-0.284702,0.125912,0.067900,-0.307712,0.230967,-0.323079,-0.094701,-0.229969,-0.119464,-0.114167,0.215754,-0.119689,-0.237518,0.004884,-0.244537,0.090895,0.029365,0.150998,0.435492,0.220484,-0.090568,-0.137070,-0.191766,0.059350,0.264851,-0.098638,-0.181722,-0.230999,0.073610,-0.355124,0.076860,-0.182173,0.106227,0.012578,-0.236517,-0.010875,-0.046642,-0.133574,-0.366347,-0.100560,-0.111983,-0.267688,0.196285,0.015074,0.323900,-0.099116,0.144961,0.327398,0.046331,0.081578,-0.013006,0.333108,-0.059199,-0.387197,0.027977,-0.113130,0.113725,-0.020989,-0.381254,-0.391479,0.090347,-0.138920,-0.082363,0.175852,-0.023354,0.127225,0.065799,-0.016617,-0.232971,-0.069002,-0.336862,-0.028109,-0.162332,-0.294942,-0.001940,0.057948,0.020936,-0.246846,0.195408,0.008377,0.124522,0.129643,-0.034382,-0.003443,-0.111760,-0.087053,0.111995,0.171171,0.015337,-0.194856,-0.040231,0.419791,0.063233,0.013151,-0.120187,-0.000907,0.007403,0.132018,-0.088169,-0.163841,-0.120421,0.105961,0.243213,-0.100016,0.101502,-0.051579,-0.203496,-0.247361,0.086208,-0.266888,0.026250,0.118003,-0.098323
-0.421158,0.312443,-0.063398,-0.307316,-0.006382,0.198883,-0.100543,-0.043728,-0.436067,-0.127158,-0.393163,0.219561,-0.146949,-0.041022,-0.046995,-0.153196,-0.105826,-0.324606,0.261964,0.031153,-0.086864,0.072656,-0.012332,-0.077457,-0.202963,0.113990,0.049711,-0.136403,-0.257067,0.295418,0.093420,0.316458,-0.287064,-0.203836,-0.068793,-0.116605,0.211076,-0.107258,-0.086396,-0.308683,-0.607398,-0.014718,-0.013041,-0.058321,-0.411218,0.156963,-0.021538,-0.064108,-0.078299,0.102413,-0.078309,-0.128240,-0.121839,-0.328079,0.070499,-0.033811,-0.230904,0.003132,-0.189963,0.199260,-0.181351,-0.293157,-0.300449,-0.057101,-0.299291,-0.233486,0.058691,-0.033558,-0.256747,-0.024327,0.440470,-0.108512,-0.051629,-0.161649,0.014052,-0.159471,-0.043904,-0.209729,0.385464,0.260224,0.014626,0.024404,-0.092469,0.002627,-0.059753,0.192675,0.000219,-0.107237,-0.156387,0.346759,0.348038,0.088560,0.037777,-0.142920,0.180631,0.248608,-0.132814,0.060326,0.271242,0.047913,-0.422382,0.132661,0.073712,0.369756,-0.136289,-0.159096,0.010889,0.133069,-0.054781,0.165810,-0.238954,-0.147280,-0.119366,-0.097333,-0.192196,-0.011526,-0.190775,-0.043651,-0.105026,-0.368138,-0.104746,0.019583,0.157876,0.229671,-0.240927,-0.104766,-0.056733,-0.093363,0.172445,-0.338092,0.233509,-0.038491,-0.071275,-0.087088,-0.345152,-0.378171,-0.025828,-0.200512,-0.205602,-0.211883,0.058864,-0.027376,-0.212937,0.000656,-0.046897,-0.268365,-0.141715,-0.174670,-0.057641,0.318055,0.076954,-0.305494,-0.148285,-0.373518,0.180178,-0.173932,0.120523,0.082622,-0.109412,0.118173,-0.053777,-0.252294,0.149837,0.072438,0.068073,-0.119585,-0.095496,0.306742,0.155628,0.206705,0.049922,0.368133,-0.415852,-0.138271,-0.119633,-0.160895,-0.103805,-0.004329,-0.074524,-0.335524,0.265305,0.252148,0.109787,0.049814,-0.123893,0.065767,-0.301827,0.096394,-0.180122,-0.015687,-0.159141,-0.023054,0.199750,0.057822,0.043681,-0.438800,-0.032479,-0.061527,-0.025272,-0.479658,-0.405137,-0.248449,-0.248947,-0.319778,-0.029642,0.248711,-0.151521,-0.342325,-0.016590,0.036761,-0.180006,0.035359,-0.192721,0.118032,-0.195807,-0.219965,0.159336,0.076175,-0.072035,-0.356380,-0.000657,0.153769,-0.297332,-0.077068,-0.350537,-0.010569,0.146348,0.056631,-0.360864,-0.063913,-0.059275,-0.047209,-0.262720,0.030247,-0.344676,-0.051347,-0.188150,0.082050,-0.046295,-0.063536,-0.201089,0.033876,0.064788,0.139300,-0.083146,-0.364635,-0.180906,0.070060,0.258893,-0.089048,-0.270620,0.055353,-0.132635,0.036799,-0.004129,0.111424,-0.106394
-0.118263,-0.119845,-0.425902,-0.102295,-0.191796,0.267414,-0.053601,0.138417,-0.297958,-0.051679,-0.081722,-0.035095,0.110982,0.088218,-0.259658,-0.428384,0.195090,-0.053277,0.151083,0.171032,-0.076433,0.015471,0.021892,-0.089702,-0.083099,0.064519,0.023915,-0.209138,-0.059437,-0.121209,-0.188905,-0.002168,-0.340715,0.008427,-0.233371,-0.110560,-0.012704,0.243508,-0.089391,0.293869,0.013996,0.131948,0.092619,0.017375,-0.207554,-0.016999,-0.216891,-0.038653,0.064318,0.088014,0.120263,0.129528,0.327875,-0.088609,0.183737,-0.216963,-0.317954,-0.242102,-0.128383,0.026802,-0.128734,0.030781,0.175380,0.072608,0.186592,-0.234550,-0.037271,0.004220,-0.247543,0.133154,0.073081,0.002570,0.032950,0.109752,-0.072055,-0.083187,0.179005,-0.075294,-0.470226,-0.080318,-0.120790,-0.047609,0.229045,-0.266879,0.003800,0.377884,-0.007246,-0.055645,0.413833,0.182314,0.505076,-0.108148,0.157220,-0.498102,-0.076300,0.162166,0.004919,-0.257612,0.110704,-0.199332,-0.169019,-0.009986,0.176173,0.265261,-0.188687,-0.217987,-0.079853,-0.213340,-0.052991,-0.254534,-0.036264,0.041347,-0.213135,-0.181170,0.030863,0.071506,0.006451,0.013837,-0.089158,-0.427960,0.008765,0.069318,-0.175147,-0.121598,0.101233,-0.063991,-0.028469,-0.096242,-0.230193,-0.628918,0.262170,0.129289,-0.293867,-0.105662,0.362906,0.079600,-0.051092,0.031399,-0.474581,-0.180298,0.229078,-0.227700,0.077562,-0.004829,-0.131646,-0.028889,-0.045384,-0.310896,-0.176905,-0.134432,0.082628,0.096923,0.038487,0.064300,-0.146561,0.110852,-0.268797,0.016192,-0.318325,0.122463,-0.005281,-0.083507,-0.235520,-0.083901,-0.140455,-0.059352,-0.081889,0.214514,0.046528,0.042026,0.216724,0.133119,0.297547,0.147256,0.204096,-0.347073,-0.350894,0.043839,-0.112973,-0.088232,0.196473,0.062142,-0.093251,0.105491,-0.249202,-0.536944,-0.327334,0.062169,0.059421,-0.104525,-0.155538,0.160023,0.130928,-0.107040,0.009231,0.161170,0.113109,-0.005256,-0.003232,-0.347853,-0.183173,-0.010627,0.146394,0.020368,-0.522802,0.353100,-0.077474,0.076731,0.249359,0.029628,-0.110314,0.038390,-0.203210,-0.085471,-0.082802,-0.234150,-0.286526,-0.154343,-0.070356,-0.101030,-0.061793,-0.177334,-0.277589,0.072122,-0.384453,0.284486,-0.075495,-0.055574,-0.034202,-0.219216,-0.119447,-0.082125,-0.011865,0.029895,-0.021209,0.217591,0.028224,-0.193192,0.106558,0.118384,0.140720,-0.092901,-0.127475,-0.205245,-0.118414,-0.223948,0.098399,-0.232959,0.089625,0.289142,-0.246066,-0.036982,-0.166177,0.292233,-0.011245,-0.335687,-0.057443
-0.036948,-0.004167,-0.322910,-0.210207,0.012340,-0.135641,-0.055437,-0.227400,0.164134,-0.251458,0.218187,-0.276507,0.102979,0.077018,0.011254,-0.255387,-0.229286,0.182846,0.311079,0.179019,0.081531,0.034702,-0.075103,0.288119,0.004593,-0.197214,-0.190062,0.069326,-0.327986,-0.112145,-0.137186,0.015209,-0.272262,0.007848,-0.010299,-0.118888,0.073830,-0.278509,-0.010134,-0.224108,0.031212,-0.241546,-0.180518,-0.433412,0.126127,-0.164232,-0.273619,0.043268,0.001835,0.072942,-0.044109,0.146909,-0.100032,-0.003317,0.165517,-0.123635,-0.443469,-0.339243,0.015352,-0.102887,-0.224621,-0.022993,-0.113010,0.142540,-0.064261,0.005937,-0.050881,-0.280229,-0.083381,0.082905,0.228148,-0.201466,-0.027258,0.160834,-0.118198,-0.047431,0.301213,-0.326866,-0.270599,-0.272543,0.362957,0.142089,-0.058088,0.066238,-0.037800,0.017910,-0.008273,-0.066307,-0.228556,-0.110652,0.397207,-0.336459,-0.251354,0.185940,-0.197044,0.075865,0.001360,0.291887,-0.127634,0.059926,-0.040274,-0.001536,-0.143665,0.117683,-0.066597,-0.270470,-0.098205,-0.207564,-0.239465,0.035652,-0.050132,0.026726,-0.075511,-0.361621,-0.248378,0.013012,-0.023253,0.011878,0.284238,-0.109530,0.075801,0.028840,-0.373843,-0.273044,-0.133224,-0.044855,0.033219,-0.034839,-0.043377,0.296526,-0.125126,-0.031730,0.072459,-0.088226,-0.076495,0.115213,0.038232,-0.349524,-0.080439,0.022621,0.318656,0.129520,-0.103658,-0.006563,-0.222069,-0.333039,0.248039,0.098757,-0.252219,-0.089512,0.022821,-0.271568,0.315991,-0.209582,-0.398840,-0.016699,-0.237857,0.297266,-0.173500,-0.327351,0.024089,-0.288061,-0.342926,-0.146578,0.003284,-0.044163,-0.036513,-0.147133,-0.266010,0.101077,-0.010151,-0.216617,-0.315304,0.243804,0.219706,-0.231204,-0.062431,-0.022504,0.057692,-0.398814,0.213990,0.119891,-0.029708,-0.159981,-0.046185,-0.295621,0.001499,-0.091336,0.080111,-0.023256,0.209541,-0.210996,-0.239637,-0.096236,-0.011460,-0.260636,-0.128615,0.050790,-0.030237,0.108252,-0.065286,0.012526,0.157265,0.221440,0.091967,0.123814,0.181634,-0.009749,0.196570,-0.166251,-0.211077,-0.009323,0.030726,-0.206111,0.228115,-0.380323,-0.133228,0.171769,-0.139279,-0.093624,0.250398,0.047638,-0.438008,0.099735,-0.005076,-0.241440,-0.085708,-0.021087,-0.094835,0.051982,0.227363,-0.106134,0.027527,-0.116037,0.114668,-0.011722,0.103506,0.046711,0.096486,-0.193465,-0.210360,-0.074797,-0.243228,-0.199121,0.055775,-0.090261,-0.201856,-0.037336,0.092400,0.202871,0.095514,0.031084,-0.244468,0.227202,-0.023732,0.022141,-0.061242
0.216512,-0.249925,-0.090581,-0.126592,-0.105369,-0.185324,-0.061556,0.064181,0.032609,0.013960,0.086787,-0.050737,0.061390,0.063846,0.023307,-0.380170,-0.235126,-0.092788,-0.398808,-0.136395,-0.109285,0.167964,0.045328,0.105548,0.170665,-0.230059,-0.079697,0.098628,0.460153,0.020519,-0.341927,-0.006845,-0.278662,0.031228,0.060007,-0.416005,-0.152515,-0.065051,-0.026566,0.128076,0.110903,-0.463935,-0.023784,0.099250,-0.076172,-0.093991,-0.222818,-0.105375,-0.086162,-0.248331,-0.287796,0.128338,-0.345012,0.091063,0.112109,-0.236755,0.289908,-0.252804,-0.016025,0.451287,-0.201556,0.126911,0.079209,0.089549,0.100019,-0.235633,0.013483,-0.236626,0.129146,-0.187836,-0.383408,-0.179831,-0.005102,-0.029488,-0.040483,-0.136660,0.160744,-0.253800,-0.246116,-0.156322,-0.053903,-0.128678,-0.171431,-0.039727,-0.076740,0.192614,0.010257,-0.079559,-0.168591,-0.215465,-0.223683,-0.184008,-0.336367,0.014148,-0.247660,0.155292,0.002839,-0.134790,-0.192541,-0.126134,0.076726,-0.107704,-0.242667,-0.037165,0.106411,-0.048573,0.069509,-0.065052,-0.086190,-0.262673,0.045580,-0.022010,-0.017939,-0.420975,0.141795,0.123525,-0.289140,-0.013704,-0.027000,0.030643,0.094651,0.056556,-0.522893,-0.143682,-0.074077,-0.067557,0.154756,-0.066978,-0.329773,-0.049373,-0.171477,-0.036943,-0.162027,-0.033742,0.093486,0.031146,-0.072023,0.087085,0.159481,-0.135447,0.130655,-0.118717,0.388697,-0.000359,0.180290,0.132417,-0.104960,-0.105318,-0.080437,-0.010933,0.220499,0.051361,0.129740,0.450501,-0.099779,-0.047156,0.345709,-0.049005,0.157900,0.007718,-0.033042,0.052066,-0.219357,-0.016323,-0.120141,-0.065767,-0.041307,-0.241638,0.061933,0.130679,0.189134,0.270196,0.341070,0.113249,0.293074,-0.188746,-0.114840,-0.021771,-0.127011,0.221967,0.133161,-0.285871,0.240206,-0.068805,-0.005023,-0.205732,-0.173938,-0.245199,-0.219830,-0.290093,-0.168835,-0.385894,-0.098848,-0.261552,-0.005637,0.048264,-0.067749,0.067961,0.031658,0.118385,-0.162544,-0.023314,-0.068180,-0.018688,0.120789,-0.090495,-0.189037,-0.019333,-0.277392,-0.080612,-0.348084,-0.002258,0.055821,0.302931,0.275766,-0.005712,-0.338487,0.113001,-0.019221,-0.022552,-0.284221,-0.384945,0.097866,-0.113689,-0.058286,-0.112327,-0.218360,-0.008524,0.127519,-0.039595,-0.302012,-0.053344,0.017378,0.059689,-0.199524,-0.336360,0.048903,-0.326177,0.187970,-0.031151,0.439029,-0.207455,-0.065003,0.210265,-0.045798,-0.096002,-0.231182,-0.158639,-0.440325,-0.081290,0.261569,0.081870,-0.104175,-0.185538,0.022204,-0.362648,-0.072978
-0.031018,0.102595,0.168719,0.181742,0.003251,-0.454967,-0.056639,0.042002,0.127385,-0.034745,0.026991,-0.260379,-0.008379,0.141281,0.226268,0.124212,-0.384649,0.342882,0.213602,-0.200915,0.024376,0.175418,-0.123513,-0.043103,-0.322054,0.072406,0.009030,-0.061236,-0.146041,-0.079411,0.167839,-0.341810,0.291997,0.218012,-0.215992,0.121469,0.077849,0.349337,-0.061230,-0.067201,0.037177,-0.326957,-0.175484,-0.310027,0.303790,-0.009566,-0.147554,-0.107504,-0.173101,-0.152953,-0.207383,0.172873,0.001395,0.060964,0.182723,-0.190006,-0.168332,-0.065680,-0.094632,-0.031186,-0.018401,0.113565,-0.225579,0.023994,-0.259965,0.154740,-0.098501,-0.117848,0.104500,-0.134837,-0.224736,-0.031282,-0.040168,0.401849,-0.098794,-0.035098,0.012280,-0.223883,-0.036520,-0.156813,0.220467,0.214632,-0.194798,-0.279748,-0.037296,-0.341511,-0.010145,-0.060750,-0.220589,-0.274528,-0.269822,-0.193390,-0.243152,0.093087,0.093129,0.137212,-0.152372,0.175260,-0.249926,0.061402,-0.043472,-0.339267,-0.237076,0.088514,-0.019377,-0.184564,-0.045753,-0.164945,-0.101862,0.127882,0.102228,-0.073277,-0.088034,-0.152430,-0.019334,0.132112,-0.027984,-0.173565,0.294308,0.230518,-0.006226,0.133918,-0.065834,-0.274358,-0.112426,-0.061315,0.100691,-0.025363,0.110409,-0.562962,-0.126717,-0.169155,0.201371,0.134287,-0.114016,0.144896,0.002481,-0.457562,-0.011035,-0.162224,0.114069,0.003697,-0.181008,0.000153,-0.296976,-0.270626,0.043630,0.154068,-0.167864,0.020850,-0.064475,0.051771,0.315997,-0.348109,-0.262303,-0.191982,-0.388589,-0.052842,0.107663,-0.192030,-0.029371,-0.378983,-0.243448,-0.125954,-0.111795,-0.037872,-0.032281,-0.304554,-0.284989,-0.090070,-0.288318,-0.268025,-0.139433,-0.265164,-0.090713,0.258449,0.196092,-0.048267,-0.036820,-0.273047,0.006852,-0.180907,0.095109,-0.197705,0.553417,0.087965,0.210241,-0.412149,-0.036690,0.209662,-0.143541,-0.164103,-0.095086,0.175536,-0.012883,-0.279889,0.073130,0.155740,-0.035380,-0.031948,-0.043972,0.143421,0.068584,0.059679,0.159615,0.030894,0.446895,-0.135979,0.335204,-0.413113,-0.317571,-0.024601,-0.227979,-0.108026,0.247361,-0.260455,-0.256265,0.314977,-0.077114,0.024574,0.083155,0.121880,0.035644,0.096135,-0.223230,-0.321178,0.141121,-0.020333,-0.002374,0.074965,0.086138,-0.023354,0.088839,-0.217202,0.094995,-0.038298,0.309637,0.031962,-0.291245,-0.218686,-0.212630,-0.086391,-0.079171,-0.186338,-0.133072,-0.310741,-0.290268,0.122865,-0.176650,-0.100010,0.037971,-0.355299,-0.151837,-0.016651,-0.003095,0.178087,-0.067684
0.091641,0.120653,0.136998,-0.121780,-0.103750,0.208968,-0.060989,0.175616,-0.234009,-0.222844,-0.227497,-0.115970,-0.121603,-0.035664,0.123255,-0.137249,-0.082705,-0.161492,0.074408,0.206504,-0.100414,-0.058284,-0.008082,-0.244265,-0.182777,-0.311485,0.095811,-0.059508,-0.034108,-0.074269,-0.032513,-0.213453,-0.380558,-0.287997,0.194724,-0.132998,-0.025674,0.073350,-0.108464,-0.154051,-0.098317,-0.110979,0.029400,-0.005657,-0.092056,0.024574,-0.381670,-0.006609,-0.187708,0.045400,-0.402659,-0.121466,0.199432,0.103148,0.379814,-0.244167,-0.335326,-0.206214,-0.287336,0.195156,0.037641,-0.088655,-0.033325,0.083352,-0.252025,-0.321274,0.073712,0.011165,-0.001441,0.124675,0.167753,-0.177107,-0.096967,0.183240,-0.114743,-0.116146,0.267438,-0.184643,-0.238726,-0.163837,0.126397,0.314921,0.425782,0.179328,-0.038643,0.445818,0.001120,-0.073046,0.036078,-0.150403,-0.168111,-0.197738,-0.035299,-0.068475,0.223013,-0.211371,-0.104738,-0.087322,-0.247084,0.395560,-0.017734,0.014028,-0.188921,0.280066,-0.184425,-0.117075,-0.042775,0.239797,0.159964,-0.231366,-0.079481,-0.012965,0.018735,-0.447673,0.126592,-0.154110,0.043835,0.035510,0.271464,0.066681,0.111218,0.130260,0.112389,-0.034455,-0.197312,-0.070331,-0.470662,-0.096350,-0.009316,-0.409290,-0.062129,0.021681,-0.044361,-0.096305,0.173772,0.209602,0.022048,-0.122143,-0.480048,0.025345,0.294065,-0.226389,-0.208781,0.000806,0.150562,-0.367103,0.015938,-0.151910,-0.291272,-0.252245,0.073616,-0.068669,-0.095227,-0.030933,0.231109,-0.218263,-0.240647,0.023059,-0.196657,-0.120935,-0.038598,0.009297,-0.191394,-0.319210,-0.034815,-0.107871,-0.041685,0.090912,-0.227815,-0.122418,-0.230611,0.335211,-0.055769,-0.021143,0.324123,-0.331614,-0.321423,-0.021102,-0.030388,-0.072397,-0.174096,-0.059935,-0.218226,-0.113332,-0.149460,-0.276799,0.242908,0.007788,-0.073549,-0.390764,-0.310826,-0.050922,-0.046494,0.056664,-0.005316,-0.300925,-0.063671,-0.041106,0.027641,-0.254351,0.140839,0.053198,-0.060700,0.136186,-0.329185,-0.224712,-0.074970,-0.194485,-0.010284,0.023223,-0.093993,-0.003137,0.217111,-0.078907,0.120103,0.278071,0.250572,0.159879,0.074579,0.035606,0.136954,-0.270702,0.049657,-0.312334,-0.445521,-0.315307,-0.042934,-0.015181,-0.076671,0.118696,-0.249375,-0.092983,0.052213,0.114587,0.071522,-0.157336,0.165292,-0.213326,0.253994,0.100407,0.009724,0.158630,-0.038403,-0.023811,-0.023863,-0.243791,-0.068993,0.064849,-0.188662,-0.005561,0.164985,-0.238286,-0.009325,0.214653,0.004012,-0.191304,-0.069416
0.214913,-0.185346,0.018820,0.070722,-0.008813,-0.117461,-0.069941,-0.057687,0.089919,-0.057916,0.023804,-0.217484,-0.097015,-0.062627,0.015676,-0.003148,-0.208292,0.097148,-0.222040,-0.192906,-0.086238,-0.021482,0.085222,0.158381,-0.039304,-0.242368,-0.157328,0.157579,0.095582,-0.143178,0.012499,-0.274469,-0.037563,0.162779,0.061637,0.027410,-0.168853,0.147513,-0.067030,-0.101098,0.096614,-0.127909,-0.145384,-0.059520,0.191321,-0.053041,0.119074,-0.357082,0.004650,-0.348869,-0.194839,0.096891,-0.245316,-0.068739,-0.281930,0.062703,0.237242,0.043985,0.126419,-0.245336,0.044568,0.071544,0.036477,0.004304,-0.085546,0.075775,-0.099784,0.018536,0.077263,-0.071495,0.020988,0.158338,-0.034724,0.154873,-0.035893,-0.022635,0.004309,-0.050744,0.047838,-0.257557,0.298571,0.040205,-0.119552,0.207630,-0.095704,-0.340816,-0.001161,-0.073794,-0.253792,-0.106719,-0.195919,0.064202,-0.109534,-0.074473,-0.311638,-0.009616,0.097281,-0.069832,-0.226061,-0.027672,0.149148,-0.095855,-0.221134,0.003898,-0.165829,0.070552,-0.019850,-0.092547,0.070912,-0.156828,0.293368,-0.088140,-0.169678,-0.086819,0.167543,0.066064,0.337813,-0.240901,-0.051646,-0.043360,0.142159,-0.253042,0.132463,0.110925,-0.084051,-0.083453,-0.063458,-0.082592,-0.133032,-0.159599,-0.169446,-0.029378,0.052168,-0.091592,-0.309096,0.115406,-0.051811,-0.017354,-0.079131,0.104349,-0.242962,0.311823,0.032562,0.002846,0.206839,-0.072626,0.146711,0.152454,-0.137005,0.017436,-0.174386,-0.080900,0.141573,-0.101044,-0.056352,-0.107951,-0.157113,-0.010338,0.025721,-0.291716,0.140066,-0.093252,0.059446,0.144347,0.054424,-0.091083,-0.069030,-0.270977,-0.148913,0.017359,-0.222215,-0.236027,-0.046775,-0.046277,-0.014601,-0.097711,0.217908,-0.000309,-0.046295,0.144995,-0.252763,-0.109180,-0.053655,-0.213413,0.121170,-0.157463,0.163013,-0.218349,0.072970,0.074475,-0.003998,-0.105065,-0.250403,-0.154599,-0.003209,0.041357,0.003677,-0.119098,-0.005436,0.056395,-0.015575,-0.113329,0.114621,0.125180,0.022354,-0.179449,0.180450,-0.113864,-0.091723,-0.397113,0.058661,-0.008966,0.083125,-0.035567,0.062301,0.107802,0.153572,-0.058676,-0.037568,0.061924,-0.039715,-0.207842,0.146162,-0.255284,0.251096,-0.143661,-0.171629,-0.009987,0.191863,0.001547,-0.204530,0.078756,0.008338,-0.144024,-0.134057,-0.095525,-0.050179,0.013276,-0.055689,-0.256576,-0.133746,-0.065240,-0.075097,-0.232895,0.013731,0.159780,-0.074174,-0.002200,-0.016420,-0.049081,0.100539,-0.201569,-0.043857,-0.085363,-0.005199,-0.009972,-0.084149
0.254757,-0.059906,-0.453952,-0.172550,-0.093713,0.194116,-0.088866,-0.092593,0.200553,0.208204,-0.123943,-0.178622,-0.158925,-0.045034,-0.251874,-0.340009,0.415188,-0.282396,-0.308517,-0.075688,-0.108690,-0.374393,0.154090,0.191936,0.105211,0.299906,-0.043458,-0.346919,-0.256841,-0.116407,-0.116715,-0.119846,-0.243285,0.150829,-0.241100,0.143821,-0.076452,-0.044031,0.000040,0.042356,0.117884,0.257816,-0.188746,0.076594,0.208845,-0.009149,-0.138298,-0.078273,-0.086749,0.042817,-0.038933,-0.068932,0.020402,0.113844,-0.263532,-0.129487,0.295821,0.038767,0.036765,-0.369991,-0.209013,-0.085125,0.356344,-0.182306,0.023390,-0.329967,-0.042905,-0.015015,-0.309801,-0.026477,0.414045,0.253629,-0.076735,0.297249,-0.067127,-0.019514,0.358776,0.155336,-0.236797,-0.081047,-0.158771,-0.032380,-0.251632,0.032301,-0.034697,0.028234,-0.002943,-0.099609,0.459955,-0.210530,0.230341,0.026611,0.058535,-0.347635,-0.228895,-0.332002,-0.239222,-0.076487,-0.123696,-0.062929,0.053652,-0.425230,0.134907,-0.179198,-0.227119,-0.099675,0.034040,-0.024550,0.053998,0.136832,0.042022,-0.062663,0.008842,0.143545,0.311445,-0.087793,0.523939,-0.016235,-0.076174,-0.160996,-0.030200,-0.040076,0.139577,-0.253380,0.286022,-0.100713,-0.381200,-0.219451,-0.070280,-0.218834,0.292107,0.031902,-0.144100,-0.036357,0.342757,-0.110869,-0.174716,-0.067310,-0.119721,0.429126,-0.003675,-0.299035,0.104630,-0.005086,0.266111,-0.161504,-0.160473,-0.078360,-0.180949,0.061480,-0.140619,0.011989,-0.040246,-0.126738,-0.064340,0.292512,-0.000662,-0.150583,-0.384377,-0.072475,0.118160,0.107577,-0.294885,-0.260016,0.033283,-0.108469,-0.114578,0.155116,-0.080465,-0.294790,0.315077,-0.329906,0.384543,0.139550,-0.314159,-0.205887,-0.313249,0.037420,-0.098104,-0.179980,-0.293896,0.197694,-0.158992,0.121151,0.015799,0.142087,-0.166621,0.183090,0.034946,-0.184644,-0.304964,-0.286774,-0.359427,-0.161279,0.012920,0.035965,0.055469,-0.041987,-0.052885,-0.043892,0.095929,0.004983,0.007310,-0.021688,-0.443177,-0.052469,0.114199,-0.158103,0.025475,-0.217301,0.106635,0.001984,0.069973,-0.021214,0.075515,-0.140785,-0.161423,-0.243800,-0.049191,-0.275615,0.093638,0.071431,-0.516714,0.056462,-0.172365,-0.106298,-0.101940,-0.010325,0.317177,-0.089805,-0.168041,-0.038740,-0.174088,-0.071870,-0.029802,-0.184311,0.139287,0.007750,-0.179926,0.011309,-0.002355,-0.059955,-0.045577,-0.429164,-0.057873,0.119891,0.252061,-0.201327,-0.193363,0.133766,-0.426449,-0.047621,0.157035,0.298704,0.015719,-0.280190,-0.098000
-0.388700,0.135311,-0.275775,-0.015829,-0.047386,0.038333,-0.108158,-0.204143,0.305411,-0.109294,0.078108,-0.043710,0.147825,-0.028859,-0.117993,0.199969,0.060977,0.053546,0.328915,-0.108542,0.037820,-0.347969,-0.080898,0.382198,-0.240312,0.403493,-0.388941,-0.234891,-0.447408,-0.047560,-0.058793,0.220803,-0.098136,0.089406,-0.235272,-0.004303,0.114394,-0.176634,0.067297,0.276213,-0.123520,0.131777,-0.392716,-0.243581,-0.143621,0.075765,0.003114,-0.083543,0.066198,0.159512,0.446259,0.033757,0.070659,0.188494,0.041652,0.130056,-0.318558,-0.043323,0.287185,-0.217842,-0.243852,-0.070773,-0.011918,-0.036053,-0.090826,0.016150,-0.210409,-0.009152,-0.407699,-0.059397,0.140179,0.153742,0.028745,-0.093451,-0.040534,0.002314,0.160284,0.044656,-0.060105,-0.011563,-0.344712,-0.209295,-0.409771,-0.197663,-0.055670,-0.099987,-0.004067,-0.109498,0.064262,-0.140577,0.527952,-0.053829,-0.203240,-0.013381,-0.041125,0.030303,-0.182207,0.194478,0.276073,-0.267725,-0.210338,0.061621,0.321171,-0.186393,-0.104719,-0.280355,-0.038738,-0.292741,-0.208459,0.441184,-0.192956,-0.208653,-0.024562,0.303435,-0.262584,-0.127840,-0.054806,-0.047177,-0.081784,-0.428657,-0.328135,0.044743,-0.102803,-0.378083,0.208126,-0.101541,-0.083217,-0.069082,-0.239516,0.305240,-0.116720,-0.120447,-0.075270,-0.051429,0.246569,-0.340620,-0.094895,-0.175473,0.119530,-0.063768,0.342766,-0.066675,-0.264041,-0.007338,-0.395613,0.086488,-0.041772,0.057981,0.020604,0.138253,-0.045015,-0.008986,-0.315254,-0.028158,-0.330844,-0.036201,-0.177050,-0.175934,-0.103381,-0.059309,-0.013335,-0.226644,-0.335750,-0.198941,-0.011747,-0.075643,-0.164102,0.227271,-0.017038,0.030542,0.115227,-0.544450,-0.254355,-0.060170,-0.386944,-0.136399,-0.008304,-0.010133,-0.053567,-0.436660,0.150835,0.280945,-0.313471,0.083587,0.178958,-0.183309,-0.261675,-0.095453,0.167264,0.224657,0.215309,-0.196419,-0.063803,0.180307,-0.014102,0.102579,-0.012910,-0.005943,-0.023445,-0.387351,-0.072429,-0.115316,-0.297323,-0.375166,0.235021,0.281422,0.146967,0.217285,0.185568,-0.049771,-0.056230,-0.023700,-0.257141,-0.087139,-0.154111,-0.385905,-0.396509,-0.209515,-0.147456,-0.353291,-0.097855,0.116096,-0.252826,0.239590,0.141627,0.197681,-0.105005,-0.036951,-0.265524,-0.152743,0.074306,0.018117,-0.059860,-0.009914,0.076635,0.421237,-0.129396,0.115921,-0.171320,0.103010,-0.284913,-0.216638,-0.133857,-0.222229,-0.052349,-0.077867,-0.095114,0.000649,0.171958,0.087620,-0.223037,0.120595,-0.223033,0.005719,-0.015885,0.360546,-0.106083
-0.431888,-0.037841,-0.111003,0.057999,-0.001375,0.087590,-0.092998,-0.280575,0.232683,0.117839,-0.047418,-0.198758,-0.196210,-0.035896,-0.110772,-0.094803,0.083068,0.212630,0.037433,-0.473692,-0.147063,0.027700,-0.003060,-0.167936,-0.243628,0.344772,-0.397007,-0.287934,-0.186455,0.198753,-0.104407,-0.178584,0.101995,0.159538,-0.095249,0.092356,0.156174,-0.225581,0.167523,-0.001795,-0.533665,-0.015318,-0.213626,0.067131,0.157013,-0.062607,0.001847,-0.043005,-0.164781,0.216028,-0.436711,-0.035101,-0.008400,0.118429,0.030264,-0.239600,-0.146498,0.158670,-0.322160,0.275574,-0.061891,0.172663,0.132737,0.109585,-0.510899,-0.479931,-0.227191,-0.069351,0.031849,-0.149107,-0.303657,-0.183517,-0.014218,-0.090964,-0.035535,-0.074260,0.316156,-0.147976,-0.330517,-0.484501,0.009144,-0.280439,-0.293271,-0.290301,-0.096239,-0.137737,-0.002564,-0.094385,0.234079,0.023807,-0.264181,-0.128075,-0.173006,-0.236540,-0.180483,0.023217,-0.039514,-0.033823,-0.268223,-0.027110,0.178569,-0.509197,-0.230632,0.064830,0.197880,-0.250596,0.008386,-0.056998,-0.052309,0.050846,0.075958,-0.179714,0.109468,0.165702,0.032195,0.083133,-0.231345,-0.082437,0.126656,0.008877,0.033175,-0.023869,-0.411606,-0.220017,0.207776,-0.090747,0.023806,-0.066332,-0.286895,0.155423,0.190878,-0.217041,0.122368,0.033860,0.108267,-0.076477,0.076564,-0.073518,0.143439,-0.169313,0.204995,-0.252484,-0.169400,0.001438,-0.181827,-0.194218,-0.260074,0.009173,-0.020872,0.228644,0.208432,0.155693,-0.350217,0.134302,-0.290466,-0.082448,0.137815,-0.135415,0.121270,-0.108410,0.010512,-0.208931,-0.202190,-0.209752,-0.310956,-0.090413,-0.054243,0.001375,-0.066376,-0.216432,0.001303,-0.286979,0.275932,-0.123352,-0.254525,0.261950,-0.186139,-0.040047,-0.054247,0.081508,-0.269146,0.085137,0.116152,0.039881,0.439388,0.331040,-0.158686,-0.094225,-0.108380,0.082324,0.180322,-0.373279,-0.174770,-0.085964,-0.010241,-0.374774,-0.103970,0.049278,-0.054400,0.121789,0.003569,0.064760,0.014979,-0.237919,0.325067,0.182904,0.019678,0.141031,0.114396,0.039883,-0.292666,-0.021613,-0.088920,0.072968,0.413293,-0.187879,-0.350547,0.314846,-0.126601,-0.245006,-0.269363,0.012227,-0.093807,0.099982,-0.001065,0.212072,-0.053009,-0.045291,0.266321,-0.190537,-0.108874,-0.001159,0.182514,0.215749,-0.079203,0.189048,-0.136466,-0.203118,-0.034539,-0.149119,-0.009406,-0.068938,-0.092995,-0.006164,-0.008476,-0.064887,0.211566,-0.053115,-0.464242,0.068925,0.001963,-0.105971,0.056512,-0.259525,-0.017517,-0.272621,-0.099085
-0.402511,-0.103668,0.007421,-0.284408,-0.085166,0.062061,-0.146104,0.098440,-0.211796,0.178980,-0.170594,-0.061578,-0.121611,0.112522,-0.010482,-0.181783,-0.089605,-0.246228,-0.272407,0.052936,0.169102,0.070901,-0.031089,-0.303597,-0.180584,0.290879,-0.132714,-0.277303,0.187500,0.163919,-0.025065,0.279090,0.163392,-0.279926,-0.082382,0.027511,0.080430,-0.213221,0.028103,0.269966,-0.471855,-0.219765,-0.070012,0.093875,0.046182,-0.006945,-0.138839,-0.062964,-0.097825,0.187468,-0.228341,-0.038672,0.216637,0.137660,0.345718,-0.306136,-0.214025,-0.381728,-0.269730,0.353328,-0.288256,-0.237548,-0.238283,-0.196600,0.155921,-0.263496,-0.075067,-0.125681,-0.072565,-0.117994,-0.406119,-0.261309,0.026886,-0.148599,-0.065550,-0.073193,-0.173799,0.030069,-0.099082,-0.046942,-0.269662,-0.157829,-0.231780,-0.338373,-0.167594,0.165673,-0.002315,-0.124217,-0.065531,0.206749,0.239955,0.096750,-0.050358,0.000890,0.158152,0.221602,0.151065,-0.049670,-0.153710,-0.016384,-0.296211,-0.117124,-0.089238,-0.158583,0.152253,-0.307247,0.100020,-0.154762,-0.398958,0.015224,-0.307293,-0.060535,-0.257845,0.064847,-0.124789,-0.217402,-0.292690,0.000955,0.230451,0.179258,-0.274253,-0.029622,-0.441288,-0.143100,0.262589,-0.124964,0.066642,-0.103704,0.192949,0.047142,0.298166,0.039095,-0.057922,-0.005446,-0.051566,-0.221651,-0.114334,0.005583,-0.150646,-0.298207,0.127331,-0.205636,-0.110026,0.010615,-0.253536,0.011583,-0.192724,-0.106109,-0.166537,-0.275506,0.081918,-0.041517,-0.112647,0.267338,-0.217807,-0.014415,0.253294,-0.148312,0.042428,-0.010435,-0.039115,-0.199541,0.151843,-0.254301,-0.532591,-0.107863,-0.134668,-0.389883,-0.025891,-0.054761,0.019747,0.084294,0.132639,-0.256376,-0.209736,0.402311,-0.191149,-0.023912,-0.253861,-0.056752,0.388446,-0.370753,0.285781,-0.059101,-0.045072,-0.014459,-0.229358,0.283161,-0.241584,0.044938,-0.258844,-0.378921,0.200911,-0.111693,-0.002262,0.133871,-0.088045,-0.013650,0.044062,-0.371404,-0.207411,0.035964,-0.098766,-0.299529,-0.043255,0.264702,0.106783,-0.091899,-0.055083,0.032615,-0.382082,-0.018717,-0.449439,0.272700,-0.142247,-0.203986,-0.236035,-0.033171,0.052198,-0.258434,-0.311920,0.052864,-0.218668,-0.020959,-0.326517,0.293386,0.220950,0.074767,-0.405351,-0.145519,0.002033,-0.076728,-0.215814,0.134556,-0.157164,-0.243992,-0.126397,0.065067,0.076158,0.037149,0.215390,-0.149732,-0.015872,0.271145,-0.258609,-0.309874,-0.258201,-0.163573,-0.526426,-0.216253,-0.070418,0.212794,-0.248110,-0.146873,-0.010446,-0.193628,-0.130538
0.005290,-0.098638,-0.058538,0.102967,-0.042601,0.219609,-0.060522,0.172752,-0.375479,0.182469,-0.062705,-0.045664,-0.306260,-0.037564,-0.143608,0.003476,0.126541,-0.249908,-0.237303,0.128872,-0.055889,0.051545,0.135711,-0.054900,-0.413240,-0.157009,0.013493,0.208201,-0.163767,-0.160995,0.060400,-0.289634,0.268309,-0.083149,-0.194635,0.138030,-0.021341,0.237990,0.088316,-0.090283,0.214875,0.061242,0.059463,0.143287,0.042626,-0.054032,-0.105860,-0.036307,-0.276668,0.139187,-0.291354,-0.298571,-0.004980,-0.140723,-0.292155,0.054818,-0.080316,0.182758,0.015610,-0.382517,-0.072074,-0.159459,0.388133,-0.429214,-0.067007,0.193872,-0.067637,-0.129568,-0.194889,0.149834,0.051162,0.093297,-0.008929,0.108944,-0.014827,-0.161034,-0.326353,-0.045131,0.064711,-0.150142,-0.004241,-0.072111,-0.110097,-0.070554,-0.061017,-0.014542,-0.006614,-0.073824,0.012245,-0.010804,-0.023654,0.171420,-0.065730,-0.251705,-0.053551,-0.031187,-0.029830,-0.341568,0.055921,0.146212,0.148866,-0.000908,0.234502,-0.188001,-0.213314,0.056499,-0.054300,-0.221929,-0.019589,-0.000839,-0.333506,-0.072226,-0.260472,-0.125511,0.306099,-0.240649,0.089219,0.011147,-0.031804,0.058732,-0.044739,0.017181,0.140847,0.063105,0.124304,-0.069175,-0.203893,-0.023830,0.331759,0.180121,-0.191457,-0.060904,0.095364,-0.091224,0.161439,0.062506,-0.178422,-0.243249,-0.226813,-0.026397,-0.262298,-0.175537,0.060201,-0.004516,0.282269,-0.143056,0.007307,-0.077272,0.173947,-0.321733,-0.120237,-0.291278,-0.036886,0.207053,-0.146299,0.046420,-0.086054,-0.292756,-0.316438,-0.230239,-0.011733,-0.133097,0.104698,-0.093931,0.096626,-0.033369,-0.034716,-0.181186,-0.083156,-0.179200,-0.164558,-0.127126,0.009990,0.017348,-0.260615,0.198283,-0.081852,0.004438,-0.040819,0.096302,-0.324385,-0.263625,-0.134710,0.006912,-0.176853,0.053592,-0.065087,0.122800,0.161951,-0.047510,-0.316048,0.260873,-0.240929,-0.113787,0.006240,0.156399,-0.050281,0.006924,-0.006584,0.047447,0.111955,-0.090626,0.209858,0.128809,-0.311809,-0.135621,0.040392,-0.295939,0.232852,-0.021516,0.228779,-0.001241,-0.213556,-0.169702,-0.091026,-0.002394,0.182322,-0.292601,0.070061,-0.140842,0.228914,0.368118,0.043284,0.122238,-0.223349,-0.005561,0.096335,-0.025930,-0.111820,-0.131820,-0.228563,0.046994,0.032842,-0.121872,-0.025796,0.144743,-0.057525,0.017373,0.070659,-0.327362,-0.202629,0.040179,0.042997,-0.349870,-0.093220,0.154775,-0.164495,0.222093,0.134431,0.152351,-0.017735,-0.168873,-0.239157,0.067565,-0.021176,0.094707,-0.075702
0.033731,-0.190553,0.137450,0.170593,-0.071476,-0.308995,-0.092909,-0.213116,0.263884,0.212679,0.147533,0.028175,0.045939,-0.036825,0.226568,0.295147,0.089198,0.086060,-0.436297,-0.493162,-0.221166,0.018674,-0.136493,0.136985,0.063667,0.268353,-0.004089,-0.223698,0.203742,-0.244251,-0.109396,-0.028704,0.293340,0.151307,-0.418056,0.084500,-0.221711,0.027679,-0.016358,0.143299,0.195935,-0.127733,-0.124496,-0.044230,0.156063,-0.016598,0.078996,-0.314762,-0.032503,0.114705,0.388506,0.090174,-0.391014,-0.195442,-0.267188,-0.100280,0.197029,0.073594,0.070650,-0.265318,0.004847,0.098392,0.178927,-0.556522,0.108626,0.122525,-0.303165,-0.091702,0.014548,-0.067707,-0.384499,0.184490,-0.090242,-0.070571,-0.075860,-0.082387,-0.345085,0.115671,0.218763,-0.077066,-0.124512,-0.385504,-0.269418,-0.445869,-0.091143,-0.278516,-0.003084,-0.087884,-0.052568,0.021933,-0.270291,0.143965,-0.200293,0.013748,-0.165501,-0.114879,0.145914,-0.058348,-0.049366,-0.194812,-0.054650,-0.256030,0.249428,-0.212879,-0.051694,0.210387,-0.014956,-0.124551,-0.303498,-0.042800,-0.130356,-0.152169,-0.014825,0.164360,-0.172097,0.017387,0.127827,-0.088711,-0.275053,0.104103,-0.246810,0.038125,-0.018895,-0.004777,0.219962,-0.075359,0.384343,-0.039551,-0.107095,-0.486874,0.085793,-0.305285,-0.024968,-0.072873,-0.272708,0.059784,-0.254944,-0.024518,0.118539,0.212246,-0.542362,-0.025381,0.299993,-0.001670,-0.218499,0.130395,-0.007273,0.167894,0.178881,-0.080245,-0.380582,-0.011585,0.148148,0.192512,-0.274490,0.305832,0.346070,-0.254739,0.112768,0.104079,0.083205,0.166244,-0.044403,-0.117347,0.120739,-0.083949,-0.067735,-0.351926,-0.104506,-0.235187,-0.063841,-0.406536,0.064126,-0.100344,-0.394135,0.398323,0.313905,0.027935,-0.066494,0.123289,-0.046492,-0.446256,0.300055,-0.191694,0.450261,0.175786,-0.214398,-0.261502,-0.236311,0.120767,0.006992,-0.279238,-0.138920,0.049501,-0.000661,0.184139,0.036960,0.143800,-0.030570,0.309120,-0.101594,-0.103801,-0.021671,-0.363678,0.137970,-0.189779,0.184800,0.057047,-0.239717,-0.171944,-0.175884,-0.009929,-0.119522,-0.143653,-0.023315,-0.092640,-0.325882,-0.192954,-0.003442,0.060548,-0.197245,0.263371,0.149518,-0.039599,0.096257,-0.035393,-0.125386,-0.013665,0.186547,0.056975,0.014000,-0.005875,-0.140808,-0.021295,-0.147082,-0.119667,-0.034199,-0.011936,-0.301918,-0.263783,-0.008581,-0.273520,-0.138918,0.109419,-0.147887,0.036047,-0.077672,-0.005768,-0.304639,-0.107747,-0.102862,0.097236,0.050073,-0.340093,0.018198,-0.058971,-0.083609
0.239159,0.078308,0.028784,0.014005,-0.128983,-0.158681,-0.150282,-0.140965,0.147640,-0.026749,0.144871,0.052324,-0.134615,-0.066267,-0.176940,0.238973,0.097107,-0.262053,-0.310950,-0.125662,-0.209948,-0.243360,0.007436,0.313141,0.122569,-0.366504,-0.318618,0.170539,-0.345158,-0.210520,0.145912,0.024601,-0.243026,-0.039088,0.082617,-0.001512,-0.287933,-0.072445,-0.118039,-0.269730,0.110272,-0.030773,-0.215518,-0.044048,-0.152044,-0.045848,0.353596,-0.152237,0.092587,-0.309293,0.272567,-0.308960,-0.532512,-0.092258,-0.323559,0.185398,0.358010,0.110071,0.116715,-0.396723,0.033530,-0.025625,-0.155044,-0.149887,-0.123533,0.201873,0.042788,0.406658,-0.175493,0.062087,0.130316,0.222190,-0.081632,-0.233877,0.192040,-0.080919,-0.272025,0.114642,0.312599,-0.127764,-0.160582,-0.245649,-0.221516,0.237364,-0.103213,-0.288597,-0.002345,-0.146316,-0.221233,-0.117240,-0.285638,-0.166176,-0.177426,0.041581,-0.095401,-0.261253,-0.201783,-0.107121,-0.018872,-0.251346,0.056613,0.127609,-0.149698,-0.281000,-0.095608,0.063074,-0.026879,0.016405,-0.063157,-0.073335,0.088337,-0.155506,-0.038334,-0.074522,0.003511,-0.029598,0.343908,-0.194099,-0.205772,-0.125482,-0.107958,-0.517471,0.163633,0.098230,-0.167441,-0.143300,-0.245106,-0.165815,-0.087136,-0.114106,-0.251240,-0.142639,-0.104928,-0.439714,-0.281900,-0.045910,-0.103654,0.032975,0.028107,0.283488,-0.491505,0.278255,0.179344,-0.003015,0.246306,0.165733,0.058870,-0.093242,0.269369,0.039167,-0.179925,-0.184548,-0.215183,-0.058281,0.187679,-0.001753,-0.110226,-0.087235,0.105612,-0.139901,-0.025974,0.136079,0.068258,0.064216,0.240558,-0.151239,-0.114472,0.051132,-0.025443,0.042664,-0.126186,0.000102,-0.314537,0.087085,-0.200847,-0.252390,0.044412,0.019944,-0.127260,-0.014068,-0.283405,0.035841,-0.164547,-0.102214,-0.093174,-0.103768,-0.059933,-0.125612,-0.022938,-0.079742,-0.263018,0.179338,-0.317020,-0.130908,0.008993,-0.079504,-0.068604,-0.392245,0.004239,0.024620,0.067491,-0.314516,-0.140575,0.042540,0.016708,-0.303478,-0.094861,-0.145710,-0.388722,-0.278140,0.207262,0.005273,0.246368,-0.196176,-0.131047,0.305771,0.274007,-0.356694,0.111266,0.099325,0.020624,-0.099226,0.332740,0.000356,0.148403,-0.278946,-0.096249,-0.014967,-0.194371,0.050615,-0.070364,-0.074773,-0.155535,-0.231818,-0.152596,-0.141251,-0.160359,0.032397,-0.224448,-0.172473,-0.197226,0.225849,0.277676,-0.076613,-0.089136,0.174499,-0.200953,0.109010,0.040161,-0.147499,0.038294,-0.212269,-0.018459,-0.198709,-0.010456,0.076566,-0.152022
0.465320,0.079438,0.080475,-0.152227,-0.434691,0.227468,0.427713,0.136657,-0.584128,0.127777,-0.109528,-0.453134,-0.216644,0.159418,0.430203,-0.242041,-0.537001,-0.382400,-0.077796,-0.286625,0.381881,-0.521981,0.530309,0.196198,-0.070384,-0.007492,-0.321505,-0.537054,-0.076501,0.407690,-0.099824,-0.252179,0.537942,0.188005,-0.085784,0.094151,0.058116,0.316161,0.261350,0.369136,0.205935,0.268940,0.048632,0.011567,0.407435,0.023034,-0.029603,0.359127,-0.388130,0.171560,-0.436740,0.050871,0.290253,-0.479467,-0.160037,0.300952,0.484240,-0.116922,0.447260,-0.376070,-0.305331,0.330292,-0.289628,-0.088448,0.317665,-0.139205,-0.208881,0.399915,0.073959,0.382574,0.370247,0.373622,0.207675,-0.024526,0.299136,-0.273841,-0.330275,0.063335,-0.355648,-0.360862,0.002933,-0.254995,0.124421,-0.149367,0.457943,-0.262664,0.447048,-0.357815,-0.400427,0.301517,-0.014152,0.426177,-0.422913,0.045520,0.406852,-0.123690,0.126977,0.226549,0.086022,0.317521,-0.412054,0.126240,0.043637,-0.566409,0.274068,-0.328521,0.102298,0.131580,-0.352092,-0.165173,-0.035805,-0.284851,0.216890,0.284565,0.072268,-0.517419,0.341136,-0.153412,-0.516113,-0.411666,-0.305081,-0.103023,-0.067691,0.309650,-0.426895,0.364489,-0.460448,-0.298193,-0.537001
0.209420,0.177098,0.423603,0.503820,0.429002,0.302007,-0.386256,0.306941,0.291027,-0.065192,-0.193949,0.053061,-0.207428,-0.320241,0.069395,0.096669,0.440197,0.299147,-0.272382,-0.122991,0.494755,0.525426,0.097825,-0.432095,0.206877,0.343544,-0.442879,-0.014960,0.218543,-0.129537,0.155201,-0.358081,-0.370215,-0.282371,-0.345407,0.191132,-0.244739,0.087009,0.165258,-0.035852,-0.448065,0.101740,-0.490665,0.293697,0.208939,0.495477,-0.333825,-0.317132,0.497387,-0.495428,-0.299850,0.269043,-0.083863,0.510859,-0.473297,-0.081786,-0.292596,0.191415,0.480943,-0.166199,0.179498,0.090484,0.235746,-0.048023,0.203600,-0.109533,0.420789,0.018066,0.008214,0.403520,0.442486,0.413918,-0.198852,-0.153640,0.256603,0.413495,0.109587,0.405472,-0.139178,-0.428262,0.098847,-0.175597,0.026854,-0.261870,-0.354452,-0.048744,-0.295733,0.015381,-0.384385,-0.429730,-0.052818,-0.002874,0.061508,-0.243430,0.023006,-0.167987,-0.130776,0.141817,-0.005806,-0.406630,-0.463026,-0.163909,0.321472,-0.043018,-0.323211,0.165784,-0.393057,-0.009915,0.286347,-0.355765,0.303843,0.343389,-0.090467,0.082067,0.204695,0.361421,-0.422727,-0.454523,-0.094643,-0.299856,0.378278,0.348294,0.305851,-0.111149,-0.399744,0.199475,0.415349,0.352771,0.440197
-0.393607,0.360160,-0.261871,0.195295,0.117585,0.253844,0.384955,-0.102870,-0.250533,0.133265,0.427028,0.423213,0.201605,-0.040864,-0.078097,0.230616,-0.265562,-0.372309,-0.377904,-0.358073,0.277744,-0.177031,0.287969,0.213910,-0.366819,0.362280,0.242937,-0.273996,-0.522155,0.463735,-0.125624,0.393127,-0.240898,0.121174,0.072251,0.365309,-0.508829,0.072729,0.146203,0.458509,-0.312897,0.143689,-0.326968,-0.102621,-0.182681,0.246344,0.179814,-0.300977,0.285161,0.180151,0.253231,-0.422169,-0.098567,-0.225133,-0.419754,0.029585,-0.304901,-0.339810,0.141826,-0.384158,-0.115128,0.345716,-0.111158,0.350732,0.320003,0.354894,0.246138,-0.509505,0.371097,0.301484,-0.254982,0.163399,0.343294,-0.432506,0.166461,-0.367864,0.304007,-0.034243,0.078554,0.498688,0.382205,0.100647,-0.094950,0.314942,-0.450789,0.507236,-0.448111,-0.381443,0.376281,-0.452709,0.479226,-0.161647,-0.126353,0.128793,0.197057,0.422684,-0.253646,-0.002029,0.131429,-0.178276,-0.511847,-0.220155,0.320953,0.107226,0.147900,0.070920,-0.018352,-0.128248,0.455035,0.094404,0.228770,0.392323,0.327587,-0.113811,-0.377804,-0.320890,-0.454637,-0.121534,0.229267,-0.082316,-0.279553,0.304045,-0.010352,-0.218610,0.303208,0.039758,0.385170,-0.376611,-0.265562
-0.176377,0.267803,-0.292157,0.338958,-0.037859,-0.394117,0.343050,-0.365889,-0.197087,0.410741,0.074026,0.483951,0.190993,0.434250,-0.051362,-0.497319,-0.351616,-0.000893,-0.115109,0.219498,0.357153,-0.206783,-0.113383,0.140436,0.396182,-0.141307,-0.235207,0.052551,-0.077787,0.356612,-0.170686,-0.530485,0.220733,-0.408740,-0.256881,-0.402002,0.349042,0.079421,-0.371444,0.327337,0.280229,0.118367,0.424254,0.320844,-0.036917,0.414494,-0.188167,0.430605,0.048611,-0.009936,0.008853,0.346144,-0.531308,0.186712,-0.035780,0.178419,0.330497,0.251349,0.444606,-0.323510,0.451668,0.282575,0.069108,0.101090,0.011441,0.465908,-0.430256,0.012952,-0.070371,0.448590,-0.275772,-0.203771,-0.371376,-0.112092,0.330940,-0.019767,-0.328693,0.372170,-0.188595,0.198021,-0.499231,-0.503430,0.045724,0.186880,-0.317985,0.464168,-0.314596,0.088168,-0.409360,-0.447144,0.310055,-0.248169,0.325513,-0.450511,-0.320566,0.450675,0.218779,-0.040180,0.036491,0.025182,0.296798,-0.214869,-0.432149,-0.389032,-0.532217,0.112328,0.208817,-0.198752,-0.254105,0.212816,0.174302,-0.255550,-0.499145,0.089138,-0.099830,0.458036,0.171369,0.283767,0.217000,-0.263151,-0.443497,-0.175687,0.058451,-0.198425,0.438940,-0.085615,-0.418065,0.100516,-0.351616
0.121680,-0.317559,-0.195553,-0.327868,0.165288,-0.392576,0.299835,0.100453,0.167093,0.152299,0.417433,-0.336997,-0.467755,-0.340205,-0.077084,-0.348187,0.096535,0.123653,-0.219583,-0.179843,0.119058,0.189009,0.341894,0.424306,0.067382,-0.037338,0.314756,0.140202,0.048262,-0.231967,0.350840,-0.177136,0.189979,-0.422098,-0.006237,0.190068,-0.230099,0.175878,0.137995,0.362675,0.052399,-0.479031,0.352253,0.176598,-0.256223,0.399481,-0.073158,0.199710,-0.470601,-0.516339,0.451883,-0.136536,0.320355,0.375920,-0.472575,-0.226696,0.383245,0.419890,0.014521,-0.268939,-0.148578,-0.043047,-0.027896,-0.104701,0.122335,-0.278731,-0.376761,0.164038,-0.104492,-0.283177,0.044292,-0.436097,0.362403,0.168360,-0.442426,-0.303131,0.137158,0.355228,0.262238,-0.206847,-0.340155,0.343648,0.176488,-0.515473,0.183283,0.456013,-0.093883,0.343952,0.156496,0.224414,0.372833,-0.180739,0.038344,-0.455294,0.432760,0.199299,-0.043958,-0.089719,0.049536,-0.149358,-0.304191,-0.001828,-0.408886,0.299443,-0.316706,-0.234160,-0.291878,0.085506,0.209078,0.046901,-0.169025,0.337470,-0.390518,0.455700,0.235958,0.196250,-0.210177,0.327930,0.437436,-0.144636,0.179313,0.246973,0.489210,0.340231,-0.388011,-0.344662,-0.269231,0.350805,0.096535
0.505479,0.004553,-0.442524,0.444512,-0.129327,0.455740,0.080633,0.553013,0.013779,-0.510509,0.041970,0.018387,0.419488,-0.170206,-0.193717,-0.443991,0.101653,-0.274942,-0.313543,0.427531,-0.160457,-0.432739,0.262459,0.217387,0.304731,0.085875,-0.342771,0.039204,0.249213,-0.401885,0.401012,-0.210280,-0.292557,-0.464534,0.236356,-0.144290,0.486968,0.173726,0.304770,-0.121121,0.283300,-0.391538,0.394364,-0.491459,0.113184,-0.286955,-0.284265,0.247246,-0.038411,-0.450690,-0.487451,-0.200038,-0.239786,-0.447842,-0.097749,0.348616,-0.100828,-0.294689,-0.037513,-0.349710,0.232187,0.006815,-0.049405,0.335683,-0.415625,-0.183217,-0.488200,0.103277,0.352134,0.014014,-0.486200,-0.250995,-0.277776,0.169050,-0.099755,-0.491298,-0.435829,0.477086,0.295986,0.052920,-0.446478,-0.023823,-0.027066,-0.405903,0.418234,-0.037103,-0.040743,0.125593,-0.452197,0.459524,-0.309197,0.140943,0.446724,-0.372917,-0.390734,0.058286,-0.476590,-0.478500,0.323331,-0.371389,0.297924,0.336243,-0.339587,0.447345,0.340910,-0.044351,-0.098575,0.476691,-0.402949,-0.413706,-0.272066,-0.512017,-0.130944,0.381534,-0.084285,0.114498,0.337692,-0.463733,0.439290,-0.034680,-0.300629,0.472219,-0.484039,0.032722,-0.313089,-0.061159,0.344244,0.509103,0.101653
0.295569,0.266086,0.262754,0.425928,0.368154,0.187988,0.057596,-0.321693,0.249203,-0.173392,-0.281429,-0.151068,0.082394,0.490885,-0.378957,-0.196710,-0.035571,-0.056320,0.404864,0.062095,-0.385355,0.155061,0.371427,0.490360,-0.256602,0.383371,-0.078575,0.257456,0.021949,-0.078703,0.466373,0.332723,-0.126707,-0.217014,-0.484623,0.255229,0.002491,-0.346244,0.496669,-0.068207,0.187726,0.067151,-0.333330,-0.217531,0.416684,0.268220,-0.018684,-0.093300,-0.080494,0.105258,-0.237078,0.238415,-0.075409,0.325033,0.408813,0.326442,0.428390,-0.312471,0.053468,-0.096945,-0.433740,0.105760,0.185992,0.215658,-0.498877,-0.301131,0.399020,0.287297,-0.144204,0.463979,-0.116922,0.265777,-0.088095,-0.018772,-0.428016,0.310535,-0.420893,0.040025,0.485719,0.354611,-0.457903,0.258592,-0.017146,0.375696,0.402259,0.331880,-0.159171,0.438161,-0.287337,-0.014198,-0.032112,-0.343974,0.286379,0.453220,0.338363,-0.103432,-0.107957,-0.367381,0.323011,-0.408376,0.295113,0.344941,-0.197033,0.080874,0.475058,-0.048135,-0.005924,0.382317,0.331889,-0.088508,0.325093,0.465058,0.077021,0.409660,-0.339573,-0.162907,0.479801,0.176834,-0.076121,-0.308406,0.359959,-0.361997,0.414575,-0.216830,0.237201,0.090454,0.091667,0.217953,-0.035571
0.086056,-0.174358,-0.215418,-0.504672,0.094898,0.279674,-0.217576,-0.152250,0.299615,-0.321796,-0.157924,-0.185764,-0.311721,0.232629,0.202741,0.377412,0.170261,0.387534,-0.472951,-0.026261,-0.159222,0.356240,0.193573,0.394321,0.254725,0.016022,-0.128756,-0.378671,-0.496060,0.273015,0.352261,-0.142165,-0.185280,-0.250488,-0.036295,-0.374376,0.276754,-0.241395,-0.255095,-0.477970,0.003483,-0.451863,-0.508245,-0.034829,-0.214048,-0.000299,-0.076741,0.305738,-0.153833,0.393700,0.212376,0.066430,0.479293,-0.259618,0.290302,-0.349121,-0.068751,-0.605162,0.006077,0.037030,0.092738,0.258371,0.140480,0.497142,0.339087,0.432111,0.387205,0.399569,0.079374,0.455406,0.413342,-0.076382,0.248628,0.493170,0.105824,0.234774,-0.474977,-0.309387,-0.083682,-0.226900,-0.214533,-0.459836,-0.348162,-0.495588,0.119934,0.307067,-0.384477,-0.051389,-0.429683,-0.152873,0.039635,-0.031428,0.178918,0.342972,-0.182066,0.342730,-0.548501,-0.014497,-0.116200,-0.310363,-0.110211,-0.474661,0.468656,-0.213908,0.130069,-0.147482,0.379989,0.401481,0.041681,0.119127,-0.404428,-0.156368,-0.122142,-0.198759,0.142288,0.496353,0.319206,0.050745,0.095854,0.424695,-0.164190,0.472387,-0.008517,-0.111710,0.375822,-0.207993,0.089170,0.125790,0.170261
-0.449944,0.361331,0.051915,0.014810,-0.367407,0.047113,-0.145092,0.050971,-0.160952,-0.193554,0.318178,0.342936,-0.125443,0.310451,-0.238332,0.311525,-0.252748,0.441567,0.017759,-0.495310,0.466051,-0.222073,-0.142497,0.258352,-0.198464,0.228479,-0.182680,-0.267493,0.511392,-0.489050,-0.448506,0.464906,0.241125,0.296090,-0.438244,0.128245,-0.305831,0.472210,0.022407,0.239888,-0.411388,0.323804,-0.115968,-0.053427,0.332794,0.280119,0.173341,-0.059711,-0.450031,0.088598,-0.099891,0.430835,-0.113118,-0.099012,-0.234744,-0.009750,-0.096913,0.514525,-0.193964,0.115945,0.290293,0.099374,0.090214,-0.327047,0.398155,0.308118,-0.009804,0.225498,0.088882,0.400559,0.034370,-0.368959,-0.314695,-0.056565,0.137975,-0.162843,-0.107762,-0.428747,0.329993,-0.124659,0.446242,0.352237,-0.446219,-0.486270,0.419016,0.035265,0.396628,-0.430803,0.198802,-0.197031,0.300009,0.158858,0.000937,-0.105269,-0.373292,-0.209674,0.024173,0.021512,0.443760,0.163803,0.293803,-0.261309,-0.041349,-0.258110,-0.153334,0.436743,-0.373756,0.409461,-0.161809,0.347548,-0.293025,-0.131950,-0.196591,0.112701,-0.028610,-0.227536,0.059986,-0.239599,-0.045628,-0.409426,0.419778,0.451184,-0.214522,0.186375,0.367914,0.499048,-0.360179,-0.291108,-0.252748
-0.071965,0.258384,0.213292,-0.474877,-0.505660,0.072681,-0.234698,-0.204606,0.239647,-0.219230,0.415125,-0.407325,-0.351252,-0.062320,0.229152,0.131250,-0.118551,0.153757,-0.359974,-0.245529,-0.328554,0.311878,0.371976,-0.157156,-0.199176,0.074656,-0.280534,0.043392,0.413662,0.389506,0.173845,-0.193349,0.217322,-0.109272,0.433708,-0.130188,-0.390950,-0.428898,-0.036855,0.328159,0.465605,-0.343159,0.285465,0.487129,-0.299790,0.174635,0.530125,-0.012292,0.436882,0.530218,-0.343780,0.077205,0.338307,-0.286053,0.411910,0.256505,-0.265273,-0.396284,-0.248642,0.027846,-0.407487,0.253621,0.215939,-0.093949,-0.038612,-0.530427,-0.088033,-0.471175,-0.290597,-0.061360,-0.031527,-0.275532,-0.103810,0.155556,-0.126956,0.322977,0.357726,0.403777,0.340732,0.048112,-0.191191,0.415860,-0.031434,0.219487,-0.425930,-0.375217,-0.484455,-0.318457,-0.038299,-0.383974,-0.291757,0.456119,-0.070621,-0.100395,0.495472,-0.371198,0.225119,-0.455581,0.011158,0.220559,-0.338083,0.239909,0.371540,-0.024885,0.151014,0.154197,-0.472305,-0.042639,0.113847,-0.433826,0.176246,0.262186,-0.338659,-0.261091,0.162730,0.064945,0.202013,0.176531,0.368273,-0.260123,0.189775,-0.097111,-0.380844,-0.457806,0.384117,-0.320582,0.434638,-0.149935,-0.118551
-0.332089,0.292394,0.126468,0.165422,0.458701,-0.067767,0.051686,-0.321368,-0.024804,0.312549,0.195608,0.316437,-0.369412,0.301688,-0.287199,-0.337337,-0.213685,0.305692,-0.096655,-0.227786,0.187458,-0.008948,0.303057,-0.370465,-0.126523,-0.257506,0.012033,0.011215,0.103967,-0.451161,-0.093347,0.130741,0.137205,-0.042298,-0.226192,0.025518,0.262884,0.212426,-0.318245,0.235362,-0.306086,0.204705,0.011262,0.349639,0.219480,0.018606,-0.408674,-0.078768,0.199699,-0.528700,-0.402288,0.122301,0.352471,-0.368807,0.338667,-0.184747,-0.027311,0.312799,0.057057,0.212393,-0.055856,-0.015614,0.004251,-0.257618,-0.301198,-0.282349,0.205423,0.436855,0.219749,0.184750,-0.072502,0.301979,-0.157528,0.183938,0.219173,-0.236306,-0.297613,-0.016177,0.491337,-0.113306,-0.053716,0.016570,0.353066,0.159088,-0.371588,-0.358842,0.226953,-0.520670,-0.289245,0.107219,0.325225,-0.282530,0.108239,0.094132,0.183795,-0.360883,0.045700,0.394308,0.226024,-0.163017,0.271935,0.256944,-0.066557,0.458138,0.001582,-0.314075,-0.428188,-0.171438,-0.458902,-0.030215,0.225392,0.449287,-0.237106,-0.259630,-0.467559,-0.283440,-0.139038,-0.031970,-0.176908,-0.406809,-0.465819,-0.492194,-0.075212,0.320278,0.200847,-0.049640,-0.445266,-0.073009,-0.213685
-0.228873,0.335003,-0.097508,-0.067336,-0.030185,0.457923,0.158586,-0.430111,0.204963,-0.329564,-0.310204,0.323297,-0.181871,-0.118527,-0.127973,0.482401,-0.133826,0.113988,-0.258803,0.260336,-0.089044,0.032239,0.006279,0.170638,0.043874,0.208319,0.223319,0.053420,-0.401184,0.163352,-0.059589,0.466282,0.155669,-0.387128,-0.167887,-0.200472,0.204600,0.079970,0.080660,-0.092423,-0.215592,-0.078567,0.164645,0.088780,-0.320490,0.470615,0.382542,-0.189945,0.316674,0.121559,0.383609,-0.149653,-0.189057,0.489736,0.478583,-0.046029,0.173875,-0.020782,-0.317936,-0.422217,0.418671,-0.116151,-0.199078,-0.262171,-0.163555,0.018774,0.118204,-0.356945,-0.112412,0.143843,0.078930,0.165772,-0.349539,-0.202974,0.525296,0.445309,0.431566,0.042281,-0.047499,0.059213,0.081956,0.325986,-0.333441,0.396194,-0.439270,-0.150522,-0.296305,0.525764,0.366674,-0.447184,-0.013193,-0.078973,0.403520,0.256455,0.472153,-0.096923,-0.028267,0.168812,-0.109603,0.015813,0.372431,-0.120366,0.171995,-0.010770,-0.439379,0.116411,0.452744,0.213255,0.042974,-0.281432,-0.153552,-0.027451,0.080551,-0.075468,0.260753,0.020457,-0.317367,-0.219952,-0.439420,0.109103,0.031579,0.028961,-0.247518,0.083936,0.179686,-0.194558,0.434008,-0.370136,-0.133826
0.094167,-0.137165,-0.381532,-0.380616,0.148193,-0.345630,0.410147,-0.111161,-0.018711,0.442700,-0.428253,-0.212983,-0.130899,0.333720,0.158204,-0.448643,-0.053662,-0.281605,0.040943,-0.155505,0.138095,-0.340858,-0.023791,0.191925,0.247231,-0.486588,0.120852,-0.471029,0.036515,0.395941,0.473075,0.120818,-0.171790,-0.402744,0.108406,-0.469999,0.504910,-0.483175,0.177863,-0.443212,0.468183,-0.205017,-0.159086,-0.133082,-0.093820,0.007502,0.021767,-0.098264,-0.458979,0.245464,0.389228,-0.279566,0.103097,-0.130823,0.346833,-0.300695,0.351130,-0.292476,-0.138629,0.160196,0.331940,-0.424600,0.161023,-0.266229,-0.368625,0.175063,-0.225236,-0.068133,-0.334313,-0.229592,0.465054,-0.295379,-0.408506,-0.376857,-0.465030,-0.095659,0.515449,0.318212,0.284082,-0.288958,0.300106,-0.066037,0.490451,-0.191232,-0.125991,0.319651,0.140807,0.113143,0.464722,0.085605,0.027013,0.003695,-0.100620,-0.382876,0.334218,0.444235,-0.485858,0.029687,-0.147089,0.010629,0.410378,0.377538,0.396268,-0.045304,-0.432570,0.461309,-0.336441,0.025650,-0.175636,0.090603,-0.170247,0.366294,0.330072,0.388117,-0.394273,0.004110,-0.234731,0.145321,-0.444376,-0.301392,-0.302989,0.167405,-0.178117,0.499796,-0.204514,0.359238,0.090869,-0.311008,-0.053662
0.225635,0.461925,-0.196823,0.338711,-0.167565,0.131346,-0.230894,0.290534,-0.020939,0.183842,0.490021,-0.190653,-0.346815,0.120516,0.199525,0.500129,0.460221,0.197604,0.243429,-0.012457,0.172369,0.269554,-0.016703,0.112980,0.417942,-0.203905,0.438709,-0.460117,0.129117,0.134697,0.084882,0.270862,-0.360487,0.221888,-0.240173,-0.256920,-0.130850,-0.113966,-0.261878,-0.463041,0.191340,-0.368326,-0.475561,-0.278549,0.164350,-0.362655,0.034290,-0.110745,0.394550,0.437427,0.057291,0.104418,0.308946,0.137172,-0.021618,-0.333807,-0.416225,-0.366994,-0.304280,0.023865,0.138653,0.255885,-0.426453,-0.268828,-0.228179,0.309465,0.457283,0.154200,0.099333,-0.114184,-0.320328,0.420900,0.345585,0.277634,-0.493354,-0.069173,-0.458746,-0.110546,-0.181323,-0.052433,-0.423285,-0.051373,-0.179322,0.067199,0.148418,0.114739,-0.242833,-0.277180,0.173520,0.320603,-0.118353,-0.057613,-0.035249,-0.176847,0.171189,0.263150,-0.216152,-0.371480,-0.396359,-0.189485,-0.031725,-0.120700,0.100602,-0.230205,0.158688,-0.430333,0.286797,-0.062512,-0.471139,0.277701,-0.264856,-0.281053,0.400725,-0.089670,-0.012837,0.056258,0.298068,0.436911,0.177510,-0.098455,-0.367153,-0.344309,-0.179729,0.144652,-0.434841,0.401697,-0.273896,-0.266830,0.460221
-0.013606,-0.457940,-0.018375,0.097729,-0.205232,-0.334993,0.027057,-0.050321,0.087285,-0.269129,0.202543,0.484450,0.055185,0.059423,-0.264729,0.273216,-0.360839,-0.135493,0.164072,-0.235573,0.388567,0.242079,0.151753,-0.201054,-0.400092,0.180319,0.228358,-0.394709,0.376503,0.091907,0.321846,0.463091,0.436744,-0.019265,0.299239,-0.160820,0.312246,-0.443758,-0.283790,-0.306543,-0.067613,-0.355521,-0.253989,0.353435,0.227399,0.165907,-0.339254,0.233610,-0.254560,0.286607,-0.413558,-0.434579,-0.421388,-0.389587,0.320854,-0.140208,-0.418086,-0.131369,-0.448744,0.515029,-0.179762,0.271239,-0.214063,0.310920,-0.268365,0.173074,-0.383602,-0.366295,-0.341874,0.538623,-0.408291,0.008884,-0.148787,-0.186960,-0.064861,0.086841,0.398665,0.319561,0.258073,0.533014,-0.014767,-0.360087,-0.029741,0.138839,-0.120229,0.320805,0.242426,-0.040910,0.145252,-0.139778,0.306216,-0.278214,-0.467499,-0.340479,-0.370031,-0.279257,-0.154834,0.306019,-0.079855,0.379309,-0.117958,-0.408009,-0.126100,-0.105336,0.182376,0.188811,0.468830,-0.215788,-0.443660,-0.312063,0.187834,0.039526,-0.151993,0.342266,-0.038298,-0.492589,0.493299,0.154748,0.104031,-0.019844,0.262465,-0.330739,-0.306598,-0.054209,0.157011,0.289771,0.160918,0.053440,-0.360839
-0.433629,0.112531,0.227575,-0.070342,-0.340449,-0.514380,-0.110280,-0.416169,-0.227416,0.306026,0.040299,-0.371596,0.275982,-0.265887,-0.123568,-0.553963,0.363862,0.157329,-0.417088,0.269287,0.419898,-0.092562,-0.528084,0.116792,0.314407,0.184871,0.378438,-0.501716,-0.465286,-0.062518,0.283025,-0.304239,-0.334291,-0.163209,0.254737,-0.349291,-0.048413,-0.289603,-0.168982,0.528735,-0.044786,-0.109600,0.490815,-0.171177,0.078555,0.345966,-0.322394,-0.266619,-0.428310,-0.295865,0.097088,0.032563,-0.225048,-0.393501,0.267431,0.055970,0.359732,-0.006449,0.343383,0.020602,-0.125322,0.209241,-0.368938,0.407715,-0.139257,-0.350716,0.398214,-0.384361,-0.336836,0.465253,0.153425,0.274170,0.211206,-0.064541,0.238089,0.450389,0.180332,-0.331491,0.424875,0.397646,0.449538,-0.205906,0.148631,0.051435,-0.052345,-0.126709,0.310093,-0.119316,0.109551,-0.535425,-0.139678,-0.411338,-0.358008,-0.461473,-0.066113,-0.431486,-0.441919,0.487881,0.335180,0.202871,-0.087122,-0.126826,-0.381779,0.143558,-0.006793,0.467090,0.084812,-0.020056,0.262022,0.460187,0.276691,-0.043547,-0.345840,-0.353385,-0.295894,-0.296683,0.163609,-0.175935,0.214231,0.411497,0.223602,0.055519,0.055946,-0.215775,0.433685,0.381771,0.164561,-0.104891,0.363862
-0.182429,0.095991,-0.057266,0.001334,-0.397934,0.389610,-0.028339,-0.421043,-0.069763,-0.267770,-0.479839,0.162629,-0.012680,0.143719,0.255000,-0.421851,0.428313,0.053100,-0.159443,-0.007217,0.062170,-0.422977,0.247108,-0.182301,0.282569,0.439230,-0.063069,0.480310,0.391450,-0.097726,-0.082157,-0.021622,-0.520911,-0.292242,-0.395188,0.100830,-0.420699,-0.428113,0.165987,0.543115,0.009545,-0.401344,0.546282,-0.509415,-0.192759,0.302224,0.354441,-0.501002,-0.325774,0.240370,-0.354907,-0.000771,-0.514453,-0.397067,-0.454421,-0.459078,0.124872,-0.452741,-0.013759,0.490802,0.493611,-0.091341,0.075623,0.371441,0.137160,-0.456418,0.282755,-0.328452,-0.243240,-0.121866,0.055575,0.210379,-0.007832,0.193518,0.493413,-0.376784,-0.213637,-0.243645,-0.409225,-0.156473,0.460815,-0.106303,0.478515,0.134845,-0.139287,-0.184855,-0.108745,0.250705,-0.081381,-0.440065,-0.058173,0.333932,0.104306,-0.074342,-0.255464,-0.017529,0.137559,-0.135208,-0.401654,-0.167975,0.015224,0.527142,0.145919,0.073287,-0.203349,0.488157,-0.027958,0.454286,-0.134696,-0.101489,0.230482,0.227612,0.167329,-0.182079,0.381741,-0.360125,0.463807,0.110668,0.052034,0.124291,0.059776,0.280476,0.146836,0.201160,-0.153835,-0.359076,0.192825,0.443975,0.428313
-0.275874,0.453857,-0.390426,0.248715,0.060338,-0.399035,0.008069,-0.526085,-0.225992,-0.121918,0.217107,-0.277414,0.321069,-0.098468,0.363062,-0.151170,-0.073155,0.052023,-0.034815,-0.253816,0.268650,-0.227766,-0.516475,0.357335,0.332093,-0.383438,-0.027808,-0.325834,0.438571,-0.095904,-0.263082,-0.020060,0.036955,-0.402145,0.175134,0.119530,-0.192949,0.133263,0.270840,0.405904,-0.058802,-0.431609,-0.432523,-0.037467,0.481795,0.250350,0.125051,0.225841,-0.062677,0.389147,0.396582,-0.376302,0.139800,-0.409871,-0.383978,-0.468890,0.278879,0.144817,-0.442391,0.288854,0.518710,0.211938,0.359398,-0.054169,-0.061742,0.475223,-0.428964,-0.278993,0.213500,-0.028466,0.516969,0.255282,0.157548,-0.205193,-0.167598,-0.282626,0.193357,-0.519448,0.407074,0.382295,-0.411441,-0.317423,-0.078593,0.380813,0.249963,0.369725,-0.121820,-0.343077,-0.149247,0.238656,-0.446125,-0.118078,0.241375,0.299760,-0.183766,-0.215105,0.205819,-0.109587,0.111721,0.205937,0.166581,0.088006,0.054867,0.179262,0.347879,0.445757,0.064118,-0.366048,-0.339629,0.388964,-0.088073,0.009133,-0.334946,-0.267910,0.145021,-0.117013,-0.257326,0.005074,0.004807,-0.012776,-0.396194,-0.407605,0.148128,-0.288349,-0.066257,0.370869,-0.134044,-0.164608,-0.073155
-0.400275,0.409895,-0.091204,0.535350,-0.220869,-0.280402,-0.154808,0.088314,-0.049986,-0.475700,-0.504664,-0.149980,0.093662,-0.226384,0.319617,0.091772,0.080157,-0.423437,-0.379838,0.351025,-0.317382,0.379799,-0.183176,-0.069972,0.281251,0.308256,0.457389,0.285153,0.302704,0.128836,-0.172106,0.212348,0.459447,0.399074,0.024233,-0.252445,-0.476215,0.405401,0.244753,0.006809,-0.296355,0.477991,-0.401377,-0.268638,-0.284223,-0.016098,-0.408483,-0.073727,-0.294444,0.272379,0.094943,0.463843,-0.240706,0.035881,-0.221436,-0.490786,-0.224938,-0.017119,-0.180545,0.019370,0.376683,0.318672,0.379352,0.380904,-0.365478,0.416042,0.223952,0.096932,-0.135254,-0.287752,0.540314,0.478274,-0.159135,0.059944,-0.311778,-0.006931,0.009409,-0.047078,0.460132,0.270596,-0.119319,-0.074075,-0.334187,0.208585,-0.254938,-0.255190,0.415907,-0.379542,0.479648,0.260034,-0.062848,-0.341727,-0.150980,0.470762,0.261988,0.366823,0.276466,-0.420886,0.159310,-0.186789,-0.036962,-0.143100,-0.473670,0.491074,-0.311232,-0.454223,0.285245,-0.497477,-0.317393,-0.252265,-0.462823,-0.176604,0.422222,-0.338339,0.258675,0.474435,-0.244114,0.321328,0.282432,-0.330261,0.283180,-0.500220,-0.303076,-0.319935,0.023412,0.239413,0.153201,-0.035247,0.080157
0.171267,0.142710,0.256109,0.178025,0.254746,0.311108,0.326830,0.437114,-0.039886,0.145230,-0.485107,-0.229439,0.307454,0.191221,-0.280933,0.423683,0.128120,-0.127803,-0.027065,0.535689,-0.167123,-0.429697,-0.032961,0.409597,-0.242946,-0.080692,0.236543,0.486811,0.117212,-0.415825,0.207079,-0.254759,0.057372,-0.265518,-0.392412,-0.452210,-0.269587,0.073551,-0.365014,0.361814,-0.132616,0.398465,0.143290,0.140066,0.365603,0.324261,-0.230235,0.409781,0.339664,0.417121,0.315434,0.200714,0.104407,-0.176255,0.215456,-0.101192,0.297975,-0.174391,-0.123642,-0.376091,0.337627,-0.211999,-0.242487,0.525843,-0.041391,-0.072461,0.144541,0.358974,0.176049,-0.563111,0.125727,0.485837,-0.269565,-0.348693,0.466539,0.085266,0.105111,0.247174,-0.322507,-0.509780,0.303198,0.122965,-0.425648,-0.129875,-0.232732,-0.017438,-0.097436,-0.341399,0.436764,-0.423951,-0.066142,0.282584,0.494666,0.005565,0.099524,-0.346726,-0.648194,-0.156206,-0.393713,-0.244448,-0.259209,-0.152183,0.404419,0.482721,-0.082263,-0.088102,-0.209323,-0.471878,0.216866,-0.032986,-0.418408,-0.439771,-0.331779,0.477178,0.250341,0.168497,-0.403131,-0.300823,0.296543,-0.141895,0.449476,-0.131336,0.309653,-0.338500,-0.289425,0.228756,0.295177,0.447988,0.128120
0.137263,0.286454,-0.139324,0.494755,-0.254484,-0.479061,-0.327330,0.488381,0.203345,-0.515271,0.408045,-0.078897,-0.389708,-0.327403,-0.205654,-0.053065,0.100388,-0.197312,0.107005,-0.190858,-0.366436,-0.293168,-0.355844,0.060354,-0.136403,-0.418297,0.039005,-0.227932,0.126142,0.413413,-0.194731,0.015037,0.387083,0.137691,0.382613,0.281137,-0.449724,-0.181705,0.382405,-0.209049,0.191984,-0.483427,-0.528040,-0.135495,-0.030533,0.148644,0.364223,0.315159,-0.354266,0.469961,0.362868,-0.386555,0.349732,0.521202,0.336590,-0.248317,-0.452837,0.313084,0.334248,0.132766,0.202174,0.206073,-0.227679,0.369262,-0.108350,-0.352911,0.406042,0.021780,0.233744,0.321494,0.022528,-0.374254,-0.037589,-0.273586,-0.200628,0.117822,-0.058962,0.295376,-0.289806,0.342917,-0.376370,-0.418547,0.449205,0.303799,-0.325186,-0.255130,-0.072405,-0.322804,0.296621,0.341274,-0.338093,-0.492176,-0.185641,0.448500,0.216673,-0.106012,-0.166142,-0.024963,-0.285711,0.338106,-0.195192,0.272323,-0.151956,-0.242546,-0.123023,0.134475,-0.275269,-0.315288,-0.300346,0.074006,-0.161222,-0.101007,0.429051,-0.440568,-0.279788,-0.142550,-0.202680,0.100390,0.367044,0.058652,0.277005,-0.308198,-0.069966,-0.140581,-0.040857,0.294742,-0.183514,-0.155023,0.100388
0.493130,0.341051,0.194710,0.504232,0.304681,-0.367426,0.293575,-0.095267,0.065679,0.168571,0.019957,-0.075032,0.280491,-0.024960,-0.321655,0.129705,-0.156683,-0.514824,-0.236733,0.044331,-0.413303,-0.303988,-0.479381,0.337222,-0.168197,-0.438267,0.266641,-0.375322,0.234128,-0.142365,0.003395,0.304766,-0.322633,0.141340,-0.277537,0.138692,0.336598,0.058747,0.249446,0.141064,-0.033089,0.308096,-0.350861,-0.462801,0.331293,-0.114645,0.057762,-0.125051,0.395560,0.328004,0.090426,-0.347399,-0.299802,-0.339071,0.251455,0.058391,-0.250509,-0.343895,0.480109,0.240734,-0.467582,-0.328691,0.020880,0.119083,0.338379,-0.158383,0.406778,-0.239381,0.285643,-0.093483,0.429930,-0.455933,-0.416205,0.468469,-0.338333,0.453325,-0.492345,-0.071300,0.276385,-0.025534,0.123546,-0.006067,-0.491572,0.171926,0.203460,0.034456,0.423396,0.052820,-0.312342,0.479637,-0.399158,0.446310,-0.260190,-0.112147,-0.294584,-0.355392,0.242183,-0.462580,0.194882,0.435519,0.458084,-0.505919,0.374253,-0.183317,-0.385667,-0.145727,0.394287,-0.389047,0.114263,-0.154220,0.521640,-0.496760,-0.521144,-0.234825,-0.134237,-0.075227,-0.352018,0.188576,-0.092704,0.214779,-0.372054,-0.062910,-0.453150,0.130991,0.478036,0.258370,0.263432,0.441125,-0.156683
0.220230,0.246721,0.242980,-0.351675,0.399230,-0.023353,-0.004654,0.354398,-0.273604,-0.285957,-0.430658,0.111358,0.121410,-0.406660,-0.105361,-0.312324,-0.120158,0.359013,-0.214778,0.195945,-0.054493,-0.323839,-0.419969,-0.480967,-0.183098,-0.389090,0.453411,-0.346140,-0.427604,-0.226062,-0.124615,-0.105107,-0.387265,-0.110293,-0.082475,0.368202,-0.034382,0.201189,-0.409897,0.088995,0.408126,0.371751,0.039164,-0.078545,0.172194,0.043158,0.498959,0.090164,0.150608,0.396907,0.186753,-0.218059,0.021552,-0.254454,0.515386,-0.463681,0.227194,-0.189925,-0.041115,-0.088676,-0.373422,0.196144,0.415764,-0.372472,0.077910,-0.096217,-0.316139,0.290038,-0.159179,0.112547,-0.337956,0.117487,0.208690,-0.228346,-0.145871,0.191872,-0.108393,0.133790,0.115722,0.171722,-0.051588,0.104815,-0.271702,0.132784,-0.210561,0.408217,-0.348789,0.155150,0.382450,-0.405781,-0.208790,0.046601,-0.241266,0.430798,0.292117,-0.126916,0.408160,-0.037770,-0.001599,0.102995,-0.194426,-0.316989,0.175187,0.131601,0.229472,0.481798,-0.153971,0.440752,-0.126609,-0.381458,-0.015758,0.107468,0.014204,0.383117,0.240990,-0.276382,0.063444,0.381559,-0.212177,0.207947,-0.063074,0.287294,-0.192323,0.221367,0.084463,-0.083316,0.368695,-0.093179,-0.120158
-0.000045,0.137567,-0.292585,-0.505665,-0.039900,-0.348537,-0.457995,-0.032077,0.047722,-0.446952,-0.521803,-0.018832,-0.460470,-0.078899,0.198223,-0.332605,-0.020637,0.275146,-0.219738,-0.331792,0.480956,-0.044126,0.224212,-0.563701,-0.186538,-0.280770,0.015910,0.110040,0.197176,-0.042067,0.102466,0.352342,0.013249,0.490716,0.344929,-0.199394,-0.328791,0.469249,0.369099,0.193344,-0.397559,-0.489619,0.216180,0.141690,-0.267024,0.411141,-0.528994,0.331433,0.169636,-0.005116,-0.243210,-0.407864,-0.207719,-0.164151,-0.337443,0.151741,-0.464693,0.013441,-0.216975,0.035525,0.033574,0.177780,-0.389732,-0.269363,-0.039059,-0.152100,0.463729,0.160916,0.300125,0.038961,-0.289082,0.322810,0.485043,-0.355924,-0.484537,0.109455,0.135055,0.029003,0.492657,0.279705,0.212489,-0.059809,-0.006479,-0.174015,0.302159,-0.550198,-0.548065,-0.371597,-0.187455,-0.466220,0.412812,-0.411887,0.005220,-0.197857,-0.289635,-0.288066,-0.083541,-0.023369,0.011512,0.379731,-0.135995,0.015020,0.075915,0.440055,0.393144,0.274577,0.251081,-0.031694,-0.135770,0.193727,0.358256,0.405680,-0.185869,0.024704,-0.115975,-0.483146,0.025291,-0.169073,-0.313348,-0.097665,-0.112185,-0.045569,0.075883,0.538825,0.065688,0.530656,-0.135036,-0.542844,-0.020637
0.482487,-0.410724,-0.454974,0.086763,0.526402,0.265117,0.026863,-0.361528,0.047149,0.287576,0.244666,-0.210246,0.271183,0.018517,0.450759,-0.056188,-0.262753,0.179860,0.030407,0.028761,0.376218,-0.498997,-0.338945,-0.423447,0.268382,-0.236109,0.295045,-0.438443,0.425533,0.059252,-0.222953,0.451043,-0.181147,0.210439,0.082783,-0.485536,-0.414990,-0.399205,0.143957,-0.412702,0.152986,0.129182,0.442492,0.241725,-0.195721,0.186902,0.065449,-0.466371,-0.334565,0.017989,0.493034,0.448270,0.039561,0.502695,0.515440,-0.456494,0.302320,-0.213657,-0.385472,-0.101883,0.362324,-0.151893,0.116325,0.432867,-0.003343,0.019444,-0.210431,0.306337,0.052547,0.239629,-0.457047,-0.275539,-0.105879,0.488932,-0.110948,-0.151439,0.464438,0.123232,-0.044071,-0.245836,-0.371301,0.191820,0.102684,-0.237795,0.188448,-0.460615,0.332733,0.443208,-0.245327,-0.001642,-0.279076,0.136358,-0.035738,0.495234,-0.481331,-0.079245,0.068659,0.197694,-0.225508,0.027428,0.258459,0.486644,-0.326873,-0.405376,-0.034231,0.153682,-0.335212,-0.075742,0.198235,-0.439473,-0.282713,-0.349034,0.493462,0.296739,-0.039128,-0.362879,-0.111530,0.438550,0.005514,0.511394,0.453635,-0.523997,-0.106503,0.031738,-0.037991,-0.162769,-0.447591,-0.527369,-0.262753
-0.479965,-0.256767,0.088318,0.226978,-0.479186,0.435307,-0.052935,0.168724,0.325120,0.194314,-0.272581,-0.264359,0.148571,-0.073103,-0.066076,0.138346,0.064120,0.460417,0.452617,-0.496658,-0.000093,-0.241880,-0.571030,-0.002218,-0.128056,0.152378,-0.446749,0.017926,0.094191,0.350592,-0.007869,0.310932,-0.499629,-0.333859,0.271923,-0.291535,0.389449,0.411177,-0.194035,-0.364443,0.327238,-0.005887,-0.475072,-0.295392,0.085190,-0.207043,-0.448253,0.417529,-0.150314,0.383653,0.478665,0.194347,-0.040377,-0.473699,0.034724,-0.335944,-0.373856,0.406923,0.146113,-0.147963,-0.164959,-0.073742,0.493739,0.327188,-0.101710,-0.263882,-0.290405,-0.017562,-0.128240,0.362420,0.422960,-0.061338,0.438569,0.070236,-0.476044,0.418962,-0.109509,0.140905,-0.024639,-0.458174,-0.518079,-0.144805,0.487598,0.135685,0.215069,-0.257044,0.349583,0.273634,-0.379537,-0.240124,0.146352,-0.095220,0.221001,-0.046544,0.240310,-0.470144,0.265999,-0.056135,-0.166308,0.156267,0.091022,0.223327,-0.409343,0.468023,-0.223421,-0.112773,0.409750,-0.522835,-0.270802,0.036229,-0.096135,-0.047992,0.290409,-0.384942,0.173285,0.519272,-0.362863,-0.404113,-0.262164,0.293120,0.159362,0.170630,-0.139866,0.546621,0.029173,-0.469526,-0.260268,0.455034,0.064120
-0.286518,0.284641,-0.371660,-0.266169,0.356068,0.475233,0.255393,-0.021963,-0.406032,0.466245,0.128679,-0.149328,0.208737,0.224530,0.405828,0.043056,-0.198390,-0.539560,0.414736,0.140846,-0.531192,0.443815,0.437531,0.267688,0.156523,0.194483,0.432719,0.278420,-0.366069,0.282762,-0.464362,0.183236,0.176878,-0.201390,0.351823,0.083068,-0.364363,-0.400242,0.234088,-0.105534,-0.467776,-0.209636,-0.127666,0.044140,0.010242,0.361977,-0.462940,0.434823,-0.451014,-0.135709,-0.249955,0.171649,0.077924,-0.218165,-0.488213,0.381065,-0.179308,-0.104790,0.099646,0.043777,-0.263476,0.115943,0.246023,0.046209,0.121048,0.311293,-0.040836,-0.077143,-0.071826,0.456351,0.356142,-0.212994,-0.119944,0.010146,-0.303735,0.101877,0.470310,0.186328,-0.046558,-0.456847,0.315992,0.444038,-0.346349,0.312699,-0.363638,0.338388,-0.005539,0.128869,-0.176386,0.277667,0.050339,0.061458,0.484058,0.066604,-0.215495,0.154591,-0.357587,0.063583,-0.027794,-0.476130,0.278208,0.157148,0.488652,-0.471891,-0.195153,-0.021944,-0.334716,-0.236173,-0.405505,0.252637,-0.517865,-0.317907,0.089925,0.424782,0.446139,-0.529713,-0.155181,0.272979,-0.102639,0.401387,0.376686,0.145521,-0.066879,0.171251,0.225600,-0.464752,0.435346,0.443904,-0.198390
0.404654,0.392994,-0.357708,-0.464239,0.061215,-0.564534,0.406624,-0.058913,0.035360,0.017369,-0.318551,-0.432685,-0.013932,0.168171,-0.229710,-0.004668,-0.172558,-0.285926,0.042760,0.235183,0.204917,0.089781,0.423467,-0.132804,-0.163373,-0.149119,-0.450692,0.039189,0.196301,-0.236811,-0.270426,-0.007618,0.121731,0.206989,-0.189888,0.109871,-0.192057,0.277671,-0.155466,-0.272358,-0.156020,-0.215903,-0.370427,-0.182471,0.396598,-0.486719,-0.304342,0.215079,-0.131203,-0.000545,0.081344,-0.080849,0.339067,-0.135855,0.371102,0.420585,0.383401,-0.092144,0.110370,0.428152,0.184087,0.464708,0.448550,0.376273,0.426495,-0.357965,0.121748,-0.125709,0.358103,0.146974,0.333614,0.238753,-0.349527,-0.129581,0.161547,0.278946,-0.010819,0.242407,0.061662,-0.226337,-0.426562,-0.115771,-0.526438,-0.142049,-0.542447,-0.344934,0.285557,0.105668,-0.419902,0.331915,-0.309731,-0.427468,-0.413763,-0.094564,-0.080401,0.046745,0.044534,0.132874,0.001942,-0.165807,0.070736,-0.390460,-0.016066,0.029689,0.057986,0.481130,-0.200166,-0.449600,0.490799,0.259734,0.545962,-0.140997,-0.100533,0.160315,-0.240689,-0.312449,0.330545,-0.017616,0.037991,-0.141121,-0.136720,0.002424,0.174041,-0.204455,-0.073787,0.131353,0.347207,-0.388661,-0.172558
0.013282,-0.314934,0.501895,-0.576849,0.163441,0.426397,0.186334,-0.316365,0.250417,-0.208379,-0.113838,0.099379,0.390057,-0.065725,0.252987,0.364664,-0.566792,0.118721,0.431208,-0.241180,0.151739,0.458858,0.000540,0.524799,-0.016536,-0.424677,0.202909,0.120918,0.117217,0.424778,0.016821,-0.178025,-0.181799,-0.428108,-0.321125,0.120349,-0.217938,-0.003943,0.091805,-0.446849,-0.414849,0.381973,0.342084,0.233404,0.487141,0.308542,0.156552,0.397779,-0.457994,-0.013466,0.402141,0.383173,0.314414,-0.137429,-0.103588,-0.077811,0.019633,-0.100878,0.073373,0.194323,-0.356196,0.330387,-0.485417,0.399793,0.265582,-0.008280,-0.008482,-0.000925,-0.502225,0.521740,0.073171,-0.494134,0.167760,0.203259,-0.356060,0.436556,0.342059,-0.250998,-0.280955,-0.290799,0.172123,-0.076579,0.400690,-0.432158,-0.487616,0.376820,-0.366862,0.010680,0.148560,0.378587,-0.326952,-0.492543,-0.318954,-0.006051,0.007236,0.080382,-0.244278,-0.017223,0.282393,0.249209,0.515105,-0.309083,0.253996,-0.290372,0.075599,0.195578,-0.326898,-0.057749,-0.122216,0.470911,0.538555,-0.303088,0.422292,-0.251876,0.353056,-0.458054,-0.045650,-0.180406,0.345025,-0.081729,0.194269,0.291442,0.352924,0.241624,-0.434096,0.190678,-0.487957,0.369498,-0.566792
