0.658449,-0.039867,-0.337588,-1.872491,0.878453,-0.076261,0.066397,0.416747,0.520162,1.140680,-0.478612,0.320437,-0.181152,0.350824,-0.375406,-0.866495,-0.453340,-0.310217,-0.722154,0.968192,1.281201,1.950059,0.196178,-0.563410,0.155209,0.777391,0.457009,0.460530,0.868573,0.075809,-0.439251,-0.159761,-0.200497,1.065959,-0.173336,-0.069859,0.469028,0.343647,0.812114,0.109248,-1.461225,-0.450477,1.055873,-0.168197,0.566681,-0.675858,0.429439,0.007582,-0.382206,-0.407826,-0.761348,0.229364,0.578600,-0.432614,0.768652,-0.822293,1.065085,-0.384234,-1.103757,-0.267361,-0.117339,-0.461138,0.120132,0.021631,0.515437,0.030567,-0.549534,-0.216221,0.315709,-0.595956,-0.635838,-0.394716,0.271980,-0.371766,-0.408117,-0.562989,-0.006914,-0.057923,-0.600406,0.033878,1.037636,0.615074,0.783649,-0.113037,-0.509813,-0.900106,-0.058759,-0.169798,0.620586,0.134008,-1.119669,-0.400853,1.074803,-0.522756,-0.104492,-0.376640,-0.626409,0.503636,0.789014,1.094509,-0.435085,-0.095165,-0.712353,0.601178,0.273147,-0.938954,-0.003778,-0.395316,-0.810210,0.378132,1.418148,0.220994,-0.322052,0.205619,1.422317,1.384324,0.955859,0.920585,-0.596013,0.737559,1.661553,0.088236,-1.086753,0.338737,-0.349337,0.121437,0.435050,-0.145389,1.674600,0.298943,-0.445208,0.088868,0.586692,-0.464021,-0.754648,-0.074610,-0.056327,-0.024404,-0.577175,-0.093600,-0.394485,-0.199771,-0.791999,-0.024180,0.246102,1.530501,-0.573620,-0.635168,-0.367053,-0.662451,-0.523084,-0.124758,0.510401,0.385030,0.058284,-0.207317,-0.050766,-0.422227,-0.812520,0.049684,0.825246,-0.644958,1.212628,1.928488,-0.814910,0.366085,-0.371878,-0.097364,0.020775,-0.915164,0.263610,-0.216847,0.501659,-0.059284,-0.261570,0.645182,1.592163,0.142073,-0.224786,-0.515432,0.585110,0.081279,-0.252806,-0.195758,0.607530,-0.062358,1.390765,1.392224,0.538242,-0.759933,0.243758,1.223682,0.450503,-0.055466,-0.160401,0.246375,0.045603,-0.170510,0.530841,1.030359,-0.063659,-0.006125,-0.141940,-0.389460,-0.769660,0.777438,0.210111,0.152564,0.030979,0.267840,0.269902,-0.832784,0.437197,-0.272801,-0.502972,-1.278750,-0.472459,-0.503939,0.212254,0.982687,-0.422545,0.725875,-1.240770,0.468522,-0.590793,0.328881,-0.105404,0.204534,-0.004102,0.334264,-0.176261,0.428448,0.332237,-0.733270,-0.207531,-0.321350,-0.286960,0.367808,-1.190579,0.079502,0.277077,-0.460145,-0.256879,0.381928,-0.701134,-0.444210,-0.107301,-0.433244,-0.573326,0.131241,-0.535077,-0.631148,-0.084862,-0.082713,0.052143,0.112717,-0.037853
0.658449,0.473210,-0.514861,-0.318273,0.584802,-0.644857,0.167203,-0.083455,0.604392,0.082585,0.745585,0.103387,0.032229,-0.322037,0.268876,0.648653,-0.682207,-0.326996,-1.021039,0.385522,-0.641727,-0.033630,0.235217,1.567948,0.193310,0.732770,0.788971,0.411821,0.252063,0.138445,-0.240688,-0.095907,-2.134444,0.227012,0.897580,-1.241343,0.020148,-0.540096,1.170462,-0.083793,-0.789634,-0.317643,0.374825,-0.380831,-0.116613,-0.084361,-0.422541,-0.654961,-0.280010,0.457318,-0.996708,-0.480225,-1.198987,2.100096,0.896208,0.325951,0.063878,-0.448717,0.237714,1.019241,-0.803232,1.380806,-1.002669,-0.031733,-0.741191,-0.466583,1.041761,0.239715,0.511933,-0.115015,-0.064016,-0.964610,-0.279970,-0.240355,1.256346,-0.745549,-0.557098,-0.220148,0.754052,-0.607532,0.298032,-0.422823,-0.776647,1.329717,-0.511306,0.442042,0.131171,0.196831,-0.372273,-0.623953,-1.402169,0.558039,-0.085371,0.708056,0.096259,-1.114816,0.161302,-0.194926,0.309741,1.021208,0.689102,0.613092,-0.391083,-0.492138,-0.135577,0.567149,-0.144461,0.620059,0.650008,-0.622192,0.904898,0.208506,-0.117490,0.132770,1.200319,0.486110,-0.986203,-0.332478,1.095362,0.156954,0.705006,-0.245321,-0.058066,-0.280266,-0.446551,0.220341,-0.802627,0.781378,0.495537,-0.260893,-0.256223,-0.398061,-0.367654,-0.843159,-0.059026,-0.312422,-1.137753,0.151742,1.587432,0.352256,-0.777003,0.294538,-0.332909,0.022514,0.072853,0.970638,0.128347,-0.121881,-0.658332,0.369433,-0.109693,-0.220022,-0.430598,-0.138658,0.813744,-0.587914,0.185373,0.189409,0.905569,-1.087608,-0.592541,-0.487416,-0.712412,0.369409,0.461243,-0.449737,0.455903,-0.100342,0.109578,0.414802,0.152388,-0.032630,-0.029276,-0.173678,0.472574,0.131005,-0.826044,-0.057040,-0.386947,0.407136,-1.313082,-0.664157,-0.256515,0.578383,0.928711,-0.333303,0.472312,0.141442,-0.691066,-0.102644,-0.029291,-0.537208,-0.327907,0.331956,-0.106727,-0.778483,-0.644922,-0.656119,-0.005995,0.624263,-1.517036,-0.421984,-0.826789,0.504709,0.670967,0.195629,-0.029467,0.053638,-1.222657,-0.668322,0.059847,0.544836,2.418588,-0.129516,-0.647973,0.466267,-0.185892,-0.851248,0.246533,0.386356,0.545671,0.231522,0.679126,-0.544831,-0.803485,-0.575892,0.046638,-0.116113,-0.027301,0.039447,-0.578423,-0.188351,-0.105126,0.711443,-1.290388,-0.889396,-0.566238,0.629474,0.386131,-0.547481,-1.044064,-0.024956,-0.569739,-0.046693,0.140389,-0.309082,-0.037167,0.097217,0.089192,-0.023673,1.603934,-1.995556,-0.205093,0.004772,0.228619,0.331990,0.384792
-0.579413,-1.054471,0.371508,-0.342715,0.976407,0.138779,-0.244374,-0.010646,1.453563,-0.561382,0.837645,-0.404614,-0.042202,-0.073963,0.132109,1.534578,-1.048910,0.817757,-0.106026,0.211904,1.099881,0.377668,-0.460304,-0.404892,-1.355178,0.132888,-0.348980,-1.076634,-0.423915,-0.466387,-0.449616,-0.451029,1.260112,-0.739014,-0.735589,1.799325,0.408542,-1.227763,-0.504186,-0.505488,1.077323,0.467359,-0.685185,-1.037889,-0.359611,0.200948,-0.541412,-0.009421,0.718809,-0.125863,0.616917,0.308044,1.211535,-0.713153,-1.850858,-0.842640,-0.016126,-0.121692,-0.432257,-0.218106,0.969731,-0.359090,-0.546586,0.063017,0.034985,0.354956,-0.379632,-0.415914,-0.750172,0.141977,0.546664,-0.625250,0.190263,-0.862102,-0.476463,0.691114,0.097612,1.068358,-0.557782,0.093265,0.151931,0.421900,0.376134,1.217733,-0.121116,0.027412,0.228144,0.166731,-0.926421,-0.033270,1.601836,0.362408,0.365524,0.629632,0.922903,-0.275575,1.272962,0.053512,1.038733,-0.600218,0.656524,-0.719200,-0.409375,0.192787,0.443290,-0.120721,-0.107156,0.156889,-0.100186,0.473534,-0.722673,0.371866,0.529512,-0.249627,-0.910823,-1.005996,-0.402764,-0.109467,-0.402106,-0.925970,-0.410026,0.055055,0.091199,-0.210726,-0.182639,-0.169710,-0.420861,-0.000831,1.738427,0.103506,-0.888091,-0.012666,0.707440,0.063399,-0.675857,0.400309,1.278755,0.007611,0.622930,0.859558,-0.756175,0.590803,-0.285667,0.042142,-1.128755,-0.855895,0.189354,2.481936,0.248634,0.104105,-1.156628,0.536484,0.247237,-0.561587,0.092564,0.322071,-0.160628,0.506618,-0.693046,-0.582746,-0.718849,0.009251,0.255438,-1.452989,-1.079109,-1.120203,-0.202572,-0.513542,-0.161276,-0.740543,0.213054,-0.411685,0.597108,0.160065,-0.734507,-0.029731,-1.152362,0.550937,0.338999,0.526640,0.561349,0.921564,-1.188336,0.032314,-0.459094,-0.096559,-0.965356,-0.593069,0.097386,-0.249425,0.041040,0.904723,0.249605,-0.168126,-0.113137,-0.364971,-0.458607,0.529792,0.395326,0.201301,0.665465,-0.347426,0.236043,0.121688,-0.011472,1.213580,0.288563,0.003477,-0.645966,1.078293,0.064403,-0.182981,0.818330,-1.051976,0.005397,0.353612,-0.338776,-0.201781,0.062298,1.005889,-0.368538,0.036932,-0.829289,0.458579,0.693213,-0.890110,-0.529046,0.076950,0.275996,-0.400448,0.631220,0.659832,-0.442049,0.196257,0.102455,0.506846,0.426442,0.765102,0.398985,-0.068865,-0.166303,0.161524,-0.329267,-0.243307,0.997232,-0.124988,0.830245,0.012796,-0.282624,-0.483177,1.117895,0.552498,0.638150,-0.408643,-0.088580,0.809930,-0.375798
0.487680,0.042017,-0.131809,-1.398582,0.039400,-0.293458,-0.309676,0.077996,0.112851,-0.673364,1.068020,0.811545,-0.088204,-0.253637,-0.377610,-0.236111,-0.478531,-0.614486,0.985695,-0.693175,0.846046,-0.620683,0.069407,1.769630,-0.213225,-0.146545,0.414451,0.330317,-0.418639,-0.239588,0.580296,0.851629,-0.822495,-1.235362,-0.407742,1.034908,-0.854755,0.626045,0.433848,-0.097719,0.665842,-0.201154,0.155417,-1.032234,-0.205780,-0.340633,0.800603,1.206420,-0.156842,-0.722635,-0.361675,0.063066,0.552230,1.017310,-1.293270,0.818493,0.757822,-0.261928,-0.051584,-0.050069,-0.339112,-0.924507,0.366602,-0.369349,0.269811,-0.421988,0.714255,0.553972,0.478811,-0.045583,0.924103,0.596593,0.051014,-0.309370,-0.308036,-0.095368,-0.355372,0.102394,0.739653,0.349020,0.092169,-0.711105,-0.240837,1.106401,0.649096,0.744859,0.420501,0.106039,1.754662,-0.738857,0.999400,-1.587792,0.605684,-1.317195,-0.375712,0.115400,-1.129200,0.001734,0.849430,-0.195678,0.808965,0.227499,0.090594,-0.211332,-0.696863,-0.998242,-0.144617,0.610562,0.285632,-0.002141,1.132770,-0.502048,0.156761,-0.607375,0.845418,-0.653257,0.493908,-0.158250,-0.189885,0.000811,0.750559,0.378392,0.308535,0.877934,-0.767607,-0.327012,-0.782586,0.431537,-0.543001,-0.375864,-0.241674,0.291828,-0.712352,-0.858199,0.592656,-0.327691,-1.023024,0.248653,-0.659009,-0.586019,0.868617,0.311137,-1.068046,-0.031408,0.897972,-0.346635,0.509457,-0.741914,-0.526927,0.298500,-0.172550,-0.649516,-0.453950,1.050110,0.233760,0.015645,0.361928,0.395057,0.144693,-0.680383,1.350601,-0.283327,0.428656,0.601942,1.216554,0.554437,-0.210036,-0.272353,0.256758,0.408619,0.870640,-0.096488,-0.394798,1.852967,1.439091,-0.639812,0.166200,-0.468909,-0.215649,-0.749756,0.320151,0.387903,-0.470526,0.154460,-0.488434,-0.908422,-0.095380,-0.933375,-0.555009,-0.984171,-0.104159,-0.160480,0.438197,0.440984,-0.227203,-0.644508,-0.596113,-0.271129,-0.035523,-0.622830,-1.117058,0.177234,-1.023590,0.298389,0.198456,-0.611754,-0.902447,0.012872,-0.074606,-0.274374,-0.918687,-0.840482,0.045656,0.726052,-0.012297,-0.640654,-0.189924,0.361410,0.854857,-0.526936,0.632939,-0.346977,-0.495092,0.118906,-0.122956,0.194380,0.500956,0.524636,-0.439903,-0.078734,-0.196592,0.199257,-0.535936,-0.271427,-0.492595,-0.448713,0.494252,0.065032,1.035588,0.676316,-0.672660,-0.043035,0.426623,-0.696162,0.270851,-0.384780,-0.643875,0.346910,-0.747922,-0.104574,0.674731,1.389571,-0.732041,0.290348,-0.325815,0.846287,0.061498
-0.401843,-0.471115,-0.115451,0.207609,1.095289,0.701426,0.035049,1.561778,0.765867,-0.285787,-0.902829,-0.104024,0.030217,0.600702,0.956233,0.928202,0.815067,0.000162,-2.280346,0.313780,-1.345556,-0.522732,0.306710,0.023902,0.545096,-0.364685,0.247014,-0.221332,-0.417691,-0.243173,-0.524001,-0.155454,-0.408885,-0.148283,0.450767,-0.153928,0.224131,-0.874619,0.274649,-1.040995,0.196346,-0.368091,0.560068,-0.381456,-0.006016,-0.542833,-0.193842,-1.101237,0.707367,-0.024366,0.020418,-0.598087,-0.814522,0.316545,-0.653106,0.406773,-1.625881,-0.878554,0.994284,-0.456980,0.695192,0.700072,0.271867,0.113750,-0.139777,0.776300,0.324136,0.221836,0.163091,0.162507,0.352486,-0.389426,-0.100140,-0.414213,0.841562,1.166465,-0.537061,0.731615,-0.490018,-0.453308,-0.281851,1.096879,0.248230,3.349181,0.738552,-0.108479,-0.027334,-0.065571,0.088813,0.906567,-1.580662,-0.694934,-0.720273,1.563257,1.712394,-0.529318,0.552652,0.676750,-0.697971,0.604617,0.466443,0.925898,-0.402305,-0.877311,-0.552761,0.900567,-0.113443,0.577566,0.120385,0.508041,-0.331562,0.300186,0.450240,0.234679,0.369864,-0.315927,0.583716,-0.267038,0.506947,0.358737,-0.167784,-0.517425,0.053633,-0.068587,-0.097070,-0.352675,-0.213634,-0.206809,-0.079603,-0.804228,-0.355781,-0.493859,0.940819,0.297572,0.350303,1.290629,0.215516,0.123898,-0.220854,0.062635,-0.783458,-0.125597,-1.029506,0.029558,-0.544928,-2.078139,-0.093910,0.414455,0.091892,1.030150,-0.298216,-0.082650,-0.163654,-0.289358,0.269867,-0.519492,-0.794867,0.626632,-0.100671,0.388172,-0.414426,0.291299,0.400753,0.517953,2.318626,-0.280907,-0.359639,2.438340,-0.237355,0.510718,-0.319352,-0.619825,-0.396246,-0.879184,-0.664901,-0.159523,0.263327,0.295031,0.496716,0.885711,-0.107044,0.778775,0.594695,-0.033156,-0.134059,0.783167,0.376120,-0.025268,0.535327,0.631697,-0.098871,0.269750,-0.644769,0.333305,-0.201173,0.125600,0.029179,-0.012875,0.128651,-0.788691,0.691535,-0.640344,-0.992550,0.536407,-0.513446,-0.924443,0.246411,0.336786,-0.626710,0.208598,0.322865,-0.301900,0.432677,-0.097371,-0.528071,0.498002,0.288068,-0.411202,0.367869,1.176419,0.323196,-0.760174,0.968685,0.498431,-0.389975,-2.117096,-0.613771,-0.174355,-0.177863,0.402036,-0.687600,-0.647159,0.046599,-0.888633,-0.223976,-0.202619,-0.087414,-1.500587,-0.257287,0.231698,-0.241896,0.079389,-0.244696,-0.353940,0.558872,0.309526,-0.048210,0.208329,1.407414,-0.219325,0.142311,-0.935902,0.293991,-0.052838,-0.235041,-0.355894,-0.136616
1.010953,0.934861,-0.386605,0.374579,-0.584635,0.765046,-0.156493,0.241315,0.890035,0.237615,0.414609,0.433763,0.702962,0.465554,1.106074,-0.680194,0.489931,0.167333,-1.239227,0.200891,0.036970,0.889107,-0.316259,-0.725991,0.604424,-1.133939,0.251985,-0.793561,0.048490,0.290039,0.925594,0.704058,-0.115541,0.016265,0.247519,-0.341111,-0.153297,-0.592694,-0.196053,-0.632739,-0.030411,-1.528287,-0.148158,1.068816,-0.777552,-0.212881,-0.264648,-0.539399,0.201477,-0.250235,-0.343427,0.365841,-0.419696,-0.751638,-1.128441,-0.578260,0.735150,-1.784837,-0.181090,-0.781989,-0.437954,0.135725,-0.016157,-0.332505,-0.071416,-0.204249,0.174855,1.075006,-0.572530,0.272747,-0.354287,-1.705221,0.311427,-0.482675,0.299044,0.517125,0.591122,0.566504,-0.581129,0.380798,-0.442009,0.760107,0.103426,1.615337,0.891859,0.656759,0.174932,0.449762,0.992276,0.561006,0.303874,-1.496781,-0.059389,1.789081,-0.913115,1.141683,-0.237520,-0.304426,-0.821770,-0.522678,0.244895,-0.821883,-0.784712,0.225458,0.054718,-0.227040,-0.061780,0.039312,0.070342,0.247670,0.342301,-0.057647,0.613982,0.482552,0.758283,-0.553088,-0.570904,-0.181752,-0.804373,-0.004575,-1.493522,-0.090389,-0.388827,-0.010306,0.269541,0.254276,-0.638885,0.134880,1.180883,0.129468,0.846827,-0.753501,0.089729,0.527969,-0.527425,-0.403523,0.949925,0.419495,1.238633,0.147905,-0.766701,-0.245329,0.961568,0.014396,0.590827,-0.185384,0.094279,0.149805,-0.312458,-0.014802,1.372830,2.722337,-0.467215,1.613132,0.097359,0.117203,0.911175,-0.631549,0.407875,2.162225,-0.266515,1.076682,-0.110819,-0.077946,-1.272946,0.114625,0.490209,0.403506,0.054830,-0.141443,0.550519,0.623435,0.514842,0.678082,-0.372988,-0.350720,-0.255852,0.089148,1.101404,-0.274605,-1.080130,0.664017,1.289153,-0.399724,-0.687801,0.051455,-1.661361,0.553778,-1.233498,0.280704,-0.363089,-0.821692,0.796375,-0.628847,0.615180,0.940181,0.111876,-0.045200,-0.004507,0.025814,-0.640229,-0.995252,0.225514,-0.150435,-0.231111,-0.044921,-0.137381,1.112421,-0.644468,0.459982,0.208570,0.868768,0.358539,-0.939107,-0.229567,0.527822,-1.048069,0.036634,0.492502,2.072771,-1.059861,-0.431080,0.815681,-0.039299,-1.059387,-0.252163,-0.332955,0.446627,0.227292,0.564368,-0.168877,-0.374268,-0.299330,0.004689,0.290500,-0.124749,-0.566592,-1.017454,0.354464,0.668350,-0.195317,-0.246440,0.093006,0.674870,0.332084,-0.064884,-0.349692,-0.258949,-0.093437,0.026559,0.579806,0.620611,-0.024969,0.348039,0.080359,-0.680538,0.264312
-0.533779,0.547666,-0.872984,1.124943,0.170122,-0.459047,0.094234,0.139122,-0.776416,-0.078529,0.465151,0.173782,0.525245,-0.380518,0.262061,1.022008,-0.811204,0.909481,1.993362,-0.367962,0.267360,-0.195815,-0.340595,-0.415945,0.304287,1.544772,-0.675474,-0.666995,-0.468538,0.309137,0.034093,-0.801208,0.559461,-0.479736,0.370862,0.631678,0.426535,-0.525776,-0.506941,-0.121659,-0.270200,-0.649119,-0.871783,-0.335210,0.179435,-0.126474,-0.927340,0.168777,-0.132253,0.775606,-0.562018,-0.605034,-0.257078,0.150565,-0.672056,-0.469646,-0.185555,0.665197,1.786270,-0.125882,0.963559,0.645312,-1.643453,0.719272,-0.542241,0.836268,0.506743,0.185719,0.692436,-0.241223,-0.405019,-0.271189,0.206371,-0.119326,-0.954919,-0.251565,-0.457466,-0.624472,-0.284537,-0.736087,0.016757,-0.295052,-0.552544,0.880568,0.052793,-0.463078,-0.172000,0.635726,-0.264571,-0.826869,-1.793529,-0.189488,0.156392,0.815671,0.384417,0.667401,0.074521,1.039654,0.062582,-0.240208,-0.064719,-0.244888,0.355782,-0.643696,-0.177382,-1.614444,-0.095005,-0.333492,0.646563,0.419560,0.438149,0.453427,0.104955,-0.355934,-0.541936,0.211255,-0.453341,-0.296533,0.808030,-1.027540,0.739880,-0.407615,-0.666744,-0.160801,-0.279322,0.157437,0.709723,1.060923,-0.874682,0.391083,-0.393805,0.388594,0.633578,0.182403,1.805489,0.305486,-0.428605,-0.459062,0.320748,-0.283717,-1.454181,0.231873,0.618365,-0.051987,-0.409541,-0.554149,0.610153,-0.244602,-0.723635,-0.292913,-0.620017,-0.918133,-0.133781,-0.340200,-0.250243,-0.003803,-0.757443,1.284974,-0.216378,-0.581303,-0.376104,-0.836131,0.093493,-0.675292,-1.467346,0.660322,0.166667,-1.120462,0.027118,-0.534164,-1.011914,-0.103387,-1.254956,-0.101714,0.577659,-0.220986,-0.006944,0.364008,0.716968,-0.408911,0.764214,-0.749530,1.389373,0.266218,-0.670955,-0.901531,-0.181315,-0.878249,0.787989,-0.825190,1.925171,-0.348681,-0.170567,0.712978,0.248720,-0.154720,-0.738687,0.358082,-0.051735,0.437694,0.516072,-0.080869,-0.113755,0.379961,0.575870,-0.431397,0.793688,0.725560,0.618121,0.027945,0.087261,0.466007,0.337788,0.678164,0.932979,0.108864,-0.650487,1.292217,-0.121321,0.559012,-0.180812,-0.178823,-0.585450,-0.623720,2.404740,-0.873016,-0.275499,-0.091410,-0.382511,0.238373,0.624997,0.892180,-1.148584,-1.038787,2.149860,0.398524,0.316610,0.518855,-0.106771,1.004097,0.159004,0.299024,-0.143796,-0.265170,-0.232290,0.053362,-0.335814,-0.022927,0.705864,-0.168611,0.868602,1.308967,-0.878463,-0.471603,0.133896,0.897123,0.260868
-0.823637,0.382826,0.209284,2.014931,-1.208908,1.238647,0.374700,-0.150903,0.380208,0.461138,0.668606,-0.086385,1.254676,0.088928,-0.153160,0.222315,0.584637,0.675377,1.389722,0.840013,-0.219748,0.067761,-0.307048,0.495081,0.721224,-1.192774,-0.326030,0.627740,0.738109,-0.594812,-0.619035,0.193952,-0.168310,0.629437,1.017011,-0.263003,0.881884,-0.488932,-0.347280,-0.629953,-0.150148,-0.877782,-0.919216,0.162160,-0.530524,0.405284,-0.509157,0.247093,1.301886,-1.326657,-0.024582,-0.573458,-1.086103,-1.200948,2.040964,0.559612,0.838012,-0.940908,-0.884751,1.113627,-0.356687,0.496674,-0.082779,0.504323,0.449004,-0.703598,0.159510,0.353729,0.430248,0.104670,-0.211102,-0.248922,0.223326,0.164402,-0.159940,0.260644,1.060700,0.083789,0.048179,0.020703,-1.216170,0.567944,0.534932,-1.862308,0.895706,0.155231,0.350867,0.765544,-0.508171,0.406787,1.316300,-0.320606,-0.971656,-0.896513,0.153016,0.366712,0.262950,-0.426450,0.303965,-0.104839,-0.280689,0.426074,0.540786,0.184412,0.609035,0.501466,0.656800,0.449797,0.109845,0.849621,-1.337767,-0.345586,-0.235315,0.868331,1.037015,1.597615,-0.412914,1.136453,-0.730000,0.893845,-0.488200,-0.305145,0.152261,-0.479901,-0.280762,0.378378,1.716345,-0.038648,-0.253406,1.541007,-1.462079,-0.593299,0.269906,-0.537141,-0.522671,-0.385811,-0.315335,-0.114066,-0.683072,-0.726255,-0.399446,-0.584384,-0.364682,0.010873,0.273338,0.610263,-0.883924,-0.322601,0.505522,-0.023093,0.635024,-0.075608,0.377977,-0.437263,0.194131,-0.290765,-0.420270,1.163403,0.945303,-0.328316,-0.491975,-0.568514,-0.174485,-0.169831,-0.996303,1.874959,0.014797,0.784511,-0.004494,1.040236,-0.056150,0.609790,-0.878298,-1.023097,0.454860,-0.458380,0.319913,0.675997,0.692460,1.182374,0.411719,0.726143,-0.522462,0.605363,-1.344943,0.158681,-0.322832,0.167975,0.345293,-0.698519,-0.017929,0.165718,-0.993982,1.182860,-0.183965,-0.477283,1.601594,-1.498986,-0.235895,0.676763,-0.110305,-1.180228,0.517556,0.650045,-0.233731,-0.703844,0.482680,-0.111204,0.358902,0.500878,-0.302238,0.005763,-0.198308,0.987694,-0.398503,0.329915,-0.009806,-1.411863,0.220819,-1.980309,0.450489,0.219993,-0.533052,-0.243607,-1.114976,0.192232,1.078640,-0.519751,-0.280224,-0.027914,-0.657127,-0.384627,-0.205338,0.792453,0.315151,-0.409703,-0.621022,-0.548717,-0.000383,0.522788,0.278958,-0.667852,0.121376,0.042694,-0.364500,-0.259183,-1.122868,0.007104,-0.143176,0.154025,0.061938,-1.166340,-0.291310,1.020604,0.206555,0.064606,0.782390
0.700046,-0.726494,0.250248,-0.054774,-0.944893,-1.210793,-0.412841,-0.947647,-1.039414,0.726178,-0.037130,-0.484486,0.110992,0.188903,-0.212724,-0.215871,-0.480543,0.819656,-0.283231,-0.686103,1.074975,-0.456031,0.881442,-0.942268,0.903031,-0.866148,0.876944,1.110865,0.875492,-0.185231,-0.297876,-0.028517,0.696673,0.220835,0.550403,-1.003514,-0.918029,-0.117171,0.819338,-0.359058,0.385153,1.644170,0.767640,-0.421914,-0.031847,0.166733,0.344595,0.998384,0.787550,-0.659585,-0.337282,-0.578485,0.549289,0.694657,-0.069805,-0.873155,1.450928,1.675452,-0.108369,-0.535980,0.712115,-0.602455,0.640096,-0.568449,-0.184436,0.337749,0.385188,-0.280256,0.368142,-0.182490,0.099280,-0.006283,-0.218560,0.183570,0.557652,1.001656,-0.324819,0.273679,-0.435521,1.440369,0.616636,0.008792,0.417356,-1.364860,-0.578132,-0.072959,-0.394560,-0.456409,-0.202313,-1.175164,-0.636297,-0.317943,-0.203147,-0.221169,-1.041137,0.296426,-0.858730,-0.798312,-0.741203,-0.052708,0.991951,-0.025938,-0.513528,-0.557374,-0.239016,0.338533,-0.255960,-0.196087,-0.030013,-0.897527,-0.531154,-0.037319,-0.429040,1.880668,-0.003189,0.045612,-0.145369,-0.007526,-0.249798,0.395790,-0.060295,-0.101763,0.902121,-0.069444,-1.622286,-0.459454,-1.162918,-0.023859,-1.336326,0.276363,-1.147268,-0.637109,-0.710754,0.284174,0.125266,-1.147007,0.150128,-0.226797,0.748330,0.267639,-0.412838,-0.244376,-0.152347,-0.009417,0.072331,0.517531,0.321477,0.150479,1.026704,0.518552,0.067098,0.393223,0.135454,-0.727203,0.109096,0.035698,-0.148913,-0.367911,-1.059265,0.355630,0.566280,0.444458,-0.706687,-0.852813,-0.821890,0.389921,0.304726,0.092370,0.311809,-0.264193,0.243949,0.493905,-0.286984,0.631136,0.236591,-0.290413,0.002922,-0.863093,-0.888658,-0.296964,-0.798323,0.510789,1.001167,-0.454712,0.167377,0.305817,0.348146,0.119449,-0.809533,-0.172675,1.351045,0.201444,-0.008057,-0.585790,0.581394,0.933809,-0.009597,-0.345311,0.486170,0.571263,0.214351,-0.310869,1.543931,-0.420750,0.150270,-0.405896,0.154164,0.583246,1.599358,-1.015538,0.428421,0.311105,-1.255250,0.980478,0.059286,0.928739,-0.313565,0.297413,-0.199465,0.164700,-0.231249,-0.251354,0.675096,0.190443,0.754303,0.471829,-0.713480,-0.098469,0.699680,-0.097170,-0.276365,0.388982,-0.000896,-0.679394,0.430922,-0.025691,0.527574,-0.764640,0.204582,1.140125,-0.465296,-0.019373,0.272912,0.061904,0.464480,-0.642447,1.254623,-0.439005,0.563959,-0.796071,-0.833066,2.106538,2.389558,0.048298,-0.019776,-0.064270,-0.090657
0.758663,-0.009524,1.054143,0.508590,-0.283527,-0.318613,-0.116656,-0.934004,0.105829,-0.376640,-0.347022,-0.558731,-0.552289,-0.220419,-0.598180,-0.466046,-1.187552,-0.066985,-0.186853,-0.331011,1.315169,-0.132181,-0.743054,-1.808408,1.303026,-1.294705,0.855014,0.906371,-0.295562,-0.122424,0.480613,-0.695982,0.194238,0.220575,0.348474,-0.702834,0.784570,0.220996,-0.740421,-0.267413,0.714575,1.658692,0.905048,-0.634933,-0.096177,0.340469,0.208387,-0.870407,0.000939,-0.281305,0.782264,0.507964,-0.518094,-0.941439,0.817417,-0.310562,1.094346,1.293302,0.072145,-0.339957,0.675343,-0.948137,0.108308,-0.189315,0.876492,-0.319385,-0.150141,-0.177336,0.447450,0.728487,0.216985,-0.378179,-0.293776,0.406198,-0.684518,0.876374,-0.295955,-0.110952,0.346622,0.740423,0.552279,0.032778,1.155571,0.113310,0.662394,-0.657186,-0.188106,0.111143,-0.675297,1.146246,0.841371,0.247419,0.207851,-0.466977,-1.095181,0.016837,0.727116,-0.142998,2.046814,0.424963,0.204350,-0.677691,-0.707560,-0.023434,0.447338,-0.677165,-0.268157,1.039575,0.735335,0.949946,-0.095648,0.336973,-0.506178,-0.211640,-0.060495,0.138490,-0.110986,-1.427290,-0.065259,0.753040,0.005402,0.300919,0.750106,0.469996,-0.507248,-0.309724,-0.581747,0.175488,-0.595443,1.107017,0.548332,0.455883,-0.895420,0.415420,-1.189825,-0.297248,0.532290,0.099876,1.150507,-1.139612,-0.763658,0.490670,0.241827,-0.020343,0.582129,0.942100,0.734078,0.797163,0.258138,0.629893,1.486218,-0.294102,0.088754,-1.544531,-0.121395,-0.207843,-0.592236,-0.119802,-0.714031,0.321531,0.995548,-0.066908,-0.818406,-0.101095,-0.550840,-0.150369,1.052591,-0.955053,-0.581001,0.564051,-0.957640,-1.547427,-0.782730,0.012412,-0.171774,-0.028672,0.249734,-0.517225,-0.334656,0.388053,0.598191,0.651636,-0.626920,-0.584169,-1.202779,0.555579,1.344348,0.713817,1.285572,0.517056,0.222606,-0.075857,0.707988,-1.041361,-0.230197,-0.849540,-0.046438,-0.982220,0.075128,0.445083,-1.254670,-0.483015,0.555454,0.202566,0.255525,1.442422,-0.455496,-0.584039,0.782541,-0.098070,-0.772016,0.133146,0.168271,-0.450488,0.396354,0.527992,-0.113490,0.167372,0.798816,-0.673119,-0.415992,0.012806,-0.251481,-1.124973,0.359160,-0.311016,-0.494795,0.075488,0.520404,-0.086808,1.152987,-0.289649,-1.309029,-0.290702,-0.317153,-0.036577,-0.628617,-0.571801,-0.135975,-0.390486,-0.002192,0.636526,0.868937,-0.354229,-0.742001,0.311519,1.215802,-0.378316,-0.700137,-0.247550,-0.823485,0.986759,0.486892,1.207284,0.149079,0.806973,0.369792
-0.859407,-0.722116,0.193974,1.760402,0.061754,0.653173,-0.171005,0.540665,-0.796463,-0.536748,-0.441137,0.353541,-0.236335,-0.992504,-0.292388,1.164928,1.903029,0.270138,-1.158704,0.591469,-0.953516,0.195799,0.609907,-0.596435,-0.650272,-1.088832,0.372994,0.353202,-0.336955,0.010084,0.068615,0.290036,0.316860,-0.004426,1.898767,0.832376,-0.068947,-0.591891,-0.115019,0.158392,-0.612450,-0.886726,-0.219815,0.327750,-0.480480,-0.009162,0.411997,0.617848,-0.197449,0.699587,-0.418942,0.128050,1.827700,-0.756385,0.559941,-0.299262,-0.359974,-0.825379,-0.383325,0.213927,-0.544583,-0.588969,0.185845,0.841478,0.514907,0.732618,-0.081845,0.584990,-0.404509,0.067413,-0.649909,0.371057,0.802231,0.146811,0.159649,0.741125,0.330971,-0.209838,-0.208280,-0.516974,-0.672733,0.233044,1.031251,-1.391697,-0.503615,-0.085793,-0.269883,-0.148013,-0.365472,0.336305,1.253885,0.746510,0.043251,-1.286173,1.047200,-0.220015,-0.441830,-0.537429,-0.258539,0.091376,-0.926883,0.516568,1.213792,0.774411,0.677419,-0.137510,-0.110343,0.547440,-0.244198,0.397003,-0.820550,0.271689,0.046793,0.458117,-0.490236,-0.189925,-0.637477,1.254039,-0.373054,-0.852357,0.106134,-0.419968,0.576734,-0.431138,0.242222,-0.140892,0.038541,-0.653594,0.561180,-0.824887,-1.048772,0.141236,-0.628166,-0.563769,0.189134,-0.798601,2.171968,-0.120925,-0.810872,-0.517544,-0.165551,-0.144988,-0.645373,-0.015920,0.321749,0.494930,-0.279557,0.280329,0.422153,-0.189472,-0.177162,-0.795859,-1.261122,-0.182020,0.348146,-0.177286,-0.584810,-1.057828,0.085257,-0.991591,-0.433454,-0.791936,0.454219,0.040763,0.419017,1.739799,-0.149820,0.785583,-0.740728,0.015293,-0.711585,1.701807,-0.368456,-0.640455,1.004508,-0.323880,-0.517667,0.130262,0.234208,0.205998,-0.465677,-0.743635,0.531323,0.135436,-0.580947,-1.300521,0.778209,0.900311,-0.319101,0.249702,0.147962,0.867869,-1.062167,-0.248341,-0.304966,0.481661,0.105459,-0.965911,-0.708353,-0.906724,1.055376,0.111662,-0.436494,0.703639,-1.357655,-0.577331,-0.854149,-0.548024,0.719610,0.337378,1.067537,-0.392721,-1.106000,0.837980,-0.060001,-0.052904,0.851996,-0.337817,0.542188,-0.950575,0.008163,0.373760,1.318753,0.804121,-0.089190,1.704419,0.034784,-0.351076,-0.778814,-0.287708,-0.254622,0.318291,0.285709,-0.101675,0.654912,0.884429,0.279663,0.402224,-0.037411,1.286649,-0.345906,-0.462668,0.936927,-0.079284,-0.339412,0.854093,-0.385646,0.300628,2.382963,0.598626,-0.041281,0.431806,-0.527983,0.065004,-0.227415,0.582663,-0.395311
-0.870773,-0.907793,-0.390537,-0.088562,-0.197061,-0.615170,-0.361567,1.658600,-0.883156,-0.262267,-0.476122,0.483542,0.588697,0.106410,-0.454217,-0.665589,-0.708822,-0.003612,0.613928,-0.026050,0.763671,-1.295300,0.513337,-0.796186,0.046577,-0.324733,0.375643,0.030620,0.084170,-0.120134,-0.400567,0.029408,0.596747,0.520538,0.378596,-0.476937,-0.681385,0.955839,0.312611,1.785518,0.173956,0.804531,1.868079,-0.518356,-0.430853,1.091058,1.918929,0.575529,-0.252717,-0.476291,1.122317,-0.801446,1.493193,1.124072,-1.167974,0.885129,-1.334133,1.352386,0.426803,0.533687,0.482636,-0.172912,0.371993,0.397071,0.679880,0.520769,-0.682001,-0.183366,-0.002316,-0.543611,-0.386131,1.490419,-0.090584,-0.234935,-0.107207,0.028473,-0.350776,-0.584596,-0.082347,1.620145,0.851045,-0.370078,0.618841,-0.550410,-0.040705,-0.246107,-0.121156,-0.166607,-0.224847,-0.592299,0.153441,0.484096,1.299794,0.157420,-0.755423,-0.914202,0.350572,-0.194245,0.036686,-0.108613,0.461878,0.506635,-0.606910,-0.266766,0.085710,0.531425,0.265333,0.168242,0.621499,0.021467,0.240910,0.150696,-0.019684,1.066093,-0.816083,-1.067182,-0.535865,-0.272152,0.689803,0.636828,-0.546213,-0.296296,0.795560,-0.196538,-0.016260,-0.313519,0.418643,-0.088381,0.153522,-1.896252,-0.376353,0.295259,-0.222868,0.385920,0.167531,0.643155,0.072181,-0.189545,0.851768,-0.741824,1.644487,0.280560,-0.493212,-0.020990,-1.195577,0.537481,1.072256,-0.293133,1.555171,-0.676616,0.044386,-0.564893,-0.490211,-0.029169,0.391596,-0.459389,-0.451655,-0.251693,-0.442263,-0.154104,0.649960,0.519995,1.245455,0.553459,0.103422,-0.940388,0.174140,0.305987,0.595157,-0.135929,0.117654,0.253457,0.689371,-1.096523,-0.814781,-0.153196,0.567550,-0.198886,-0.750600,2.311137,-0.929597,0.059764,-1.834361,-0.447379,-0.154107,0.803378,0.784225,-0.630831,0.787748,0.104900,1.195744,0.802685,0.817665,0.429664,-0.346727,0.944369,-0.427899,-1.169218,0.008683,1.362905,0.662861,-0.164910,-0.875877,-0.498933,1.366517,-0.293126,-0.423998,0.247073,-0.271806,-0.136199,-1.252577,-0.011617,-0.578716,-0.962182,0.097541,0.151526,-0.718940,-0.877658,0.618650,0.413065,0.243256,0.126952,0.218990,0.947805,0.171225,-0.209618,0.014462,-0.106426,-0.547742,-0.550131,-0.006294,1.149534,1.261806,0.764592,0.045926,0.698890,0.475140,0.711299,0.172358,-0.585804,-0.170382,0.023584,-0.262539,-0.105377,-0.377024,0.590076,-0.165635,-0.045824,0.261647,-0.876944,0.481734,-1.119358,-0.106899,-0.807278,0.312006,-0.246637,-0.180047
-0.472111,-0.627341,-0.227127,-0.858518,-0.312340,0.625857,-0.184910,0.798886,-0.627551,-0.468631,-0.615559,1.917374,0.094573,-0.328904,1.310346,-0.353562,-0.891203,-0.615046,-0.144463,1.068596,-0.497719,0.528070,-0.370673,-0.408532,-0.382273,1.237405,0.365750,-0.904561,-0.353224,2.856117,-0.488181,1.445424,-0.105702,-0.000545,-0.314864,-1.273775,0.872378,0.009909,0.192954,-0.119646,-1.557627,-0.363651,-0.011515,-0.543890,-0.548553,0.160242,-0.235968,0.024752,-0.259968,1.433571,-0.056522,-0.791431,-0.461835,-0.505219,0.326926,-0.730106,-0.648960,-0.077669,-0.566456,1.334404,-0.693914,-0.613587,-0.998592,-0.495888,-0.881887,-0.373009,0.525840,0.932600,-1.452337,-0.273766,0.412152,-0.403622,0.083238,-0.706963,-0.224000,-0.638977,-0.525073,-0.607967,0.744505,0.210519,-0.016524,-0.045926,-0.127915,-0.532891,-0.230642,0.243316,0.027774,-0.424659,-0.293457,1.791468,1.345687,0.712299,0.582102,0.651687,1.202943,-0.073240,-1.146533,-0.370407,0.486925,-0.152819,-0.817917,-0.326862,-0.113796,0.963903,-0.964166,-0.360829,1.009952,0.183263,-0.553308,-0.622974,-0.260452,-0.654705,0.542914,-0.477203,-0.636669,-0.568766,-0.572748,0.353132,0.032517,-0.493294,-0.565782,0.146601,-0.646669,0.707281,-0.472590,-0.276216,0.247710,-0.264796,0.163842,-1.100317,2.341800,2.029405,0.450622,-0.152452,-0.042640,-0.069423,-0.137965,-0.059956,-0.356947,-0.304596,0.201962,-0.168240,-0.184753,-0.001579,-0.733824,-0.359518,-0.326065,-0.361241,-0.219250,1.021275,-0.713676,-1.353936,-0.209354,-0.951624,0.015329,-0.398212,0.773861,-0.107814,0.003874,-0.069688,-0.053795,-0.441112,0.360726,0.001532,-0.625472,0.281014,-0.307588,-0.174363,1.009090,0.600186,-0.089978,0.422366,-0.677451,-0.364172,0.136707,-0.545643,0.000467,-1.041402,0.059370,-0.725213,0.598024,-0.125654,0.716447,0.877246,-0.742102,-0.112296,-0.340398,0.072029,0.197605,-0.035353,-0.014502,0.346924,2.211553,0.583391,0.028336,-0.951947,-0.385412,-1.078810,-0.054429,-0.725697,-0.477800,-0.620403,-1.007657,-0.971358,0.299497,0.780857,-0.301848,-0.377587,-0.167361,0.863697,-0.024844,0.224120,-0.299500,0.948431,-1.026794,-0.058289,-0.171924,0.303828,-0.599509,0.969742,-0.194971,0.514412,-0.962112,-0.066300,-0.511222,1.986742,0.674935,1.593270,-0.398345,0.241050,-0.067155,-0.207732,-0.921005,1.767587,-0.277759,0.143177,-0.893092,0.032766,-0.090305,0.045119,-0.545227,-0.114576,0.218321,0.585899,-0.750966,-0.540600,-0.491834,-0.035601,0.821033,-0.306286,-0.763950,-0.939521,-0.191475,-0.601855,-0.050296,0.105516,-0.534707
0.334297,-0.404366,-0.423869,-0.709019,-0.268120,0.706858,-0.085650,0.392724,-1.944382,0.744619,-0.478479,-0.194849,0.470566,0.137588,-0.182210,-0.916364,-0.129901,-0.215357,0.867123,0.339814,-0.149510,0.504706,-0.592984,-0.916264,-0.141115,1.509072,-0.044449,-0.472019,-0.288988,-0.911472,-0.102274,-0.426922,-0.508576,-0.148881,-1.243943,-1.261173,0.193387,1.931573,0.154790,0.397054,-0.161980,0.849643,0.923395,-0.053261,-0.636445,0.694877,-0.120942,-0.152072,-0.327900,0.488389,-0.358273,1.744704,1.250064,0.048289,0.727377,-1.073527,-0.311832,-0.325895,-0.838793,-0.428502,0.451025,0.223221,1.048037,-0.173208,0.458722,-0.450438,0.202628,-0.241437,-1.016909,0.011650,-0.330768,0.181097,-0.124983,-0.435721,-0.202067,-0.534361,0.099769,0.208714,-0.882977,-0.212273,-0.766305,0.384533,1.310886,-0.543617,0.335507,1.236009,0.307668,-0.416423,0.499737,0.565237,0.970775,0.057204,0.367649,0.019074,-0.189005,0.725406,0.901648,-0.620464,1.808551,-0.367301,-0.076915,-0.729103,0.540664,1.698508,-0.660966,0.211365,-0.366308,-0.697145,-0.027490,-0.555991,-0.438201,0.878071,0.348695,-0.911074,-1.100919,-0.116926,-0.788599,0.008067,-0.295131,-0.432478,0.100355,0.581668,-1.057651,0.030491,1.099182,0.413471,-0.410426,0.541973,-0.144775,-0.178848,1.509238,0.218507,-0.332208,-0.799355,0.170105,0.117255,-0.191388,-0.463014,-0.973957,-0.738027,1.049753,-0.697582,0.275262,-0.000584,-0.933866,0.108243,-0.127965,-0.705292,-0.162066,-0.561422,0.211274,1.178298,-0.232118,-0.460891,0.405040,0.109796,-0.100993,1.015380,-0.289425,0.417534,0.324698,0.121524,0.335321,-0.566549,0.244263,-0.194854,-0.213008,0.374216,0.099913,0.686898,0.532810,1.670476,0.088522,0.602753,0.867958,-0.264272,-0.296158,0.646644,0.233638,1.117629,0.695798,-0.707677,0.236668,0.307323,-1.159058,-0.483131,-1.204069,0.316663,-0.635569,-0.403080,-0.868521,0.160325,0.585244,-0.951812,0.013303,0.512384,0.004010,-0.569216,0.779389,-1.003589,-0.015430,0.395779,0.383200,-0.803551,-0.853984,0.487565,-0.177144,-0.512024,-0.304337,0.301683,-0.241356,0.327798,-0.640442,-0.007253,-0.391760,-0.778049,-0.860469,-0.654866,-0.270925,-0.724540,-0.264936,-0.187062,-0.673863,-1.148973,-0.922717,0.714202,-0.417467,-0.327237,-0.503136,0.129684,0.705354,-0.478180,-0.150296,-0.198644,0.228500,-0.220801,1.301225,0.031232,-0.119843,0.366528,0.486496,-0.040022,-0.710980,0.315878,-0.312180,-0.574324,1.070789,0.041775,-0.407250,0.775820,-1.226597,0.734269,-0.277038,0.785620,-0.398274,-0.915806,-0.322281
-0.579969,-0.857170,-0.351088,-0.708913,0.067281,-0.615843,0.006496,-0.149973,0.262261,-0.939762,0.125615,-0.533705,-1.301654,-0.119307,0.519960,-0.496686,-0.412265,0.786127,0.227186,0.156839,-0.282105,0.438754,0.515165,2.014254,0.489015,-0.142603,-0.206177,-0.275210,-0.308033,0.493324,-0.052138,0.876627,-0.680804,-1.272022,-0.774447,0.704418,0.525840,-0.041760,-0.190604,-0.588468,1.007824,-0.350906,0.192958,-0.284062,0.269330,-0.371544,-0.230696,1.028920,0.079486,0.069790,-0.357988,0.439167,-0.462643,0.204579,1.874772,0.466579,-1.632871,0.084515,0.648986,-1.077703,-0.548126,0.070946,-0.405710,0.263209,-0.188799,0.677912,-0.348939,-1.628284,0.823760,0.392676,0.988450,0.086430,-0.066095,0.796222,-0.482317,-0.632892,0.041369,-0.736616,-1.021933,-0.715963,1.124833,0.468305,-0.564037,-0.691852,0.156588,-0.034050,0.136062,0.223031,-0.389348,-0.515982,1.160568,-0.718614,-0.117344,-0.064468,-1.296983,0.445524,0.492459,0.575568,-0.464879,-0.450959,-0.468667,0.133260,-0.164363,0.561757,-0.291014,-0.405178,-0.689865,-0.034579,-0.684027,-0.353274,0.362340,0.072437,-0.680643,-0.713519,-1.390117,-0.616981,0.703129,-0.114447,0.208037,-0.987137,0.483929,0.522956,-0.154939,-0.187741,0.487736,0.338756,-0.218417,-0.195269,0.397328,0.308055,-0.246956,0.215714,0.831995,-0.370004,0.462016,0.794748,-0.169017,-0.447359,-0.611649,0.394173,1.866480,0.258277,-0.368760,0.002903,-0.144086,-0.665472,0.886423,0.650218,-0.359683,0.101574,0.677483,-0.112060,0.925457,-0.537588,-0.994316,-0.446454,-0.470214,1.091123,-0.411914,-0.915144,-0.061658,-0.551394,0.012979,1.847911,0.471878,-1.219082,-0.092352,-0.635730,-0.151892,-0.577194,-0.500126,-1.026670,-0.435789,0.065538,1.397377,-0.674629,-0.671266,0.187706,0.540146,-0.393715,1.217311,0.639237,0.147101,0.729073,0.125311,-0.563808,0.227096,-1.250667,0.204729,-0.101568,0.400435,-0.507226,0.033257,0.686183,-0.199024,-0.479143,-0.538295,0.834451,-0.528109,-0.025497,-0.658004,0.863847,0.053945,0.381430,-0.402820,-0.541186,-0.063868,-0.913111,0.330931,-0.060590,-0.834847,-0.489578,-0.560472,0.366383,0.420398,-0.556122,-0.253938,1.469953,0.086642,-0.643046,0.577745,-0.333314,-0.719050,-0.071683,-0.052050,-1.326462,0.219848,0.935441,-0.353268,0.291732,0.407109,-0.391331,-0.212664,-0.254037,-0.255754,0.069001,1.649803,0.209280,0.633634,-0.411166,-0.303939,0.467450,-0.610176,0.065241,1.156286,0.006969,-0.425401,0.331281,0.211546,0.255934,-0.092961,-0.204091,-0.174064,0.867226,-0.185620,0.549836,0.385753
0.506197,-0.594097,-0.138270,0.674599,-0.246331,-0.978691,-0.049265,-0.444670,0.052550,-0.032035,0.065209,-0.282772,1.086060,0.879788,0.009269,-0.586323,0.074837,0.206523,-0.991608,-0.261799,-0.074757,-0.009053,0.560037,0.039724,0.763238,-0.132531,-0.048523,-0.139618,1.795747,0.158612,-0.807518,-0.484650,0.599342,0.050074,0.220824,-0.924843,-0.425218,-0.504706,0.323006,0.491336,1.926222,-0.768379,0.201681,-0.098919,-0.488041,0.311684,-0.368043,-0.493558,-0.333787,-0.419116,-0.522741,-0.033035,-0.363929,-0.412443,-0.065632,-0.256038,0.844507,-0.129134,0.268165,0.820959,-0.627026,1.138759,0.179076,-0.029954,0.372474,-0.227597,0.038655,-0.851271,1.097501,-0.414030,-1.061668,-0.343972,0.509807,-0.130358,-0.079080,-1.334892,0.948623,-0.058190,-0.724179,1.056570,-0.389931,0.045088,0.246432,-0.327490,-0.261591,0.957132,0.330145,-0.624725,0.315960,-1.500570,-1.108270,-0.369118,-0.154662,-0.028183,0.773468,1.108359,-0.528164,0.312294,-1.368520,-0.080992,-0.306660,-0.382383,-0.511825,-0.726527,0.323402,0.180487,0.201348,-0.081715,0.062693,0.035340,-0.411314,0.379011,0.048318,-0.494955,0.427008,0.782745,-0.731118,-0.204953,-0.900147,0.445127,-0.051185,1.193282,-0.980204,-0.189873,-0.738559,0.186268,-0.512147,-0.569641,-1.054011,0.339106,-1.738673,-0.203297,-0.078508,1.635387,-0.499642,0.109108,0.031739,0.161076,0.687286,0.607968,0.739688,-0.072273,1.847894,0.039040,-0.387922,0.267112,0.231297,-0.072229,0.092644,0.534313,0.538976,0.482103,0.122551,2.278251,0.451345,0.068831,0.586372,0.107303,0.615829,1.070369,-1.155718,0.949902,-0.474059,-0.270383,-0.501288,-0.377270,0.447443,-0.343600,0.128157,0.399653,0.442643,0.761657,1.134582,1.103878,0.084027,-0.360852,-0.114782,-0.585701,-0.527510,-0.744896,1.567084,-0.350219,-0.537785,-0.663021,1.071949,0.819865,-1.027195,-0.647994,-0.395868,-0.349948,0.163060,-0.621608,-0.215775,-0.576298,-0.017948,-0.230098,0.551625,0.579761,0.171915,0.397629,-0.202849,-0.006201,-0.263366,-1.018160,-0.050876,-0.397109,0.292139,0.069797,0.220206,0.272191,-0.233143,0.274344,-0.296326,-0.110070,0.553902,-0.100416,-0.480002,0.560381,-0.367146,-0.303674,-0.440216,-0.420137,0.060238,-0.648623,0.709860,-1.319952,-0.818835,-0.267868,0.461681,-0.178175,-0.795569,0.740584,-0.136916,0.858873,0.356309,-0.572001,-0.017197,-0.753746,1.044255,0.268566,2.643764,-0.042062,0.444246,0.430761,0.336170,-0.200034,-0.395944,-0.091408,0.159710,-0.344837,1.387080,0.349692,0.674122,-0.537064,0.512827,-0.150272,-0.086926
-0.499991,1.715731,1.498720,-0.029912,-0.191627,-0.860713,0.367178,0.976391,-0.309203,-0.220494,0.055764,0.339161,-0.540163,1.868743,-0.045781,0.042867,-0.237139,0.810807,0.436069,-0.537821,-0.945801,0.612742,-0.193110,1.154371,-0.496354,-0.019392,-0.807630,-0.963830,-0.176312,0.215758,0.399243,-0.006042,0.573120,-0.730290,-0.696803,0.253263,0.014813,0.975700,0.056377,-0.071590,0.036000,-0.566680,-0.446029,-0.421524,0.043223,0.034240,-0.760151,-1.109883,-0.574503,-1.639158,-0.467836,0.538737,-0.522905,-0.138089,0.892164,0.882455,-1.412488,-0.666833,-0.509236,-0.810592,0.544957,0.917063,-0.284769,0.607193,-0.629766,0.377713,0.177152,-0.506078,0.510161,-0.808278,-0.109824,0.008339,-0.585972,0.406251,1.341481,1.112190,-0.190614,-0.295109,0.688855,-0.863750,0.055244,0.137685,-1.519060,0.547127,-0.368763,-0.300563,0.047305,0.331405,-0.482021,-1.033637,-0.695495,-0.922678,-0.248053,0.374886,-0.147618,0.016409,-0.519752,0.299771,-0.190822,-0.674458,0.810085,0.861854,-0.120704,0.410243,0.495492,0.708691,-0.011748,-0.873817,-0.275341,-0.709971,1.175800,-0.165537,-0.209884,-0.881311,0.083068,0.635818,0.257021,-1.042681,0.234435,1.130397,0.861739,0.464991,-0.629815,0.153242,-0.363829,0.147725,0.026897,0.642417,-1.122439,-0.713700,-0.158537,-0.118072,0.546898,0.473002,-0.840191,0.773462,-0.388747,-0.743148,0.339282,-0.380574,0.247639,0.267493,-0.116310,0.006776,0.601589,-0.982618,0.501759,-0.860307,-0.399802,-0.130776,-0.187627,0.277583,0.960752,-0.399404,-0.797557,-0.316178,-0.724760,-0.428427,0.818665,-0.514761,-0.215459,-0.243883,-0.543768,1.195082,-0.103839,-0.414824,-0.561024,-0.762975,0.356177,-0.081643,-0.189372,0.030674,0.532708,-0.258629,-0.423015,0.764883,-0.263820,-0.157028,-0.715696,-1.092279,0.473988,-0.480236,-0.021338,0.659698,2.546334,0.803335,0.495344,-1.006533,0.313041,0.394923,-1.174851,0.212819,-0.269410,0.892501,-0.222735,-0.170876,1.269513,1.674273,-0.190649,0.036912,-0.372178,1.518871,0.154527,-0.228991,-0.251736,-0.113186,1.392088,0.198069,1.304137,-1.357232,1.398123,-0.386832,-0.341411,-0.545643,0.914572,-0.354202,0.872973,0.137471,-1.430130,-0.042226,-0.263942,-0.258546,1.281921,-0.147570,-0.097171,-1.170007,1.197277,0.021522,-0.045184,-0.158137,0.298247,0.067795,1.982729,-0.591895,-0.906761,0.686338,0.523273,0.153677,-1.179032,-0.844001,-0.009578,-0.417198,-1.273250,-0.153408,-0.750621,-0.735605,-0.520880,0.058569,1.419838,0.050773,-0.402337,-0.222982,0.028581,0.801324,0.275252,-0.349912,0.026748
0.542972,0.017837,-0.505769,-1.185450,-0.192476,0.851833,0.447906,0.157594,-0.096384,0.352102,-0.083584,-0.901258,-0.532127,-0.512695,-0.710879,-0.847486,-0.228146,-0.826365,1.153122,0.926899,-1.122373,0.183597,0.210264,0.195115,-0.420358,-0.485542,-0.603978,1.087222,0.339944,-0.439106,-0.715415,-0.995089,-0.925442,0.206608,0.577511,1.079747,-0.856960,-0.471491,0.152618,0.509344,-0.251832,-0.352203,-0.325805,-0.323358,-0.482809,-0.396410,-0.242207,-0.214890,-0.577805,0.837366,-0.594199,-0.898968,0.406308,-0.057656,2.130798,-0.374202,0.201272,-0.466300,-0.927567,0.786362,0.725495,0.115779,0.207232,0.862980,-0.585726,-0.785253,0.034985,-0.518272,-0.520827,0.540796,0.521307,-0.446502,-0.042027,-0.273710,-0.150919,-0.781896,0.480122,-0.169247,0.233294,0.005461,-0.599278,0.504355,1.049734,0.994878,0.902490,0.638575,-0.045821,-0.203143,-0.052976,0.014105,-1.138265,0.889502,0.056476,0.116702,0.754939,0.049877,1.072253,-0.695676,-0.467073,2.279952,-0.605209,0.496852,-0.338733,0.299482,-0.599522,-0.847495,0.264161,0.205601,0.812027,-0.896210,-0.107664,-0.126452,1.039687,-0.346728,1.806627,0.836779,0.007369,-0.240940,0.798661,-0.515801,1.329910,-0.463526,-0.152808,-0.358674,-0.146921,0.092625,-0.484707,-0.826661,0.059282,-0.563393,-0.296287,0.239937,0.437347,-0.359260,1.480695,0.730224,0.178965,0.076878,-1.053579,0.227073,0.288446,-0.372703,-0.238307,-0.002431,0.853023,0.105694,-0.998946,-0.926959,-0.570187,-1.238473,0.602370,-0.248627,-0.222509,-0.649328,0.878652,-0.146671,0.147153,0.902438,0.095468,0.306850,0.139095,0.080397,-0.149369,-1.729249,0.352708,-1.128955,-0.030266,0.796449,-0.140593,0.272133,0.142951,0.904444,0.899611,-0.491905,0.643097,-0.560319,-0.333848,0.523192,0.332376,0.115419,0.258961,-0.174533,-1.049313,-0.108477,-0.964542,-0.637440,0.427183,-0.389712,-0.576653,-0.519684,-0.646395,-0.235682,-0.264867,-0.741796,0.097742,-0.138316,0.738634,-0.438080,0.316168,-0.088746,0.761826,1.071193,0.085604,0.453124,-0.720026,-0.615140,-1.006493,-0.644720,-0.451681,0.397065,0.170493,1.064352,0.816681,-0.622899,-0.680776,0.394572,0.319864,0.850215,0.111558,0.176446,0.763361,0.027738,0.521049,-0.766189,-0.949554,-0.903912,-1.187829,-0.171307,-0.339116,-0.688413,-0.596087,-1.089458,0.946613,-0.476464,0.300813,-0.001929,0.249907,1.087073,-0.439365,-0.079620,-0.411321,0.833876,0.733366,-0.234364,-0.900187,-0.209542,-0.059159,0.091697,-1.153693,0.470661,1.075530,-1.067708,-0.027399,-0.023049,-0.111691,-1.018433,0.499780
0.605968,-1.115475,-0.068860,0.206995,-0.388672,-0.233244,0.335481,-1.254879,1.047841,0.395570,-0.281721,-0.504819,-1.247312,-0.662269,-0.416217,1.563218,-0.364645,-0.866742,-0.031176,0.000066,0.380434,-0.727609,-0.423992,0.548456,-0.041874,-0.551366,-0.490178,1.487528,0.402898,-0.414191,-0.585042,-0.945173,-0.684358,0.555344,-0.505198,-0.900885,-0.325223,1.929392,-0.914619,-0.643938,0.048426,-1.216671,-0.089807,-0.088212,0.602731,0.057166,-0.185479,0.911570,0.430751,1.490651,-0.616516,-0.573490,-0.423045,-0.976195,-2.149332,0.320824,-0.410453,-0.395865,1.198528,0.268428,-0.005962,0.161602,0.404709,-0.302176,0.150756,1.459002,-0.330441,1.026767,-0.690219,-0.174650,0.439795,-0.949625,-0.515007,-0.494402,0.576985,-0.757672,0.255391,-0.790176,-0.148595,-1.593316,0.282940,0.469408,0.228902,0.097625,-0.394931,0.726728,-0.118526,-0.301162,-0.978817,0.955974,-0.092040,-0.494325,-0.462401,0.171844,0.381262,-1.363952,0.164810,-0.313335,-1.438068,-0.064363,-0.021597,-0.274938,0.059207,-0.249340,-0.226636,0.521902,-0.433493,0.119415,1.156982,-1.226391,0.010042,0.215690,-0.147691,-0.675215,-0.037520,-0.756295,1.561003,1.004247,-1.123404,-0.052614,-0.228784,-0.692522,0.414515,-0.030484,-0.745163,0.292867,1.094788,-1.398111,0.897100,0.913319,-0.034674,-0.425539,-0.671650,0.382457,-2.279151,0.156788,-0.855798,0.288829,-0.273291,0.549489,-0.773869,0.450267,0.210755,-0.004179,0.131160,-0.362485,-0.190637,-0.001018,0.455210,-1.084069,-0.103318,-0.524239,0.565495,-0.086511,0.326495,0.042857,1.400540,-0.003350,0.191079,-1.384543,-0.267010,1.000764,0.624817,0.408002,2.571043,0.337902,0.429868,-0.800766,-0.357037,-0.480423,-0.584633,0.159476,-0.187152,0.140645,-0.455339,0.525834,1.949389,0.939924,0.848276,0.282785,-0.896351,-0.329709,-0.353951,-0.742550,0.156134,0.467090,0.079108,0.417140,0.233280,1.430210,-0.310860,0.051346,-0.509086,-0.565941,-0.284025,-0.102882,-0.391107,-0.639389,-0.449954,0.391071,-1.023538,-0.574925,1.053569,1.118878,0.465968,-0.517769,-0.338295,0.206469,-1.055024,-0.424197,-0.382367,-0.181842,1.686072,0.495037,-0.758859,1.312514,1.211962,-0.467966,0.100896,0.413027,1.040452,-0.080289,-0.768904,-1.068317,1.296096,0.485304,0.968707,-0.078324,0.384711,0.804681,0.182526,0.317751,1.265389,-0.218180,-1.114494,0.420487,-0.966383,-0.198681,-0.715459,-1.470820,0.462522,0.940929,-0.308669,-0.120913,1.815853,2.159817,0.186547,-0.249120,1.095557,0.576081,-0.393817,-1.420283,0.143161,-0.114246,-0.186562,-0.623339,0.220374
0.647353,0.820290,0.415061,-0.895487,-0.445257,0.746955,0.098913,-1.813994,0.753833,0.605608,0.186491,-0.550739,1.660117,-0.054590,-0.436733,0.154787,1.887867,-0.461734,-0.464117,-0.293484,-0.437205,-0.724532,-0.292607,0.520001,-0.209966,0.883794,1.306598,-0.604660,-0.172999,-0.403160,1.083332,-0.301742,-1.139727,0.771314,-0.459556,1.085589,-0.453452,-0.461575,-0.424664,0.662817,0.764914,1.493995,-0.899937,1.023356,0.398653,-0.841240,0.717845,-0.438502,-0.259397,-0.466652,-0.445292,-0.891286,0.468193,1.025025,-1.697044,0.869215,0.380809,1.017601,-0.390432,0.151880,-0.188293,-0.073784,0.800904,0.355988,0.016460,-1.358425,-0.289191,-0.344375,-0.638134,0.129835,-0.340803,0.728411,-0.291177,1.393528,-0.566388,-0.091123,1.384836,1.347814,0.033081,0.215062,0.510362,-0.444455,-0.456373,-0.775125,-0.036942,0.754013,-0.259455,0.159233,1.945505,-0.628150,0.048587,0.928106,-0.255478,0.839395,0.295059,-0.684257,-0.914591,-0.418017,-0.911787,-0.120512,-0.036188,-0.192299,0.755806,-0.827330,-0.389643,-0.200457,0.855042,-0.228295,-0.252630,0.676300,0.390442,-0.489381,0.055176,0.608300,0.158645,-0.470360,-0.322009,-0.806982,2.597374,-0.052910,-0.899141,0.640137,-0.203706,-0.322889,1.257698,-0.306701,-0.121927,-0.110847,-0.652689,0.070989,1.342878,0.196277,0.313722,0.733995,1.593299,-0.842958,-0.037876,0.713664,-0.351256,1.474895,1.002805,0.131085,0.418825,-0.005274,0.170618,-0.008383,0.415470,-0.635440,-0.174775,-0.034699,0.514155,0.131218,-0.448559,-0.514630,-0.084983,1.987544,0.260477,-0.666804,-0.493910,0.051452,-0.607707,0.456912,-0.489363,-0.023631,-0.392980,-0.863020,-0.257460,0.470114,-0.183676,0.064225,1.003298,-0.902516,0.491003,0.549775,-0.595408,-0.448074,-0.742169,-0.402900,0.097978,-1.489697,-0.390493,0.522401,-1.896689,0.162966,0.618650,1.222995,-0.168237,-0.508416,-0.625878,-0.443887,-0.589949,-0.557427,0.110201,-0.153775,0.659353,-0.384205,-0.368369,0.372787,0.694530,-0.099435,-0.088782,0.201089,-1.201900,-0.035342,0.132559,0.284653,0.262454,0.306599,-0.473278,-0.418127,-0.456355,-0.093404,1.144524,-1.012737,0.393364,-0.092274,0.609498,-0.547613,-0.265911,0.961861,-0.136816,-0.737619,0.265135,-0.361019,0.237540,-0.491361,-0.128366,0.020216,1.437763,0.352753,-0.023060,-0.371665,-0.134666,0.874017,0.302937,-0.085082,0.804680,-0.135476,-0.378645,0.112306,0.350256,0.382181,-0.591867,-0.343090,-0.130164,0.561576,0.866418,0.261157,-0.192588,0.259204,-0.707671,0.722891,0.677917,0.083622,0.702131,0.321465,0.541283
-0.320192,1.553152,-0.178188,0.461373,1.144623,-0.228862,-0.228844,-0.409054,0.954329,-0.564500,-0.503424,-0.324329,-0.555639,-0.374944,-0.849266,0.624266,0.118194,0.037797,1.007394,0.300190,-0.474444,-0.485277,-0.035218,0.318825,-0.711805,0.960840,-0.371226,0.861601,-0.517690,0.865163,0.260769,0.641222,-0.833178,0.353362,-0.399535,1.086841,0.459346,-0.570716,0.480583,0.369046,-0.873889,0.923825,-0.023477,-0.683695,0.615721,0.404754,-0.593524,0.276685,0.656192,0.483642,1.626394,0.681401,0.344440,0.226721,0.575200,-0.519309,-0.758002,-0.541434,0.609651,-0.191777,-1.119800,-0.199845,-0.673497,-0.182036,0.065873,-1.515818,-0.321985,-0.236324,-0.590454,0.288299,0.742002,0.905105,0.473313,-0.025446,-0.089457,0.002027,-0.013970,-0.113171,0.571733,0.093337,-0.635194,-0.712346,-0.589715,-0.963884,0.568251,-0.101064,-0.277650,0.076355,-0.298276,0.876117,0.048676,0.562703,-0.279949,-0.193987,-0.671396,0.014360,-1.209686,0.375079,1.411885,-0.170530,-0.979193,-0.184113,0.265761,-0.483027,0.016101,-0.977016,0.262961,-0.421031,-0.720940,1.162066,-0.137807,-0.100493,-0.131425,0.643428,-0.188446,-0.184527,1.120727,0.267784,-0.395451,-0.483962,-0.600963,-0.230044,-0.308746,-0.281935,-0.018424,0.053257,-0.403331,-0.330116,0.578850,-0.463757,0.445152,-0.133486,0.577593,-0.725783,0.466184,-0.479202,-0.410399,-0.078960,0.077040,-0.074260,-0.070903,-0.490033,-0.588248,0.042130,-0.237100,0.315043,-0.825948,-0.518580,0.114047,-0.062676,0.463969,0.741517,-0.541095,0.431118,-0.390059,-0.179833,-0.196854,-0.729174,-0.138194,0.109569,0.265942,-0.534084,-0.513178,-0.460122,0.085432,0.495806,-0.276457,0.556878,-0.321654,-0.465059,0.302057,-1.077774,0.288501,-0.564609,-0.814261,0.689887,-0.169360,-0.385859,-0.339290,-1.317720,0.966465,0.963245,-0.715526,0.496484,1.273276,-0.579117,-0.284152,0.813234,1.155804,1.018713,0.202134,-1.141189,-0.485828,0.624183,0.535241,-0.048095,-0.211582,0.414748,-0.779981,-1.119026,0.111919,-0.328304,-0.618236,-0.692252,0.635623,0.324458,0.174488,0.152307,1.009682,0.496882,-0.310823,-0.138525,-0.787734,0.313675,-0.453351,-0.542999,-0.105147,0.052024,0.740510,-1.172341,-0.055097,0.366886,-0.550691,1.575949,0.128327,1.244396,0.114004,-0.701554,-0.621166,-0.505465,0.767560,-0.684885,-0.914066,-0.396759,0.157883,0.950608,-1.354127,-0.183967,0.090604,0.340050,-1.127254,-0.565339,0.071051,-0.006880,0.554180,-0.317023,-0.163376,0.219331,-0.115463,0.504331,-0.713018,0.235497,-0.287312,0.369054,-0.220169,0.726567,-0.203120
-0.486646,-0.559567,-0.112257,-0.291123,-0.360956,0.188444,-0.339034,-0.986549,-0.187965,-0.001189,0.383975,-0.650906,0.417229,-0.281284,-0.067617,-0.314994,0.935253,-0.157034,-1.145303,-0.540948,-0.051199,0.693446,-0.090456,0.354657,-0.389245,0.550281,-0.582896,-0.749813,-0.255099,0.525493,0.058734,-0.387137,-0.422860,0.238455,0.595200,-0.188242,0.087227,-0.596724,-0.420865,-0.106881,-1.413341,0.206216,-0.526398,1.235881,1.249835,-0.217048,0.379753,-0.316782,-0.560179,1.037356,-0.626651,0.320744,-0.411322,0.184229,0.853582,0.662076,-1.266997,-0.359819,-0.271403,0.895179,-0.321880,-0.326104,1.453489,-0.420495,-0.950627,-0.811120,-0.454704,0.586772,1.023876,0.165147,-0.625553,0.005621,-0.003882,0.842257,-0.263305,-0.182291,0.589745,0.087481,-0.236109,-0.161820,-0.498175,-0.856288,-1.157792,-0.712328,-0.241110,0.118782,-0.134826,0.373405,0.629738,-0.338784,-0.315899,0.576854,-0.120353,-0.541214,0.190886,-0.326139,0.276226,0.046679,-0.590076,-0.035879,0.037599,-0.257414,0.596795,-0.566813,1.279159,-0.445372,-0.081797,-0.224062,-0.243178,0.008141,0.237867,-0.365501,0.247335,0.070305,-0.480030,-0.678829,0.166987,-0.147158,0.741975,-0.017875,-0.512352,0.314212,-0.226036,-0.115143,2.086272,0.136050,0.941916,-0.263306,-0.397464,0.780972,1.095157,-0.368120,-0.416129,1.031348,0.258620,-0.603151,0.213533,-0.045605,0.084865,0.212145,-0.576024,-0.467937,-0.494164,-0.039073,0.295623,-0.311618,-0.429394,-0.615234,-0.647894,0.298886,0.417209,0.852259,-0.786979,0.685320,0.006171,-0.231081,0.774389,-0.322839,0.254009,-0.062698,0.568352,-0.567241,-0.438797,-0.005218,-0.036472,-0.035740,0.164022,0.016284,0.077718,-0.238117,0.305301,-0.306733,0.300137,0.244455,-0.411456,1.467348,-0.842302,0.746992,-0.667547,0.269100,-1.008681,-0.436903,2.140473,-0.363385,0.232426,0.222246,-0.451493,0.152026,-0.348413,-0.047970,0.039456,-0.530938,-0.918057,-0.801140,-0.234954,0.023118,-0.756104,1.189365,-0.481914,-0.066452,-0.785379,1.457724,0.850164,0.015825,0.470217,0.281400,-1.231263,-0.432012,-0.555628,0.791759,-0.527298,0.242371,-0.098358,-0.008961,0.940815,-0.086141,-0.153122,0.245439,-0.383250,0.519714,-0.143067,0.626293,0.120702,-0.753755,-1.283003,1.787401,0.107775,-0.392732,0.476711,-0.427636,0.794703,-0.290026,-0.497806,0.931029,-0.069545,-0.343242,-1.112931,0.433154,1.118058,-0.296385,-0.154144,-0.077918,-0.159863,-0.025637,-0.316859,-0.725218,0.471012,-0.369809,-1.035950,-0.094245,0.251306,-0.188450,0.521480,-0.784070,-0.106390,-0.456649,0.415124
-1.601561,1.078099,0.101361,-0.063444,-0.011192,-0.364788,-0.531493,0.499740,-0.719577,0.331344,-0.913391,0.379416,-0.710130,0.327366,0.345344,-0.275866,-0.044351,-1.047859,0.115842,-0.760028,1.607776,-0.480330,-0.251040,-1.087933,-0.126896,0.763544,-0.958853,-1.182070,0.155212,-0.227376,0.277991,1.396914,-0.343267,-0.593856,-0.042147,0.216859,-0.093402,-0.826088,-0.234994,1.131755,-1.086378,-0.265137,-0.468538,1.326903,0.908828,-0.028437,-0.241148,0.306059,-0.405765,1.050599,-0.399281,0.362994,0.320686,0.297469,0.277125,0.257007,-0.618654,-0.519864,-0.627788,1.309724,-1.420824,-1.576915,-0.882240,0.087024,0.370627,-0.442018,-0.035701,-0.141637,-0.666506,-0.114656,-0.938581,-0.336465,0.204090,-0.380900,-0.092499,-0.185794,-0.202897,-0.454974,-0.921908,-1.017829,-0.443771,-0.876054,-0.746925,-0.407694,-0.892615,0.143657,-0.103755,-0.250646,0.022537,0.300874,0.598719,1.003025,0.157889,-0.804614,0.470775,1.278600,0.983224,0.116082,-0.507021,-0.464499,-1.019096,-0.492979,-0.334265,-0.212913,0.694974,-0.235014,0.013903,-0.153626,-0.494389,-0.053080,-0.267340,0.154737,-0.269073,-0.359989,-0.879381,-0.439774,-0.445617,0.675473,0.802305,0.016519,-0.227584,0.165298,-0.604669,-0.005459,0.299901,-0.107028,0.574745,0.360025,-0.436345,-0.108492,1.623630,0.219283,-0.538754,0.123944,-0.415391,-0.450737,-0.121762,1.377329,-0.470994,-0.499115,1.446713,-0.382540,-0.030303,-0.004991,-0.647585,-0.443713,-0.202809,-0.261357,-0.652084,-0.594712,0.128077,-0.160401,-0.196617,1.510429,-0.669696,0.668980,0.814135,-0.436926,-0.421118,0.749190,-0.076776,-0.427766,0.006155,-0.038126,-0.257358,-0.820027,-0.353097,-0.428547,-0.075161,-0.572998,0.306813,-0.196721,0.005824,-0.525338,-0.412539,0.728891,-0.072008,-0.260886,-1.399233,-0.692701,-0.281675,-0.678728,1.325284,0.483437,0.693940,-0.742985,-0.203889,0.358011,-0.248976,0.178871,-0.530488,-0.861438,1.040983,0.276696,-0.154912,0.488422,-0.429305,1.303448,-0.494275,-0.707341,-0.447718,0.426058,-1.069221,-0.637451,-0.063143,1.165713,0.542969,0.318692,-0.691489,-0.162450,-0.378378,0.139414,-0.460761,0.711638,0.252660,-0.097632,-0.186986,1.334911,-0.233091,-0.400761,-0.399625,0.034346,-0.378211,0.193326,-0.406405,0.049567,1.548729,0.142133,-0.665922,0.276473,0.488135,-0.072860,-0.067580,0.782582,-0.422638,-0.677613,-0.456626,0.190168,-0.434993,-0.173703,1.383147,-0.266293,-0.171954,1.553007,-0.690673,-0.434201,-0.447392,-0.336966,-0.850694,-0.610961,-0.269322,0.981223,-0.459074,-0.598189,-0.274759,-1.329393,-0.714883
-0.292061,0.064354,0.213407,0.939065,-0.251434,0.767666,0.858291,0.740543,-1.300393,0.383820,0.068926,0.301200,-1.153534,-1.227251,-0.013284,-0.103282,0.101626,0.311468,0.666005,-0.218209,-0.612555,-0.294649,0.674752,-0.465148,-1.011081,-1.148103,0.086815,1.051575,-0.125472,-0.565475,1.384046,-0.126139,1.654119,-0.126796,-0.667592,1.093638,0.237241,0.549632,0.700120,-0.145747,0.338389,0.385902,0.446974,0.754255,1.174233,-0.145746,-0.333552,0.650757,-0.031900,-0.858285,1.360941,0.544731,-0.534735,-0.451021,-1.838193,0.379478,-0.302827,1.102501,0.613916,-1.569282,-0.303407,0.711855,0.814073,-0.467287,0.874670,1.284054,0.143561,-0.991849,-0.281334,0.476778,0.200542,1.845272,0.069669,1.472515,-0.005847,-0.270580,-0.626540,0.025256,0.941833,-0.219690,1.084463,-0.135141,0.174248,-1.189419,-0.556104,-0.966603,0.219533,0.066192,-0.635987,-0.036424,-0.005238,0.707998,-0.146466,-1.066990,-0.935804,0.165128,0.546858,-0.451993,-0.628348,0.275907,0.817306,0.247781,0.830011,0.249828,-0.409023,0.749676,-0.188684,-0.983343,-0.021809,-0.472548,-1.411987,0.077247,-0.437340,-0.167989,1.098043,-0.034834,0.341170,0.197989,0.458512,0.273284,-0.164685,-0.670981,1.483502,0.079003,-0.060661,0.105411,-0.043478,0.331580,0.467836,0.427381,-0.613501,0.325869,0.082557,0.257476,0.481543,0.364387,-0.332335,-0.308781,-1.252764,-0.322363,0.041978,0.438558,0.230813,-0.035830,0.216467,-0.502797,-0.687985,0.721981,0.204560,-0.577433,-0.933633,-1.188160,1.403019,0.537688,-0.548658,0.876395,-0.603910,-0.963302,-0.534979,0.755751,0.373974,0.288711,-0.262517,-1.054130,1.128517,0.491965,-0.658001,-0.038563,-0.145039,-0.010670,-0.489949,-0.638560,-0.356732,-0.194601,-0.099075,0.284455,-0.093199,-0.069007,0.196252,0.730117,-0.903762,-0.550137,-0.388260,-0.242344,-1.026757,-0.304630,-0.309480,1.139732,0.716558,0.918250,-1.086252,0.598721,-0.718447,-1.119527,-0.179691,0.230051,-0.529701,1.266798,0.795473,-0.278263,1.347986,0.721861,0.925879,1.054973,-1.182349,-0.663438,0.546104,-0.594910,1.880603,-0.461180,0.889309,-0.141384,-1.582759,-0.435144,0.279673,-0.009648,1.997430,-0.598794,0.185951,-0.744619,0.262307,0.087927,0.048765,0.959411,0.110575,1.263879,-0.026081,-0.366059,-0.468382,0.406436,-0.757811,-0.503128,1.238298,-0.348386,0.270666,0.575806,1.083194,0.440711,0.352902,-0.753025,-0.175502,0.320926,0.270299,-0.906444,0.503560,0.241706,0.255260,0.543135,-1.480229,0.736386,-0.038171,-0.155212,-1.236141,-0.050841,-0.059840,-0.628642,-0.279316
0.454229,-0.559368,0.473706,1.047173,1.102520,-0.224970,0.507703,-0.698519,0.461667,0.303560,0.298099,-0.078712,0.038707,0.376317,0.627404,0.383320,0.905436,0.274135,-0.594682,-0.957888,-0.448119,-0.600130,-0.272381,-0.061966,-0.530242,0.520891,0.033332,-1.235189,0.101906,-0.729304,-0.242749,-0.124381,1.678113,-0.171944,-0.665818,-0.795272,0.127861,0.513798,-0.146397,0.655316,0.734094,1.471037,-0.980533,1.327377,-0.059898,0.069603,-0.141749,-0.310284,0.250235,-0.395363,0.975292,0.935048,-0.574611,0.327434,-0.817178,-0.491295,1.542417,1.317509,0.152756,-0.202065,0.555339,0.812795,-0.205500,-0.900219,-0.192357,-0.529431,-0.399941,-0.195120,0.415537,0.018889,-0.099420,0.482536,-0.420629,0.110308,-0.288309,0.831877,-0.825317,0.295943,1.251615,0.480140,-1.189148,-0.778794,-0.913857,-0.644881,-0.340970,-1.175722,-0.064558,0.008826,0.130126,0.417480,0.165319,0.561077,-0.558256,0.048778,-0.085639,-0.063272,-0.023822,1.255159,0.128965,-0.763995,0.749346,-0.398548,1.140380,-0.590186,-0.028284,0.809706,-0.207961,-0.158252,-0.776764,0.443162,0.059528,-0.823598,-0.324973,0.843272,-0.532548,1.060459,-0.076353,0.021440,-0.990234,0.062486,-0.262910,-0.027603,0.570200,0.057467,1.738423,-0.154104,0.578709,0.931142,0.020444,-1.211816,0.330589,-0.406093,-0.915904,0.521105,-0.654985,-0.123286,-0.324624,0.061695,0.930439,-0.004754,-0.763282,-0.656858,1.399949,0.096335,-0.277074,0.255220,-0.696333,1.098892,-0.132763,0.462229,-0.923231,0.349832,0.037214,-0.271962,-0.475847,0.643643,1.385700,-0.723283,1.075199,0.808807,-0.109030,0.288514,-0.495800,-0.649255,-0.017876,0.940591,-0.269740,-0.046173,-0.331969,-0.079492,-0.080010,-0.682885,0.798969,-0.340068,-0.808783,0.833328,0.845177,0.038407,0.618727,0.252797,0.036161,-0.999402,0.895740,-0.709853,1.867755,0.825627,-0.368498,0.504280,-0.650201,1.316369,0.667178,-0.052680,-0.357484,0.975952,0.236389,0.378189,0.787810,0.482538,0.095499,-0.251428,0.539859,-0.822243,1.113935,-0.991335,1.074414,0.025647,0.436863,0.860251,-0.946770,-0.315473,0.336024,-0.602682,-0.972260,0.620275,0.098917,-0.668771,-0.628994,-0.076061,-0.759668,-1.831800,-0.229845,0.857363,-0.130549,0.482704,0.712357,-0.064894,-0.611825,-0.196388,1.724491,0.018026,-0.672986,0.322995,-0.486449,-0.431518,-0.442435,-0.154324,-0.481851,-0.572671,0.474555,-0.543063,-0.347648,-0.664566,-0.272616,0.202453,-0.006072,0.651636,0.655189,-0.319582,-1.506591,0.163222,-0.727571,0.553290,0.388508,-0.933583,-0.069992,0.552873,-0.247899
0.956128,1.018723,-0.026146,-0.502995,-0.233221,-0.259370,-0.167743,-0.317805,0.315518,-0.763489,0.175317,0.043182,0.128472,0.413202,-0.352004,-1.264274,0.342885,-0.574323,0.913486,-0.629694,-0.417143,0.136246,-0.082692,0.191416,0.651450,-0.721749,-0.968123,0.566101,-1.103484,-0.276146,0.411026,-0.244136,1.365303,0.575378,-0.466942,-0.221918,-0.902260,0.375471,-1.141424,-0.854738,0.590054,-0.742462,-0.835759,0.181441,-0.757466,0.055570,1.100851,-0.808976,-0.402007,-0.770538,1.746741,-0.344908,-0.952728,-0.380187,0.661767,0.806704,1.910528,0.620600,0.267593,-1.391170,1.052746,-0.663166,-0.230407,-0.374317,-0.541870,1.221006,-0.405212,1.166635,0.307596,0.007388,0.769155,0.763104,-0.363925,-0.439820,0.510670,-0.163117,-0.610386,0.241832,0.822302,0.358854,0.476762,-0.097827,-0.633885,0.819620,-0.264879,-1.732802,-0.137711,-0.443067,-0.329693,-0.368212,-0.920902,-0.884105,-0.534615,-0.475243,-0.774016,-0.466694,-0.203315,0.212763,-0.187208,-0.621280,-0.899625,0.867894,-0.278061,0.566221,-0.028932,2.164474,-0.244941,0.063041,-0.036828,-0.157680,0.160926,-0.423259,-0.353578,-1.041573,-1.138212,0.473462,1.001379,-0.229560,-1.859104,-0.014861,-0.065038,-0.383146,1.067265,0.685756,-0.385745,0.018734,0.014625,-0.275084,-0.898645,-0.795259,-0.379719,-0.563556,0.021471,-1.642429,0.318615,0.630121,0.135957,-0.449123,-0.343840,1.256528,-0.540993,1.107355,0.979330,-0.038482,1.314481,1.002053,0.622745,0.571697,0.932237,0.774701,-1.240233,-0.351889,0.663454,-0.369150,-0.358825,-0.716424,-1.542783,-0.049408,0.784896,-0.193879,-0.218678,0.916263,0.459023,0.662092,-0.434071,-0.252047,0.612570,-0.734402,0.384796,0.260219,-0.456978,0.228661,-0.793967,0.671554,-0.274051,-0.561711,0.400942,-0.322383,-0.056944,0.026995,-0.879706,0.083770,-0.152634,-0.543868,-0.673812,0.006869,0.860800,-0.897992,-0.108805,-1.347345,-0.764427,0.646101,-0.495166,0.167569,0.152129,0.470908,1.286839,-0.163066,-0.456455,0.482664,2.207385,0.037783,0.872058,0.416386,0.346130,-0.138819,0.099130,-0.622190,-0.723287,-0.612439,1.332175,-0.005294,0.513978,-1.019658,0.345071,-0.282975,0.730200,-0.168458,-1.011929,0.192262,-0.040066,-0.257428,1.144373,0.910664,0.815489,0.082271,-0.251402,-0.081747,-0.175748,-0.612582,-0.138006,0.487672,0.208357,-0.763750,0.414195,-0.820315,-0.092712,0.209888,-1.180063,-0.577672,0.337410,-0.032963,1.449230,-0.379736,-0.515872,0.225844,-1.105687,0.460823,0.164364,-0.426610,-0.676540,-0.927058,-0.738234,-0.425222,-0.092647,0.111239,-0.607292
0.305652,-0.053549,0.092354,-0.071697,-0.525789,0.112550,0.366093,-0.302040,-0.912252,0.314186,-0.257215,-0.389853,-0.505183,-0.052044,0.484326,0.465154,-0.951119,-0.750395,-0.077833,-0.761032,0.457008,-0.789512,0.774715,0.261419,-0.142434,0.175238,-0.425582,-0.483267,0.505989,1.336227,-0.639589,-0.224937,-0.183317,-0.695641,-0.045675,0.093728,-0.362901,-0.231194,0.280341,0.409379,-0.060101,0.286703,0.111741,-0.226295,0.696244,-0.783685,0.176408,0.764835,-1.050816,-0.317926,-0.247853,0.131773,0.390774,-0.110366,0.366051,-0.232166,0.524286,-0.183772,0.921635,0.235726,-0.167549,0.330855,-0.378037,-0.558919,0.091617,0.071427,-0.118399,0.455589,0.084770,0.523583,0.480225,0.373377,0.248051,0.130504,0.456956,-0.469722,0.228945,0.432080,0.548442,-0.240439,0.014487,-0.127724,-0.380110,-0.343590,0.676397,-0.905039,0.724089,-0.445158,-1.162636,0.547890,0.844923,0.602027,-0.422998,0.043174,0.296903,0.208947,0.413043,0.264964,0.135071,0.174093,-0.045883,0.239328,0.231471,-0.749563,0.313957,-0.396581,0.211213,0.120905,-0.694518,-0.332734,-0.647090,-0.056174,0.418377,0.938361,0.118085,-0.311343,0.182570,-0.153459,-0.370248,0.047712,-0.305003,-0.238078,-0.036021,0.425831,-0.535913,0.540919,-0.572653,-0.711109,0.104149
-0.206051,0.643774,0.388455,0.272207,-0.000315,0.063544,-0.537160,-0.204723,0.245498,0.506065,-0.773168,0.171507,0.155573,-0.796372,-0.058166,-0.274869,0.463875,0.419160,-0.272415,0.064451,0.261224,0.361151,0.595741,-0.773705,0.881738,0.782707,-0.623913,-0.399403,-0.236084,-0.072622,0.701472,-0.593948,-0.290989,0.631910,-0.577192,0.190643,0.381574,1.053283,0.147091,-0.103203,-0.709239,0.019398,-0.626178,0.334502,0.244813,0.791431,-0.304121,-0.711135,-0.084742,-0.596328,-0.246094,-0.023231,0.451799,0.500807,-0.453100,0.323412,-0.523969,-0.328586,0.727829,-0.465304,0.067314,0.089524,0.172861,0.079755,0.124291,0.077625,0.976073,-0.207099,-0.181533,0.230173,0.392335,0.413483,-0.430380,-0.378950,0.393331,0.006831,-0.179284,0.433100,-0.717213,-0.337170,0.124348,-0.722964,0.095928,-0.314917,-0.536144,-0.360639,-1.752748,0.327645,0.160340,-1.002668,-0.194009,-0.026575,0.061048,-0.565106,0.187186,-0.248753,0.019851,-0.089141,-0.558310,-1.142609,-0.974767,-0.571434,0.097212,-0.015405,-0.555205,0.315941,-0.499702,0.014377,1.390622,0.071608,0.881821,-0.045702,0.405650,0.100524,0.196128,0.511102,-0.367004,-0.454602,-0.382659,0.355588,0.378273,0.527294,0.031761,-0.062109,-0.366712,0.172850,0.390674,0.381492,0.197333
-0.671242,0.590551,-0.256014,0.295917,-0.059996,0.163417,-0.070678,-0.514026,-0.288273,0.677717,0.538590,0.349294,0.559357,0.188821,-0.093618,0.047391,-0.282238,-0.345672,-0.377941,-0.477537,0.095140,-0.476785,0.050360,0.009440,-0.281604,0.310762,0.112018,-0.525642,-0.654115,0.494476,-0.059850,0.158272,-0.652313,0.069306,-0.163387,0.365547,0.128759,0.093212,0.090788,0.391786,0.156069,0.044453,-0.468417,-0.126152,-0.016619,0.041035,0.192768,-0.269076,-0.087619,0.173811,0.253965,-0.775068,-0.144804,-0.379326,-1.146616,0.026368,-0.540295,0.078269,-0.001198,-0.696294,-0.248503,0.345709,-0.176687,0.300291,0.275235,0.396091,0.281200,-0.862036,0.142722,1.011002,-0.389945,0.163053,0.107824,-0.617093,0.470367,-0.595355,0.376614,-0.082036,-0.536284,0.324713,0.328184,-0.037321,0.043831,0.237524,-0.548216,0.752252,-0.834625,-0.968193,0.205761,-0.858598,0.862156,-0.162939,-0.126513,0.069426,0.047071,0.408678,-0.296776,-0.236357,-0.273735,-0.877912,-0.686827,-0.284641,0.004573,0.250607,-0.087299,0.244615,-0.283169,-0.203741,0.590650,-0.106367,0.144778,0.275599,0.371719,0.152944,-0.398762,-0.474648,-0.406102,-0.121516,-0.008647,-0.466101,-0.279543,0.304340,-0.259402,-0.240738,0.222750,-0.079896,0.543067,-0.203044,-0.183980
-1.120779,0.040569,-0.254446,0.347904,-0.987048,-0.269961,-0.096122,-0.819187,-0.147272,1.634680,0.370071,0.912011,-0.086166,1.171142,-0.090383,-0.561205,-0.813849,0.429055,-0.115169,0.453568,0.532610,-0.250686,-0.467968,0.347541,0.690433,0.165165,-0.737847,-0.329039,-0.578185,0.282124,-0.233287,-0.593843,0.055570,-0.951160,-0.325151,-0.402069,0.248224,0.524614,-0.331817,0.414359,0.678423,0.229003,0.572615,0.325187,0.056598,-0.284916,0.258732,0.154071,0.617603,0.121236,0.073891,0.218328,-1.009098,-0.030304,-0.328346,-0.282539,0.262086,0.398412,0.522788,-0.733468,0.671003,0.281072,0.065407,0.058160,-0.044136,0.410783,-0.885997,-0.180837,-0.136057,1.277654,-0.315052,-0.203377,-0.440291,-0.082774,0.577315,-0.501729,-0.357432,0.404998,0.138229,0.256163,-0.547542,-0.861400,0.061108,0.426539,-0.627471,0.823314,-0.845205,0.415819,-0.291009,-0.801637,0.078069,-0.371625,0.325537,-0.149385,-0.311469,0.501434,0.492556,-0.107871,0.271778,-0.299730,-0.378901,-0.651424,-0.551347,-0.475659,-0.601069,0.109011,-0.081670,-0.315317,-0.550279,1.026884,1.170800,-0.138297,-0.782250,0.493617,-0.104910,0.968565,0.718510,0.283836,0.102259,-1.316377,-0.443432,-0.640566,0.765460,-0.566199,0.469581,-0.265078,-0.098208,0.355823,-0.515463
-0.016022,-0.890160,-0.199938,-0.380158,0.157340,-0.602663,0.134069,0.202758,0.231701,-0.466885,0.081697,-0.384611,-0.928741,-0.936946,-0.038540,-0.456452,-0.112504,-0.246838,-0.219847,-0.260826,0.139533,0.168934,0.557637,0.291316,0.290764,-0.208817,0.307180,-0.274375,0.234242,-0.467119,0.390208,-0.344099,0.421058,-0.165637,-0.175341,0.189526,-0.375279,0.009096,0.032392,0.805843,-0.298369,-0.521836,0.227173,0.083508,-0.559802,0.568974,-0.241161,0.472539,-0.611602,-0.538448,0.447300,-0.038212,-0.030335,0.310233,-1.019805,-0.314570,0.214901,0.369379,-0.173360,-0.055263,-0.194087,-0.044195,-0.024981,-0.302548,-0.029015,-0.485008,0.003206,0.258356,-0.280803,-0.925280,0.078904,-0.436266,0.193249,0.171567,-0.880065,-0.522360,0.008476,0.261197,0.753126,-0.134271,-0.372680,0.558005,0.205375,-1.071708,0.793467,0.575423,-0.165972,-0.031524,0.283893,0.109440,-0.140853,-0.169822,0.038284,-0.674962,0.349978,-0.018811,0.082490,-0.257993,-0.268829,-0.020415,-0.500508,-0.102166,-0.407304,0.520285,-0.486337,-0.223989,-0.512149,0.014681,0.296885,-0.176050,-0.356776,0.127497,-0.760451,0.635272,0.202084,0.056548,-0.595315,0.327840,0.258774,-0.676352,0.179308,-0.589280,0.520433,0.345838,-0.444759,-0.392025,-0.558576,0.015312,0.300458
1.520349,-0.093577,-0.459776,0.275367,-0.687573,0.670810,0.007617,0.785511,0.050367,-0.575855,0.151597,0.212831,0.132212,-0.330647,-0.604546,-0.112429,-0.146080,-1.202169,-0.314049,0.432582,-0.452763,-0.884675,0.926091,0.085825,0.740878,0.563061,0.518718,0.259296,0.656393,-0.247779,0.385654,-0.192369,-0.439385,-0.292256,0.233944,-0.145090,0.778416,0.026202,0.384216,-0.280179,-0.144064,-0.377618,0.430798,-0.557359,0.215178,-0.216648,-0.213321,0.207508,0.094123,-0.593353,-0.464422,-0.179821,-0.384629,-0.586521,0.549747,0.352567,-0.103183,0.309189,-0.253221,-0.454506,0.388867,0.004564,-0.067934,0.361879,-0.374926,-0.766984,-0.280115,-0.243708,0.362952,-0.429726,-0.457277,-0.251035,-0.279659,0.125080,-0.385251,0.016278,-0.969717,0.395214,0.157419,0.587870,-0.460196,0.168383,0.046070,-0.602957,0.372278,-0.893027,-0.194597,-0.351089,-0.294550,0.684428,-0.009730,-0.097157,0.446693,-0.246622,-0.341894,-0.025185,-0.786075,-0.479786,0.482302,-0.200823,0.763423,0.640384,-0.402555,1.133845,0.338110,-0.089017,-0.541433,0.414118,-0.767979,-0.559490,-0.969962,-0.469785,0.116845,-0.326197,-0.062790,-0.092129,0.438143,-0.463778,0.497919,-0.058764,-0.300668,1.061746,-0.674697,0.361468,-0.346788,-0.063628,0.043851,0.599426,0.009923
0.230101,0.174743,0.275354,0.373008,0.057452,0.075335,0.118266,-0.648134,0.265295,-0.305152,-0.452500,-0.100209,0.031957,0.621821,-0.392841,-0.372540,-0.149381,0.010786,0.404777,-0.062407,-0.479209,0.062070,0.369760,0.468322,-0.419787,0.328865,-0.496134,0.255250,0.036298,0.197889,0.542645,0.208852,-0.318312,-0.253539,-0.608020,0.254817,-0.122118,-0.163918,0.363999,-0.366944,0.192150,0.179853,-0.487109,-0.301371,0.560963,0.196601,-0.106411,-0.064986,0.090447,0.166669,-0.349552,0.095369,0.027135,0.222224,0.430519,-0.029770,0.304699,-0.384154,-0.027669,-0.055565,-0.520306,0.105376,0.065394,0.164222,-0.702194,-0.639529,0.547395,0.168475,-0.262318,0.819104,-0.211685,0.266088,-0.211616,-0.137591,-0.467138,0.247896,-0.522795,-0.163362,0.601250,0.333142,-0.563637,-0.099037,-0.478085,0.241611,0.296495,0.237818,-0.483592,0.302209,-0.383708,-0.213034,-0.141269,-0.280951,0.286563,0.345525,0.323097,-0.192615,0.049032,-0.490823,0.586658,-0.572087,0.139549,0.259567,-0.207104,0.035806,0.351189,-0.004028,-0.127463,0.272733,0.524704,0.030851,0.384841,0.546833,-0.174320,0.156407,-0.326307,-0.155366,0.385244,0.176972,-0.155494,-0.714076,0.359987,-0.491811,0.567895,-0.369096,0.143053,-0.050361,-0.125155,0.069519,-0.476468
0.908239,-0.394077,-0.225639,0.044868,0.813423,0.186895,-0.704256,0.072311,0.169289,-0.702124,-0.958800,-0.063501,-0.942496,-0.274407,0.288541,0.696297,0.472504,0.365668,-0.471950,0.363158,-0.253511,0.169298,0.665050,0.171316,0.547520,0.420474,-0.190158,-0.163096,-0.700609,0.277574,0.381867,-0.229595,-0.078826,-0.086255,-0.109794,-0.372477,0.500141,-0.060654,-0.465141,-0.207924,0.087325,-0.430238,-0.612761,-0.016725,-0.141687,0.205931,0.280410,0.264171,-0.207075,0.212441,0.310379,-0.073025,0.743397,-0.287734,1.073225,-0.148483,-0.142435,-1.253393,-0.687337,-0.593261,0.038623,0.258556,0.030174,0.519107,0.188335,0.957174,0.673305,0.081860,0.026154,1.132832,0.390737,-0.076283,0.175611,0.380855,0.079217,0.631525,-0.752387,-0.638655,-0.743561,0.166842,-0.332634,-0.595313,-0.693610,-0.140606,0.002862,-0.247437,-0.628278,-0.119605,-0.864115,-0.425968,-0.087176,-0.003124,0.178827,0.598499,-0.102770,0.381768,-0.621917,-0.084668,0.498031,-0.590074,-0.246857,-0.556315,0.477460,-0.141431,0.058325,-0.010675,0.493351,0.339641,-0.055225,0.003366,-1.846008,0.104944,0.209827,-0.735758,0.117351,0.940994,0.151443,0.050829,0.117281,0.235081,-0.164192,0.853715,-0.150256,0.105961,0.374088,-0.446807,-0.019358,0.287885,-0.378886
-0.473424,-0.462699,0.037057,-0.144626,-0.104960,-0.016706,0.021783,0.038392,0.026598,-0.176870,-0.209269,0.284213,0.252709,0.566717,-0.444695,0.256757,-0.773420,-0.105696,0.017027,-0.771713,0.551444,-0.419271,-0.213900,0.161584,-0.509769,0.264484,-0.484664,-0.292295,1.591684,-0.669953,-0.549672,0.442469,0.226872,-0.038216,-0.466408,0.126201,-0.819971,0.040136,0.040476,1.368258,-0.400110,0.144740,-0.118488,-0.382895,0.657780,-0.125478,0.449251,-0.027881,-0.529425,-1.016323,-0.320734,0.421081,-0.662363,0.024136,-0.132028,0.111751,-0.124743,1.133443,-0.057875,0.661109,0.444207,0.098103,0.079356,-0.843016,0.243891,0.113280,0.145014,-0.045439,0.050492,0.263749,-0.132440,-0.368800,-0.342170,0.018876,0.374167,-0.446341,0.371906,-0.415782,0.320084,0.168674,0.446328,0.863221,-1.160196,-1.060554,0.999191,0.393068,0.838274,-0.226927,-0.334921,0.038380,0.357433,0.328171,0.001035,-0.261996,-0.371456,-0.113014,0.373756,-0.006250,0.655275,0.380460,0.447702,-0.063378,0.116975,0.502958,-0.182422,0.291326,-1.222412,0.385823,-0.171427,-0.052724,-0.542976,0.071956,-0.455108,0.072644,0.038481,-0.521472,-0.077252,-0.239570,-0.085643,-0.697554,0.419834,0.585515,-0.164731,-0.045564,0.255516,0.662996,-0.292249,-0.467313,-0.388045
0.187734,0.319797,0.208751,-0.346200,-0.936996,0.434587,-0.482828,-0.357311,0.206603,0.290287,1.000706,-0.047406,-0.424428,-0.102365,0.051631,0.035278,-0.303255,-0.079499,-0.359946,-0.336806,-0.489300,0.187234,0.175385,-0.227559,-0.896968,-0.104934,-0.157700,0.078639,0.546242,0.820665,0.508845,-0.241603,-0.208334,-0.545078,0.382550,-0.130115,-0.576457,-0.262460,-0.003440,0.327113,0.091385,-0.527196,0.508674,0.489208,-0.355458,-0.230024,0.554550,-0.007234,0.118444,0.683745,-0.479562,-0.127914,0.660426,-0.432765,0.424979,0.373411,-0.316713,-0.622520,-0.040587,-0.141923,-0.393022,0.254142,0.200090,-0.239265,-0.043288,-0.812070,0.376297,-0.469928,-0.332905,-0.062325,-0.061432,-0.275440,-0.154827,0.039000,0.119813,0.121931,0.626123,0.675050,0.076738,0.295803,-0.244351,0.659840,-0.426097,0.263866,-0.105051,-0.992710,-0.983184,-0.308196,-0.654991,-0.426757,-0.045273,0.577709,-0.070422,-0.388836,0.303077,-0.285739,0.164485,-0.506136,-0.346008,0.008214,-0.231806,0.318300,0.276573,-0.136573,0.099876,0.176133,-0.457105,-0.080950,-0.001450,-0.601019,0.237215,0.245133,-0.387775,-0.204977,0.185562,0.241645,0.233895,0.176655,0.360389,-0.611345,0.189800,-0.347962,-0.603442,-0.325374,0.285859,-0.286741,0.367387,-0.212461,0.193856
-0.562428,0.294439,0.114939,0.037747,0.819583,-0.256462,0.300840,-0.682648,0.095790,0.173007,0.396524,0.396125,-0.589722,0.212860,-0.420833,-0.323132,-0.564835,0.270275,-0.096964,-0.245767,0.516880,0.029327,-0.015620,-0.418148,-0.367705,-0.125603,-0.323117,-0.120971,0.534770,-0.530398,-0.287481,0.068687,0.266563,-0.209746,-0.280916,0.024655,0.126001,0.149032,-0.418243,0.465410,-0.253404,0.073085,0.090252,0.316229,0.305678,-0.631558,-0.091192,0.167007,0.254984,-0.851592,-0.391868,-0.104669,0.249022,-0.407766,0.828084,-0.595228,-0.082148,0.441663,0.069386,0.312870,0.024608,-0.015617,-0.025574,-0.453084,-0.187610,-0.809882,0.071094,0.293259,0.123885,0.234612,-0.103074,0.301960,-0.212304,0.311399,0.104861,-0.476861,-0.112535,-0.018737,0.528036,0.031603,-0.082372,-0.042402,-0.020522,0.240378,-0.251756,-0.438999,0.384995,-0.486648,-0.357404,0.335560,0.595726,-0.244236,0.108141,0.292271,0.158416,-0.383204,0.194410,0.338754,0.328735,0.037169,1.063811,0.146604,-0.026375,0.542159,-0.054046,-0.334575,-0.600845,-0.219746,-0.637649,0.500485,0.200006,0.448357,-0.609739,-0.739694,-0.449030,-0.240111,-0.130845,-0.031989,-0.162285,-0.352098,-0.465823,-0.649654,0.522331,0.178577,0.114248,-0.139722,-0.498160,-0.084637,-0.526882
0.473420,0.402713,-0.102114,0.095483,-0.210063,0.377089,0.227691,-0.527085,0.368429,-0.509043,-0.647440,0.416664,-0.315421,-0.364139,-0.268064,1.054566,0.007737,-0.467798,-0.258389,0.573440,-0.280812,0.029048,-0.362838,0.009100,0.067972,0.846278,0.670576,0.141755,-0.596626,-0.035205,-0.202680,0.330930,0.250064,-0.289889,-0.294394,-0.200033,-0.186744,-0.111997,-0.027779,-0.630526,-0.092478,0.028424,0.026800,0.092993,-0.386746,0.554903,0.291496,-0.196740,0.103789,0.073449,0.382732,-0.245524,-0.206555,0.317006,0.477309,0.001650,0.047488,-0.072658,-0.727697,-0.696478,0.345484,-0.115828,-0.265853,0.019050,0.103279,0.059112,-0.098603,-0.900678,-0.232402,-0.245993,-0.053879,0.165821,-0.475868,-0.104570,0.273824,0.848996,0.172722,0.106636,-0.672299,-0.113433,0.032941,0.757783,-0.727441,0.426782,-0.547086,-0.666904,-0.704249,0.724231,0.097443,-0.577795,-0.053778,-0.025983,0.403518,0.157361,0.434948,-0.180977,-0.148722,0.043798,-0.232846,-0.523560,0.478708,-0.347094,-0.385540,0.490467,-0.565024,0.142776,0.574750,0.145561,-0.241343,-0.341956,-0.396488,-0.279011,0.319791,-0.516210,0.277138,0.606905,-0.121196,-0.219907,-0.484900,0.455245,0.031582,0.207195,-0.305865,0.399290,0.172946,-0.338369,0.241097,-0.018681,-0.500464
-0.105043,-0.026618,-0.426298,0.081067,0.449543,-0.589007,-0.103590,0.205090,0.155286,0.468897,-0.501283,-0.316234,-0.218023,0.347113,0.160052,-0.601189,-0.049385,-0.249684,0.041190,-0.460394,0.049736,-0.424210,0.072635,0.037989,0.126480,-1.012112,0.338073,-1.054796,1.053712,0.721800,0.680014,0.010085,-0.770771,-0.766122,-0.008265,-0.468324,1.129537,-1.316309,0.010845,-0.627261,0.140915,-0.360926,-0.055168,-0.197489,0.307875,0.060213,-0.148533,-0.683432,-0.866879,-0.077137,0.424156,0.172015,0.169766,-0.128623,0.805701,0.187791,0.232652,-0.552847,-0.265375,-0.446963,0.383498,-0.424668,0.089264,-0.503149,-0.478978,0.832419,-0.967272,-0.453136,-0.469210,-0.120430,0.404309,-0.295664,-0.525359,-0.720589,-0.686668,-0.181338,0.607335,0.076169,0.230126,-0.152130,0.298294,-0.219948,0.525348,-0.445230,-0.489181,0.873598,0.360577,-0.454864,0.593448,0.373105,-0.395763,-0.026734,-0.100752,-0.737908,0.362203,0.673858,-0.274368,-0.085823,0.042391,0.535393,0.259692,0.526051,0.360806,-0.680460,-0.548591,0.255614,-0.684825,0.021614,-0.853221,-0.689310,-0.308187,0.561277,0.190659,0.992324,-0.401580,-0.164980,-0.373344,0.145189,-0.526784,-1.377351,-0.302986,-0.014492,-0.641915,0.255034,-0.254927,0.294862,-0.045565,-0.628527,-0.497251
0.344802,0.747483,-0.209000,0.820814,-0.132562,0.264009,-0.202563,0.441796,0.153839,-0.114552,0.844495,-0.136351,-0.696354,-0.283338,0.533208,0.388787,0.686452,0.189457,0.243493,-0.087569,-0.126220,0.327649,-0.363983,0.120146,0.456185,-0.357583,0.570263,-0.166258,0.124991,-0.037692,-0.572238,0.232238,-0.580521,0.178865,-0.277928,-0.256763,-0.833726,-0.661644,-0.329675,-0.162968,0.042335,-0.502744,-0.293249,-0.306071,0.260392,-1.134865,0.157381,-0.456798,0.239236,0.436974,0.006634,0.025665,0.667295,0.082042,0.693334,-0.180928,-0.454216,-0.808132,-0.585922,-0.168604,0.120770,0.256277,-0.410559,-0.474807,-0.322703,0.458249,0.817433,0.105529,0.059079,0.076718,-0.107789,0.420418,0.307888,0.391638,-0.605170,-0.221926,-0.482828,-0.038818,-0.188157,-0.426103,-0.472237,-0.227515,-0.487240,0.075368,0.968000,0.494019,0.117552,-0.038929,-0.190691,0.448609,-0.171145,-0.104439,-0.035467,-0.350932,-0.044022,0.230761,-0.441315,-0.408880,-0.072224,-0.113717,-0.617645,-0.278289,0.122989,-0.609417,0.121219,-0.377494,0.314566,-0.159578,-1.150147,-0.246191,-0.946635,-0.337333,0.285281,-0.277465,-0.044604,0.178292,0.309493,0.436749,0.135547,-0.543093,-0.367135,-0.591337,-0.174580,-0.119762,-0.418686,0.226999,-0.642597,-0.243197,-0.001684
-0.432227,-0.784857,-0.014831,-0.195662,-0.430706,-0.231979,0.215161,-0.205484,0.200287,-0.267593,0.814924,0.579404,0.221151,-0.044141,-0.238306,0.080749,-0.428120,-0.007941,0.163914,-0.292636,0.470458,0.267481,0.092248,-0.296888,-0.679574,0.071549,-0.000723,-0.093916,0.000782,0.381403,0.110497,0.390757,0.927605,0.280525,0.224939,-0.161051,0.073702,-0.789558,-0.228175,-1.195843,-0.334472,-0.261801,-0.257161,0.314367,-0.038673,0.079865,-0.286842,0.585130,0.049439,0.588578,-0.467468,-0.418495,-0.444522,-0.499590,0.086681,-0.532849,-0.492601,-0.284480,-0.613856,0.521682,-0.242288,0.270848,-0.226612,0.481314,-0.245393,-0.295110,-0.868116,-0.308708,-0.403193,0.891173,-0.486774,0.008773,-0.223439,-0.152920,-0.356525,-0.038954,0.467410,0.165554,0.343990,0.337931,-0.041595,-0.335587,0.001048,0.436214,-0.189960,0.684032,0.621940,-0.536319,0.364459,-0.106714,0.312699,-0.284106,-0.467500,-0.544426,-0.322178,-0.498166,-0.166923,0.231293,-0.163083,0.485744,-0.068824,-0.676530,-0.300186,0.048980,0.107463,0.128872,0.439027,-0.243149,-0.668300,-0.608244,0.615027,0.084449,-0.165350,0.104644,-0.028369,-0.278942,0.565731,0.154710,0.061225,-0.291263,0.262483,-0.843578,-0.317213,0.102834,0.135419,0.283679,-0.123826,-0.249834,-0.512234
-1.212972,-0.237363,0.232359,0.242743,-1.401491,-0.578510,-0.661492,-0.519605,-0.016339,0.415982,0.465158,-0.359483,0.510676,0.457196,-0.078281,-0.825369,-0.063229,0.523711,-0.418044,0.241824,0.240477,-0.044534,-0.907771,0.169816,0.395959,0.212393,-0.073499,-0.720655,-1.402867,0.245248,0.031479,-0.376141,-1.413147,-0.162517,0.176317,-0.349576,-0.564961,-0.255467,-0.122120,0.341765,0.279954,-0.189259,0.502409,-0.359256,-0.089399,0.340647,-0.281481,-0.504062,0.253679,-0.851400,-0.138773,-0.079523,0.249512,-0.240471,0.376189,0.198474,0.280246,0.088192,0.149205,-0.471643,-0.170206,0.206794,-0.399910,0.566200,-0.509941,-0.999403,0.053094,-0.941803,-0.420782,1.089637,0.090743,0.274568,0.131649,0.017922,0.366573,0.327425,0.465425,-0.417735,0.518178,0.693023,0.454317,-1.115613,0.072192,0.358515,-0.208581,-0.004111,0.465839,0.273400,0.775905,-0.902884,-0.260313,-0.422557,-0.357504,-0.574889,0.236424,-0.719910,-0.314656,0.408824,0.766997,0.664099,-0.585620,-0.002657,-0.278573,0.093118,-0.087487,0.405429,-0.095570,0.018114,0.735502,1.004731,0.305948,-0.237957,-0.816534,-0.042367,-0.267141,-0.522684,-0.039567,-0.175896,0.083765,0.342586,0.223606,-0.164588,-0.034253,-0.434469,0.366737,0.298039,0.305435,0.146420,-0.322362
0.602563,-0.273181,-0.068935,-0.609096,-0.617685,0.708148,0.595388,-0.470997,-0.395494,-0.540094,-0.656816,0.333630,-0.079194,0.384105,0.148483,-0.380709,0.507420,-0.603703,-0.159467,0.055291,-0.046373,-0.713190,0.639633,-0.395761,-0.207907,1.029167,0.463665,0.879895,0.542499,-0.353915,0.236996,-0.103886,-0.401520,0.035793,-0.486302,0.099979,-0.125049,0.100593,0.195122,0.551415,-0.111886,-0.459818,0.676613,-0.554144,-0.019030,0.308049,0.789768,-0.626811,-0.845670,0.103285,-0.350770,-0.312085,-1.185414,-0.583897,-0.489982,-0.727297,0.034222,-0.103668,-0.303323,0.311249,0.502791,-0.092709,0.088554,0.321936,-0.034072,-0.714573,0.527635,-0.311932,-0.306358,-0.211123,0.210508,0.210167,-0.098794,-0.181363,0.673336,-0.329463,-0.744453,-0.356902,-1.324391,0.040852,0.426415,0.200073,0.427466,0.315270,-0.055874,-0.786722,-0.812094,-0.092822,-0.761414,-0.900467,-0.408933,0.295452,0.104227,-0.349101,-0.300024,0.275149,-0.086856,-0.224536,-0.629341,-0.876039,0.014342,0.512118,0.089539,0.591129,-0.294503,0.506301,-0.404229,0.426634,0.097222,0.111388,-0.435994,0.199783,0.463776,-0.336249,0.386271,-0.739220,0.779449,0.110649,-0.052054,0.329746,0.059773,0.609125,-0.210955,0.024761,-0.229059,-0.336028,0.123048,0.386698,0.180042
-0.525628,0.344853,-0.396863,0.098232,-0.188630,-0.681300,-0.013730,-0.743980,0.009819,-0.310575,0.701939,-0.294938,-0.199838,0.169654,0.554202,-0.189070,-0.141819,0.001231,-0.035264,-0.442430,-0.113065,-0.020711,-0.784649,0.351873,-0.028330,-0.711693,0.506639,-0.246997,0.350127,-0.396874,-0.615214,-0.097320,-0.072537,-0.219857,0.092646,0.119311,-0.055868,-0.201128,0.233642,0.950871,0.134330,-0.660375,-0.685317,0.011228,0.253541,0.516166,0.153018,0.318443,0.439746,0.870676,0.379489,-0.408296,0.339265,-0.405592,-0.170312,-0.538730,0.195635,0.105400,-0.456941,-0.041660,0.637456,0.211393,0.413451,-0.166271,-0.112081,-0.351762,-0.793093,-0.662348,0.160712,-0.070900,0.429288,0.255297,0.074558,-0.513250,-0.116059,-0.558878,0.492310,-0.744992,0.712126,0.132195,-0.435632,-0.141218,-0.152772,0.394012,0.697984,0.625511,0.035547,-0.507801,0.064762,0.478142,-0.948800,-0.231850,0.241288,0.107805,-0.233469,-0.547187,-0.054704,-0.191722,0.326632,0.219364,-0.142463,-0.593063,0.226736,-0.133256,0.264869,0.464671,-0.382037,-0.400082,-0.390469,0.616743,-0.514849,-0.252246,-0.735077,-0.688864,0.102460,0.203739,-0.301925,0.004991,-0.015495,-0.459720,-0.396190,-1.008317,0.631495,-0.319968,-0.105017,-0.095160,-0.050229,0.079440,-0.048890
-1.288563,1.302334,-0.087701,1.190018,0.072032,0.031588,-0.318133,0.033811,-0.137151,-1.616895,-1.811414,-0.147773,-0.448939,-0.195641,0.437780,0.027259,0.230165,-1.004232,-0.379779,0.004689,-0.836321,0.423372,-0.574468,-0.305580,1.025143,0.339965,0.695874,-0.313555,0.200549,-0.632962,-0.226282,0.083040,0.299785,0.250904,-0.106441,-0.252309,-0.600384,0.071039,-0.060304,-0.055798,-0.200544,0.203008,-0.563749,-0.102372,-0.734763,0.408596,-0.404506,-0.171328,-1.070561,0.374484,0.101222,0.648264,0.231048,-0.053780,0.450176,0.098666,-0.355549,-0.312913,-0.127951,-0.658782,0.550336,0.318879,0.388231,0.087315,-0.273124,1.455815,1.002396,-0.198444,-0.236791,-0.006950,0.528730,0.478386,-0.289939,-0.212813,-0.732842,-0.402858,0.157131,-0.679350,1.486283,0.133361,-0.121662,-0.092269,-0.456744,0.108554,-0.361725,-0.061997,0.924823,-0.240266,1.083513,0.728447,-0.347545,-0.465833,-0.151038,0.982615,0.625413,0.268387,-0.179157,-0.551870,0.668967,0.133001,-0.448699,-0.220051,-0.234476,0.413585,-0.442354,-0.462611,0.500008,-0.562361,-0.404447,0.342387,-0.917677,-0.230840,0.323011,-1.836943,0.222750,0.756541,-0.822013,0.321340,0.321702,0.382042,0.283185,-1.013354,-0.284590,-0.202308,0.072499,-0.214530,0.032357,0.295080,0.225610
0.894523,0.129951,0.248715,0.039482,0.334598,-0.048986,0.607527,0.434190,0.106558,-0.040425,-0.724579,-0.030405,0.457219,0.512443,-0.436687,0.657767,0.382117,-0.578629,-0.027164,0.495867,-0.198898,-0.558786,-0.519247,0.446724,0.093792,-0.232825,0.164308,0.426781,0.045232,-1.199117,-0.216836,-0.329747,0.340423,0.122566,-0.476083,-0.452270,-0.372896,-0.470720,-0.480196,0.243929,-0.146725,0.816774,-0.259392,0.111138,0.661733,0.543391,-0.683631,0.287245,0.634799,0.139121,0.216018,0.473715,-0.109986,-0.386098,0.613654,-0.311485,0.213530,-0.109993,-0.554567,-0.284797,0.370157,-0.213134,-0.319623,0.615572,0.030602,0.430491,-0.301693,0.344183,0.122834,-0.435876,0.016976,0.486143,-0.353476,-0.234583,0.386804,0.877293,-0.440223,0.222054,-0.359802,-0.514867,0.286361,0.159946,-0.813042,0.166473,-0.352037,-0.716443,-0.245999,-0.269495,0.488767,-0.178767,-0.004662,0.363330,0.494864,0.175485,0.272392,-0.428865,-0.691548,-0.237999,-0.265673,-0.470266,-0.549261,-0.191748,0.217042,1.089181,-0.166359,-0.140552,-0.165006,-0.529890,0.176406,-0.007272,-0.395910,-0.397770,-0.296806,0.496023,0.231187,0.270034,-0.567887,-0.300772,0.265987,-0.010087,0.449469,-0.009603,0.445922,-0.456639,-0.213954,0.029947,0.142956,0.619920,0.311658
-0.077482,0.771445,-0.129460,1.198682,-0.154403,-0.582783,-0.448665,0.996296,0.695244,-1.379236,0.570062,-0.102194,-0.914957,-0.520030,-0.045745,0.514198,-0.338794,-0.782198,0.107069,-0.126314,-0.657637,-0.124209,-1.231728,-0.033842,-0.852583,-0.610529,0.725890,-1.015711,0.658687,0.398986,-0.112534,-0.103665,0.036270,0.041802,0.271052,0.282584,-0.333942,-0.765292,0.268093,-0.778874,0.254126,-0.625172,-0.556043,-0.023486,-0.621842,0.722189,0.067339,-0.287044,-0.352811,0.379273,0.042272,-0.806250,0.457926,0.592400,0.936175,0.538029,-0.565497,0.818117,0.067067,-0.813161,0.178795,0.208756,-0.205646,0.351466,0.079307,0.044798,0.433782,-0.553811,0.138599,-0.442524,-0.026571,-0.374071,-0.149365,-0.396557,-0.706087,0.430347,0.260718,0.278439,-0.465525,0.529240,-0.428932,0.299191,0.477495,0.040034,-0.341349,-0.200113,0.036158,-0.038705,0.657373,0.429076,-0.111893,-0.587603,-0.185398,0.811727,0.191580,-0.353219,-0.317512,-0.137444,-0.008276,0.520545,-0.025668,0.533369,-0.278611,-0.587027,-0.233945,0.066315,-0.522926,-0.386889,-0.159810,0.033228,-0.465798,-0.612363,0.836386,-0.936658,-0.275964,-0.220616,-0.333400,0.100450,0.366395,0.840838,0.276980,-0.418911,-0.114242,-0.016608,-0.163773,-0.063029,0.045882,0.038226,-0.203966
1.457204,0.878232,0.180689,0.809457,0.299917,-0.385975,0.452942,-0.567099,0.181762,0.009629,0.348142,0.054476,0.300003,0.001838,-0.323985,0.746721,-0.131667,-1.343915,-0.237061,0.044309,-0.703293,-0.501062,-1.055343,0.116516,-0.109319,-0.604942,0.476159,-0.423869,0.185611,-0.410263,-0.215919,0.234627,-0.286600,0.439183,-0.355502,0.138334,0.366520,-0.256991,0.196228,-0.072795,0.148161,0.468924,-0.788034,-0.492689,0.343163,-0.247592,-0.234328,-0.304809,0.602641,0.104273,0.101942,-0.457745,-0.240648,-0.553366,0.725076,-0.131906,-0.329461,-0.331373,0.182845,0.150257,-0.530524,-0.328212,-0.026233,0.305157,0.434995,-0.358173,0.438534,-0.627722,0.219690,-0.239013,0.374807,-0.455787,-0.494502,0.544333,-0.486319,1.069035,-0.759221,0.125815,-0.196799,-0.244073,0.074385,0.276434,-1.025442,0.329374,0.409516,-0.565903,0.324938,0.098131,-0.051522,0.568262,-0.273530,0.420661,-0.259762,0.254050,-0.158926,-0.552026,0.184935,-0.540288,0.352104,-0.092738,0.415481,-0.647115,0.137498,0.337318,-0.464279,-0.103273,0.593953,-0.438474,-0.269254,0.344240,0.640911,-0.879933,-0.543664,-0.758372,-0.166764,0.380859,-0.527688,0.188635,-0.040429,0.337578,-0.372137,0.169345,-0.138746,-0.060970,0.421719,-0.116485,0.138945,0.666045,0.371374
0.079681,0.082832,0.238339,-0.299090,0.549671,-0.196072,-0.174245,0.511757,-0.225088,-0.560984,-1.019856,0.107289,0.231342,-0.603136,-0.163507,-0.512620,-0.284413,0.734521,-0.214540,0.267806,-0.174897,-0.347938,-0.728056,-0.512446,-0.672616,-0.457335,0.410815,-0.606155,-0.630925,-0.287589,0.111348,-0.136831,-0.176083,0.036324,-0.110653,0.367998,0.029204,0.176794,-0.402545,0.161437,0.365479,0.479784,0.011263,-0.057982,0.354615,0.309749,0.708091,0.067648,-0.104085,0.389180,0.115634,-0.283656,-0.181606,-0.280998,0.281890,-0.386270,0.199578,-0.132692,-0.004432,-0.248832,-0.450034,0.196317,0.391686,-0.411433,0.126427,-0.217707,-1.070291,0.322816,-0.155375,-0.401385,-0.333835,0.117443,0.180783,-0.213303,-0.293872,0.283005,-0.080276,0.042977,0.083201,0.263915,-0.069236,-0.080530,-0.426346,-0.007374,-0.427071,0.669284,-0.242746,0.310326,0.641236,-0.462677,-0.310521,0.161789,-0.241351,0.627430,0.283842,-0.052843,0.176880,-0.065935,0.061030,0.393261,-0.207178,-0.300948,0.136343,0.069283,0.201551,0.541664,-0.408533,0.400372,-0.181844,-0.586721,0.071285,0.074191,0.071191,0.006947,0.210991,-0.287261,-0.019644,0.381576,-0.242618,0.442214,-0.063083,-0.001911,-0.376139,0.109090,0.074727,-0.081738,0.333264,-0.155629,0.033676
-0.078109,-0.185975,-0.303691,-0.933190,-0.063980,-0.672631,-0.275359,0.040142,0.402665,0.243227,-2.351577,-0.007603,-0.933866,-1.420122,0.195796,-0.175616,0.248905,0.100132,-0.219898,-0.593825,0.596527,0.425505,1.008554,-0.723263,0.015502,-0.339196,0.459811,0.408235,0.256086,-0.267417,0.167523,0.424689,0.526350,1.198506,0.433747,-0.200595,-0.677361,0.818060,0.385442,-0.327176,-0.334746,-0.624763,-0.244315,0.139061,-0.427486,1.018262,-0.876390,1.017290,0.089048,-0.456159,0.049946,0.057840,0.756346,0.461933,0.349748,0.528421,-0.374917,-0.330157,0.157239,0.753248,0.156935,0.175902,-0.296286,-0.536512,-0.418495,-1.711927,1.093692,0.425841,0.370121,-0.685232,-0.395839,0.323501,0.573982,0.166300,-1.041768,-0.138100,-0.465944,0.297064,0.911877,0.190839,0.306540,0.276591,-0.018871,-0.730367,0.864909,-1.057891,-0.523895,-0.001781,-0.667597,-0.287645,0.210591,-0.525401,0.005266,-0.174430,-0.243401,-0.236513,-0.081388,0.064956,-0.856987,0.531161,0.135962,-0.388991,0.516877,0.113368,0.481284,0.375482,1.014615,-0.062941,0.434317,0.786107,0.180899,0.077252,-0.183088,0.013015,-0.124888,-1.015475,-0.294577,-0.168984,-0.285209,0.559735,-0.112197,-0.149295,0.438171,0.859556,0.079411,0.825564,-0.388895,-0.646431,0.003320
0.416862,-0.453314,-0.464931,0.151661,0.829667,0.179410,-0.042356,-0.817531,0.090042,0.613854,-0.092264,-0.363626,0.313869,0.403514,0.340051,0.227800,-0.777426,0.293132,0.030642,-0.219838,0.508426,-0.757281,-0.893675,-0.403877,0.245610,-0.632095,0.417306,-0.699534,0.022390,-0.004902,-0.661333,0.386127,-0.445853,0.475579,0.012862,-0.485165,-0.294545,-0.565193,0.160128,0.026339,0.284594,0.301221,0.516476,0.099095,-0.157787,-0.144914,0.041696,-0.779461,-0.541246,-0.047058,0.552701,0.333542,0.040147,0.528848,0.360770,-0.491790,0.232065,-0.252575,-0.129149,-0.299110,0.373291,-0.151091,0.056037,0.239722,-0.068888,-0.114037,0.466541,0.395430,0.018718,0.279403,-0.360217,-0.275826,-0.175842,0.475619,0.009931,-0.421277,1.080193,0.341197,-0.054163,-0.541817,-0.405770,0.325505,0.105092,-0.744290,0.245625,-0.338161,0.660682,0.406104,-0.823796,-0.019768,-0.451335,0.147195,-0.035817,0.153539,-0.576546,0.016238,0.067553,0.126426,-0.026961,-0.126941,0.014012,0.531629,-0.280526,-0.660773,-0.104190,0.207253,-0.569803,-0.082616,-0.260998,-0.820930,-0.129637,-0.411284,0.996617,0.648999,-0.060155,-0.436008,-0.272387,0.438384,0.014110,0.830553,0.453651,-0.509989,-0.347336,-0.291384,-0.148157,-0.191912,-0.351487,-0.787674,-0.246696
-0.118577,-1.093436,0.073229,0.594243,-1.457216,1.257436,-1.065984,0.644700,0.498071,0.985343,0.558342,0.116672,-0.192722,-0.437783,0.316343,-0.363898,-0.220304,0.697232,0.452541,-0.197213,-0.164072,-0.268468,-1.099609,-0.011281,0.092538,0.460448,-0.599592,0.515475,-0.675022,0.838828,0.733544,0.247789,-0.841617,-0.050020,0.208818,-0.291862,0.265828,0.139565,-0.114722,-0.587048,0.937422,-0.082197,-0.740469,-0.539732,-0.170650,-0.437782,-0.829034,1.166903,-0.119632,0.550953,0.274386,0.635969,-0.148092,-0.791487,-0.406436,-0.784646,-0.436463,-0.069780,-0.194374,0.315852,-0.348511,-0.073957,0.529668,0.547924,-0.020681,-1.049869,0.028897,-0.883070,-0.192549,0.632169,0.568251,-0.061875,0.375072,0.196057,-0.271899,0.765809,0.208244,0.096740,0.070507,-0.529648,-0.585064,0.247906,0.519938,0.397167,0.270027,0.045478,1.070282,-0.023928,0.093871,-0.236434,0.840335,-0.085112,0.221037,-0.603648,0.696611,-0.680493,-0.010399,-0.119329,-0.496693,-0.006694,0.155422,-0.115871,-0.552676,0.469139,-0.287014,-0.187225,0.206285,-0.543675,-0.115583,-0.191445,0.332222,-0.437982,0.205511,-0.261874,0.125772,1.063514,-0.982228,-0.404195,-0.402520,0.188823,0.159396,0.125949,0.252648,0.181395,0.062004,-0.461031,-0.273695,0.720599,-0.395181
-0.026697,-0.003808,-0.370851,-0.261178,0.744951,0.192586,0.366741,0.240790,-0.618734,0.557684,0.462047,0.053767,-0.294735,0.340929,0.376655,0.216153,-0.175617,-1.121861,0.414974,0.124757,-0.921200,0.202507,0.407273,0.164365,0.144811,0.329680,0.654274,0.457445,-0.708390,0.215632,-0.784876,0.002669,0.141659,-0.330311,0.179440,0.083795,-0.589394,-0.533362,0.124580,-0.223890,-0.548470,-0.204218,-0.211154,0.039930,-0.108430,0.346666,-0.291300,0.223305,-0.711247,-0.104444,-0.269788,-0.010631,0.206478,-0.444571,-0.879924,-0.008561,-0.351883,0.132400,-0.327721,-0.012164,-0.357662,0.117786,0.177858,-0.095886,0.203549,0.013689,-0.141280,-0.131535,-0.241206,0.723548,0.371914,-0.213107,-0.292438,-0.058930,0.164412,0.273490,0.663002,0.366772,-0.454892,-0.629162,0.243807,0.649545,-0.406240,0.474576,-0.273882,-0.013395,-0.179999,-0.082335,-0.771485,0.297873,-0.718530,0.127878,0.484113,0.105945,-0.217011,0.093308,-0.464042,-0.109198,-0.354268,-0.840061,0.470681,0.249077,0.394890,-0.580156,-0.367171,-0.002680,-0.839728,-0.285867,-0.226709,0.860353,-0.826858,-0.270155,0.303639,0.502781,0.437288,-0.470298,-0.212091,0.272998,-0.246693,1.129299,0.376710,0.409435,-0.724189,0.049296,0.086584,-0.559694,0.537063,0.302575,-0.333785
0.738252,1.272708,-0.349203,-0.261033,0.262821,-1.369169,0.995258,0.401895,0.028100,-0.184337,-0.580411,-0.599187,-0.274968,-0.268579,-0.416614,0.610120,-0.038677,0.051270,0.042927,0.343283,0.270333,0.154231,0.445145,0.030231,0.436042,-0.153821,-0.516319,0.297286,-0.568570,-0.654360,-0.318767,-0.059015,0.504025,0.087638,-0.230968,0.110428,-0.428020,0.753586,-0.254720,-1.238396,0.026847,-0.013278,-0.506793,0.016061,0.230919,-0.725376,-0.556276,-0.204156,-0.099879,-0.025892,0.039984,-0.084444,0.092151,-0.185361,0.858320,0.429868,0.341898,0.079081,0.014137,0.346459,0.160025,0.466660,0.412359,0.623478,0.430027,-0.617081,-0.119859,-0.081055,0.313653,0.198182,0.000731,0.240037,-0.390447,0.096188,0.284926,0.784400,-0.178386,0.418430,0.178622,-0.098913,-0.492868,-0.486653,-1.146754,0.743536,-1.273877,-1.187130,-0.436726,1.068509,-1.148834,0.390245,-1.385641,-0.370574,-0.413169,0.250143,0.054779,-0.032298,-0.186871,0.090069,0.547337,-0.217549,0.091398,-0.192999,0.138768,-0.073013,0.017131,0.452775,0.166598,-0.484370,0.649484,1.045332,0.580916,-0.199536,0.256538,-0.203346,-0.244464,-0.599017,-0.120004,-0.017344,0.054261,0.783324,-0.136749,0.407157,0.115835,-0.488161,-0.151213,-0.176863,0.771812,-0.220821,0.126805
0.146087,-0.450068,0.521800,-0.791020,0.540265,0.260787,0.309647,-1.118682,0.342642,-0.121158,-1.230292,-0.076390,0.937607,0.090718,0.233344,0.433844,-1.178919,0.586613,0.431369,-0.430107,0.513378,0.402588,-0.519945,0.477951,-0.028170,-0.444750,0.343552,-0.389633,0.331740,-0.291109,-0.394940,-0.233483,-0.337226,-0.351194,-0.379138,0.120918,-0.690993,-0.145203,-0.111443,-0.151730,-0.311023,0.646352,0.048058,0.023080,0.929863,0.528083,0.452663,0.454632,-0.475152,-0.500677,0.426990,0.307469,0.073565,-0.037372,0.318787,-0.111787,-0.039762,0.052037,-0.028152,0.082056,-0.320687,0.331676,-0.626213,0.261487,0.194810,0.540368,-0.107110,-0.158325,-0.524366,0.526586,0.098673,-0.493654,0.109970,0.059788,-0.629501,0.623725,0.824088,-0.263636,0.119841,-0.451800,0.092626,-0.034913,-0.102371,-1.265765,-0.697279,0.066460,0.004413,0.137458,-0.128369,0.387045,0.123639,-0.326813,-0.318637,0.111612,0.107452,0.424737,-0.122072,-0.074894,0.579657,0.268180,0.266994,-0.370062,0.301516,-0.334814,0.018124,0.181563,-0.864914,-0.151026,-0.190206,0.263397,0.852557,-0.083647,0.450193,-0.276407,0.291140,-0.512085,-0.117144,-0.180240,0.401983,-0.040691,0.194284,0.076473,0.360973,-0.136405,-0.547914,0.190529,-0.776996,0.253102,0.301517
