-0.404006,-0.071142,-0.350883,-1.112557,0.469183,0.439162,-0.067657,0.966622,2.189967,2.898123,0.013119,-0.636000,-0.271254,0.168136,-0.101165,-1.495708,-1.812552,0.018820,0.348678,1.627642,1.242427,1.889708,-0.224768,1.897825,1.175168,0.866600,2.029029,0.662836,0.351631,-0.028359,-0.306965,-0.442915,0.695861,1.890532,-0.504055,-0.288909,0.758721,-0.507162,0.408414,0.390237,-0.378326,-0.371432,-0.176636,0.428824,0.583116,-0.638834,1.377228,-0.000724,-0.916135,1.017701,-1.071297,-0.106255,1.458793,-0.312305,0.918721,-1.449314,0.813694,-0.279434,-1.086152,-0.872845,1.364892,-1.482254,0.821415,-0.091045,0.221504,0.011270,-0.058333,-0.337899,0.119309,-0.418970,-0.226602,-0.559026,-0.178412,-0.289687,-0.222865,0.865110,0.218135,-0.398323,-0.710437,0.129145,0.334026,0.243762,0.540740,0.237811,-0.457823,-1.357482,-0.167116,0.204280,0.107964,0.920275,-1.149289,0.668741,1.530970,-0.655878,1.117999,-0.177688,-0.143863,0.010020,-0.289805,-0.157313,-0.264294,-0.645463,-0.486142,0.835499,0.210850,-0.683876,0.037973,0.243356,-1.425268,0.288035,0.866259,0.210015,-0.669783,-0.632137,-0.035303,0.100306,0.355700,0.210368,-0.152446,1.068981,0.305670,-0.281969,-0.362660,0.329455,-0.042346,-0.128229,0.725699,-0.251409,1.409212,-0.110666,-0.424238,0.287588,1.001997,0.786264,-0.515079,0.359059,-0.447764,-0.442192,-0.433052,-0.226876,-0.632682,0.008529,-0.169143,-0.010428,1.123966,1.896914,-0.250555,-0.380883,0.692320,0.083135,-0.318165,-0.493227,0.773123,2.868809,0.221535,0.547829,0.165265,1.013603,-0.061549,1.472016,-0.039278,-0.230143,1.319687,0.865312,-0.290660,1.200485,-1.095269,-0.612324,0.429540,-0.123840,0.410195,1.133099,-0.345025,-0.778269,0.646145,-0.853198,0.649273,0.487834,-0.274291,0.216458,1.533347,-0.091083,-0.039846,0.088933,0.828863,-0.225018,2.607090,2.634058,-0.127700,-0.195303,0.617710,0.397839,0.552976,-0.628477,-0.143521,-0.596477,-0.482959,-0.940794,-0.036070,-0.093002,-1.267229,0.922112,-0.051527,0.947199,-0.176452,-0.073648,-0.213398,-0.482981,0.359087,0.549797,-0.761391,-0.121649,0.310446,-0.403060,-0.267904,-0.829473,-0.081754,-1.466247,0.472272,0.767500,0.139913,1.507143,-1.156015,0.688889,-0.394825,-0.111189,0.000260,-0.002101,1.206175,-0.210060,0.646117,2.003000,0.982718,-0.303732,-0.262120,-0.196712,-0.682897,-0.416425,-0.761886,-0.864007,-0.077759,0.041311,-1.439050,0.538309,-1.237098,0.132937,0.855067,-0.471726,-0.202202,0.172467,-0.768965,-1.469054,0.371803,0.440464,-0.218166,-0.692048,-2.441219
-1.454810,2.683675,0.008361,0.676410,0.057206,-0.168982,0.154280,-0.078298,0.464249,-0.075841,1.284565,-0.432145,-0.388062,-0.167006,0.630312,-0.106238,0.215789,-0.040218,-0.545518,0.267095,-0.693551,-0.555593,-0.114527,0.645063,-0.035458,-0.196993,-0.057183,1.537913,-0.147726,-0.364976,-0.179881,0.094820,-0.368417,0.562926,-0.124278,-1.817633,-0.282904,1.299143,0.846040,0.880763,1.647101,-0.488085,0.082992,-0.548217,-0.296857,-0.553443,-0.552273,-0.889621,-0.867052,-0.360843,-2.246787,-0.208905,-1.248588,-0.775996,-0.860023,0.027613,0.169758,-0.865014,-0.034973,0.207009,-1.576027,-0.624310,-1.185283,0.744275,-0.356027,-0.382732,1.557778,0.561206,-0.020061,-0.130446,-0.811673,-0.802367,-0.079280,-0.155786,0.221000,-0.597733,-0.662261,-0.594218,-0.727358,-0.437417,-0.040255,0.466182,-0.413166,1.860893,-0.433424,1.462250,0.182360,-0.123322,-0.271481,-0.367144,-1.882515,-0.101778,-0.560803,2.651176,-0.780682,-1.283994,-0.520301,-0.362087,-1.907018,0.612307,1.063436,0.823712,-0.245741,-0.678823,-0.430913,-1.113641,0.087051,1.342868,0.087445,-0.524679,1.298858,0.118010,1.221940,-0.608173,1.130466,0.133380,-0.722046,0.617189,-0.348440,0.346956,0.092367,-0.424105,-0.955551,-0.104380,-0.339064,0.713785,-1.424809,-0.639702,-0.702578,-0.807883,-0.291075,-0.707252,-0.882108,-0.182079,0.763271,1.288766,-0.350559,-0.647303,0.030899,-0.204233,-0.895469,0.338997,-0.627785,0.132391,-0.375052,1.230253,0.471937,-0.444792,-0.381843,-0.354295,0.033956,-0.387103,-0.612792,-1.116338,0.407322,-0.913093,-0.135702,0.488385,-0.010685,-0.942563,-0.256190,-0.447087,-0.640475,-0.184553,0.258609,0.038838,0.469110,-0.316405,0.751409,0.966321,-0.819083,0.974618,-0.341088,0.267082,-1.143794,-0.333477,-0.631856,0.012626,-0.437125,-0.201106,-1.144893,-0.724933,0.612956,-0.058450,0.355293,0.199738,-0.198159,-0.103833,-0.607696,-0.789140,-0.141879,-0.776570,-1.406722,0.526435,0.272400,-0.866337,0.497094,0.766755,0.193642,0.071560,-0.485703,-0.527991,-0.490797,1.816767,2.818399,-0.636876,-1.576822,-0.294179,-1.016526,-0.332840,-1.133876,1.421857,1.613886,-0.066275,0.404488,0.200476,0.366058,-0.158088,0.616653,-1.098764,0.919876,0.494087,1.093519,-1.169061,-0.635925,-0.812071,-0.015674,-0.252822,0.139550,0.373132,-0.332999,-0.621099,-0.891999,0.930616,-0.329568,-1.450066,-0.240475,-0.648185,-0.070970,-1.013410,-1.346909,-0.317291,0.305904,-0.703000,-0.569235,-0.586100,-0.235000,0.331729,0.178105,0.307668,-1.105730,-1.443978,-0.337381,-0.140914,0.355145,-0.439523,3.129571
-1.079811,-1.168132,0.292420,1.933666,-0.107245,-0.687375,0.046159,-0.122621,0.601142,-0.821600,0.947975,-0.767085,0.216409,-0.103184,0.894748,0.377464,-0.532464,-0.399400,1.225930,0.952092,0.325703,-1.333342,-0.123904,-1.150592,0.023324,1.427401,-1.319620,-1.302706,-0.114524,0.241775,-0.013115,-0.519976,1.213873,-1.923663,-0.043402,1.619356,0.795749,-1.865492,-0.249889,0.234825,0.655316,0.541803,-1.322022,-2.388836,0.126847,0.662361,-0.582341,-0.723665,0.554784,0.785192,1.432904,-0.351498,1.702248,-0.627271,-0.234397,-0.439474,-1.443538,-1.148732,1.285703,-0.728066,1.497082,1.915914,-0.761506,-1.496029,0.056080,2.192707,-0.900031,-0.130204,-1.510699,1.237990,-0.255631,0.029094,0.175412,0.265617,-0.087321,0.191473,1.109849,0.947016,0.113191,-0.230455,-0.363319,-0.909938,0.670105,0.046103,-0.247929,0.367940,-0.023544,-0.181795,-0.362736,0.218416,1.871880,0.463244,1.191098,-0.078814,0.082946,0.009597,-0.953323,-0.060539,0.543060,-2.593891,0.862238,-0.939870,-0.418770,-0.861195,-0.081988,-1.149491,-0.035812,-1.096058,0.324237,0.057261,-0.756532,0.751235,-0.021002,0.601400,-1.103183,-0.171247,-1.509402,0.538139,0.748152,-1.254041,-0.102209,-0.819930,-0.662848,-0.113391,-0.656715,-0.440072,0.687131,1.016800,1.751881,0.132080,-0.677223,-0.173953,0.583873,-0.914068,-0.354299,0.113821,1.446287,-0.051229,0.673696,0.239909,0.462971,0.201008,0.339646,-0.009396,-1.491595,-2.236247,-0.091982,0.918185,-0.429366,-0.110041,-0.294247,-0.799166,-0.227592,-0.317379,-0.305068,-0.094312,0.571512,-0.846587,-0.127223,-0.578624,0.131589,-0.562192,1.736009,-1.948259,0.039527,0.347810,-0.954310,-0.928276,-0.722482,-0.772543,0.563248,-1.156445,-1.282426,0.415804,0.248865,-0.161051,-1.298827,-0.415205,0.685945,-0.203451,-0.095694,0.456918,-0.670728,0.421013,-0.624230,-0.422648,-1.069006,-0.879751,0.573937,0.162495,2.261183,0.687071,1.329311,0.318087,-0.466413,0.477612,-0.430906,-0.373638,-0.025410,1.506183,0.756033,-0.646171,-0.254289,0.220630,-0.418239,0.919202,0.627946,0.477826,0.440736,0.184593,1.018952,-0.287437,0.723534,0.087730,-0.050085,-1.374060,-1.746636,-2.245877,-0.070672,-0.625622,-0.965960,-0.459807,0.180263,-0.697484,1.991721,-1.131816,-0.113619,-0.102449,0.036596,-0.118946,0.088268,-0.200964,0.292203,0.409098,0.201725,0.934523,1.652646,0.018789,-0.613016,0.596785,-0.689880,0.115404,-1.662865,-0.222277,2.060062,0.126565,-0.131141,0.086213,-1.811184,-0.543671,1.082292,0.984736,-0.238273,-0.292695,-0.104046,0.811857,0.018619
2.376238,1.651987,0.071026,-0.613741,0.096929,-0.169717,0.338621,0.712227,0.164745,-0.665882,1.433591,0.437336,-0.177405,0.097270,-0.358449,-1.599549,-0.710104,-0.373482,0.013007,-0.541321,-0.470797,0.101920,0.151386,1.534633,-0.274639,-0.078933,-0.427526,0.529475,-0.499145,-1.135338,0.029242,0.711950,-2.140365,-0.713486,-0.358522,-0.742705,-0.051639,1.336249,0.884522,-0.673770,0.500072,-0.965338,-0.096093,-1.210775,-0.367600,0.347452,1.281249,0.003030,-0.787927,-0.758292,0.205381,-0.982022,0.281105,1.861272,0.114346,0.730764,-0.576649,0.068243,0.269685,1.130804,-0.926544,0.578842,-0.584395,-0.693758,-0.247410,-2.956105,2.144765,0.467200,-0.439751,0.191324,0.607676,-0.583912,-0.045889,-0.043451,0.332123,-0.518632,-0.678419,-0.006227,0.458364,0.705012,-0.090131,0.460891,-0.349398,0.584147,0.987017,-0.540463,0.362884,-0.313999,-1.015182,-1.739279,0.389042,0.036034,1.878479,-0.289790,0.170940,-0.824438,-0.630025,-0.302941,1.623377,1.234121,-0.812427,0.418419,0.452658,0.084488,-0.757410,-1.272396,0.665143,0.510129,0.395857,0.171957,-0.661529,-0.352802,1.006446,-1.117621,0.241781,0.487916,2.876650,0.128032,-1.789424,-0.356014,0.445156,0.864950,1.524887,0.561525,-0.600846,0.698914,-1.051300,-0.075843,0.155892,0.638004,-0.806701,1.346823,-0.176079,-1.282475,0.658774,-0.198359,-0.922382,-0.092615,0.415811,-0.282247,0.788550,0.512222,0.623489,0.049209,0.020854,0.596260,-0.081197,-0.983699,-0.426481,0.279599,0.260862,-0.732666,-0.020414,-0.442617,0.089467,-0.185652,0.309957,0.541630,-0.769305,0.425280,0.277801,-1.090936,1.512182,1.027550,0.467539,0.788583,0.726772,2.185094,0.960114,0.442801,1.221936,0.268035,-0.950483,1.483815,1.748576,-0.097082,-0.474114,0.095268,-0.069569,-0.218027,0.056788,0.159481,-1.092226,1.966849,-1.648454,-0.724788,0.167357,-0.500358,-0.554186,-1.211311,0.008044,-0.030858,1.424767,-0.822070,0.502890,-0.236351,-0.365154,-0.988088,0.065662,-0.399599,-0.907344,-0.338886,-1.029109,0.219684,1.792159,1.658611,-0.661710,-0.401052,-0.772184,-0.836575,-0.783557,-0.606478,-0.619990,0.429713,0.043307,0.950305,2.310040,1.469936,-0.035455,-0.657757,-0.016494,-0.253905,-0.599169,0.405266,-0.213450,-0.040725,0.043162,0.441635,-0.160091,-0.025019,-0.068150,0.354102,0.516405,0.048378,-0.331806,-0.144814,-0.314118,0.437004,-0.144297,1.196675,-0.238405,-0.163690,-0.227815,-0.464505,0.546583,-0.582200,-0.381981,0.216391,1.318631,0.320452,-0.900628,1.110876,-0.177998,0.596348,-0.173718,0.154597,2.029681
-1.688744,-0.974143,0.221679,1.538851,0.639247,2.063043,0.205377,-0.155484,0.636014,-1.075266,0.231995,-0.216445,0.511931,-0.390951,0.127513,0.274721,0.607177,-0.673377,-1.075691,-0.340524,-0.889834,-0.391991,0.137937,-0.568833,-1.016829,-1.050853,-0.275397,0.300480,-0.486299,-1.263889,0.196857,-0.414302,2.057766,-0.800261,0.706151,1.794180,-0.790931,-0.307872,0.656194,-0.502073,1.050328,-0.130064,-0.739674,-0.890287,-0.526319,-0.704261,-0.046417,-0.439623,0.675182,-1.071387,0.112596,-0.337957,-1.061275,-0.176911,-0.494182,0.203913,-1.421161,-1.342430,1.296983,-0.274151,0.007396,0.770200,-0.606057,-0.391710,-0.482406,1.033891,-0.706984,0.467914,-0.454101,-0.019528,0.450068,0.159925,-0.027935,-0.004697,0.254878,0.909207,-0.234832,0.864777,0.310948,-1.368625,0.617672,0.382171,0.497841,0.464094,0.876739,-0.222696,0.051549,-0.035269,-0.151077,-1.507435,-0.896320,-0.434838,-1.524354,0.654978,-0.708387,-1.602120,-0.964440,-0.076575,-0.640917,-0.557258,-0.557813,0.230408,-0.396065,0.444382,-0.417338,1.361818,0.225973,0.726143,1.055244,0.138946,-0.739680,0.097812,0.153224,-1.037423,2.331807,-0.669090,0.411647,-0.619745,1.299762,-0.364525,-1.258479,-0.590373,0.515456,-0.399493,-0.188975,0.394375,-0.210412,-0.582401,0.236007,-0.841494,-0.393961,-0.677118,-0.365147,-1.062377,0.518606,0.300961,-0.274850,-0.763713,-0.904571,0.277685,-1.388749,0.493022,-0.294065,0.147251,-0.136481,-0.992450,-0.233740,1.917354,0.776177,0.240904,-0.505789,-0.200177,0.813302,-1.447078,0.903603,-1.328040,-0.984327,0.506505,0.237237,-0.128382,0.047176,0.668939,-2.951462,-0.868904,0.728940,-0.334003,-0.324980,-0.327263,0.463729,1.544949,-0.947470,0.304561,0.145691,-0.903147,-2.401787,-1.414318,-0.595099,0.002908,0.684211,0.063512,0.280922,-0.313703,0.119727,-0.379108,0.497315,-0.356530,1.013750,0.419366,0.083928,0.102586,1.228872,1.196478,-1.284696,0.580886,-0.124247,-0.104230,-0.133590,1.063122,0.010689,2.827746,2.499036,-0.563898,-0.234193,-0.013473,-0.183825,-0.687009,1.095102,0.203999,-0.177782,-1.371563,0.450340,0.900645,2.521789,-0.327649,-0.663568,1.217578,-0.007502,1.197444,0.032520,0.432051,0.712953,-0.509285,0.998315,0.066972,-0.038316,-2.294466,0.085750,-0.333336,-1.414849,0.336119,-0.769288,-0.733584,-0.431033,0.110978,2.758590,-0.300305,-0.552559,0.487111,0.003085,-0.695429,-0.556777,0.393596,0.509075,-1.469216,2.723187,-0.168787,-0.417324,0.166379,-0.222606,0.325618,0.426124,-2.331956,-0.056104,-0.015494,-0.035687,0.649792,0.744032
0.713939,0.289509,-0.416293,0.885800,-0.270776,0.171069,-1.070374,0.750051,0.933947,0.062479,1.259595,0.321195,-0.331549,-0.006454,0.892941,0.011426,0.553776,0.434873,-0.442192,-0.540981,-0.660588,-0.037025,-0.083815,-0.831621,1.017313,-1.328020,0.652228,-0.349189,0.061393,-1.327082,0.017714,0.221520,0.418426,-0.645747,0.501876,-1.262415,-0.206056,-0.476369,0.636665,-0.986902,-0.308458,-0.543392,-1.929658,0.401919,-0.474855,-0.730101,0.683918,0.462809,0.655644,-0.003219,-0.695092,0.905381,-0.682298,-0.649074,-0.345329,-0.471902,1.943793,-0.497079,1.321103,0.497216,0.044549,1.098096,1.218408,1.827347,0.487060,0.162004,0.358305,2.038568,-0.766286,-0.224727,-1.007951,-1.034080,-0.261624,0.147349,-0.214205,-0.098754,0.922950,1.379098,-1.140031,-0.206845,-0.177177,-0.327131,-0.510790,-0.084968,0.605309,0.941958,0.071945,0.076886,0.806183,-1.400131,0.324622,0.438734,-0.646935,-0.148396,-1.144611,2.063754,-0.820892,0.026581,0.041234,-0.293241,2.020144,-0.499209,-0.566753,-1.231402,-0.044867,-0.062649,0.267541,-0.301263,-0.023326,-0.137618,-0.057630,0.571375,1.278625,0.685225,1.359556,0.287721,1.160323,0.204553,1.361771,-0.133688,-0.261861,0.325753,0.304459,-0.276905,0.183591,0.195709,-0.712638,0.150900,-0.335663,0.445812,0.010837,-0.462125,-0.853747,0.029679,-0.838356,0.118471,1.237819,-0.049079,0.629448,0.383631,-0.138712,-0.467153,-0.283251,0.254014,-0.273747,0.007952,-0.154951,0.259042,0.561235,0.300845,0.360188,1.295038,-1.596374,3.349886,0.121598,1.044021,-0.435631,-0.419784,0.316284,0.694087,-0.136187,0.906844,0.024844,-0.761164,0.140350,-0.589762,1.905686,0.144386,-0.039191,0.557348,0.780459,0.001380,0.279275,-0.015759,-0.869354,-1.106531,-0.050561,-0.138807,0.329504,0.586610,-0.566475,0.271400,-0.441775,-0.360168,-0.387384,0.849207,-0.631618,0.145070,-0.750760,0.204470,0.044089,-0.435350,0.939379,-0.332910,-0.278589,-0.237719,0.871633,-0.610347,0.077439,-0.147860,-0.107007,-1.115014,0.594261,-0.815205,-0.759969,0.428190,-1.095448,0.366167,-0.382123,-0.511478,-0.182594,0.544514,1.257752,0.315887,-0.421353,1.716258,-0.870750,0.539845,0.881743,0.426778,-1.230561,-0.024858,-1.004836,0.465652,-1.336026,-1.435257,-0.187499,-0.462750,1.109144,0.574073,0.710399,-0.030905,-0.390743,-0.281924,1.099384,-0.418680,-0.799049,-0.716325,0.573580,1.121605,0.428664,-0.336459,0.245420,-0.789448,1.450477,0.368568,-0.265515,-0.337715,0.026722,-0.282228,0.477168,0.898445,0.408505,0.204722,-0.122068,-0.673714,0.497157
-0.634455,-0.100377,-0.015783,0.735944,0.239357,-0.800293,0.571186,-1.159939,-0.243929,-0.330080,0.001622,1.271677,0.542508,-0.195103,0.503777,0.978638,-1.228980,-0.277203,-0.167438,-0.976516,0.632793,1.894132,0.616237,-0.851799,-1.043737,0.938386,-0.544546,-0.540010,-0.110014,0.967885,0.162224,-0.062001,0.961666,-1.016841,1.166487,1.312681,-0.269987,0.807404,-0.382724,0.288902,2.712022,-0.376339,0.244859,-1.183908,-0.354473,0.008354,-0.524536,-0.079358,0.818523,-0.743637,0.621664,-0.494934,1.600434,-0.125035,0.887840,0.447321,0.149416,-1.715800,0.357404,-1.140023,0.368325,0.853472,-0.775719,-1.196547,-0.658656,1.200611,-0.250463,-0.394428,-1.911338,-0.447571,-0.488532,-0.290180,-0.014673,0.147723,0.100481,-0.625121,-1.187277,-1.612702,-1.069562,-0.757088,0.189355,0.426363,0.156449,0.758550,-0.078003,-0.383903,0.187550,-0.046390,-0.523477,-0.884036,0.283740,-0.297018,0.942071,2.671869,0.795263,-0.843481,-1.265456,0.402532,-2.123244,-0.296571,0.184268,-0.434602,0.330643,-1.078089,0.186057,-2.392672,-0.242973,0.518832,0.900580,0.018677,-0.280158,-0.077001,-0.024808,0.019141,-0.072490,2.164349,-0.559714,0.877427,0.487346,-1.067833,0.456251,-0.778029,-1.502229,-0.004545,-0.383660,-0.211554,0.001838,0.269874,-1.285905,1.070080,-0.390705,-0.221661,0.739734,-0.307214,-1.075911,-0.392711,0.456114,0.947221,-0.815583,-0.337136,-1.034531,0.329829,2.675394,-0.013968,0.480498,-0.810672,-0.283634,-1.712707,-0.571083,-0.196821,-0.201243,-0.574142,-0.454954,-0.241213,0.558148,-0.120742,1.200272,-0.273389,-0.037853,-1.435970,0.114979,-1.167508,1.177007,-0.988103,-0.551176,0.682678,-0.378726,-1.787893,-0.299355,0.150087,-0.434375,-0.572025,-0.220280,-0.319619,0.388586,-0.083044,0.571550,-0.185698,1.018568,-0.094901,2.055897,-0.275164,1.732644,1.389393,-0.300088,-0.269538,0.060841,-3.625254,0.454504,-0.182381,0.293704,-0.121318,-0.796770,1.244156,-0.190804,0.525764,-0.330171,1.163145,-0.061122,-0.234391,-1.104009,1.166819,-0.118932,-0.646763,1.226327,0.663463,1.635697,0.210819,0.812402,0.041652,-2.237011,-0.342977,0.675170,-0.390071,0.609454,-2.222924,-0.736185,0.684292,0.354159,2.662056,0.208068,-0.478007,1.015079,0.536380,2.460844,-2.421645,1.309601,0.954472,-1.013882,0.253588,0.413216,0.632206,0.217479,0.411828,-0.937331,1.661021,1.408552,0.043621,-0.520695,1.779677,0.034443,-0.093965,0.434528,0.910376,1.024315,0.341199,-0.801877,0.485737,-0.485606,-0.183866,0.030283,1.333021,-0.553860,-0.321895,0.571265,0.915192,-0.044801
1.299671,0.118867,0.359014,0.589160,-0.368373,0.779942,0.316301,1.092999,-0.768970,0.089667,-1.899588,1.351751,0.421764,0.584415,1.156907,-0.243388,0.218519,1.204946,1.027217,0.007668,0.428978,-0.000604,0.174236,-0.979315,-1.036163,-0.096375,0.228670,-0.577512,0.908688,1.273188,0.070338,0.240363,-0.460025,0.430969,1.671265,-1.149426,0.135759,0.187220,0.077339,0.009070,-0.823987,-0.547190,1.162897,0.921467,1.088785,1.053182,-0.890555,0.516705,1.536704,1.328105,0.854446,3.790070,0.669315,-0.989977,-0.033846,0.037216,-0.368512,-0.800261,-0.556620,-0.063070,1.051825,0.164563,-0.647524,1.194519,0.891630,-0.548915,0.501391,-0.048724,4.427053,-0.027650,0.511669,-1.162840,0.163297,-0.108203,0.238463,-0.284591,-0.022468,-0.502715,0.571146,0.634176,-1.442843,0.650608,0.439742,-0.176352,0.847461,-0.344606,0.271301,-0.012020,-0.751384,-0.274154,0.783704,-1.121639,-0.518708,0.235399,0.352022,-0.922368,0.587867,0.402597,1.421482,1.282824,-0.086820,0.143080,0.168822,-1.274943,-0.257263,1.376565,0.210969,-0.984083,-0.835737,0.635817,1.194590,-0.132748,-0.332151,-1.168663,0.819930,-0.345354,-2.527006,1.002384,-0.296126,0.892581,1.402196,-0.570541,-1.555291,0.383918,-0.662948,0.534601,-1.195412,0.782536,-0.430977,1.244391,-0.949300,0.120731,-0.414102,0.069250,1.247441,-0.778757,0.975011,-1.303384,-0.544533,-0.084276,0.101673,-0.788279,-0.035439,0.024251,0.920310,0.151828,-0.555758,-0.220334,-0.092540,0.891086,0.644563,-0.004222,0.137630,-0.834543,0.356997,-0.208240,0.039522,0.654490,-0.531520,-0.521122,0.010995,-0.079255,-0.850886,-0.542857,-1.704764,0.765079,0.910307,1.019200,-0.238622,0.881204,0.338377,1.498430,0.066035,-0.830967,-0.007421,-1.760581,0.096010,0.723031,-0.513848,0.641198,-0.592659,0.157940,1.292257,0.116182,-0.081403,-0.229494,0.003033,-0.010649,-0.402177,-0.549350,0.424349,-0.106792,-0.443443,-0.382362,0.588357,-0.080224,1.154953,1.264613,0.312056,-1.204843,-0.404784,0.574524,0.814743,0.185457,-1.020275,-0.933191,0.128377,0.073261,-0.390845,0.009555,-0.722561,0.827115,-1.464086,0.986484,0.952646,-2.029879,-1.086597,0.974625,-0.019814,0.076065,1.119222,-0.354966,-1.053297,-0.444773,-1.500547,1.382090,0.243040,-0.172750,-1.466454,0.526058,-0.219341,-0.335965,-0.529186,0.432947,0.193334,0.196671,0.066066,-0.142952,1.052643,-0.378145,-0.088204,-0.347945,-1.456474,-0.163126,-1.734842,-0.127108,-0.643188,0.246958,-0.347709,0.313628,-0.058945,0.393476,-0.087630,0.644856,0.087755,0.076070,2.460500
1.717491,0.191167,-0.001157,-0.891059,-0.543980,-1.118490,0.127196,-2.293553,-0.919090,-0.192389,-0.587276,-1.214168,-0.510176,0.066009,-0.987607,0.383675,-2.295807,1.364094,0.040453,-0.560377,0.537072,-1.156570,0.135150,-2.085681,2.866835,-1.327188,-0.265787,1.320082,0.530759,-0.245808,0.105107,-0.589542,0.176203,0.467991,-0.455268,0.598385,-0.227788,0.526818,-0.084650,-1.430270,-1.618016,3.910587,0.174607,-0.541300,0.122162,-0.810753,0.592206,0.042889,0.730360,-1.254799,0.514322,-0.403733,0.686637,1.410580,-1.083519,0.114927,1.611404,1.961665,-0.015936,-0.602115,0.641283,-0.718570,1.273292,-0.319587,0.517563,0.417661,0.134391,-0.485308,0.274582,-0.044196,0.019245,-0.019961,-0.029774,0.027787,0.018092,0.758404,-0.223339,0.237307,-0.417014,0.775060,1.138436,0.323667,0.641516,0.761344,-0.601215,0.050418,-0.119877,0.451392,-0.859473,0.951801,-0.321903,-0.317150,-0.621879,-1.007931,-0.767549,0.875123,-1.349240,0.162890,-0.051155,0.170169,1.255136,-0.545751,-0.236451,1.300435,-0.197290,2.130836,-0.005996,1.758228,1.124998,-0.268858,0.172645,-0.105183,-0.323601,2.238382,0.904271,1.802127,-0.039797,-0.613371,1.922665,-0.621222,0.117056,-0.393272,0.580572,-0.050037,-0.944587,-0.822690,-0.100610,-0.109868,-1.247463,-0.757375,-1.938606,-1.645634,0.025599,1.990004,-0.832019,-0.103375,-0.300619,0.305360,1.415007,0.219622,0.379277,-0.332992,0.866561,-0.015252,0.286110,-0.594042,-0.209978,-1.116284,0.568320,0.058742,0.091440,-0.274335,0.840987,-0.479792,-0.103463,-0.069486,0.319042,0.274281,-0.456933,1.575750,0.157438,1.029905,0.310795,0.884786,0.044409,0.530497,1.240683,-0.188441,1.149434,-1.016812,-0.416430,0.057315,-1.161266,0.621561,1.295727,0.063343,0.298650,0.125821,0.244158,-0.158962,-0.288943,0.250202,-1.431974,-0.428839,0.578673,0.974894,-0.028115,0.574994,-0.889453,-0.415380,1.435236,-0.267914,-0.254483,-0.286786,0.164531,-0.042202,-0.459470,-0.658828,0.006187,2.322041,-0.031330,0.247698,0.752965,-0.208386,-0.543758,-0.560711,-0.120471,-0.157143,0.065082,-1.594319,0.991454,0.207176,-1.249404,-0.098176,-0.238314,0.999342,-0.157733,-1.005415,0.066760,1.496446,-0.834787,-0.549246,-0.084341,-0.487395,1.668253,-0.198387,-0.414821,-0.323462,1.563194,0.543715,1.091366,-0.541501,0.437732,-1.126732,0.143198,-0.096339,0.041497,-0.371137,0.230107,-0.390482,0.325293,0.116448,0.660425,-0.574869,1.513039,0.771990,1.915918,0.061847,-1.317894,-0.096772,-0.385559,1.374787,1.663979,0.195791,0.332862,-0.164257,-0.478749
0.956290,-0.726691,0.085154,-1.228521,0.461632,-1.422939,-0.067683,-1.409985,-1.484165,-0.172808,-1.242857,-0.563038,-0.315723,-0.264151,-0.639292,0.104147,-0.732914,-0.156719,0.007495,0.331754,1.231710,-0.976914,0.022207,-0.586671,2.345418,-1.288797,0.585210,1.162809,-0.945933,0.728868,0.113662,-0.091823,0.862422,0.700831,-0.978932,-0.575121,1.161534,-0.898033,0.106448,-1.954764,-0.548416,1.914070,-1.864389,-0.676282,0.394499,0.658232,0.932591,0.975601,1.161021,-0.375681,2.251993,1.399164,-1.034783,-1.343293,-1.296610,-0.365751,2.111723,1.356619,-0.513180,-1.227952,0.424984,-0.498296,0.057983,0.064934,1.403276,0.511364,-0.321262,-0.206255,0.824672,-0.181344,0.775906,0.561125,-0.102031,0.210816,-0.321146,0.494518,0.787479,-0.751402,-0.597890,1.526290,1.222663,-0.494801,0.089367,0.151231,-0.185673,-0.631099,0.061834,-0.029370,1.412217,1.483702,1.083448,-0.157361,0.574351,-0.443514,-0.446109,0.501751,-0.597044,0.711384,2.079870,0.975284,0.944376,-0.548874,0.361665,-1.059350,0.275023,-0.471812,-0.165469,2.402464,-0.290198,0.928581,-0.519520,0.315524,-0.414379,-0.853303,-0.619327,1.658954,-0.041164,-0.386205,0.874205,1.531665,0.393893,0.324760,1.346805,0.209145,-0.652370,-0.987735,1.071569,1.517907,-0.871530,0.219597,-0.504235,0.652386,-0.421283,0.344586,-0.796797,-0.688678,-0.488052,0.000455,-0.315156,-0.768435,-1.183844,0.374025,0.300903,0.063090,0.637627,-0.778113,0.101094,-0.805195,0.060292,1.532548,-0.051139,-0.342088,0.377283,-1.370669,-0.184962,-0.390626,-0.417645,1.135742,-0.585520,1.104467,0.268865,0.593731,-0.544980,0.282967,-1.627456,-0.138637,1.361829,-0.466583,-0.007995,0.893060,-1.269944,-0.257680,-0.858405,-0.456530,-1.470407,-0.591010,0.790413,0.152419,0.635718,0.112457,-0.181911,0.975433,0.425138,-0.121285,-0.036507,-0.117650,-0.139358,-0.618576,0.752087,-0.042975,0.400745,0.357269,1.161690,0.092381,-0.204190,-0.255105,0.366499,-1.657800,-0.106314,2.624256,-1.127029,-0.856159,2.586238,-0.794969,-0.004383,0.069298,-0.860819,-0.039624,-0.506584,1.008151,-0.623065,-0.355876,0.263578,-0.101673,0.117201,0.306396,-0.293938,-0.975707,0.220107,-0.988162,-0.359225,-0.153988,1.398260,0.076542,0.263186,0.315872,-0.258596,0.314763,0.629681,-0.019365,2.399230,-0.466597,-0.244134,-1.159217,-0.214223,-0.667747,0.564870,-0.248550,1.485446,1.031726,1.005210,0.988278,0.519646,-0.140842,-0.921283,0.584108,3.705480,-0.157035,-0.729390,0.025068,-0.559566,0.095145,1.584628,0.680686,0.136123,-0.675040,0.182266
0.277504,-0.424698,0.202771,0.208640,-0.672667,0.196710,0.797112,1.370782,-0.791349,0.144286,-1.215987,1.222415,-0.319728,0.016665,-0.059460,0.035545,1.555045,1.075699,1.032002,1.381044,-0.739925,0.312503,-0.090485,-1.001884,-0.561038,-0.941518,0.896272,-0.628702,0.654535,0.524113,0.059350,-0.481690,-0.131728,-0.698749,1.693833,-0.301487,0.590775,-0.534376,0.249403,0.496768,-0.757503,-1.378895,2.534062,0.926570,-0.426257,-0.560423,-1.048139,0.039393,0.307566,0.781880,0.672850,0.946267,1.575682,-0.927256,-0.515166,0.359260,-2.255559,-0.646262,-1.343892,-0.289021,2.013883,-1.087570,0.594973,3.882828,1.047161,1.407164,-0.657577,0.085083,0.044393,0.180720,0.234166,0.328678,0.520994,-0.056228,0.027735,-0.071424,0.260952,-0.396693,0.334054,-0.196368,-1.225656,0.217463,1.454939,-1.833333,0.500756,-0.579283,-0.515955,-0.091605,0.040033,-0.144843,-0.426168,-0.294757,-0.535863,0.630708,0.470132,-0.772405,1.809566,-0.188467,-1.051565,1.094326,-0.946931,0.245604,1.307850,1.794848,0.631600,0.150277,-0.327988,-0.090300,-0.854031,-0.113140,-0.881452,0.132446,-0.790464,-0.052606,1.537642,-0.456811,-2.092220,-0.078072,0.336536,-0.061371,0.308972,-0.349974,0.226618,-0.518870,0.800034,-0.386866,-0.559781,0.570807,1.227867,-0.289234,-0.389173,0.255937,0.923799,-1.006899,0.532248,0.178590,1.316900,-1.308076,-0.961411,-0.387622,-0.558109,-0.338171,-0.157386,-0.132737,0.117943,-1.026253,-0.432454,0.446915,-0.467403,-0.667147,0.504408,-0.579432,-1.305529,-1.539987,0.685630,0.913139,-1.206885,0.690685,-0.463514,-1.027050,-0.334011,-1.168215,-0.490946,-0.300792,-1.161075,1.598539,-0.606131,1.409332,-1.052438,0.457510,-0.145093,2.252862,-0.724316,-1.542811,0.602951,0.712284,-1.080143,0.044227,-0.800516,0.088397,-2.039594,-0.226081,-0.446745,-0.449101,-0.897631,-0.337871,0.775452,1.791992,-0.694272,0.765947,-0.906630,0.330992,-0.115435,-0.382847,-0.395015,0.641025,0.014650,-1.272747,-0.028944,-0.935384,1.383160,0.048915,-0.922935,0.012895,-0.964875,-0.670325,1.163670,-0.167548,-1.011492,0.563602,1.758560,0.908139,-2.052553,-0.426134,-0.457735,0.353460,-0.262043,0.931665,-0.084062,1.859637,0.693002,0.168315,0.854581,1.412086,-0.022011,2.040467,0.113457,-0.301791,-0.540622,-0.548611,-0.275904,-0.489826,-0.020552,-0.176260,0.664758,0.815320,-0.356404,0.412980,-0.061305,1.250521,-0.954358,0.097583,2.474585,-0.352986,-0.006648,-0.375293,-1.182312,0.069857,0.019429,0.510508,1.583934,-0.284023,-0.478875,0.182733,-0.348031,-0.105999,-0.343778
0.363263,0.376483,0.393866,0.655425,-0.544462,0.023521,-0.409914,1.634294,-1.734699,0.316247,-1.196363,-0.025994,2.114878,-0.135407,-0.192254,0.828987,-1.357443,1.090296,-0.703408,0.712623,0.835820,-1.167165,0.285446,-1.025649,-0.940884,2.187031,0.275326,0.660743,0.100411,0.015273,-0.139015,0.134806,1.073618,-0.642174,0.643903,-0.593465,-1.100932,-0.834750,0.091516,2.523180,0.597986,1.263390,-0.564458,-0.841211,0.152653,1.523379,0.446868,0.996999,-1.920940,0.895131,-0.676960,-0.455731,1.168650,1.897771,-0.682465,0.440556,-0.880444,1.871187,1.292579,1.581630,1.737506,0.209318,-1.746272,0.250423,-0.141697,1.851459,-0.795376,-0.267725,0.537002,-0.425687,0.633364,2.762720,0.152963,-0.685335,-0.280925,3.068080,-0.955390,-0.561997,0.595943,2.812063,1.250579,-0.495456,-0.085861,-0.934203,-0.826101,-1.195860,-0.237825,-0.469719,-0.176258,-1.028581,0.565504,-0.126359,-0.076867,-0.597606,0.681016,-0.910630,1.410682,-0.070721,0.000611,-0.285247,-1.047567,0.563252,-0.124247,-0.338518,0.469867,0.922714,-0.132108,-0.021564,-0.493544,-0.244253,-0.719759,0.294426,-0.604956,-0.414634,-0.933228,-0.608160,0.225105,-0.143178,-0.401787,-0.579112,-0.992953,-0.773991,0.526473,-0.410629,-0.150299,0.179790,0.101317,-0.930486,-0.330061,-1.169487,-0.629921,0.976249,-0.668554,-0.701588,2.101716,-0.403794,-0.241808,-0.602347,0.466070,-0.528260,2.429897,-0.061022,-0.303975,-0.021971,-1.941908,-0.328890,0.711019,-0.748225,0.611965,-0.380331,-0.032931,-0.487280,0.324743,-0.515630,0.125951,-1.472785,-0.767840,0.856105,-0.176971,0.014330,-0.025705,0.157771,1.674273,3.216094,-0.389879,-0.433192,1.754039,2.421543,-0.439611,-0.240407,0.390385,-0.329126,-0.499959,-1.109456,-0.603926,-0.413298,0.591821,-0.260156,-0.355161,-0.191078,-1.915475,0.268623,-0.841176,0.212486,0.788024,-0.531094,-0.541677,1.758436,3.219643,-0.102280,2.399788,1.870551,0.351977,1.161320,0.194456,0.876344,-0.743482,-0.929971,-0.115953,-0.549580,-0.195028,-0.167818,-0.496560,0.152819,0.752396,-0.649716,0.562441,0.000622,-0.481487,0.737883,0.290992,-0.634304,0.285830,-0.048474,-0.257465,1.108079,-0.754410,-1.513455,-0.200478,0.800824,-0.400381,-0.308572,0.992333,0.992943,1.223922,-1.068736,0.090760,0.005723,-1.410913,-0.131667,-0.216571,-0.171182,0.088907,-0.028383,-0.095744,0.722161,1.103650,0.188661,-0.706729,-0.285457,-0.499704,0.637859,-1.406313,-0.538765,-0.955323,-0.256623,1.893383,-0.101628,0.843529,-0.537141,2.017290,-1.549268,0.341835,-1.181771,0.255342,0.370590,-0.383021
-0.615426,-0.194049,-0.059970,-0.975135,-0.377929,-0.077764,-0.264177,1.040879,-0.778993,-0.452546,-0.484183,1.758341,-0.571450,-0.155259,-0.645383,-0.303293,-1.582753,-1.502068,1.469595,-0.076083,0.639975,0.413482,-0.334831,1.601905,-0.885162,2.136429,2.148088,-0.357438,-0.525596,0.392984,-0.226666,1.533340,-1.830884,-0.423804,-0.489089,-0.650497,1.884596,-0.466182,0.033208,0.022798,-1.492310,-0.326450,0.092583,-0.704417,-0.384225,1.660457,-0.588432,0.636349,0.564870,1.501571,-1.528569,-0.680906,0.470974,-0.870160,3.350357,-0.097643,-1.184346,-0.873377,-0.690379,1.976106,-0.673223,-0.375155,-1.437196,-1.418884,-0.857018,-0.488703,0.857743,-0.283510,-1.011871,-0.587432,0.048934,0.195466,0.347059,-0.536644,-0.201124,-0.366482,-0.958070,-0.595285,0.615698,-0.659959,-0.212538,-0.585398,-0.520524,-0.551153,-0.809936,1.341201,-0.164229,-0.697721,0.467692,2.242701,0.534117,-0.007872,1.914122,-0.208624,0.913944,-0.645503,-0.469104,-0.089683,2.277718,-0.245864,-0.555182,-0.806084,-0.813034,0.661957,-0.619020,0.579722,-0.418218,-0.311106,-1.099208,0.060379,-0.344167,-0.566752,-0.134690,-0.184502,1.279609,-0.482214,-0.624541,-0.790227,1.457326,-0.799905,-0.724065,0.960523,-0.519128,0.715967,-0.208695,-0.757349,-0.349053,2.018279,-1.235963,-0.907014,0.437958,2.371675,0.359175,-0.613768,0.834914,-0.153181,-0.564115,0.179023,-0.640914,-0.331039,0.034158,-0.434387,-0.417604,-0.044472,0.851092,0.727281,-0.403589,-0.000331,-0.458986,0.566325,-0.386607,-0.932281,-1.203753,-0.541430,-0.489248,-0.338756,0.793189,-0.745447,0.689715,0.198095,-0.200979,-0.345945,-0.478907,1.216682,-0.112550,-0.700294,0.246148,-0.327822,-0.048138,0.697958,-0.145113,-0.152533,-0.122718,-0.305866,-0.578694,0.119731,0.114385,-0.358747,-0.464150,-0.860630,0.211681,-0.256690,0.751287,1.692114,-1.193230,-0.345337,-0.266087,0.629389,-0.020491,0.214274,-0.650197,-0.178451,0.902583,-0.108630,-0.165711,-0.609905,-0.173904,-0.742506,-0.093022,-0.808536,-0.483258,-0.621344,-0.546580,-1.661972,-0.409751,2.921058,-1.032216,-0.625076,0.045493,2.465588,0.251603,0.509527,-0.435929,0.373636,-1.007546,-0.581518,-1.157144,1.141972,-0.242015,-0.568917,-0.576254,0.615488,-0.768912,0.620309,0.087554,2.868191,0.191066,2.030941,-0.863380,-0.221024,0.299385,0.145482,-0.450036,1.516935,-0.234410,-0.488790,-1.773964,-0.623147,0.353412,1.574645,-1.214408,-0.287061,0.838597,0.900364,-0.605368,-0.475369,-0.492911,-0.264642,-0.075712,0.095589,-0.022771,-0.280390,-0.328058,-0.322362,-0.469517,0.299612,-2.455211
0.320700,-1.157064,-0.060270,-0.663848,-0.375294,-0.560785,-0.529932,1.157717,-1.937763,0.157490,-1.127818,-0.097514,0.068201,0.457147,0.271657,-1.831578,1.172161,-0.061696,1.192293,0.819523,0.135544,0.584426,-0.130815,0.632134,-1.701222,2.215618,0.360393,-1.256384,1.296112,-0.945215,-0.212892,0.352209,-0.223329,-0.909846,-0.664089,1.279457,0.394939,0.514974,-1.213303,0.615047,-1.689887,0.483736,0.332069,0.817822,0.281802,-0.162460,-0.448835,0.899271,0.651881,1.286338,0.443557,-0.394139,0.112317,-1.024094,1.618703,-0.084595,0.564331,-0.246158,-1.645104,0.195539,-0.744061,-2.363783,-0.231700,-0.106258,0.104545,-0.939371,-0.268067,-0.468338,-0.724541,0.264114,-0.226849,0.787925,0.301997,0.253857,-0.450163,0.043578,-0.923044,-0.038883,-1.234809,0.670104,-1.272385,0.019396,0.257800,-0.933178,-0.062370,1.034216,-0.020863,0.224368,1.859368,1.014833,1.106017,-1.082423,0.739467,-0.858782,0.990404,0.563679,0.325684,-0.258241,1.318549,-0.786421,-0.984133,-1.182002,0.294535,0.817141,-0.396969,-0.809844,0.022373,-0.215808,-1.020142,0.023955,-0.750517,0.046109,-0.153198,-0.214238,1.145564,-0.647508,1.380363,-0.957754,-1.813864,-0.776050,1.049227,2.533859,-0.565083,0.279807,-1.135643,0.288352,-1.368055,0.129026,-1.263700,0.896707,2.053603,0.653610,0.450403,-0.773820,1.561126,-0.066757,-0.159827,-0.823455,-1.507106,-0.393099,1.803425,-0.497415,-0.118409,-0.042744,0.533345,0.244494,-0.475270,-0.465233,0.135091,-0.074404,0.830611,0.263854,-0.253573,0.058485,-0.301575,0.869391,-0.198724,-1.373737,-0.142949,0.509635,-0.018698,-0.571514,-0.212470,-0.310841,-0.287066,0.121196,-0.916783,0.819373,0.252336,-0.104762,1.180324,0.414195,-0.500099,1.838858,1.936973,-1.049440,-0.918140,0.027929,-0.606300,-0.291383,0.612139,0.136686,1.615175,-1.841142,-1.574610,-0.665108,-1.376108,1.404416,0.705952,0.084356,-2.985358,0.096372,1.272617,-0.323701,0.460823,-0.423977,-0.377010,-0.956617,-0.179600,-1.155357,-0.601444,0.855870,-0.915766,-0.406229,-0.627727,0.337468,0.236049,-0.441319,-0.371091,0.629983,-0.380026,0.358775,-0.884538,0.110903,-0.819716,-0.966729,-1.143590,0.716855,-0.251892,-0.331451,-0.617334,0.328866,-0.955304,-0.333822,-0.024797,1.298623,-0.496113,0.229372,-0.795061,-0.576620,-0.239244,0.669553,0.750892,0.372136,0.268573,0.536406,2.355956,-0.057597,0.705480,-0.409065,-0.205170,-0.524260,0.049168,-0.249154,-0.964590,-0.363182,1.072881,-0.510476,-0.683919,-0.006088,0.648917,-0.042302,-0.152162,-0.229597,-0.870258,1.297764,-0.586760
-0.768808,-1.412523,-0.007497,-0.741898,0.215703,-1.170632,-0.253343,-0.666608,0.367751,-0.981776,0.897758,-1.045436,0.311268,0.164809,0.022015,-1.307527,-1.945896,-0.879034,1.341996,-0.637804,0.840222,1.348806,0.217358,-0.121392,-0.928908,-1.454303,-0.219710,-0.408423,-0.539272,0.102105,0.076429,0.275127,-1.729488,0.024775,-0.396786,1.026946,-0.092861,0.585477,-1.515820,-1.226400,1.491054,0.185668,0.753005,-0.796154,-0.534756,-0.841103,1.058606,-0.238079,1.040687,0.043420,0.417451,-2.140416,0.116513,-0.107583,-0.182296,-0.513479,-1.880874,-0.867565,-0.163451,0.354311,-0.763641,1.324440,-0.817873,-1.367939,0.499166,-0.580534,0.879452,-0.372665,-0.857681,-0.007033,0.784938,0.416220,0.076207,0.840335,0.111545,-1.295661,0.067777,1.263629,-0.366508,-0.336633,-0.278298,-0.060872,-1.028920,-0.309762,0.586755,-0.701331,0.519097,0.054218,-0.748848,-1.007450,0.688186,0.446510,-0.363596,-0.188130,-0.255177,2.913131,-0.006261,0.174813,1.442823,0.181615,-0.938881,1.868569,0.737128,1.401105,0.123552,-1.080576,-0.128141,0.296208,1.458550,-0.287555,-0.541986,0.134545,-1.200585,0.066817,-1.267390,-0.821837,0.293281,1.040719,-1.447145,-0.517813,0.301061,-1.158980,-0.215688,-0.050065,-0.238944,-0.461044,-0.278097,0.454070,1.543199,0.531334,-0.138762,-0.828010,-0.365579,-0.482756,-0.138160,0.878298,-1.327946,2.052856,-1.295256,-0.045486,1.243617,0.582198,-1.489929,-0.122629,0.932425,-0.750764,1.031128,-0.870884,-0.691342,-0.185060,-0.059261,-0.006848,0.122437,-0.742366,-0.061799,-1.143406,0.188917,0.491282,-0.401494,-0.990487,0.266350,-0.813570,-0.013119,0.697900,-0.457041,-0.691857,-0.639011,-1.480074,-0.185287,-2.019017,-0.050268,-0.701372,-0.796133,-0.614354,1.109363,0.822719,0.005043,0.137287,0.046532,-0.166153,1.153969,0.947912,0.480800,0.869470,-0.808446,-0.193729,0.722867,-2.871045,0.496439,0.234204,-0.477499,-0.285559,0.212922,-0.044790,-0.395141,-0.014140,0.340773,0.432661,-0.050142,0.258006,-1.152745,-0.527571,-0.745665,0.785014,-0.217359,1.138140,-0.377116,0.509766,0.748242,1.274558,-0.689166,-0.754666,-1.335889,-0.221623,0.705313,-2.029143,1.733454,0.486450,-0.130987,0.156533,-1.345273,-0.453055,-0.387660,-1.239946,-0.582432,-1.443661,0.051263,-0.411322,-0.671503,0.474921,-0.073584,-0.192586,1.014169,2.055250,-0.369280,0.729203,1.290686,-0.117571,0.074497,1.285723,0.145368,-0.137599,-0.926198,3.288876,0.611380,0.459068,-0.567258,0.243018,0.142461,-0.438426,-0.191600,-0.196493,-0.383921,0.266998,-0.347799,1.401391,3.019327
-2.200251,-1.052990,-0.211201,0.053674,-0.316192,0.103349,-0.609576,-0.353776,0.331500,0.720608,0.870926,-0.033384,0.012388,0.027306,0.182575,1.666298,-0.868630,0.352119,-0.219981,-0.664103,-0.293422,0.119834,-0.019077,-0.874631,1.102835,-0.048857,-0.207826,0.873000,2.537537,-0.156163,-0.210217,0.178634,0.087509,-0.798950,0.038041,-0.657780,-0.471933,0.853689,0.528182,0.763824,0.218464,-0.458111,1.150029,-0.431421,-0.809327,0.169543,-0.468658,-0.508414,-1.663108,-0.985522,-0.170639,0.436092,-0.260375,0.576072,0.668013,-0.096403,2.178436,0.260918,0.165103,1.261315,-1.967383,1.586233,0.821524,0.082415,-0.181597,0.833979,0.616944,0.481662,1.809496,-0.081442,-1.058582,-0.849251,0.090213,-0.220193,-0.332697,-0.633805,1.510006,-0.318125,-0.921778,-0.200098,-0.002651,-0.203627,-0.128554,1.061651,-0.922627,0.229084,-0.030585,-0.457823,-1.730067,-0.945259,0.836272,-0.303699,-0.141487,-0.528210,0.283727,1.479979,-1.190917,-0.169566,-0.638861,-0.497007,0.838857,1.017435,-0.548918,0.727368,0.206161,0.713189,0.474455,0.042146,-0.160439,-0.435636,1.733696,0.050736,1.592689,0.131185,1.262095,0.650144,-1.469118,0.082841,-0.186441,0.412567,0.451652,-0.893070,-0.946238,-0.204593,-0.531239,1.008045,0.020308,-0.204541,-0.411234,1.657998,-0.864353,-0.458559,-0.255911,0.529078,-0.567385,0.617290,1.850439,1.402047,0.874751,-0.595725,-0.244818,-0.155447,0.047572,-0.236118,0.984766,0.509604,-0.371740,-0.531639,0.334383,-0.534488,0.904685,0.178307,-0.222073,2.781942,0.201136,0.939574,1.356992,0.341133,0.422858,0.829206,-0.106390,2.225550,-1.145482,-0.366384,0.542947,-1.113288,-0.304000,-0.633502,0.302066,0.420059,1.513377,0.404367,0.550449,0.764024,0.808848,-0.433175,-0.419969,-0.133100,-0.313240,0.484406,1.667077,-0.232315,0.599376,-0.516887,1.084449,0.738414,-0.309658,-0.208781,-0.308672,-1.549323,0.095235,-0.488368,-0.472770,0.364802,-0.545523,-0.257641,0.893466,2.755619,0.037930,-0.203651,-0.171558,-0.277322,0.169508,-0.766658,0.335552,-0.550632,0.747696,0.122201,-0.534121,0.395860,-0.550653,-0.060617,0.078408,-0.301886,1.606716,-1.279103,-1.220821,-0.175805,-0.308315,-0.404890,-1.393942,-0.400997,-1.333752,-0.091749,-0.506766,-2.056206,-0.611773,0.028865,0.631067,-0.162492,-0.460788,-0.099116,-0.922972,0.701553,-0.384573,-0.401594,-0.277981,-0.454157,0.555928,-0.197726,1.474801,-0.089496,-1.076785,-0.044869,0.552875,-0.119195,-0.560417,-0.177335,-0.598376,-0.299004,1.114043,0.548824,0.597415,-0.315139,0.653147,-0.293964,-0.699068
-2.106923,1.146061,0.141102,-0.086288,0.260444,-2.168590,0.426271,1.022637,-1.277724,-0.294013,-0.996147,0.406374,0.591089,0.418371,-1.281231,0.219487,-0.775185,0.534874,0.634478,-0.718758,0.603373,0.525839,0.183314,0.983111,-0.710277,-0.857470,-0.582220,-1.141836,-0.626798,1.760415,0.304012,-1.322529,-0.256488,0.235965,-0.815012,1.717349,-0.055793,0.970641,-1.207907,0.366119,0.281374,-0.938462,-1.628158,-0.473173,0.046938,-0.056129,0.324564,-1.214758,1.145785,-0.940684,-0.935661,-0.578170,-1.393417,-0.247307,0.650854,1.123700,-0.768229,0.054231,-0.567253,-0.418840,0.762371,0.131395,-0.495823,-0.903402,0.174606,-0.212877,-0.323329,-0.422416,0.432559,-0.245922,-0.503625,-0.489411,-0.209281,-0.134467,-0.192691,-0.775393,-0.968028,-0.183205,0.020204,0.154734,0.841517,0.509880,-0.495162,-0.856253,-0.274098,-1.177247,0.209473,1.129158,-0.079299,-0.599410,-0.148641,-0.043999,-0.403198,-0.432904,-0.075779,0.918576,-0.602060,0.080635,1.077499,0.519420,-0.688068,1.508331,-0.670150,0.135758,0.474642,0.461400,-0.386236,-0.224722,1.768596,-0.842612,0.178994,-0.617785,-1.464679,-0.982152,-0.588766,1.904876,-0.294687,-0.251328,-0.326350,0.793723,0.959954,0.163645,1.203455,-0.098919,-0.382693,-0.311812,0.958275,0.157792,0.245426,-1.486418,0.196297,-0.033271,0.609244,-0.160934,-0.444399,0.060351,-1.307581,1.694765,-0.472822,-0.362515,0.792629,0.384954,-0.251531,0.068483,-0.684524,0.477329,0.796227,-0.208938,-0.322682,-0.210403,-0.812163,0.106483,1.275744,-0.357970,-0.405884,-0.856232,-1.361119,0.696200,0.906277,-1.155649,0.187349,-0.355453,-0.743091,0.591032,-0.054478,-0.999241,-0.420623,-1.433692,1.789883,-0.718704,-0.452737,-1.101718,2.917896,0.101831,-0.625816,1.554401,0.908255,-0.165222,-0.048008,-0.232310,2.208286,0.244753,-0.523244,0.109893,0.870883,0.157824,0.513961,-2.016697,0.617754,-0.457267,-0.868957,-0.159674,-1.169961,1.144188,-0.176977,-0.202769,0.459683,4.128496,-0.221184,0.592113,0.581655,0.230331,-0.818944,0.671401,-0.438524,0.087471,0.927137,0.095326,0.844128,-1.696574,0.400595,-0.784261,1.559388,-0.471410,0.393741,2.317278,1.795384,-0.372478,-0.170295,-0.448410,1.008901,-0.429298,0.105875,-0.708553,-0.881755,-1.397929,0.451451,-0.139234,0.190749,0.281409,-0.305310,1.027386,0.840210,-1.664291,-0.449057,1.265164,0.700930,0.403345,-1.227732,0.775640,0.713483,-0.317738,-1.429315,1.774914,0.499277,0.040802,-0.740096,-0.034777,3.246153,-0.219989,0.010309,-1.077160,-0.885810,0.001231,-0.503973,1.952797,1.158481
-0.907235,2.055882,-0.046617,-0.146485,-0.259622,0.799036,0.358499,1.379034,-0.308449,-0.682122,-0.041086,-0.480567,-0.254561,0.003446,1.004259,0.197632,-0.414786,-0.321444,-0.646364,1.757951,-0.898697,0.590539,0.198218,-0.347911,0.358755,0.485496,0.552712,1.041058,0.012800,-0.305637,0.013954,-1.171759,0.033034,-0.611594,1.063562,1.756415,-1.057233,0.293898,0.132490,0.380819,0.241653,-0.684665,0.762494,-1.083695,-0.391323,-0.416886,-0.992997,0.791345,-1.167867,-0.455888,-0.896745,-0.122668,-0.070758,-0.463587,-0.188666,-0.583045,-0.430115,0.955152,-1.511713,-0.407745,-1.450356,-1.612311,-0.912303,3.591726,-0.899834,-1.608802,1.857407,0.219179,0.030210,1.067026,0.297320,-0.204506,-0.286575,0.073010,0.513162,-0.953973,0.340748,-0.333344,-0.454949,-0.623905,-1.101575,0.891651,1.158976,0.841895,1.254774,0.342789,0.090359,-0.067417,-0.391550,0.580348,-1.592491,-0.289048,-1.211613,0.489680,1.241961,0.770239,-0.644201,-0.166913,-0.256660,1.194601,-0.889517,0.252796,0.104387,1.912359,-0.182892,-0.627919,0.272735,1.041685,0.361693,-0.134386,0.511032,0.724778,0.343026,-0.884502,-0.065194,0.106421,0.160685,0.041290,-0.111065,0.272215,1.315951,-0.817919,0.136995,-0.148427,-0.253106,0.068953,-0.573577,-1.086878,-1.170020,-0.771182,-0.601526,-0.098019,-0.232967,-0.922611,-0.174028,0.355194,1.326085,-0.973130,-0.727457,-0.101145,0.118634,-0.217658,-1.321823,0.013832,0.616895,-0.642668,-0.709490,-0.382635,0.246911,-0.428212,0.557577,-0.181850,0.476154,-1.363303,0.875331,0.655502,-2.099185,0.576360,-0.088013,-0.193114,-0.300861,-0.538873,0.798814,-1.239416,-0.000804,-0.664253,-0.738155,1.136235,-0.387899,0.282093,-1.898273,0.945652,-0.232460,-0.469986,0.116360,-0.913264,-2.285865,0.098077,0.763951,0.160653,-0.510256,-0.333336,1.290541,-0.872073,-1.144374,-0.374579,0.478448,1.059806,-0.617069,-0.998814,-0.520251,0.087440,-0.911489,-0.212538,0.189537,-0.493998,0.154805,-0.717665,0.271731,-0.520166,-1.065163,0.803100,-0.360038,2.472482,-0.512170,-0.416032,-0.405930,-0.515485,-0.193244,0.764680,-0.320040,-0.210103,-0.456601,0.656636,-0.126194,0.117192,-0.386622,-0.814679,-0.374841,-0.896419,-1.155675,-0.680147,0.187353,-0.368722,-1.070086,-1.627830,-0.145713,-0.321454,-0.259301,0.137346,-0.568694,-0.373710,0.554286,0.844067,0.288279,-0.710416,-0.412300,0.708176,-0.035077,-0.683857,-0.954143,0.745077,0.314708,-0.698036,-1.301574,-0.494900,-0.536349,0.410984,-0.633402,0.924360,1.257442,-0.545034,-0.205732,0.875516,0.093486,-0.425784,1.843269
0.632199,0.740513,-0.214099,2.121206,0.621579,-0.204214,-0.153746,0.461185,1.231175,0.474452,1.222762,-1.313789,0.299990,-0.165592,1.126931,-0.463178,0.121317,-0.011944,-0.753140,-0.192268,-0.010978,-0.712908,0.247245,0.127033,0.737912,-3.658754,-0.599825,-0.087900,-0.239643,-0.508134,0.112351,-1.237999,-0.397923,3.480183,-0.890078,-1.410546,-0.470571,-0.467756,-0.329321,-0.676788,2.696832,-1.463551,2.390752,0.039563,0.002535,-0.308495,0.060935,-0.098442,0.462439,-0.613162,-0.086739,0.434560,-1.556656,-0.800552,-0.607844,-0.182973,-0.075710,0.164139,1.263528,0.314964,-0.086559,-0.962542,0.332151,-1.015185,0.089654,0.668172,-1.427456,-0.922615,-1.268652,0.046494,-0.019286,-0.401669,-0.042463,0.029962,0.030252,0.563254,-0.171567,-1.092554,0.175782,-0.245368,2.501956,-0.140075,0.767687,0.757012,-1.036938,0.611014,0.136917,-0.430513,-0.474743,-1.734904,0.207132,-0.128874,0.059062,1.676867,0.052366,-1.055562,2.745634,0.258467,-1.422180,0.288363,0.586217,0.140426,-0.281307,-0.837166,0.268541,0.189100,-0.152956,-0.194962,1.119272,-0.810708,1.894934,0.146559,-1.605339,-1.002815,-1.423278,-1.344998,-0.514871,-0.553246,1.082339,-0.700692,0.533304,-0.452485,-0.202785,0.209918,-0.960545,0.239667,-0.435230,-0.538281,1.156954,1.864242,0.098078,-1.095772,-0.089395,1.089913,-2.449292,1.661905,-0.852154,0.167796,-0.338073,1.069281,-1.535036,0.700170,-1.068353,-0.001856,-1.025688,1.303340,0.390895,-0.029822,0.030942,0.023043,-0.302610,-0.338523,0.391057,-1.587161,0.427048,-0.397927,-0.158135,-0.416965,0.525555,-0.195695,0.037216,1.327888,1.060173,-0.074172,-0.228983,0.911682,1.586888,-0.803349,-0.705170,-1.033679,-1.453089,0.508609,-0.777022,0.747052,0.423608,0.250508,1.206552,0.026310,0.630164,0.049912,-2.347892,-0.276909,-0.140623,-0.486991,-0.353434,0.465812,1.061128,-0.231830,-0.311208,1.011590,-0.351904,0.097843,-0.665985,-0.354721,0.695683,0.214049,-0.028548,-1.212002,0.191841,0.028927,1.124307,1.386564,1.477792,1.427606,-0.272630,-0.501711,0.215969,0.397201,-1.172807,-0.648737,-0.178599,0.114777,1.231595,-0.439382,-0.614189,0.315223,0.169236,0.510535,0.048469,-0.225219,0.808921,-0.326893,0.780483,-0.717994,-0.959354,2.168278,0.004791,-0.333684,0.095136,-0.340177,0.176265,2.134368,1.464731,-1.203468,-0.382086,-0.158678,-1.034903,0.608975,0.211061,-1.791926,0.774866,0.821287,2.291655,-0.276962,-0.725157,1.029569,-1.026929,0.310032,0.236721,0.502945,-0.028347,-0.957724,0.602325,0.748096,0.491565,-0.544322,-0.427788
0.765915,-0.602974,0.066341,-1.046780,0.344108,1.135701,0.039416,-1.127834,1.755490,1.053369,-0.173599,-1.224567,-0.215729,-0.277603,-0.612079,2.990956,2.389644,0.081231,-1.536541,1.059268,-0.873334,-1.219584,0.036459,0.802285,0.339797,1.397500,0.129017,0.265768,-0.245048,0.229346,0.388384,-0.420683,-1.533747,-0.271219,0.092619,0.019512,-0.600168,1.392228,0.634119,-0.242721,-1.019517,1.445073,-1.569325,0.896678,-0.289541,-0.735203,0.502910,-0.962983,-0.548537,-1.714319,0.268614,-0.579442,-0.640374,1.574351,-1.045216,-0.293948,0.944726,0.739678,0.425374,0.986663,-0.172069,-0.132315,1.115727,-0.755563,-0.414040,-0.001294,-1.001395,-0.215012,-1.688653,0.273626,0.274782,0.683738,-0.258751,0.177394,0.022026,0.286779,0.861847,1.673085,-0.001065,-0.607886,0.695545,-0.211865,-0.791132,-0.218870,0.549452,0.043889,-0.204784,0.056053,2.254245,-0.809712,-1.120906,0.374490,-1.131693,-0.547320,0.002171,-0.940738,-0.872053,-0.096919,-0.952760,-0.464942,0.925795,0.153921,-0.577887,-1.084755,-0.322273,0.555946,0.343300,-1.404814,-0.012861,0.964089,0.545345,-0.039226,0.224324,0.448882,-1.260390,-1.053898,0.498817,-0.526760,0.024625,-0.637229,-0.366012,1.829443,1.752592,-0.195231,2.021475,-0.331095,-0.802264,-0.699149,-0.744563,-0.581856,1.971310,-0.962713,-0.512690,0.248019,1.439742,-0.521460,-0.112401,-0.314305,1.694398,1.582197,0.214024,0.415110,1.121215,0.094756,-1.885009,1.165663,1.262349,-0.199419,0.074775,-0.028202,0.178830,2.119567,-1.876848,-0.099677,-0.255408,2.629183,0.508785,-1.014190,-0.122216,0.898232,0.176552,0.973507,-1.408291,-0.102704,0.194656,-0.650579,-0.933332,0.045018,-0.388499,0.396236,0.955892,-1.185729,1.850700,0.522722,-0.295468,1.045802,0.325455,0.313094,0.583219,-0.331249,0.851432,0.378334,-1.700022,0.026022,0.491869,1.112855,-2.002676,1.223517,-0.608610,0.953871,0.481663,-0.001317,0.151350,-0.563573,0.144269,-0.045831,-0.191825,-0.544522,0.117797,-1.137963,-0.192044,-0.335587,1.509522,-1.062290,1.226536,-0.607333,-0.441854,0.181333,-0.344057,-1.323590,0.927343,-0.017373,-0.085722,0.149171,0.137557,1.392804,1.189830,-1.690942,-0.460760,-1.069235,-0.139791,0.653934,-0.978421,-0.988043,-1.115619,-0.502226,-0.105922,-0.114942,2.579183,-0.085731,-0.652339,-0.658271,-1.177687,-0.271304,0.029328,-0.540833,1.016353,0.317033,-1.317867,-0.510420,0.279747,0.216512,-1.303419,-0.853011,0.232398,0.298645,1.708892,0.061368,1.937274,0.588116,-0.659703,1.526289,0.808906,0.473386,0.453837,-0.172398,-0.035920
-0.783356,-0.270983,-0.161517,-0.790078,0.470284,-0.606293,-0.057765,-0.707498,1.523430,0.042390,-1.212895,0.193921,-0.109670,-0.002398,0.188142,-1.373888,-0.478383,-0.046343,1.485661,-0.582723,0.435700,-0.156700,-0.085668,-0.318124,-0.784315,1.158730,-0.143200,-0.849892,-0.769062,-0.138001,-0.087129,0.752143,-1.025089,1.918826,-0.656530,-0.361846,0.050646,-0.172537,0.844614,0.787077,-1.579028,-0.486494,0.974543,-2.121040,-0.301620,0.750581,0.000363,0.523525,0.927611,0.056785,0.651798,0.027968,1.389597,2.408368,0.785897,-0.289738,-1.470794,-0.843306,1.605196,-0.081645,-0.912702,-1.127597,-0.516795,-1.488238,0.287430,-1.819330,-0.304930,-0.225892,-0.473798,-0.160992,0.876616,0.592720,0.168745,0.013573,0.125914,-0.809259,-1.098211,0.869489,1.682620,0.676952,-1.924831,-0.039577,0.043895,-0.852380,0.356265,-1.569087,-0.047746,0.346254,-0.121273,1.368434,1.522142,0.380547,1.171232,-0.546716,0.187327,1.702682,-0.626235,0.350704,0.455576,0.223361,-1.448099,-1.019420,1.679427,-1.173774,-0.133718,-2.048355,-0.086668,-0.507661,-2.020765,0.560245,-0.110273,-0.057262,-0.401096,1.869112,-0.878570,-0.162727,0.529697,0.962153,-0.065924,-0.118069,-0.910257,1.519328,-0.838717,-0.004724,-0.908472,0.048318,0.797368,0.526486,2.035068,-0.484070,0.712463,0.140619,0.124035,-0.529582,-0.057204,-0.754701,-0.087525,-0.191944,1.143129,-0.067936,0.478904,-0.723422,-0.712622,0.034086,-0.704194,-0.351159,-0.489347,1.184484,-0.747815,0.095559,-0.228391,-0.261977,1.062256,1.147968,-0.603584,-0.104174,-1.066037,-1.015775,-0.569340,0.675058,-0.034893,-0.803683,0.520338,-0.902348,1.418203,0.385230,-0.866653,0.413976,0.281173,0.094231,-0.659910,-1.347785,-0.415171,-0.817921,-0.299855,0.376371,-0.586808,0.002373,-0.673718,-0.392507,-0.128229,0.190724,-1.018177,-0.052560,1.366181,-0.505515,-0.327583,0.821876,0.475774,0.380120,-0.405153,-0.392603,0.939198,-0.307417,-0.328923,1.091862,-0.391654,-0.557741,0.054162,-0.618979,-0.821269,-0.682821,-0.862844,-1.675059,0.442746,-0.859940,0.011973,0.423732,0.276546,0.451763,-1.367526,-0.371739,-0.920798,-0.183444,-0.334115,-0.678095,-0.888230,0.702799,0.265045,-0.725595,1.109478,1.041036,-1.076709,0.514540,2.039264,3.092043,0.242679,-0.782089,-0.591464,-0.057711,-0.116472,-0.162408,-1.100912,0.806741,-0.367808,0.214972,-0.820304,0.134551,-0.530703,0.701155,-1.682258,-0.368045,0.969192,0.895510,-0.527432,-0.296455,-0.724995,-0.090976,-0.688051,0.211098,-1.000391,0.760972,-0.682912,0.022834,0.071585,0.109719,1.089774
-0.278388,-0.399584,0.016968,-0.895402,-0.310070,0.543978,-0.103132,-0.925815,-0.433710,0.044714,-0.232546,-0.168835,-0.176804,-0.140857,0.601498,0.317545,0.910881,-0.231570,-0.576314,-0.842190,-0.100089,-0.485964,-0.254895,1.794473,0.212139,0.748594,-0.829627,-1.463433,0.026102,-0.881749,0.191247,0.819342,-0.312251,0.062989,0.100365,0.555467,0.848718,-0.710675,-0.757858,0.099224,-1.973339,-0.206613,-0.330553,2.727999,0.616274,-0.267054,0.143887,-0.245763,-0.199375,-0.023868,-1.099040,0.152295,-0.824449,0.406879,-1.050451,-0.444937,0.323608,-0.535726,-0.898433,1.138679,-1.181021,0.304876,1.021033,0.166035,-0.354036,-1.366158,0.184591,0.723015,-0.239056,-0.082620,-0.982073,-0.086988,0.062280,0.336587,0.006235,-0.602087,1.605048,0.207111,-1.002906,-0.324201,-1.103582,-0.612881,0.543581,-0.813792,-0.410259,1.718098,0.013343,-0.184962,0.654947,0.350432,0.676567,0.299442,-0.025394,-0.178911,-1.184213,-0.194526,0.380399,-0.097809,-0.671518,-0.168804,-0.593247,-0.404801,0.599279,-1.669785,0.483746,-0.757006,0.260523,-0.170675,-0.654993,0.283230,-0.367767,0.066832,1.349890,1.774506,-1.203253,0.063258,1.291371,0.930429,-0.303618,-0.594529,-0.737950,-0.015065,-0.660256,0.137746,1.895643,0.309096,2.186449,0.071213,0.841065,-1.177885,3.659039,-0.581518,-0.031967,3.376662,0.438259,-0.606622,0.374932,0.512321,1.196566,0.107934,-0.149487,-0.425813,-0.996032,0.141080,-1.392185,-0.626293,-0.345306,0.536017,-0.556067,0.084633,0.263813,1.312052,-1.212123,1.002249,-0.042112,0.300837,1.103049,-0.414073,0.800514,-0.503501,-0.213509,-0.373262,0.790253,-0.437690,-0.681694,0.025534,-0.379131,0.941877,0.512954,-1.511209,2.314928,-0.453110,2.180007,-0.221873,1.158107,1.598031,-0.112180,-0.071685,-0.555303,0.479884,-0.238395,-0.520249,0.597646,-0.063126,-0.125710,0.553060,-0.666721,-0.888848,-0.445338,1.031045,0.406309,-0.344776,0.210665,-0.475279,0.437122,0.202362,-1.174319,1.457966,0.119242,0.483053,-1.269559,-0.447375,-0.683866,-0.186141,-0.112162,0.048543,-1.211704,-0.120133,-1.051805,0.371917,-0.673302,-0.204723,-0.804910,0.225963,0.635407,-0.242520,1.486859,0.204246,0.088115,-0.462987,0.002347,0.513624,-0.196453,-1.287377,1.094242,0.615595,-0.211982,-0.075795,1.195746,-0.304688,-0.140601,-0.533327,-0.747627,-0.971770,0.007951,-0.387410,-0.189274,-0.211066,0.907293,0.556340,0.664682,-0.333116,1.620877,-0.347611,0.078442,-0.066631,-0.277962,-0.053923,-0.525526,-0.064488,0.157574,1.286334,-0.423348,-0.862374,0.051961,-0.877492,0.199881
-0.726325,0.011032,-0.263557,-1.496826,-0.340332,-0.152106,-0.325295,-0.988675,-1.008026,0.279680,-0.576889,1.343335,-0.456484,-0.062872,-1.318830,-0.026369,0.550541,-0.649399,-0.306082,-0.564144,-0.223704,-0.690474,-0.348588,1.748131,-0.479151,2.486948,-0.270585,-0.668703,-0.376803,0.943444,-0.209621,2.081549,-1.054048,-0.165536,-0.251711,-0.359888,0.359160,-1.054156,-0.108486,1.067662,-0.794608,-0.583904,-0.170132,3.171246,-0.625553,0.234954,0.174408,0.683987,-1.192069,1.065587,-1.547120,-0.236871,0.238764,-0.611008,1.769618,-0.552627,-1.654199,-1.001603,-0.772348,1.073686,-0.687204,-0.290792,-0.708303,-0.314501,-0.316556,-0.606057,0.044695,-0.117683,-1.071193,-0.389480,-1.178347,-0.821133,0.043735,-0.840298,-0.282664,-0.638530,0.356933,-0.494804,0.751650,-0.699159,-0.493869,-0.600337,-0.890598,-0.516316,-0.377167,2.051334,-0.135046,-0.428598,1.452111,1.972530,0.124222,2.656932,0.060595,-0.280940,-0.286981,0.691303,1.258030,-0.236485,-1.227750,-0.312814,-0.930242,-0.491031,-0.974049,1.442720,-0.077825,-0.063994,-0.096852,-0.491774,-0.656089,0.286438,-0.305839,-0.306098,0.004077,-0.303576,-0.650913,-0.723883,-0.578762,0.264241,-0.577392,-0.281422,-0.739718,1.798880,-0.605108,-0.098902,1.246636,-0.887251,1.924128,-0.445386,-0.250046,-0.457109,3.144812,1.070874,-0.076964,-0.696023,0.120168,-0.564917,-0.097766,1.567968,-1.023078,-0.503936,1.334603,-0.394623,-0.532574,-0.005321,-0.313506,0.419685,-0.335862,0.087011,-0.609627,-0.730529,-0.235526,-0.392202,-0.261953,2.080191,-0.509006,-0.365653,1.349167,-0.505225,0.134779,-0.165750,-0.316423,-0.444935,0.335889,-0.405413,-0.364582,-1.039088,-1.061467,-0.495260,-0.555082,-0.418412,-0.265850,-0.469435,1.371451,-0.365081,-0.454242,1.124170,-0.566780,-0.234908,-0.582906,-0.295797,0.495338,-0.681315,1.052416,-0.606663,1.211655,-0.536003,-0.131104,0.970622,-0.512249,-0.143450,-0.579619,-0.531265,0.274283,-0.408098,-0.079717,0.181219,-0.648252,0.544434,-0.083872,-0.626007,-0.238230,-0.501665,-0.447032,-0.583498,-0.425805,0.179126,0.301489,-0.600423,-0.016673,1.430726,-0.475202,-0.761838,-0.452244,0.700100,-0.319990,-0.149195,0.607774,1.092840,-0.444345,-0.418648,2.058755,0.362219,-0.428347,0.217262,-0.497312,0.379322,0.329557,0.606310,-0.779346,-0.201139,-0.277793,-0.540389,-1.001758,0.546476,-0.433059,-0.752976,-0.781176,-0.488094,0.626661,-0.484908,1.379187,-0.347394,-0.742269,0.981045,-0.632562,-0.667107,-0.643110,-0.376446,-0.635109,-0.692987,0.534958,0.484876,-0.575628,-0.916023,-0.495939,-1.267095,-3.708022
1.741461,-0.412948,0.079948,0.381957,0.042149,-0.064842,0.871929,0.512872,0.250680,0.415837,0.057617,1.036850,-0.436110,0.113236,-0.063407,0.095041,3.529891,-0.020793,-0.255789,0.401851,-0.773507,-0.814983,0.049766,-1.177013,-0.033651,-3.331657,0.146443,1.255084,-0.249224,-0.518022,0.181579,-0.782145,2.006975,-1.214598,0.104775,0.113711,0.063411,0.286444,0.465215,-2.287212,-0.666842,0.533865,0.810240,1.203723,1.393815,-0.063423,-0.799517,0.110060,0.275715,0.805700,1.017364,-0.287840,-0.204923,-1.339568,-1.067751,0.941710,0.179435,2.644447,0.698789,-1.720914,1.965394,0.874829,0.401844,-0.337075,-0.242331,0.684871,-0.468553,-0.513206,-0.291484,0.565674,1.225112,1.544093,0.050722,0.835830,0.678878,0.221972,0.306933,-0.591359,1.703839,0.097364,0.069436,0.383923,0.357036,0.329051,0.072447,0.035353,-0.161581,1.221192,-1.149536,-2.128447,-1.264826,-0.580688,-1.195438,-0.623312,-0.549251,-1.255333,1.632114,-0.206094,-1.890071,0.291440,-1.138047,0.014679,-0.014814,0.077599,-0.052258,0.703317,-0.110882,-1.201298,0.887687,-0.577600,-0.738908,0.073554,-0.922815,0.544920,0.606869,-0.756404,-0.595350,-0.925757,-1.487098,1.678496,-0.546303,-1.185641,1.258255,0.208349,1.081379,0.768978,-0.365511,-0.390274,-0.781207,-1.187209,-2.297860,1.637871,1.258002,0.436841,-1.214422,0.401221,0.455432,-0.393052,-0.546120,-0.270653,-1.511278,-0.123045,-0.582201,-0.124013,-0.284826,-0.963420,0.107392,1.873447,0.271803,-0.572636,-0.298837,0.130441,-0.335732,-0.680147,-0.266102,1.307245,-0.269778,-1.051628,-0.217339,-0.305681,0.183115,-0.673064,-1.232941,-1.914103,0.787161,1.313145,-1.289324,-0.140011,0.137896,0.031422,-0.062015,0.579791,-1.352577,1.066132,0.332112,2.228589,0.870819,0.168290,0.360873,0.535356,0.121284,-0.010112,-1.803261,-1.108926,-0.776890,-0.267589,-0.538426,0.984038,0.326970,0.654448,-1.307078,-0.559346,-0.927988,-0.936586,-0.000345,0.450002,-0.428106,-1.557375,0.120261,-0.585609,1.315872,0.703766,-0.048401,0.343128,-0.935084,-1.061791,0.338550,1.007777,5.210865,-0.548516,2.000881,0.468547,-0.506920,-0.517997,0.292234,0.532750,1.647562,-1.317165,0.429620,0.021165,1.512024,-0.225926,1.437119,1.393502,-0.769782,1.248236,-0.380127,-0.354371,-0.158836,0.041939,-0.575097,0.171776,1.307837,-0.676616,-0.326535,-0.785625,-0.437881,0.689421,-0.217853,-0.304573,-0.047474,0.262149,0.545846,-0.563989,-0.316255,0.115611,-1.235140,0.380293,-0.485769,0.142061,-1.824952,0.066780,-1.600623,0.059394,0.329466,-0.954138,0.262373
0.745194,-0.687018,-0.205538,0.366662,0.497882,1.547145,-0.452139,-0.884254,0.510113,0.366618,1.175333,-0.927274,-0.334437,-0.099380,-0.463866,1.399158,2.055402,0.080288,-1.391861,-1.454264,-0.851583,0.006303,-0.280768,0.134502,0.673312,0.347489,-1.243152,-0.625449,-0.304213,0.844662,-0.099008,0.699946,0.746834,0.918180,-0.842990,-0.271300,-0.419823,-0.210536,0.141409,2.753141,0.478352,0.767541,0.422695,1.725834,1.110256,-0.180169,-0.152899,-0.534267,-0.405480,-0.139857,0.316921,0.592837,-0.809642,0.900973,-0.785064,-0.579931,1.913757,1.515597,-1.244190,-1.071680,-1.104969,1.393069,2.778966,-0.405742,-0.215208,-0.161019,-0.390920,0.016461,1.666885,-0.293116,-0.760943,-1.031792,-0.249235,0.027496,-0.189062,0.797623,0.404380,0.633987,0.923603,-0.691609,-1.108378,-0.669402,-1.393409,-1.009290,-0.410552,0.035894,-0.093009,-0.180606,0.209416,2.445759,-0.850823,-0.112129,-0.727669,-0.426419,-0.878944,-0.699706,1.347921,-0.258420,1.107115,-1.552078,1.601980,-0.704172,0.354269,-1.702161,0.648289,1.353180,0.019123,-0.855081,-1.036724,0.801116,-0.278323,-0.979217,0.810766,2.118570,-1.202102,-0.216388,0.861964,-0.349829,-1.345375,0.227355,-0.831511,-0.282487,-0.486363,-0.433696,2.047292,0.147144,1.055750,-0.611889,1.474131,-0.460316,-0.648046,-0.926098,-0.330715,1.407232,-0.744645,-1.021840,-1.434407,-0.650304,2.611990,1.303024,-0.188759,-0.497143,1.607983,-0.056055,-0.464443,0.757960,-0.474182,0.977233,0.262178,0.203564,-0.401314,2.094121,0.445229,0.664521,-0.855366,0.190182,1.321521,-0.960578,0.763151,-0.300110,0.090567,0.389456,-0.742210,-0.640926,1.539337,-0.771862,1.129520,-0.067060,-1.112545,0.107092,-0.130640,-1.127794,1.738808,0.208072,-0.470374,0.030588,1.497547,-0.103598,-0.842359,0.355975,0.693507,-0.500566,0.056259,0.859454,2.077476,1.384404,-0.991979,-1.836226,-0.594419,1.470774,0.072156,-0.645701,-0.739907,0.520509,0.064152,0.139608,0.238819,2.342029,-0.305654,-0.573646,1.906175,-0.466228,-0.436835,-1.365478,0.080069,0.076612,0.784102,0.299605,-0.871173,-0.906897,1.548104,-0.130308,0.013438,0.450150,-0.226685,-1.053832,-1.262286,1.582651,-0.475944,-0.888072,-2.020508,0.621579,-0.301988,0.605752,0.230034,1.179494,-0.015185,0.024582,1.891405,-0.316306,0.040157,-0.125171,-0.001069,-1.021295,-0.477620,0.777474,-0.618461,-0.143410,-0.245514,-1.898567,0.919504,-1.052796,-0.281194,-0.481823,1.148985,0.586662,0.486865,-0.309975,-0.684748,-0.555646,-1.634453,0.408544,1.243200,-0.717594,0.020182,-0.317105,-2.112884
1.738674,0.390140,0.075734,0.541224,0.071240,1.570371,0.112388,-1.226955,0.726668,-1.321636,1.590375,-0.196950,-0.221280,0.049407,-0.880250,-1.130004,0.855757,-0.592547,-1.198482,-0.626451,-0.409307,1.912326,-0.362818,0.020022,-0.421370,-0.736500,-1.017179,0.648329,-0.300668,-0.205682,-0.337940,-0.558382,1.129596,0.142301,-0.312132,-1.350439,-0.945386,-0.548286,-0.885820,-1.698557,1.079688,-1.096745,-1.496724,0.629075,-0.136976,-0.039755,-0.484133,-0.746261,-1.840276,-0.126249,1.172795,-0.323144,-1.683488,0.354710,-0.291521,2.018781,1.506051,0.070871,1.062182,-1.819851,0.366272,0.070251,0.989435,0.496961,-0.412856,0.696748,-1.262784,0.351595,2.563006,-0.058811,0.780302,0.275416,-0.367700,-0.312346,0.094081,0.071451,-0.670128,0.396340,0.387265,-0.595282,1.976307,0.375402,-1.012156,1.236068,0.497144,-1.562377,-0.236453,-0.012672,-0.457791,1.021556,-1.342705,-0.365040,-0.375948,-0.968482,-0.264534,-0.361318,0.157519,0.060841,-0.265405,0.143623,1.598824,0.840646,-0.036335,1.354307,-0.006302,2.036170,-0.596860,-0.810885,1.099171,-0.841678,-0.342313,-0.499884,1.078538,-1.041789,-1.316204,-0.898932,1.523076,-0.704291,1.057768,1.638980,-0.661391,-0.533308,0.701380,0.076979,-0.034900,0.129969,-0.103081,-1.099581,-1.015788,0.178461,-0.338710,-0.642657,-0.398651,-0.671332,-0.014269,-0.078774,-0.469262,-0.223684,-0.626632,0.307336,-0.720879,1.116511,1.779362,-0.185481,3.467329,0.612409,1.026996,0.901335,1.128844,0.112587,-0.502709,-0.512346,2.543768,-0.276750,-0.590189,-1.407778,-0.126178,0.770979,-0.033944,0.047545,0.033130,1.392045,0.194999,3.206309,1.750532,-0.583237,-0.423088,-0.528079,-0.848218,0.037020,-0.518831,-0.488159,-0.520882,0.714687,-1.595079,-0.717065,1.094572,-0.350366,0.553652,-0.137263,-1.891241,0.004049,-0.476424,-0.406488,-0.198289,-0.333716,1.814349,-0.625725,-0.262689,-0.633203,-0.974555,0.204007,-0.534067,0.618021,-0.219106,-0.332940,1.366978,-2.198197,-0.271351,-0.919309,2.058500,1.136152,1.559286,0.931040,-0.651197,-0.318264,-0.778705,-0.524671,0.491422,-1.109215,1.439746,-0.616724,0.734773,-0.489116,-0.093206,1.909332,0.750045,-0.500297,-0.205588,1.111095,0.762726,-0.697340,1.282026,0.538827,-0.510014,-0.046064,-0.199815,-0.152308,-1.141920,-0.222742,-0.572226,-0.861269,-0.557860,-0.302010,-0.059898,-0.351931,-0.909458,0.188952,-0.325547,-1.962516,0.410204,0.281351,0.172069,-0.354905,-1.943652,-0.276773,-0.774975,-0.184152,2.178178,-0.519272,-0.198722,-1.095720,-0.454282,-0.077195,-0.214520,-0.436501,-2.917696
0.464366,-0.469695,0.083822,-0.580155,-0.354506,-0.455292,0.382617,-0.209872,-2.072451,-0.128713,1.813491,-2.654651,0.053889,0.279693,-0.238648,-0.182349,-0.516277,0.138210,-0.291039,-0.961490,1.195967,0.374002,1.063116,0.124328,0.043301,-1.715608,-1.776076,-0.652443,-0.327884,-1.205276,-0.934367,-0.315035,1.153899,-1.115781,-0.804372,0.094210,-0.010931,0.847637,0.071076,0.031048,0.676268,0.421541,-0.129700,-0.039708,-0.832311,-2.520819,-0.705633,-0.563206,-0.382469,-1.288903,-0.079008,1.200116,1.001620,-0.765150,0.052628,-0.389203,0.254511,0.930510,1.611758,-1.081071,-0.746683,0.330380,0.858252,-0.200365,-0.631320,-0.886484,0.191085,1.589957,0.001219,0.457095,-0.729029,0.136641,0.027367,0.772964,1.146661,-0.810845,-1.544423,1.582960,-0.806509,-1.130837,-0.028547,1.199033,0.030412,-1.387190,0.876408,-0.133937,1.113414,1.135906,-1.460930,-1.018133,-1.181593,-0.455654,-0.422561,-0.670037,0.405935,-1.078338,1.002461,-0.061251,1.371147,0.098202,-1.360996,0.074344,0.551332,-1.460796,-0.811486,-0.714421,0.559019,0.170057,-0.953543,-0.846185,-1.293355,-1.482402,0.805391,0.294684,0.074515,-1.057679,0.236662,-0.152296,-1.199700,-0.410634,-0.305034,0.268954,0.503824,-1.201160,0.035463,1.040628,-0.081130,-1.576064,-1.021295
0.203234,-0.394747,0.422970,-0.366479,0.466239,-0.362779,-0.049534,1.145898,0.252749,0.104945,-2.213058,0.598358,-0.027827,-0.919749,-0.541340,0.110921,-0.187646,0.722094,-0.388321,0.437723,0.845936,1.063818,-0.177288,-0.594294,1.040815,-0.112095,-0.273007,-0.080922,-0.234809,-0.942455,1.131950,-0.456364,-0.654570,-1.206396,-1.028373,0.190345,-0.271047,-0.413567,0.410560,-0.006309,-0.939144,0.184439,-0.723335,0.278034,-0.584715,1.094932,-1.226458,-1.057009,0.371357,-1.231958,-0.128169,-0.305172,-1.252833,0.991306,-0.201540,-0.425092,-0.422707,-0.806594,0.749061,-0.657528,0.506583,0.089209,-0.162100,0.454047,-0.481582,-0.897298,0.607982,0.195582,-0.026431,-0.187818,-0.437836,0.245543,-0.422369,-0.346857,-0.369373,-0.049117,0.101981,0.128873,-0.062698,-0.145619,0.736359,-0.555247,0.009267,-0.830286,-0.515465,0.308674,-0.728532,-0.004727,0.452334,-1.318102,-0.110344,-0.781339,0.061151,-0.758466,0.020516,-0.890664,-1.152543,-1.176045,-0.293664,-0.459515,-1.464927,-0.199812,-1.288340,-0.243345,-1.194646,1.751762,1.565391,0.049001,0.045672,-0.210062,-0.095454,-0.358818,0.080507,0.309904,0.203525,0.105464,-0.542299,-0.454415,-0.263130,-0.359329,0.378268,-0.292536,-1.397935,0.465442,0.441898,0.205296,0.790793,0.014054,-0.442108
-0.378135,0.124547,-0.263210,-0.049331,-0.065346,0.062749,0.274321,-0.127492,-0.484249,0.185454,0.328353,0.270945,0.131859,-0.187924,-0.087621,0.160740,-0.339181,-0.510597,-0.389455,-0.262302,0.169214,-0.277047,0.249247,0.090914,-0.471446,0.149995,0.067399,-0.418936,-0.575141,0.217105,-0.332480,0.213025,-0.372533,-0.116997,-0.250187,0.365256,-0.568303,-0.025126,-0.030741,0.222324,-0.542202,0.010793,-0.455968,-0.200420,-0.368124,0.095220,-0.076620,-0.428438,0.243702,-0.092150,0.186881,-0.637075,-0.270003,-0.193101,-0.416356,-0.155503,-0.524977,-0.525076,-0.052795,-0.571930,-0.316468,0.344824,-0.265626,0.382812,0.105129,0.239054,0.207005,-0.488521,0.211854,0.208159,-0.504356,0.140832,0.055632,-0.659228,-0.048994,-0.565133,0.051549,0.033363,-0.126522,0.409510,0.420275,0.000953,-0.239759,0.167959,-0.535149,0.252614,-0.658904,-0.482326,0.213558,-0.679341,0.148066,-0.236828,-0.126497,0.007818,0.196055,0.094069,-0.376416,-0.300266,-0.036499,-0.354172,-0.706372,-0.336669,0.066230,-0.018793,-0.210597,0.099189,-0.149026,-0.218127,0.307162,0.018663,0.132583,0.015896,0.141699,-0.170598,-0.379265,-0.364951,-0.526559,-0.121610,-0.022185,-0.246164,-0.279561,0.189438,-0.044614,-0.490128,0.209150,-0.016802,0.306933,-0.390552,-0.307277
-0.149699,-0.134774,-0.288646,-1.669316,-0.494287,-0.583447,0.231276,-0.315394,-0.204230,0.973588,0.953906,1.016990,-0.159431,-0.112266,-0.826314,-0.995702,-1.533163,0.974776,0.359788,-0.255004,1.746315,0.423815,-0.461218,0.325422,0.528906,-1.131347,-1.150866,-0.255997,-1.201812,-0.961637,1.062678,-0.570530,-0.354526,-0.636038,-0.936472,-0.401491,0.254208,0.168945,0.127561,-0.193948,1.449146,-0.175823,0.644221,0.266398,0.635769,-1.103045,-0.768769,-0.801380,-0.072414,-0.017034,-0.536578,-0.240197,0.526042,-1.228930,-1.034754,1.378259,0.487080,0.661732,0.073315,-0.594695,0.255513,0.280902,0.536960,0.881179,-0.514425,-0.169561,-0.477009,0.306749,-0.054772,0.394422,-1.142219,-0.242057,-0.543150,-1.065889,-0.503401,-0.442932,-1.246775,0.467335,0.575066,0.922976,-0.928143,-1.533509,0.035993,-0.414406,-0.475857,0.586738,0.827554,0.068946,0.678568,-0.659634,-0.212462,-0.471744,0.326745,-1.558869,-0.321679,-0.449961,0.455866,-0.139150,-0.029293,-0.013285,-0.379113,-0.148981,-1.784364,-0.787839,-1.466981,-1.022830,1.500936,-0.506540,-0.635825,0.210434,0.916481,-0.969625,0.494101,0.582339,-0.099732,0.095904,0.174258,0.285778,-0.315156,-1.065941,-0.443314,-0.365131,2.393833,-0.802288,0.550104,0.703588,-0.168067,-0.175641,-1.381374
0.124551,-0.595658,-0.197298,0.023235,0.300224,-0.555391,0.309062,0.211279,0.048811,-0.198592,-0.059938,-0.328438,-0.659127,-0.449239,-0.133362,-0.685053,-0.246403,-0.005465,-0.239494,-0.488729,0.122949,0.084632,0.081437,0.350125,-0.104721,-0.439885,0.415231,-0.166531,-0.049651,-0.320851,0.041541,-0.294126,0.033304,-0.455880,-0.182012,0.189093,-0.327890,0.058617,-0.056099,0.611841,0.113760,-0.174404,0.199065,0.070143,-0.110492,0.462017,-0.348584,0.156456,-0.435285,-0.918730,0.644953,0.118787,0.580907,0.217097,-0.454838,-0.122201,0.314183,0.875131,0.356271,-0.601836,0.296783,-0.044884,0.289087,-0.595132,-0.212365,-0.407602,-0.329025,0.096684,-0.233772,-0.470880,-0.109306,-0.458251,0.258088,0.100776,-0.452456,-0.411756,-0.005330,0.149962,0.126345,-0.291209,-0.438252,0.307484,0.091252,-0.878339,0.221931,0.762201,-0.253456,0.046754,0.217326,0.090709,0.179816,-0.270734,0.038675,-0.782235,0.430592,0.118105,-0.111424,-0.205719,0.695947,-0.262449,-0.762695,-0.068174,-0.371907,0.329107,-0.525894,-0.249696,-0.593684,-0.021311,-0.031975,-0.091777,-0.753344,0.339551,0.107958,0.384131,0.234880,-0.111707,-0.310925,0.328268,0.006665,-0.632909,0.179298,-0.107377,0.185165,0.126945,-0.338129,-0.263262,-0.416932,-0.400485,0.260901
0.491706,0.461601,-0.446868,-0.464158,-1.435120,0.180246,-0.708393,1.204686,-1.693486,-0.290991,-0.978145,0.033998,-0.249701,0.312630,-0.677857,-1.669376,-0.566597,-0.513031,0.441484,0.214675,-1.381788,0.279743,0.577927,0.103668,-0.563898,1.895217,0.435186,-0.288631,0.668896,1.039477,1.305467,-0.182496,-1.144959,-0.974291,0.619768,-0.145142,0.468017,0.686610,0.409572,-0.141113,-0.353516,-3.259856,0.436893,-0.475075,-0.440989,-0.552566,-0.467090,0.332714,0.251515,-0.133222,-1.044264,0.297741,1.610806,-1.026411,1.850855,0.688785,-0.067762,-0.285609,-0.792693,-1.570000,-0.601351,0.002953,-0.321571,0.192790,0.789374,0.352698,-0.045615,-0.488304,0.484696,1.552753,-0.057976,-0.309086,-0.072364,-1.309937,0.359162,-0.029037,-0.568409,-0.945341,-1.056065,1.081752,0.557149,1.108650,0.005228,-0.710305,0.288653,-1.511300,-1.998167,-1.653150,-0.952019,-0.932852,-1.104413,-0.423792,0.446557,-0.179009,-0.390448,0.899554,-0.206588,1.031757,0.444814,-0.688641,1.644448,0.431669,0.582330,1.299229,0.720660,-0.636027,-0.761840,0.451283,0.983564,-0.532508,-2.219759,-0.180853,-0.104173,-0.072485,-0.083353,0.583645,0.314972,-0.464568,-0.692518,-0.971519,-0.300476,0.793261,-0.603362,0.576865,1.616472,0.300072,0.620630,-0.085379,0.392473
0.292527,0.184376,0.259890,0.564672,0.167464,-0.218962,-0.401821,-0.396953,0.092864,-0.217955,-1.404140,-0.121473,-0.355035,0.446284,-0.565471,-0.709956,-0.187830,-0.089994,1.073553,-0.004215,-0.869767,0.052691,0.240834,0.460438,-0.361615,0.407794,-0.589103,0.063303,-0.139175,-0.120150,0.447205,0.147044,-0.054298,-0.128214,-0.656199,0.254203,-0.102487,-0.374922,0.510355,-0.079444,0.090552,-0.147427,-0.435754,-0.357707,0.164793,-0.117519,-0.664637,-0.580432,-0.069399,0.411383,-0.265983,0.167931,0.190349,-0.265681,0.204065,0.180688,0.236607,-0.475560,-0.149492,-0.261178,-0.794539,0.103039,-0.011814,0.210748,-0.107093,-0.497458,0.296016,0.062294,-0.237365,0.599566,-0.141628,0.249329,-0.291493,-0.405154,-0.490390,0.195976,-0.660742,-0.487606,0.148911,-0.048186,-0.433029,0.035794,-0.135049,0.299360,0.210036,0.023818,-0.453142,0.255533,-0.297954,0.100660,-0.700358,-0.519081,0.286393,0.040676,0.335726,-0.034891,-0.174183,-0.490709,0.279877,-0.634963,0.368576,0.222808,-0.216394,-0.031812,0.291127,-0.244857,-0.270264,0.132701,0.271272,-0.610545,-0.026748,0.490661,-0.151679,0.588894,-0.340454,-0.278138,0.369822,0.176972,-0.470912,-0.505650,0.359917,-0.550516,0.073528,-0.512663,-0.256218,0.022641,-0.010048,0.410322,-0.536533
0.065895,-0.912292,-0.209376,0.343897,0.757329,-0.144726,-0.469740,0.699642,-0.697856,-1.809129,-2.021619,-0.233967,-0.684987,-0.106586,1.299507,0.357937,0.119220,-1.059799,0.278210,0.386789,-1.576000,-0.618752,0.631970,-0.003970,0.923443,0.524124,-0.104318,-0.252888,0.040817,1.336933,-0.074358,-0.237362,-0.288383,-0.820858,-0.236922,-0.371859,0.291958,-0.090896,-0.184005,-1.282374,-0.479736,-0.042938,-0.922837,-0.037205,0.096580,0.365086,-0.048473,0.958033,-0.178355,0.538481,0.603739,-0.883030,0.489636,-0.008936,1.788504,-1.472324,-0.219487,-1.547730,-0.916274,0.402840,-0.735502,0.260590,-1.137228,0.332552,0.310166,0.471795,0.091137,0.357524,0.041251,-0.544118,0.315666,-0.104923,0.184864,0.768223,-0.246408,0.187005,0.309186,-1.133148,-0.797815,-0.947445,-0.357466,-0.091932,-0.322931,-0.956066,-0.081394,-0.352322,-1.683162,-0.444988,-1.253482,0.038164,-0.454490,-0.222199,0.178916,1.429256,-0.176337,0.672713,-0.238458,-0.310717,0.227312,-0.322265,0.388833,-0.573166,2.273546,-0.279679,-0.088719,0.095415,-0.262267,0.419116,0.621785,-0.420106,-2.459278,-0.360812,-0.385444,-0.439906,0.139066,0.350280,0.198908,0.051211,0.343861,-0.213374,-0.164202,0.607521,-1.586029,0.443192,-1.512959,-0.460949,0.071014,0.023868,-0.525924
-0.417653,0.138154,0.047732,-0.729385,-0.866417,0.552213,-0.243568,0.363659,-0.639081,-0.341945,-0.862665,-0.303896,-0.247089,0.470194,-1.048430,-1.822300,-1.431918,0.141306,-0.200401,-1.399494,0.389880,-1.044582,0.146621,0.142498,-0.896631,-0.482987,-0.441446,-0.760536,0.758367,-0.091289,0.037202,0.366220,-0.820737,-0.179152,-0.229311,0.125329,-0.332798,0.860988,-0.476612,1.737303,-0.373634,0.396420,0.491794,-0.204055,1.226502,0.095372,-0.477526,0.733912,-0.367634,-1.734282,-0.751958,1.587939,0.982738,-0.664198,-1.204934,0.737367,0.004710,3.302922,0.513554,0.429065,1.796484,0.095094,-0.170929,-1.957393,0.291612,0.853145,0.133200,1.556471,0.080841,-1.006513,0.093299,-0.585567,-0.308324,-0.913938,0.226187,0.012204,-0.045709,-0.714680,-0.129823,0.023328,0.331391,0.857588,-0.464768,-1.553190,1.113457,0.331163,-0.651588,-1.634728,-1.124344,-0.171991,0.283317,0.037123,0.001044,-1.130244,-0.377248,0.119498,0.612383,1.208505,1.226274,0.158583,0.524973,-0.206498,0.053792,2.758290,-0.126908,-0.903733,-1.612046,0.257364,-0.408216,-1.252084,-0.930655,0.049996,0.273949,0.139022,-0.027960,-0.775097,0.004024,-0.239594,-0.077126,-1.567212,0.419822,-0.608592,-1.473820,1.011975,-0.257845,1.198020,-1.152981,-1.811515,-0.332534
-0.053152,0.758618,0.213969,0.251034,-1.013247,0.987335,-0.124593,-0.525612,0.320428,-0.905778,1.143447,-0.396550,-1.039214,0.213027,-0.044074,0.273294,-0.137109,-0.353790,-0.022910,-0.432107,-1.313313,0.352608,0.024006,-0.298790,-1.475071,0.655749,-0.474101,-0.119491,-0.200346,0.507130,-0.003116,-0.284796,0.014212,-0.135635,0.379612,-0.130151,-0.408884,-0.046519,0.279030,0.421810,0.801930,-0.585130,0.918874,0.429611,-0.275434,-0.327618,0.515331,-0.208019,0.567030,1.078678,-0.203107,-0.396339,-0.050614,-0.961968,0.447113,0.023124,-0.374087,-0.010062,-0.670829,-0.188535,-1.345672,0.253918,0.798029,-0.244386,-0.209665,-0.880836,-0.350582,-0.934215,-0.307780,0.731459,0.012599,-0.257578,-0.276250,-0.102162,0.071932,0.286740,0.181670,0.634321,-0.016003,-0.284503,-0.797320,0.416064,-0.092726,0.311943,-0.464047,-1.185301,-1.098690,-0.545655,-0.755485,-0.519676,-0.225168,0.429926,-0.070479,-0.352633,0.496763,-0.332435,0.361120,-0.497032,-0.676820,0.017844,0.622811,0.183090,0.055583,0.135166,0.083798,-0.794199,-0.996519,-0.125151,0.021517,-0.723720,-0.143242,0.261596,0.058170,-0.180100,0.163392,-0.119374,0.164447,0.176682,0.238613,-0.424980,0.189984,-0.020363,-0.080572,-0.414471,0.434964,-0.501067,0.205391,-0.302223,0.177778
-0.293653,0.621402,0.124641,-0.136566,0.547156,-0.651243,-0.317605,-0.906666,-0.035317,0.179256,0.008363,-0.690350,-0.526508,0.306533,-1.289727,-1.952194,-0.758128,-0.061893,0.725641,-1.331117,-0.376494,-0.510299,-0.034823,-0.445528,-0.391466,-0.248088,-0.520691,-0.447787,0.581909,-0.344908,-0.211513,0.100345,-0.284311,-0.375519,-0.302802,0.024303,0.232868,-0.031581,-1.210712,0.669839,-0.212259,0.447452,0.250027,0.286525,1.448329,-0.279609,-0.599207,-1.060118,0.219827,-0.955425,-0.214441,0.612327,0.682029,-0.426258,0.336564,1.265640,0.091244,1.549966,0.285394,-0.039493,0.822510,-0.016415,-0.207435,-0.899452,0.610149,0.468918,-0.017411,0.273391,0.322831,0.107305,-0.188417,0.230317,-0.157171,-1.136824,0.270537,-0.275209,-0.228757,-0.532008,1.674757,0.381187,0.230409,-0.096624,0.302927,-0.635629,-0.126798,0.009619,-0.058089,-0.901591,-0.773938,0.165850,-0.572496,-0.347509,0.108285,-1.003612,0.182509,-0.367723,0.540964,0.441252,1.253126,-0.119034,0.417176,0.347058,-0.241854,0.900195,-0.196677,-0.804365,-1.334184,-0.147122,0.022618,-1.216370,0.152454,0.507542,0.169596,-0.086206,-0.467065,-1.103901,-0.188349,-0.031491,-0.387576,-0.698038,-0.465775,-1.217410,-0.430569,-0.798292,-0.312486,0.277327,-0.651673,-1.068095,-0.669514
-0.243095,0.073036,-0.098285,0.418241,0.123326,0.438147,0.186119,0.050480,0.274939,-1.626407,-1.221742,0.303290,-0.496697,0.023469,0.549310,0.927750,0.271905,-1.098179,0.093843,0.482806,-1.249139,-0.487601,-0.037526,0.077920,0.456459,0.725716,0.663282,0.051730,-0.399522,1.125854,-0.219359,0.380512,0.175101,-0.815223,-0.419283,-0.199996,0.166450,-0.193730,0.611133,-1.219740,-0.363268,-0.435467,-0.075043,0.057012,-0.640912,0.925979,0.305983,0.300785,0.501876,1.308754,0.384748,-1.221439,-1.881894,0.532277,0.817641,-0.787946,0.048160,-0.738954,-1.016897,-0.450694,-0.739196,-0.115951,-0.419454,-0.369116,0.305193,-0.771885,0.119649,-0.448533,-0.193778,-0.011788,-0.129122,0.139881,-0.476626,0.234401,0.005778,0.359724,0.832939,0.832833,0.037969,-0.317927,-0.460493,0.781745,-0.450475,0.181966,-0.447127,-0.311398,-1.181198,1.229074,0.044010,-0.690061,-0.426166,0.210151,0.403274,0.758052,0.472714,-0.440132,-0.407346,-0.515444,-0.836886,-0.114962,-0.238659,-0.218897,1.162825,-0.615864,-0.721373,0.824197,1.060159,0.053338,-0.026448,0.241682,-1.087683,-0.434663,-0.222834,-0.772118,0.259758,0.289100,-0.366510,-0.220005,0.417913,0.570785,0.031558,0.558215,-0.935056,0.606174,-1.329496,-0.582829,0.175032,0.251303,-0.656813
0.094305,-0.452331,-0.371829,-0.428691,0.325670,-0.404261,0.196650,0.069104,-0.592799,-0.396636,-0.776745,-0.202834,-0.428546,0.299217,1.102456,-0.793064,-0.077902,-0.728493,0.201035,-0.249142,-0.560027,-0.580201,-0.187831,0.135440,0.117121,-0.522205,0.501905,-0.621985,0.071577,0.791914,0.214010,0.044562,-0.924539,-0.840927,-0.113319,-0.466175,0.483669,-0.584913,-0.462153,-0.650773,0.551132,-0.496606,-0.241256,-0.233772,0.144145,0.266640,-0.050836,0.188344,-0.506833,0.509166,0.718538,-0.323555,0.533167,-0.415831,0.467184,-0.501815,0.224965,-0.439678,-0.369061,-0.144158,0.216024,-0.421668,-0.180758,-0.237555,-0.265661,0.379594,-0.287434,-0.012933,-0.409960,0.070004,0.214715,-0.310244,-0.534700,-0.535478,-0.812614,-0.079493,0.640462,-0.228121,-0.067211,-0.084142,0.026697,0.125763,0.418723,-0.708086,-0.166124,0.225215,-0.258119,-0.247084,0.015005,-0.026076,-0.006400,-0.002219,-0.100667,-0.364222,0.338033,0.193723,-0.614479,0.099286,0.067543,0.388369,0.353417,0.335829,0.706664,-0.173183,-0.726500,0.654955,-0.646494,-0.031980,0.151593,-0.221279,-0.874773,0.145731,0.511217,0.056780,-0.394716,-0.158419,-0.264308,0.145663,-0.591450,-0.827095,-0.302910,0.121425,-0.456885,0.516364,-0.529104,-0.013392,0.200723,-0.324619,-0.675155
0.210277,0.351318,-0.197897,0.325571,-0.199614,0.047860,-0.228276,0.012369,-0.078481,-0.166283,0.223716,-0.367549,-0.604709,0.032843,0.166478,0.391294,0.310295,-0.041127,0.382901,-0.233925,-0.024784,0.212427,-0.136363,0.131816,0.329728,-0.448357,0.327387,-0.586570,0.047856,0.252619,-0.319250,0.213696,-0.414361,0.143733,-0.421871,-0.257268,-0.173658,-0.148199,-0.333799,-0.597488,0.062809,-0.437796,-0.612979,-0.348330,0.271210,-0.323776,-0.046231,-0.137316,0.420500,0.439110,0.047564,-0.042686,0.308441,0.059931,0.076254,-0.571894,-0.535226,-0.434681,-0.340656,-0.007648,0.040399,0.256226,-0.553271,-0.544720,-0.163434,0.311422,0.320363,-0.034165,0.043687,-0.196828,-0.445846,0.429845,0.221798,0.335889,-0.717237,-0.158213,-0.525675,-0.193297,-0.122504,-0.322110,-0.579402,-0.109151,-0.252818,-0.167810,0.099794,0.073265,-0.389201,-0.006624,0.010950,0.221469,-0.183963,-0.107108,-0.035227,-0.168717,0.171688,0.181019,-0.288035,-0.406886,-0.087499,-0.090099,-0.025546,-0.177715,0.300465,-0.226225,-0.029388,-0.435125,0.101866,-0.149978,-0.447001,0.076790,-0.503166,-0.394069,0.356093,-0.187587,-0.013083,-0.046001,0.291706,0.436915,0.018809,-0.108865,-0.367162,-0.513523,-0.205161,0.135902,-0.591876,0.309589,-0.466442,-0.432241,-0.152290
-0.016108,-0.940774,-0.021521,-0.761934,-0.714273,-0.683961,0.319223,-0.202506,0.479311,0.676920,1.561470,0.819477,0.528003,-0.541415,-0.390742,0.440419,-0.363604,0.575127,0.074495,-0.102175,0.700145,0.717169,0.492116,-0.227155,-0.051183,-0.386891,0.111066,-0.431876,-0.308735,-0.558454,0.625757,0.420110,0.489973,-0.272425,-0.046478,-0.160884,0.297209,-0.140644,0.506677,-0.624716,0.164102,-0.178110,-0.421423,0.315758,-0.108660,-0.011151,-0.367931,0.201630,-0.139863,0.070175,-0.600527,-1.077860,-1.486506,-0.548049,-1.220921,0.132675,-0.485164,-0.891865,-0.232277,0.562457,-0.576865,0.270618,-0.304571,0.880740,-1.153343,-0.761252,-0.429845,-0.221177,-0.393996,-0.616849,-0.734899,0.027953,-0.277210,-0.091644,-0.174823,-0.115112,-0.480004,0.721735,-0.610576,0.278187,-0.371241,-0.516580,-0.059237,-0.121899,-0.224466,0.614393,0.788020,0.757763,0.282654,-0.626074,-0.104149,-0.180538,-0.466531,-0.676712,-0.370746,-0.691079,-0.152558,-1.120650,-0.683869,0.367503,-0.891439,-0.445380,-1.220650,-1.202117,-0.147745,-0.057670,2.043673,-0.235517,-1.086534,0.487004,0.980627,-0.217994,-0.403089,0.744511,-0.038642,-0.503985,0.481939,0.155284,0.461358,0.226457,0.262399,-1.064665,1.343319,-0.128765,0.583959,0.402849,0.123496,0.462085,-0.767442
-0.410591,-0.453890,0.225658,-0.745846,-0.211056,-1.651617,-0.566037,0.610181,-0.083897,1.208579,-0.090126,1.091120,0.644326,0.525283,-0.273510,-0.966897,-0.502451,0.684397,-0.645652,-0.057010,0.205068,1.187880,-1.011352,0.017039,-0.320611,-0.722696,0.422030,-0.575482,-0.753766,-1.029980,1.550998,-0.340257,-0.352455,-0.185657,0.111096,-0.349398,-0.023676,-0.594252,-0.792239,0.275806,0.421599,-0.767100,-0.204655,-0.340071,-0.106558,-0.286657,-2.102428,-1.445049,-0.471951,-0.983535,-0.581402,0.011428,3.265628,-1.203129,0.903388,1.674435,0.194912,-0.552913,-0.304464,-1.948366,-0.710237,0.204042,0.553847,0.734322,-0.575389,0.799939,-0.191057,-0.254500,-0.359996,2.067431,-0.041403,0.308565,0.007426,-1.549563,-0.649225,0.581495,-0.721921,-0.407648,0.631051,1.764231,0.311211,-0.822695,0.142881,-0.150794,-0.631593,0.300621,0.200773,-1.427675,1.211349,-1.231656,-0.663962,-0.271062,-0.358593,-1.631939,-0.070696,-1.193760,-0.068358,0.430649,0.257489,0.661883,-0.276414,-0.154608,-2.590520,-0.105890,-0.274225,-0.425955,-0.011505,-0.076484,0.776476,0.157100,0.494930,0.086474,0.490572,0.831130,-0.297910,0.007368,0.044925,-0.176839,-2.909816,-1.348665,0.223588,-0.663359,0.104684,-1.140695,2.816544,-0.262298,0.686836,0.493858,-0.509100
-0.181734,1.244696,-0.057313,-0.726699,0.160542,1.496424,1.076526,-0.542982,0.005934,-1.394119,-0.079806,0.585588,-0.702657,0.606036,0.728516,0.555512,0.050423,-1.742804,0.470158,0.301146,-2.181736,-2.062054,-0.121607,-0.375393,-0.739508,0.886852,1.136791,0.154219,1.490085,1.648610,-0.005475,-0.087355,-1.155115,-0.764927,-0.594286,0.100465,-0.429294,-0.181588,-0.637862,-0.125795,-1.453988,-0.849747,0.868421,-0.565817,0.424484,1.206656,1.474014,0.586642,0.026138,1.554652,-0.019389,-1.187587,-3.174854,0.794519,-0.469719,0.326807,0.096408,0.180974,-1.025858,1.541691,-0.233072,-0.093217,-0.588961,-0.832364,0.446898,-1.075485,0.146101,-0.434594,-0.318022,-0.259431,-0.149337,0.157043,-0.045591,-0.413490,0.239331,-0.500567,2.727888,0.656275,0.092819,-0.721172,-0.669020,0.819618,0.448936,-0.518952,0.009741,-1.486278,-1.860435,-0.575112,-0.570092,0.290019,-0.496478,2.246851,0.104133,1.128417,-0.257722,0.162655,0.035854,-1.532074,-1.929504,-0.441205,-0.865911,0.557543,0.960038,-0.224009,-0.462708,0.581205,-0.437036,0.305845,-0.307654,-0.567766,-1.201335,-0.173218,-1.322841,-2.358954,0.383097,-0.940899,0.453881,0.110703,2.663895,0.596383,0.059891,-0.357380,-1.147239,-0.032905,-2.191932,-0.761027,-0.088832,0.424910,0.011838
-0.222626,0.475828,-0.388206,0.342699,0.226062,-0.386936,-0.462781,-1.127576,0.044105,-0.905093,0.120337,-0.272811,-0.250119,-0.317788,0.291283,-0.494539,-0.056618,-0.630726,0.319943,-0.783057,-0.253060,-0.268722,-1.145688,0.278578,0.242331,-0.809444,0.371159,-0.475709,0.401667,0.524428,-0.722228,-0.139192,-0.864259,-0.487435,-0.150435,0.121264,-0.254854,-0.362785,-0.565859,-0.129432,0.021607,-0.010421,-0.601768,-0.145326,1.440270,0.551995,0.249674,0.117955,-0.160816,0.617797,0.046542,-0.054091,0.451631,-0.693887,-0.964877,-0.375941,0.083256,0.119977,-0.744366,0.394353,0.308570,0.213851,-0.071906,-0.325806,0.129020,0.571739,-0.578991,-0.645241,0.123381,0.326493,0.260604,0.212475,-0.013271,-0.315690,-1.335310,-0.361954,-0.160328,-0.643073,0.851472,0.250440,-0.751297,-0.469404,-0.135828,-0.079790,0.154437,0.417346,-0.046650,-0.288164,0.014289,0.181981,-0.444547,-0.241416,0.241326,0.388218,-0.182815,-0.580357,-0.312236,0.158317,0.655780,0.642794,0.396406,-0.003624,0.319305,0.416777,0.001991,0.209502,-0.547543,-0.537511,-0.054942,0.139958,-0.636111,-0.256059,-0.301329,-0.728346,0.143808,-0.071010,-0.285188,0.005201,-0.362786,-0.072197,-0.396117,-0.732664,0.480375,-0.324360,-0.895425,0.132042,-0.539185,-0.335946,-0.311764
-0.397168,0.940709,-0.095777,1.405589,-0.488583,-0.208042,-0.237228,-0.291650,0.623877,-1.557133,-1.747463,-0.220915,-0.490463,-0.058976,0.479831,0.094280,0.587817,-2.133094,0.222564,-0.068582,-2.286340,-0.912308,-0.820181,-0.142384,-0.417679,0.184759,1.287983,-0.201641,0.097662,1.248935,-0.575507,0.123564,0.372560,0.325356,-0.220079,-0.254463,-0.533360,-0.064104,-0.098060,-0.113410,-0.129527,0.049050,-0.295608,-0.384598,-0.914127,0.624674,-1.081575,-0.720647,-0.347215,0.406190,-0.409727,0.971311,-0.376108,-0.716132,-0.431867,0.307233,-0.254059,0.552278,-0.283251,-0.750067,0.378073,0.315998,1.016510,0.254630,0.660208,-1.205114,-0.052235,-0.901732,-0.152930,-0.299502,0.593126,0.506105,-0.185611,0.432888,-1.140784,-0.152305,0.135947,-0.303517,0.283423,-0.583909,0.286038,0.475429,-0.397825,-0.449923,-0.121407,-0.312791,-1.053986,-0.126356,-0.138539,0.611120,-0.412988,-0.331786,-0.151001,0.386800,0.260390,0.427722,-1.112241,0.068550,0.200140,-0.154196,0.779513,-0.187272,0.156299,0.987873,-0.377383,-1.468742,-0.099148,-0.815580,-0.235342,-0.043236,-1.473922,0.141437,0.351446,-0.925720,0.257822,0.262881,-0.264212,0.320832,0.451755,-0.487634,0.283032,-0.237521,-0.900497,-0.384080,-1.204005,-0.029588,-0.106721,-0.104640,0.290579
0.139076,0.132615,0.255918,0.108118,-0.894976,-0.523970,0.066597,0.985024,-0.555608,0.147235,0.873656,0.498395,0.810087,1.366925,-0.338015,-0.170771,1.102486,-0.642941,0.404410,1.021465,-1.361927,-0.674161,-0.628010,0.439814,-0.793379,0.258977,1.165014,0.940620,-0.516686,-0.859307,1.296644,-0.260533,0.564768,-1.498357,-0.861786,-0.451884,-0.268234,-0.770949,0.131592,0.689977,0.731409,0.300048,-0.055589,0.078987,-0.138596,1.027259,-0.756130,0.348516,0.722414,0.911116,0.164441,-0.061418,-0.843461,-0.597296,-1.839152,-0.680769,0.208820,-0.299124,-0.511726,-0.001438,-0.276913,-0.212018,-0.724396,1.415408,0.125226,-0.791011,-0.174465,0.509377,0.217106,0.282543,-0.447088,0.440451,-0.352555,0.319472,0.498203,0.172753,0.089400,0.576877,-1.657685,-0.782680,0.413566,1.169714,-0.506708,0.143718,-0.664713,0.403212,-0.185957,-1.124733,0.716709,-0.372200,-1.551961,0.375094,0.495528,-0.839321,0.106494,-0.965799,-1.354447,-1.635933,-0.569809,-0.277464,-1.892277,-0.176360,0.308763,2.273378,-0.704699,0.203848,0.937982,-0.494265,-1.610426,0.122953,-0.986875,-1.378978,-0.498220,0.477130,0.248490,0.119717,-0.386484,-0.300347,-0.478642,-0.657203,0.449646,0.329201,0.204115,-1.220733,-0.412530,-1.010938,1.985820,2.153715,-0.226682
0.131597,0.313630,-0.138549,0.646223,0.203407,-0.751743,-0.285093,0.321645,0.506171,-1.454335,-0.318835,-0.364133,-1.059420,-0.209606,0.164672,-0.890500,0.095673,-1.007738,0.334068,-0.369413,-0.973471,-0.538197,-0.790002,0.118326,-0.482493,-0.393348,0.252086,-0.648363,0.084493,0.887214,-0.301616,-0.053640,0.020723,0.300390,0.239551,0.281352,-0.490103,-0.426399,-0.408590,-0.111028,0.423196,-0.603850,-0.534963,-0.175530,-0.095103,0.503878,-0.094885,0.237741,-0.407077,0.756659,0.700774,-0.344367,0.561328,0.343500,0.952034,0.169839,-0.515233,0.907314,-0.044114,-0.359665,0.767240,0.210523,0.018327,-0.087155,0.414783,-0.617321,0.292517,-0.418466,0.185499,0.376803,0.067492,-0.272913,-0.096833,-0.401209,-0.219695,0.113874,0.317833,-0.284219,0.533764,-0.056198,-0.674973,-0.393260,0.314396,0.039767,-0.273456,0.000799,-0.534553,-0.524592,0.396457,0.717812,-0.590801,-0.371711,-0.185351,0.424812,0.218694,-0.214253,-0.536241,-0.082452,-0.453853,0.313415,-0.192754,0.282615,0.481100,-0.496677,-0.132918,0.229820,-0.827085,-0.550106,0.343379,-0.028023,-0.998828,0.062008,0.934933,-0.679102,-0.280169,-0.281448,-0.207395,0.100381,0.294776,-0.213970,0.276966,-0.547405,-0.111948,-0.120626,-0.375438,-0.142043,-0.475524,-0.304340,-0.102940
0.500112,-0.475112,0.194061,1.108769,0.657325,-0.917439,0.278619,-0.287918,-0.137493,-0.379813,-0.954130,-0.197228,0.334218,0.064405,0.669913,0.745895,0.964877,-0.545509,-0.165303,0.314089,-0.980953,0.362385,-0.416724,0.341834,0.427699,-2.111883,0.716865,-0.023188,-0.756537,-0.838467,-0.775912,0.206314,0.854952,-0.272487,-0.954100,0.139193,0.255111,-0.535057,0.576630,-1.696270,0.090693,0.285903,-1.206884,-0.452878,-0.037608,-0.001546,-0.202065,-0.137975,0.343846,1.030789,0.958620,-0.574740,-0.534538,-0.176771,1.100776,-0.404247,-0.393022,-0.757185,-0.317082,-0.241183,-1.750685,-0.325281,-0.023028,0.270032,-0.247929,-0.463889,0.185256,-0.444985,0.197186,0.540818,-0.325955,-0.447347,-0.556061,1.516692,-1.067854,0.165266,-1.132301,-0.339650,-0.130357,-0.791836,-0.182831,0.449386,-0.594990,-0.476277,0.031583,0.866716,0.933069,1.195164,0.106920,0.033404,-1.389304,-0.316952,-0.258404,0.316796,-0.284602,-1.278976,-0.703834,-1.208297,-0.351260,0.397999,-0.938166,-0.593003,0.951146,-1.029763,-1.175699,0.553907,1.306432,-0.522434,-0.078582,0.395051,0.259189,-1.314151,-0.322893,0.206791,-0.133913,0.466268,-0.316163,0.189238,0.016443,0.578791,-0.372072,-0.233210,0.745472,-0.726374,-0.009192,-0.031866,0.484637,0.245473,-0.340045
0.206285,0.212769,0.243317,-0.377351,0.295295,-0.075805,-0.132083,0.225593,-0.287261,-0.386947,-0.704007,0.074181,-0.049985,-0.478113,-0.061752,-0.634205,-0.274867,0.184960,-0.108823,0.044295,-0.293553,-0.465475,-0.556726,-0.542352,-0.417711,-0.559976,0.404789,-0.414098,-0.452608,-0.220387,-0.255190,-0.159018,-0.555489,-0.215431,-0.219055,0.368457,-0.072360,0.122854,-0.531444,0.018732,0.375644,0.377654,0.003163,-0.111938,0.346669,0.078197,0.270999,-0.082963,0.110097,0.265873,0.150819,-0.397602,0.021572,-0.357616,0.322628,-0.441068,0.122938,-0.091600,-0.085538,-0.193344,-0.454674,0.196034,0.312564,-0.554044,0.033280,-0.036711,-0.411032,0.151165,-0.231402,0.099315,-0.453385,0.102184,0.079746,-0.540985,-0.285017,0.078931,-0.020599,-0.044314,0.103889,0.227730,-0.157453,-0.025716,-0.319954,-0.007650,-0.268532,0.394862,-0.452666,-0.030244,0.383167,-0.446591,-0.365236,-0.026182,-0.241305,0.116066,0.291685,-0.265150,0.302695,-0.065022,0.004624,0.062359,-0.237167,-0.371315,0.032002,0.163088,0.074913,0.450034,-0.359559,0.401921,-0.055854,-0.434955,-0.180638,-0.004339,-0.043567,0.314522,0.240384,-0.323918,0.014634,0.381618,-0.358460,0.045943,-0.063062,0.190922,-0.284145,0.159770,-0.050994,-0.253317,0.262732,-0.281150,-0.092962
-0.009886,-0.746190,-0.294916,-1.168093,-0.499942,-0.913301,-0.422886,1.661845,0.004171,1.694015,-0.015916,0.651904,0.362985,-0.531343,-0.407671,-0.265966,-1.220147,1.318115,-0.848327,0.491238,1.529620,0.084251,0.906557,-0.719610,-0.187077,0.327738,-0.473912,-0.254632,0.316054,-0.500945,0.667102,0.320736,-0.486227,-0.589979,-0.194945,-0.200628,-0.366605,0.949964,0.525731,0.351231,-0.938825,-0.567312,-0.052315,0.171125,-0.270914,0.725058,-1.497933,1.015504,0.163337,-2.089978,-0.565592,1.145546,0.860153,0.173875,0.891398,-0.401053,-0.435313,-0.032919,0.560560,-0.909579,0.410602,0.175364,-0.441543,-1.121724,-1.308270,-0.498043,0.669480,1.500919,0.216835,-1.058970,-1.148883,0.069680,0.357165,-1.040106,-0.580595,-0.442511,-0.626412,0.642727,-0.650341,0.576122,0.481565,0.335758,0.044916,-1.594520,0.671365,-0.489443,-1.518347,-0.653686,-1.223273,-1.806543,0.397576,-0.482868,0.004895,-1.356890,-0.291488,-0.815172,-0.183024,0.371480,0.879389,0.245390,0.030904,0.048861,-1.189507,1.749123,-0.367317,-0.002442,0.334696,0.075851,-1.204618,-1.117322,-0.137898,-0.059170,-0.357262,0.860228,-0.118060,-0.599935,-0.086563,-0.169163,-1.317924,-1.283981,-0.112224,0.223534,-1.602216,1.415672,1.893798,1.304118,-0.421625,-1.422617,-0.845282
0.490400,0.396529,-0.455915,0.468515,1.473107,-0.714315,0.143588,-1.873861,0.020672,-0.314715,-0.283584,-0.925275,0.629970,0.545929,-0.144677,-0.059042,0.573518,-0.604273,0.146901,-0.465427,0.074812,-1.931494,-0.672312,-0.419145,0.658017,0.179586,0.548455,-0.728230,1.127746,0.529620,-0.784685,0.379575,-0.387990,-0.111771,-0.159702,-0.486009,-0.448681,-0.602528,-1.282449,-0.492460,-1.118678,0.754973,-0.008562,0.169126,0.025735,0.156524,0.608963,-0.960990,-0.627066,-0.920708,-0.474063,0.178426,-1.248413,1.407056,-1.133696,-0.488472,0.223453,-0.007785,-0.401716,0.587705,0.986875,-0.146832,-1.181936,-0.535314,0.884567,0.180403,-0.459899,0.206396,0.019562,-0.152580,-0.717851,-0.282724,-0.288100,0.090842,-0.384913,-0.262789,0.859218,-0.576260,0.376997,-0.390859,0.640034,-0.450821,-0.031752,-0.707574,0.128466,-0.121526,-0.255715,0.076329,0.107410,1.563735,-0.621112,0.749620,-0.035592,1.024760,-0.477960,-0.347798,-0.639506,-0.904632,0.038943,0.355333,-1.142206,0.356992,1.077511,-0.412870,-0.389819,-0.224765,-0.478489,-0.151677,0.082347,-0.854200,-0.847356,-0.634813,-0.838240,-0.444213,-0.036521,-1.027292,-0.153426,0.438408,0.739579,0.935217,0.453717,-1.221406,-0.479694,-0.467733,-2.084406,0.286768,-0.379900,-1.071522,-0.532326
-0.479218,-0.858445,0.091725,0.453546,-3.046233,0.962606,-0.972567,1.057154,0.713673,-0.661834,1.206449,0.560082,-0.933125,-1.934169,0.263921,0.493719,0.731502,-0.423809,-0.027594,1.459694,-0.958519,1.488269,-0.192116,-0.012408,0.296712,0.343739,0.910077,0.540227,-1.015578,0.730949,0.843230,0.168605,-0.906693,-1.417945,-0.610093,-0.290547,0.392840,-0.526819,1.493058,-0.237889,1.535893,-0.788954,-0.591843,-0.312694,-0.934274,1.515811,-0.485714,1.593781,0.341302,0.917876,-0.343970,1.115155,0.988807,-2.191907,-0.203124,-0.246378,-0.570514,-0.464773,-1.005738,-0.761103,-1.710372,-0.074197,0.899675,1.084030,-1.208945,-0.889022,-0.072654,-0.251102,-0.241694,-0.630519,-0.431037,0.060066,0.179458,1.074467,-0.991131,-0.224401,-0.942220,-1.819430,-2.294729,-0.893486,-0.772317,0.734251,0.484390,-0.035338,0.218505,0.311047,-0.152074,0.004074,-0.079329,-1.258147,0.932458,-1.925004,0.221100,-0.417293,0.245008,-2.083333,-0.552190,2.240073,0.507156,-0.357958,1.089049,0.063355,-0.217096,1.639298,-1.136132,-1.162567,0.877768,-0.848499,-1.258884,1.949491,-1.140868,-0.498250,0.377118,0.138899,0.171052,2.446694,-0.397508,-0.404806,-1.062455,-0.090179,0.159410,1.155890,1.602326,1.136154,0.859988,-0.873638,0.329268,1.003575,-1.244298
-0.277178,0.045373,-0.372062,0.596103,0.231614,0.045857,1.119445,0.009957,-1.202078,-0.378442,0.915899,-0.479042,0.520367,0.766868,1.792218,0.700414,0.498463,-0.785238,0.460716,0.383003,-0.785245,0.006688,0.429184,0.273029,-0.428970,-0.538101,0.438142,0.192592,-0.085111,-0.075517,-0.581083,0.037587,0.704012,-1.083843,-0.158137,0.084735,-0.511894,-0.194997,0.376785,-0.054689,0.825194,0.039099,-0.487174,-0.007723,-0.529158,0.391316,-0.167895,0.063728,-0.406516,0.678636,0.439356,-1.267189,-2.428866,0.062344,-0.471739,-0.341317,-0.392827,-0.200856,-0.264376,0.059261,-1.410810,0.124247,0.094052,0.317900,0.179251,-0.690379,-0.180291,-0.046455,-0.226077,-0.005514,-0.194418,-0.218342,-0.303473,1.026958,0.298038,0.088077,0.567495,0.976630,-0.733704,-1.167119,-0.446813,1.538424,-0.582429,-0.151462,-0.604579,0.285067,0.098696,0.275384,-0.715343,0.141563,-1.771525,0.357830,0.485916,0.017746,-0.203345,-0.598821,-0.496279,-1.417452,-0.526722,-0.622656,-1.457158,0.080237,0.881831,-1.631303,-0.869722,0.822684,0.748372,-0.412668,-1.768921,0.252105,-0.692316,-1.268577,0.259746,0.240468,0.445895,-1.374026,-0.156447,0.273477,0.098189,0.486545,0.376827,0.478101,0.303784,-0.802072,-0.031636,-0.857986,0.429432,0.843736,-0.836336
0.416609,0.381913,-0.353854,-0.564497,0.018789,-1.401797,0.300134,-0.525805,-1.031074,-0.010356,-0.305768,-1.647321,0.121889,0.746127,-0.206960,-0.152182,-0.338192,-0.026392,0.474112,-0.630585,0.105717,0.235998,0.853374,-0.010600,-0.237301,0.174549,-0.910510,-0.037279,0.285571,-0.424528,-0.932171,-0.063703,-0.150797,0.100164,-0.292290,0.110061,-0.265890,0.532171,-0.525927,-0.504204,0.133318,-0.883227,-0.109393,-0.160609,0.206672,-1.866279,-0.157001,-0.288904,-0.165609,0.270078,0.437717,-1.405240,1.407916,-0.522293,1.059327,0.045506,0.319862,-0.623330,-0.439820,-0.239218,-1.010184,0.468810,0.088485,-0.238511,0.328053,-0.000432,0.190080,0.067243,0.355072,1.385959,0.147724,0.227410,-0.412586,-0.961802,0.435636,0.304721,-0.124481,0.393620,0.792198,-0.162796,-0.717801,-0.006742,-0.676356,-0.372987,-0.670397,-1.162570,0.809528,0.091603,-1.643702,0.168698,-1.328618,-0.318861,-0.413487,-0.003515,-0.077955,-0.089855,0.520688,-0.377475,-0.669943,-0.144607,0.159183,-0.395691,0.696982,-1.802298,-0.109714,0.169953,-0.656756,-0.426229,1.620861,-0.477077,0.609001,-0.428502,0.037016,0.135999,-0.240226,-0.662707,0.294643,-0.016780,-0.404969,0.365928,-0.136676,-0.092361,0.100600,-1.206126,-0.119196,0.043857,-0.258019,-0.303969,-0.000041
0.026891,-0.745189,0.497707,-0.120800,0.841687,-0.499740,0.274756,-0.767919,0.421015,-0.613183,-0.514169,-0.573953,0.036150,-0.610324,0.161966,0.206618,0.561583,0.118277,0.374344,-0.447065,0.687074,-0.674998,0.120603,0.340470,1.300236,-0.425492,0.167051,0.078758,0.506924,0.195072,-0.572379,-0.315354,-0.353985,-0.818908,-0.815671,0.120748,-0.286413,-0.160227,-0.453096,-1.147842,-1.088904,1.358742,-0.410005,0.146517,0.701128,1.195219,0.392567,0.840222,-0.267916,-0.679539,0.097695,0.214221,-1.211313,0.382673,-0.747490,-0.803972,-0.227911,-0.738155,0.194187,0.548708,0.398245,0.330697,-1.373884,-0.610269,-0.404537,0.408989,-0.104386,0.314495,-0.681137,-0.225640,-0.400592,-0.507447,-0.095287,1.103112,-0.825965,0.199437,0.048643,0.003948,-0.146181,-1.127805,-0.179379,-0.208725,0.256809,-1.088851,-0.480569,0.205572,-0.245787,0.884544,0.327465,0.384408,-0.112784,-0.139518,-0.318858,0.844475,0.013128,-0.448752,-0.252994,-0.754131,0.824863,0.504547,0.309150,-0.531177,1.471394,-0.410869,-0.537006,0.465605,-0.108740,-0.175613,-0.486068,0.087995,0.087159,-0.843416,-0.326502,-0.536322,0.356712,-0.292600,-0.130196,-0.180426,0.641588,0.269594,0.194273,-0.362075,-0.122852,0.762196,-1.793709,0.369918,-0.910358,-0.689384,-0.253611
