3.357363,-0.287224,1.098318,-0.577618,-0.420778,-0.003246,0.407073,-0.303368,-0.246924,-0.362886,-0.635290,-0.257584,-0.320241,0.056527,-0.878184,0.405583,-0.450142,-0.773747,-0.326177,0.312540,0.064673,-0.313285,-0.277587,-0.449114,0.150764,-0.810414,-0.718523,-0.507152,-0.177346,-0.073045,-0.561294,-0.670750,0.043636,1.345089,-0.545258,0.023062,-1.829112,-0.460390,-0.660576,-0.233134,-0.606072,0.491584,-0.206335,0.522732,-0.366244,0.669653,-0.448914,-0.249078,0.354825,0.764011,-0.418208,-0.849018,0.346752,0.362986,0.906875,0.240165,0.237777,0.296578,1.275811,-0.211560,-0.270993,1.084648,0.069076,-0.238354,0.239685,-0.749245,-0.515577,-0.584316,-0.001685,0.355593,-1.008145,0.312227,-0.038845,0.655655,1.564267,1.411876,-0.083341,0.443033,-0.765627,0.039035,-0.453023,-0.309833,0.165480,-0.617663,-0.175722,-0.320612,0.114372,-0.060679,-0.594199,-0.223530,0.356320,-0.182682,0.188887,-0.445871,-0.375608,-0.716905,-2.192632,-0.639616,0.430961,-0.037454,-0.426205,0.151414,-0.471305,-0.239573,-0.431095,-0.353259,-0.294910,0.045823,-0.465357,0.140657,-0.552656,-0.948555,-0.143957,0.854873,-0.412187,-0.647064,0.751350,0.096962,-0.855462,1.551651,0.073655,0.176062,0.308508,-1.095524,-0.503803,-1.155293,0.073038,-0.731641,-0.060497
-0.602587,1.252720,-1.360839,-1.213042,0.123655,-1.190696,0.341149,0.610385,-2.256965,-1.142667,-1.324722,0.283818,0.210771,-1.434050,-2.299622,-0.718958,-0.185455,-0.766093,-0.222840,-0.473988,0.363140,-0.351834,0.628491,2.037057,-1.192663,-1.540636,-1.566751,-0.181570,0.223430,0.712394,-0.001120,-0.247638,1.630954,-0.854443,-0.139948,0.048206,0.828991,-0.679501,0.415323,-0.025643,-0.226363,-0.077750,-0.697468,-0.416327,1.783892,0.600546,-0.555223,0.899625,-1.334848,-1.200414,-0.397934,-0.889990,-0.344132,-0.977030,1.088634,0.219549,0.103849,1.392526,1.880285,-0.621388,-2.112350,-0.500424,-0.847709,-0.599901,0.153021,1.811032,-0.657314,-1.060552,-0.438269,-0.035164,0.175745,0.610683,-0.683626,-3.222990,-0.837068,-1.156200,0.005209,0.070428,1.178939,0.008259,0.063851,-1.526635,-0.526563,-0.649062,1.148589,-0.900219,0.042336,0.464509,-0.560282,-0.190490,0.772910,-0.326908,-0.106315,1.118693,-0.482300,-1.045632,0.783733,0.090846,-1.891019,-0.314564,-1.598988,0.279142,-0.743816,0.213123,-0.255578,0.017350,1.621510,2.358631,-2.210436,-0.776780,-0.614844,-0.990632,-0.723100,0.266240,-1.463549,1.341619,-0.597005,-0.466618,-0.104475,0.752342,-0.245110,-0.065743,2.047546,1.273282,-0.203874,1.196777,0.167926,-0.610431,-0.623191
-1.123926,-1.022895,-0.708338,1.285722,0.914438,-1.501717,1.434632,0.515386,1.073822,1.115912,0.259150,-0.315890,-0.168119,1.239884,-1.086011,-0.268711,-0.339365,0.162639,0.163215,0.166917,0.499399,2.647891,0.201523,-0.086516,-0.335232,1.422474,0.058911,-2.244625,-0.401023,0.126583,-0.489909,-0.365381,1.270353,-1.190771,-0.106374,0.207101,0.608228,0.788488,0.426216,-0.814697,-0.764588,-0.101822,0.365323,-1.277160,0.565617,0.810004,-0.545675,1.628474,-0.542801,0.516565,-0.085985,0.130246,0.461816,0.175833,-0.654489,-0.056203,-0.449099,-0.549447,-0.023679,-0.187243,0.318889,1.205351,-1.176381,-0.353932,-0.418258,0.564394,1.143105,0.304584,-0.744396,0.352807,1.025190,0.290194,-0.641993,-0.481735,0.436824,-0.255047,0.328465,-1.154778,0.256950,-0.718721,-1.004385,0.231176,-0.805869,-0.861179,-0.411097,0.247936,-1.042364,-2.160314,0.202031,1.441468,-2.836872,-1.532402,-0.293329,-0.453511,-0.000981,-0.697879,-1.102656,-0.410689,-0.265727,-1.016513,-0.746585,-0.003062,-2.144340,-0.609662,-0.108301,-0.439260,-0.930581,-1.477776,0.370595,-0.706841,0.060419,1.259158,-0.746137,-0.104956,0.560643,-0.798369,-0.866787,-0.375534,0.011798,-0.436124,-0.421492,-0.921536,0.764863,0.759231,0.243499,0.610964,-0.663333,0.208738,-0.579822
-1.197498,0.752706,1.365251,0.045526,0.351169,0.511931,0.982605,0.623483,-0.785319,-1.563755,0.176754,-0.734584,0.087187,-2.745199,0.546026,-0.976283,-0.236921,-0.998230,-0.003684,-0.723841,-0.408085,-0.775520,1.969065,-0.722951,-1.938568,0.193610,-1.126788,-0.005594,0.006531,-1.138761,-0.379558,-0.498192,1.470795,0.266978,-0.154556,0.278083,0.472030,0.331947,-1.044682,-0.096786,-0.176136,-0.161188,0.079795,-0.980370,0.109110,0.195385,-0.988946,-1.128735,-0.760196,-1.161818,-0.531533,0.393312,1.108814,-0.224393,-1.697034,-0.317630,-0.461796,-0.151999,-3.317834,-0.727298,1.888922,-0.924078,-1.270800,0.858744,0.209065,-0.270450,-0.048832,-1.044945,-0.304047,1.337181,1.663025,0.276173,-0.205754,0.344289,1.210048,-1.031861,0.382139,-0.407493,-1.416847,-0.159746,0.222859,-0.486323,-0.235527,-1.018012,0.056613,0.045508,-0.756444,-1.228029,-0.455610,-1.766470,2.618738,1.585932,-0.308786,0.191534,0.426806,-0.748848,1.505376,-0.371509,-0.153018,-0.184017,2.567460,-0.413739,1.590136,0.016932,-0.096154,-0.455736,1.104138,-1.120560,0.998308,0.982439,0.051409,0.715755,-0.855963,-1.006680,0.170930,0.347587,-1.449400,-0.427943,-1.117423,0.390569,0.286798,-1.931755,-1.172459,1.684470,-1.204572,1.156754,-0.195587,0.234833,0.077122
-0.557697,1.784465,-1.087814,1.178696,-0.142638,-2.977635,0.890091,-0.305402,-3.110610,2.074121,1.254094,-0.004251,-0.332805,-0.164569,-0.243680,0.088394,-0.445627,0.388561,0.486993,0.011147,-0.480405,-2.356551,0.450797,-0.769169,-0.376549,0.503865,0.481517,0.959903,1.207378,-1.212393,-0.300359,-0.132923,-1.119425,0.600560,-0.289859,-0.162025,-0.121987,0.327405,0.378323,-0.498366,-0.650547,-0.178576,-0.021732,-0.156590,-2.127824,0.160509,-0.360081,-0.900694,-0.906771,-2.065619,0.132887,1.042764,0.691876,0.078838,-0.090585,-0.233020,-0.413154,-0.117541,0.914657,-0.048232,0.156312,-0.635167,0.018390,-2.546210,-0.023607,0.166585,0.367538,0.287881,-0.153232,-0.350014,-0.199212,-0.028824,0.004782,-0.992379,0.245124,1.340421,0.270971,-1.377419,-0.312062,-0.353348,2.488630,-0.646771,0.030126,-0.134827,-0.824281,-0.765016,-0.723811,-0.713688,2.429196,-1.680053,-0.599730,-0.522032,0.073181,-1.295952,0.348440,-0.142096,1.773296,-0.459298,-1.076143,-0.790689,-0.551287,-0.959275,0.025328,-0.223392,0.046315,-0.006939,1.214552,2.843296,-1.745051,0.129075,0.117587,-1.697748,-0.661774,0.366379,-2.067420,-0.863355,0.321941,0.092023,-1.107331,0.198316,0.475484,-3.333299,-0.751840,-0.875474,1.972167,0.393132,-0.297782,3.261999,-0.673081
1.258937,-0.142590,-0.115806,1.144561,-0.632782,1.154472,-0.420416,-1.916634,-1.920052,1.363192,0.484174,-0.331445,0.231304,-0.185772,0.341564,2.335917,2.256974,-0.465487,-0.072562,-2.019681,-1.233307,-2.588672,1.801415,-0.365155,-0.787306,2.691666,-1.429335,0.179107,1.963400,-0.327857,-0.393650,-0.199502,0.619149,0.460831,-0.423676,-0.442615,0.532154,-1.548911,0.783607,-0.816487,-0.274180,0.483574,-0.368124,-1.133274,1.148905,-0.884755,-2.758469,0.125811,1.580042,-1.113378,0.235169,0.818987,2.384663,1.502731,0.027174,2.303710,-1.029850,-0.620567,2.180962,-0.291638,-0.829692,-0.855948,0.426804,-1.140481,0.063758,-1.394176,-0.060206,-1.345443,-0.966809,-1.206628,-0.038247,-0.540842,-0.778046,-0.757643,1.804120,0.054541,-0.231200,-0.656930,-0.043096,-0.430279,-0.687237,-0.084102,-0.287434,-0.139367,0.274785,0.528944,-0.753226,-1.186204,0.158101,0.808668,-0.922081,0.054505,0.463291,0.518080,0.461651,-0.316319,0.754655,-0.492137,-0.553586,-1.034815,0.375039,-0.364602,-0.502505,0.108696,-0.857178,0.169535,0.754001,0.295605,-1.134824,0.383014,0.278133,1.733112,-0.235305,-0.180323,1.219061,-1.365105,0.297134,0.495928,0.886222,-0.426878,-0.026045,-2.044093,-0.779877,-1.631087,-0.182631,-0.239946,0.262998,1.910210,-0.749806
-0.652511,-0.987062,-1.610389,-2.431005,0.999650,-0.330018,-0.255904,1.356157,2.197045,0.076450,1.769344,-1.209568,0.285029,-2.260623,-0.772137,-0.381665,-0.167354,-1.323810,0.041761,-0.797192,0.132801,-0.502598,-0.937164,-2.395747,0.353618,-0.959498,-2.423813,2.245758,-0.539085,0.200279,-0.033221,-0.531682,-0.810507,-0.352196,-0.137132,-0.265147,0.160151,0.316093,-1.969538,-0.627470,-0.027445,0.371474,-0.680485,1.797375,-0.492866,0.184536,-0.320916,0.502044,0.066333,-0.061836,0.474358,-1.122840,-0.594842,-0.757621,-0.134865,-0.027847,-0.342194,-2.025544,0.229870,-0.089220,-0.045144,-0.251720,2.080906,-0.578640,-0.122743,2.398799,-0.251542,-1.098797,-0.286180,-1.154825,0.253308,-0.114246,-0.516213,-1.557587,0.507517,0.198310,-0.377900,0.177773,1.634453,-0.445625,0.199540,1.130784,-0.059023,0.267404,0.798417,-0.862208,-0.373260,1.725763,1.600129,0.415219,1.470816,-0.174787,0.436030,-0.733545,-0.421629,1.201377,0.047528,-0.370188,0.053176,-0.020825,-1.439541,0.139099,-1.277403,-0.467138,-0.525967,0.098555,2.104986,-1.521546,-0.547282,-0.421314,0.605749,-1.429225,-0.476694,0.088468,-0.769355,-1.752911,-0.200797,0.224877,-1.612130,0.366036,0.286119,-1.283937,-1.235908,-1.401639,0.649956,-0.854847,0.003213,-0.543943,0.070653
0.695412,1.105585,-1.942741,1.365851,1.436284,1.449955,-0.798531,-2.060277,1.945585,-0.199278,-0.119904,1.117630,-0.300870,-1.668509,1.255699,-2.284814,0.007349,-1.329258,-0.361665,-0.799900,1.434953,0.189555,0.817530,0.890116,-1.757491,-0.678440,-1.926593,1.636835,0.153672,-1.183654,-0.132379,-0.275705,-0.522220,0.636623,-0.057738,-0.011921,-0.442974,-2.578448,0.246430,0.120684,-0.272460,0.031269,-0.688754,-1.289067,-0.573875,-1.595010,1.506455,-0.329253,-1.065303,0.947898,-0.529867,0.951735,0.700801,0.712541,-0.634619,-0.133987,-0.257424,1.024924,0.625167,-0.107766,0.867182,1.670310,-0.418068,-0.181925,-0.390064,1.210094,0.718074,-1.451125,-0.284267,-1.844400,-1.587427,-0.488520,0.243600,-1.210946,0.748978,-1.064337,-0.112058,1.309588,-0.613531,-0.299022,-0.214643,-0.509727,-0.400666,-0.311364,1.413654,-0.731811,-0.479310,0.477195,-0.903167,-3.066193,0.643703,-1.982554,-0.445406,-0.096547,-0.192550,-0.175806,0.511075,-0.590295,-2.220157,-0.288091,-1.012455,-1.873077,-1.679948,1.423191,-0.458202,-0.036206,1.140827,-1.926570,-0.606968,-2.068917,-0.028461,-0.870774,-0.653673,0.332199,-1.564449,-0.401851,-0.377596,0.156383,0.789027,-0.187408,0.316017,-0.700740,0.025604,-0.968823,0.309784,-0.406878,0.146965,1.039827,0.008656
-2.038777,0.830602,0.735083,-0.850499,1.552499,-1.594587,-0.273909,0.732310,0.279921,0.377017,-0.226223,-0.374227,0.005359,-0.122829,-0.659784,-0.959253,0.571645,1.191930,-0.418326,-0.398377,-0.206566,0.118618,-1.538494,0.720540,-0.379435,0.841024,0.910114,0.445178,-0.027729,-0.005899,0.140455,-0.380144,-1.359354,0.719650,-0.538217,0.391688,0.848839,0.320755,-2.222050,-0.428967,0.219123,-0.427377,0.640483,-0.373247,-0.303662,0.198811,-0.660772,-1.391122,0.407943,0.315437,0.417089,-2.668949,0.077544,0.395984,-1.724755,1.017948,0.047006,-0.183238,-1.081427,-0.200299,-0.004514,0.677580,-0.636037,-0.886003,-0.435157,0.721905,0.041512,-0.220664,0.136448,0.643494,-1.681330,-0.241922,-0.573263,-0.819740,-0.308064,-0.448728,0.145922,-0.185942,0.291236,-0.230401,-0.241686,-0.097535,-0.270685,-0.637782,-0.199530,0.072309,-0.491921,-0.774997,-0.001094,0.971172,-1.020469,1.719311,-0.271669,2.210098,0.460840,-1.272858,0.620978,-0.427642,-0.330336,-0.697477,-1.265845,-0.773588,-2.290842,-0.015822,-0.508934,0.274275,-0.336941,1.230489,0.120888,0.486676,0.219642,2.353390,0.052239,1.562867,-0.058488,0.037944,-0.296950,0.141094,-1.291079,-1.572847,-0.105192,0.745252,-0.715686,0.298699,-1.426958,0.432676,-0.169099,0.489659,-0.009972
1.636523,0.046429,-0.088175,0.772063,1.070981,-0.756807,1.239658,0.482344,0.084361,-1.033256,0.004672,-0.238689,0.177415,0.227749,1.027063,-0.094297,-0.029906,0.074568,0.329043,-0.547755,-1.653320,-0.312232,1.714943,-0.121168,-0.138836,-0.426867,-0.464269,0.405314,0.595408,-0.261667,0.061532,-0.214441,-0.078507,-0.905105,-0.883851,0.383372,-0.217387,-0.896787,0.760622,-0.331416,-0.807150,-0.466815,0.034569,0.873529,0.976511,-0.406710,1.442357,-1.362514,-0.119908,-1.582337,0.098095,0.445837,-2.877530,0.323518,-0.919908,-0.002987,-0.322857,0.022975,2.252919,-0.575106,-0.745760,-0.177979,0.703973,-0.599887,0.412763,-0.011820,-1.974951,1.982804,0.032254,-0.911103,-0.143708,0.375672,-0.562275,1.501189,-0.228417,-1.322212,0.099657,1.241479,-0.566752,-0.591570,0.095545,-0.759776,-0.020854,-0.738083,1.331076,1.100412,-0.090457,2.784100,-1.113410,0.949307,-1.002343,-0.707943,-0.293874,0.256905,0.440688,0.307762,-0.453561,-0.232206,0.043769,-0.871328,0.729730,0.005974,-2.023280,0.347495,-0.510697,-0.003488,-0.521974,-0.359375,0.193772,-0.179726,0.036911,-1.206801,-0.767152,-0.208965,-0.902112,-1.441129,1.437361,0.088024,0.402963,0.558499,-0.189481,-0.343435,-0.742465,0.369899,0.075091,-0.831707,0.288858,-0.566350,-0.441066
-0.173524,-1.069969,0.944382,-0.684893,0.039480,2.721904,0.358068,0.953373,0.323268,-0.922950,-1.844142,2.011971,-0.282541,0.837994,0.087432,-2.077475,-0.332325,1.188984,0.297265,-0.466697,0.029614,-0.273735,-0.023648,-0.185034,1.939278,1.805433,1.041077,-1.007763,0.581645,0.148948,-0.606183,-0.631916,0.383492,-0.233620,-0.331475,-0.100757,0.413804,-2.028751,0.514633,-0.716348,0.093471,0.167786,0.072387,0.758375,-0.870343,-2.112404,-0.206182,0.719987,1.658335,0.704582,-0.303932,0.007913,-0.946681,-0.119318,0.222703,-0.490369,-0.695102,0.062471,-1.358735,-0.382121,2.838596,0.200617,0.232547,0.728489,0.495037,0.782629,-0.252054,-2.560547,-0.666234,1.128360,-1.106539,-0.247502,-0.043989,-1.390151,-0.496792,0.743336,0.220167,1.123366,-1.361219,-0.319602,1.189969,-1.041246,-0.418164,-0.016382,-2.211283,1.410020,-0.545578,-0.278499,-2.404867,-1.991450,1.886020,-0.493875,-0.320404,-0.619469,0.378735,-0.437517,0.080624,-0.519647,1.203846,-0.030496,-0.174497,-0.921465,-2.994676,-0.000478,-0.265776,-0.465960,-1.159550,-0.009611,-0.619216,0.503523,1.577237,-0.709719,-0.146325,2.115796,0.470203,0.213074,-0.719067,-0.238234,-0.479224,-0.435649,0.162613,0.322025,0.698439,-0.238266,0.522581,-0.474997,0.576487,-0.434506,0.019731
-1.759246,0.299784,0.267889,-0.972346,0.033812,-0.860257,-0.884847,-0.097144,0.517130,-0.753948,0.443287,0.513128,-0.051698,0.020297,0.318151,-0.886881,0.125156,-0.404923,0.452978,-0.214857,-0.151297,-0.343080,-0.972709,-0.595467,-0.127388,0.640558,1.092524,1.035062,-0.160993,0.352417,-0.503356,-0.836068,-2.060066,1.761812,0.201752,-0.276941,1.376596,0.163876,-1.134687,0.343130,-0.044489,0.001528,-1.403902,-0.552922,0.248507,0.292602,-0.002459,-1.328163,-0.623919,1.340065,-0.422770,-0.264471,-0.162681,-0.153323,1.696180,0.337438,0.082478,-0.101270,-0.781023,-0.412920,-0.118707,1.997889,-0.256251,-0.618559,0.098299,1.872366,0.733933,0.129828,0.241536,0.954685,1.621617,0.535954,-0.206892,-1.777494,-0.309146,-0.994706,-0.182377,-1.842387,-0.361014,-0.312681,-0.572157,-1.052552,-0.378860,0.453207,-0.812037,0.250972,0.396958,0.764959,-2.042967,-0.156377,-0.421892,-0.666897,0.046388,-0.628020,0.481304,-0.577184,-1.619355,-0.023802,0.189796,-0.365978,1.005484,0.329778,0.941307,0.186062,0.250067,-0.445376,1.188262,1.023218,1.213030,1.557075,0.064513,-0.131347,-0.333577,-1.918441,-0.202511,-0.813518,0.785345,-0.216810,-0.322062,0.211058,0.478234,-0.572181,0.881189,-0.103436,-0.160778,-0.607134,-0.087035,0.670296,-0.175759
0.766846,0.843155,-0.555458,1.518861,-1.476432,0.626811,-1.070413,1.208915,-0.558893,-0.502878,0.067817,0.396052,0.137210,-1.979335,0.852017,0.944392,-0.768312,-0.717757,-0.205798,-0.478953,-3.152329,-0.765040,0.192903,0.343318,1.480315,0.511620,-0.303096,-0.869812,0.371195,0.236016,-0.226528,-0.411728,1.065943,-0.031923,-0.414367,0.083745,0.454319,-0.540641,-0.151571,-0.240176,-0.200829,-0.142829,1.543702,-0.046360,-0.370066,2.024444,0.064355,-0.380320,0.618384,0.070880,0.248343,0.606851,-0.014036,0.747815,0.302877,-1.196803,-0.220217,0.350912,0.895586,-0.315321,0.038645,0.441936,-1.004767,0.044786,-0.205909,-0.589950,1.472605,-0.101939,-0.014585,0.097904,-0.488092,-0.417630,-0.173351,0.236887,1.005681,0.573255,0.075698,-0.398241,0.211400,-0.485938,0.094891,-0.486536,-0.177813,-0.614035,-0.276895,-0.999072,-0.404478,-1.894860,-0.217734,-1.286196,-0.506615,0.072437,0.187587,-0.552491,0.053668,-0.512346,-1.800763,-0.723849,-0.982569,-0.242420,-0.059679,-0.473835,-0.083239,2.720749,-0.007354,-0.214191,0.102205,-0.253108,-0.518503,0.185156,0.357321,-0.495858,-0.150038,-2.106168,-0.425280,0.956140,-1.494901,0.132165,-0.337022,1.112486,0.213812,1.198799,1.694619,1.006075,0.367289,0.081604,-0.272855,-0.531905,-0.080940
0.435506,-1.160620,0.708446,-0.469145,1.071633,1.394338,-1.460922,1.125625,-0.229643,-1.262066,-1.190702,-1.038559,0.304520,-0.268856,1.367534,0.236154,-0.015199,1.435980,0.028464,0.062790,-0.830008,0.120869,-0.638427,-0.001027,-1.454988,-0.196081,-0.374751,0.396628,-0.050002,-0.290525,-0.117213,-0.149663,0.386838,-0.080409,0.079981,-0.029644,1.363866,0.722101,-0.446319,-0.290863,-0.195728,-0.278050,-1.847626,-0.011589,0.796613,-0.827059,-1.067212,1.024495,-0.738722,1.226803,0.100588,-0.320286,-0.037470,1.775759,0.126204,0.040804,-0.104415,-2.167181,0.092037,-0.149250,0.185168,-0.023344,-1.352168,0.409559,-0.018918,-2.123674,-0.841210,-1.045637,-0.122510,-2.803588,0.595370,-0.451043,0.025096,1.314661,0.320175,-0.682203,-0.102536,1.133210,-1.104187,-0.325245,0.070437,-1.059543,-0.598339,-0.027669,0.314255,0.124045,-0.291996,-1.053069,0.396966,-0.027218,0.132824,1.796802,0.401698,-0.378018,-0.183328,0.965523,-1.301432,-0.695890,-0.845529,-0.620075,-0.113883,-0.852465,2.738567,0.231649,-0.472278,-0.303565,-0.988337,-0.674146,0.135059,2.353969,-0.449984,-1.684150,0.005272,-0.563272,-0.975987,-1.258132,-1.406206,0.264387,-0.428905,0.059081,0.153490,0.794811,-1.804088,-1.633875,0.828994,-0.059659,0.174630,-0.394340,-0.234421
-0.615216,-0.624837,0.000096,0.364148,-0.329478,-0.645394,-1.665757,-0.194165,1.760370,0.006924,0.317438,-1.799523,-0.049255,-0.901831,1.174277,-0.956777,-0.603299,0.099243,0.001799,-0.174295,1.460017,-0.188617,0.423259,-1.165981,-0.140319,-2.031495,-0.172691,0.224241,0.449619,0.512372,-0.595337,-0.142035,1.563249,0.529976,-0.344420,-0.321182,1.065900,0.519931,0.189589,-0.129400,-0.186622,-0.174215,0.699371,2.089310,-0.884613,-0.488046,-0.704426,0.761553,1.112779,-2.155001,-0.335943,-1.576972,0.135696,0.667538,-0.177015,0.112611,-0.581474,-1.715827,1.762035,0.061183,-0.161545,-1.430422,-2.119554,-0.246938,-0.255430,-1.779745,-0.811760,-0.587434,-0.450387,-0.815072,0.203697,-0.435623,-0.509585,0.314667,-1.321925,-2.342425,-0.305219,0.048772,0.777620,-0.165381,-0.054368,0.981943,0.041418,-0.813329,-0.363357,-1.261589,-0.790515,0.547948,2.106271,2.560297,0.850031,-1.100714,0.027322,-0.742787,0.016036,-0.251252,-0.456350,-0.191700,0.650205,-0.519523,-0.964537,1.335755,-2.375270,-1.971222,0.025822,0.279296,-2.337798,-0.487580,-1.475803,-1.877536,0.268855,-0.779986,-0.219863,-0.522644,0.390937,-0.969407,-2.310017,-0.031299,-1.001081,-0.301340,0.274171,0.438757,-0.244126,1.646603,-0.774334,0.821004,-0.516764,0.958517,-0.313182
-0.755834,2.078518,-0.129129,-3.040066,-0.443167,-0.163836,-0.444875,-1.894660,-0.384738,2.218197,0.585597,-0.454119,0.133331,0.684634,-2.602629,-0.272486,-0.255544,-0.577069,0.418334,0.050446,0.890429,0.158592,1.033090,0.572140,-0.373600,0.170036,-0.167193,0.592583,-1.211509,1.452823,-0.704922,-0.304766,-0.616023,0.022631,-0.664636,-0.058631,0.451106,0.383578,-0.095824,-0.394700,-0.176666,0.061700,0.436858,-1.183703,0.268945,-0.035661,-0.007673,-0.157618,0.181075,0.281953,0.460783,0.085907,-0.116371,1.329065,0.193050,-0.034490,-0.563570,0.212930,-1.734871,-0.514983,-0.719170,0.874467,-0.009966,-0.290442,-0.131904,2.083933,1.105215,-0.855513,-0.283643,-1.853580,-1.458738,0.137647,-0.498639,0.650181,-1.260084,-1.099513,-0.477530,0.046764,0.681579,-0.270701,-0.086711,-0.749976,-0.265197,-0.039188,0.335645,-0.884908,-0.495201,0.638743,-0.811093,0.203747,1.085282,-0.302796,-0.463565,0.932247,-0.429639,-0.392724,0.738560,-0.651403,-0.425289,-0.405081,0.259798,-0.906261,1.250549,-0.529875,0.105272,-0.103407,-1.409133,-0.697881,0.465129,-1.047828,-0.176540,0.392767,0.093671,0.036092,0.330187,1.999296,0.164162,-0.332226,-0.609582,-0.088204,0.314979,-2.232025,1.042722,1.849717,0.438590,-0.362260,0.421419,-1.381811,-0.535494
-1.689390,-0.094138,1.407682,-3.274672,-1.057264,0.291876,-0.191202,0.265816,1.695690,0.456036,-0.795332,-0.773159,0.245071,-2.083949,-0.875711,-0.230426,-0.425566,0.442189,-0.415753,-0.277090,-0.314537,-0.416644,1.850656,2.774575,1.290664,-1.555384,-0.253023,0.949809,-0.233911,-0.909665,-0.780390,-0.014381,-2.420588,-1.550135,-0.542973,0.234240,-0.493811,0.139832,-0.006820,0.109040,-0.605579,0.461145,-0.369592,-1.761334,-0.170164,-1.151461,-0.538742,0.574841,-1.001868,0.203906,0.417415,0.444185,-0.064518,-0.395461,0.628209,0.219786,-0.321343,-0.149713,-0.093181,-0.303481,-1.119835,-0.251081,1.173532,0.936841,-0.059434,-3.161794,-2.176113,-0.950576,-0.376744,0.268221,0.709113,0.614014,-0.536329,1.461967,-1.810511,0.356904,0.396808,-0.894781,-1.301167,-0.559795,-0.612349,-0.363499,-0.550851,0.222510,-0.219100,1.086288,-0.513989,0.345955,1.185768,-0.423361,0.453073,0.094474,0.425628,0.679762,-0.249022,0.220818,-0.305814,-0.060252,1.957081,0.171562,-1.901984,0.420674,-0.039761,-0.767947,0.184617,0.454253,0.131455,-1.127112,0.675033,0.909369,-0.638277,0.194456,-0.759047,0.169808,-1.148031,-0.966125,0.375067,0.202300,0.810086,-1.258145,-0.268355,-1.030479,0.716121,0.807099,0.605670,-0.755835,-0.608797,0.777113,-0.168289
0.229014,0.835863,0.772759,-0.869190,0.863772,0.065919,-1.004045,-0.287984,0.690336,-2.002662,0.996685,0.525651,-0.234656,1.298240,-1.249947,-0.685859,-0.435749,1.463895,0.149678,0.033176,0.016718,-0.440714,0.359267,-0.110866,-2.192374,-1.052312,-0.658463,-0.316948,0.356351,1.873316,-0.353265,-1.350623,-0.688054,0.116136,0.066621,0.120408,0.148975,-0.266253,-0.891142,-0.298483,-0.310765,-0.112650,0.889926,1.004192,-1.420257,1.177879,0.198597,-0.762918,-1.109968,1.276596,0.188420,1.626607,-0.375437,-0.403300,-1.230015,-0.520609,-0.142872,-0.138111,0.777826,-0.565638,-2.782782,-1.559399,-0.106431,-0.367230,0.300396,-0.535970,0.981483,-2.053643,0.051178,0.461792,-0.555274,0.015633,-0.255494,1.777862,1.620874,0.587127,0.416247,-0.861929,-1.119801,-0.373260,1.599425,-1.362734,-0.269271,0.090646,1.686380,0.034003,-0.011277,-1.054224,-0.151828,-1.587562,0.553636,0.692178,0.389607,-0.024038,-0.076382,2.183215,2.318493,-0.856957,-1.397668,-0.110579,-1.025308,-1.851271,-1.290535,0.663948,-0.218356,0.201658,1.188996,-0.968350,-0.971781,0.593375,0.524260,-0.098291,0.033606,-0.083960,1.407558,-0.361807,-0.612498,0.292260,-1.974614,-0.159210,0.120988,-0.288274,-0.810217,-0.782284,-1.261694,-2.082308,-0.582420,1.000719,-0.500225
-1.119195,-2.591636,-2.797618,0.881261,-1.398231,-1.443856,1.234653,0.426415,-0.247794,-2.386228,2.990450,-0.712583,-0.181201,0.245309,-1.072057,-0.676319,0.369181,2.099096,-0.404961,-0.115327,-0.312526,0.377982,-0.092074,2.197512,0.827898,0.864651,-1.901195,0.169497,-0.375072,-0.689167,0.159939,0.088766,0.796085,-2.206664,-0.310308,-0.483256,-2.170849,0.113552,-0.742662,-0.496708,0.035852,-0.491241,-0.827324,0.531503,-0.035226,-0.204059,-0.560710,-0.757390,1.087192,-1.017794,-0.238688,0.246982,1.177256,0.171490,-0.263600,0.060399,-0.034972,-0.138920,0.852985,-0.157240,3.064233,-0.383541,-0.808083,1.784216,-0.475168,-2.414939,1.288032,0.455597,0.261052,0.412986,-1.183797,0.411455,0.039848,-1.632879,1.412235,-0.426652,0.035213,1.310878,-2.374492,-0.066058,-1.565446,0.748730,-0.079979,0.123029,-0.044571,-1.846273,-0.013387,-0.283584,0.802096,1.153991,-1.591524,0.691544,-0.131192,-1.189502,0.417137,1.569990,0.472399,0.045025,-2.269687,0.273906,-1.575315,-0.339013,-0.666181,-0.283186,-0.026741,-0.082379,1.368129,-0.029485,0.804372,-2.190151,-0.024294,-1.241017,-0.623221,-2.306579,-0.243027,-0.748856,2.321944,0.204118,-1.233404,-1.419901,-0.489743,-1.756060,1.725205,-1.940901,-1.703222,-0.299743,0.151771,-0.253388,-0.387503
-1.008384,-0.253600,-0.095823,0.727221,-1.062572,-1.064186,-1.862544,2.263802,-1.266055,1.485046,-0.255124,-0.508325,-0.081982,-0.664117,1.668226,-0.147912,0.551219,-0.379673,-0.312090,0.366365,0.337087,-0.030057,-0.089131,0.112305,-0.302377,0.688360,-1.430106,2.501233,-0.947950,0.325688,-0.726083,0.063129,0.999182,0.803121,-0.451895,-0.078865,0.078961,-0.654589,1.983382,-0.688903,-0.224146,-0.315677,-0.597791,-0.286299,-0.513213,-0.107175,0.185251,-1.183875,-1.062549,1.036903,-0.317914,-0.114660,-2.101518,0.552243,-1.293978,-2.899644,0.148759,-0.407533,-0.054340,-0.234857,1.712034,-0.997654,-0.454808,-0.273363,0.282580,-0.356886,-0.612875,-0.666105,-0.325517,0.449199,-0.359150,0.169432,0.051821,-0.820952,0.822840,-0.879113,-0.079992,0.412357,-1.745851,0.003500,1.208319,-0.622749,0.012994,-0.194493,0.897187,-0.337413,0.041199,-0.755517,-0.481848,0.925533,-1.486667,-1.279702,0.498538,1.887258,0.282214,-0.240128,0.135973,-0.192724,-0.428169,-0.726350,0.528199,-0.316477,0.261224,-0.157723,-0.690085,-0.415289,-0.259644,-0.236552,1.016384,-1.865085,0.150658,0.287765,-0.522123,0.128086,0.434745,-0.958383,-0.447047,0.031700,0.176901,-1.095341,-0.071105,1.101435,-0.559583,0.174165,-0.487526,-2.444167,-0.173112,-0.179695,-0.014182
0.480173,0.334619,0.285871,-1.427353,-1.695646,1.807366,-2.503454,1.277817,-0.241055,-0.516384,-1.567789,-0.120127,-0.252879,0.441296,2.066717,-1.762332,0.494683,-2.071839,0.051405,-0.633925,0.651985,-0.620896,-2.170711,-0.127296,-0.226935,0.799715,-0.865643,-2.045245,-0.132827,1.141598,-0.147068,-0.069297,-1.084906,-0.185617,-0.562967,-0.151414,-0.439747,0.447525,0.206542,0.120549,-0.776477,-0.046177,-1.389970,-0.176759,-1.133195,2.320260,-0.771913,1.009035,-0.012141,-1.129230,-0.443915,-0.182506,-0.733201,1.602025,-0.929344,1.140421,-0.711974,-0.927589,0.054470,-0.372553,1.241340,-0.179343,1.795731,0.208430,0.165593,0.343266,-0.121669,-1.866524,-0.047169,2.509622,0.109965,-0.287088,0.029613,-0.561824,-0.975069,-0.136563,0.154905,-0.684522,0.122062,-0.759120,-0.538188,-0.215270,-0.090417,-0.112008,0.231326,0.143302,-0.056076,1.770371,-0.708996,0.336391,1.340756,0.136918,0.170150,-0.884183,-0.131374,0.316761,-0.537893,-0.634868,-1.158710,-0.724058,1.288249,-0.032078,0.544094,-1.349277,-0.634832,0.142662,-0.595529,0.756073,-0.079112,-2.044155,0.329848,1.478999,-0.581091,-0.801081,-0.879387,0.677318,-1.195262,-0.379569,-1.909351,-0.219884,0.057677,0.227352,-0.988140,1.720145,0.655286,-0.604161,0.359588,0.449652,-0.737532
-0.080120,-1.548802,0.116259,-0.270008,-1.045889,0.003893,-3.341218,-2.465931,1.371293,-0.990329,-0.498192,-0.185016,0.012379,-0.854035,0.177439,-1.421907,2.905123,-0.958943,-0.297923,-0.748782,0.109894,-0.145497,-1.082763,0.300087,0.035231,0.737194,0.113577,0.508004,-0.234429,-0.711674,-0.741781,-0.467720,-0.093142,-0.299595,-0.649167,0.072659,-0.058316,-0.124335,0.158959,-0.363120,-0.484587,-0.163628,-0.562183,0.923945,-0.149135,-0.511295,-1.542214,1.123471,1.081637,-0.475625,0.220255,-0.923340,0.190265,-1.490736,0.208751,1.082236,-0.153371,-0.438523,0.278856,-0.013440,-0.625947,-0.193897,-0.443655,0.177928,-0.143711,-0.080989,-1.367576,-2.261349,-0.704974,0.146528,-0.503331,0.381253,-0.636677,-0.682529,-1.134133,-0.772012,0.355692,1.563539,-0.390814,-0.263702,-1.307079,-0.683040,-0.404868,-0.271164,0.385821,1.313868,-0.212216,0.056826,-1.140945,1.575856,0.512715,0.188973,-0.153546,0.676611,0.330136,-0.740471,0.580656,-0.350510,-0.015842,-0.001016,-1.031202,0.204167,0.796705,-0.506387,-0.586575,0.048784,-0.083630,0.089512,-0.294888,1.252967,0.122534,1.874220,-0.275643,-0.126432,0.235418,0.903861,0.821053,0.216954,-0.123902,-0.579681,-0.319762,1.427225,-2.041079,-1.272694,-2.292496,0.782301,-0.423042,-0.345716,-0.346241
0.544266,0.245971,-0.831294,0.947765,0.107984,0.310497,-0.788245,-1.246428,-0.338624,0.120939,2.516226,-0.909550,-0.326442,1.265742,2.191294,1.365329,0.131957,0.040296,0.074799,-0.393958,1.997142,-0.143771,-0.253125,-0.478267,-0.749904,-0.118234,0.070890,-0.524640,-0.655552,-1.163443,0.041790,-0.245937,-0.769627,-0.943308,-0.773796,0.126905,-0.377240,-0.216056,-0.516371,-0.193130,-0.420304,0.360715,-0.850564,0.568388,0.094695,-0.091136,-0.718451,0.336731,-1.544172,0.515382,-0.082160,-0.603463,0.023380,-2.190828,-0.183874,-0.237878,-0.259210,0.183343,-1.611373,-0.633930,-1.747642,-0.788388,0.067700,-0.114390,0.298529,0.053068,-0.671399,-0.008393,-0.636594,-0.306375,-0.322750,-0.162764,-0.771855,1.161877,-2.171129,-0.327566,0.254967,-1.356329,-0.360230,-0.001249,0.010206,0.345703,-0.537286,-0.148237,-0.131315,2.040604,-0.711183,0.030433,0.100270,-0.638696,-0.071202,-0.648407,0.479275,-0.057505,0.097823,-0.737683,-0.279815,-0.529080,0.145345,-0.524395,0.489520,0.241642,-0.086690,-1.085487,-0.011095,0.429511,1.153599,-0.563640,0.683999,0.167461,-0.486914,0.136506,-0.335853,0.129138,-0.175593,0.651643,0.120847,0.329920,1.003532,-1.208400,-0.365680,-0.579986,1.994855,0.750468,1.254816,-0.643474,-0.357354,-0.381279,-0.716617
-0.700404,-0.216598,0.285190,-0.560394,0.364752,2.431126,2.846772,-0.012005,0.342321,0.102871,0.616021,-0.237392,0.022563,0.429665,0.883964,-1.263970,0.695407,-0.252826,0.032815,-0.782402,-1.781269,0.149632,-0.849029,-0.087480,0.686988,-3.297622,0.605119,-0.467388,-0.255094,-0.414674,-0.426398,-1.414481,-0.555816,0.630069,-0.663599,0.488514,0.524654,0.010787,0.003321,-0.451192,-0.678964,0.377142,0.102327,2.721801,-1.281378,-0.113976,-0.391501,-0.776741,-0.307942,-1.791367,0.474647,-0.403498,-1.368184,0.904271,0.059156,1.645339,-0.732929,0.155506,-2.357970,0.044734,-0.976736,0.434476,-0.237848,3.254439,0.156666,-2.440071,1.131223,1.974090,0.132432,1.004797,-1.179264,0.126293,-0.660622,-0.687963,-0.078966,1.314480,-0.458579,0.429002,-0.277724,-0.108560,-2.682440,-0.415588,-0.418795,-0.908372,0.521086,-0.536779,-0.027278,0.060353,-1.624285,-0.573458,0.539323,0.022075,0.376142,-2.162033,0.397140,0.592857,1.633185,-0.394348,-0.467542,-0.612128,0.269521,-0.183226,-0.948432,0.290548,-0.630459,0.114845,-1.253606,0.556932,-1.621758,1.390095,1.044801,-1.953727,0.161610,0.489434,-2.287596,-0.788169,0.056317,0.252997,0.711108,-1.979840,-0.196382,2.924439,-0.454737,-1.673695,-1.096634,-0.388815,-0.254489,-0.134334,-0.328831
0.293382,-0.112317,0.672305,-1.340497,-1.654091,1.348587,2.879958,-1.307788,0.573425,0.675187,-0.184088,-0.724153,0.150795,0.512238,-0.838221,-0.801943,-4.267571,-0.723674,-0.457841,0.175029,0.039171,0.164059,-0.720888,-0.331541,0.200261,1.355020,1.321934,-2.474207,0.879383,1.015813,0.408446,-0.327481,0.584856,-0.810519,0.128204,-0.144969,0.746904,-0.730785,0.570440,-0.306994,0.070312,-0.027851,-1.089014,-1.024672,2.373139,0.448821,0.496916,-0.147284,-1.483025,-0.366048,0.436109,-0.389623,1.119586,-2.588250,-0.657950,-1.278744,-0.023525,-0.121019,-0.470123,-0.103353,1.173033,1.740566,0.004697,-0.060284,-0.450562,0.944254,0.379730,1.231928,0.059812,-0.401712,1.741351,0.461220,-0.330466,0.802524,-1.689589,1.704133,0.124423,1.645556,0.393190,-0.296068,0.314785,0.410244,-0.518158,-0.106662,-2.308245,-1.618199,0.044990,-0.608583,1.336921,-0.207763,1.006116,0.644693,0.456037,-0.185140,0.423272,-2.005634,-0.289896,-0.147038,-0.563070,-0.073504,0.305239,-0.050067,0.426084,0.220392,-0.535264,-0.015043,0.810651,-0.672481,0.363395,0.835728,-0.517929,-1.211528,-0.342029,-0.000724,-1.113767,-1.270245,0.493960,-0.008192,-1.029822,1.307768,0.370701,0.090744,-0.429328,1.036795,-0.382554,0.791728,0.326733,1.314817,-0.080799
-1.105155,-0.154857,2.724628,-0.858069,0.507918,-1.806650,-0.187794,-1.834937,0.813204,1.300767,-1.285529,-0.052019,0.431326,-0.921925,-1.241677,0.037631,-0.591611,-0.347724,-0.348142,-0.573466,-0.044194,0.278579,0.160012,-0.217347,0.163910,0.705227,2.341249,-1.667132,-0.461767,-0.298587,-0.049554,-0.536932,-0.235900,1.800180,-0.266355,-0.054244,-0.640086,-0.613368,-0.130874,-0.591683,-0.488518,0.456853,1.440957,1.003377,-0.438154,-0.288667,-0.432126,-1.402562,-1.160433,-0.353396,0.318493,1.594076,-0.232291,1.298184,0.512543,-0.007051,-0.126382,-0.811598,0.050200,-0.706602,0.025515,-0.666427,1.615157,-1.343699,0.278969,-0.270203,0.578957,-0.283044,-0.061120,-0.913078,2.007325,0.036433,-0.604159,2.795250,-0.048680,0.508385,-0.451241,0.220523,0.435397,-0.492160,1.274112,-0.616026,-0.515010,-0.131075,-0.317540,-1.750460,-0.361631,-0.747516,-0.128276,-1.282573,-0.390812,0.003999,-0.142781,-2.161613,-0.497290,-1.075465,0.657981,0.039180,2.016765,-0.195375,0.917988,-0.030928,-0.180328,0.408934,-0.565424,-0.052757,0.678940,-1.024475,0.710009,0.334062,-0.169016,-0.310418,0.106339,0.687297,1.212001,-1.555742,-1.441240,-0.130337,-0.133298,-0.329686,-0.241762,-0.892021,-1.004173,-0.881553,-2.309946,0.761400,-0.439176,-3.378913,-0.342207
-1.665089,0.678012,2.211263,-0.345181,-0.422806,1.159328,0.193089,0.349474,-0.787355,0.270850,-0.115091,0.417717,1.968060,-0.715193,-2.656783,-1.496637,0.234031
-1.832269,-0.683151,-0.124617,0.518643,2.342681,1.301432,-1.596142,-0.212093,1.482064,0.366093,2.090098,-1.787441,-0.202526,-0.154577,-1.640770,0.266574,-0.036910
-0.709351,-0.641060,-0.171877,1.950927,-0.439672,1.151928,0.455275,-2.763385,1.905212,-1.377459,-0.812547,1.486060,0.963447,-0.389493,1.253467,-2.286120,0.222889
-0.918077,-0.426064,0.718482,-0.404782,0.949664,-0.171886,0.857006,1.315096,1.237197,1.104649,0.268076,0.941241,0.732759,-1.154485,-3.846033,-2.214562,-1.275621
-0.960766,0.295135,0.753948,-0.137016,-0.475488,0.114702,-0.769967,1.167676,0.479478,0.715683,-2.789282,-0.027415,-0.966783,0.271038,1.456986,0.918616,0.214309
-0.694686,0.037548,1.608310,-1.155128,0.265064,0.151810,1.152019,-1.347402,-1.233850,-1.995257,1.137251,-0.624012,4.128372,1.111027,-0.702758,0.135261,0.425264
-0.046841,0.497017,0.634852,0.222674,-1.907727,0.345053,-2.484650,-1.951637,-0.402841,0.917528,1.033574,0.785728,-3.487930,0.784540,3.346072,-0.229240,-0.300077
-0.527860,0.597360,-1.487394,-0.710830,1.424443,0.242060,0.735765,1.474117,2.940917,-0.286874,-1.032067,1.881575,0.593665,-2.041147,-1.558596,-0.528313,0.427222
0.628368,0.300737,2.357393,-0.061131,-2.421179,-0.004646,-1.860294,1.895103,-1.996998,-0.390590,0.847552,2.122991,1.130506,-0.679569,-2.557983,0.615670,0.366392
1.796156,0.255246,-1.802914,0.117054,-0.023807,-2.049524,0.258056,-1.164440,-1.097241,1.239120,-0.093175,-1.865977,-1.321137,1.873838,0.235901,1.188095,-0.406170
-0.783655,-0.446017,-0.401836,-1.470192,2.431892,-0.559906,-0.948525,-1.168439,-1.766474,-0.569206,1.177908,-0.190440,1.206656,1.502322,0.709132,0.064457,-0.243879
0.282890,-0.195646,-0.902727,0.793411,-0.989648,-0.701521,-0.891766,1.546368,-0.889097,-0.909571,0.404750,0.274288,-0.150695,0.292667,0.102181,0.570672,0.199671
-0.329219,0.013381,0.422455,-0.334773,-0.073915,-0.512743,0.350267,0.158126,-0.474533,-0.526914,-0.318407,0.088253,-0.389241,-0.425952,0.424511,0.162572,-0.320104
1.064081,-0.458643,0.386389,1.609361,-2.638916,-1.540514,2.768789,-1.232209,0.331553,0.109751,-1.820037,0.669341,0.114261,-0.067366,-1.778427,0.439956,-0.339684
0.252419,0.239151,0.346002,-1.788608,1.502779,0.386356,-0.172132,1.550869,1.959398,0.256688,0.302336,-0.769482,2.371655,-0.468815,-4.310097,-0.660086,-0.386678
-0.856017,-0.683781,1.275382,0.637380,-0.021926,0.727392,-0.350354,-1.006303,-1.271084,1.732802,0.016605,-0.978503,1.660203,-0.076787,-2.282823,-1.015723,-0.213142
-0.623704,-0.259446,-1.083483,0.676861,1.912956,0.733234,-0.054540,2.577764,-0.530918,0.946482,-1.954099,1.206627,2.388335,-0.952857,0.447609,0.713569,-0.185335
0.372787,-0.041905,-1.013903,-0.370813,0.379288,-0.668990,-0.089691,1.487357,0.093855,-0.504010,-1.045012,-0.608317,-1.432441,-0.649900,0.745085,2.873317,-0.434840
-0.336897,-0.052664,-0.359731,-0.433713,-0.241742,-0.434213,0.199246,-0.124986,0.206343,-0.481271,-0.354123,0.287351,0.219578,-0.153011,-0.108234,-0.269833,0.216818
-0.197362,-0.083901,0.325475,-0.236683,-0.155026,0.496046,-0.314848,-0.685864,0.404048,-0.080223,-0.627970,-0.035474,0.572717,0.844708,0.208593,0.340827,0.181677
1.435007,0.000849,-0.563992,-0.133214,-0.645413,0.036768,-0.174784,-0.549653,-1.564030,-1.613095,-0.487512,0.869328,-0.695621,2.396465,2.353855,0.230380,0.011671
0.492474,-0.101952,0.278709,0.151788,0.377296,2.131105,-0.961126,0.510127,-0.230644,-0.027475,0.614616,-0.619235,1.296787,0.278091,-0.598260,-0.239753,0.130187
0.016474,0.119390,-0.434497,-0.390604,0.720444,0.722758,0.191530,1.625045,1.036487,1.286152,-2.707134,-1.981463,0.974469,-1.538856,0.224045,1.553885,-0.103155
1.394931,-0.904359,-0.388506,2.060394,-1.254279,4.522208,-0.669241,-1.251878,-0.803607,0.088495,0.074489,-1.561801,-1.019836,0.218409,1.171056,-1.395768,-0.116816
-1.059883,-0.012327,0.375842,-0.544060,0.539695,0.531298,0.033440,0.685610,-1.000471,-1.702268,-1.127068,0.963169,2.145507,-1.620465,0.203329,0.936144,0.414191
1.305746,0.798246,0.348647,-0.310979,-0.861210,0.922621,-1.292871,-1.869106,0.679636,0.988272,1.941576,-0.567736,-0.526990,0.210920,-1.555331,-1.423713,-0.444084
-0.395287,-0.047577,-0.866452,-0.531383,1.069503,-0.838658,-0.832592,-2.608030,3.037906,-0.869657,0.278383,0.961191,0.229056,-0.248142,0.006470,0.400620,-0.430764
0.077455,0.153946,0.645791,0.918067,0.419342,2.875171,0.474720,-0.990316,-1.682127,0.405891,-1.921333,-1.106196,-0.197972,0.253756,-0.929361,1.449256,-0.230142
-0.909934,-0.341035,-0.866837,0.168367,0.484841,-0.588656,-0.500488,1.491076,0.569409,0.639885,1.454689,-0.079755,-0.162235,-0.785578,0.094732,-1.135820,0.092426
-1.083153,-1.423277,0.301336,0.608391,1.343189,0.225289,-0.155909,-0.465889,-0.811936,-0.798030,-0.364531,0.607710,1.240002,1.059848,-0.734156,-0.599352,0.075637
0.481194,-0.004779,0.289915,-0.324655,0.019097,-0.157229,-0.070361,-0.070956,0.385327,-0.241264,0.511513,0.482298,0.417417,0.414208,-0.069952,0.291801,-0.234795
0.177615,0.798251,0.300917,0.185046,-0.040347,-0.553388,-0.033344,0.241399,-0.948179,0.251263,0.429225,0.265118,-0.553533,0.188046,0.412935,-0.336052,-0.457405
-0.370200,0.494539,0.458307,-0.451335,-1.158798,0.727679,1.795410,1.061369,-1.038004,1.993537,-2.585260,-2.586252,0.941314,-0.075146,1.385623,-0.515335,0.790715
-0.483296,1.640720,0.204031,-1.003441,-0.883801,-0.548367,-0.032659,-2.255033,-1.608248,0.478555,-1.289728,0.803924,0.504255,0.401993,1.953691,-0.054906,0.086483
0.051356,0.400558,0.403018,-0.457385,0.269523,0.086237,0.486191,-0.348225,0.423162,0.226394,0.489758,-0.038875,0.461490,0.299536,0.467592,-0.006170,0.332824
-0.139414,0.471267,-0.114704,0.013037,0.434810,-0.272173,-0.412044,-0.083478,0.005457,-0.057674,-0.028100,-0.493354,-0.381856,-0.360804,-0.212814,-0.460623,0.435638
0.564304,-0.132479,-0.497791,0.152368,0.573508,-1.499392,0.481954,-1.040738,1.418380,0.681094,2.302476,-0.754874,0.982502,-0.086109,-1.562235,0.666403,-0.060647
-0.507188,0.023218,-0.065327,-0.049654,0.349645,0.734968,-0.126262,-0.748506,1.134312,-0.757725,0.462898,-0.426433,1.728324,0.500316,0.872807,-0.236389,0.195768
0.572194,-0.019754,0.289920,-0.715551,0.662202,-0.538290,0.560355,-0.243782,-0.488679,-0.277427,0.892394,1.538246,1.415516,-0.403739,1.087855,-1.745273,-0.888637
0.492158,0.054080,0.088676,0.519712,-0.370235,0.149427,0.444925,0.112095,0.326085,-0.250848,0.370638,0.360888,-0.255125,-0.249690,0.318881,-0.009265,0.275086
-0.062982,0.116369,0.521671,0.450725,0.382644,0.072685,0.351894,-0.156140,0.261441,-0.399854,0.439730,0.527859,-0.168576,0.178520,-0.041008,-0.180868,-0.067800
0.351229,-0.036236,-0.430340,-0.017871,-0.465699,0.324578,0.092250,0.406686,-0.384333,-0.438315,-0.322341,-0.491005,0.248359,-0.256773,0.393379,-0.310056,-0.491178
0.751090,0.121220,0.786658,0.055304,-1.744431,-0.069367,0.779465,-1.514656,-0.206112,1.982584,0.205675,0.221790,0.206391,-0.372118,-0.869832,-0.317867,-0.067128
0.897031,2.440860,0.933595,-1.071225,-2.629224,0.169724,0.582898,-1.410660,-1.756395,1.937195,-0.240478,-0.884840,1.012844,-0.381715,-0.268157,0.015500,0.327407
-0.854584,-0.251623,0.204081,0.162831,0.758613,1.266636,-1.158137,0.758766,-0.524519,0.226212,0.828564,-3.402518,-1.337616,2.936409,0.122409,-0.628317,-0.342148
-0.165905,0.699962,-0.299123,-0.763561,0.653439,1.520174,-1.023015,-0.383065,-1.231588,-1.643506,0.358427,2.164188,1.115384,-0.695394,-0.266111,-0.845327,0.142112
1.063188,-0.152389,-0.293391,0.795260,0.149398,-0.156116,0.055905,0.303426,-2.185620,0.065492,-0.149289,-1.517359,-2.103349,1.051984,-0.697958,0.801386,0.096065
0.930803,-0.120041,0.520861,-0.914601,-0.276318,-2.032852,0.149492,1.720483,-0.692173,-0.198024,0.010209,0.047067,1.930401,-0.094681,-0.765943,1.352792,-0.520289
-0.736198,-0.511014,1.140321,0.083296,0.297588,-2.213838,0.110712,-2.256490,-1.323342,-0.926942,-1.313501,1.503681,0.888277,2.282870,0.871473,0.486269,0.206713
-0.440370,-0.089184,1.116343,-0.821600,0.617216,-0.700600,1.550165,-0.741993,-0.665695,-1.730647,-1.425466,1.889070,2.577740,0.052244,-2.863022,0.999806,0.167156
-0.194203,-0.046710,0.572252,0.158914,-0.350890,-0.096740,-0.383353,-0.382636,0.501190,0.227059,-0.074999,-0.566750,-0.077287,0.123673,0.237207,-0.235985,-0.039197
-0.740808,-0.225257,-0.541566,-0.670352,1.679863,-0.192768,0.182964,0.972869,0.658452,3.125217,-2.028762,0.618034,-0.269158,-1.226318,0.615759,-1.169269,-0.683766
-1.143534,0.188861,0.391858,0.159743,0.231750,-0.865029,-0.215421,0.772164,-1.867567,-0.559581,-0.047375,-0.750425,0.189102,1.244117,2.180248,2.059236,-0.117288
-0.174526,0.149445,0.146384,0.284611,0.269478,0.068653,0.849970,-0.300088,2.257505,0.984282,-2.529655,0.339550,-0.385935,-1.631295,-0.410428,1.375151,0.405104
-0.886193,-0.297883,1.098705,0.008959,0.593106,0.440625,-0.274143,-0.586582,1.067278,0.267554,-2.026488,-0.710816,-0.674017,0.683700,-0.411191,-0.161671,0.526571
-1.695540,0.790017,0.706948,-0.681246,0.129095,0.019828,-1.426110,1.278706,-0.540952,1.524080,-0.255527,0.317623,0.227826,-1.276490,1.637906,1.546658,0.606118
0.359909,-0.308001,-0.344352,0.399618,-0.222414,0.441080,0.318429,-0.244620,0.305998,-0.169278,0.289548,0.396293,0.048247,0.053834,0.430385,0.317350,-0.262547
0.742982,0.519227,0.148491,0.014749,-1.017452,-1.519012,0.689708,-0.766674,1.294773,1.059800,1.053026,1.389781,-0.874084,-0.688211,-0.819798,-0.343131,0.286361
0.559622,-1.265852,-0.312025,1.528654,-0.254016,1.496797,1.164923,-1.139803,-1.249039,-2.182200,1.271274,2.359603,-1.448996,-1.102783,3.454712,-0.768631,-0.476437
-0.032454,0.295071,-0.001595,0.474418,0.028202,0.067943,0.571272,-0.197233,0.002840,0.486373,0.101988,-0.251723,0.339889,0.568288,-0.084088,-0.178826,0.492943
0.452347,0.280479,0.932752,0.393041,-2.077262,-0.144908,-1.582604,0.357221,3.696237,-0.579849,-0.507587,1.294206,-0.970387,1.340587,-2.796017,-1.264503,-0.261134
-0.039688,0.960831,0.973330,-0.748574,-0.639202,-1.696033,-0.134180,0.396984,-2.323516,1.803108,0.377443,0.127078,-0.399334,-0.088535,-0.317778,-0.192133,-0.113297
-0.677611,-0.352432,-0.232174,1.058500,0.415807,1.038952,-2.193105,-1.749713,0.134364,-1.521553,3.065465,1.066265,-1.394076,0.956295,1.316692,-0.980788,0.246121
-0.600966,0.034803,-0.499292,-1.079842,1.739296,-0.418557,-0.805751,-1.787074,1.128892,-0.808197,0.143679,0.369497,-0.184998,-0.535509,2.379179,-0.013113,0.869821
-0.145717,0.330702,-0.469712,-0.298586,0.142569,-0.073863,-0.383259,-0.385033,-0.317673,0.110477,0.263094,-0.239940,-0.230092,-0.306600,-0.384381,0.212947,-0.460319
0.777292,0.096742,-0.736020,0.137436,-0.351958,-2.586263,-0.603887,1.240137,0.467780,0.541160,-0.147611,1.306983,-4.379700,-0.542811,-0.343392,1.553622,-0.136533
0.049991,-0.285879,1.527312,-0.603055,0.191851,0.159126,-1.845605,1.711935,1.251267,0.160253,0.028660,0.211246,-0.690566,-0.222561,1.007476,-0.602276,0.734364
0.150653,0.570656,-0.245760,0.259069,-0.874314,0.793685,-0.088119,-1.233888,1.337242,0.782250,0.781528,-1.254869,-3.250510,0.019513,2.320328,-1.754746,-0.458622
0.117370,-0.392418,0.191946,-0.419757,0.260346,0.485905,0.421371,0.044433,0.069079,-0.111062,0.048253,0.477507,0.228726,0.259904,-0.131808,0.444854,0.162948
-0.714538,0.297961,-0.316603,-0.351491,0.794344,0.426931,-2.687235,0.074881,2.646192,-0.761981,1.074106,1.100888,-0.544752,-1.141224,-0.035947,1.438028,0.073670
0.872865,-0.287810,-1.321521,0.232740,0.090805,-0.706678,-1.068544,1.210797,1.461863,-0.115520,-0.825373,0.541061,-0.757742,1.045399,2.385305,-1.919140,-0.033728
-0.336160,-0.298111,-0.198318,-0.530546,0.506975,-0.294025,0.381369,-0.280614,-0.195932,-0.470497,-0.028925,-0.183015,-0.356597,0.601377,0.348532,0.286675,0.264597
-0.415224,0.262735,0.229589,0.345259,0.011068,-0.058403,0.470090,-0.161535,-0.237122,-0.096650,0.464113,0.157884,0.353172,-0.147313,0.475374,0.419272,0.413844
-0.467948,-1.655160,1.173467,2.562545,-0.890531,1.591557,-0.477262,2.176016,-2.685086,1.595007,0.373008,-0.809108,0.668757,-1.280681,-1.799696,-0.560277,0.684950
-1.664696,0.434435,1.003483,-0.918225,0.312893,-0.602237,0.558433,-1.995705,1.272692,1.465693,-1.654045,1.454727,-0.332643,-2.085683,1.769211,0.818506,-0.024609
-0.715951,-0.433416,1.284484,1.042847,-1.588582,0.936635,0.978203,-1.402383,-0.656178,-2.723532,-1.027166,1.496507,-0.720955,-1.053030,1.248840,2.061906,-0.069527
0.206240,0.144217,-0.199650,-0.544395,-0.456581,-0.416067,-0.382031,-0.281797,0.035573,-0.198230,0.384705,0.164246,-0.444958,-0.348645,-0.468661,0.007232,0.455057
-0.829800,-0.980397,0.924457,1.450519,-0.480895,1.211346,0.801307,-1.564911,0.099656,1.234426,1.224949,-2.129096,-0.521550,-1.177400,1.233689,-0.512035,-0.056586
0.311961,-0.657377,0.098034,-0.710598,-0.417730,-0.453441,-0.841931,0.301274,2.175032,0.873425,-0.362892,-1.383185,-2.293063,0.431920,0.734185,0.697666,-0.189345
0.264945,-0.147753,0.253588,0.112318,0.262039,-0.233996,-0.386615,0.488208,0.239150,0.548876,0.517594,-0.016027,0.225978,0.531233,0.051092,-0.096977,-0.408629
1.127589,-0.079857,-1.323339,-0.865623,1.595737,-1.736979,0.505344,0.387617,-0.146425,1.811034,-0.599635,0.072176,2.217346,-2.814610,2.397300,0.652785,-0.240894
0.119888,0.123035,0.825856,0.068173,-0.057871,1.750729,-0.008221,-1.444034,0.332438,0.576195,0.350488,0.432229,0.203077,-0.707453,-0.302091,-0.787938,-0.444703
0.463885,0.452887,0.001507,-0.056545,0.086524,-0.318016,0.288117,0.358629,0.133783,-0.014007,0.235551,0.238666,0.187425,-0.103141,0.122571,0.421991,-0.188057
0.275014,0.483377,-0.359337,0.465183,0.421438,0.288737,0.453727,-0.748608,-0.064969,-0.853932,0.015278,-0.338340,0.047454,0.478398,0.196342,0.300924,-0.361654
0.838187,0.699141,-0.124063,-0.195077,-0.744261,1.664553,0.950820,2.440934,0.811493,0.178921,0.340003,-1.905861,0.776915,-0.290383,-0.497182,-2.216722,0.203909
0.718282,2.063859,-1.306261,-0.636546,-1.082918,-0.208470,0.358988,0.735749,-2.282798,-0.300001,-0.943972,1.287665,0.856323,-0.638329,-0.799347,1.132859,0.049009
0.100176,0.455029,-0.217766,0.532846,0.178677,-0.235754,0.342122,0.256278,-0.321425,0.014665,-0.130893,0.500166,-0.207271,0.298450,0.054272,0.232617,0.496520
-1.155350,0.845535,1.031487,0.220103,-0.484704,1.883228,-1.410301,1.191515,-1.904228,0.835846,-0.634530,-0.479173,-0.221064,-1.743879,-0.234402,1.828370,0.381428
1.322129,-0.167646,-0.579024,-0.053993,0.573765,-0.936810,0.146987,2.907484,-1.858581,-1.622404,-1.049253,1.367851,-1.650368,0.367270,1.248806,0.365396,-0.718294
1.651792,-0.185466,-0.371333,2.114693,-2.429379,0.149072,0.425075,1.087885,-2.407124,0.330104,-0.808502,1.127328,-3.895748,0.744925,0.530142,-0.626512,-0.345071
-0.570690,-1.016620,2.004544,-0.221205,0.298513,0.007219,-1.638144,0.586228,-0.783908,-0.754099,0.907826,-0.577833,3.663294,0.809335,-0.296081,0.975471,0.434198
0.084626,0.328321,0.611395,-0.328619,-0.691577,-1.076291,-0.672853,-0.278587,-0.540085,2.079967,0.228562,-1.000235,0.215468,-1.370249,-1.369511,1.413996,0.210142
-0.325433,0.480960,0.051231,-0.352342,0.091769,-0.019514,-0.387930,-0.434798,-0.431574,-0.260933,-0.033567,-0.248899,-0.460343,-0.429821,0.401115,-0.031090,-0.052417
0.510270,0.443582,-0.850567,-0.076455,-0.066621,1.464925,0.921769,-0.295589,-1.472354,1.107797,0.596977,-1.754761,-1.954679,0.061594,-1.249061,-0.417298,0.410197
0.170649,0.427827,0.063474,-0.369787,-0.243539,-0.054956,0.321660,-0.341569,-0.448359,-0.532296,-0.490446,-0.515343,-0.230806,0.137140,-0.426937,0.127177,0.265303
-0.358514,-0.416621,0.168124,0.742616,-0.986089,-0.729037,0.486098,1.083551,2.019306,-0.467955,0.755497,0.743503,-1.712276,-0.421347,-1.786122,0.310455,0.178990
0.724380,-0.390754,-1.318476,0.396017,0.013883,-1.055753,1.002642,-1.344044,0.576147,0.613211,0.220925,-2.491148,-0.996596,0.108383,3.410093,1.415741,-0.016012
0.036798,-0.298079,0.021680,0.260479,0.459925,0.474941,0.376063,0.497915,0.043336,-0.454217,0.135740,0.196888,0.503001,0.135075,0.032678,-0.006516,0.310458
-0.717969,-0.639289,1.303870,0.905098,-0.729202,0.227997,-0.850878,0.531587,-0.315600,-1.029486,0.133530,2.584906,-2.344111,-1.364297,1.697359,-0.485988,-0.545960
-0.380550,0.424255,0.034377,0.408819,0.412111,0.047364,-0.214073,0.449680,-0.115155,0.179407,-0.120696,0.451167,-0.406356,0.353890,-0.429579,0.454504,0.218778
-0.285635,-0.179035,-0.839668,-0.030765,0.905959,1.292343,1.024552,0.933570,2.176717,0.067743,-0.117068,-1.477794,-0.134862,1.222327,-1.061746,-3.374777,-0.219012
-0.047058,-0.093184,0.793326,0.190992,-0.185461,0.184525,-0.077354,-1.367124,1.529968,-0.614830,0.642097,0.628600,0.461205,0.439521,-0.964073,-0.338036,0.308490
-0.014417,-0.638710,0.320672,0.159490,0.847371,-2.046128,2.455530,0.448201,0.440145,-0.922944,-0.260739,-1.984769,1.393007,1.639222,-2.320979,-0.177342,0.681882
1.050517,-0.348389,-0.333948,-0.715985,-0.197834,-0.565112,1.107492,1.369204,-0.018621,-1.124625,-1.259945,0.421854,1.029054,-0.930367,-0.543773,0.698564,-0.429191
0.407576,0.405646,0.496385,-0.262076,0.179278,0.371831,0.426247,0.295858,0.479890,0.335033,0.152780,0.415608,0.163702,-0.114363,0.029525,0.271077,0.407160
-0.203872,-0.395737,0.310414,0.084273,0.070723,-0.198374,-0.406879,-0.117947,0.323880,-0.191314,0.034873,-0.132820,0.272778,-0.350402,0.227326,-0.199375,-0.138394
-1.549272,0.023199,0.567491,-1.753293,2.404214,-0.757014,-0.974213,-0.229339,3.031616,-0.196461,-0.238724,0.384493,0.266198,-1.352539,2.183131,0.682229,-0.408972
-0.207972,1.171124,-1.973573,-1.665118,0.830979,0.453805,-0.712814,-1.676988,1.863034,0.212676,0.091192,-0.497469,-0.527793,0.164282,3.857055,-1.228453,0.114293
-0.172716,0.267921,-1.315146,0.036213,0.456550,1.458997,-2.135929,0.290340,0.569141,1.535219,-0.170438,0.069606,-1.545318,0.682239,1.322868,-2.667168,0.861452
0.604354,0.450486,0.253139,-0.091941,-0.816993,0.836143,-0.618799,-1.474853,-1.406772,-1.319347,-0.442352,-0.529650,3.660519,0.016410,0.336297,2.187080,0.722758
-0.362926,-0.346835,0.181483,-0.664555,1.195074,0.122592,-0.127144,-0.809140,-1.520195,0.229027,-0.001602,-0.314651,0.170927,-0.024412,1.303234,0.259690,-0.371411
0.248480,0.108266,-0.054906,0.046226,0.127058,-0.828500,0.573733,0.229158,0.508688,-0.939103,0.324128,-1.110098,-3.127011,1.617094,-2.304470,1.068962,0.071842
-0.201675,0.052919,-0.093479,-0.015252,-0.062539,0.441409,-0.298276,-0.296803,0.425272,0.008428,-0.091953,0.262709,-0.111061,0.632567,-0.269505,0.330904,0.170254
-0.458607,-0.908412,0.483189,0.364454,0.778316,-0.404350,0.735666,0.562942,-0.872608,1.937257,1.115504,-1.287971,-0.674525,-0.030435,1.456907,-0.454928,0.047877
-0.314243,-0.867971,-0.324369,0.357189,1.294064,-0.708255,1.311241,2.071056,0.369554,1.052335,-0.660640,-2.949325,-1.779650,-0.740347,1.052903,1.065577,-0.266275
-0.307945,0.651068,0.912235,-1.806091,1.280559,-1.080069,-0.469191,0.521080,-1.643096,-0.630442,0.528229,-2.673318,1.377285,0.563809,0.461841,2.837404,0.203250
0.117109,-0.908886,0.585870,1.804693,-1.025171,1.165461,-1.037803,-1.363855,-2.075973,-0.694993,1.866406,-0.502637,-1.319202,1.151678,1.763620,-0.627665,-0.209521
-0.330692,-0.481971,0.217406,0.191578,0.039252,-0.375551,-0.063276,-0.330733,0.020716,-0.031551,0.050871,-0.152095,-0.343792,-0.422190,0.362754,-0.246746,0.336139
0.154963,-0.826847,1.639096,1.088894,-0.766529,-0.639349,0.446319,-0.472959,1.053871,0.019620,1.376489,-0.934969,-1.475039,-0.143703,-1.573929,1.481558,-0.427316
-1.324446,-0.037461,0.410631,0.408086,0.503654,0.781360,-1.046426,-2.068071,-1.712493,1.128936,0.617309,0.250572,-0.257683,-0.896060,-0.377930,0.967642,0.121886
-0.307853,0.050498,-0.436765,-0.179218,0.466059,0.190217,-0.036455,-0.494490,-0.048374,-0.484854,0.354199,-0.346443,-0.233194,-0.298217,-0.486802,-0.199694,-0.397379
0.589813,0.591179,1.233520,0.013365,-3.769487,1.627699,1.242980,-1.467511,0.921712,-2.172236,0.602076,0.649335,1.378842,-0.219544,-2.403030,-0.949742,0.497695
0.721219,-0.107389,-0.786110,-0.414540,0.227923,-0.822689,-0.910479,-1.475453,-1.603566,-0.796433,0.178114,2.170842,2.748385,-0.635394,0.563024,0.655086,0.445258
0.761529,-0.210023,-1.470510,-0.883677,1.846394,0.585042,-0.808565,3.162719,0.583582,0.682250,-0.007346,-1.624017,2.616054,0.180303,-1.748701,-1.213044,1.094217
-2.203776,-0.933651,0.756345,0.432500,1.623682,-1.489528,-0.808953,0.636395,0.599033,0.416369,-0.857760,1.855310,2.944340,0.402097,-1.365926,-0.815985,-0.737841
-1.010645,-0.178416,0.005996,0.278019,0.556642,-1.069557,-2.651364,0.561155,-0.028234,1.865307,2.961816,-0.099795,0.212017,-1.919463,0.411422,1.192684,-0.069342
-0.204063,-0.194738,-0.207123,-0.264866,-0.154082,-0.153257,-0.320047,-0.854089,0.256535,0.066615,-0.111059,0.513884,0.140191,-0.389608,0.253072,0.551438,-0.416840
2.174356,0.331117,-0.395089,-0.076088,-1.358368,-0.764665,0.419410,-0.507504,-0.474976,-0.895890,0.614553,1.871862,3.758025,0.059627,-2.845526,0.532302,-0.558007
