2.399717,-0.501544,0.293466,-0.626850,0.067979,-0.171780,0.501346,-0.479546,0.108692,-0.239046,-0.460276,-0.189317,-0.320545,0.051601,-0.620658,0.428642,-0.534556,-0.583308,-0.326197,0.366861,-0.059169,-0.256388,0.109306,-0.238632,0.101447,-0.913185,-0.644983,-0.452437,-0.178126,0.084780,-0.503842,-0.605999,0.217402,1.385601,-0.488217,0.022908,-1.639720,-0.299368,-0.345893,-0.174720,-0.548172,0.491480,-0.357294,0.208017,-0.302928,0.532651,-0.297304,-0.126720,0.453065,0.625493,-0.449850,-0.605659,0.222971,-0.067647,0.623378,0.019246,0.294811,0.224108,0.817404,-0.154060,-0.079717,0.809741,0.036272,-0.085449,0.238542,-0.745801,-0.547443,-0.594484,0.055406,-0.013614,-0.637712,0.378835,0.018349,0.773563,0.857754,1.269403,-0.083451,-0.006125,-0.566644,0.096932,-0.354499,-0.254843,0.223704,-0.534330,-0.280347,0.048207,0.171509,0.322540,-0.113940,0.164069,0.305634,-0.330210,0.188530,-0.373432,-0.376264,-0.364936,-1.711775,-0.582070,0.232847,0.019550,-0.408651,0.307595,-0.352346,-0.055928,-0.374121,-0.354515,-0.272597,0.353067,-0.466612,0.142412,-0.400785,-0.751953,-0.086833,0.535699,-0.453885,-0.665784,0.614216,0.096830,-1.214465,1.240117,0.073656,-0.015069,0.226434,-0.607088,-0.660475,-1.022470,0.015832,-0.520451,-0.003524
-0.184916,1.142717,-1.363622,-1.090922,-0.115680,-0.902379,0.712253,0.147395,-1.108268,-0.906646,-0.600943,0.056393,0.210371,-1.363143,-2.136501,-0.572580,-0.055214,-0.397426,-0.222831,-0.348685,0.215271,-0.219512,0.524929,1.275514,-0.612216,-0.744462,-0.817168,0.002893,0.283391,0.246948,0.129143,-0.194024,1.085909,-0.433503,-0.009609,0.048223,0.092222,-0.550750,0.459715,0.105011,-0.095785,-0.077193,-0.480693,-0.488995,0.961316,0.617389,-0.456274,0.858251,-1.145046,-0.629486,-0.400801,-0.597981,-0.220057,-0.907279,0.862707,0.347643,0.234190,0.652014,0.715580,-0.490963,-1.885011,-0.521746,-0.686151,-0.420952,0.152719,1.439365,-0.583200,-1.070491,-0.307899,0.612263,-0.635988,0.291423,-0.553404,-2.193922,-0.699620,-0.833566,0.005193,-0.226183,1.133571,0.138509,0.289573,-0.609333,-0.396160,-0.626819,0.751800,-0.948502,0.172614,0.523857,-0.619804,-0.451010,0.511242,-0.233790,-0.106285,0.325323,-0.482265,-0.256168,0.627224,0.221465,-1.652104,-0.184170,-1.129529,0.243222,-0.563418,0.301501,-0.125239,0.017295,1.231087,1.653696,-1.567991,-0.683246,-0.149311,-0.709537,-0.586733,0.346764,-0.320736,0.817931,-1.022245,-0.466610,-0.043763,-0.054271,-0.245106,-0.011793,1.138070,0.648365,-0.175562,0.512366,0.269868,-0.143642,-0.492852
-1.046378,-0.952210,-0.743781,1.237783,0.758042,-1.481159,1.059997,0.400944,0.797697,0.848056,0.256361,-0.094003,-0.166887,0.940886,-0.933398,-0.188146,-0.250771,-0.160443,0.164491,0.055312,0.440478,1.734276,0.170562,-0.103125,-0.331418,1.079440,0.029043,-1.247949,-0.576858,0.137065,-0.300451,-0.610403,0.724738,-0.796245,0.082467,0.207359,0.521978,0.442392,0.109871,-0.625489,-0.575812,-0.101725,0.266158,-0.806156,0.424820,0.508046,-0.369617,1.142232,-0.466011,0.202753,-0.041042,0.122334,0.216019,0.247033,-0.333415,0.015005,-0.259810,-0.368493,0.373793,-0.000164,0.384255,0.419041,-0.651103,-0.100346,-0.417445,0.503786,0.569624,-0.341984,-0.555447,0.091224,0.587541,0.432075,-0.455387,-0.117310,0.363034,-0.434698,0.329851,-0.970149,0.452557,-0.529505,-0.628820,-0.027580,-0.616639,-0.714366,-0.075178,0.406881,-0.852937,-1.808876,0.242521,1.217558,-1.816908,-1.099447,-0.293320,-0.335896,0.000320,-0.658399,-0.927800,-0.223981,-0.383202,-0.827009,-0.460683,0.117610,-1.575467,-0.426922,0.081236,-0.438502,-0.635784,-1.324068,0.198661,-0.681579,0.064613,0.873600,-0.557836,0.086863,0.361439,-0.733541,-0.626750,-0.375413,0.182471,-0.209290,-0.421470,-0.553397,0.578424,0.226378,0.135700,-0.161628,-0.386618,0.290893,-0.390283
-0.635744,0.812889,0.702171,-0.022799,0.097273,0.378988,0.609895,0.626863,-0.438686,-1.235512,-0.329004,-0.578741,0.087092,-1.962197,0.967013,-0.730296,-0.153200,-0.744497,-0.003530,-0.661741,-0.104225,-0.693253,1.269322,-0.561838,-1.197670,0.115879,-0.463415,-0.018132,0.230958,-0.502726,-0.296371,-0.246640,1.372003,0.271696,-0.070920,0.279695,0.461599,0.169680,-1.131699,-0.011617,-0.087974,-0.159008,-0.080709,-0.989814,-0.002245,-0.062618,-0.776964,-0.385059,-0.207453,-0.697198,-0.388255,0.466674,0.587515,-0.162821,-1.059164,-0.282177,-0.378735,0.073075,-2.417942,-0.645030,1.277836,-0.890587,-0.919944,0.554683,0.208680,-0.212968,0.103044,-0.675369,-0.220936,1.219189,0.870955,0.025316,-0.139299,0.108380,1.125405,-1.099478,0.382280,0.055158,-0.407367,-0.075968,0.703169,-0.190237,-0.151975,-0.895164,-0.190150,0.069371,-0.674775,-0.675071,-0.549660,-0.864560,1.323557,0.701621,-0.308782,0.294166,0.427636,-0.837914,1.069187,-0.288501,-0.753100,-0.100321,1.420809,-0.352443,0.982670,0.199555,-0.012358,-0.455749,1.211128,-0.528770,0.356474,0.176610,-0.027993,0.732523,-0.771438,-0.467275,0.090654,-0.335353,-1.032914,-0.427939,-0.875241,0.258183,0.286841,-1.523475,-0.786196,1.795785,-0.605575,0.677796,-0.181414,-0.109826,0.160919
-0.466664,0.898755,-0.852841,1.128884,-0.110847,-1.857326,0.414756,-0.327599,-2.656718,0.977232,0.893609,-0.041110,-0.333078,-0.252228,-0.225226,0.166872,-0.316247,0.522320,0.486948,0.096244,-0.362385,-1.524903,0.214685,-0.699132,-0.473801,0.352904,-0.244159,0.575314,0.651571,-0.708401,-0.131914,-0.517072,-1.185057,0.641317,-0.121362,-0.161952,0.152569,0.325649,0.285031,-0.330078,-0.482237,-0.178450,0.036449,-0.241057,-1.714233,-0.030631,-0.363062,-0.647215,-0.756081,-0.918674,0.241543,1.001783,0.759198,-0.036141,-0.198511,-0.072958,-0.244695,-0.170333,0.363493,0.120160,0.341203,-0.521640,-0.273534,-1.245565,-0.023217,0.066049,-0.195671,0.286205,0.015000,-0.336546,-0.268052,-0.356251,0.173046,-0.847576,0.145342,0.840393,0.271247,-1.050205,-0.317148,-0.184955,1.850033,-0.393102,0.198454,-0.320530,-0.776271,-0.576425,-0.555979,-0.703846,1.165731,-1.415991,-0.399204,-0.158964,0.073274,-0.853556,0.348543,0.193483,1.344728,-0.294644,-0.897994,-0.622508,-0.296478,-0.584863,-0.115770,-0.242028,0.214813,-0.003626,1.039039,2.107063,-1.461019,0.211283,0.381799,-1.237599,-0.494457,0.119924,-1.220770,-0.411825,-0.245290,0.092281,-0.258015,0.105715,0.475495,-2.239976,-0.826822,-0.802674,1.036613,0.682966,-0.079408,2.694391,-0.504584
1.293338,0.390538,-0.484765,0.570070,-0.240523,0.856346,0.002166,-1.292806,-1.370134,1.037093,0.456654,-0.318302,0.231865,-0.141273,0.370124,1.243055,1.531489,-0.592357,-0.072544,-1.415524,-0.755231,-1.801003,0.869973,-0.275913,-0.585129,1.813924,-1.578987,-0.307336,1.335195,-0.271585,-0.147183,-0.129096,0.488858,0.299044,-0.176691,-0.442481,0.393682,-0.944908,0.011492,-0.569851,-0.027344,0.484045,-0.003491,-1.097537,0.602858,-0.659690,-1.886559,0.164422,0.671356,-0.828002,0.350784,0.435436,1.527730,1.029329,0.404561,1.346886,-0.782928,-0.389917,1.232348,-0.044677,-0.974898,-0.216347,0.026989,-0.144999,0.064013,-0.745565,-0.168761,-0.586657,-0.719453,-0.447885,-0.521064,-0.171068,-0.531104,-0.615314,1.566965,-0.192988,-0.231426,-0.059930,-0.487729,-0.183399,-0.341258,0.140637,-0.040689,-0.054715,0.230497,-0.268467,-0.506339,-0.913272,0.372138,0.242221,-1.059906,-0.143822,0.463360,0.396912,0.461511,-0.192209,0.561044,-0.245244,-0.458145,-0.788292,0.312817,-0.252134,0.347116,0.199778,-0.610192,0.170093,0.516898,0.034772,-0.586027,0.766697,0.105645,1.031030,0.030724,0.063725,1.303727,-0.988931,0.223739,0.496046,-0.008861,-0.187907,-0.026031,-1.883532,-0.219915,-0.850511,-0.155466,-0.126041,0.350869,1.284515,-0.502820
-0.467557,-0.789086,-1.395496,-1.567875,0.234872,-0.355202,0.195065,0.693553,1.699986,0.144316,1.297580,-0.663393,0.285505,-1.846217,-0.693500,-0.337284,-0.066997,-0.797380,0.041889,-0.645866,0.218464,-0.428780,-0.404969,-2.277475,0.271265,-0.559706,-1.767017,0.997416,-0.111493,0.370264,0.067069,-0.302846,-0.977228,-0.473784,-0.037097,-0.265102,0.093038,0.332195,-1.261250,-0.529130,0.071659,0.371521,-0.530876,0.960798,-0.761571,0.682787,-0.224195,0.423229,0.153641,-0.453697,0.468631,-0.650844,-0.527516,0.028613,-0.003987,0.072046,-0.242001,-1.390602,0.358639,0.010675,0.169386,0.223594,0.786311,-0.386156,-0.121546,1.570981,-0.228799,-0.750650,-0.185943,-0.179599,0.014722,-0.187351,-0.416670,-1.148447,0.496899,0.155822,-0.377299,-0.450019,0.979542,-0.345695,-0.194259,0.530483,0.040733,0.129390,0.606584,-0.525802,-0.273026,1.406022,0.797701,0.477465,1.415359,-0.171406,0.436120,-0.683361,-0.421147,0.568474,0.495644,-0.270969,0.097043,0.079414,-0.899350,-0.347553,-1.076568,-0.232390,-0.425607,0.099417,1.561153,-1.418175,-0.545086,-0.669150,0.406423,-1.187577,-0.373614,0.234122,-0.739994,-1.138543,0.058602,0.224906,-0.737860,0.057697,0.286128,-0.627597,-1.045796,-1.302666,0.416340,-0.410124,-0.116118,-0.215260,0.171014
0.507816,0.461755,-1.318901,0.873958,0.877087,1.096080,-0.059021,-1.252849,1.018448,-0.167757,-0.204237,0.545738,-0.299485,-1.015370,1.142033,-1.561540,-0.056922,-0.751830,-0.361577,-0.661448,1.150536,0.188934,0.620199,0.294588,-1.549078,-0.636299,-1.601446,1.195479,0.060983,-0.620636,-0.125210,0.073654,-0.580629,0.316418,-0.050467,-0.011889,-0.098338,-1.719901,0.248752,0.127570,-0.266098,0.030451,-0.400058,-0.637615,-0.812855,-1.073474,0.942050,-0.148296,-0.963391,0.724578,-0.475485,0.950401,-0.153350,0.611964,-0.555011,-0.503313,-0.250088,0.776980,0.960596,-0.100634,0.558358,1.178892,0.011320,-0.133603,-0.389817,0.592811,0.696364,-1.024048,-0.277091,-0.794678,-0.769865,-0.351630,0.250671,-0.062674,1.148185,-0.917896,-0.111856,0.598987,-0.427352,-0.291909,-0.473483,-0.106271,-0.393493,-0.232765,0.841426,-0.612651,-0.472385,0.068342,-0.945408,-2.300988,0.366547,-1.152178,-0.445392,0.336090,-0.192813,-0.111171,-0.577513,-0.583246,-1.852523,-0.281309,-0.668569,-1.373328,-0.946285,1.202680,-0.450984,-0.033671,1.349917,-1.305568,-0.364930,-1.251580,0.059969,-0.257644,-0.648073,0.257703,-1.141405,-0.164260,-0.565086,0.156432,0.315797,-0.131738,0.316032,-0.815847,-0.561470,-0.852363,0.403258,-0.356215,0.159522,0.965885,0.015875
-1.516766,0.523769,0.525759,-0.715033,1.348039,-1.400816,-0.294637,0.417657,0.119629,0.789585,-0.212287,-0.364559,0.005689,-0.158727,-0.474162,-0.862970,0.315561,0.908688,-0.418077,-0.494045,-0.322627,0.107047,-0.938178,0.865194,-0.372148,0.722960,0.205653,0.040748,0.190946,-0.009459,0.214122,-0.617639,-0.898885,0.299144,-0.464457,0.391847,0.858957,0.207738,-1.903001,-0.355121,0.293008,-0.427292,0.411004,-0.392537,-0.500836,0.332674,-0.300914,-1.136929,0.099087,0.248628,0.399687,-1.769246,-0.218053,0.399183,-1.200802,0.733332,0.120747,-0.237050,-0.899131,-0.127281,0.254003,0.859080,-0.415527,-0.531208,-0.435129,0.905565,-0.013244,-0.193470,0.209816,0.554647,-0.930520,-0.203097,-0.500095,-0.616076,-0.135746,-0.086543,0.146001,0.142257,0.356792,-0.156759,-0.209571,-0.163644,-0.196701,-0.669963,-0.396286,0.202139,-0.418255,-0.154188,-0.388057,0.681356,-0.691565,0.784823,-0.271618,1.711503,0.462134,-0.963679,0.504037,-0.342754,-0.201825,-0.623764,-0.910214,-0.557967,-1.532972,0.028754,-0.435022,0.274553,0.096788,0.749300,-0.000970,-0.077543,0.277468,1.529718,0.125131,1.159801,-0.328095,0.297713,-0.119776,0.141158,-0.870151,-0.639184,-0.105167,0.405519,-0.382041,0.007102,-1.082881,-0.002079,0.056455,0.257248,0.063940
1.137263,0.238666,0.093143,0.175476,0.701729,-0.515694,0.929427,0.288344,0.120158,-0.882982,0.298241,-0.144365,0.177480,0.131218,1.037900,0.306165,0.014431,-0.066751,0.329049,-0.474045,-1.469860,-0.188624,0.850369,-0.076811,-0.020123,-0.055122,0.390585,0.477011,0.401575,-0.152535,0.220186,-0.210185,0.236696,-0.843150,-0.724040,0.383336,-0.290113,-0.462815,0.621107,-0.172409,-0.648278,-0.466869,-0.126219,0.764312,0.467611,-0.213289,1.144715,-1.061750,-0.105342,-1.038014,0.138959,0.320024,-1.956182,-0.177060,-0.283357,-0.012767,-0.163169,0.245456,1.393741,-0.415244,-0.667341,-0.016882,0.537077,-0.512798,0.414163,0.134427,-1.000106,1.417773,0.191509,-0.642901,-0.019199,0.383676,-0.401686,1.130567,-0.291936,-1.042119,0.099709,0.657742,-0.469119,-0.431999,-0.157974,-0.658998,0.139307,-0.345485,1.208396,0.881948,0.069221,1.897082,-0.350709,0.613498,-0.963629,-0.451190,-0.293830,0.402714,0.441106,-0.107855,-0.297994,-0.071991,0.120659,-0.711533,0.071523,0.170511,-1.438494,0.366670,-0.350895,-0.003656,-0.509548,-0.289597,-0.127908,-0.180881,-0.186362,-1.187886,-0.611603,-0.183629,-0.237117,-1.072564,0.710416,0.088081,0.456338,-0.182252,-0.189479,-0.426645,-0.616793,0.313983,-0.058120,-0.493068,0.333435,-0.817199,-0.281264
-0.248444,-0.747439,0.436125,-0.131358,0.167581,1.988207,0.631793,0.576738,0.518835,-0.343358,-1.640816,1.525142,-0.280944,0.899699,-0.329314,-1.369788,-0.304693,1.156427,0.297970,-0.299518,-0.064295,-0.315172,0.055149,-0.248473,0.929180,1.296450,0.502145,-0.691365,0.354180,0.290890,-0.539615,-0.460648,0.204668,-0.067003,-0.265497,-0.100561,-0.038616,-1.428093,0.572758,-0.650256,0.160115,0.168198,-0.086407,0.267853,-0.743705,-1.020602,-0.202071,0.700548,1.336399,0.375345,-0.262651,-0.049779,-0.433941,-0.211422,-0.086167,-0.532086,-0.628867,-0.017268,-1.150136,-0.316860,1.694097,0.479342,-0.303948,0.323117,0.495481,0.109011,0.085409,-1.362496,-0.599937,0.430663,-1.022848,-0.143888,0.021648,-1.347877,-0.419684,0.572693,0.220358,0.801188,-1.282896,-0.253777,1.311879,-0.625984,-0.351692,0.060349,-1.803964,0.276031,-0.478809,0.243477,-2.055117,-1.457004,1.206859,-0.361611,-0.320220,-0.632730,0.380892,-0.249423,0.027620,-0.454022,0.631572,0.036135,-0.444087,-0.504594,-2.024672,0.370771,-0.199055,-0.466795,-0.751899,-0.255676,-0.133804,0.817205,0.405729,-0.416866,-0.083359,1.416616,0.123674,-0.270741,-0.455592,-0.238277,-0.233688,0.073586,0.162618,0.334457,1.288238,-0.507752,0.650741,-0.125661,0.454678,0.034335,0.086452
-1.070670,0.167361,0.273691,-0.815110,0.186046,-0.070640,-0.827895,0.401694,0.597841,-0.685166,0.348142,0.419502,-0.052679,0.245962,0.356348,-0.732462,0.148366,-0.293714,0.451246,-0.228251,0.134654,-0.326024,-1.089564,-0.577343,0.134179,0.414287,0.648581,0.817532,0.127994,-0.118894,-0.471805,-0.579985,-1.170502,1.104391,0.235722,-0.278473,0.074530,0.163674,-0.801768,0.371923,-0.012884,0.000918,-0.725449,-0.251910,0.196471,0.384606,-0.202211,-0.776819,-0.430430,0.795996,-0.448562,-0.212363,-0.179847,-0.244424,0.950524,0.364661,0.115836,-0.243932,-0.934754,-0.367917,-0.082030,0.821816,-0.214508,-0.416783,0.101707,1.266630,0.472720,0.392859,0.276568,0.619169,1.245693,0.472871,-0.161393,-1.366462,-0.482942,-0.594090,-0.185791,-1.022557,0.032282,-0.281475,-0.299233,-0.844731,-0.348139,0.406150,-0.879504,-0.091770,0.429599,0.740384,-1.252171,-0.040141,-0.577187,-0.471134,0.046969,-0.556558,0.476505,-0.840567,-1.132489,0.002802,0.356585,-0.334354,0.824284,0.317762,0.661139,-0.023782,0.281718,-0.450141,0.781885,0.946491,1.218451,0.986155,0.124536,-0.101021,-0.302395,-1.599171,-0.192052,-0.754544,0.428494,-0.216822,-0.294327,0.094190,0.478216,-0.442469,0.865648,0.195106,0.065430,-0.396357,0.022396,0.330965,-0.144112
0.678427,0.569387,-0.240024,1.199727,-0.777038,0.538713,-0.898006,1.081759,-0.268451,-0.442396,0.003151,0.204344,0.137246,-1.652090,0.464218,0.991072,-0.701736,-0.671600,-0.205817,-0.301893,-2.124648,-0.698503,0.001858,-0.138685,1.464690,0.370468,-0.147445,-0.275212,-0.100388,0.099724,-0.159981,-0.200308,0.380365,-0.071221,-0.347786,0.083778,0.271212,-0.509686,-0.168785,-0.174621,-0.134157,-0.142823,0.935477,-0.313382,-0.429803,1.367540,0.075905,-0.280739,0.748178,-0.021483,0.256026,0.859303,-0.100525,0.256146,0.417862,-0.509848,-0.153758,0.363452,0.464827,-0.248715,-0.173020,0.242584,-0.780400,-0.089067,-0.206445,-0.552552,1.034955,-0.074450,0.051988,-0.192871,-0.381270,-0.404978,-0.106879,0.351557,0.745491,0.776835,0.075631,-0.483857,0.269701,-0.419377,0.304757,-0.455605,-0.111197,-0.501554,-0.041359,-0.590742,-0.337666,-0.921219,-0.535233,-1.031379,-0.477909,0.013772,0.187604,-0.478116,0.053437,-0.434182,-1.684968,-0.657269,-0.502369,-0.175621,-0.548709,-0.311314,-0.125106,1.469520,0.059233,-0.220464,-0.188967,-0.182808,-0.542930,0.364136,0.294295,-0.422481,-0.080915,-1.533025,-0.392957,0.697703,-1.396079,0.132161,-0.414950,0.823276,0.213798,1.088252,1.428230,0.472299,0.282027,0.561670,-0.310594,-0.471296,-0.014353
0.698308,-0.703496,0.378558,0.251380,1.124351,1.428840,-1.325292,1.195735,-0.114140,-0.914290,-0.986724,-0.770145,0.305285,-0.072487,0.927556,0.074988,0.037427,0.752921,0.028530,0.047293,-0.691004,0.180191,-0.452994,-0.064484,-1.012480,-0.272123,-0.274782,0.409909,0.225963,-0.276650,-0.055819,-0.283618,0.278018,0.057585,0.141573,-0.029601,1.039329,0.412731,-0.102593,-0.229237,-0.134295,-0.279905,-1.074345,-0.032566,0.416151,-0.523805,-0.784314,0.817536,-0.675189,0.673688,0.099236,-0.713773,0.185051,1.071926,0.363053,0.034255,-0.042629,-1.520861,0.213608,-0.087541,0.121761,0.339490,-0.919340,0.453253,-0.019000,-1.695342,-0.775105,-0.907963,-0.060958,-2.110603,0.589178,-0.443410,0.086470,0.756954,0.518629,-0.634551,-0.102543,0.933666,-0.972336,-0.264683,0.057713,-0.582040,-0.536758,-0.128713,0.175432,0.260031,-0.230481,-0.685831,-0.116240,0.036197,0.048190,1.214820,0.401710,-0.627458,-0.181741,0.768902,-1.081658,-0.634293,-0.627762,-0.558380,-0.037718,-0.519965,1.662114,-0.338907,-0.410690,-0.302662,-1.455424,-0.572551,-0.001063,1.544203,-0.439508,-1.303418,0.063761,-0.523708,-1.080859,-0.949457,-1.159188,0.264391,-0.467313,-0.214520,0.153501,0.778528,-1.540793,-1.373590,0.446983,-0.200655,0.233320,-0.360084,-0.172833
-1.115031,-0.405677,0.083502,0.332918,-0.013365,-0.563466,-1.244740,0.036252,1.026322,-0.013646,0.792366,-1.369162,-0.048951,-1.084570,1.072305,-0.234081,-0.512879,0.307840,0.001803,-0.102919,1.049196,-0.099123,0.343169,-0.640135,-0.147538,-1.501387,-0.149282,-0.105315,0.388301,0.053984,-0.504617,-0.150823,0.891356,-0.016968,-0.253615,-0.321153,0.923475,0.575533,0.330775,-0.039231,-0.096847,-0.173158,0.402864,1.146390,-0.796715,-0.270724,-0.370323,0.516534,0.986980,-1.613126,-0.351041,-0.383534,0.173292,0.579826,-0.194767,-0.113829,-0.490860,-1.286816,1.197131,0.152013,0.432567,-0.678142,-1.781744,-0.239715,-0.255321,-1.200186,-1.041284,-0.473877,-0.359626,-0.594065,-0.195218,-0.466796,-0.418819,0.566779,-1.215601,-1.689365,-0.305232,-0.438436,0.607606,-0.074740,-0.142814,0.559203,0.132251,-0.304047,-0.224900,-0.418601,-0.699789,0.478367,1.377943,1.810540,0.453950,-0.804633,0.027352,-0.344397,0.016679,-0.032917,-0.289122,-0.101025,-0.014153,-0.428798,-0.757503,0.624882,-1.559905,-1.427801,0.116631,0.279428,-1.785256,-0.262907,-1.085598,-1.271476,0.028617,-0.681084,-0.131724,-0.424753,-0.560898,-0.830796,-1.376250,-0.031330,-0.777103,-0.242415,0.274176,0.006162,0.057321,1.078612,-0.567312,0.381803,-0.520134,0.904205,-0.222373
-0.629860,1.310525,0.200380,-1.971941,-0.128177,-0.142511,-0.403402,-1.557980,-0.153990,1.517257,0.480850,-0.521346,0.133441,0.469935,-1.875590,0.195099,-0.165141,0.140830,0.418337,0.004910,0.472181,0.066790,0.949783,0.432874,-0.578529,-0.410604,-0.166624,0.237045,-0.759905,0.924493,-0.676836,-0.363471,0.031517,0.278932,-0.636225,-0.058639,0.326712,0.281460,-0.286721,-0.366288,-0.148021,0.061999,0.433496,-1.016231,0.489849,0.207410,0.058701,-0.028100,-0.147914,0.116561,0.388681,0.237542,-0.139436,0.751224,0.427414,0.190732,-0.535134,-0.173720,-1.190155,-0.486699,-0.817515,0.548620,-0.227147,-0.063343,-0.131851,1.508922,0.595601,-0.664009,-0.255232,-1.783395,-0.763701,0.124014,-0.470272,0.459404,-1.071023,-0.645403,-0.477520,0.249043,0.347197,-0.242277,-0.413809,-0.393997,-0.236753,-0.253725,0.143681,-0.612975,-0.466816,0.494554,-0.534103,0.399486,0.795128,-0.001321,-0.463517,0.973297,-0.429252,-0.232779,0.348121,-0.625334,-0.296779,-0.376569,0.121965,-0.480666,1.022915,-0.448529,0.133699,-0.103830,-1.067256,-0.130558,0.391798,-0.269353,-0.224730,0.093742,0.105165,0.057970,0.318244,1.437470,0.068569,-0.332302,-0.298831,-0.111980,0.314969,-1.756180,0.904881,1.558635,0.377476,-0.025488,0.427442,-0.831917,-0.507067
-1.346172,0.092715,0.385905,-2.232264,-0.701905,0.059833,-0.148360,-0.065710,1.155654,0.021249,-0.187821,-0.647459,0.245799,-1.591725,-0.994145,-0.327124,-0.359081,0.937231,-0.415761,-0.229979,-0.252253,-0.338506,0.698857,1.731728,0.874368,-0.872375,0.278872,0.850792,-0.186013,-0.198129,-0.702143,0.105608,-1.726109,-0.828685,-0.464585,0.234077,-0.334034,0.207820,0.068339,0.185500,-0.529131,0.461245,-0.342056,-1.633528,-0.196689,-0.226041,-0.385220,0.313529,-0.978169,-0.067298,0.370598,0.041605,0.009403,-0.278206,0.323095,0.066325,-0.242841,-0.610718,-0.016577,-0.225430,-0.879046,-0.227288,0.553050,0.094548,-0.058643,-2.223807,-1.144892,-0.622159,-0.298218,0.254360,0.382184,0.464280,-0.458395,1.080225,-1.399287,0.078792,0.396894,-0.653941,-0.796190,-0.481826,-0.840121,-0.172969,-0.474080,0.174499,-0.027809,1.079313,-0.435566,0.365067,0.893320,0.578252,0.382051,0.190377,0.425651,0.246869,-0.248855,0.794044,-0.170830,0.017723,1.597607,0.250052,-1.528163,-0.003031,-0.334445,-0.649973,0.263098,0.437175,0.306001,-1.212105,0.840448,0.318296,-0.390754,-0.121015,-0.679277,0.093065,-0.841985,-0.690856,0.377233,0.202291,-0.068058,-0.756102,-0.268350,-0.476404,0.454871,0.401454,0.588040,-0.482576,-0.471387,0.449633,-0.089807
-0.181617,0.270933,0.348111,-0.087936,0.138580,-0.093017,-1.218569,0.322492,0.382353,-1.318248,0.450236,0.204144,-0.234662,0.653832,-1.017006,-0.416894,-0.270437,0.833570,0.149629,0.165544,0.093091,-0.278616,1.073131,-0.374377,-1.147964,-0.869376,0.120054,-0.151773,0.444155,0.552280,-0.187483,-0.725313,0.086128,-0.454847,0.232513,0.120468,-0.483674,-0.305640,-0.621151,-0.134378,-0.146231,-0.113635,0.273238,0.540562,-1.269671,0.384507,0.074814,-0.559889,-0.477086,1.079103,0.224422,0.708745,-0.240942,0.049695,-0.679293,-0.360504,0.022864,0.067552,0.455377,-0.399997,-2.089716,-0.944452,-0.340440,-0.022013,0.300581,-0.496219,0.574741,-1.535336,0.217050,0.760409,-0.746241,0.072338,-0.089725,0.751168,0.706199,0.436145,0.416279,-0.570213,-0.735373,-0.207969,0.979690,-0.707111,-0.103737,0.044971,1.022476,-0.167540,0.154856,-0.343090,-0.467551,-0.657491,0.344037,0.297925,0.389711,-0.402242,-0.075513,0.620229,1.404479,-0.691161,-0.562159,0.055693,-0.743284,-0.891901,-1.021862,0.135617,-0.052439,0.201960,0.299098,-0.813013,-0.911168,0.286072,0.100066,-0.064428,0.194756,-0.076068,0.870885,-0.224340,-1.219866,0.292177,-1.184069,0.281290,0.120987,-0.309991,-0.927690,-0.299807,-0.780446,-1.552839,-0.489754,0.503120,-0.334308
-0.925006,-1.850056,-2.099081,0.596938,-0.606084,-0.980965,0.826276,0.276310,-0.382480,-1.397236,2.115398,-0.599573,-0.181296,-0.090415,-0.716162,-0.548483,0.319885,1.369980,-0.404976,-0.206889,-0.311336,0.336148,0.090784,1.667300,0.770234,0.773311,-1.264384,0.103043,-0.386554,-0.387642,0.122150,-0.435542,0.706815,-1.130788,-0.347948,-0.483433,-1.452454,0.070011,-0.712501,-0.534720,-0.002058,-0.491762,-0.687779,0.062858,0.266672,0.293219,-0.544734,-0.434956,0.852933,-0.707619,-0.153777,-0.017630,0.604246,-0.155996,-0.129854,-0.027558,-0.072552,-0.157203,0.689695,-0.195238,2.352406,-0.436105,-0.427258,0.862722,-0.475495,-1.983625,0.877008,0.360232,0.224011,0.507836,-0.572460,0.343863,0.001936,-1.453548,1.173900,-0.323628,0.035181,0.755533,-1.437000,-0.103495,-1.195198,0.389060,-0.118039,-0.258440,0.437955,-1.182132,-0.050755,-0.330991,0.550073,0.536705,-0.912744,0.251794,-0.131593,-1.010714,0.416852,1.591920,0.635588,0.009425,-1.403063,0.237582,-1.150235,-0.191512,-0.546367,-0.206674,-0.064378,-0.082207,1.023259,0.182529,0.183940,-1.618351,0.045241,-0.971651,-0.651388,-1.398625,-0.101042,-0.466544,1.909529,0.203666,-1.022619,-0.752191,-0.489745,-0.813915,0.960227,-1.078200,-1.204640,-0.000509,0.032647,0.012407,-0.425139
-0.715503,-0.156928,-0.185951,0.428747,-0.879879,-0.361940,-1.190392,1.601831,-0.764044,1.120112,-0.095584,-0.505176,-0.081969,-0.086725,1.793883,-0.053556,0.223988,-0.287802,-0.312038,0.349303,-0.106575,0.040520,-0.217080,0.617312,-0.299786,0.530558,-1.235748,1.859784,-0.392992,0.370202,-0.645166,-0.278820,0.837304,0.529227,-0.370689,-0.078866,0.126050,-0.617145,1.262464,-0.607910,-0.143142,-0.315566,-0.549104,-0.444868,-0.656004,0.123895,-0.170970,-0.989554,-0.644129,0.711542,-0.415604,-0.381812,-1.316696,0.519726,-0.996936,-1.840595,0.229968,-0.329854,-0.134324,-0.153661,1.188053,-1.109428,-0.140243,-0.262004,0.283196,-0.478314,-0.531064,-0.454006,-0.244557,0.304506,-0.082419,0.332847,0.132640,-0.756888,0.425449,-0.736579,-0.079703,-0.117788,-1.069908,0.084832,0.848442,-0.547681,0.093633,-0.261713,0.772417,-0.336204,0.122084,-1.262699,-0.131250,0.339062,-1.305652,-0.796770,0.498541,1.311049,0.282860,0.072113,0.248643,-0.114871,-0.400626,-0.645578,0.445691,-0.245763,0.129426,0.082755,-0.608878,-0.415105,-0.144484,-0.189889,0.786068,-1.668088,0.214040,0.220142,-0.450215,-0.080731,0.701056,-0.851175,-0.284853,0.031773,0.164324,-0.553349,-0.071086,0.866518,-0.516645,0.133158,-0.421699,-1.924692,-0.121822,-0.197523,0.067024
0.248586,0.160705,0.558758,-0.960231,-1.216096,1.339484,-1.495023,0.892719,-0.042717,-0.464078,-0.662562,-0.277380,-0.250461,-0.168320,1.725869,-1.147742,0.556543,-1.532750,0.055135,-0.498909,0.603512,-0.554191,-1.511846,-0.340793,-0.482993,0.931230,0.076230,-1.281121,-0.032545,0.722100,-0.062629,-0.338326,-0.986805,-0.090596,-0.481499,-0.151019,0.009516,0.412234,0.086514,0.200962,-0.695071,-0.045491,-0.868356,-0.234975,-0.678151,1.351052,-0.562526,0.607670,-0.332628,-0.930231,-0.454897,-0.467483,-0.455130,0.937292,-0.684218,0.822300,-0.628258,-0.542344,-0.031315,-0.327964,0.867201,0.085409,1.984849,-0.379712,0.165837,-0.011426,0.312916,-1.467310,0.037080,1.467727,0.131186,-0.238403,0.097270,-0.304010,-0.842068,-0.379679,0.164464,-0.677232,-0.051138,-0.674786,-0.546952,-0.137195,-0.006392,-0.054267,0.126838,-0.017212,0.027466,0.854575,-0.281813,0.274942,0.865905,-0.214208,0.170155,-0.589969,-0.129191,-0.258943,-0.634506,-0.550754,-0.730054,-0.639686,0.824749,-0.060947,0.528220,-0.707132,-0.550385,0.146509,-0.526284,0.474871,-0.232768,-1.119644,-0.054407,1.135075,-0.498926,-0.603075,-0.391835,0.323339,-1.123734,-0.379455,-0.980673,-0.122671,0.057719,0.344335,-0.384426,1.466328,0.425101,-0.255039,0.397624,0.488796,-0.653072
-0.545090,-1.197352,0.102939,0.099596,-0.721498,0.077705,-2.689155,-1.697117,1.089479,-0.712541,-0.742394,-0.186075,0.012530,-0.580775,0.099696,-1.086619,1.726067,-0.750173,-0.297873,-0.474081,0.304658,-0.088842,-0.848476,0.501928,0.051932,0.662889,0.150406,0.490657,-0.332382,-0.552568,-0.633124,-0.531924,-0.501486,-0.501453,-0.540492,0.072711,-0.014189,0.110530,0.365988,-0.255066,-0.376329,-0.163558,-0.501838,0.724147,-0.006235,-0.199299,-0.875588,0.829425,0.587084,-0.543578,0.231024,-0.894071,0.263396,-1.022934,0.210448,0.579911,-0.044726,-0.421923,0.499980,0.095221,-0.766798,-0.317224,-0.540926,0.174899,-0.143422,-0.134709,-1.090001,-1.922834,-0.596443,-0.054781,-0.485313,0.479926,-0.528023,-0.482228,-1.058777,-0.744988,0.356479,1.030437,-0.115937,-0.155159,-1.027191,-0.626985,-0.296366,-0.260632,0.156435,0.762458,-0.103587,0.144706,-1.036474,1.422977,0.568429,0.141813,-0.153545,0.733412,0.330192,-0.446820,0.335944,-0.241937,0.059463,0.107507,-0.740887,0.212953,0.575291,-0.388410,-0.477899,0.048828,-0.149070,0.097400,-0.261028,1.234231,-0.067135,1.380786,-0.168030,-0.225173,0.640367,0.874562,0.365652,0.216972,0.050569,-0.220221,-0.319645,1.121176,-1.584189,-1.376503,-1.733618,0.632868,-0.406306,-0.252645,-0.237565
0.937676,0.299150,-0.620067,0.557395,-0.489263,0.388907,-0.753192,-1.051171,-0.176797,0.284842,1.621738,-0.425879,-0.326447,0.590287,1.500741,0.756398,0.184251,-0.201031,0.074790,-0.366675,0.816381,-0.061242,-0.501236,-0.328800,-0.722288,-0.101099,0.087094,-0.402515,-0.288733,-0.207809,0.124342,-0.166620,-0.598422,-0.506564,-0.691246,0.126902,-0.285455,-0.189299,-0.453103,-0.109490,-0.338576,0.361042,-0.461323,0.073473,0.035430,0.252022,-0.536093,0.281698,-0.719187,0.548665,-0.078898,-0.460703,0.103510,-1.596413,-0.182245,0.332922,-0.176613,0.037830,-1.603007,-0.551511,-1.373010,-0.468461,0.248355,-0.092594,0.298316,0.094333,-0.378448,-0.006530,-0.554036,-0.522052,-0.470332,-0.192706,-0.689314,0.796447,-1.910238,-0.527615,0.254905,-1.075961,-0.350185,0.081343,0.470331,0.279359,-0.454602,-0.322521,-0.077351,1.226989,-0.628661,0.025839,-0.297084,-0.437446,0.008341,-0.516974,0.479276,-0.107649,0.097666,-0.056805,-0.575255,-0.446526,0.145269,-0.441643,0.560516,-0.020354,-0.255943,-0.478131,0.071459,0.430621,0.282373,-0.543563,0.472635,0.108873,-0.180876,0.350793,-0.249959,0.114402,-0.363380,0.577156,0.475645,0.329922,0.397062,-0.553450,-0.365695,-0.250874,1.123859,0.578059,0.848537,-0.545219,-0.365877,-0.298772,-0.634062
-0.224597,-0.522562,0.400805,-0.393839,0.334121,1.925346,2.201190,-0.171323,0.184395,0.029643,0.756485,-0.294699,0.022270,0.636069,0.949521,-1.031448,0.465712,0.150013,0.032680,-0.602845,-1.584638,0.217951,-0.558151,0.059203,0.468516,-2.136708,0.255681,-0.208715,-0.241842,-0.449817,-0.353312,-0.572024,-0.449423,0.234242,-0.590351,0.488631,0.351608,0.087328,-0.334287,-0.377871,-0.605120,0.377077,-0.155125,2.047639,-1.412845,0.093954,-0.109805,-0.894381,-0.248180,-1.428115,0.488484,-1.002873,-0.645885,0.880855,0.147870,1.297311,-0.659750,0.154008,-1.152476,0.118104,-0.354323,0.075263,-0.501026,1.458073,0.156863,-2.031531,0.815904,1.465198,0.205570,0.803781,-0.964238,0.124221,-0.587294,-0.717713,-0.033476,1.035585,-0.458644,0.387705,-0.243401,-0.035455,-1.988265,-0.338729,-0.345485,-0.405059,0.699046,-0.361064,0.046875,-0.103083,-1.111231,-0.957743,0.439617,-0.134701,0.376177,-1.514713,0.397459,0.471253,1.189919,-0.321902,-0.286153,-0.538493,0.252805,-0.138022,-1.030964,0.300070,-0.557210,0.111980,-0.934784,0.360718,-0.820350,1.195732,0.280451,-1.260649,0.235897,0.334625,-1.843002,-0.653725,-0.003402,0.252894,0.259214,-0.980268,-0.196363,1.945042,-0.741230,-1.368886,-0.797081,-0.278563,-0.353646,0.008856,-0.255582
0.215031,-0.094143,0.663527,-1.399859,-1.212255,0.840105,2.084447,-1.065566,0.437091,0.438107,-0.499990,-0.643895,0.150924,0.074607,-0.658572,-0.576146,-3.297878,-0.558063,-0.457803,0.202096,0.496871,0.119541,-0.618194,0.075324,0.435428,0.677807,0.917877,-1.803024,0.695412,0.228588,0.438248,-0.371451,0.487808,-0.935487,0.157890,-0.144963,0.565803,-0.646538,0.335830,-0.277226,0.100058,-0.027565,-0.731660,-0.845311,1.707555,0.476347,0.403571,0.081041,-1.135750,-0.382221,0.467788,-0.598770,0.364640,-2.050077,-0.597742,-0.499576,0.006417,-0.050115,0.146252,-0.075317,0.688928,1.289168,0.150143,0.204074,-0.450579,0.711375,0.397904,0.889778,0.089778,-0.313675,0.996241,0.174901,-0.301519,0.750755,-1.061651,1.060976,0.124483,1.113461,0.543730,-0.266173,0.045517,0.350418,-0.488297,-0.122221,-1.283478,-0.878143,0.074836,-0.659138,0.873186,-0.464239,0.917284,0.230419,0.456100,-0.021923,0.423385,-1.163459,0.104124,-0.116059,-0.507567,-0.043437,0.004713,-0.272802,0.308244,0.251837,-0.505388,-0.014613,0.418953,-0.611245,-0.047468,0.385485,-0.478356,-0.751250,-0.318173,-0.001031,-0.638055,-1.127158,0.613052,-0.008201,-0.727040,0.712675,0.370683,0.207586,-0.137422,0.789331,-0.213254,0.244113,0.345699,1.082274,-0.050922
-0.725017,-0.265994,1.579096,-0.780097,0.557357,-1.875498,0.214525,-1.530752,0.048731,1.125347,-0.412777,-0.010064,0.431592,-0.488866,-1.045095,0.091396,-0.557195,-0.195262,-0.348216,-0.562493,0.113136,0.297627,0.282007,0.191188,0.137633,0.271686,1.477125,-1.308941,-0.174737,-0.200335,0.004016,-0.175549,0.187181,1.068567,-0.212349,-0.054045,0.154652,-0.560469,-0.347956,-0.537736,-0.434620,0.454976,0.835923,0.109729,-0.637007,0.066756,-0.246544,-1.170709,-0.904947,-0.221759,0.327656,1.095972,0.073646,0.603939,0.404337,-0.014413,-0.072412,-0.300620,0.114405,-0.652648,-0.226413,-0.411788,1.421466,-0.377327,0.279088,0.147880,0.402159,0.189005,-0.007426,-0.310838,1.393622,0.068134,-0.550258,2.083827,-0.056803,-0.019373,-0.451216,-0.160497,0.135103,-0.438226,0.864903,-0.603458,-0.460963,-0.021002,-0.064984,-1.079220,-0.307766,-0.350389,-0.887172,-1.298624,-0.440255,0.032131,-0.142229,-1.112121,-0.497265,-0.676015,0.282036,0.092490,1.644321,-0.141883,0.522824,-0.136165,-0.245483,0.410875,-0.511419,-0.050614,0.608484,-0.369946,0.414604,0.338552,0.048805,-0.397203,0.149735,0.394688,0.575149,-1.226100,-0.617953,-0.129736,0.001491,-0.294243,-0.241758,-0.689361,-0.480065,-0.314996,-1.168187,0.704507,-0.494603,-2.542595,-0.288202
-1.264433,0.531467,1.587053,-0.549746,-0.060877,1.101874,0.300504,0.290819,-0.289365,0.254537,-0.401086,0.426122,1.307750,-0.801004,-1.969268,-1.293359,0.065923
-1.304604,-0.482928,-0.209043,0.477607,1.703050,0.941251,-1.259500,-0.137017,0.847716,0.127003,1.524850,-1.129384,-0.365016,-0.074433,-1.003909,0.251185,-0.095677
-0.288511,-0.717836,-0.099884,1.323485,0.035761,0.733969,0.018536,-1.938317,1.491353,-1.006514,-0.423010,1.005116,0.561929,-0.336255,1.108134,-1.449063,-0.060437
-0.494348,-0.331924,0.453954,-0.328471,0.421581,-0.617561,0.961394,0.893668,1.182108,0.465488,0.192827,0.793881,0.891551,-1.208165,-2.401078,-1.282052,-0.750240
-0.629705,0.310890,0.121846,0.189281,-0.538932,0.227916,-0.238383,0.606955,0.200243,0.652784,-2.137076,-0.198361,-0.553895,0.340501,0.515915,0.812329,0.266117
-0.365901,-0.052318,0.878923,-0.678959,0.353251,-0.105505,1.232558,-0.951110,-0.826401,-1.696153,0.884424,-0.514688,3.157852,0.853468,-0.659637,0.150320,0.210785
0.346458,0.069129,0.550837,0.280949,-1.580632,0.277867,-1.793667,-1.561420,-0.319818,0.749850,0.612866,0.750872,-2.686727,0.570477,2.523541,-0.349335,-0.167043
-0.317040,0.487031,-1.327729,-0.558815,0.912781,0.220587,0.680961,0.896940,2.494045,-0.433682,-0.868819,1.224113,0.837350,-1.335094,-0.938255,-0.424009,0.395690
0.501874,0.141312,1.648533,0.021468,-1.653776,-0.031394,-1.153357,1.230467,-1.354536,-0.471269,0.461570,1.448786,1.080820,-0.425925,-1.967704,0.595149,0.230110
1.412171,0.135192,-1.191084,0.403319,-0.096278,-1.472716,0.249214,-0.997805,-0.550635,0.617090,-0.116003,-1.385261,-1.129887,1.548446,0.042701,0.722999,0.033720
-0.376168,-0.369838,-0.209944,-0.630480,1.591068,-0.419255,-0.437324,-1.101931,-1.528518,-0.409738,0.588040,0.186553,0.999326,1.183922,0.489580,-0.438651,0.014893
0.192416,-0.265156,-0.459674,0.712915,-0.734539,-0.583452,-0.480406,1.118797,-0.789378,-0.704862,0.272161,0.171185,0.031031,0.156752,-0.157981,0.468115,0.194251
-0.328775,0.015948,0.422242,-0.332357,-0.071855,-0.514382,0.346819,0.153161,-0.477625,-0.526162,-0.319153,0.085831,-0.389368,-0.431824,0.427442,0.156188,-0.320776
0.430394,-0.065362,0.262638,0.900245,-1.885491,-1.443244,2.275952,-1.297605,0.498083,-0.087139,-1.335055,0.422351,0.190009,-0.014397,-1.229727,0.695250,-0.237676
0.048459,0.243382,0.303400,-1.252815,1.188010,0.366150,-0.004923,1.189741,1.550638,0.168251,0.099841,-0.651821,1.722358,-0.415063,-3.376229,-0.457256,-0.288878
-0.515346,-0.513014,0.739168,0.479348,0.065922,0.750715,-0.181763,-0.512205,-0.923542,1.141381,0.273883,-0.571996,1.065826,-0.292244,-1.590331,-0.945307,-0.194237
-0.662078,0.008310,-0.590325,0.293100,1.594472,0.665728,0.001888,1.912935,-0.352594,0.669134,-1.523777,0.948046,1.640851,-0.853425,0.364901,0.532694,-0.256624
0.297344,-0.149408,-0.547868,-0.126695,0.178618,-0.592477,0.213131,0.934937,-0.096160,-0.286594,-0.757404,-0.395377,-1.377524,-0.509785,0.564285,2.106549,-0.309914
-0.337879,-0.053839,-0.360806,-0.434608,-0.242219,-0.435197,0.198022,-0.126145,0.203923,-0.481915,-0.354797,0.285452,0.219263,-0.155266,-0.108483,-0.271886,0.216485
-0.154184,-0.010941,0.557840,-0.236935,-0.168088,0.634859,-0.273885,-0.192582,0.391004,-0.159332,-0.446984,-0.343697,0.600954,0.638111,0.024954,0.471663,0.203409
0.713349,0.150663,-0.319519,-0.059045,-0.437883,-0.055666,-0.219617,-0.254207,-1.204905,-1.044035,-0.205481,0.276920,-0.644554,1.671655,1.837509,0.387016,0.178608
0.475114,-0.019422,0.292865,0.023469,0.195996,1.601769,-0.766066,0.240777,-0.325528,-0.094852,0.495033,-0.537916,0.823615,0.291173,-0.407509,0.079580,0.176240
-0.319441,-0.055507,-0.082264,-0.345061,0.694748,0.250821,0.120090,0.863834,0.743039,1.025861,-1.628086,-1.479056,0.980166,-0.857873,0.226100,1.090381,-0.250027
0.945487,-0.371165,-0.411686,1.414631,-1.010372,2.909698,-0.303528,-0.817508,-0.714392,0.215149,0.066922,-1.205338,-0.875016,0.409132,0.744025,-0.978547,-0.299993
-0.657003,-0.262614,0.677160,-0.372656,0.619154,0.239546,-0.187848,0.316606,-0.436951,-1.385376,-0.673430,0.186226,1.501551,-0.771740,0.220427,0.892362,0.322637
1.292220,0.656397,-0.182416,-0.325895,-0.799976,0.739634,-0.729941,-1.472161,0.886816,0.659433,1.450472,-0.196199,-0.377474,-0.160515,-1.354200,-1.088391,-0.401426
-0.156979,0.062603,-0.726642,-0.345422,0.501562,-0.880400,-0.329443,-1.632007,2.237352,-0.152244,0.148082,1.151313,-0.105330,-0.339327,-0.249620,-0.307644,-0.363684
0.170562,0.269501,0.517458,0.462606,0.288813,1.981248,0.504210,-0.539313,-1.371090,-0.050838,-1.178617,-0.803069,0.289385,0.208185,-0.711529,0.987558,-0.357379
-0.723049,-0.112329,-0.663241,0.035906,0.314618,-0.695697,-0.103886,0.546713,0.375733,0.461442,0.931604,0.080199,-0.251824,-0.672360,0.121016,-0.595749,0.086538
-0.376829,-0.749110,0.134605,0.261597,0.672128,0.069642,-0.431514,0.157325,-0.362682,-0.310460,0.001281,0.247300,0.886056,0.471911,-0.235659,-0.681867,-0.005612
0.478599,-0.011250,0.287793,-0.329774,0.017456,-0.163503,-0.075908,-0.072691,0.381840,-0.249619,0.508564,0.477320,0.416606,0.408264,-0.072526,0.286988,-0.235568
0.215885,0.349176,0.399771,0.284486,-0.186048,-0.304971,0.224215,0.174120,-0.381171,-0.039468,0.350080,0.402286,-0.367150,0.019227,0.210268,-0.362278,-0.375225
-0.144268,0.204875,0.662276,-0.303491,-0.872806,0.570375,1.176324,1.035679,-0.920989,1.553297,-1.633525,-1.832636,0.682830,-0.481252,0.789287,-0.334401,0.627518
0.084014,0.855560,0.413296,-0.652718,-0.521703,-0.216268,-0.391227,-1.230555,-1.041130,0.238402,-1.192551,0.653687,-0.246979,0.592777,1.185063,-0.145485,0.179706
0.047389,0.397429,0.398112,-0.462122,0.268857,0.082496,0.483807,-0.361960,0.412047,0.226098,0.484863,-0.050196,0.461414,0.280584,0.467545,-0.025009,0.330451
-0.136238,0.478707,-0.110770,0.018470,0.436559,-0.269221,-0.410367,-0.078020,0.011946,-0.056913,-0.026818,-0.490002,-0.381387,-0.354726,-0.212170,-0.455536,0.436538
0.630615,0.048371,-0.333723,-0.183452,0.222886,-1.263449,0.426754,-0.673208,0.762590,0.165276,1.554335,-0.614135,1.135603,0.292225,-0.969289,0.265535,0.205311
-0.507142,0.074743,0.093007,0.060138,0.241347,0.735090,-0.272271,-0.551531,0.885935,-0.200839,0.032561,-0.436410,1.238856,0.379373,0.618981,-0.212402,0.195808
0.361595,-0.193028,0.110654,-0.309277,0.755968,-0.209533,0.604986,-0.133636,-0.540168,-0.135536,0.847755,0.949164,1.067341,-0.519194,1.091367,-1.326678,-0.720625
0.489711,0.049213,0.084462,0.516595,-0.373401,0.142384,0.436318,0.107502,0.321740,-0.259176,0.365889,0.355542,-0.259987,-0.258858,0.317224,-0.016869,0.274119
-0.068663,0.110915,0.514500,0.446536,0.380503,0.053382,0.336499,-0.179854,0.247197,-0.417619,0.424829,0.505593,-0.174078,0.145947,-0.044418,-0.214276,-0.071954
0.349024,-0.039279,-0.434306,-0.019837,-0.468958,0.322060,0.089644,0.406723,-0.386959,-0.438283,-0.321554,-0.491922,0.248337,-0.259789,0.390180,-0.306907,-0.491459
0.660052,-0.162242,0.594523,-0.008040,-0.794004,-0.097675,0.470659,-0.908979,-0.128675,1.207262,0.363112,0.097861,-0.182997,-0.621345,-0.634678,0.161782,-0.016610
0.520561,1.555667,0.760846,-1.081679,-1.673366,0.409545,0.067118,-1.291801,-0.613850,1.420712,-0.227551,-0.531218,0.713703,-0.379754,-0.237442,0.126778,0.309027
-0.573449,-0.132099,0.405477,0.098925,0.430254,0.968087,-0.800311,0.665226,-0.391061,-0.083896,0.794115,-2.342327,-1.205207,1.961676,-0.008927,-0.455150,-0.384778
-0.004086,0.430845,-0.268811,-0.552333,0.622799,0.874767,-0.548374,-0.103394,-0.594855,-0.967779,0.248388,1.364820,0.651342,-0.704318,-0.099321,-0.617813,0.051751
0.585497,-0.046928,-0.296697,0.750545,-0.256945,-0.240313,0.161809,0.214987,-1.485428,0.063227,-0.170273,-1.215855,-1.192908,0.864754,-0.487409,0.651917,0.030961
0.599802,-0.099194,0.595608,-0.803741,-0.016872,-1.565313,0.383744,1.368524,-0.397124,-0.053005,-0.033151,0.131174,1.585982,-0.183313,-0.586568,0.535800,-0.488208
-0.236213,-0.105812,0.959866,-0.299184,-0.293183,-1.547957,-0.148401,-1.467083,-0.726693,-0.835399,-1.047629,0.894656,0.586949,1.847871,0.848038,0.422352,0.175096
-0.152908,-0.198037,0.853036,-0.641511,0.747563,-0.229515,0.954713,-0.614253,-0.353901,-1.272661,-0.696746,1.171463,1.619037,-0.309904,-2.114621,1.025457,-0.010430
-0.224467,-0.180955,0.419240,0.206889,-0.400838,-0.130324,-0.362423,-0.220604,0.390388,0.053090,-0.197231,-0.487245,-0.112906,-0.080462,0.258567,-0.413191,-0.038692
-0.275010,-0.255081,-0.429280,-0.146180,0.850048,-0.025925,-0.199965,0.928154,0.569763,2.414286,-1.159095,-0.008453,-0.221351,-1.540195,0.469244,-0.252108,-0.627809
-0.775352,0.170045,0.264322,0.047000,0.426746,-0.789992,-0.166356,0.713777,-1.040238,-0.496272,-0.237589,-0.483310,0.496541,0.877700,1.285906,1.565434,-0.155732
-0.259376,0.143595,0.150381,0.102489,0.117561,0.212731,0.563508,0.091765,1.503603,0.910891,-2.016146,0.460810,-0.336463,-1.305135,-0.273247,1.024455,0.336360
-0.556740,-0.311412,0.790281,-0.131717,0.567502,0.241171,-0.227800,-0.547817,0.836823,0.051425,-1.312454,-0.524021,-0.499121,0.511070,-0.195213,0.079719,0.456605
-1.021960,0.071152,0.566318,-0.232453,0.412027,-0.504665,-1.108129,0.975782,-0.331405,0.953380,-0.157464,0.179814,0.224142,-0.540014,0.821091,1.406816,0.507235
0.355218,-0.317266,-0.350964,0.392584,-0.225959,0.434628,0.314462,-0.253288,0.297297,-0.172787,0.286089,0.388687,0.045808,0.041912,0.428694,0.306495,-0.264195
0.406618,0.009424,0.359208,0.091975,-0.838289,-0.631918,0.390608,-0.501034,0.789065,1.127910,0.702760,0.853326,-0.708601,-0.311901,-0.241264,-0.794388,0.211807
-0.199920,-0.667325,0.107336,0.853376,-0.120788,0.760345,0.473660,-0.361128,-0.685728,-0.959979,0.735439,1.850701,-0.820360,-1.039993,2.743849,-1.138707,-0.304328
-0.041149,0.293656,-0.015825,0.468619,0.026936,0.044969,0.559199,-0.248298,-0.037360,0.481521,0.079110,-0.294577,0.338497,0.496925,-0.086085,-0.249669,0.483813
0.646876,0.266813,0.254407,0.256063,-1.345363,0.110574,-1.088423,0.380056,2.697657,-0.534579,-0.418204,1.099416,-0.962017,1.000197,-2.129210,-1.094481,-0.344551
-0.312535,0.661204,0.666893,-0.236680,-0.803162,-0.937822,-0.511424,0.401184,-1.343670,1.353718,0.660197,-0.298731,-0.914936,-0.193119,-0.185507,0.093701,-0.052453
-0.456554,-0.401199,0.189600,0.543918,0.549612,0.601435,-1.637515,-1.493321,0.011756,-0.704985,2.249641,1.199029,-0.811162,0.248467,0.549130,-0.728728,0.305244
-0.225625,-0.257420,0.149655,-0.470702,0.485109,-0.198575,-0.115764,-0.866463,0.536972,-0.428123,0.156361,0.068675,-0.018334,-0.688589,1.533442,-0.076221,0.620621
-0.144439,0.338919,-0.468312,-0.293632,0.143395,-0.071051,-0.380517,-0.383827,-0.315423,0.115185,0.265420,-0.235685,-0.228883,-0.301476,-0.383504,0.217366,-0.459745
0.418168,0.294173,-0.742052,-0.008000,-0.243708,-1.875219,-0.542192,1.021013,0.363063,0.289007,-0.172681,1.012536,-3.466776,0.044284,-0.297155,0.971208,-0.142776
-0.005920,-0.553284,1.076971,-0.167247,0.191555,-0.233080,-1.074773,1.237586,1.223181,0.302442,0.078993,-0.062084,-0.417136,-0.457113,0.901664,-0.220833,0.575211
0.022900,0.590496,-0.174042,0.158570,-0.689950,0.929347,-0.026472,-1.349881,0.763966,0.369157,0.662969,-0.488027,-2.524413,-0.009555,1.531125,-1.347827,-0.449658
0.111009,-0.406607,0.184320,-0.430535,0.256467,0.482563,0.421964,0.035114,0.059515,-0.110991,0.047869,0.469960,0.226882,0.248790,-0.132463,0.433192,0.161402
-0.524720,0.341761,-0.513216,-0.449817,0.554236,0.565112,-1.520746,0.275913,2.028876,-0.415556,0.989804,0.615356,-0.486287,-1.177817,0.206528,0.756344,-0.114922
0.417691,-0.306152,-0.955037,0.318284,0.110116,-0.272451,-1.090032,0.808626,1.028907,-0.063879,-0.367989,0.583794,-0.590871,0.678934,1.664252,-1.378476,0.117620
-0.220165,-0.027943,-0.113912,-0.374049,0.533691,-0.244163,0.115099,-0.148770,-0.426603,-0.380886,-0.216764,-0.196459,-0.041866,0.066255,0.457605,0.151680,0.244280
-0.420353,0.251245,0.222097,0.334899,0.007245,-0.072250,0.464930,-0.171733,-0.251976,-0.104509,0.461796,0.147409,0.350877,-0.160181,0.472433,0.409111,0.411701
-0.282662,-1.130617,0.886074,1.673299,-0.823529,1.366497,0.001031,1.692306,-2.013955,1.012104,-0.115135,-0.589912,0.419746,-0.508500,-1.251149,-0.869195,0.497435
-1.085405,0.211312,0.743016,-0.659043,0.384947,-0.561050,0.720638,-1.579513,0.914321,0.989593,-1.369628,1.340111,-0.085967,-1.536286,0.975771,0.481301,0.038901
-0.446870,-0.054839,0.857572,0.444382,-1.043445,0.711462,0.489643,-1.002695,-0.438627,-2.080379,-0.910463,0.961241,-0.569680,-0.374609,0.790636,1.622610,-0.156487
0.210439,0.147876,-0.194810,-0.540528,-0.455972,-0.410188,-0.375288,-0.266289,0.048584,-0.195106,0.393845,0.178493,-0.445155,-0.325650,-0.468225,0.029430,0.457881
-0.656399,-0.637128,1.087912,0.988843,-0.480015,0.637879,0.419858,-1.157745,0.186368,0.694906,0.825791,-1.503583,-0.431967,-0.518133,0.805141,-0.317808,-0.073424
0.391173,-0.344286,-0.033501,-0.619335,-0.151410,-0.450498,-1.130396,0.086887,1.472896,0.563057,0.387602,-1.281233,-1.735087,0.264878,0.091350,1.099179,-0.062320
0.261009,-0.157994,0.246667,0.104982,0.258869,-0.246787,-0.394383,0.483860,0.235302,0.537631,0.514205,-0.030849,0.222849,0.519243,0.048197,-0.111008,-0.410563
0.663659,0.182231,-1.028456,-0.907441,1.389407,-1.519717,0.336156,0.519465,0.018173,1.519005,-0.736872,-0.151063,1.852182,-1.820020,1.609535,0.596543,-0.124936
-0.024027,0.223415,0.390488,-0.146681,0.291397,1.001129,0.035267,-0.842193,0.162947,0.366445,0.223673,0.532735,-0.147161,-0.482180,-0.174417,-0.629307,-0.427130
0.460954,0.448688,-0.004063,-0.061170,0.084040,-0.331581,0.284329,0.355228,0.130937,-0.025890,0.232439,0.224133,0.184933,-0.114057,0.119529,0.409300,-0.189893
0.249480,0.499254,-0.181769,0.515514,0.194353,0.246816,0.021968,-0.608973,-0.297058,-0.325443,-0.108130,0.269045,0.160815,0.295313,-0.149544,0.137745,-0.399044
0.620162,0.170750,0.245997,-0.151170,-0.441310,1.083186,0.967693,1.856683,0.620890,0.264523,0.177560,-1.420704,0.402227,-0.478078,-0.073452,-1.732287,0.120347
0.594771,1.301425,-1.007802,-0.307550,-0.606361,-0.148850,0.528307,0.652276,-1.506251,-0.067676,-0.645912,0.976096,0.571671,-0.803461,-0.606423,0.615762,-0.134403
0.094389,0.451485,-0.226348,0.525266,0.175550,-0.250341,0.333427,0.240738,-0.341689,0.008013,-0.141170,0.491017,-0.210970,0.278216,0.049521,0.216478,0.493631
-0.585465,0.347769,0.702733,0.374541,-0.204292,1.475533,-0.984167,0.972559,-1.520891,0.509759,-0.715051,-0.134214,-0.091980,-1.259292,-0.715890,1.474606,0.301802
0.842212,0.041928,-0.371232,-0.163296,0.603900,-0.642753,0.088010,2.205146,-1.303856,-1.122078,-0.685003,1.060177,-0.963337,0.121325,0.494674,0.172912,-0.490647
0.962787,0.142546,0.095519,1.309224,-2.312250,0.109527,0.184584,0.919227,-1.839439,0.394727,-0.319105,0.691169,-2.576305,0.113743,0.293047,-0.093974,-0.333259
-0.263095,-0.519269,1.760938,-0.553212,0.227361,-0.016076,-1.230879,0.313979,-0.836148,-0.604697,0.800443,-0.423254,2.462159,0.620044,0.008805,0.829126,0.234706
-0.018577,0.249999,0.320836,-0.217322,-0.219113,-0.691779,-0.263025,-0.195123,-0.400889,1.292374,0.078617,-0.737526,-0.009978,-0.963742,-0.983248,1.108789,0.167083
-0.325650,0.480672,0.051002,-0.352583,0.091656,-0.019599,-0.387907,-0.434818,-0.431766,-0.260966,-0.033605,-0.248935,-0.460511,-0.429735,0.400920,-0.031041,-0.052423
0.363758,0.460207,-0.798000,-0.066049,-0.165606,1.001661,0.676337,-0.289776,-1.044963,0.710619,0.383584,-1.299182,-1.339134,0.348776,-0.943558,-0.350314,0.438063
0.168356,0.424964,0.060957,-0.374126,-0.241595,-0.049504,0.324064,-0.349967,-0.453839,-0.530453,-0.491363,-0.515935,-0.227986,0.128795,-0.423930,0.118240,0.264442
-0.379220,-0.447297,0.240100,0.609465,-0.626286,-0.615982,0.373800,1.231459,0.984621,-0.154422,0.436718,0.280499,-1.027925,-0.212546,-1.254231,0.247244,0.254047
0.687231,-0.118248,-1.062631,0.314694,-0.350625,-0.472804,0.512110,-0.915447,0.389196,0.319662,0.391487,-1.678838,-0.936163,-0.175650,2.825167,0.936806,-0.118786
0.033013,-0.307350,0.021280,0.257239,0.458733,0.468271,0.379026,0.487547,0.042617,-0.451549,0.137365,0.177070,0.499159,0.129472,0.027730,-0.020724,0.309047
-0.416825,-0.684588,0.804964,0.770150,-0.451452,0.120509,-0.532881,0.325668,0.187289,-0.955883,0.233807,1.970174,-1.390211,-1.418086,0.973515,-0.087936,-0.565989
-0.383048,0.420878,0.031180,0.406722,0.410653,0.040245,-0.224683,0.446655,-0.123782,0.169017,-0.129756,0.443951,-0.406529,0.343153,-0.435065,0.447243,0.217541
-0.519079,-0.022919,-0.782390,-0.071863,0.956891,0.619758,0.610551,0.480105,1.557994,0.298766,-0.121176,-0.929768,0.210644,0.767347,-0.717005,-2.182077,-0.308625
0.149015,0.079888,0.323126,0.084948,-0.205978,-0.071131,-0.373239,-0.900930,0.780507,0.067778,0.444235,0.360082,0.283653,0.116525,-0.128905,-0.173582,0.311843
-0.027388,-0.426706,0.217063,0.279702,0.606751,-1.316968,1.620145,0.178485,0.173717,-0.667323,-0.338463,-1.459440,0.611980,1.683478,-1.778423,-0.154708,0.373067
0.643267,-0.270941,-0.283037,-0.310091,-0.334868,-0.449558,0.557877,0.972500,-0.229966,-0.610718,-0.601989,0.405153,0.832830,-0.415945,-0.545565,0.090201,-0.461608
0.407565,0.405645,0.496371,-0.262081,0.179278,0.371811,0.426237,0.295801,0.479849,0.335031,0.152754,0.415566,0.163702,-0.114441,0.029525,0.270999,0.407150
-0.215830,-0.415321,0.292841,0.069021,0.069311,-0.218646,-0.400091,-0.130615,0.304106,-0.195247,0.034560,-0.139741,0.282329,-0.354106,0.213356,-0.226302,-0.141355
-0.863190,0.031754,0.028429,-1.131099,1.601252,-0.425624,-0.721927,-0.575426,2.367318,-0.297209,-0.210703,0.272272,0.309892,-0.970111,1.493776,0.903858,-0.511597
-0.575465,0.588415,-1.285577,-0.892684,0.916651,0.120251,-0.690025,-1.421550,1.444738,0.263317,-0.008835,-0.660493,-0.362175,0.493518,2.641387,-0.777920,0.350886
-0.044694,0.245075,-0.936569,-0.037510,0.315758,0.864553,-1.494885,0.482625,0.685673,1.036713,-0.307014,-0.274435,-0.758116,0.446402,0.696457,-1.756233,0.727101
0.470380,0.361325,-0.033972,-0.122137,-0.822662,0.480924,-0.410850,-1.061461,-0.751961,-1.039551,-0.349920,-0.195495,2.879997,0.030718,0.303502,1.372399,0.456725
-0.054333,0.204000,0.217404,-0.491568,0.168394,-0.055776,-0.337172,-0.524985,-0.524144,0.296883,0.172170,-0.550435,-0.085692,-0.122417,0.493207,0.053249,-0.384804
0.119787,0.115810,-0.137514,-0.017253,0.077811,-0.933273,0.300609,0.132212,0.460530,-0.940323,0.531518,-0.680647,-2.213724,1.382277,-1.900333,0.851499,0.115203
-0.181445,0.103185,-0.045374,-0.000006,-0.008674,0.474351,-0.265777,-0.282729,0.455092,0.033609,-0.069249,0.293298,-0.090436,0.654143,-0.235603,0.338721,0.175684
-0.509993,-0.632832,0.316897,0.453689,0.466070,-0.049475,0.700625,0.381768,-0.727326,1.100560,0.867532,-0.806315,-0.536878,0.008445,1.198348,-0.510335,0.155882
0.039013,-0.286040,-0.355025,0.063720,0.732503,-0.567413,1.667254,0.780311,0.100432,0.588403,-0.663624,-1.828135,-1.746915,-0.373404,0.661934,0.702270,-0.324449
-0.148975,0.502765,0.519663,-1.453242,1.120170,-0.535737,-0.297341,0.487906,-0.810722,-0.270302,0.430059,-1.816584,1.145257,0.003301,0.082905,1.967430,0.208736
-0.087430,-0.614639,0.601787,1.592464,-0.834515,0.524433,-0.798880,-1.208804,-1.765646,-0.558782,1.164690,0.024998,-1.144663,1.277675,1.130192,-0.465308,-0.198066
-0.331076,-0.482489,0.216879,0.191041,0.038700,-0.376530,-0.064126,-0.331425,0.019974,-0.032155,0.050035,-0.153356,-0.344006,-0.423273,0.361527,-0.247628,0.335967
0.236100,-0.523415,0.700015,0.415295,-0.322761,-0.203655,0.526965,-0.504105,0.660883,-0.119280,0.870519,-0.271438,-0.946981,-0.158611,-1.058320,0.852360,-0.451999
-1.212840,0.218830,0.291957,0.141308,0.308555,0.521137,-0.602993,-1.098266,-1.004060,0.560606,0.201709,0.348911,-0.317167,-0.280779,-0.346751,0.332680,0.123115
-0.307866,0.050543,-0.436820,-0.179180,0.466139,0.189828,-0.036989,-0.494668,-0.048315,-0.485101,0.353600,-0.346782,-0.233220,-0.298763,-0.486772,-0.200049,-0.397422
0.843331,0.327461,0.602453,0.020574,-2.695440,1.088221,0.698480,-1.001132,0.879810,-1.409993,0.423899,0.432608,1.023447,-0.046193,-2.035966,-0.705696,0.441631
-0.131952,-0.100464,-0.437983,-0.031236,0.572617,-0.671825,-0.924820,-1.316857,-0.859207,-0.517622,-0.060587,1.951881,2.339713,-0.544241,0.037275,0.426788,0.405148
0.413249,-0.114239,-1.018703,-0.684446,1.303490,0.481680,-0.690355,2.464723,0.413717,0.428161,0.000643,-1.314687,2.079560,0.248986,-1.296021,-0.826547,0.719214
-1.027448,-0.741549,0.570313,0.114635,1.265207,-0.900897,-0.451093,0.465714,0.522069,0.104883,-0.762214,1.387999,1.899181,0.373191,-1.159299,-0.506518,-0.557726
-0.860769,-0.094596,-0.239596,0.066369,0.830190,-0.546640,-2.128023,0.725464,-0.126150,1.421568,1.792457,-0.458475,0.066506,-0.764061,0.668776,0.500503,0.172447
-0.184293,-0.237731,-0.198855,-0.131882,-0.176105,-0.097169,-0.036448,-0.448547,0.148562,-0.256995,-0.099548,0.203582,0.157151,-0.595241,0.154392,0.372055,-0.435478
1.336162,0.257882,0.138276,-0.205495,-0.955337,-0.643416,0.345857,-0.459078,-0.543235,-0.670199,0.603694,1.690099,2.526914,-0.123128,-2.063518,0.404203,-0.497232
