-0.007494,-0.119859,0.062082,-0.105087,-0.103060,-0.266546,0.066153,-0.486062,0.243291,-0.178722,-0.515680,-0.111167,0.313242,-0.224524,-0.110986,0.005412,0.154531,-0.212817,-0.098585,-0.062556,-0.707139,0.245981,-0.154938,0.018294,-0.284100,-0.271195,0.980314,-0.383126,0.128016,-0.253190,-0.285341,-0.090981,0.251286,0.028029,-0.190555,-0.246676,1.239159,-0.279806,0.169219,0.202579,0.122583,-0.169805,-0.046244,-0.052070,0.016777,-0.265156,-0.357843,-0.228417,-0.240752,0.162560,-0.252682,-0.019633,-0.004225,-0.178945,0.297269,0.084327,0.229413,-0.207195,-0.404536,-0.435534,-0.148747,-0.054716,-0.087970,0.338160,0.252621,0.033897,-0.143358,0.019411,0.438245,-0.071809,-0.157645,-0.108459,0.146632,-0.244897,-0.067101,0.174671,0.005194,-0.159078,0.225081,-0.436389,-0.647325,-0.202618,0.140773,-0.158822,-0.261238,-0.262395,-0.151531,0.989294,-0.252658,-0.612181,-0.249623,-0.038821,0.175755,-0.290267,0.220541,-0.209188,-0.090434,-0.394515,0.070159,0.139246,-0.103988,-0.246667,0.165258,0.438954,-0.175088,0.508316,-0.259812,0.145453,-0.044203,0.526173,0.012933,0.142220,0.171995,-0.083337,0.982248,-0.181900,-0.215939,-0.127508,-0.095300,-0.046109,0.220308,0.137722,0.010561,-0.089354,-0.113797,-0.182705,0.264234,-0.021557,-0.186938,-0.316416,-0.007323,0.259322,-0.057389,-0.166803,0.179198,-0.130430,-0.114592,-0.373752,-0.186715,-0.323840,-0.106001,-0.138231,-0.314367,-0.122035,0.308642,-0.043889,-0.401510,-0.216739,0.578839,-0.388381,-0.197294,-0.059182,-0.021904,-0.223415,0.122104,-0.045768,0.523451,0.605347,-0.565933,-0.286039,0.500658,-0.425365,-0.198685,-0.292924,-0.336027,-0.117874,-0.300713,0.068513,-0.383943,0.185368,0.034439,-0.057957,0.287494,-0.049393,-0.289445,0.105416,0.419943,0.034070,0.253457,-0.256343,-0.416323,-0.186563,0.013874,0.387859,0.140515,-0.056597,0.356456,-0.073674,-0.084070,0.030602,-0.183651,0.431113,0.014254,0.182157,-0.145559,-0.120899,-0.394455,-0.207891,-0.140067,-0.190074,-0.190683,-0.058628,0.260139,-0.459356,-0.001252,0.156142,0.397750,-0.111255,0.072280,0.443777,1.353924,0.250447,-0.333895,-0.746988,-0.082818,0.073198,-0.195017,-0.095931,0.030711,-0.177033,-0.226442,0.292848,-0.018102,0.096111,-0.220947,-0.086057,0.114408,0.038023,0.254576,0.087452,-0.221103,0.099134,-0.008342,0.448703,-0.026422,-0.244884,-0.191804,-0.153544,-0.400719,0.121659,0.422646,-0.128116,0.002517,0.166494,-0.215011,-0.044392,0.129862,-0.014937,-0.217637,0.305224,-0.352397,0.086713,-0.060482,-0.146337,-0.286847,0.332162,-0.542002
-0.142895,0.070347,-0.135946,-0.168251,0.192392,-0.183178,-0.184919,0.165173,0.232784,-0.192593,0.801624,-0.130847,0.042771,-0.160130,-0.319041,-0.080105,0.083384,-0.039031,-0.096900,-0.128724,0.156966,-0.197387,0.196566,-0.125517,0.069639,-0.058410,-0.283365,1.058796,0.097904,-0.195601,-0.076259,-0.178541,0.193002,0.035585,-0.070662,-0.316732,0.096723,-0.160523,-0.317026,0.308646,-0.218068,-0.112383,-0.052427,-0.286479,0.369626,-0.284461,-0.146217,0.007841,-0.035788,-0.247780,-0.282874,-0.237240,-0.148886,-0.084892,0.005219,0.409233,-0.272538,-0.275065,-0.160357,0.195077,-0.381145,-0.046518,0.103497,0.275202,-0.415586,0.146607,0.266973,0.150732,0.085319,0.145492,-0.236709,-0.268596,-0.245586,-0.002496,-0.259306,-0.043523,0.285019,-0.248710,-0.207888,-0.141765,-0.219703,0.084273,-0.163016,0.297943,-0.166087,-0.310762,0.213424,-0.186643,-0.113354,0.016015,-0.337889,0.080305,-0.172680,-0.083130,-0.154872,0.302722,0.242673,-0.014017,-0.255073,-0.246613,-0.144907,-0.232752,-0.186069,0.075538,0.107845,-0.247795,-0.378091,-0.171417,-0.071558,0.231840,-0.145814,-0.302547,-0.045896,-0.023147,-0.010674,-0.002863,-0.099592,-0.070267,0.262959,-0.022011,-0.057075,0.057863,-0.043953,-0.180549,-0.291069,0.868294,0.007901,0.328773,0.130711,-0.374126,-0.169976,-0.179911,-0.057956,0.018194,-0.224227,0.191118,-0.123326,-0.076569,-0.276490,-0.125317,-0.093238,-0.035277,-0.142269,-0.100535,-0.085271,-0.269674,0.094324,0.292398,-0.162370,-0.062236,-0.048338,-0.046948,-0.075628,-0.281723,-0.013945,0.065430,-0.198484,-0.051179,-0.149389,0.094138,0.211302,-0.062609,-0.168593,0.121815,-0.284564,0.028708,0.077918,-0.434898,-0.156895,-0.221895,-0.246966,0.008993,-0.207900,0.317309,0.073105,-0.124535,0.034876,0.170472,-0.237082,0.015469,-0.277193,0.068600,0.894754,0.039310,-0.175792,-0.011809,0.290713,-0.168125,-0.221814,-0.191091,-0.115382,-0.224586,0.087679,-0.049075,-0.225916,-0.315675,-0.137087,-0.150502,-0.277531,-0.284471,0.219023,0.069884,-0.300905,0.011420,-0.211596,-0.298314,0.063894,-0.222312,-0.182176,-0.151059,-0.142228,-0.082071,-0.017202,0.090927,0.026811,-0.055742,-0.284949,0.030047,-0.004176,-0.279022,0.105582,-0.144913,-0.089476,-0.030204,0.053886,-0.114770,-0.221406,-0.168062,-0.041357,-0.091794,0.209140,0.069302,-0.168070,0.069831,-0.075887,-0.127367,-0.075100,-0.033919,0.078926,-0.186943,-0.184249,-0.140809,0.001822,0.149292,0.075609,-0.047090,-0.036244,0.137269,-0.017970,0.181664,-0.364917,-0.153064,-0.128751,0.323277,0.029220,0.054145,0.423165
-0.329821,0.062044,-0.181823,-0.363147,0.075607,-0.267307,0.615073,0.387403,0.165164,-0.449709,-0.454204,0.226275,-0.149921,-0.301848,-0.120465,-0.288796,0.108821,-0.104626,-0.122720,0.150500,-0.009144,-0.057554,-0.300792,0.377937,0.155193,-0.145094,-0.212002,-0.267856,0.203467,0.982648,0.261366,0.032389,-0.157662,-0.209560,0.394622,-0.094133,-0.206891,0.416400,-0.220046,-0.327086,-0.238938,0.167598,0.080048,-0.127260,-0.130783,0.669799,-0.132433,0.198305,0.415724,0.194912,-0.136741,0.024786,0.024089,0.289903,-0.149726,-0.351584,0.189388,-0.052793,0.410324,-0.009612,-0.026210,-0.436837,-0.219273,0.213800,0.391461,-0.000819,0.040964,-0.181164,0.096240,0.227615,0.684810,-0.139432,-0.170724,-0.057939,-0.216222,0.527969,0.144389,0.576723,0.241322,-0.172205,0.450524,-0.197177,0.091968,0.107158,0.059240,-0.076768,0.358057,-0.275983,-0.646069,-0.327045,0.561328,-0.186015,-0.043898,-0.281582,0.125719,0.042594,-0.321504,-0.362407,-0.284733,0.077432,0.253428,0.201077,0.041307,-0.221009,-0.098976,-0.039581,-0.194633,0.294270,0.202568,-0.338201,0.311078,-0.172449,-0.118452,-0.729635,-0.242988,-0.142647,-0.091437,0.347037,-0.279894,-0.810048,-0.230947,0.119357,-0.157731,0.138815,0.015124,-0.336351,-0.237241,0.124212,0.039121,-0.183067,-0.004593,-0.313030,0.079531,0.036857,0.114061,0.276564,0.022339,0.315024,0.148819,0.148934,-0.117105,0.014151,0.179961,-0.149840,-0.148906,-0.003071,0.002023,-0.158333,-0.010541,-0.001969,-0.044737,0.075817,0.005007,-0.384123,-0.200395,0.013685,-0.184832,0.016064,0.177200,0.730063,-0.068435,-0.111674,0.475658,0.375092,-0.430900,0.262666,0.060407,-0.141456,-0.158729,-0.328483,0.553083,-0.185985,0.747404,-0.346369,0.174091,0.014970,-0.097497,0.271286,0.050705,-0.239008,0.325640,-0.014254,-0.361153,-0.054194,-0.080791,0.397647,-0.306523,-0.035764,0.037526,0.024871,-0.161171,-0.282111,-0.272959,0.031766,0.314604,0.086392,-0.007045,-0.139966,-0.107760,0.606871,-0.364415,-0.282781,-0.136067,0.188141,0.265730,0.451472,0.514722,0.229110,0.311473,-0.059922,-0.458422,-0.263695,0.113409,-0.012673,-0.098278,-0.125265,0.290663,-0.159004,-0.197430,1.144436,0.057840,-0.296571,0.218999,-0.395770,0.186560,-0.072037,-0.154881,0.986942,-0.187424,-0.053139,-0.337133,0.104758,0.232989,0.296792,0.042620,-0.263097,-0.411603,-0.914051,0.231255,0.635505,-0.068915,-0.103007,-0.042915,-0.200302,-0.174574,-0.124053,-0.115307,-0.225942,0.200713,-0.473594,0.107757,0.083062,0.348788,0.100738,-0.232732,-0.062395,0.117792
-0.180706,0.160001,0.215574,-0.069694,0.150180,-0.035086,-0.293176,-0.306474,-0.189123,0.193445,0.057959,-0.361780,-0.001220,-0.088751,-0.086534,-0.222776,0.092847,-0.119451,0.341253,-0.172927,0.041085,-0.024520,0.080048,0.147533,0.123371,-0.244940,0.101411,0.037109,-0.266277,-0.181182,0.306358,0.114298,-0.121828,0.070386,0.052992,0.061624,0.103303,-0.418158,-0.192768,0.060002,-0.198969,0.042788,-0.068100,-0.045154,0.284027,-0.293760,0.224461,0.111721,-0.273382,-0.231355,-0.228243,0.084818,-0.028760,-0.422454,0.103538,0.195709,0.047794,-0.214814,-0.133248,0.250513,-0.203830,-0.226992,0.225981,-0.029272,0.081901,-0.419501,0.387912,0.417385,0.045519,-0.136297,0.288274,0.083982,-0.248763,-0.073441,-0.164017,-0.087238,0.045866,-0.333194,-0.115002,0.045447,-0.401866,0.113900,0.109836,0.675583,0.056289,0.308755,0.050026,0.041564,-0.133328,-0.036625,0.238565,0.059196,-0.020469,0.196031,-0.062269,0.219453,0.150913,-0.089962,0.294108,0.099478,-0.147244,-0.020144,-0.027401,-0.191543,-0.006031,-0.034029,0.230332,0.038353,-0.127119,0.410336,-0.043010,-0.024941,0.114002,-0.143053,0.215489,-0.014455,0.147753,-0.214209,0.767256,0.294544,-0.262230,0.071650,0.340745,0.107936,-0.146873,0.188502,0.138167,-0.285891,0.490087,0.058959,0.202102,0.320125,0.135762,-0.085927,-0.153052,-0.099191,-0.130292,-0.238974,-0.202648,-0.135478,0.156636,-0.145533,0.144905,-0.048001,0.127158,-0.061381,-0.042014,0.225802,-0.093950,-0.074091,0.130169,-0.053714,0.176747,-0.056667,0.416296,0.104625,-0.217221,0.208072,-0.517482,0.033878,0.050332,-0.396916,-0.126423,0.248576,-0.306430,-0.285833,-0.136710,-0.017516,0.113556,-0.127407,0.188170,0.280408,-0.343694,0.515484,0.468835,-0.234503,0.173752,-0.128151,-0.070737,0.213485,0.024339,0.468843,-0.030992,-0.243649,0.113672,-0.182957,0.195839,0.108247,-0.118714,-0.115098,-0.051405,0.165588,0.171119,0.065125,-0.211855,0.079109,0.348447,-0.128287,-0.041272,-0.389843,0.257834,-0.098174,0.047083,0.268504,-0.232709,0.052541,0.129756,-0.173370,0.229594,0.161001,-0.036692,0.043845,-0.146739,-0.197588,-0.045158,-0.018989,0.342462,0.007879,0.248233,-0.127475,0.187091,0.262585,-0.206251,0.161141,-0.184651,0.085755,0.140014,0.110150,0.002818,0.232370,0.244056,0.134383,0.012355,-0.242652,0.020843,-0.194474,0.022658,0.134313,-0.277409,-0.032580,0.042711,-0.157981,0.008800,0.231100,-0.020838,0.421216,0.050949,0.106503,0.113011,0.189461,-0.183960,0.238707,0.100760,0.765287,-0.039102,0.186904,-0.001572
0.320401,-0.120402,0.027138,-0.206418,-0.135588,-0.244573,-0.006168,-0.165886,-0.231057,-0.086039,-0.185111,0.193256,-0.227977,-0.156155,-0.227787,-0.070369,-0.420712,0.140646,-0.332231,0.115901,0.054669,-0.079265,-0.210432,-0.121007,0.673710,-0.172416,-0.168525,0.283545,0.331443,0.065077,-0.498220,0.102742,0.029497,-0.308626,0.388058,0.520916,-0.004054,0.344650,0.307570,0.283888,-0.184405,0.254451,-0.051758,-0.138819,-0.187686,-0.010678,-0.205542,0.124883,0.432121,-0.362939,0.044352,-0.016704,-0.104342,1.106445,-0.220878,-0.030203,-0.103701,-0.014354,0.507168,-0.002806,0.226649,-0.462448,-0.117758,0.011620,-0.161555,0.477813,-0.489778,-0.268761,0.070796,0.547605,-0.129719,0.413214,-0.163605,-0.222043,-0.143209,0.258700,0.130621,-0.306630,-0.199660,-0.124904,0.183438,-0.215650,0.154669,0.035087,0.176822,0.093065,0.389826,-0.146051,0.002801,-0.157771,-0.464895,-0.021748,-0.176739,0.176141,-0.168483,-0.231581,0.052412,-0.050770,0.162107,-0.189208,0.040922,0.430209,-0.135226,0.026268,-0.197930,-0.336648,0.250922,-0.307965,0.649854,-0.113988,-0.471754,0.170689,0.227730,-0.470198,-0.350719,0.197697,0.110716,-0.261013,-0.020161,-0.099022,-0.087795,-0.216832,-0.053467,-0.281546,-0.157840,-0.234155,-0.248324,-0.297102,0.133558,-0.471075,-0.384268,0.248600,-0.251683,-0.280574,-0.163331,0.312861,0.147362,0.308393,0.061614,0.547989,-0.090978,0.989570,-0.462056,-0.116592,-0.069965,-0.051932,-0.245548,-0.046210,-0.186942,-0.093517,-0.052378,-0.263486,0.037428,0.502270,-0.208412,-0.220090,-0.288043,-0.084624,0.142237,0.422789,-0.186858,0.304281,-0.113350,-0.383079,0.414623,0.087991,-0.184029,-0.209524,-0.359008,-0.404362,0.547712,-0.397806,-0.219550,-0.038776,-0.149764,-0.146910,0.086018,0.071103,-0.087808,0.058142,-0.038146,-0.209649,0.362710,0.215756,-0.186586,0.634643,0.346952,-0.036069,0.109651,-0.415587,0.142669,0.115000,-0.073664,0.504726,0.010673,0.673017,-0.233794,0.040936,-0.196742,0.443720,0.121460,0.140810,-0.119098,-0.108326,0.074919,-0.069297,-0.260327,-0.034878,0.115286,-0.200415,-0.319675,-0.226097,0.077329,0.030360,-0.053635,-0.083795,-0.015679,-0.184776,-0.090244,-0.103949,0.227339,-0.287873,0.372949,-0.021072,0.291483,-0.071788,-0.070418,-0.159508,-0.159693,-0.110679,0.545081,0.354554,-0.041703,0.336860,-0.016088,-0.064932,0.000009,1.507456,0.971573,0.250559,-0.111173,-0.282530,-0.008921,-0.250315,-0.042189,-0.108853,-0.323453,-0.057623,0.197971,0.339070,-0.132136,-0.296218,0.082497,0.041520,-0.097143,-0.117169,0.383907
-0.054305,0.316313,0.381548,0.231143,0.000408,-0.056503,0.093380,0.158120,-0.088518,-0.014427,-0.127095,-0.348031,-0.051543,-0.122374,-0.127733,-0.204906,0.068968,0.215578,0.140340,0.073540,0.049590,-0.010668,-0.175539,-0.257657,0.241620,0.069254,-0.391744,-0.296949,0.067248,0.013879,-0.457291,0.036130,-0.230649,0.392366,0.356559,-0.253736,-0.269750,0.379507,0.023605,0.003711,0.165854,0.106406,-0.084982,0.274095,0.376389,0.338199,-0.235364,0.342877,0.185712,-0.109382,0.031071,0.258435,0.424153,0.202491,-0.120589,0.245334,0.489047,0.050760,-0.258549,0.004933,0.041411,1.154410,0.121597,0.084566,-0.426441,-0.117435,-0.166477,0.567029,0.175838,-0.082654,-0.419684,-0.254392,0.118192,0.312061,0.068931,-0.172168,0.212024,-0.062939,-0.203603,-0.014704,0.426601,-0.142902,0.181673,0.232284,0.275950,-0.069332,-0.187870,-0.186381,0.273606,-0.036256,0.055719,-0.032453,-0.266433,-0.067473,-0.301506,-0.379984,0.177063,-0.288614,0.179318,-0.143897,0.121070,-0.386696,0.233643,-0.132455,0.166321,-0.250330,0.782950,-0.315155,0.254478,-0.198681,-0.193255,-0.105676,0.098688,0.120094,-0.241178,0.660397,-0.035909,-0.019527,0.304552,-0.309379,0.125847,-0.299906,0.128416,0.203398,0.403488,-0.149045,0.140472,-0.040736,0.029191,-0.107301,0.108137,-0.132510,-0.015999,-0.045918,-0.110604,0.275168,-0.127234,0.443165,0.545412,0.028329,-0.299686,0.305924,-0.141414,1.042718,-0.264893,0.268861,0.303035,-0.095464,-0.309755,0.128186,0.114708,0.547189,0.030881,-0.033468,-0.086749,0.573038,0.393786,-0.170813,-0.098062,0.226249,0.205452,0.309995,-0.287217,-0.453148,-0.012717,-0.450755,-0.141382,0.066804,-0.187797,-0.106206,0.433272,-0.447002,-0.154262,0.025516,-0.142619,-0.197676,-0.150537,-0.277101,-0.079300,-0.044198,-0.188027,-0.050461,0.084558,-0.236677,-0.083603,-0.118602,0.233861,-0.290807,0.317222,0.215608,-0.011545,-0.242225,0.304421,-0.144587,0.037394,-0.145273,-0.198190,0.129165,0.044748,-0.371085,0.282837,0.150920,-0.038512,-0.195693,-0.275616,-0.287484,-0.602848,0.456076,-0.356966,0.047237,-0.228217,-0.174265,-0.086303,-0.389089,-0.156192,0.202332,-0.292380,0.251207,-0.105242,0.145202,0.265246,-0.089759,-0.035662,0.074538,-0.000907,-0.053909,0.363476,0.013869,0.065756,-0.243987,0.144950,-0.244743,-0.238277,-0.414854,0.694259,-0.256114,0.094094,0.130665,0.004554,-0.496499,-0.076459,0.057641,-0.013794,-0.128090,-0.099343,0.200673,0.062914,0.046607,0.298268,0.077126,-0.011061,-0.286677,0.167293,0.343772,0.293334,0.203986,0.063413
-0.289300,-0.174092,-0.029243,-0.082698,-0.182961,0.026987,0.198897,0.200151,0.139987,0.253074,0.479843,0.490325,-0.153142,-0.225167,0.033908,0.092077,0.029686,-0.035780,0.120365,-0.334078,0.006371,0.331222,0.045483,0.001586,-0.046268,0.349724,-0.213635,0.434393,0.476192,0.293257,0.235603,-0.071347,0.064849,0.036237,0.053863,0.170275,0.230274,0.382490,0.231671,0.181238,-0.163211,0.030731,-0.054046,-0.115792,0.168836,0.441126,0.018657,0.047973,0.132288,0.118230,0.006422,-0.228981,-0.144878,0.172036,-0.145793,0.172250,-0.475573,0.193749,-0.335094,0.091370,0.397585,-0.185778,-0.319264,-0.181716,0.299099,-0.130766,-0.010599,-0.164619,0.016753,0.187156,-0.322888,-0.092435,-0.240483,-0.291490,0.057532,0.212470,0.125515,0.284796,-0.153380,-0.199948,0.329317,-0.080814,-0.115705,-0.563596,-0.087884,-0.077155,0.974415,0.127038,-0.107401,-0.369476,0.293177,0.113668,-0.274238,0.216499,0.153280,0.005369,-0.103217,0.490598,0.031083,0.171956,0.451616,0.299944,-0.170365,-0.109866,0.106683,-0.100111,-0.092372,0.131848,0.093865,0.018700,-0.032297,0.201615,0.185359,-0.261691,0.021281,0.051679,0.476459,0.024063,0.195928,-0.156183,-0.348796,-0.245037,-0.178002,-0.236402,-0.356894,0.180782,-0.467667,-0.092562,0.062539,-0.375824,-0.005495,-0.325513,-0.233661,0.132806,-0.146402,0.345773,0.168189,0.204892,-0.117267,0.071464,-0.154808,-0.082191,0.009493,-0.052785,-0.295706,-0.246749,0.197718,0.438412,-0.183484,-0.158310,0.133961,0.153775,0.319162,0.029205,0.240391,-0.207946,-0.426740,0.120715,0.272158,0.059541,0.132919,-0.034296,-0.262350,0.631428,-0.223354,0.097177,0.033360,-0.229408,0.260892,-0.056585,0.473773,0.280736,0.534409,-0.163620,-0.174229,-0.164927,0.046549,0.162295,0.170473,-0.189682,-0.030992,-0.108423,-0.327918,0.252598,-0.111954,0.204323,-0.244044,-0.160734,-0.099070,0.000935,-0.215299,0.055080,-0.203082,-0.239409,-0.261427,0.283759,0.682153,-0.214224,-0.230614,0.927969,0.098949,-0.063625,-0.363728,0.192711,0.679747,0.429787,0.072559,-0.050277,0.425326,-0.056293,-0.354500,-0.273369,-0.219459,0.377863,0.390639,0.131819,0.138483,0.160367,-0.183080,0.647710,0.071273,-0.102095,-0.094166,-0.121771,-0.181430,-0.049787,-0.268509,0.552754,-0.232836,0.234767,0.180209,-0.154196,-0.125857,-0.567905,-0.188594,0.288896,-0.133208,-0.053978,0.296969,0.359294,0.022119,-0.199627,-0.002654,-0.175022,-0.046045,-0.187656,-0.186639,0.006635,0.494458,0.418976,0.263377,0.042252,-0.179863,-0.230636,0.082213,-0.147382,0.165530
-0.460262,0.221194,0.105430,0.052786,0.010269,0.324647,-0.089016,0.331646,-0.081166,0.345449,-0.239328,0.104394,0.047039,0.211191,0.048309,0.091502,0.149336,0.198070,0.394745,0.351162,-0.294500,-0.166006,-0.057758,0.188994,-0.197105,0.174781,0.193375,0.280086,0.019961,0.176366,0.318423,-0.168117,0.309471,0.099688,0.083042,-0.274630,-0.472925,0.000790,0.175469,0.264799,-0.142158,-0.060050,-0.150675,-0.168200,-0.099505,0.106088,0.047724,-0.108444,-0.277175,0.019916,-0.106667,0.173778,-0.300971,0.151364,-0.021281,0.258924,-0.342098,-0.069964,0.045488,0.298777,0.044394,0.200713,0.152581,0.352838,0.312682,-0.115963,0.256382,-0.087290,-0.059401,-0.208879,0.160097,-0.211934,0.053171,0.672974,0.045614,0.128261,0.224299,-0.285864,0.491338,0.071866,-0.359906,0.274261,0.054524,0.462784,0.138263,0.714411,0.051009,-0.060092,-0.166014,0.089611,0.380777,0.121113,-0.002989,0.138008,0.199613,0.233539,-0.052064,0.057342,0.025360,-0.011106,-0.151938,0.237622,0.041556,0.084483,-0.057991,0.173070,-0.144279,0.421430,0.046514,-0.001873,1.016422,0.092595,0.151296,0.164423,0.264348,0.014097,-0.032959,0.558857,0.333066,0.381940,0.196939,0.107747,-0.369103,0.247248,0.144778,-0.483419,-0.164245,-0.258325,0.333270,-0.026170,-0.048157,0.075843,0.269847,0.159987,-0.013506,0.087239,0.190637,-0.428263,-0.067084,-0.258388,0.818866,-0.045304,1.268266,-0.114484,0.023851,-0.153903,0.348618,0.199548,-0.115186,0.123365,-0.091932,-0.117629,-0.285788,-0.212075,0.164871,0.263347,0.033172,0.242324,0.214656,-0.490436,-0.172344,-0.295104,0.236753,0.379086,0.414888,-0.036955,0.088423,-0.032952,-0.122041,0.388749,-0.027960,0.170635,0.154921,0.007121,0.048985,0.285362,0.302277,-0.147504,0.042026,-0.019788,-0.151390,-0.174284,0.141775,0.095626,0.094868,-0.189482,0.451889,0.129464,-0.117944,0.032251,-0.151760,0.097063,0.038463,0.307644,0.215683,0.160289,0.142170,0.318063,-0.144428,0.122410,0.386840,0.072123,0.581480,0.244566,-0.046272,-0.060570,-0.403040,-0.035187,-0.055813,0.264914,0.485913,0.197771,-0.454154,0.169826,-0.059469,-0.085001,0.328423,0.222885,-0.021457,0.427952,0.571636,0.322719,-0.244697,0.406439,0.016458,-0.098882,-0.201436,-0.271130,0.280217,-0.047063,-0.396544,0.062486,0.016803,0.133703,0.514624,0.142630,0.344903,-0.293790,-0.023743,0.443140,-0.250566,-0.091845,0.017709,0.319172,0.407126,0.028949,-0.213822,0.101274,0.073934,0.066421,0.124374,0.158543,-0.138895,0.206966,-0.150418,-0.370002,0.576161
0.291830,0.140307,-0.137846,0.311565,0.077668,0.005298,0.427252,0.389789,0.132936,-0.326942,0.216178,-0.167986,-0.028635,-0.261224,0.072899,-0.232272,-0.023267,0.493354,0.154283,0.162648,0.905533,0.002093,0.349119,-0.314983,-0.108395,0.001285,0.233765,0.120382,-0.268982,0.055273,0.002049,-0.308210,-0.276044,0.172474,0.009110,0.391962,-0.341842,-0.353504,-0.289344,-0.192587,0.151772,0.479196,0.573614,-0.167117,0.253513,0.223452,-0.048294,0.021338,0.090517,0.241381,0.879877,0.225693,-0.087391,0.479285,-0.021295,-0.156107,0.284576,0.471019,-0.009405,-0.488481,0.182409,-0.165901,0.121829,-0.234428,-0.130104,0.321490,-0.208861,0.844513,-0.028475,-0.055602,-0.217084,0.097752,-0.415945,-0.141917,-0.365112,0.087077,-0.097977,-0.126795,-0.051387,-0.045054,0.176090,0.132210,0.233001,-0.269090,-0.032715,-0.050072,-0.217446,-0.060952,0.318491,0.074386,-0.308000,0.466481,-0.095023,-0.032187,-0.026736,-0.357340,-0.087670,-0.146767,-0.222132,0.149210,-0.040395,-0.281346,-0.063537,-0.179356,-0.168081,-0.017024,0.375530,-0.116369,-0.124808,-0.261960,0.243013,-0.208426,-0.231080,1.273223,0.040606,-0.021737,0.737561,-0.378285,-0.219776,1.125630,0.121328,0.231841,0.044178,-0.136982,-0.361182,-0.090145,0.150499,0.571201,-0.064715,-0.221864,0.541234,0.455333,0.077098,0.002583,-0.192266,0.331451,-0.084372,0.262649,0.444783,-0.134689,-0.120321,-0.262971,-0.091737,0.206282,-0.274304,-0.107286,0.190364,-0.195435,-0.155863,-0.029631,-0.293040,0.487330,-0.022730,-0.045320,-0.000392,0.065631,0.134219,-0.259623,-0.063742,0.386877,0.150271,1.088912,0.108796,-0.366466,0.042120,-0.019489,0.148006,0.104790,-0.133249,-0.167088,-0.427642,0.096403,-0.190270,0.161225,-0.152623,-0.145549,-1.031454,0.018107,0.003626,-0.175086,-0.267059,-0.003984,0.280826,0.282880,0.034504,-0.261960,-0.133635,-0.077541,0.160991,-0.106756,0.139229,0.240522,-0.282208,-0.221107,0.053110,-0.206037,-0.242640,0.425038,-0.214481,-0.076110,0.305475,0.512840,-0.009564,-0.175357,-0.063303,-0.288633,0.424957,-0.095177,0.026637,-0.046037,0.299731,-0.279201,0.201574,-0.473422,-0.113526,1.065541,-0.219646,-0.001452,-0.043159,0.372533,-0.308177,-0.277519,-0.045677,0.390271,0.953574,0.035419,0.124552,0.645119,0.166079,0.072796,0.096851,0.221709,-0.120293,-0.277951,-0.189391,-0.304678,0.182778,-0.046388,0.211391,-0.337024,-0.171596,0.059403,0.115844,-0.007611,-0.360967,-0.124137,0.524841,-0.077221,-0.486413,-0.508945,0.072968,0.060652,-0.061810,-0.284197,0.378631,-0.257574,-0.701435
-0.024126,0.145494,0.622085,0.005098,-0.328736,-0.037763,0.383877,0.403289,0.308094,-0.076873,0.453623,-0.147143,0.163643,-0.006542,-0.328614,-0.229483,0.247749,0.528936,-0.004587,0.458314,0.256648,-0.005932,-0.191550,0.312583,-0.040835,-0.235595,0.192348,-0.279004,-0.222765,-0.216053,0.199104,-0.163059,-0.134033,0.100706,-0.192964,0.000253,0.336087,-0.043095,0.006243,-0.321139,-0.010339,0.390509,0.059300,0.004673,-0.204961,-0.038988,0.086789,-0.268237,0.186455,-0.497995,-0.043775,-0.261972,-0.118159,-0.092006,0.010125,-0.250301,0.003183,0.149621,-0.095957,-0.326973,0.232334,-0.259366,-0.077113,0.159527,0.182518,0.140345,-0.145277,0.495618,0.143618,-0.057824,-0.399960,0.086345,-0.139957,-0.290005,-0.242651,0.189681,-0.158507,1.337254,-0.240195,0.140146,0.100107,0.387631,0.360348,0.042140,0.092722,0.221218,-0.261238,-0.156011,0.548345,1.465839,0.147126,-0.073133,-0.087929,0.222019,-0.075883,-0.056425,-0.024798,-0.149369,0.013690,-0.027634,0.093985,-0.215503,-0.232824,0.295715,-0.129277,-0.297980,0.508503,-0.022053,-0.009981,0.264468,-0.728785,0.092717,-0.372690,0.088831,0.392355,-0.004008,0.330287,-0.394030,-0.005726,0.038215,0.245898,-0.061195,0.704175,-0.112021,-0.258118,-0.579122,0.412573,0.068489,-0.348093,0.047623,0.170945,-0.328338,0.324495,0.011959,-0.184763,0.270991,0.021173,0.008164,-0.268535,0.044097,-0.257603,-0.073507,0.359967,-0.174815,0.420232,0.224227,0.232595,0.363341,-0.171930,-0.211844,-0.102471,0.593304,0.094963,0.206744,-0.275183,0.453968,0.094100,-0.069586,-0.509169,-0.283124,0.239340,0.082443,0.084015,0.143238,0.192362,0.017230,0.752801,0.149091,0.143767,-0.225376,-0.131670,0.393043,-0.000102,0.137729,-0.122460,-0.299177,0.054820,-0.182409,-0.007575,0.041051,0.204456,0.183029,0.096221,-0.477263,0.181902,0.126721,-0.154051,-0.194954,0.392191,0.178932,0.001055,0.603891,0.147115,-0.221299,0.699236,-0.291817,-0.053030,0.311447,-0.282932,-0.386126,0.293966,0.686658,0.216894,0.032504,-0.292641,-0.395951,-0.035523,-0.153112,0.268870,-0.329384,0.467556,-0.134819,0.357367,-0.231190,0.460158,0.309619,-0.092206,-0.200921,0.106592,-0.326457,0.118805,0.363274,0.072050,0.240214,-0.049452,0.121277,-0.090436,-0.279475,0.795443,0.263625,0.196098,0.377919,-0.049944,-0.296297,0.521026,-0.069512,0.298166,-0.299901,-0.183464,-0.181601,-0.315660,0.142048,-0.047984,0.742346,0.168252,0.304613,0.481484,-0.075761,-0.140905,-0.412712,0.251911,-0.311222,-0.029083,-0.136058,0.689970,0.049505,-0.939895
-0.447176,-0.236978,-0.275495,0.095217,-0.171127,0.034719,0.282970,0.116104,-0.330132,0.554602,-0.363591,-0.291077,-0.572811,0.184127,0.070348,-0.119744,-0.182152,0.215511,0.111975,0.342020,-0.098283,1.454801,-0.044889,0.284214,-0.511572,-0.311060,-0.187908,-0.345317,0.245729,0.209506,-0.259991,-0.300112,0.370279,-0.378987,0.530540,0.277631,-0.117753,-0.059211,0.365753,0.302693,0.397030,0.035260,-0.146878,-0.229012,-0.210253,-0.081512,-0.349677,-0.011921,0.054653,-0.187384,-0.024832,-0.140914,-0.172654,0.301352,0.222027,0.427894,-0.077475,-0.063747,0.079059,0.163322,0.954285,0.036592,-0.347490,0.278569,0.280573,-0.305453,-0.108240,-0.212546,-0.238976,-0.210690,0.347825,-0.081375,-0.015411,-0.018832,-0.012995,0.240300,-0.120657,0.154286,0.271745,0.214169,0.160838,0.093567,0.255596,-0.163131,0.002004,0.225926,-0.265278,0.151385,0.109094,-0.181746,-0.376259,-0.087830,0.017314,0.021253,-0.004713,-0.294646,-0.062879,-0.228096,-0.202093,0.346526,-0.063899,0.347019,0.545360,-0.044234,-0.125445,0.146880,-0.018550,0.097946,-0.062888,-0.142737,-0.103450,0.052249,0.284887,-0.270151,0.105408,-0.160037,-0.198189,0.449109,0.206205,-0.009525,0.258434,0.190611,-0.143056,0.202851,0.024955,-0.315673,-0.327523,-0.233640,-0.048001,-0.079958,-0.269370,0.337412,0.027740,-0.275782,0.289635,0.087093,0.112999,-0.171394,-0.083089,-0.103566,0.067964,0.014230,-0.280754,-0.138891,0.442703,0.122272,-0.406462,-0.313764,-0.409876,0.047057,0.078743,-0.148173,-0.234404,0.078545,0.213110,-0.179213,-0.066949,-0.109532,0.259559,-0.284357,-0.278885,-0.154496,-0.284836,-0.376031,0.780143,0.596757,-0.183957,-0.070127,-0.135416,0.277582,-0.045395,-0.322958,-0.015773,-0.323524,-0.265597,0.047544,0.029743,-0.070992,0.255068,-0.134484,-0.005189,-0.084591,-0.125377,-0.014313,-0.261717,0.342348,0.317179,-0.051566,-0.110592,-0.360919,0.134571,0.187525,-0.048506,0.744791,-0.093930,0.156871,-0.161937,-0.157353,0.029931,0.353094,0.000360,-0.303298,-0.131021,-0.066458,0.217757,0.127007,-0.253606,0.050794,-0.069477,0.071812,-0.134798,0.066740,-0.224407,-0.098652,-0.153336,-0.087294,-0.204982,-0.130530,0.010342,0.008340,0.377494,0.434747,0.194619,0.124453,-0.090099,-0.072402,-0.102654,-0.357301,-0.287301,-0.361607,-0.101730,0.507586,-0.059252,0.052102,0.042453,-0.074139,-0.039427,-0.380541,0.454380,1.236514,-0.176789,-0.048428,0.020703,0.114081,0.216174,0.079965,-0.240430,0.009155,-0.245253,0.357966,-0.180235,-0.147047,-0.163214,0.092674,-0.064190,-0.361733,0.147880
0.016570,-0.190743,0.217393,-0.215468,-0.109796,-0.152960,-0.229253,0.452909,-0.275877,-0.252988,0.238863,0.241893,-0.038975,-0.269655,-0.099521,-0.053527,0.139501,0.492453,-0.207520,-0.228856,0.111712,0.007125,0.143234,-0.102602,-0.156385,-0.212467,0.147921,0.292642,-0.463967,0.456753,-0.118688,-0.027312,-0.016420,-0.085344,-0.040594,0.041680,-0.054101,-0.050428,-0.071159,0.003821,-0.362368,0.022178,0.099518,-0.210158,-0.036777,0.035843,-0.115304,-0.000585,0.260549,0.997184,0.402618,-0.164481,0.047426,-0.076797,-0.282912,0.099429,0.004322,0.119320,0.185919,0.124711,0.391190,-0.057139,-0.185926,0.019991,0.035732,0.254116,-0.194452,-0.238938,0.389468,-0.275721,0.148674,0.015933,-0.258731,-0.044834,-0.293700,-0.106659,0.228976,-0.064711,-0.603641,0.080268,0.188718,-0.245132,-0.177403,0.312153,0.017013,0.159028,0.359552,-0.154830,0.134694,-0.485210,-0.091438,0.085732,-0.093072,0.162955,0.068263,-0.312213,-0.184991,-0.202873,0.045785,-0.009022,0.057732,0.153471,-0.342755,-0.063012,-0.324739,-0.040511,-0.331850,0.015161,-0.190083,-0.123619,-0.108354,1.306943,0.247473,0.640681,0.299174,-0.147196,-0.157405,-0.110743,-0.326325,0.139488,-0.181240,-0.148539,-0.194193,0.306962,-0.330293,-0.020026,-0.143001,0.166210,0.290972,-0.159446,-0.117358,0.408113,0.044880,-0.250638,-0.027122,-0.149950,0.029276,0.238102,-0.155254,0.365355,-0.146138,-0.160825,-0.248832,-0.130581,-0.331097,-0.158827,-0.209974,-0.146651,-0.221970,0.045423,0.096078,-0.038271,-0.208280,0.050021,-0.125330,-0.234743,0.198568,0.127574,-0.132318,0.051831,-0.298280,-0.250613,0.203770,0.066871,-0.154290,0.220979,-0.052242,0.356921,0.628070,-0.184743,-0.068858,-0.239780,0.122119,-0.343104,0.238558,0.075196,-0.240469,-0.173902,0.022948,-0.020400,1.012086,-0.116408,-0.109374,0.707722,0.067250,0.329122,-0.109997,0.016235,-0.024115,-0.356054,0.391385,0.476535,-0.177489,-0.021387,0.145763,0.029573,-0.011188,-0.046087,-0.035685,0.632270,-0.302303,0.355890,-0.116177,0.168476,0.197367,-0.182631,-0.131346,0.141646,-0.150161,-0.073631,-0.376108,-0.272050,0.053616,0.400427,-0.061305,-0.150528,0.122955,-0.191530,0.043784,0.063813,-0.136788,-0.147628,0.189332,-0.112717,0.001634,0.042348,0.088369,0.136872,-0.136312,-0.105057,0.174304,0.235925,0.079719,0.679309,-0.090726,0.137341,0.080010,0.152035,0.020974,0.323887,-0.100955,0.030561,-0.016272,0.076796,-0.143001,-0.232832,-0.081536,-0.020479,0.149965,0.056394,0.197389,0.009114,0.122244,-0.214734,-0.004025,-0.009499,-0.888654
-0.090018,0.239819,-0.195975,-0.027652,-0.330857,0.299128,0.057801,-0.385380,-0.139337,-0.026485,-0.287871,-0.347640,-0.390590,0.154129,-0.210157,-0.200464,-0.236460,-0.336875,-0.028307,-0.171143,-0.245164,-0.317186,-0.243010,-0.306266,-0.388021,-0.070437,0.127511,-0.363068,0.235784,-0.084269,-0.217542,-0.147004,-0.189381,-0.260407,-0.180795,-0.377736,0.105847,-0.051817,-0.173008,-0.176181,-0.256548,-0.168561,0.171242,0.437497,-0.015261,-0.249691,0.336169,0.238749,-0.018089,-0.216264,-0.595311,-0.209750,0.081598,-0.264199,0.490043,0.059995,-0.392959,-0.176379,-0.286159,-0.108539,-0.204694,-0.330945,-0.292476,-0.138224,0.521325,-0.230649,0.241001,-0.175143,-0.075284,-0.061477,-0.279551,-0.206406,-0.263818,-0.049103,0.048672,-0.277260,-0.070963,-0.317370,0.258496,-0.793931,-0.377468,0.319646,-0.338501,-0.347629,-0.003053,-0.172405,-0.138944,-0.078637,-0.062210,-0.074699,0.041489,-0.280613,0.370053,-0.423822,0.486321,0.786079,-0.232910,-0.074201,-0.195642,0.127430,-0.311810,-0.296757,-0.239594,0.276368,0.191652,-0.037831,-0.243959,0.403713,-0.005922,0.052305,-0.358232,-0.060711,-0.350214,-0.118819,-0.444229,-0.191667,-0.072171,-0.127837,-0.207517,0.452147,-0.674650,-0.277158,-0.263764,-0.424432,-0.232270,0.346196,-0.114925,0.005831,0.035439,-0.419182,-0.080984,-0.219984,0.646045,0.021545,-0.169723,-0.212383,-0.222465,-0.197571,-0.245871,-0.198180,0.013901,-0.072553,-0.051473,-0.093057,-0.228967,-0.222074,-0.733267,-0.127734,0.472316,-0.031144,-0.130533,-0.058741,-0.126200,-0.079204,0.140797,-0.255399,-0.206268,0.153014,0.270690,-0.115087,-0.245325,-0.183881,-0.050653,-0.308548,-0.331421,-0.128414,-0.262930,-0.340143,0.436994,0.392854,-0.030775,-0.357842,-0.130235,-0.217247,0.217453,-0.176889,2.181639,-0.150970,-0.272128,-0.435833,-0.044762,-0.004645,-0.300206,-0.232043,0.677313,-0.277496,-0.069745,-0.023018,-0.051373,0.282636,-0.057737,-0.005285,-0.147885,-0.102009,-0.304997,-0.233353,-0.186714,-0.047406,0.031774,-0.382662,-0.081581,-0.136494,0.179003,0.227176,-0.325753,0.294031,-0.110172,-0.152630,-0.368754,0.391349,-0.096221,0.121392,-0.230690,-0.198574,-0.130176,-0.210215,-0.308034,0.038890,-0.034463,-0.333267,0.265625,-0.466507,-0.190505,-0.210909,-0.328840,0.029269,-0.153404,-0.372410,-0.093566,0.358129,-0.241956,-0.413265,0.730547,-0.393977,-0.514469,-0.153935,-0.548427,-0.052060,-0.690255,0.154306,0.553819,0.296748,-0.015994,-0.293656,-0.589045,0.164797,-0.129470,0.180907,0.024484,-0.356399,-0.224455,0.864899,-0.091907,-0.085496,-0.189015,0.140320,0.182974
0.038051,0.226022,-0.039757,-0.070932,-0.126942,1.074943,0.129875,-0.258356,-0.269997,0.453433,-0.267860,-0.241202,0.496937,-0.222903,-0.267327,0.181538,0.220132,-0.351399,0.183512,0.003661,-0.303434,-0.225889,0.089380,-0.320163,-0.388361,-0.021824,-0.110528,-0.211666,0.002591,-0.224732,0.109695,-0.227354,0.015843,-0.547378,-0.150866,-0.446352,-0.131458,-0.100191,-0.357317,0.309103,-0.208240,-0.204817,-0.143003,0.144324,-0.095921,-0.286330,0.179899,-0.192769,-0.261556,-0.153163,-0.377616,-0.189137,-0.374954,-0.130515,0.159340,-0.279276,-0.303500,-0.219016,0.089401,0.259934,-0.003229,-0.222320,-0.075141,0.241510,0.019774,-0.267496,0.495716,-0.228871,-0.190246,-0.028260,-0.025320,-0.101494,-0.062534,-0.024433,-0.610318,-0.247070,-0.431098,0.076949,-0.224680,0.787412,-0.201292,-0.145052,-0.305735,0.346858,0.168799,0.444150,-0.113660,0.147970,-0.271496,-0.425582,0.541884,-0.005964,0.424783,-0.176755,0.414643,0.180465,-0.444848,0.010173,-0.323565,-0.286394,-0.162244,-0.085081,0.798721,0.596005,0.250678,0.923377,-0.133078,0.314263,-0.094656,-0.191678,-0.211287,-0.503357,0.325932,-0.114915,0.205588,-0.076694,-0.110241,0.068389,-0.205934,0.381728,1.136835,1.032174,0.124174,0.300346,0.064539,0.089044,-0.023955,-0.277920,0.315317,0.222271,-0.213376,-0.099528,0.005479,0.069422,-0.070934,-0.202215,-0.075193,-0.276697,-0.239155,-0.208023,0.441095,-0.173874,0.295113,-0.189059,0.515359,0.198256,0.161595,-0.182613,0.271007,-0.182093,-0.105947,-0.152167,-0.163269,0.012719,-0.001796,0.237753,0.088822,-0.165823,-0.445274,-0.378981,0.177544,-0.581440,-0.138795,0.288840,-0.365683,-0.428662,-0.268174,0.614194,0.345045,0.929873,-0.007109,0.161675,0.246587,0.101782,1.023754,-0.193246,-1.238398,-0.130666,0.261635,1.480492,-0.035031,0.111970,-0.227046,-0.168750,0.173845,-0.329751,-0.311494,1.038957,-0.113566,1.139291,0.042508,-0.075314,0.266195,-0.392778,-0.197471,-0.126649,0.086144,0.039259,0.226502,-0.312658,-0.136997,-0.174426,0.045956,0.197451,-0.428854,0.390595,-0.257880,-0.160534,-0.279997,0.367459,-0.567580,0.600190,-0.430020,-0.371240,-0.088007,-0.275527,0.124514,0.107227,0.009944,-0.132721,-0.120794,0.837663,-0.147567,-0.304004,-0.112410,0.038803,0.115957,-0.263300,-0.129799,0.163063,-0.269080,-0.353030,0.336948,0.020195,0.334075,-0.228816,0.175762,-0.180017,-0.167623,0.132862,0.215374,-0.377535,-0.029469,0.084969,0.269784,0.375155,-0.340439,-0.092003,-0.217275,0.099968,-0.286934,0.502363,-0.079167,0.124012,-0.059015,0.106324,0.352004
-0.175938,-0.259361,-0.156554,-0.114457,-0.166787,0.002933,-0.067053,-0.349000,0.169446,-0.098838,-0.016342,0.256662,0.151249,-0.280171,-0.188527,0.006683,-0.476031,-0.427606,0.202795,-0.119550,0.020754,-0.067025,0.168240,0.159921,-0.109250,0.303875,-0.181370,-0.037982,-0.005200,0.184746,0.540522,0.028276,-0.080008,-0.099224,-0.093350,-0.153046,-0.194719,-0.025808,0.067968,-0.072991,-0.183207,-0.153782,0.203487,0.259620,-0.202841,0.410177,0.677228,0.063828,0.082955,0.269043,-0.179070,0.103269,0.266493,0.018795,0.268319,-0.020513,-0.363614,-0.239240,-0.381115,0.196271,-0.253705,-0.221121,-0.135758,-0.196981,-0.117242,-0.303994,0.591025,-0.101917,-0.194983,-0.166894,0.182867,-0.170211,0.107657,-0.147801,0.127211,0.043398,-0.035446,-0.110247,0.250260,0.114074,0.139601,-0.052936,-0.052851,0.398065,-0.120929,0.374499,0.223829,0.052037,0.002250,0.248042,0.717553,-0.240282,0.160538,0.291234,0.224753,0.229663,0.289131,0.538864,-0.010183,0.077661,0.023014,-0.003507,0.030528,0.121021,0.106089,0.103229,-0.305869,-0.076183,-0.089030,-0.039273,0.384510,0.037068,-0.059924,0.020274,0.177947,0.200668,0.078925,0.160419,0.128528,-0.037299,0.186439,0.453654,0.071969,-0.151592,-0.205228,-0.060603,-0.068582,0.036231,0.288504,-0.205869,0.007376,-0.433792,0.061323,0.485986,-0.175117,-0.066094,0.415934,-0.024193,-0.330823,-0.283226,0.196156,-0.100859,0.341163,-0.046390,-0.322408,-0.277895,-0.108566,0.383272,0.141563,-0.230826,0.275788,-0.129245,-0.055423,-0.251659,-0.103414,-0.288594,-0.698433,0.017582,0.236477,0.499469,-0.219617,-0.371252,0.201405,0.690063,-0.244413,-0.359939,0.234024,0.054425,0.269048,0.069196,0.006832,0.245207,0.140502,0.082319,-0.018714,-0.228172,0.162342,-0.041361,-0.109339,0.179060,-0.222002,-0.056828,-0.187417,0.020984,-0.256775,-0.266765,0.156334,0.101251,0.112984,0.124533,-0.161042,0.040937,-0.253700,0.044744,0.234275,-0.053314,0.434372,-0.257540,-0.003141,0.156569,-0.226875,-0.326241,-0.338313,0.054425,0.375529,0.390233,0.596031,-0.148066,0.390569,-0.230390,0.157238,0.083096,-0.091171,0.071966,0.064556,-0.167813,0.581165,0.030743,0.022878,0.216878,0.191161,-0.043006,-0.228817,-0.117101,0.061388,0.057467,-0.040482,0.014002,-0.062369,-0.279341,-0.259527,-0.386941,0.156315,-0.325271,-0.182171,0.478138,-0.222537,-0.067106,-0.446143,-0.025786,0.033072,-0.145401,-0.023132,0.035814,0.107236,-0.118314,0.091520,-0.024772,0.091102,0.138104,-0.085814,0.364488,-0.410810,0.092676,-0.344980,0.289501,-0.023753
-0.234786,0.137614,0.067706,0.172184,0.212940,-0.145440,-0.191356,0.124212,-0.098384,-0.176098,-0.111151,-0.130615,0.310565,0.025405,0.281532,0.050558,0.056338,-0.529065,0.548058,-0.234278,0.431036,-0.385361,-0.380548,-0.266523,-0.137844,0.594552,-0.346137,0.231301,-0.069455,0.249348,0.339159,-0.106779,-0.105282,0.434339,0.010299,-0.112081,0.019602,0.109198,-0.160503,-0.241503,-0.216368,0.114081,-0.207115,0.048907,0.445921,-0.085167,-0.113732,0.227719,0.121627,0.231540,-0.248325,1.240685,0.312555,-0.124448,0.106273,0.212936,0.124594,-0.400366,-0.144679,0.179268,-0.332533,0.173122,0.645289,-0.225528,-0.034017,0.198704,0.057989,0.195365,0.090588,0.003178,-0.139598,-0.095212,-0.175071,0.354863,0.037139,-0.396675,0.152729,-0.153016,-0.348432,-0.142865,0.000990,-0.113690,0.020094,0.289936,-0.054502,-0.154535,-0.028108,-0.295163,-0.225692,-0.047495,-0.173180,-0.154470,-0.120768,0.141228,-0.067460,-0.069373,-0.117919,0.171294,0.112134,-0.069072,-0.117336,-0.143353,-0.378032,-0.201437,0.016094,-0.124911,0.328058,-0.144487,-0.112706,-0.081679,0.616841,-0.058606,-0.130805,-0.105724,-0.238109,0.388681,-0.107470,0.344744,-0.179738,-0.308334,-0.210021,-0.367283,-0.045265,-0.181886,0.190031,0.802679,-0.198550,-0.075982,-0.200652,-0.377966,1.098216,-0.220285,-0.245714,-0.232027,-0.183430,-0.295383,0.089222,-0.045035,0.031715,-0.080514,0.207056,-0.055155,-0.392523,0.164826,-0.283072,0.088975,0.882989,-0.041501,-0.243813,0.203806,-0.157545,0.115156,-0.046007,-0.190571,-0.091078,0.496620,0.693889,-0.109926,0.017859,-0.568003,-0.147290,0.206794,-0.177891,-0.212444,-0.346029,-0.200659,-0.363028,-0.007741,-0.034528,0.089864,-0.122593,0.590172,-0.377178,-0.185787,0.068686,0.133439,0.086893,-0.242282,-0.035185,-0.128297,-0.030619,0.136522,0.084417,-0.277791,-0.121024,-0.337919,0.291916,-0.109674,-0.070498,-0.171803,-0.082640,-0.246456,-0.129895,-0.041043,-0.137635,-0.234841,0.125892,0.340460,-0.195946,0.101491,-0.147956,-0.191419,-0.161701,-0.033063,-0.081847,-0.326106,0.208851,-0.106016,-0.060193,-0.174260,-0.292888,-0.116662,-0.053061,0.178849,0.127644,0.316728,-0.108394,0.485127,-0.037525,-0.054237,-0.116588,-0.280504,-0.139569,-0.296390,-0.067279,-0.069073,0.387885,0.058807,-0.284840,-0.077516,-0.119442,-0.569044,-0.195325,-0.156307,0.315962,-0.303365,-0.243739,-0.017908,-0.161182,-0.084270,-0.122110,0.106684,0.058043,-0.243184,0.528969,0.026855,0.166413,0.030852,-0.320298,-0.080056,0.166476,-0.000815,-0.041470,0.395103,0.033592,-0.260710,-0.228304
0.220390,-0.164075,-0.079727,-0.071303,-0.032213,0.072556,-0.143144,-0.016639,0.231419,-0.001648,0.033539,0.443989,0.123491,0.216727,-0.178481,-0.086020,-0.224452,-0.144387,-0.433236,-0.133069,0.045850,-0.260363,0.198032,-0.031065,-0.068262,0.650078,0.191263,-0.014949,0.318029,0.343902,0.338608,0.243764,0.256120,0.496952,-0.203007,0.402524,-0.074552,-0.254533,0.396022,-0.034101,0.097152,0.234391,0.054250,-0.034725,0.070661,0.067569,-0.193604,0.471482,0.243394,-0.017552,0.422388,-0.261053,0.693719,-0.137182,0.059665,-0.286443,-0.002753,0.010390,-0.067243,0.206564,0.030311,0.393389,-0.198640,-0.299855,-0.107865,0.209489,0.211845,-0.075184,0.035499,0.012198,0.031488,0.136150,0.244929,0.080405,0.058152,0.176074,-0.456281,0.274035,-0.013517,-0.042848,-0.055741,0.226682,-0.251307,0.122490,-0.190030,-0.182932,0.217726,0.185944,-0.130397,0.119994,0.696083,-0.104729,-0.264699,0.542484,0.002385,-0.728555,0.048363,0.471614,0.068851,0.133987,0.110853,-0.018696,0.029530,-0.205867,-0.064285,0.085379,-0.331679,-0.065542,0.014459,0.341028,-0.198604,-0.006222,0.009709,-0.222820,0.215747,-0.244978,-0.432295,-0.302155,0.239472,0.036982,0.102288,-0.393059,0.263137,-0.016177,-0.330997,-0.080522,0.014141,0.125581,-0.262934,-0.320603,-0.276093,-0.316046,-0.263011,0.131916,0.217811,-0.044547,0.360577,-0.142372,-0.159324,0.225230,-0.002500,0.003521,0.371629,-0.019594,-0.060659,-0.201175,-0.216313,0.072571,0.125648,0.258512,-0.045547,-0.084543,0.197028,-0.197051,0.108297,-0.176754,-0.205056,-0.073493,0.694434,-0.015635,-0.191333,0.153549,-0.269125,0.590449,-0.287949,0.244699,0.319774,-0.026566,-0.043333,-0.106266,-0.172246,0.092852,0.307106,0.122117,-0.149921,0.269044,-0.030461,-0.015046,-0.251212,0.318110,0.070638,-0.144462,0.326948,0.154161,-0.083973,0.077884,-0.128800,-0.157985,0.127889,-0.019738,0.260720,0.040554,-0.045893,-0.226018,0.048755,-0.143807,0.345968,0.233406,0.198505,0.431096,0.000537,-0.432279,0.160701,-0.123125,0.388865,0.230128,0.301837,-0.110114,0.394506,-0.280227,0.422016,0.193961,0.877026,0.531976,-0.022663,-0.089749,0.698943,0.296391,-0.072420,-0.193098,-0.259695,-0.221819,0.242570,-0.323564,-0.176703,-0.179004,-0.190659,0.401452,-0.494154,-0.140975,0.385207,-0.056021,0.076410,-0.041717,-0.146217,0.930094,-0.206806,0.197607,-0.000327,-0.344634,0.005163,-0.010575,0.020148,-0.162412,-0.398534,-0.239653,0.039078,0.188984,0.312432,-0.003698,-0.030574,0.026186,-0.086508,-0.108248,-0.033816,-0.021765,0.103693
-0.294281,0.054675,-0.220830,-0.173031,0.046685,0.095125,-0.217638,-0.071424,0.010209,-0.089432,-0.126769,-0.194915,-0.286718,-0.104603,-0.274858,-0.221901,0.410719,0.029635,0.051901,0.011627,-0.204729,0.167951,-0.204347,-0.354894,0.045473,-0.115576,0.254730,0.321417,0.041262,-0.346199,0.221185,-0.140863,0.393223,0.136255,0.302540,-0.289278,0.040232,-0.138485,0.137050,0.362129,-0.185652,-0.258376,0.035953,-0.132653,-0.081298,-0.299636,-0.097889,-0.160829,-0.494539,-0.142771,-0.294995,-0.022193,-0.306471,-0.219705,0.118660,0.375926,-0.336106,-0.170592,0.070258,0.485142,-0.378531,-0.366376,-0.289469,0.231347,0.087304,-0.321123,0.311189,-0.163482,-0.143684,-0.237175,-0.135348,-0.193968,-0.223488,0.012680,-0.242021,-0.202907,0.123023,-0.085526,-0.230250,-0.060526,-0.080560,0.115465,0.269984,0.162874,0.072516,0.188672,0.254233,0.163681,0.051178,-0.014730,0.009818,-0.245708,-0.361743,0.045917,-0.215649,0.230696,-0.179893,-0.010540,0.050282,0.248812,-0.178854,0.238215,-0.010151,0.052965,0.103994,-0.118467,-0.226112,0.029549,-0.005652,-0.073534,0.156396,-0.254607,-0.367985,-0.233216,0.004935,-0.181111,0.298414,0.445084,0.303714,-0.314799,-0.196221,0.172118,-0.091449,-0.107723,-0.175751,0.855656,-0.029280,-0.118407,0.271830,-0.173553,-0.053338,-0.026543,0.179805,0.002760,-0.079951,-0.159787,0.055917,-0.477641,-0.211463,-0.256809,0.186579,0.108685,0.024460,-0.079315,0.119684,-0.234323,-0.377880,-0.113555,-0.261618,-0.311528,-0.023158,0.013100,-0.223176,-0.108851,0.339986,-0.057214,-0.032649,-0.080291,-0.056453,-0.036515,0.035054,-0.104882,0.190556,-0.057600,-0.329834,0.131856,-0.050660,-0.474270,-0.061434,-0.206765,-0.396045,-0.192355,-0.151219,0.026697,-0.011573,-0.219666,-0.069868,0.057996,-0.149207,0.060554,-0.176578,-0.096053,0.227926,-0.078273,-0.130636,-0.149562,0.276428,-0.005454,-0.196417,-0.280137,0.010488,-0.056605,0.130835,0.054348,-0.089583,-0.001523,0.118492,-0.122856,-0.232860,0.131954,-0.099347,0.033881,-0.149236,0.023124,-0.188468,-0.297474,-0.023201,-0.097063,-0.208601,0.103213,0.043426,0.002524,0.043309,0.382874,-0.105696,-0.155324,-0.113634,0.057048,0.033614,0.001276,-0.020744,0.223630,-0.134053,0.143495,-0.154623,-0.063901,0.071449,-0.312324,-0.115690,-0.001261,0.057202,-0.000301,-0.051705,0.518732,-0.140380,-0.007848,-0.002073,-0.041986,0.274344,0.169072,0.033209,-0.224844,0.005185,-0.185444,0.765084,0.074766,0.234416,-0.058494,0.087771,0.782907,-0.189690,0.043884,-0.046576,0.226378,0.060692,-0.116803,0.171014
0.716802,-0.357905,-0.052630,-0.013261,0.024149,-0.297858,-0.316594,0.185124,0.904360,0.214660,0.387741,0.108838,-0.292227,-0.074064,-0.007719,-0.095062,0.219314,0.391498,0.223754,0.212826,0.333307,-0.055418,0.063178,-0.122565,0.423758,-0.047400,0.055134,-0.381504,-0.385804,-0.000912,-0.289670,0.440853,-0.009112,-0.216598,-0.121687,0.234129,0.203669,0.238596,0.012783,0.190409,0.073349,0.236469,0.048672,-0.283601,0.072240,-0.117975,-0.245227,-0.113179,0.025632,-0.102551,0.681402,-0.199651,-0.188195,-0.279118,-0.162071,-0.163712,0.416565,0.335957,0.061002,0.156648,0.162354,-0.144916,-0.011976,-0.164230,-0.427148,0.409320,-0.115454,0.013202,0.144524,0.488338,-0.239374,0.765004,-0.318919,-0.090438,0.096924,-0.143652,-0.272699,-0.009822,-0.162684,0.088215,0.306061,-0.273016,0.084605,-0.465112,-0.040491,-0.324884,-0.392145,0.280111,-0.254179,0.522604,-0.430811,0.282172,-0.149400,-0.070435,-0.291025,-0.265441,0.305783,-0.283457,0.066540,-0.041530,0.424927,-0.210678,-0.217793,0.057031,-0.340806,-0.072732,0.287513,-0.262704,0.083758,0.042537,0.096989,0.123251,-0.072959,-0.063701,-0.460195,-0.123172,0.170316,-0.014301,0.056907,-0.105799,-0.067584,0.066611,0.309957,-0.127123,0.060857,-0.403538,-0.115747,0.231836,-0.199648,0.763476,-0.003254,0.261651,-0.210600,-0.232481,-0.330765,0.005710,-0.110913,0.467157,0.150429,0.305382,-0.221049,-0.144968,-0.102758,-0.121819,0.240754,0.337132,0.369787,-0.066569,-0.247337,-0.039384,0.292408,-0.187443,0.238458,0.378235,0.138759,-0.063532,-0.330588,0.287894,-0.262186,0.317947,0.322121,0.346422,0.216132,-0.203176,0.398377,0.047413,-0.179654,-0.316423,-0.030115,-0.058987,-0.070574,-0.058299,-0.436940,0.033831,-0.164210,-0.170536,-0.035904,0.478429,0.060978,-0.288652,0.268977,-0.014582,0.282194,0.310096,-0.068636,0.040194,0.316210,-0.127304,0.115720,-0.291281,0.193711,-0.128216,-0.126387,0.222543,0.283893,0.057029,-0.240070,-0.319296,-0.232942,0.083834,0.268663,0.174289,-0.005575,0.019981,-0.152619,-0.320786,0.144320,-0.326807,-0.064883,-0.208440,0.015283,0.142965,0.456026,-0.055844,-0.105921,-0.032258,0.003483,-0.084754,-0.087527,-0.221223,0.015775,-0.107554,0.213812,0.306881,0.264878,0.263513,-0.085521,0.268248,-0.138326,-0.152007,0.169127,0.236558,-0.031230,-0.267952,0.110526,-0.547815,0.872573,0.277347,0.356283,-0.373932,-0.069861,0.043776,0.001570,0.275635,-0.008728,-0.388407,0.369934,0.105666,-0.158800,0.236845,1.641104,-0.228236,0.463261,0.161297,-0.300461,0.011937,0.391900
0.557892,0.366673,-0.375096,0.744301,-0.109086,-0.060423,-0.252277,-0.293340,-0.115533,-0.293072,-0.043548,0.197148,0.000318,-0.104582,0.880729,0.917988,-0.032086,-0.021236,-0.359881,-0.247733,-0.301520,-0.007772,0.121475,0.031314,0.429253,-0.278477,-0.013966,0.363938,0.141172,-0.084606,-0.178596,0.324592,-0.042104,0.132735,-0.117360,0.348355,-0.210360,-0.360858,-0.142742,-0.012995,0.598248,0.003881,-0.097974,-0.053083,-0.072588,-0.070911,0.043989,0.025385,0.004387,-0.005381,0.032148,0.268574,0.178180,-0.144122,-0.237663,-0.192199,0.189250,0.227149,0.373969,-0.113301,-0.164441,0.583150,1.103156,0.071646,0.261275,0.189651,-0.237850,0.289563,-0.153028,0.018588,-0.077320,0.299343,0.269630,-0.027139,0.161076,0.044594,0.240616,-0.004267,-0.168532,-0.251307,0.021317,-0.178378,-0.101876,-0.181107,-0.017872,-0.083003,0.081601,0.023222,1.160140,-0.065182,-0.321014,-0.132653,0.279131,-0.063999,-0.038678,-0.028348,-0.046527,-0.221642,0.378639,-0.020564,0.022858,0.265863,-0.277278,-0.169590,0.254312,-0.417665,0.345021,-0.013119,0.105356,-0.120113,-0.038881,-0.221941,-0.306813,-0.022763,-0.094982,-0.018795,-0.048336,-0.041480,-0.095975,0.189899,-0.189653,0.055848,0.335983,0.213701,0.713722,0.423753,0.056332,-0.161517,-0.328934,-0.213155,-0.115950,0.197974,-0.159267,0.001202,0.167645,-0.189739,-0.041158,0.176999,0.030194,0.242650,-0.150988,-0.116799,-0.483347,0.328387,0.102726,0.753579,0.127900,-0.108181,0.195103,0.123740,0.300749,-0.219910,0.052972,0.399186,-0.120754,0.432276,0.092477,-0.159533,-0.195328,0.279070,-0.251220,0.247942,-0.068620,-0.153395,-0.095030,0.185560,-0.169294,0.617891,-0.151378,-0.191062,0.150716,-0.244783,0.256201,-0.026926,-0.296277,0.714321,-0.002315,0.128655,-0.101475,0.011687,-0.180453,0.137453,0.110414,-0.079805,-0.003821,0.319027,-0.281620,0.046884,0.029287,0.030367,0.078779,-0.371397,0.612043,-0.351191,-0.404237,-0.199026,0.303979,-0.070125,0.243959,0.130343,-0.110893,-0.237258,0.107154,-0.209689,0.112442,-0.138617,-0.062477,0.105704,-0.109138,-0.173298,-0.165663,-0.133688,0.336003,-0.073097,0.019954,-0.102596,-0.010033,-0.144167,-0.128876,-0.011031,0.047975,-0.201962,0.291195,-0.150488,-0.044695,-0.119833,0.456575,-0.229904,-0.033491,-0.038246,-0.049246,0.342642,-0.050418,0.449975,-0.437094,-0.172135,0.213090,0.141909,0.195639,0.100255,-0.206970,0.344068,0.006743,0.010126,-0.402331,0.084791,0.040445,-0.048885,-0.301556,-0.213103,-0.102875,-0.390093,0.610027,-0.167236,0.005927,0.091841,-0.433921
-0.265739,-0.116708,-0.301093,0.033780,0.137412,0.452463,0.177530,-0.270435,0.026674,-0.267758,-0.170317,0.273024,0.085964,0.565000,-0.329668,0.229039,0.176796,-0.334796,-0.212126,-0.095217,-0.138917,0.370431,-0.208189,0.765574,-0.392286,-0.231128,0.207224,-0.285993,0.129719,-0.238051,0.333013,0.004808,-0.082419,-0.306444,-0.078887,-0.398717,0.021869,-0.005895,-0.024925,-0.070013,-0.300162,-0.431743,-0.090729,0.142743,-0.071489,0.395035,0.145865,-0.259722,-0.172702,0.234771,0.091642,-0.399240,0.054447,0.155365,-0.164103,-0.239728,-0.290743,-0.297058,0.045281,-0.295033,-0.246332,-0.240894,-0.220931,-0.341198,0.149209,-0.304707,-0.183393,0.109969,-0.360246,-0.159111,1.110356,-0.088864,0.215722,-0.016106,0.217058,0.344497,-0.049255,0.115242,1.089221,0.854928,0.498600,0.087375,-0.109731,-0.270673,-0.109169,0.211264,-0.477881,-0.140121,-0.035073,0.202363,0.301266,-0.090182,0.317334,0.011131,0.124740,0.275061,-0.080040,0.159884,0.187476,-0.139010,-0.263177,-0.053516,-0.015342,-0.170639,0.330844,0.197089,-0.199649,0.135096,-0.127879,0.071107,0.452656,0.175574,0.529385,0.332419,-0.174849,-0.185788,-0.050853,-0.260920,-0.208583,-0.157524,0.619851,0.134592,-0.345320,0.496258,0.147268,-0.110370,-0.075689,0.242823,0.601425,-0.227799,-0.094150,-0.176811,0.315298,0.076738,-0.078819,-0.162835,-0.078262,0.119547,-0.018102,-0.448924,0.231960,-0.151561,0.333269,-0.470418,-0.182379,-0.021752,-0.127635,-0.306014,0.317149,0.071810,0.060079,-0.022906,-0.143500,-0.283686,-0.121502,-0.242788,0.119776,-0.099852,0.207063,-0.240506,-0.557893,-0.042394,0.088942,0.178414,-0.070453,0.097642,0.240393,0.379572,0.730708,0.303820,0.294470,-0.291201,0.198016,0.078589,-0.158474,-0.088606,-0.051866,-0.164531,0.169375,-0.064987,0.058133,-0.056380,-0.140694,-0.004150,0.067766,-0.233516,-0.286093,-0.103859,-0.122895,0.165353,-0.146754,-0.135088,0.302562,-0.331778,0.034636,-0.093508,0.187840,-0.105087,0.256190,-0.258215,-0.344832,-0.092414,-0.083978,-0.091612,-0.046872,0.491522,0.132462,-0.053371,0.299503,0.045805,-0.025157,0.114231,-0.362508,0.023820,0.068937,-0.148579,0.474767,-0.096946,0.079031,-0.229637,-0.082428,0.106660,-0.175513,-0.360198,-0.085669,0.025323,0.304961,-0.237321,0.001276,0.112627,-0.256544,-0.190052,0.011445,0.152317,-0.107542,0.266016,-0.043181,-0.123661,-0.285462,-0.317333,0.257525,0.173748,-0.010630,0.050111,-0.133771,0.323736,-0.177320,0.064633,-0.075371,-0.353016,-0.249546,-0.007250,-0.145727,-0.261288,-0.427665,0.521000,-0.420525
-0.071493,0.100615,-0.301282,0.098343,0.024337,0.204190,0.053372,-0.244511,-0.283805,0.192084,-0.236213,-0.101207,-0.184783,0.864776,0.380457,0.262606,0.129129,-0.600930,0.376274,-0.095029,-0.295408,-0.296251,-0.058157,-0.010710,-0.410766,0.228468,-0.006839,0.061604,0.099675,-0.155287,-0.267681,-0.176891,-0.164193,-0.169203,-0.133476,-0.277457,-0.006699,-0.165495,-0.268992,-0.490792,0.592520,-0.160684,0.157673,0.315254,-0.124479,-0.104435,0.314111,0.044922,0.184885,-0.335320,-0.198828,-0.101127,0.392851,-0.014181,-0.016050,0.096206,0.349844,0.456536,0.024520,-0.410180,-0.403622,0.692187,-0.117401,0.042475,-0.134887,-0.353953,-0.130592,-0.325659,-0.171585,-0.132429,0.083162,-0.185757,1.028671,-0.128007,1.217750,-0.295095,-0.153912,-0.213891,-0.066990,0.353731,-0.164781,-0.147168,-0.249123,-0.282876,-0.102797,-0.231210,-0.162443,-0.253569,-0.183197,-0.087299,-0.282468,-0.190295,-0.040325,-0.020185,0.007358,0.140284,0.283364,0.264146,-0.065119,-0.176599,-0.083640,-0.219091,0.037228,-0.287942,0.180844,0.029987,-0.125100,0.048557,-0.237240,-0.185151,-0.198933,-0.142113,-0.250530,0.256793,-0.366935,-0.083506,-0.118970,0.227950,-0.219813,-0.118194,0.015692,-0.364394,-0.128698,0.090205,0.558976,0.125454,-0.002686,-0.173679,-0.279586,0.414581,0.037099,-0.312008,-0.063147,0.675431,0.462540,-0.225639,0.082639,-0.208450,0.189806,-0.137451,-0.047342,-0.134041,-0.309944,-0.081489,-0.123253,0.227012,0.184226,-0.184360,0.159392,-0.120805,0.018758,-0.134707,-0.172376,-0.146891,-0.097221,-0.098055,0.154193,-0.102248,0.238437,-0.285916,-0.209932,0.114648,-0.088512,-0.520775,-0.306032,-0.151544,0.061033,0.312544,-0.543169,0.273005,-0.072336,0.247610,0.128252,0.208995,0.282641,0.445892,-0.737162,-0.128255,-0.144343,-0.229346,-0.052537,0.103488,-0.204756,-0.053375,-0.101439,-0.194572,-0.163558,0.324667,-0.202198,0.367643,-0.093118,-0.213031,0.044723,-0.226035,-0.047979,-0.003751,-0.294436,-0.395438,0.974902,-0.459225,0.081497,-0.095060,-0.121488,-0.153643,-0.019401,-0.256715,-0.140030,0.056234,-0.121968,-0.091982,0.057371,0.278395,-0.340945,-0.297046,-0.099940,-0.177963,-0.393939,-0.071918,-0.049888,-0.290688,-0.266088,-0.246881,-0.406159,-0.067988,-0.239742,0.125732,0.102187,-0.281792,0.003676,-0.031820,-0.336231,-0.484905,-0.070469,-0.182877,-0.127245,0.431295,-0.109739,-0.156854,-0.132742,-0.643093,0.007482,-0.407604,-0.004258,-0.104221,0.111408,-0.299918,-0.130566,0.005618,0.007185,-0.438763,-0.054369,-0.119618,-0.048994,-0.245073,-0.007879,0.034865,0.612494
-0.341840,-0.419181,-0.225865,-0.039749,0.147894,-0.464707,0.004720,-0.303180,-0.169465,-0.402088,-0.244400,-0.004022,0.274744,0.008019,-0.221121,-0.146425,-0.150544,-0.298207,-0.488074,-0.169004,-0.220431,-0.228039,-0.029215,0.179777,-0.375421,0.210744,-0.277166,-0.309394,0.085518,-0.014358,-0.078057,-0.063155,-0.140298,0.139807,-0.077999,-0.266191,0.026238,0.050100,0.047955,-0.272527,-0.286670,-0.139549,0.027275,0.610466,-0.057170,-0.160952,0.069658,0.008355,-0.314330,-0.128548,-0.251373,-0.144640,0.107497,-0.186020,0.163346,0.042794,-0.238232,-0.430331,-0.010373,0.009717,-0.034740,0.318032,-0.015286,-0.039859,-0.136709,-0.182256,-0.078180,-0.273824,-0.086463,-0.082604,-0.275445,-0.208037,0.266624,-0.048995,0.049295,-0.146526,-0.043870,-0.190534,0.296436,-0.081281,-0.144966,-0.223096,-0.128828,-0.253131,0.158445,-0.158059,-0.154132,0.029520,-0.115627,0.013575,-0.037127,-0.112686,1.045867,-0.259816,0.047809,0.395584,-0.084713,0.473253,-0.158147,-0.008442,-0.180301,-0.227403,0.386848,0.249080,0.426261,0.072753,-0.207922,-0.275388,-0.062740,-0.140648,-0.130818,-0.124893,-0.299743,-0.132917,-0.200456,0.042911,-0.082793,0.130748,-0.290125,-0.068151,-0.353191,-0.049300,-0.053276,-0.201826,0.046131,-0.068641,0.026030,0.003908,-0.391697,-0.237947,-0.160216,-0.389777,0.076579,-0.227880,0.386943,-0.225277,-0.345848,-0.203904,-0.161130,-0.105119,-0.210532,-0.059491,-0.269335,-0.054246,-0.145609,-0.217517,-0.106896,-0.165169,0.799536,-0.097698,-0.015962,-0.052366,-0.069708,-0.080489,-0.126138,-0.210093,0.434170,-0.046961,0.136980,-0.171081,-0.250146,-0.300943,0.006347,-0.369932,-0.162589,-0.062993,0.035869,-0.204234,-0.027190,-0.334836,-0.115917,0.390509,-0.224640,-0.439836,-0.020115,-0.155183,0.497106,-0.034273,-0.001400,-0.147326,-0.009507,-0.136582,-0.287723,-0.177338,-0.033436,-0.431548,-0.295254,0.339415,-0.053271,0.148183,-0.133168,-0.358203,0.025299,-0.186877,-0.022146,-0.118059,-0.300638,-0.151647,0.361255,-0.370893,-0.324137,-0.081527,-0.089154,0.324108,-0.098435,0.379074,-0.047345,-0.127041,-0.124934,0.330805,-0.205073,-0.290694,-0.420369,-0.080881,-0.120797,-0.151209,-0.288356,-0.099413,0.596125,-0.190932,-0.397513,0.215923,-0.203858,-0.282047,-0.167157,0.032708,-0.360351,-0.111739,-0.061949,0.087320,-0.261070,-0.367555,0.036826,-0.392206,-0.354098,0.109540,-0.304611,-0.074419,-0.305181,-0.421231,0.298293,1.468119,-0.004416,-0.350468,0.098072,0.404040,-0.054624,-0.092336,-0.212156,-0.304480,-0.270353,0.146552,-0.169238,-0.232755,-0.187831,-0.268601,0.184961
0.077860,0.129328,0.065071,-0.120680,0.367391,-0.147906,-0.218808,0.201959,-0.023805,0.681075,0.017190,0.168956,-0.196397,-0.203677,0.231641,-0.123143,-0.168921,0.459868,-0.195219,0.409782,0.169765,0.377386,0.888423,-0.180320,0.580790,-0.309815,0.104263,0.104874,-0.599713,0.019761,-0.046813,0.157669,0.152417,0.011183,-0.051894,0.520936,-0.218522,0.270925,0.174299,0.125627,0.236310,-0.004354,-0.098231,-0.100885,0.096580,0.212175,-0.093555,-0.234449,0.214896,-0.110304,0.477995,0.070025,-0.263116,-0.193195,-0.141958,-0.334317,0.244949,0.252642,0.251605,-0.220768,0.201728,-0.279167,-0.177601,0.114380,-0.311150,0.344496,-0.190564,-0.180462,-0.200628,-0.063691,0.103928,0.312154,0.370722,-0.068060,0.236010,0.065180,0.113670,0.156093,-0.135732,0.060408,0.102568,-0.178401,0.108009,-0.008840,0.092853,-0.156481,0.011205,0.106682,0.269631,0.128268,-0.199826,0.127901,-0.398509,-0.324488,-0.461494,-0.159048,0.384160,0.002938,0.174241,-0.152461,0.146958,-0.020418,-0.060354,-0.142685,-0.188486,0.328716,-0.473408,-0.172249,-0.098331,-0.154022,0.053379,0.033241,0.331123,0.174971,-0.127634,-0.052772,0.080291,0.016891,0.025597,0.024257,-0.285341,-0.124511,0.083597,-0.141996,0.213325,-0.195284,0.076668,0.126193,-0.041852,0.064536,0.096264,0.569666,-0.432341,-0.061411,-0.177358,-0.022880,-0.338493,0.075496,0.422783,0.303145,-0.093096,0.297809,-0.049998,0.248480,0.487069,-0.049573,-0.098456,0.147943,-0.142486,0.154183,0.214811,-0.044279,0.228702,0.415827,-0.211423,-0.027903,-0.297294,-0.129425,-0.040502,0.425793,-0.148011,0.320583,0.624357,0.355639,1.069056,0.303281,0.052153,-0.251530,0.075610,-0.183293,-0.303111,0.178857,0.042442,0.179753,-0.357095,-0.293407,-0.032874,0.112030,0.735137,-0.041163,-0.169552,0.114152,0.166478,-0.105273,-0.063271,0.244750,-0.230085,-0.172425,0.389337,-0.124635,0.042857,0.092763,-0.177376,0.553237,-0.005903,0.359555,0.419656,-0.109583,0.101534,0.444955,0.245509,0.044523,0.152006,0.020862,0.213378,-0.252986,-0.307495,0.297842,0.075418,-0.036603,0.294851,0.573946,0.436992,0.258558,0.444821,-0.169904,-0.009780,-0.195936,-0.140135,0.246412,0.060124,0.177781,0.408900,0.526882,0.103524,0.260045,-0.373198,0.076008,0.080601,-0.108422,0.004027,0.617498,-0.093030,0.386642,0.060685,0.282064,-0.044181,0.188686,0.222208,0.027661,-0.078753,-0.246204,-0.005762,0.159670,-0.175507,-0.303228,0.146856,-0.228146,0.232224,0.382376,0.341189,-0.275533,-0.170407,0.017566,0.235587,-0.006527,0.091558
0.073554,-0.051226,0.212154,0.077431,0.827090,-0.040330,-0.111919,-0.118897,-0.010817,-0.314458,0.365314,0.032609,0.786470,0.425822,1.178183,0.582544,-0.018408,-0.125665,0.114819,0.275874,-0.125552,-0.413894,-0.064900,0.257626,-0.267651,0.417928,-0.380099,-0.453220,0.106096,-0.650478,-0.224566,0.316754,-0.192754,0.324686,-0.107774,-0.293591,-0.188154,0.233692,0.039522,-0.285915,0.834400,0.024147,-0.109041,0.096908,-0.163040,-0.295919,0.192898,-0.133868,-0.367490,0.268273,-0.337666,0.229013,-0.291072,-0.131089,-0.110406,-0.197015,0.685366,0.686774,-0.274294,-0.355188,-0.156765,0.267151,0.413758,-0.362096,0.075238,-0.493730,-0.162473,-0.064442,0.079637,-0.204667,0.060823,-0.135814,0.233927,0.642918,0.364913,-0.283291,-0.135750,-0.226576,0.266112,-0.188601,-0.356879,-0.401553,-0.237271,-0.234340,-0.189543,-0.287979,-0.310898,-0.232639,-0.185266,0.055430,-0.306119,-0.320703,-0.182053,0.148707,0.053881,0.167408,0.183558,0.000429,-0.103437,-0.147636,-0.015592,-0.236901,-0.009873,-0.107340,-0.031220,-0.374372,0.615230,-0.000827,0.039112,0.095835,-0.301864,-0.338429,-0.045388,-0.048401,-0.187974,0.180727,-0.596807,-0.229981,-0.143295,-0.395533,-0.084548,-0.145960,-0.116794,0.169152,0.603347,-0.192008,0.451086,0.229949,-0.352391,0.424620,0.036212,0.087695,-0.109720,0.110604,0.788260,-0.056062,0.208886,-0.060324,0.780366,-0.051296,-0.116900,0.011656,-0.180105,0.349291,-0.135004,0.171298,0.139559,-0.128582,-0.058003,0.696274,-0.131477,-0.187741,0.069374,-0.094356,-0.120026,0.067038,0.455842,-0.210509,0.299019,0.177128,0.469817,0.383536,-0.183493,-0.350729,0.506974,-0.079710,0.272815,0.155050,-0.358598,0.113566,-0.152064,0.046523,-0.490388,-0.090976,0.097847,1.048121,-0.100467,-0.148271,-0.412999,0.013279,-0.141605,0.144717,-0.584450,-0.507108,0.264992,0.080956,-0.223705,-0.339616,-0.007300,-0.162943,-0.387690,-0.203092,-0.003422,-0.242790,0.039043,-0.116033,-0.382553,0.285740,0.008066,-0.705330,-0.244964,-0.283930,-0.220968,-0.122330,0.194588,0.015850,-0.285763,0.845663,-0.360641,-0.048807,-0.394679,-0.374827,-0.452598,0.248211,0.003069,0.425071,-0.362566,-0.030282,0.100472,-0.374711,-0.207799,-0.253148,-0.146307,-0.244926,-0.024839,0.025175,0.287102,-0.228496,0.136976,0.248992,-0.382490,-0.013079,-0.107476,0.241153,0.159579,0.009229,0.422410,-0.034827,-0.366790,-0.208430,0.168691,0.024944,-0.002830,-0.022542,-0.060331,0.132402,-0.100584,0.081405,0.115760,-0.221972,-0.213052,-0.333737,0.366026,-0.284192,0.295758,-0.182374,0.469759
1.096830,-0.159918,0.732982,0.019978,-0.497269,-0.192411,-0.169581,0.153703,-0.257348,0.360348,0.337604,-0.159738,-0.221494,0.151172,-0.079469,-0.044957,-0.354220,0.516321,-0.384689,-0.375691,0.360936,-0.158460,-0.018913,-0.211081,1.139715,-0.274854,-0.015975,0.039940,-0.447644,-0.405601,-0.206370,0.367448,-0.093800,-0.029658,-0.369756,0.830069,0.068777,0.041461,0.062701,-0.100814,-0.113918,-0.277983,-0.109828,-0.189478,-0.400517,-0.253892,-0.002763,-0.222957,-0.179993,0.110879,0.489080,-0.082360,-0.048937,-0.198172,-0.209101,-0.179558,-0.059004,-0.123006,0.417014,0.144166,0.073870,-0.117315,0.001784,-0.222246,-0.548010,0.821915,-0.295448,-0.360484,0.090954,0.605616,-0.146662,0.332511,-0.112844,-0.087926,-0.169625,-0.090811,-0.005527,-0.076209,-0.264440,-0.114339,-0.074286,0.962571,0.166267,-0.287008,0.065392,-0.343014,-0.323328,-0.071376,0.011727,-0.014828,-0.406137,0.981718,-0.039809,-0.219470,-0.260540,-0.116775,-0.003012,-0.123303,-0.039650,0.097450,0.217962,0.725088,0.056615,-0.046453,-0.333263,-0.058809,-0.057697,-0.132178,-0.025169,0.112826,-0.078880,0.096754,-0.025102,-0.027222,0.215796,0.096468,0.020641,-0.221037,-0.326020,-0.106922,-0.000568,-0.138619,-0.232822,-0.087262,-0.226230,-0.378755,0.479313,-0.223919,-0.316525,-0.115245,-0.293682,0.252342,-0.143395,-0.078547,-0.124723,0.058445,-0.113003,0.305552,-0.082970,0.568243,-0.091926,0.207593,0.192685,-0.036039,0.163316,-0.070592,-0.160209,0.473589,-0.085432,0.181101,-0.275893,0.015780,0.397671,0.596797,0.019148,-0.465320,-0.263908,0.144831,-0.130931,-0.549094,0.730759,-0.243241,-0.018188,-0.021263,0.469174,0.000872,-0.084200,-0.123007,-0.116866,-0.120524,-0.291207,-0.387655,-0.223302,0.227090,-0.220839,-0.300324,-0.256688,0.531269,-0.065639,0.023262,0.472695,-0.010626,-0.185989,0.243011,-0.053173,0.244921,-0.295172,0.023451,-0.198961,-0.145164,0.514390,-0.004965,-0.202244,0.286303,0.031572,0.517972,-0.351336,0.499776,-0.140966,-0.379883,0.012033,0.615736,0.635068,-0.234798,-0.254682,-0.232819,-0.066088,-0.025858,-0.095759,-0.066621,0.200589,-0.048065,0.910868,0.460626,-0.109673,-0.236558,-0.206263,-0.000252,-0.086101,-0.229073,-0.419908,-0.070092,0.301956,0.568722,0.196058,-0.091390,-0.243580,-0.029485,0.671689,-0.018230,0.825842,-0.131323,-0.278966,-0.226347,-0.220329,-0.062134,-0.130017,0.194931,0.122543,-0.301358,-0.126046,-0.183234,-0.030055,-0.292341,0.122500,-0.403424,-0.208278,-0.048909,-0.005645,-0.265768,-0.234179,-0.077907,-0.207993,-0.495018,0.320193,0.160043,-0.258146
0.455480,0.108884,0.078694,-0.265385,-0.462092,0.232933,0.379374,0.138901,-0.510262,0.106439,-0.113071,-0.390102,-0.996185,0.035427,0.176564,-0.283967,-0.501858,-0.508087,-0.077781,-1.420486,-0.107165,-0.390255,0.357513,-1.815173,-0.057754,0.041104,-0.319612,-0.752329,-0.147790,0.404862,-1.339993,-2.034164,-1.667145,0.182536,-0.107422,0.094258,0.074928,0.313278,0.256718,-0.407944,0.219258,0.268882,0.010101,0.026853,0.412147,0.055236,-0.058035,0.338152,-0.387963,0.184183,-0.436562,0.037370,-0.732968,-0.472738,-0.188634,-1.994376,0.481250,-0.127278,0.403945,-0.390083,-0.666051,0.330701,-0.309984,-0.081571,0.317618,-0.113696,-0.182983,0.234399,0.076199,-0.293671,0.354792,0.373619,0.184074,-0.053996,0.250200,-0.265017,-0.338840,0.046486,-0.323819,-0.357339,-0.059537,-0.265809,0.065879,-0.806252,-0.074530,-0.292790,0.110752,-0.344632,-0.303473,0.305099,0.010484,0.425537,-0.422915,-0.016666,0.406619,0.335597,0.088461,0.201881,0.443834,0.306268,-0.592950,0.104300,-0.243712,-0.490791,-0.005793,-0.325867,0.068147,0.042776,-0.355137,-0.146060,-0.046742,-0.286331,0.787992,0.575281,0.071590,-0.419279,0.333875,-0.153416,-1.564310,-0.416305,-0.305088,-0.068624,-0.060833,-0.773981,-0.436504,0.316740,-0.447125,-1.567164,-1.186606
0.205685,0.135938,0.425664,0.398511,0.411033,0.320518,-0.363770,0.267575,0.266938,-0.081129,-0.168635,0.041466,-1.554273,-0.966976,-0.241825,0.107342,0.401662,-0.326897,-0.272349,-1.015310,0.514925,-0.387031,-0.064673,-1.375540,0.195621,0.285911,-0.471082,0.995091,0.019966,-0.130729,-0.180369,-1.728543,-1.513805,-0.277735,-0.375350,0.191192,-0.284272,0.045017,0.120524,0.243156,-0.462093,0.101930,-0.480692,0.254533,0.208615,0.487697,-0.300843,-0.309873,0.497607,-0.488473,-0.299801,0.231679,-1.561890,0.458548,-0.491652,-0.700534,-0.324020,0.185190,0.438594,-0.198200,0.124878,0.090697,0.202544,-0.060994,0.203625,-0.160595,0.387855,0.013003,-0.060715,-0.028019,0.400340,0.413944,-0.231407,-0.144370,0.228797,0.421656,0.114087,0.368660,-0.201612,-0.459272,0.076965,-0.211172,-0.023594,0.021364,-1.264951,-0.034212,-0.316277,-0.001472,-0.414200,-0.928774,-0.107917,-0.002390,0.061514,-0.276382,0.023454,-0.516191,-0.138651,0.124524,-0.186671,-0.440603,-0.508698,-0.173730,0.496026,-0.072471,-0.214569,0.164582,-0.425115,-0.025041,0.278631,-0.451581,0.312249,0.345111,-0.209959,-0.113789,0.204773,-1.039515,-0.405544,-0.454520,0.010520,-0.315695,0.378278,0.311000,0.311425,-1.494224,-0.416245,0.145490,0.363802,-0.528292,0.283028
-0.377802,0.352557,-0.263246,-0.137144,0.119680,0.281739,0.312155,-0.039778,-0.234461,0.071201,0.333821,0.358693,-0.758267,-0.709164,-0.204871,0.177184,-0.236550,-0.657876,-0.377945,-1.938851,-1.494215,-0.460470,0.119525,-0.024565,-0.378838,0.373479,0.219754,-0.941474,-0.474050,0.453306,-0.574073,-0.235293,0.171859,0.115724,0.055985,0.365181,-0.475263,0.053511,0.141843,0.287930,-0.339619,0.143876,-0.338014,-0.111047,-0.198462,0.237840,0.177831,-0.275561,0.284170,0.155350,0.252931,-0.411928,-1.484460,-0.248037,-0.413874,-1.175299,-0.316010,-0.314916,0.147275,-0.380951,0.048568,0.345052,-0.092866,0.278728,0.319927,0.361946,0.249290,-0.518502,0.326067,-0.192233,-0.257965,0.163372,0.326783,-0.426256,0.109222,-0.404540,0.277365,-0.049873,0.044632,0.485138,0.381276,0.159384,-0.113411,-0.529861,-0.506651,0.450366,-0.524875,-0.430718,0.364815,-0.835942,0.457688,-0.161495,-0.126357,0.171567,0.196243,0.128439,-0.265759,-0.015025,-0.116519,-0.187546,-0.568801,-0.203142,0.235779,0.124543,-0.030639,0.069799,-0.068443,-0.145374,0.450000,0.169014,0.114637,0.379675,0.034029,0.359039,-0.378658,-0.560641,-0.439296,-0.121540,-0.293718,-0.119510,-0.279553,0.324328,-0.045036,-0.847504,0.256073,0.042866,0.317405,-1.604220,-0.401606
-0.149171,0.296515,-0.291650,0.153537,-0.018562,-0.376337,0.320370,-0.294094,-0.174116,0.395607,0.075301,0.478677,0.002677,-0.159157,0.014764,-0.445911,-0.304717,-0.560475,-0.115084,0.074879,-0.425296,0.086596,-0.151110,-0.333985,0.396679,-0.105670,-0.201471,-0.206316,-0.207155,0.388333,-0.774505,-1.905227,-0.428393,-0.400043,-0.214636,-0.401964,0.362468,0.097703,-0.325414,-0.422910,0.292097,0.118315,0.408576,0.360062,-0.045011,0.454636,-0.165508,0.447148,0.049475,0.023001,0.008892,0.371405,-1.020053,0.205198,-0.008659,-0.603164,0.370459,0.255868,0.477935,-0.279837,0.421703,0.282915,0.097245,0.131004,0.011491,0.468880,-0.433045,0.017237,-0.023231,0.248054,-0.258887,-0.203751,-0.334093,-0.092333,0.305777,-0.018497,-0.319639,0.390143,-0.142573,0.237805,-0.475684,-0.448084,0.061163,0.046020,-0.752508,0.470455,-0.341401,0.112588,-0.385480,-0.609531,0.339095,-0.249431,0.325521,-0.387644,-0.320079,0.414949,0.190932,-0.019889,-0.326868,0.054943,-0.140217,-0.197777,-0.374756,-0.341674,-0.524114,0.113808,0.197582,-0.165908,-0.237129,0.216843,0.156893,-0.263605,-0.395509,0.091520,-0.100777,0.157739,0.186559,0.283770,-0.444950,-0.230698,-0.443495,-0.156478,0.064932,-0.592765,0.411213,-0.077113,-0.424427,-1.168094,-0.741232
0.126375,-0.304602,-0.194561,-0.566973,0.164578,-0.398438,0.304564,0.092095,0.151331,0.160532,0.403634,-0.335658,-1.967318,-1.486018,-0.195647,-0.385764,0.092000,-0.168706,-0.219570,-1.223918,0.350427,-0.026402,0.149781,-0.025039,0.041263,-0.026456,0.277771,-1.221118,0.000769,-0.212289,-0.531680,-1.328316,-1.648093,-0.425505,-0.011887,0.190091,-0.226672,0.175061,0.152889,-0.538037,0.018333,-0.478990,0.327673,0.179265,-0.254649,0.391034,-0.071108,0.197326,-0.470520,-0.496380,0.451866,-0.140754,-1.350588,0.391344,-0.447952,-0.528657,0.392727,0.425489,0.014659,-0.255769,-0.140005,-0.042958,-0.039372,-0.080161,0.122365,-0.263264,-0.374570,0.193803,-0.121334,-0.327911,0.036471,-0.436083,0.346451,0.162917,-0.445128,-0.308269,0.132066,0.360386,0.301354,-0.194345,-0.325659,0.353165,0.105214,-1.132418,-0.784040,0.446099,-0.637379,0.333022,0.153773,-0.112507,0.349607,-0.180571,0.038344,-0.432448,0.431971,-0.087251,-0.048048,-0.110628,-0.442865,-0.141086,-0.278257,-0.005490,-0.427347,0.296196,-0.657195,-0.234792,-0.297647,0.116151,0.216667,-0.044058,-0.178376,0.345465,-0.437115,1.060022,0.234778,0.037694,-0.214036,0.327931,-1.102598,-0.166280,0.179312,0.245328,0.487120,-0.826990,-0.390216,-0.333832,-0.264319,0.050282,0.122442
0.489419,-0.013587,-0.440625,1.447875,-0.116660,0.419073,0.129537,0.453972,0.049999,-0.484180,0.093197,0.014204,-0.231492,-1.135322,-0.180734,-0.471982,0.024727,-0.222019,-0.313476,0.922251,-1.712267,-1.086385,-0.046040,-1.446958,0.265246,0.064413,-0.346568,0.690369,0.340585,-0.393282,0.583527,-1.205008,-1.305335,-0.455181,0.213952,-0.144151,0.370824,0.186001,0.277959,-1.218417,0.255766,-0.391797,0.370550,-0.486582,0.121131,-0.314865,-0.302157,0.242093,-0.037489,-0.403088,-0.487192,-0.225550,-2.261951,-0.376175,-0.043466,-0.212607,-0.099676,-0.323468,-0.072345,-0.343095,0.268067,0.008158,-0.056343,0.265847,-0.415452,-0.149423,-0.476803,0.098151,0.290019,-1.259707,-0.511284,-0.250951,-0.299503,0.140933,-0.132121,-0.443956,-0.424610,0.474027,0.368835,0.046458,-0.444560,-0.043049,-0.208097,-0.688844,-1.438969,-0.034018,-0.606885,0.108616,-0.475175,-0.482305,-0.291199,0.141052,0.446736,-0.402044,-0.389900,-0.707443,-0.426044,-0.478196,0.018375,-0.384936,-0.247231,0.315215,0.180986,0.382124,-0.491099,-0.044450,-0.102661,0.465183,-0.384463,-0.484630,-0.204263,-0.494675,-0.102514,0.352840,-0.084152,-1.726828,0.344385,-0.463725,-0.270020,-0.046664,-0.300627,0.380613,-0.480584,-0.463074,-0.269067,-0.033700,0.288777,-2.432136,-0.203306
0.266848,0.251270,0.262703,-0.049127,0.334874,0.175365,0.050129,-0.364324,0.183966,-0.185137,-0.284134,-0.162307,0.096654,-1.429701,-0.845745,-0.245505,-0.090594,-0.215000,0.404863,-0.362320,-1.464423,-0.845929,0.353241,-0.437935,-0.256877,0.376966,-0.081009,-0.252510,-0.451087,-0.080257,0.171910,-0.502329,-0.724402,-0.219214,-0.570293,0.255229,-0.067418,-0.372817,0.451241,-1.583826,0.143910,0.067147,-0.342320,-0.263784,0.415950,0.268903,-0.021035,-0.094678,-0.080511,0.094327,-0.237091,0.193147,-0.422268,0.295893,0.408713,-0.174303,0.389453,-0.321437,0.003736,-0.136377,-0.782431,0.105745,0.089601,0.208125,-0.498879,-0.299394,0.393833,0.304328,-0.190980,0.284392,-0.237661,0.265778,-0.185171,-0.018951,-0.429831,0.391302,-0.421825,0.038318,0.473786,0.311525,-0.455890,0.203637,-0.207375,-0.062931,-0.484644,0.330395,-0.186855,0.441474,-0.289702,-0.411772,-0.092810,-0.343966,0.286379,0.442300,0.337935,-0.066564,-0.105572,-0.434974,0.095533,-0.484041,0.089211,0.326648,-0.225878,0.080647,0.275966,-0.048144,-0.037889,0.381686,0.333296,-0.096844,0.286543,0.457565,0.314249,0.334454,-0.339671,-0.111080,0.457833,0.176834,-1.460573,-0.350978,0.359959,-0.387370,0.414137,-1.175862,0.203727,0.081703,0.082655,-0.279095,-0.999678
0.056243,-0.169246,-0.217585,-0.625236,0.047159,0.269419,-0.184202,-0.174389,0.290142,-0.339262,-0.157479,-0.220109,0.059999,-0.054951,0.067987,0.312926,0.183255,-0.031866,-0.473016,-1.080760,-0.004046,0.471928,0.007454,0.054964,0.219504,0.056475,-0.141729,-1.013026,-0.641120,0.234649,-0.695481,0.375345,-0.389344,-0.256895,-0.048154,-0.374479,0.252117,-0.252985,-0.251109,-1.348575,0.033224,-0.452114,-0.491377,-0.019177,-0.239531,-0.016270,-0.096853,0.284684,-0.154784,0.366963,0.212227,0.071266,-0.371070,-0.271112,0.277965,-1.750401,-0.087002,-0.498042,0.031532,0.010257,0.158432,0.257399,0.203235,0.432877,0.339049,0.426872,0.391701,0.399032,-0.011230,-0.056053,0.377216,-0.076419,0.222923,0.492829,0.122023,0.241558,-0.437244,-0.304071,-0.129688,-0.218251,-0.202087,-0.393008,-0.410805,-0.692038,-0.528048,0.309702,-0.680155,-0.077493,-0.452184,-0.897109,-0.006262,-0.030633,0.178914,0.304642,-0.183455,-0.202421,-0.491022,-0.044477,0.466725,-0.319275,-0.256583,-0.397875,0.215902,-0.221872,-0.162898,-0.148364,0.317217,0.323226,0.033133,-0.004342,-0.421767,-0.175553,-0.348419,-0.210987,0.141249,-0.290943,0.393624,0.050738,-0.899097,0.399792,-0.164192,0.460424,-0.023518,-1.339578,0.366075,-0.175784,0.074477,0.076927,-0.468481
-0.419586,0.376381,0.060504,0.179812,-0.349745,0.011872,-0.137566,0.042206,-0.171038,-0.197232,0.285127,0.394941,-0.612719,-0.935144,-0.442956,0.374058,-0.255162,-0.614652,0.017828,-1.631814,-0.776714,-1.011239,-0.257695,-0.787238,-0.147149,0.236244,-0.171844,-0.865914,-0.010521,-0.470675,-0.717756,-0.163162,-0.080959,0.303903,-0.449276,0.128451,-0.270683,0.479773,0.003177,-0.373001,-0.419649,0.324190,-0.115864,-0.066313,0.347104,0.300012,0.195127,-0.063225,-0.448597,0.094791,-0.099562,0.378595,-1.791361,-0.116318,-0.247312,-1.673233,-0.103546,0.483508,-0.234292,0.107213,0.165530,0.100330,0.005053,-0.229698,0.398284,0.275197,-0.020859,0.274764,-0.008440,0.452533,-0.093713,-0.368910,-0.325741,-0.022230,0.183634,-0.150936,-0.128022,-0.414845,0.251441,-0.136480,0.411978,0.298976,-0.453546,-0.557288,0.462262,0.043432,-0.154474,-0.391345,0.189461,-1.463837,0.256226,0.158651,0.000948,-0.078813,-0.372434,-0.968655,-0.065747,-0.016991,1.383841,0.158016,0.262057,-0.297483,-0.043127,-0.215935,-0.193913,0.439469,-0.413278,0.436087,-0.147217,0.334322,-0.323098,-0.125933,-0.159069,-0.245049,-0.028074,-0.293265,0.000804,-0.239592,-1.177706,-0.385195,0.419777,0.464978,-0.191604,-0.991702,0.312539,0.414659,-0.309532,-0.634915,-1.090730
-0.055240,0.233906,0.211187,-0.992230,-0.478834,0.022355,-0.228735,-0.190424,0.206242,-0.269730,0.343420,-0.455960,-0.996473,0.624224,-0.049798,0.092317,-0.090478,0.154239,-0.359975,-0.301607,-1.261778,-1.435558,0.380083,-0.398763,-0.213314,0.069910,-0.257350,0.116752,0.183282,0.373208,0.242053,-0.105605,-1.168279,-0.109361,0.409402,-0.130182,-0.416731,-0.455249,-0.050534,0.034173,0.405262,-0.343178,0.224725,0.471045,-0.307002,0.193264,0.487823,-0.021312,0.436913,0.457113,-0.343869,0.079340,-0.870439,-0.247061,0.425660,-0.768708,-0.280024,-0.383460,-0.258093,0.013871,-0.432489,0.253167,0.195256,-0.081557,-0.038811,-0.496893,-0.105404,-0.468883,-0.305618,-0.939235,-0.021359,-0.275522,-0.129701,0.174582,-0.103510,0.275917,0.334723,0.421140,0.340850,0.031812,-0.166879,0.426956,-0.023685,-0.808648,-1.236909,-0.384133,-0.524092,-0.335361,-0.029021,-0.665480,-0.314864,0.455210,-0.070619,-0.074937,0.495234,-0.703256,0.119880,-0.477417,0.196068,0.199891,-0.777672,0.236811,0.048068,-0.036574,-0.652552,0.154024,-0.481670,-0.025471,0.106684,-0.332870,0.106188,0.231445,-0.510132,-0.296502,0.162524,-0.979825,0.161690,0.176532,0.443149,-0.289644,0.189774,-0.132832,-0.402239,-1.147745,0.364696,-0.245336,0.435170,-1.759173,0.429027
-0.291672,0.318370,0.131313,-0.164485,0.447203,-0.062658,0.042869,-0.311240,-0.024380,0.301202,0.180322,0.361285,-0.648530,-0.411349,-0.437217,-0.305846,-0.179977,0.359622,-0.096582,-1.296121,-0.241929,-1.462107,0.139112,-0.724817,-0.098028,-0.224134,0.040745,-1.926699,-0.570506,-0.436814,-1.145827,-0.261119,0.267703,-0.032748,-0.229285,0.025692,0.254954,0.207443,-0.307527,-0.465345,-0.295087,0.204791,0.027183,0.365050,0.223455,0.035856,-0.376229,-0.072303,0.201423,-0.497297,-0.402012,0.124339,-1.280603,-0.375038,0.333578,-2.247685,-0.021670,0.331828,0.039445,0.217014,-0.114321,-0.014882,-0.042252,-0.175676,-0.301194,-0.298584,0.198688,0.409716,0.210969,0.748633,-0.157641,0.302027,-0.167124,0.206267,0.242636,-0.210352,-0.309685,0.008072,0.461835,-0.113663,-0.072918,0.009291,0.251186,1.732913,-0.458993,-0.325064,-0.000252,-0.457453,-0.265067,-0.413683,0.315084,-0.283280,0.108253,0.132465,0.185743,-0.934684,0.009051,0.382298,1.192144,-0.177813,0.228645,0.260948,-0.211963,0.484817,-0.067346,-0.311054,-0.447538,-0.160810,-0.458943,-0.031085,0.209280,0.449792,0.155877,0.460524,-0.467230,-0.290473,-0.154225,-0.031964,-0.612811,-0.368280,-0.465816,-0.480647,-0.055064,-0.495202,0.150809,-0.089292,-0.375313,-1.701746,-0.901788
-0.245346,0.327346,-0.099565,-0.728085,-0.025482,0.445766,0.152482,-0.409810,0.176109,-0.361169,-0.325322,0.259315,-0.407384,-0.437320,-0.452104,0.425947,-0.121507,-0.293758,-0.258878,-0.469539,-0.708152,0.168004,-0.071405,0.339672,0.035102,0.178225,0.163950,-1.205836,-0.848780,0.111244,-0.588021,-0.413398,-0.641603,-0.401116,-0.190456,-0.200718,0.187668,0.033300,0.067004,-1.412772,-0.242500,-0.078610,0.150272,0.071630,-0.341077,0.428816,0.380607,-0.221633,0.315436,0.100102,0.383137,-0.134932,-0.605511,0.455535,0.448283,-0.374588,0.151454,-0.035676,-0.302275,-0.447165,0.340712,-0.117179,-0.194567,-0.309394,-0.163644,0.023254,0.091568,-0.344379,-0.105260,-0.318043,0.061446,0.165747,-0.372827,-0.214179,0.467911,0.439265,0.413238,0.019779,-0.048520,0.039250,0.046610,0.339971,-0.343690,0.122067,-1.004212,-0.135900,-0.129487,0.490215,0.352016,-1.118773,-0.031430,-0.079133,0.403516,0.255738,0.470776,-0.692085,-0.029735,0.142012,0.231017,-0.004213,0.020374,-0.129278,0.187438,-0.032981,-0.519035,0.114028,0.428708,0.178613,0.013666,-0.324491,-0.169960,-0.040689,-0.134307,-0.377619,0.260404,-0.697506,-0.299860,-0.219959,-0.957574,0.081509,0.031576,-0.005351,-0.264139,-0.294297,0.162252,-0.196731,0.405042,-0.489936,-0.543639
0.092335,-0.144724,-0.382828,-0.458320,0.111061,-0.348836,0.397915,-0.133881,-0.027337,0.437020,-0.421820,-0.186688,-1.228341,-0.041259,0.290861,-0.427827,-0.082824,-0.352078,0.040890,0.051410,-0.342297,-0.824871,-0.040938,0.722465,0.277463,-0.495569,0.106005,0.114891,-0.145318,0.365411,-0.141633,-1.102286,-0.878308,-0.402611,0.069403,-0.470117,0.474431,-0.473498,0.135075,-0.902142,0.447830,-0.205056,-0.134148,-0.167449,-0.102120,-0.031539,0.022481,-0.104110,-0.459190,0.230290,0.389127,-0.305355,-1.470069,-0.190435,0.293506,-1.252544,0.313810,-0.319515,-0.151482,0.128748,0.255391,-0.425224,0.117035,-0.245968,-0.368610,0.133055,-0.235797,-0.086197,-0.370100,-0.514084,0.598212,-0.295388,-0.447596,-0.358947,-0.457858,-0.092645,0.473232,0.337938,0.237940,-0.329614,0.263241,-0.109304,0.365989,-0.565986,-1.363851,0.331513,0.189842,0.142636,0.424723,-0.445820,-0.001214,0.003983,-0.100615,-0.389116,0.333681,0.294217,-0.458017,-0.004213,-0.822408,-0.037168,0.464348,0.345762,0.292450,-0.041217,-0.550999,0.461676,-0.363526,-0.008156,-0.179795,0.073319,-0.165869,0.377587,0.129508,-0.452615,-0.394598,-0.332695,-0.256342,0.145323,-0.956379,-0.268909,-0.302991,0.172659,-0.163441,0.885049,-0.250641,0.309431,0.107856,-1.253539,-0.727509
0.201612,0.422883,-0.197121,0.868837,-0.212095,0.116953,-0.241293,0.259154,-0.054709,0.177461,0.477330,-0.199203,-1.683882,-1.679028,0.102584,0.427223,0.414010,-0.251581,0.243420,-1.767629,-1.508857,1.006651,0.021045,-0.291514,0.418701,-0.209760,0.430290,-2.711405,-0.372766,0.123983,0.453730,-0.258054,-1.535910,0.220086,-0.280955,-0.256926,-0.142897,-0.122657,-0.305310,-0.722648,0.177355,-0.368380,-0.468457,-0.316880,0.152402,-0.370535,0.011289,-0.129362,0.394463,0.412294,0.057273,0.065867,-1.910639,0.110525,-0.041095,0.193118,-0.457745,-0.370183,-0.342399,-0.011600,0.114768,0.255683,-0.456742,-0.272454,-0.228195,0.288527,0.449685,0.135749,0.135547,-1.316081,-0.464027,0.420897,0.304588,0.255097,-0.501677,-0.084356,-0.460976,-0.118256,-0.146491,-0.091174,-0.431302,-0.077293,-0.234064,-0.399307,-1.882248,0.096145,-0.909325,-0.276451,0.128451,-0.596267,-0.153215,-0.057374,-0.035251,-0.205105,0.170045,-0.512544,-0.221972,-0.413038,-0.669811,-0.217939,0.503849,-0.128156,0.023504,-0.245431,-0.296015,-0.430171,0.275628,-0.069617,-0.476493,0.136025,-0.285191,-0.264389,0.310731,-0.136457,-0.013152,0.358735,0.273331,0.436910,0.439867,-0.117297,-0.367153,-0.350651,-0.183648,-1.153713,-0.452018,0.375137,-0.271198,-0.532365,-0.380863
-0.015957,-0.492655,-0.020157,-0.313674,-0.227421,-0.352842,-0.020146,-0.046654,0.047924,-0.308680,0.151895,0.459196,-1.282068,0.863394,-0.329626,0.223339,-0.374645,0.088536,0.164073,-1.155090,-0.407973,-1.266656,0.210906,-0.573919,-0.399321,0.180577,0.213490,-1.370427,0.534488,0.086710,-0.734749,-0.472797,-0.152038,-0.021884,0.256426,-0.160847,0.311408,-0.444366,-0.322750,-0.425101,-0.108727,-0.355394,-0.272155,0.311340,0.223502,0.153871,-0.357979,0.229869,-0.254860,0.262871,-0.413631,-0.472912,-1.905420,-0.414842,0.309468,-1.829497,-0.461674,-0.123718,-0.489612,0.492785,-0.167671,0.271031,-0.251452,0.284598,-0.268408,0.155574,-0.385621,-0.393281,-0.282134,1.205718,-0.506034,0.008882,-0.191247,-0.196292,-0.066227,0.099422,0.382943,0.307043,0.208566,0.494042,-0.032554,-0.369183,-0.108821,-0.150219,-0.761302,0.260763,0.408336,-0.075401,0.088392,-1.466962,0.248746,-0.277944,-0.467505,-0.335581,-0.370291,-0.693738,-0.137413,0.236463,-0.466283,0.334992,0.362459,-0.412430,-0.053326,-0.086236,0.082295,0.188580,0.429078,-0.210522,-0.423557,-0.335695,0.109394,0.054160,-1.019961,0.286252,-0.038930,-0.233071,0.468657,0.154746,0.017572,-0.059686,0.262463,-0.321630,-0.319923,-1.572694,0.106549,0.255092,0.134287,-0.294178,-1.120875
-0.398666,0.115889,0.228375,-0.431272,-0.293667,-0.498376,-0.187919,-0.344610,-0.207706,0.249207,-0.019546,-0.430716,0.687205,-0.504183,0.478173,-0.500709,0.392427,-0.571987,-0.417098,0.105333,-1.060248,-0.779012,-0.617858,-0.810884,0.316147,0.170174,0.352618,-1.227530,-0.765846,-0.066565,0.150506,-1.750706,-0.907508,-0.158880,0.246449,-0.349372,-0.080449,-0.310882,-0.168700,-0.733978,-0.108795,-0.109324,0.447506,-0.173461,0.072886,0.351503,-0.245554,-0.236748,-0.428234,-0.258093,0.096903,0.042846,-1.382552,-0.386281,0.280213,-0.989769,0.358236,-0.059339,0.345384,0.037941,-0.147719,0.209848,-0.407565,0.370930,-0.139101,-0.318861,0.378184,-0.379066,-0.328784,1.226686,0.073948,0.274184,0.202703,-0.000167,0.217857,0.390185,0.129576,-0.313275,0.437185,0.386988,0.449614,-0.203167,0.113196,-0.435484,-1.191626,-0.114633,0.263110,-0.117949,0.100512,-0.946033,-0.132574,-0.411356,-0.357999,-0.333089,-0.065286,0.117928,-0.472911,0.477900,-0.154522,0.200119,0.823634,-0.166370,-0.265971,0.157823,-0.161204,0.466739,0.024256,0.018700,0.275336,0.427217,0.215860,-0.039338,-0.289516,-0.383149,-0.296401,-0.674563,0.136008,-0.175932,0.219549,0.462812,0.223601,0.050284,0.050643,-0.451396,0.330177,0.374569,0.098526,-2.249290,-0.654799
-0.187496,0.091437,-0.058035,-0.425087,-0.391266,0.358831,-0.004538,-0.432596,-0.069584,-0.295974,-0.455152,0.164373,-0.303294,-0.603763,0.158853,-0.404282,0.450500,-0.036517,-0.159459,-1.080925,-0.156870,-0.762288,0.169970,-1.236511,0.278644,0.424350,-0.072410,0.942293,0.385937,-0.102475,-0.647654,-1.097938,-0.489043,-0.294079,-0.397852,0.100798,-0.467866,-0.434044,0.158313,0.246238,-0.047910,-0.401466,0.459373,-0.491903,-0.195485,0.315692,0.328069,-0.506465,-0.325523,0.227264,-0.355007,0.003997,-0.476668,-0.354732,-0.435877,-0.431348,0.122164,-0.499297,-0.008373,0.488450,0.475573,-0.091378,0.069112,0.328568,0.137142,-0.394238,0.296155,-0.360906,-0.273928,-0.212431,0.064488,0.210404,-0.015268,0.195082,0.381377,-0.383374,-0.222279,-0.222552,-0.346805,-0.157887,0.448615,-0.109857,0.393644,-0.932913,-0.562438,-0.191603,-0.144956,0.258864,-0.057769,-0.563466,-0.027133,0.331878,0.104316,-0.065830,-0.255143,-0.129120,0.098479,-0.150495,-0.556814,-0.170488,-0.033503,0.487543,-0.012782,0.091459,-0.393685,0.488156,-0.058792,0.417125,-0.138340,-0.165688,0.259756,0.211223,0.131789,-0.401212,0.381873,-1.729607,0.442714,0.110668,-1.579234,0.129718,0.059773,0.206214,0.156084,0.264201,-0.150036,-0.294616,0.135828,0.055689,0.253969
-0.218961,0.476211,-0.391961,-0.028569,0.062367,-0.373037,-0.010623,-0.488714,-0.251214,-0.096852,0.192029,-0.258217,0.272049,0.152337,0.113990,-0.121407,-0.058353,-0.255775,-0.034830,-1.050384,-0.115311,-0.227210,-0.405115,0.068636,0.333963,-0.367611,0.010477,-0.721549,0.296907,-0.066333,-0.438182,-0.472810,-0.435994,-0.396353,0.175334,0.119459,-0.157822,0.173134,0.288114,-0.206346,-0.081172,-0.431577,-0.382023,-0.055320,0.487093,0.258459,0.126542,0.229231,-0.062254,0.404438,0.396448,-0.369811,-0.323256,-0.431366,-0.373832,-0.935607,0.290069,0.128822,-0.418631,0.302050,0.432211,0.211716,0.303878,0.056736,-0.061722,0.418001,-0.433039,-0.250265,0.220568,-0.361204,0.448590,0.255279,0.157504,-0.183670,-0.091120,-0.296571,0.149083,-0.476268,0.363232,0.375164,-0.362169,-0.340814,-0.144238,-0.195599,-0.969968,0.337232,-0.735673,-0.298623,-0.191357,-0.197700,-0.456648,-0.118661,0.241379,0.362137,-0.183598,-0.536124,0.176446,-0.094217,0.055022,0.213956,0.173723,0.071125,0.210272,0.190487,0.212594,0.446870,0.086428,-0.263625,-0.328601,0.378218,-0.112541,0.018602,-0.506939,-0.392414,0.144182,-0.276001,-0.293178,0.005077,-0.859297,0.026912,-0.396187,-0.323829,0.166096,-1.434340,-0.080639,0.344660,-0.085243,-0.219951,-0.169970
-0.403367,0.394997,-0.090853,-0.447501,-0.217500,-0.241981,-0.099742,0.042792,-0.146299,-0.396958,-0.434577,-0.153674,-0.428421,-0.671618,0.043953,0.086320,0.019520,-0.653841,-0.379843,-0.828500,-1.432292,-1.169263,-0.033395,-0.778250,0.278671,0.236349,0.436298,0.152762,0.144655,0.141374,-0.725336,-0.302305,0.454487,0.401797,0.028470,-0.252481,-0.472897,0.413700,0.246424,-0.791166,-0.297070,0.478039,-0.315146,-0.300197,-0.274376,-0.048832,-0.351144,-0.067282,-0.294678,0.290653,0.094920,0.455963,-1.029695,-0.014980,-0.229366,-1.160690,-0.220464,-0.048847,-0.170212,0.024209,0.288158,0.318605,0.345329,0.446347,-0.365386,0.329255,0.202996,0.189236,-0.168252,-0.338787,0.476935,0.478282,-0.157587,0.053711,-0.244889,-0.003501,-0.006222,-0.062819,0.445677,0.273728,-0.060476,-0.124580,-0.314202,-0.923189,-0.135481,-0.242359,0.291019,-0.386387,0.394669,-0.800602,-0.109494,-0.340079,-0.150979,0.458930,0.261615,0.097696,0.348809,-0.429809,0.025254,-0.184023,-0.035062,-0.168524,-0.902141,0.426329,-0.414007,-0.456065,0.326870,-0.386177,-0.317773,-0.194657,-0.380694,-0.164774,0.129024,-0.462957,0.259074,-0.028902,-0.217794,0.321336,-0.371858,-0.317381,0.283183,-0.464020,-0.277956,-1.484810,0.058679,0.212845,0.163991,-0.508006,0.201998
0.141128,0.151684,0.256918,-0.171744,0.223104,0.338404,0.345657,0.377945,-0.046830,0.193688,-0.424855,-0.223004,0.507787,-0.019065,-0.356587,0.376457,0.114283,-0.605012,-0.027066,0.131846,-0.763742,-1.320207,-0.034394,0.236633,-0.250580,-0.048854,0.217098,-0.434947,0.001729,-0.405469,-0.763671,0.411589,-1.235798,-0.269845,-0.367721,-0.452235,-0.287188,0.115434,-0.333112,-0.589448,-0.134209,0.398377,0.152461,0.164610,0.367261,0.283022,-0.224694,0.407835,0.339361,0.473104,0.315366,0.218206,-0.885154,-0.146614,0.244085,-1.252790,0.319120,-0.142805,-0.091719,-0.357231,0.198554,-0.211626,-0.191926,0.424238,-0.041239,-0.037317,0.178910,0.327696,0.220782,-1.298042,0.123540,0.485847,-0.259472,-0.387653,0.398330,0.082245,0.139370,0.254402,-0.243540,-0.461575,0.319313,0.159715,-0.410724,-0.656132,-0.894663,-0.016743,-0.457189,-0.358335,0.406545,-0.707393,-0.028172,0.284019,0.494664,-0.006089,0.099167,-0.486889,-0.508549,-0.157861,-1.892033,-0.211775,-0.317805,-0.125961,0.236573,0.458037,-0.230849,-0.088408,-0.198740,-0.464002,0.229006,-0.045890,-0.333618,-0.417739,-0.509095,0.330547,0.248689,-0.589777,-0.356914,-0.300821,-0.782050,-0.158455,0.449472,-0.134120,0.300816,-2.070855,-0.249927,0.276710,0.251075,-0.572742,0.996737
0.120245,0.256765,-0.141061,-0.384145,-0.308481,-0.454124,-0.358546,0.460043,0.164652,-0.493187,0.399236,-0.093671,-0.124992,0.365467,-0.268166,-0.093235,0.058746,-0.555946,0.106965,-1.040949,-0.394863,-0.576388,-0.331807,-1.162585,-0.138927,-0.436300,0.008753,-1.137518,-0.139087,0.402863,-0.479129,-0.174772,0.100040,0.129091,0.348806,0.281022,-0.429639,-0.186923,0.355824,-0.581363,0.155232,-0.483352,-0.498858,-0.176591,-0.029492,0.107763,0.359833,0.307683,-0.355067,0.426810,0.362652,-0.407563,-1.635963,0.474047,0.319945,-1.140737,-0.486739,0.274339,0.324237,0.130712,0.113097,0.205252,-0.269043,0.366504,-0.108447,-0.364873,0.405638,0.028527,0.200727,-0.052871,-0.020421,-0.374276,-0.071436,-0.290586,-0.197246,0.089969,-0.097964,0.295761,-0.317682,0.313083,-0.358013,-0.453932,0.293240,0.192052,-0.495743,-0.280053,-0.171400,-0.332456,0.249297,0.540442,-0.352788,-0.491911,-0.185652,0.434457,0.215964,-0.300965,-0.135882,-0.060807,-0.302444,0.292095,-0.138932,0.237384,-0.270367,-0.278623,-0.251152,0.134162,-0.263345,-0.295015,-0.322093,0.091860,-0.158943,-0.107293,0.559346,-0.559060,-0.280308,-0.149937,-0.241710,0.100386,-0.633077,0.023595,0.277005,-0.280011,-0.081347,-0.965513,-0.040415,0.307764,-0.180959,-0.655529,-0.269259
0.467725,0.332193,0.194296,-0.303210,0.312897,-0.400892,0.288813,-0.060013,-0.029479,0.158371,-0.044490,-0.122842,-0.613921,-0.663469,-0.456517,0.000932,-0.140189,-0.293730,-0.236700,-0.620869,-0.885214,-0.835427,-0.501041,-0.610024,-0.195688,-0.407939,0.336072,-0.712728,-0.282994,-0.132962,-0.073173,-0.531702,-1.895626,0.140175,-0.269077,0.138774,0.356476,0.062247,0.256956,-0.412486,-0.045742,0.308049,-0.333389,-0.464152,0.328433,-0.103581,0.021936,-0.126265,0.395142,0.340486,0.090450,-0.350118,-1.073414,-0.302667,0.286235,0.198776,-0.243456,-0.249530,0.475687,0.253305,-0.447027,-0.328720,0.051042,0.122113,0.338257,-0.159737,0.424761,-0.189676,0.335746,-0.796953,0.251326,-0.455934,-0.409295,0.454354,-0.308598,0.499909,-0.482306,-0.084027,0.244193,-0.017722,0.165509,0.039317,-0.501016,0.030790,-0.699407,-0.000500,1.895695,0.006434,-0.337640,-0.520557,-0.440756,0.447376,-0.260204,-0.116369,-0.296228,-0.586594,0.227407,-0.475322,-0.812778,0.439710,0.307951,-0.448424,0.393873,-0.209153,-0.499263,-0.146818,0.425080,-0.318113,0.135438,-0.166749,0.434112,-0.473832,-0.574258,-0.352222,-0.135048,-0.344764,-0.338332,0.188575,-0.967848,0.164971,-0.372051,-0.035084,-0.473941,-0.939195,0.470157,0.263139,0.289751,-0.119719,0.337741
0.205806,0.231395,0.242112,-0.364896,0.376512,-0.038697,-0.019874,0.330898,-0.272034,-0.293413,-0.418749,0.118526,-0.402539,-0.787313,-0.150225,-0.314761,-0.141066,1.330214,-0.214805,-0.341838,-0.446361,-0.662079,-0.485165,-0.635923,-0.185596,-0.394847,0.440499,-0.701127,-0.502754,-0.236155,-0.283487,-0.495859,-0.863109,-0.114031,-0.113699,0.368168,-0.061502,0.190597,-0.439542,0.069300,0.387518,0.371721,0.003339,-0.097945,0.167354,0.033929,0.481913,0.067228,0.150305,0.366028,0.186753,-0.239769,-0.444944,-0.258504,0.493335,-0.958409,0.196858,-0.206645,-0.064836,-0.118450,-0.358955,0.195822,0.395854,-0.388120,0.077882,-0.093127,-0.328444,0.212511,-0.175935,0.235401,-0.344227,0.117470,0.177567,-0.231947,-0.163715,0.184963,-0.115538,0.126323,0.118493,0.145076,-0.062125,0.084649,-0.302659,0.175847,-0.548979,0.399111,-0.439279,0.153428,0.376151,-0.650804,-0.215803,0.046682,-0.241268,0.404296,0.291647,-0.278065,0.374360,-0.069051,-0.725684,0.074017,-0.211797,-0.334370,0.133398,0.130686,0.191168,0.481719,-0.173166,0.397168,-0.132223,-0.407035,-0.015557,0.085879,-0.188453,0.486901,0.240548,-0.308312,0.040002,0.381557,-0.844528,0.191647,-0.063076,0.265849,-0.191819,-0.695615,0.077525,-0.081146,0.350427,0.201038,0.330989
-0.004259,0.176108,-0.291586,0.374408,-0.025901,-0.381420,-0.406936,-0.068227,-0.006258,-0.410833,-0.477959,0.017791,-1.001243,-1.642951,1.283968,-0.275837,-0.020119,-0.395893,-0.219728,-0.741187,-1.669592,1.090075,0.169479,-1.496346,-0.150112,-0.279374,0.029680,-2.010757,0.839586,-0.072727,1.077231,0.273773,-2.222141,0.487903,0.318552,-0.199351,-0.322470,0.430891,0.345774,-0.135230,-0.380428,-0.489491,0.236627,0.145818,-0.273073,0.398811,-0.486998,0.303784,0.170445,0.016910,-0.243143,-0.410952,-1.341987,-0.189204,-0.401826,-0.244040,-0.462161,0.047554,-0.234942,0.005605,-0.039658,0.178607,-0.432482,-0.181913,-0.038853,-0.185762,0.425832,0.202284,0.299000,-1.099113,-0.276146,0.322825,0.455752,-0.340069,-0.422982,0.124819,0.147106,0.019794,0.444593,0.269187,0.195731,-0.091723,0.154266,-0.118538,-0.213728,-0.495559,-0.576283,-0.332549,-0.156354,-1.004083,0.348286,-0.410000,0.005234,-0.205228,-0.290027,-0.168817,-0.101225,-0.046839,-0.518058,0.354170,0.638286,0.031908,-0.025834,0.428490,-0.174990,0.275527,0.195957,-0.046158,-0.149833,0.608181,0.367038,0.411469,-0.579833,-0.051229,-0.115311,-0.875700,0.029376,-0.169070,-2.413163,-0.053174,-0.112188,-0.074732,0.097810,-0.315396,0.014884,0.472984,-0.061212,-0.816612,-0.394182
0.485387,-0.367313,-0.455043,-0.029898,0.498466,0.246036,-0.005214,-0.344885,0.087748,0.291539,0.246478,-0.183734,-0.546246,-0.041731,-0.016226,-0.094091,-0.206502,0.468856,0.030371,-0.847233,-0.221436,-0.855112,-0.394531,-0.923651,0.262097,-0.200354,0.257795,-1.651176,0.155128,0.043870,-1.720775,-0.706839,-1.209294,0.193828,0.085811,-0.485589,-0.369376,-0.384122,0.155080,-0.014722,0.160364,0.129172,0.413267,0.274103,-0.205504,0.167022,0.021010,-0.494725,-0.335226,0.037959,0.492859,0.449304,-0.289480,0.499062,0.496702,-1.165213,0.305470,-0.272468,-0.374232,-0.062524,0.263889,-0.152560,0.120613,0.469873,-0.003516,0.036044,-0.186992,0.243913,0.044563,-0.277632,-0.487868,-0.275544,-0.103465,0.452370,-0.151809,-0.185300,0.409463,0.130780,0.016169,-0.234393,-0.439139,0.180354,0.107298,-0.941224,-0.047284,-0.495347,-0.054662,0.444474,-0.195981,-0.546416,-0.242911,0.135117,-0.035746,0.467001,-0.482582,-0.338598,0.036367,0.186687,-1.331138,0.027374,0.180980,0.432794,-1.250790,-0.367704,-0.059649,0.154155,-0.314066,-0.105385,0.183656,-0.473033,-0.269223,-0.377553,1.088556,0.169786,-0.039973,-0.442130,-0.136764,0.438543,-1.647166,0.479993,0.453630,-0.473165,-0.104489,-1.798934,-0.031970,-0.194182,-0.402417,-1.525402,0.223302
-0.474505,-0.262610,0.086787,-0.566844,-0.410341,0.344018,0.033570,0.121664,0.241738,0.211359,-0.302525,-0.296388,-0.187090,-0.403276,-0.184736,0.133758,0.053180,-0.188094,0.452634,-1.360119,-0.279331,-0.841125,-0.414694,-0.005068,-0.185905,0.116985,-0.447854,-0.314311,-0.143329,0.328768,-0.909542,-1.127823,0.351628,-0.329618,0.253696,-0.291481,0.353445,0.423922,-0.203156,-1.044978,0.220546,-0.005962,-0.464890,-0.296332,0.091832,-0.215078,-0.460889,0.387277,-0.149905,0.346048,0.478714,0.191810,-0.678203,-0.394155,0.067384,-0.591585,-0.384708,0.402695,0.136195,-0.139003,-0.162501,-0.073355,0.448198,0.369665,-0.101677,-0.257715,-0.308328,0.042451,-0.151883,0.461476,0.349385,-0.061297,0.401486,0.096559,-0.382610,0.452134,-0.156455,0.166597,-0.035638,-0.462447,-0.463213,-0.169293,0.327367,-0.260895,-0.514266,-0.266970,0.650849,0.247092,-0.438482,-0.382094,0.075598,-0.094540,0.221008,0.014252,0.239887,-0.613220,0.247741,-0.081099,0.139883,0.103692,-0.017288,0.213895,-0.399441,0.395841,-0.509732,-0.113642,0.398065,-0.414251,-0.256540,0.037913,-0.073236,-0.029608,0.263845,-0.648681,0.172931,0.880087,-0.410458,-0.404101,0.124942,0.284176,0.159361,0.140747,-0.148171,-0.467310,-0.001668,-0.393635,-0.240153,-0.581407,-0.883867
-0.296793,0.293060,-0.375197,-0.853946,0.350261,0.470611,0.255898,-0.023903,-0.405005,0.453996,0.121330,-0.166442,0.341525,-0.350591,0.465124,-0.035100,-0.158747,-0.275595,0.414711,-1.669610,-1.624488,-0.389632,0.212198,0.744375,0.128134,0.209278,0.458420,-0.194466,-0.413407,0.262210,-0.433080,0.022100,-0.990901,-0.201305,0.351447,0.083008,-0.379307,-0.389788,0.244596,-0.161111,-0.486416,-0.209806,-0.124943,0.060520,0.005013,0.362578,-0.477579,0.475130,-0.451546,-0.138601,-0.250070,0.191023,-2.102485,-0.194956,-0.477398,-0.062863,-0.173083,-0.081458,0.109488,0.056204,-0.038702,0.115694,0.262913,0.007648,0.120987,0.328479,-0.012732,-0.090630,-0.023913,-0.482796,0.503267,-0.212992,-0.146100,-0.015776,-0.301184,0.128944,0.459215,0.183264,-0.007316,-0.438156,0.317689,0.493185,-0.397305,2.433784,-0.728628,0.313831,0.040029,0.095843,-0.160425,-0.507738,0.043759,0.062091,0.484059,0.040050,-0.216311,-0.230213,-0.308319,0.034877,-0.219562,-0.440750,0.228181,0.170113,-0.087700,-0.446430,-0.504344,-0.022761,-0.341527,-0.238389,-0.392487,0.174312,-0.502327,-0.312802,-0.770280,-0.071346,0.444860,-1.257363,-0.115192,0.272980,-1.761248,0.360458,0.376680,0.160994,-0.085459,-2.165313,0.248645,-0.421721,0.411472,0.236596,-0.311256
0.406573,0.409761,-0.354704,-0.541809,0.020680,-0.474786,0.323171,0.007316,0.076809,0.000316,-0.306609,-0.419053,-0.899699,-0.784574,-0.694780,-0.039818,-0.114255,0.872301,0.042805,-1.869743,0.939834,0.164887,-0.313823,-0.868433,-0.162932,-0.105736,-0.450795,-1.384600,1.564168,-0.214358,-1.057271,-0.692131,0.899089,0.203131,-0.162368,0.109961,-0.153336,0.269133,-0.131478,-2.540940,-0.111186,-0.215840,-0.380307,-0.161513,0.393807,-0.464862,-0.287241,0.247691,-0.131342,0.019905,0.081478,-0.063646,0.118072,-0.179294,0.368370,-1.234534,0.407424,-0.055323,0.116756,0.455667,0.109548,0.464647,0.487863,0.350761,0.426267,-0.361280,0.142379,-0.162471,0.356824,-0.113162,0.255164,0.238740,-0.327517,-0.140881,0.123895,0.294044,0.017199,0.226921,0.120475,-0.201391,-0.431008,-0.068341,-0.499415,-0.391745,-0.990626,-0.359592,-0.314545,0.099382,-0.374482,-0.488892,-0.260359,-0.428303,-0.413775,-0.098045,-0.079671,-0.533308,0.028182,0.143327,1.099647,-0.137258,0.049966,-0.351019,-0.396813,0.078928,-0.004668,0.481299,-0.186749,-0.479871,0.482938,0.140672,0.499540,-0.158556,-0.727810,-0.686913,-0.241664,-0.320666,0.361624,-0.017622,-1.887506,-0.150798,-0.136717,0.053800,0.172881,-0.865212,-0.072005,0.097674,0.341730,-2.031978,0.344520
0.012782,-0.263545,0.497080,-0.601431,0.150886,0.397267,0.151602,-0.236925,0.246222,-0.248869,-0.181123,0.067057,-0.241943,-1.069970,0.159549,0.260703,-0.471663,-0.187566,0.431156,-1.203598,-1.277395,-1.250702,-0.120780,-0.482034,-0.017668,-0.364572,0.173755,-0.612128,-0.053255,0.380227,-1.200765,-0.866046,0.029133,-0.442600,-0.306409,0.120234,-0.170238,0.014265,0.129316,-1.442929,-0.424255,0.381752,0.308058,0.279380,0.460195,0.288237,0.094073,0.364168,-0.459017,-0.063340,0.401888,0.428737,-0.150652,-0.126108,-0.113002,-0.466607,0.031655,-0.037469,0.122130,0.215463,-0.327747,0.328894,-0.440686,0.383562,0.265241,0.023705,0.008439,0.004904,-0.467665,0.321782,0.046556,-0.494178,0.166859,0.216674,-0.383909,0.393240,0.300987,-0.233393,-0.275064,-0.270485,0.172568,-0.005271,0.329729,0.154638,-0.546306,0.335659,-0.928670,-0.007887,0.139738,0.215421,-0.318776,-0.492763,-0.318972,-0.002726,0.006022,-0.033024,-0.232904,-0.025798,-0.371437,0.253293,0.385079,-0.273375,0.208436,-0.265036,-0.018863,0.195949,-0.335598,-0.104925,-0.127966,0.384868,0.458050,-0.337765,0.273302,0.621815,0.354722,-0.871721,-0.027991,-0.180418,-1.248850,-0.130444,0.194268,0.327754,0.330638,0.003297,-0.465543,0.245362,-0.454649,0.392924,0.266384
