-0.296413,0.035321,0.074355,-0.525923,-0.076186,0.021993,0.033154,0.186535,-0.764303,-0.198320,-0.430407,-0.529975,-0.034179,-0.637011,1.106193,-0.364600,0.547669,0.371873,-0.694089,0.358234,0.142676,0.388590,-0.020997,-0.717674,-0.127700,0.258002,0.042575,0.178695,-0.152497,-0.089467,-0.667951,0.967920,-0.224790,0.084343,0.518049,-0.186954,-0.079575,0.290945,0.914888,-0.013858,0.223523,0.729029,0.441049,-0.197397,0.085083,-0.073734,-0.123718,-0.024141,0.744844,0.473464,-0.302823,0.410597,0.640927,-0.380950,0.054095,0.312494,0.231001,0.038437,-0.084066,0.783187,0.514781,-0.493715,0.291584,-0.128904,0.258391,-0.439900,0.313581,-0.260712,-0.040480,-0.387490,-0.083254,-0.855243,-0.183896,0.073451,0.334803,-0.359118,-0.119918,-0.471218,0.060900,-0.273392,0.109826,0.359317,-0.428817,-0.008986,0.088727,0.007440,0.141142,-0.003423,0.212266,0.322185,-0.392371,0.161345,0.193763,0.178637,0.318630,-0.222958,0.033485,-0.109250,-0.091251,0.044069,0.089996,0.032715,-0.257207,-0.199880,0.237314,-0.325157,0.262784,0.016483,-0.120133,0.073880,0.076683,0.364886,-0.389825,0.480601,0.033253,1.089204,-0.220012,0.101974,-0.027221,0.373289,0.506737,-0.103368,0.078456,0.109167,0.023312,-0.241191,0.286219,0.218824,-0.281423,-0.263249,0.361894,0.164216,0.481540,0.034708,-0.044334,0.349542,-0.184985,-0.275060,0.241176,0.135822,0.367250,0.226759,0.247425,-0.262814,-0.228195,0.059993,0.085560,-0.346251,-0.109299,-0.241746,-0.440534,-0.187953,0.272232,-0.420206,-0.112344,-0.112515,-0.123824,0.419039,-0.061067,0.604021,-0.121566,-0.174651,0.482873,1.535620,0.164147,-0.056981,0.427196,-0.055931,-0.204372,0.561039,-0.264344,0.105286,0.114071,0.190869,-0.053563,0.470638,0.213479,0.120118,0.065327,-0.121812,-0.063206,0.136658,0.484886,-0.715433,-0.102410,-0.281036,0.478755,-0.011589,0.081016,-0.335483,0.321945,0.188314,-0.269818,0.259671,-0.008139,0.054257,0.187492,0.209855,-0.273525,0.209288,0.362113,0.168932,-0.165193,-0.580368,-0.465716,-0.058849,0.218285,-0.479172,0.327499,-1.061695,-0.160732,0.223267,-0.668284,-0.109017,0.024464,-0.371836,0.100810,0.118893,0.023897,-0.170226,-0.491858,-0.128486,0.438718,-0.138264,-0.375677,0.094198,0.297981,-0.188587,0.224388,-0.149617,0.483348,0.188337,-0.028465,0.224356,0.283796,0.115497,0.250899,0.004668,-0.529521,0.118167,0.019781,-0.217437,-0.216935,-0.155836,-0.382469,-0.434494,-0.044775,-0.318841,0.609060,0.062709,-0.111911,-0.304488,0.164828,0.219188,0.306734,0.076876,0.304943
-0.071020,0.022859,-0.100524,-0.217355,-0.104928,0.107317,0.191623,-0.041853,0.125665,-0.132898,-0.243721,0.062088,0.109302,-0.808570,-0.235741,-0.132915,-0.445577,0.081812,-0.474447,-0.221396,-0.160179,-0.397078,-0.072049,-0.327053,-0.242842,-0.484041,0.433614,0.004710,-0.078804,0.173351,0.176126,-0.238554,-0.495694,-0.066187,0.088298,0.037869,0.103641,0.404082,-0.343998,-0.064668,-0.028551,-0.064411,0.038806,-0.225048,-0.174516,-0.262028,0.059325,-0.133130,0.458213,-0.238722,-0.007433,-0.491968,-0.194381,0.203058,0.010793,-0.467812,-0.091222,-0.234223,0.131714,0.398344,-0.184391,-0.144650,-0.345837,-0.344367,-0.227325,0.020994,-0.059594,0.466679,0.390864,0.471190,0.055702,-0.342058,0.244219,-0.012381,0.462061,0.284805,0.164646,0.113759,0.049279,-0.464539,-0.260877,-0.013807,0.021627,0.243515,-0.006249,0.236306,0.278942,-0.275757,-0.295862,-0.059608,-0.621319,0.776683,0.433524,0.104581,0.489717,0.157625,-0.296668,0.167587,-0.126792,0.049530,-0.050943,-0.277659,0.036161,0.526561,-0.073457,-0.363808,-0.037455,-0.320172,-0.157755,-0.204669,-0.090726,0.074257,-0.103083,-0.212712,0.190279,-0.068322,-0.047043,0.228658,0.111745,-0.041001,0.032922,0.018097,0.082648,0.182999,0.079712,-0.517953,-0.168407,-0.205741,-0.291705,-1.177456,-0.183626,-0.136109,-0.421398,-0.537933,-0.073804,-0.418398,-0.130621,0.181995,0.207851,0.143261,-0.271564,-0.428968,-0.021718,-0.584724,0.199546,-0.248708,-0.196255,1.200136,0.105172,0.039705,0.296924,0.054325,0.020138,0.263252,0.399664,0.461948,-0.083827,-0.292520,0.103636,0.035415,-0.015541,0.176230,-0.124735,0.025301,0.069905,-0.036325,-0.580994,-0.164016,0.112536,-0.209978,0.186052,0.308895,-0.094307,0.679293,-0.072551,-0.112935,-0.178671,-0.009725,0.059277,0.192813,0.037134,0.096279,-0.254876,0.300038,0.189085,-0.360049,-0.006809,0.272577,-0.403844,0.151240,-0.045049,0.093997,0.692290,-0.438263,0.023119,0.006804,-0.070963,-0.074109,0.065561,0.356979,-0.776602,-0.251956,0.474034,0.090344,1.160691,-0.087855,0.052042,-0.162534,0.276455,-0.397961,-0.259893,0.012431,-0.013217,0.355113,0.337901,0.166012,0.111767,-0.074312,0.274078,0.042215,-0.347823,-0.271521,0.301683,0.206729,0.268358,-0.042104,-0.371089,0.438030,0.113512,0.426480,-0.283375,-0.097482,0.028718,-0.011614,-0.170008,-0.250737,-0.072952,-0.057251,0.548897,0.482346,0.491295,0.018979,0.303916,-0.285851,0.241685,-0.052825,-0.053472,0.383239,-0.099824,-0.060934,-0.061707,0.044076,0.272293,-0.174922,0.270606,-0.373309,-0.334161
0.244721,0.032354,0.536690,0.831904,-0.060635,-0.215119,-0.159208,0.374699,-0.272808,0.387791,0.262471,-0.472434,0.053524,-0.090179,0.111105,-0.245029,-0.254807,0.011932,0.498148,0.197408,0.030471,-0.082383,-0.174062,0.241983,-0.184136,0.154836,-0.324027,-0.201097,0.348072,0.129092,0.049012,0.124939,-0.108898,-0.471247,-0.067716,0.193551,0.135727,-0.157105,-0.571196,-0.622530,0.046821,0.335165,-0.056448,-0.224273,-0.058054,-0.366944,0.465351,-0.271398,0.295052,-0.711071,-0.048577,-0.689003,0.108792,0.342067,0.183952,0.393332,0.486477,0.196914,-0.355314,-0.436800,-0.112730,-0.451184,0.017693,-0.646238,-0.016297,0.672076,-0.350644,0.095382,-0.532164,-1.256508,-0.188742,-0.545414,0.318630,0.353778,-0.159351,0.319559,-0.149378,-0.050048,-0.012398,0.505711,0.251481,-0.087576,0.135414,-0.201529,0.011920,0.364972,-0.253831,0.608163,-0.262695,-0.054589,0.838613,-0.351067,0.018808,0.259768,-0.787461,0.222273,0.066582,0.246215,-0.144997,0.117812,-0.023272,-0.631346,0.346172,0.131525,0.411859,-0.012535,-0.090514,-0.342336,-0.485609,-0.103986,-0.461007,-0.080145,0.247581,0.226170,-0.813844,0.216095,0.030741,-0.049772,-0.006703,0.064303,-0.400492,-0.248397,-0.463359,-0.226851,-0.842325,-0.289400,-0.278006,0.091054,0.023063,0.170003,0.534975,-0.010822,0.374628,0.349711,-0.175228,0.260136,-0.334039,0.052183,-0.041640,-0.253542,0.146535,-0.187304,0.078135,-0.281877,-0.022963,-0.259995,-0.429134,0.363553,0.087323,0.163339,-0.270581,0.326023,0.308851,-0.121661,0.092249,-0.354924,-0.328319,0.808418,0.276266,0.086096,-0.071923,-0.375970,0.519893,-0.370379,-0.181863,-0.052770,-0.447071,-0.105515,-0.029782,0.283332,-0.277325,-0.201522,-0.190417,0.297275,0.083618,-0.497905,0.242001,0.366987,0.484815,0.105318,0.024451,-0.140392,0.211098,0.618581,-0.427468,0.186291,-0.129698,0.101116,-0.180433,0.359188,0.355960,0.078963,0.264320,0.030557,0.134387,0.083597,0.024409,0.277024,0.079764,-0.259653,-0.286396,-0.133721,0.472416,0.425398,-0.374237,-0.118257,0.086576,0.618629,0.232220,0.472901,-0.391249,0.038494,-0.254292,-0.232942,-0.095620,0.515988,0.031386,-0.254872,-0.129009,0.233168,0.485008,0.357174,0.220140,-0.438297,0.840252,-0.342652,0.459719,-0.072185,-0.259062,0.114021,0.042716,-0.546870,0.113907,0.020204,0.248615,0.179754,-0.293880,0.103774,-0.061049,-0.274636,-0.462007,0.247186,-0.179827,-0.262786,-0.584257,0.124161,0.287200,0.143231,0.624003,-0.219086,-0.075775,-0.038117,-0.009596,-0.081227,-0.566564,0.414356,0.029594
-0.420331,-0.014222,-0.039958,-0.180207,0.015133,-0.083698,-0.301164,0.185886,0.088641,-0.137118,0.269987,0.384742,-0.037960,0.164859,0.522256,0.106762,-0.233288,-0.102380,-0.276289,-0.047464,0.501348,-0.446612,0.431391,0.169930,-0.303560,-0.064592,0.111985,-0.052273,-0.444495,-0.340860,0.452974,0.086802,-0.110631,0.248783,-0.138840,-0.066538,-0.174952,0.404617,0.024984,0.002661,0.000413,-0.021031,0.160745,-0.200587,-0.216287,-0.528209,0.304308,-0.015651,-0.083172,-0.406793,0.055960,-0.391769,0.804789,0.017703,-0.107378,0.123186,0.158340,0.213600,0.049305,0.410087,-0.255477,-0.279374,-0.070363,-0.199926,-0.040738,-0.400756,0.298744,0.554748,0.042496,0.695830,0.052019,-0.549294,0.031157,0.183850,-0.207680,-0.024817,-0.093814,0.208801,0.208537,0.150409,-0.075147,0.010005,-0.008281,-0.001336,0.059100,-0.363553,-0.138894,-0.005488,0.112851,0.156009,0.127637,0.915180,-0.212477,-0.353911,-0.187482,-0.017615,0.035367,0.004676,-0.043203,0.248526,-0.308050,0.505601,0.024399,-0.298948,-0.409561,-0.231503,0.051539,0.315855,0.251709,0.076286,0.599837,0.246357,-0.055906,-0.244706,0.055913,0.105090,0.463739,-0.185328,0.122806,0.022355,-0.368308,-0.243427,-0.116358,-0.009266,-0.401253,-0.514269,0.031403,0.131983,-0.113296,0.236487,0.522140,0.359093,-0.442195,-0.317359,0.317589,0.256504,-0.104547,-0.036024,-0.352957,-0.256777,0.152812,0.186955,0.173837,-0.258715,0.090508,0.262867,0.098399,0.633365,0.120682,0.112657,0.084554,-0.353674,0.082441,-0.056243,-0.015666,0.132054,-0.140942,-0.556273,-0.099922,0.034346,-0.042007,0.249442,0.553594,0.288601,-0.236524,0.174148,0.892847,0.125826,0.350254,0.286099,0.149428,0.096623,-0.421392,0.141317,0.087597,-0.255072,-0.128207,-0.204347,-0.881271,-0.264218,-0.506350,-0.124592,-0.352361,-0.228066,-0.287381,-0.245332,0.312401,-0.088719,0.015565,0.592125,0.130117,0.031318,-0.363101,-0.176755,0.150843,-0.095669,-0.107800,-0.566371,-0.050892,-0.232933,-0.410911,-0.015478,0.357601,0.124066,0.135712,0.075261,0.034395,-0.795946,-0.113511,-0.377716,-0.478672,-0.126229,-0.124173,-0.005836,-0.047616,0.073322,-0.046315,0.080696,-0.332487,-0.017669,-0.062523,-0.184656,-0.472728,0.511003,-0.431551,0.112093,-0.713392,0.045295,-0.453863,0.380072,-0.317810,-0.357510,-0.071785,-0.260301,-0.314851,-0.054433,-0.141331,-0.022796,0.163589,0.047531,-0.132372,0.146908,0.008056,0.038414,0.190712,0.190180,-0.383416,-0.030541,0.681882,-0.004806,0.107086,0.073031,0.093363,0.006937,0.474153,-0.070957,0.029082
0.034829,-0.043632,0.212874,-0.114184,-0.453662,-0.142240,-0.174158,-0.754671,0.039571,0.411767,-0.040045,-0.199111,-0.119853,-0.487813,-0.306711,0.927069,0.042036,0.139978,-0.037223,-0.191198,-0.562893,-0.786517,0.041329,-0.097358,-0.102805,0.008956,0.031923,0.076575,0.761357,-0.145626,-0.452361,0.109872,0.091840,-0.028787,0.057685,0.003498,0.030418,-0.238913,0.213663,-0.527336,-0.047957,-0.025721,0.028555,-0.094147,0.149980,-0.550670,0.080902,-0.510984,-0.276803,-0.247479,-0.344569,0.062664,-0.249772,0.060719,0.129247,-0.681619,-0.483279,0.309118,0.277653,-0.370209,0.328744,0.109812,0.064404,0.178468,0.153609,0.162425,0.041027,-0.379887,0.033679,0.011156,0.090130,-0.155050,-0.103721,-0.035674,0.686657,0.375993,0.132546,-0.147963,-0.029448,0.097198,-0.009494,0.158792,-0.091235,-0.039781,0.383300,0.057084,-0.085887,0.618740,0.194192,-0.235781,-0.393382,-0.074503,0.089729,-0.150948,-0.072525,-0.011084,-0.076852,0.280103,0.299391,0.285395,0.149014,-0.807768,0.042336,0.090309,0.198125,0.446819,-0.080251,0.282070,-0.323637,-0.052077,-0.037974,0.104793,0.215214,-0.079428,-0.327722,0.200260,0.042329,-0.171466,-0.090775,-0.095397,0.445614,-0.550922,-0.000799,-0.034125,0.320088,-0.163827,-0.083426,-0.078958,0.235328,-0.181465,-0.404308,0.173768,-0.001817,-0.520517,0.103398,-1.136487,-0.122809,0.120572,0.060730,0.190488,-0.207247,-0.133491,-0.140971,-0.030846,-0.010796,-0.079500,-0.872261,0.303200,-0.184292,0.017350,-0.403000,-0.012965,-0.062356,-0.131809,0.326061,-0.145335,-0.161981,-0.021175,-0.203629,-0.370426,-0.153124,-0.286919,0.266272,-0.263525,0.482448,0.035409,0.050564,-0.210779,-0.196004,0.077709,-0.446345,0.194420,-0.752138,0.370795,0.298932,0.093826,-0.078150,-0.032806,-0.131682,0.046041,0.438520,0.059815,-0.361976,-0.227465,-0.604692,0.102971,-0.221463,-0.416522,0.160854,0.479667,-0.555994,-0.196368,0.147004,-0.198403,0.136466,0.096096,-0.036344,-0.094111,-0.110447,0.256415,0.342844,-0.063555,0.231386,0.222569,-0.275843,-0.235233,-0.047437,0.463115,-0.394392,0.518123,0.252495,-0.053914,0.260811,0.148527,-0.123045,0.874209,0.178840,-0.093827,-0.428308,0.000448,0.321767,-0.684793,0.766224,-0.230772,0.503220,-0.102897,0.133010,0.208540,-0.086618,0.420442,0.017652,0.233651,0.067241,0.163900,0.195862,0.313704,0.043850,0.314941,-0.028370,0.608539,0.052027,0.420791,-0.071815,0.115726,-0.298223,0.141905,0.288663,0.019867,0.211035,-0.074969,-0.031743,-0.181241,-0.110858,0.030704,-0.059702,0.003980,-0.070251
0.346317,-0.146889,-0.359552,-0.360051,0.424909,0.011822,0.081052,-0.442203,0.418092,0.026822,0.020097,-0.389696,-0.326853,0.079864,0.141590,-0.525653,0.802334,0.020300,-0.169612,0.050134,-0.617654,-0.113373,-0.020570,0.312427,0.499626,0.174715,-0.579009,0.350920,-0.169061,-0.330136,-0.114327,-0.099979,-0.770098,-0.034990,0.085388,0.156906,0.111037,-0.544252,0.006005,-0.161054,-0.174205,0.597866,0.097884,0.515673,0.116310,0.129351,-0.757469,0.433619,-0.009555,-0.156728,-0.425935,-0.613670,-0.597103,0.000791,-0.139748,0.338002,0.231874,-0.107041,0.344553,-0.563336,-0.159826,0.463842,0.921044,0.666688,0.178126,-0.233042,-0.535586,0.345829,-0.410721,-0.327274,-0.167947,0.358432,-0.168137,-0.170662,-0.011774,-0.025239,0.030922,0.404251,-0.320109,-0.140048,0.140949,-0.128740,-0.034007,0.165600,-0.446952,0.321460,-0.293382,0.585595,0.480750,-0.394961,0.052481,-0.412159,-0.118478,-0.150099,-0.226091,0.131837,-0.012946,-0.051571,-0.070283,-0.187926,0.180154,-0.143935,-0.565707,0.210694,-0.089204,-0.148766,0.032378,-0.286644,0.336906,0.212252,0.157851,-0.275694,0.116213,-0.053815,-0.279039,0.003601,-0.389044,0.033533,0.189995,0.115175,-0.216234,-0.257491,-0.107025,0.320978,-0.356619,0.253643,0.034427,-0.109822,0.128110,-0.113393,0.377801,-0.150045,-0.089918,0.650803,0.380043,-0.202945,0.026226,0.043659,-0.765807,0.204979,0.671339,0.432859,0.295901,-0.300380,-0.262253,0.011570,0.156431,0.362254,0.179934,-0.036787,0.180334,0.135090,-0.312212,-0.368473,-0.215444,-0.193316,0.230853,0.177745,0.059309,0.196979,0.048045,0.189515,-0.639281,-0.464353,0.078743,-0.021641,0.549581,0.002040,-0.186079,0.316779,0.069020,0.130503,0.553775,-0.076269,0.222343,0.530267,-0.092673,-0.564189,0.243199,-0.061040,-0.118568,0.003134,0.104765,-0.151081,-0.146595,0.144767,0.371155,0.064120,0.198860,0.766400,1.579141,0.076164,0.236227,0.059748,-0.045548,0.184142,0.342206,-0.212798,-0.185109,0.305851,-0.375147,-0.104442,0.468791,-0.172161,-0.086412,-0.384606,0.095454,-0.446835,-0.124022,0.081393,-0.274183,0.114455,0.507699,0.421300,0.413826,1.017517,-0.421699,0.134632,-0.084131,-0.010278,-0.819949,0.164459,-0.602162,-0.283232,0.118288,-0.052377,-0.013205,0.048569,0.288625,-0.529325,-0.501476,-0.240550,-0.357298,0.034706,-0.123763,-0.386032,0.216721,0.004243,0.293428,-0.050460,-0.008300,-0.457057,0.282161,-0.098913,0.424925,-0.047222,0.170726,-0.142434,-0.034365,-0.480538,0.066421,0.197193,-0.207027,0.062189,-0.023171,-0.001067,0.282930
0.001932,-0.060035,0.082688,0.525436,-0.432584,0.077127,0.082102,0.428499,-0.288854,0.020872,-0.221954,-0.013325,0.190402,-0.188422,0.024177,-0.321500,-0.370788,0.008165,0.299541,-0.186973,-0.152836,-0.062739,0.093472,0.241393,0.017977,0.131623,0.164504,0.352670,0.356076,0.106340,-0.329676,-0.531199,0.985432,0.233803,0.130650,0.239791,0.049398,-0.493164,-0.830095,0.289754,0.000038,-0.498017,-0.343480,-0.165612,-0.014663,-0.810506,0.662971,0.161786,-0.335911,-0.704005,0.194207,-0.124924,-0.344145,0.342888,0.147079,-0.506594,-0.155794,0.202258,-0.489087,0.559159,-0.010006,0.273598,-0.151080,-0.163820,-0.395841,0.265504,-0.388328,-0.089361,0.054144,0.149518,-0.307123,-0.353103,-0.303970,-0.014176,-0.125399,0.246459,-0.046385,-0.282056,0.123384,0.146595,0.187249,0.203288,0.182777,-0.307645,0.175818,-0.257884,-0.231451,-0.086526,-0.218710,-0.202402,-0.166640,-0.130300,-0.042295,0.275988,-0.506798,-0.104191,-0.057921,0.201518,0.735847,-0.003476,-0.520941,-0.100495,0.052919,0.074763,0.359244,-0.947094,-0.099590,-0.142550,-0.302585,-0.089596,0.186801,0.091255,-0.083117,-0.016756,-0.376305,-0.152917,-0.009751,-0.141978,0.014071,-0.063467,-0.134690,0.046457,-0.414796,-0.072357,-0.149484,0.387433,-0.326344,0.008736,0.010068,0.047292,0.034079,0.782496,0.202284,-0.062006,-0.314194,-0.282826,0.315920,0.000018,0.655690,-0.065096,0.180269,-0.163741,-0.125112,-0.432224,0.143792,-0.391069,0.646647,-0.316416,0.085368,0.218116,-0.043233,-0.151804,0.157768,0.406626,0.363900,-0.141578,0.218625,0.378033,-0.101449,-0.318731,-0.047511,-0.049908,0.197994,0.351356,-0.131388,-0.048258,-0.108498,-0.200385,-0.036221,0.169453,-0.265862,-0.153520,-0.144970,0.139424,0.277541,-0.580471,0.016514,0.408430,0.352467,-0.149543,-0.025516,-0.068512,0.248173,0.805833,-0.378724,-0.718836,0.028189,-0.274963,-0.307165,-0.164574,0.705346,-0.055333,0.216011,0.421224,-0.033069,0.016513,0.187288,0.087553,0.063507,-0.002117,0.433309,-0.391940,-0.036973,-0.084574,1.170534,0.201210,-0.102139,-0.170283,-0.327713,0.607109,-0.509649,-0.078252,0.013127,0.331136,-0.171490,0.556562,0.042587,-0.027593,0.044742,-0.140327,0.273410,-0.049128,0.593105,-0.029280,0.561066,-0.216386,-0.122695,-0.093066,0.203651,-0.183041,-0.078212,-0.175527,0.129446,-0.179985,0.102790,0.000971,0.016765,0.114502,-0.048839,-0.801346,-0.072400,0.809937,-0.139123,-0.036593,-0.257294,-0.234010,0.027838,0.323503,-0.017546,0.165185,0.030420,-0.230490,0.087496,-0.207620,0.329158,0.325008,-0.049824
0.242349,0.113977,-0.278968,-0.277319,-0.181398,0.294813,-0.354147,0.050569,0.183256,0.213359,-0.136519,0.107878,-0.050664,-0.153875,-0.072363,-0.280629,-0.121476,0.000375,-0.087603,0.237068,0.082981,0.247758,0.320490,0.470744,-0.141263,0.169697,-0.118841,-0.318969,-0.310248,0.204954,0.105920,0.231298,-0.150722,-0.123972,-0.160776,-0.079004,-0.028185,0.238531,-0.170721,0.102827,0.205480,0.694977,-0.155388,-0.110998,-0.058757,0.727651,-0.641855,0.458046,0.055494,-0.280185,-0.425840,-0.447682,-0.281642,-0.279112,0.034615,-0.697998,-0.403796,-0.095740,0.050518,-0.383447,-0.086319,0.296999,-0.119563,0.196604,-0.248762,0.081507,0.449153,0.452447,-0.397577,0.793193,0.186090,-0.332684,0.108347,-0.040456,0.286475,-0.145656,-0.000629,0.296148,-0.019136,0.258938,0.529835,-0.049599,0.161293,-0.359703,-0.022892,-0.231589,0.089732,0.216600,-0.066752,-0.063674,0.664171,-0.135755,0.033643,-0.139939,0.210313,-0.228805,-0.217962,0.026199,-0.242933,0.168170,0.376203,0.575411,-0.012084,0.011356,0.502936,-0.184814,0.133831,0.181522,0.508218,0.022833,-0.053489,0.158200,-0.027928,-0.183553,-0.084604,-0.297743,-0.270272,0.177635,-0.295995,-0.080612,0.725066,0.024950,-0.361273,-0.015366,0.309794,0.359698,0.034182,0.049077,0.119924,0.611434,-0.479597,0.407923,0.218512,-0.117182,-0.324185,-0.126725,0.198938,-0.013483,-0.082983,-0.325848,-0.558207,-0.184483,-0.293125,0.173561,-0.165703,0.345808,-0.191922,-0.148681,-0.272592,-0.157919,0.253617,-0.140417,-0.095091,-0.049414,-0.049347,0.090256,-0.078248,-1.049382,-0.208812,0.039313,0.033597,0.231312,0.050268,0.158777,-0.031989,0.041313,-0.587703,0.031632,0.062187,-1.263094,-0.159140,0.114650,0.201002,0.131149,0.077646,0.164230,-0.136565,-0.431315,-0.123634,0.050766,-0.219706,-0.039918,0.216004,0.419824,-0.289091,-0.172463,0.425992,0.121987,-0.135309,-0.667835,0.178229,0.109878,0.601461,-0.276009,-0.144307,-0.354126,-0.020605,2.013034,0.014029,0.050737,0.439138,0.957577,-0.384663,0.762809,0.123511,0.021491,0.038438,-0.073770,0.032662,-0.631981,-0.469444,0.100106,0.009927,0.440011,-0.375241,0.245279,0.157026,0.190606,0.037612,0.278796,0.648107,0.110873,0.009880,-0.250542,-0.388767,0.678217,-0.433462,-1.596142,-0.184849,0.196287,0.180578,-0.234414,-0.185025,-0.029342,0.010545,-0.134669,0.132080,-0.023873,0.031389,0.305177,-0.323561,0.142715,0.015352,0.043425,0.004570,-0.068750,-0.069500,0.061380,0.487594,-0.095791,0.113116,0.028899,0.251189,-0.068574,-0.315821,-0.644713,0.272554
0.148947,-0.259816,-0.108769,-0.338880,0.563730,-0.088084,0.483742,0.184327,0.307088,0.329615,0.028815,-0.184823,-0.018770,0.506284,-0.573562,-0.253544,0.042200,-0.124476,-0.114931,0.179977,0.311501,-0.012895,0.108505,-0.699151,0.645107,-0.170870,-0.093359,0.545609,-0.124193,-0.773201,-0.428492,-1.627322,0.708655,-0.321176,0.198609,0.136662,-0.145010,-0.050492,0.625003,-0.408834,0.195162,0.172222,0.250070,0.279061,0.044983,0.504117,-0.457516,0.644657,-0.282310,-0.475110,0.606035,0.088974,-0.054862,0.075023,0.130828,0.453631,0.226554,0.137100,0.078355,0.239232,0.225789,0.103824,0.141838,-0.068721,0.184780,0.091654,-0.152038,-0.103139,0.231045,-0.218493,-0.193024,-0.379201,0.105792,0.016326,0.822162,-0.553966,-0.267528,-0.442732,0.124953,0.377902,0.361656,0.144404,0.102263,0.468166,-0.943535,-0.347338,-0.414125,-0.304007,0.451237,-0.090970,0.485594,0.017684,-0.144710,0.353820,-0.733666,-0.139512,-0.006933,0.090947,-0.328055,0.471739,0.344842,0.284777,-0.247776,-0.129250,-0.442937,0.201815,-0.328226,0.175335,0.586532,-0.097161,0.522014,-0.802683,-0.229022,0.155774,1.000794,-0.666056,0.199919,-0.246172,-0.362600,0.273460,-0.264799,0.214904,0.235249,-0.011830,0.134148,-0.693766,0.061864,-0.293087,0.191345,-0.056735,-0.678501,-0.995829,-0.322511,0.626837,-0.224468,0.481816,0.059948,0.095888,-0.029960,0.082251,-0.243122,0.580709,0.163005,0.468093,-0.003457,0.022397,0.181540,-0.428400,0.041327,0.192778,0.274651,0.267791,0.155996,-0.167798,-0.418813,0.462346,-0.176462,1.129615,-0.294394,0.630523,0.145490,0.396375,0.381023,-0.296309,0.469607,-0.372155,-0.376812,0.374326,0.134478,0.391533,0.514446,-0.013431,0.441012,-0.010192,0.072211,-0.273935,0.353153,-0.229126,0.035269,0.201585,0.346212,0.208121,0.226996,-0.740439,-0.222354,0.537885,0.328029,0.130324,0.065008,0.385483,0.219219,0.421022,-0.321826,0.095716,-0.313044,0.152990,-0.245533,-0.009731,0.006142,0.232566,0.505207,-0.233452,-0.171067,0.504799,-0.484263,0.000787,0.164908,0.349211,0.354283,0.076172,0.529488,-0.022711,-0.452049,-0.162383,0.355644,-0.725534,-0.022327,0.077721,0.699060,0.157792,-0.195117,-0.099126,0.355608,-0.128697,-0.045854,-0.111915,0.017290,-0.358646,0.012755,-0.156862,-0.025933,-0.093100,0.094791,-0.232318,0.009344,-0.475490,-0.065762,-0.188032,-0.192555,-0.259600,0.212071,-0.027664,0.422810,-0.160522,-0.463333,0.155993,0.378910,-0.160748,1.379596,0.310291,-0.014145,-0.133955,-0.423604,0.256413,-0.394739,0.357581,-0.133265
-0.071624,0.183467,0.026975,-0.381135,0.347388,-0.025229,0.342090,0.343138,0.080552,-0.306320,-0.077690,-0.102328,0.100174,0.412528,-0.516406,-0.060277,-0.320878,-0.112516,-0.308977,0.072235,0.180687,-0.214347,-0.087718,-1.510160,0.502766,-0.093933,0.666421,0.080516,-0.684423,-0.001588,-0.273466,0.269677,0.373375,-0.001037,-0.237252,0.249880,0.063456,0.099702,-0.317185,-0.506196,0.046446,0.437940,0.385229,0.025519,0.000436,0.236653,0.243733,-0.002102,0.078590,-0.708619,0.451121,0.256484,-0.155760,0.121909,0.067864,0.633128,0.390126,0.188671,-0.238289,0.357866,0.460418,-0.296928,-0.294685,0.084512,0.155104,0.339588,0.352861,-0.321647,-0.347183,-0.704354,-0.087697,-0.224551,0.089266,-0.120479,0.604243,-0.087344,-0.080777,-0.199019,-0.158302,0.778408,0.382197,-0.043444,0.042670,0.160937,-0.484859,-0.091641,-0.027822,-0.050857,0.369778,-0.208643,0.699549,-0.010697,0.096239,0.149133,-0.527822,-0.409318,0.613174,-0.284190,-0.280737,0.336917,0.192727,-0.057085,0.487182,-0.302464,-0.103652,-0.028400,0.038813,0.287219,0.195575,-0.053080,-0.052699,0.717060,-0.249503,0.091079,0.375828,-0.203176,0.099629,-0.242595,0.108578,0.249418,-0.112187,-0.013198,0.033834,-0.118200,-0.475026,-0.046167,0.131054,-0.029937,0.031596,0.590827,-0.243968,0.391088,-0.218818,-0.190677,-0.338284,-0.391609,0.290853,-0.101658,-0.060655,-0.547950,-0.187411,0.219129,0.322969,0.284631,-0.105677,0.442552,0.253402,-0.136963,-0.389744,-0.151619,-0.236915,-0.159361,0.195778,-0.517553,-0.540202,0.401060,-0.050545,0.464158,0.816677,0.267673,0.147659,0.497702,0.316295,-0.759495,-0.268451,-0.176043,-0.380627,-0.092736,-0.073945,0.669396,0.035802,-0.373028,0.450827,-0.013855,0.210814,-0.023266,0.227407,-0.318531,0.209321,0.093017,-0.154755,0.475819,0.197008,-1.259174,-0.682672,0.401061,-0.065907,0.132759,0.059197,-0.885291,0.980608,0.165319,-0.359830,-0.493754,-0.034597,-0.095918,0.230581,0.298716,-0.285874,-0.220814,-0.302018,0.376036,0.329061,0.121385,-0.045957,-0.315530,0.021735,-0.427227,0.500795,0.597031,0.313266,-0.024493,0.029704,-0.178300,0.347838,0.737039,-0.165146,-0.097163,0.370475,0.200362,0.266663,0.025093,0.074954,-0.670305,0.256393,0.043121,0.154841,0.032448,0.353559,-0.040342,0.196712,0.322422,-0.106270,0.129329,0.184100,-0.257876,0.155588,-0.274161,-0.316766,-0.064696,-0.881552,0.090277,0.031100,-0.305503,0.118752,-0.087220,0.313202,-0.119309,0.352691,0.409461,0.062798,-0.192094,-0.671867,0.173569,-0.692772,-0.001397,0.038926
0.368503,0.221786,0.165820,-0.283427,-0.546131,0.362264,0.105358,0.025754,0.186726,0.191404,-0.198990,0.470143,-0.333067,0.304692,0.077079,0.419026,0.391912,0.177904,0.355643,0.500829,0.211274,0.129605,0.081556,-0.137443,-0.177760,-0.028678,-0.002946,-0.240903,-0.584632,0.378209,0.058704,0.537616,0.801801,-0.284787,0.177973,-0.207032,0.372784,0.193602,0.569993,-0.050180,0.365284,0.485306,0.055351,0.100854,0.290765,0.281582,-2.125703,0.071848,-0.754589,0.587177,-0.634058,0.126943,0.136518,0.076930,0.065799,-0.002548,-0.335978,0.120556,-0.372898,-0.727331,0.347675,-0.186428,-0.065398,0.130822,0.012334,0.167377,-0.190876,0.166612,-0.177951,0.302873,-0.127080,0.239791,0.059959,-0.033189,0.758386,-0.744999,0.186476,0.196411,-0.242134,-0.002339,0.181564,0.291982,0.246384,0.014882,0.213225,-0.144179,0.161920,0.737372,-0.276241,0.136320,0.012026,-0.218886,-0.052494,-0.158982,-0.248911,0.236137,-0.005094,-0.316826,-0.076349,0.503471,0.587596,0.133094,-0.097590,0.104323,0.000917,0.286327,0.350904,0.147610,0.076109,0.220166,-0.181645,-0.173887,0.092433,0.321629,-0.495876,-0.141788,-0.010197,0.380811,-0.164345,-0.025949,0.570183,0.095378,0.117853,0.077739,0.897618,0.017466,0.028593,-0.201678,0.108069,0.648434,-0.307376,0.406049,0.615634,0.080739,0.202354,-0.034141,-0.019650,0.166983,-0.431554,0.035323,-0.545871,0.002349,-0.492584,0.126596,0.061667,0.153575,-0.596506,-0.572811,0.066652,-0.059367,0.196292,-0.124013,-0.223620,-0.067126,-0.064962,-0.316000,0.174549,-0.833669,-0.531737,-0.709845,-0.131828,-0.419824,0.312935,0.062775,0.090618,0.262932,-0.187962,-0.162409,-0.237117,0.256963,-0.102886,-0.112925,-0.788855,-0.699646,0.163722,0.018122,0.472130,-0.048326,-0.001685,0.074190,-0.359737,0.052056,-0.041987,0.491986,1.023259,-0.457280,0.244087,0.498110,0.065235,-0.527411,0.712865,-0.090642,0.277016,-0.783170,-0.091928,-0.072031,-0.263918,0.066433,0.089462,0.407706,0.447681,0.187355,-0.410672,0.456759,-0.372958,-0.165756,-0.223669,-0.011826,0.061938,-0.138231,-0.172606,0.216135,-0.053220,-0.095452,-0.527442,0.072017,0.109710,0.219318,-0.242222,0.225698,0.692627,0.151697,0.134142,-0.358389,0.058557,-0.054490,-0.158440,0.346523,-0.327747,-0.061588,-0.535230,-0.134345,0.135594,0.542761,-0.021307,-0.060139,0.042166,0.198219,-0.367632,-0.181351,0.032119,0.254398,-0.195070,0.493254,-0.056610,-0.034571,0.226399,-0.117469,0.552277,-0.202154,-0.172578,-0.210442,0.303711,-0.025352,-0.189062,-0.440046,0.096116
-0.210830,0.134287,-0.065788,-0.058071,0.711153,-0.242121,-0.167711,0.338438,-0.004741,0.280467,0.166928,-0.058341,0.054442,-0.151992,0.086179,-0.539137,0.133489,0.150307,0.083998,0.231177,0.285754,0.140470,0.100287,-0.070512,0.067748,0.297611,0.100076,-0.306947,-0.110446,0.106930,-0.530103,-0.351032,0.379810,-0.043894,0.242847,0.584376,-0.034493,0.768463,0.316528,-0.087234,0.063877,0.509704,-0.205387,0.210635,0.045011,-0.707568,-0.270512,-0.094542,0.492947,-0.966071,1.894156,-0.116369,0.042573,-0.042171,0.193886,0.660561,-0.638235,-0.336259,0.192509,-0.836039,0.421970,-0.188259,-0.080747,0.132139,0.387793,0.514715,0.234437,-0.108525,-0.202875,-0.421582,-0.292254,-0.092785,-0.364752,0.549257,0.025302,-0.237879,-0.053950,0.094337,-0.082630,-0.254511,-0.731137,0.286200,-0.101968,0.003485,0.942761,-0.172102,-0.286298,0.172219,0.071758,0.006780,-0.224924,-0.385582,0.118541,0.060765,0.322537,-0.189887,-0.514626,0.406846,-0.768422,-0.002935,0.295253,-0.249386,1.073181,-0.477758,0.368278,0.026202,0.195807,-0.472731,-0.051461,-0.041278,-0.294577,0.427147,0.096729,-0.116502,0.460168,-0.341174,0.175613,0.128154,0.013410,0.262598,-0.218785,-0.367797,0.151440,-0.150916,-0.379979,-0.115499,-0.032997,0.097542,-0.099099,-0.015256,-0.548350,0.067470,0.150461,-0.194765,0.372748,0.524836,-0.228482,0.054497,0.282143,-0.869360,-0.324571,-0.523518,-0.178564,-0.544278,-0.223798,0.318713,-0.290667,0.193568,-0.139852,0.182715,-0.295658,0.189159,-0.467201,-0.261044,-0.165916,-0.072622,-0.129860,0.537852,0.842223,0.930186,0.223559,0.015384,0.240036,-0.167593,-0.138601,-0.248604,0.396850,0.040802,0.107015,0.039583,0.011562,-0.156957,-0.443441,-0.316326,-0.265339,0.365432,0.324473,0.315840,-1.749046,-0.012527,0.178271,-0.110201,-0.004122,-0.852923,-0.598757,0.480365,-0.075057,-0.224083,0.032173,-0.010557,0.578499,-0.038962,-0.087634,-0.052521,-0.668427,0.214008,-0.023185,-0.027014,0.199460,0.410323,-0.067908,-0.389559,-0.477733,-1.484480,0.246063,-0.092390,0.001081,0.739127,0.125500,0.429367,0.867935,0.017168,-0.554433,-0.205266,0.193466,-0.392536,-0.149892,-0.304165,0.011243,0.214479,0.912551,0.173755,-0.227907,-0.136474,0.201091,-0.840324,-0.879317,0.506041,-0.041142,0.199015,-0.234773,0.983077,0.332951,0.014292,0.166200,-0.127165,0.139267,-0.105890,-0.316866,0.601928,0.205935,-0.263094,-0.466636,-0.044421,-0.246412,0.172515,-0.068905,0.301420,0.302962,-0.076247,-0.333791,-0.118179,0.553741,-0.213926,1.089678,0.123689,0.179554
-0.095592,0.330062,0.262716,0.332224,0.575560,0.328681,-0.258853,0.082184,-0.080100,-0.056141,-0.428055,0.308501,-0.442962,0.242718,0.046583,-0.206236,-0.040523,0.080401,0.044617,0.035985,0.448643,0.441243,0.256910,0.237230,-0.183213,-0.103694,0.340035,0.041717,0.864839,-0.651315,0.217008,0.982948,0.608242,-0.274026,-0.187681,-0.023581,0.088604,-0.587583,0.126496,-0.564372,0.059378,0.047615,-0.233096,-0.058860,-0.220877,0.315391,0.283399,0.748679,0.256853,0.225712,0.140420,0.076492,0.270978,-0.116962,-0.039306,0.382714,0.230464,-0.190447,-0.366862,0.611371,-0.058676,-1.291813,-0.008905,0.382024,-0.561981,-0.113682,0.138621,0.174939,-0.026334,-0.378787,0.279657,-0.071275,0.345699,-0.199151,-0.429124,-0.272341,-0.048656,-0.142734,0.280512,0.126758,-0.065432,-0.186835,-0.125746,-0.343185,-0.020498,0.683504,0.145744,0.371698,0.170051,-0.081139,0.903235,0.427038,-0.056447,-0.046160,1.058502,0.345681,-0.366933,-0.353941,0.323722,-0.289941,-1.301405,0.100372,0.406395,0.280474,-0.302549,-0.510810,-0.304527,0.274021,-0.265013,0.574531,0.303845,-0.203268,-0.052465,0.213409,-0.345073,0.051774,-0.588981,0.455392,-0.112102,-0.251633,-0.025993,0.130831,-0.488097,-0.076586,-0.036228,-0.575825,0.008079,-0.080120,-0.022407,-0.340846,0.687017,0.047220,-0.328685,-0.168227,0.238224,-0.367563,0.158488,0.136183,-0.731898,-0.479657,1.002295,-0.261054,-0.018756,0.566740,0.196580,-0.001758,0.147652,0.004694,0.200341,-0.046870,0.382513,0.319246,-0.485715,0.076654,0.106173,-0.046226,0.204745,-0.126803,-0.179027,-1.058583,-0.047072,-0.318991,0.409722,0.167415,-0.503225,0.359522,-0.031155,0.263617,-0.194271,0.343466,0.028088,0.105894,-0.374470,-0.383447,0.118067,0.428355,-0.322505,0.008206,-0.684621,-0.197695,0.010342,0.268680,0.322873,-0.072811,-0.394728,-0.081560,0.105717,0.407953,0.172543,0.092475,0.343262,-0.328491,0.421167,0.026182,0.104885,-0.394459,-0.109641,1.605281,-0.093744,-0.094528,0.453343,-0.330795,-0.181301,0.295842,-0.481985,0.457719,-0.098016,-1.513709,0.481474,0.568997,0.011692,0.145072,-0.117767,0.344578,-0.169929,-0.290810,0.486904,0.043362,0.393402,-0.351674,0.619776,-0.122122,0.121067,0.011904,-0.219268,0.442535,1.092945,0.202545,-0.328764,-0.358092,0.119957,-0.213162,-0.108248,0.134579,-0.024957,-0.027955,-0.366472,0.015465,0.333868,-0.044967,-0.069151,-0.103313,-0.192204,0.639740,0.533731,-0.312490,0.026941,-0.264381,-0.189410,-0.504225,0.269111,0.027976,-0.266486,0.059576,-0.654180,0.547715,-0.263495
0.264099,0.054093,0.139105,0.441334,-0.397651,0.038894,-0.377702,0.332126,0.059954,0.048223,-0.305073,-0.478064,0.012992,0.229313,-0.081052,-0.276844,-0.402671,-0.067259,0.352447,0.098512,0.164563,0.246952,-0.019083,-0.096508,-0.096629,-0.167211,0.489190,-0.489643,0.237620,0.216788,0.710928,0.528831,0.193598,-0.157896,-0.291246,-0.190442,-0.007678,0.362169,0.081669,0.116256,-0.555099,-0.269901,0.020850,-0.082098,-0.232293,1.055301,0.504564,-0.105660,0.156949,0.494488,0.754468,-0.226245,0.714548,0.168786,0.026751,0.069789,0.552330,0.143536,-0.623568,0.020673,-0.458896,0.215007,0.387560,-0.059903,0.058059,-0.102733,0.235012,0.482781,-0.180724,-0.268126,0.113570,0.590872,0.180546,-0.360790,-0.937746,-0.308416,-0.157309,0.098074,0.295421,0.141976,-0.359484,-0.491308,-0.027349,-0.448749,0.209864,0.100710,-0.048682,-0.288725,-0.058008,0.112662,0.516395,-0.403878,-0.266701,-0.098208,0.123674,0.398684,0.053909,-0.242176,0.016531,-0.182811,0.307786,-0.226629,0.027218,-0.072295,-0.078758,0.207439,0.401235,-0.172904,0.299694,0.120268,0.273291,0.497739,0.137079,-0.083315,0.347504,-0.171209,-0.054610,0.237709,0.261158,-0.067501,0.287266,0.795025,0.052983,-0.320750,-0.425726,0.162060,0.083724,0.042429,0.087579,-0.190312,0.908979,0.059233,-0.331672,-0.216297,-0.011892,0.436169,0.360600,-0.110173,-0.806823,-0.332715,-0.132644,0.359617,0.240666,-0.017495,0.098900,-0.761604,-0.002647,-0.493925,0.139498,-0.174386,0.083132,-0.567687,-0.573406,-0.841659,-0.141185,0.053861,0.212897,-0.208729,-0.157397,0.289303,-0.259520,-0.315251,0.183918,-0.393238,-0.305213,0.172009,0.055360,-0.092906,-0.035290,0.425624,0.071443,0.057233,-0.506066,-0.651004,-0.371655,0.402638,-0.148131,-0.016932,-0.235759,-0.249687,0.320222,-0.095425,0.119876,-0.102306,-0.525928,-0.229162,0.245691,0.015136,0.281006,-0.976267,-0.120699,0.073977,0.054437,0.453468,-0.022988,-0.350414,0.243841,-0.606553,-0.085223,0.179233,-0.087053,0.325287,-0.597556,0.040691,-0.111145,0.107352,0.048534,-0.932408,0.261507,0.215061,-0.101605,-0.044556,0.082616,-0.296915,-0.162046,-0.668813,-0.021266,-0.228454,0.119896,0.021347,-0.490296,0.414435,-0.845742,0.219250,-0.600019,-0.204886,-0.761628,0.213973,-0.322084,0.023957,-0.139133,-0.299509,-0.181022,-0.276475,0.009367,-0.226277,-0.023004,-0.230162,0.178911,-0.219319,-0.143375,-0.025347,0.179063,0.133996,0.394988,-0.440200,-0.140673,0.086543,-0.116975,-0.162247,0.208391,0.157907,-0.180081,0.123832,-0.139296,-0.280729,-0.096031
0.004471,-0.018561,0.068552,0.356350,0.384006,-0.096561,0.100883,-0.157248,-0.426574,-0.257460,0.195524,-0.015991,0.484020,0.361665,0.171342,0.150446,-0.436839,-0.006971,0.296743,-0.122734,-0.333089,0.001917,-0.099708,0.466621,-0.414007,-0.189187,0.058561,-0.017550,-0.285226,0.156527,0.332203,-0.251368,0.109059,0.174984,-0.220159,-0.181751,-0.124479,0.125731,-0.654720,-0.119357,-0.425505,-1.629428,-0.122261,-0.468593,-0.514233,0.480383,0.810212,-0.107756,-0.099719,-0.198978,0.262867,-0.111040,0.003586,0.031981,0.201548,-0.365977,-0.076055,-0.291103,0.352384,0.663568,-0.224847,-0.145528,-0.230205,-0.406497,-0.175203,-0.262694,0.120736,-0.128660,-0.077352,0.461637,-0.102540,-0.676692,0.056946,-0.144266,-0.265246,-0.168235,-0.017059,0.283638,-0.028446,-0.107605,0.094318,0.115568,0.090563,-0.247072,-0.434833,-0.544898,-0.019276,-0.504040,-0.014310,-0.073070,0.438376,0.100857,0.004072,0.100337,-0.058540,-0.234175,-0.322720,-0.028808,0.145801,-0.302778,-0.677983,-0.197682,0.098358,0.251867,0.453750,-0.007404,-0.023466,0.203207,0.051152,-0.289563,-0.023375,0.005327,0.199644,0.118134,-0.447212,-0.270286,-0.043452,-0.254803,-0.000542,0.107124,-0.236270,-0.083049,0.028948,-0.060752,-0.124007,0.508202,-0.176743,0.175096,0.322622,-0.122943,-0.108798,0.393113,-0.022421,-0.617752,-0.332716,0.203439,0.357151,-0.046084,0.088655,-0.104482,1.632142,-0.252751,-0.334229,-0.025713,0.284638,-0.210197,-0.198683,-0.084446,-0.232343,-0.236511,-0.196444,-0.069923,0.530978,1.183281,-0.037719,0.348825,-0.031487,0.028984,-0.382699,0.268963,-0.210823,-0.369573,-0.061139,0.196098,0.125108,-0.165853,-0.011554,0.058864,0.022418,0.356983,-0.244097,-0.279052,-0.380629,0.147145,0.104086,-0.349657,-0.143981,0.155657,0.255555,-0.000085,0.253772,-0.248358,0.199065,0.809133,0.152538,0.071669,-0.242302,-0.177773,-0.115085,-0.363858,-0.617211,-0.101124,-0.318120,0.111518,0.255229,-0.217131,-0.043557,-1.415762,0.014130,-0.407779,-0.140738,-0.194545,0.239186,0.489998,-0.150542,0.065937,-0.000234,0.362638,-0.296727,0.258650,-0.002233,-0.042864,0.159454,0.024370,-0.198894,0.322903,0.145965,-0.178568,-0.007216,0.287111,0.579758,-0.222904,-0.504453,0.475190,-0.356706,-0.062033,0.015848,0.334176,-0.337709,0.400708,0.129325,-0.142102,0.112205,-0.090712,-0.327438,0.182969,-0.115070,0.203301,-0.101379,0.318817,0.063901,0.182673,0.047534,-0.000221,0.252350,0.215507,0.009885,0.206065,0.065360,-0.145297,-0.008395,-0.014744,0.396528,0.160711,-0.603316,0.282007,-0.344711
0.302846,-0.320558,0.254820,-0.080918,0.198283,-0.090821,0.011427,-0.446147,0.248178,0.087997,0.124541,-0.316507,0.060306,-0.034026,-0.513806,-0.329722,-0.066648,-0.052141,0.172918,-0.328191,0.021487,-0.060612,0.134963,0.325728,0.293570,-0.061497,-0.043762,0.071588,0.085619,-0.103205,0.135388,-0.732772,-0.818656,-0.086231,0.311062,0.040780,0.146684,0.208632,0.185566,0.628998,-0.155652,-1.242697,0.137929,0.187876,-0.065467,-0.288546,0.122918,0.452942,0.324632,-0.858194,-0.349097,-0.241303,-0.398703,-0.100510,0.017005,-0.328051,-0.015946,-0.198052,0.068957,0.047303,-0.452578,-0.250425,0.540197,0.182368,0.154457,-0.162427,-0.431426,0.012777,0.582473,0.637030,-0.147609,0.047138,-0.189567,0.093430,0.127603,-0.337226,0.240987,0.224575,-0.133037,-0.301563,0.096795,-0.136368,-0.044157,0.236072,-0.647891,0.255404,0.012865,0.265392,0.611484,-0.230566,-0.122492,-0.413310,-0.401659,-0.148028,-0.431944,0.225336,-0.076749,-0.042131,0.269964,-0.118074,0.174959,-0.542098,-0.195672,0.245010,-0.202041,-0.009836,-0.005420,-0.312818,-0.415544,-0.330231,0.387595,-0.060768,0.139309,-0.815659,0.080724,-0.230848,-0.118997,0.196580,-0.050263,0.376566,0.029656,-0.125372,0.100315,0.291165,-0.177307,0.139626,0.175160,0.105872,-0.188843,-0.774611,0.624284,-0.025108,0.015518,0.660389,0.078979,0.668987,0.043362,0.000618,-0.201581,0.417179,-0.200679,0.461902,0.468013,-0.544397,0.171623,0.005725,0.006102,0.125771,-0.105365,0.075493,0.268003,0.200716,-0.039590,0.423496,-0.391438,-0.644149,-0.165610,0.074986,-0.104323,-0.127843,0.590686,0.508775,0.118146,-0.133803,0.190499,0.143683,-0.311060,0.030576,0.001951,-1.131779,0.568264,0.320995,0.582324,0.137558,-0.238679,-0.013399,-0.213560,-0.642899,0.316074,0.234994,0.019618,-0.133272,0.103673,0.041376,0.186971,-0.063759,0.233106,-0.493640,-0.022368,1.092008,-0.281451,-0.045953,0.255058,-0.122390,-0.131454,0.011218,0.363640,-0.261973,0.151346,0.501113,0.260970,0.426919,0.239404,0.006329,-0.053654,0.208238,-0.087582,-0.161483,-0.249812,-0.003071,-0.284969,0.102339,0.245700,0.139252,0.075343,0.656060,-0.312990,0.336286,0.462727,-0.054021,-1.064444,-0.033016,-0.602546,-0.021496,-0.390789,1.159411,-0.314827,-0.244929,-0.059749,-0.558914,-0.180323,0.387914,-0.162835,-0.062907,-0.075186,-0.338624,-0.082129,-0.228477,0.203869,-0.148711,0.488897,-0.440707,-0.092249,0.048638,0.157351,-0.238582,-0.067599,0.166322,0.021634,-0.333575,0.285535,0.312583,0.260853,-0.205455,1.194846,0.222920,-0.106753
-0.096650,0.126357,0.252754,0.011843,0.086933,-0.121829,0.214489,0.167306,-0.163090,-0.230596,0.172756,0.931665,0.060355,-0.349799,0.234404,-0.186710,-0.024587,0.025937,0.371045,-0.136914,-0.526901,-0.003978,-0.013816,-0.014485,-0.091774,0.118322,0.454367,-0.015359,0.131170,-0.118342,-0.312126,-0.821117,-0.126830,0.507104,-0.369623,0.091197,0.223363,0.279121,-0.371522,0.081413,0.123701,-1.440844,-0.071555,-0.539287,0.075669,-0.723185,0.609403,-0.562884,0.697774,-0.370845,-0.021736,0.560650,-0.286962,-0.010943,0.220450,-0.807989,-0.003218,-0.176722,0.158048,0.126323,-0.007398,-0.088613,-0.397269,0.186624,0.075836,0.037527,0.289598,-0.491094,0.302839,-0.131092,0.137478,-0.474192,0.016086,0.010234,-0.371755,0.540535,0.252883,0.067972,0.338967,-0.252334,-0.072400,0.110665,0.307505,0.914278,-0.076286,-0.279155,0.359738,-0.667221,0.012017,0.322704,0.520408,-0.373763,0.297163,0.355404,0.135901,-0.171729,-0.408804,0.028584,0.708738,-0.132426,-0.634428,0.037097,0.441880,0.072246,-0.068933,0.040557,-0.302413,0.299011,-0.186965,-0.082432,-0.247106,-0.211398,0.012034,0.331328,-0.268286,-0.044003,-0.065860,-0.116386,0.139565,0.230207,-0.014242,0.384116,-0.421140,-0.202702,-0.255253,0.766922,0.093675,0.235188,-0.134513,-0.588295,-0.127285,0.332916,0.129326,-0.632133,-0.187906,-0.035712,-0.214199,-0.218623,0.759340,-0.224526,0.651095,0.126870,-0.354261,0.182594,-0.144942,0.011849,0.274905,-0.327330,0.134278,-0.056645,-0.154957,0.467790,0.316471,1.100663,0.045817,0.037351,-0.271631,0.339447,-0.455003,-0.485399,-0.198180,-0.186394,0.270370,0.814222,-0.266555,-0.009691,0.881760,0.095084,0.204381,-1.896576,-0.272549,-0.160235,-0.215007,-0.083687,-0.271008,-0.463095,-0.030863,0.179471,-0.109150,0.026689,-0.468505,-0.503039,-0.771539,0.145818,0.938947,0.221310,0.042377,-0.235793,-0.426817,-0.749972,-0.409387,0.197837,-0.183916,0.506399,0.248016,-0.008338,-0.100659,-0.921537,0.126041,-0.005964,-0.946181,0.052493,-0.274438,0.215887,-0.459243,0.234211,-0.054792,0.367117,-0.146501,0.297721,0.448776,-0.216598,-0.102623,-0.378450,-0.018629,-0.127668,0.112659,0.132055,0.038500,0.292955,-0.107088,-0.154761,-0.496828,0.593108,0.100497,-0.111480,0.093606,0.160974,0.332171,0.449252,0.380441,0.403945,0.206461,-0.013424,-0.022160,0.522244,-0.182370,-0.119600,-0.475299,-0.006717,-0.015010,-0.041629,-0.320463,-0.286481,-0.403372,0.581568,-0.074681,-0.061060,-0.768144,0.181808,-0.062115,-0.084983,0.074966,-0.135999,-0.155008,0.528733,0.258388
0.263118,0.096046,-0.336749,0.211699,-0.696117,0.341060,-0.237953,-0.096427,-0.199115,0.277492,-0.157239,0.027369,0.074823,-0.673060,-0.341552,0.295323,-0.517515,-0.151061,0.201090,0.237353,-0.108844,-0.200823,-0.006792,-0.296924,0.092379,-0.294366,0.249038,0.140315,0.043820,-0.042479,0.377901,-0.226755,-0.424806,0.207921,0.245468,-0.125680,-0.339258,0.943836,0.085126,0.001273,-0.064896,0.690277,0.170915,-0.155480,-0.212090,0.559628,-0.788828,-0.329070,-0.027133,0.000804,-0.333794,0.075572,0.083952,-0.253657,0.079021,-0.174638,-0.054141,-0.123998,0.004715,0.397072,0.134740,0.205300,-0.293646,-0.262032,-0.441963,-0.192627,0.185761,0.199770,0.531804,0.699655,0.148722,-0.297161,0.144387,0.032559,-0.126929,-0.644547,0.138831,0.144807,-0.123784,-0.363529,0.049286,0.131301,0.112892,-0.506296,0.118169,0.141950,-0.504817,-0.190934,-0.201717,0.050436,-0.312850,-0.040160,0.283484,-0.112053,0.624572,0.028748,-0.352629,-0.318545,0.123775,0.271163,-0.010396,-0.548579,-0.230834,0.079413,0.350087,-0.073666,0.237663,-0.208439,-0.049521,0.060005,-0.092208,0.169481,-0.060358,-0.316465,0.155304,-0.589327,-0.158920,0.126624,0.159187,-0.005948,1.098676,0.078541,0.461910,-0.263455,-0.117504,-0.525580,-0.185002,-0.101839,0.153884,-0.639312,-0.150242,-0.174394,-0.268482,-0.198689,-0.097660,0.050568,-0.091506,-0.084467,-0.398472,0.162172,-0.197309,-0.275038,-0.188082,-0.574606,0.307680,-0.262606,-0.017965,-0.055572,-0.336275,-0.274179,0.207079,-0.289819,-0.344292,-0.220226,0.528956,-0.049419,-0.101772,-0.606660,-0.283629,-0.151050,0.103461,0.006011,-0.114812,0.022983,0.075835,-0.067374,-0.364077,0.089388,0.191196,0.148339,-0.148245,0.344535,-0.403659,-0.018734,0.043509,-0.089880,0.081278,0.462633,0.228993,-0.372122,-0.093680,0.293239,-0.005165,0.341132,-0.126159,-0.131306,-0.032076,0.099343,0.048203,0.001234,0.112340,0.254476,0.265369,-0.216881,0.126971,-0.124867,0.056010,0.116016,-0.085340,0.076898,-0.369997,0.493218,0.354697,-0.143998,-0.069263,-0.159494,-0.055571,-0.460578,-0.372544,-0.583553,-0.376013,0.096526,0.313487,-0.454449,-0.294049,0.700966,0.031717,-0.318701,-0.115759,0.169708,0.375117,0.462828,-0.135856,-0.119548,-0.084582,-0.209365,-0.539128,-0.038612,0.020592,0.097987,0.119016,-0.248145,-0.136432,0.119575,0.015042,-0.257356,-0.009501,-0.183669,0.823657,0.060689,0.337636,0.328673,0.154947,-0.226998,0.084963,0.045333,0.154674,0.376961,-0.133333,-0.198019,-0.009201,0.064621,0.090469,-0.059021,0.834566,-0.220203,-0.463082
0.066992,-0.061728,-0.277493,-0.266114,-0.213184,0.213607,0.468439,-0.272710,0.341156,-0.610990,0.376442,0.320239,-0.217129,-0.841601,0.283476,0.467131,0.286898,-0.035138,-0.343593,0.003058,0.545581,0.356061,-0.155782,0.151947,-0.188940,-0.055882,-0.187493,0.277752,-0.041779,-0.100878,-0.421750,-0.641525,-0.321280,0.222058,0.239306,0.299919,0.191604,0.498908,-0.075619,0.119032,0.068250,0.093397,-0.247747,0.141210,0.396755,-0.738572,-0.062192,0.501745,-1.467173,0.768126,-0.699875,-0.125967,0.610066,-0.074182,-0.310621,0.419901,-0.242376,0.233836,0.297890,-0.405876,0.223614,0.586445,0.301654,0.447934,0.094766,-0.117200,-0.106387,0.127315,-0.141468,0.417231,-0.304821,-0.304944,0.013618,0.030094,0.379164,0.189759,0.097843,-0.187828,0.338560,0.013851,0.386321,0.134826,0.239206,0.020681,0.055028,0.634575,0.357852,-0.233383,-0.201807,0.084069,-0.074468,0.203595,0.014192,0.011590,0.051235,0.210392,0.490527,-0.164385,-0.885755,0.062702,0.193682,0.867661,-0.216342,-0.044210,0.329737,-0.011810,-0.429867,0.216487,0.467282,-0.163228,-0.216317,-0.020084,-0.228614,-0.012166,0.619684,-0.069481,0.617468,-0.285511,0.125500,0.041938,0.481499,-0.246375,0.137144,0.100447,-0.009202,0.314689,0.111744,-0.066657,-0.025671,-0.444131,-0.084575,0.767859,0.451131,-0.369310,-0.101046,0.265219,-0.099748,0.063790,0.418436,0.424145,-0.470741,-0.098936,0.065803,-0.316085,-0.279317,0.422772,-0.246491,0.152202,-0.253349,0.164923,0.029736,0.281182,0.561871,0.015878,0.228859,-0.163621,-0.181277,0.371992,-0.347866,0.541245,0.102771,0.221386,0.207728,0.132167,0.193006,-0.212539,-0.419813,-0.052074,0.113715,0.399442,0.172386,-0.168182,-0.483530,0.537077,0.048863,0.034655,0.005768,-0.164185,0.625182,-0.059613,0.281743,-0.087931,-0.291186,-0.080776,-0.289833,0.396354,0.333986,-0.411988,-0.075695,-0.116621,-0.704243,0.114737,-0.074840,-0.214211,-0.190779,0.080142,-0.147203,-0.037695,-0.049025,-0.217484,-0.011805,0.341136,0.420691,0.450347,1.264614,-0.106447,0.040565,0.861245,-0.568013,-1.008736,0.298286,-0.071046,0.062700,-0.082891,0.400569,0.532500,0.174800,0.065112,-0.407783,-0.176106,0.263459,-0.084262,0.228593,-0.431971,-0.272147,-0.032176,0.136155,-0.740809,0.100295,0.382626,-0.023977,-0.128850,-0.385953,0.394922,0.149853,0.304201,0.033179,-0.011577,-0.402540,0.438051,0.068953,0.143311,0.356624,-0.056075,-0.048633,-0.089444,-0.039554,-0.154592,0.070632,0.226755,0.006788,-0.190651,0.003099,0.248337,-0.456680,0.185273,0.311890
0.018816,0.022863,-0.174884,-0.436125,0.116601,-0.165874,-0.483148,-0.085937,0.370079,0.109463,-0.079444,-0.210268,-0.167806,0.242961,-0.415095,0.620876,0.801448,-0.038341,-0.159701,0.177818,-0.553083,-0.483857,0.071387,0.424152,0.584383,0.214083,0.077729,0.039248,0.012132,-0.283846,0.436897,-0.624950,-0.448219,0.382635,-0.330394,0.356714,-0.229729,-0.870198,0.232813,0.184393,0.665907,0.630734,-0.229712,0.640388,0.250515,0.107219,0.467817,-1.050187,0.597953,0.630100,-0.016141,-0.705980,-0.505594,-0.137560,-0.197805,0.564761,0.403565,-0.092262,-0.161932,-0.036405,-0.016165,0.065958,-0.790103,-0.604016,0.201344,-0.042793,0.008566,-0.184574,0.043257,0.559070,0.183408,1.136898,-0.369189,0.269071,-0.078191,0.653550,0.315823,-0.038478,0.028919,-0.025736,-0.262910,-0.227764,-0.143859,0.377237,-0.382377,0.128552,0.127282,0.298185,-0.602987,0.006741,-0.691465,0.172179,-0.362059,-0.177623,0.989129,-0.161288,0.287778,0.080067,0.709233,-0.263785,0.409655,-0.291681,-0.631973,-0.255790,-0.958966,-0.031192,0.128396,0.138215,0.311744,-0.188756,-0.335545,-0.065806,0.051574,-0.304049,0.015288,0.676419,-0.199098,-0.182527,-0.121779,-0.137601,-0.307844,0.374440,0.004023,0.193517,0.090852,-0.076990,0.144135,-0.174753,-0.154037,-0.683934,0.384555,-0.558882,-0.010257,0.750458,0.190718,0.523677,-0.144562,-0.190061,0.492849,0.367367,-0.556853,0.179039,0.166989,0.173037,-0.466739,0.005796,0.522527,-0.056763,0.079424,-0.135255,-0.159349,0.004433,-0.336226,0.059908,0.259257,-0.357106,0.063518,0.184612,-0.097999,-0.409214,0.156483,0.521141,-1.239506,-0.480091,0.376557,0.321021,0.874199,0.149567,-0.076892,0.258049,-0.024209,-0.035592,0.494178,0.520811,-0.636241,0.041217,-0.262178,0.732045,0.105072,0.099703,-0.082058,0.362273,-0.213136,-0.483886,0.509021,-0.062478,-0.493203,0.022605,0.243832,-0.084758,-0.948943,-0.031014,-0.131401,-0.017326,0.251385,0.082893,0.114975,-0.464428,-0.106951,-0.429744,-0.165080,-0.048024,0.178197,-0.601191,-0.269985,-0.038234,-0.345895,0.664824,0.010128,0.475135,0.584447,-0.086511,0.141598,0.077566,0.097160,-1.909540,0.120595,0.149576,-0.608280,-0.104406,-0.012837,0.032292,0.302170,0.188058,0.741943,-0.939921,-0.007970,-0.237750,-0.062588,-0.891368,-0.471850,0.247629,-0.172921,-0.247252,-0.117781,0.260365,0.099553,-0.107741,0.233976,-0.428171,-0.284387,-0.061471,-0.046446,-0.289441,-0.332795,0.490115,-0.028502,0.151584,-1.200585,0.094107,0.027866,0.149550,-0.061023,0.022697,-0.328618,-0.143960,0.514686
-0.190472,0.125745,0.046731,0.259246,0.076750,-0.176356,0.259979,0.299647,-0.258056,0.245579,0.161136,0.069653,0.233869,0.483741,0.762442,0.266133,-0.043418,-0.145902,-0.193871,-0.034697,0.355501,-0.196746,0.045364,0.296890,-0.176883,0.121380,-0.626853,-0.284018,0.065204,0.821271,0.225064,0.773456,0.336709,-0.192847,-0.234431,0.064748,0.041709,-0.930062,0.044732,0.312982,-0.180040,0.006774,0.237312,-0.314320,-0.031174,0.095694,0.015395,0.273616,-0.656749,-0.067736,0.307790,0.187653,0.023080,-0.206110,0.136348,0.205693,-0.097119,-0.106773,-0.021327,-0.171213,-0.082905,0.503867,0.168997,0.474944,-0.179295,-0.071942,0.078313,-0.327211,-0.186061,0.401334,0.089131,-0.029616,0.049601,-0.065206,-0.062825,0.472146,-0.191516,0.143973,-0.021714,0.234403,-0.469729,-0.319260,-0.239115,-0.321964,-0.206744,-0.207940,-0.271365,-0.136063,0.180147,0.187940,0.477907,-0.466648,0.013564,-0.062488,-0.190300,-0.044014,0.041006,0.158886,0.111959,-0.171286,-0.172461,0.501079,-0.136423,0.086631,-0.379250,-0.232745,0.173152,-0.212835,-0.040148,-0.007597,-0.078075,-0.176763,0.023210,0.253735,-0.142926,0.768289,-0.103611,-0.156281,0.326466,-0.337957,-0.559784,0.193860,0.137179,-0.329774,-0.182151,-0.791382,-0.064751,0.380582,-0.225264,0.116833,0.094493,-0.387254,-0.180485,0.057613,0.046314,-0.229945,0.003795,-0.083210,-0.039117,-0.197740,0.208398,-0.247630,-0.120548,0.701706,0.059551,-0.199402,0.008938,-0.147869,-0.022388,0.306224,-0.337741,-0.199738,0.484949,0.485813,-0.321715,0.319880,0.102998,-0.887549,0.280975,0.139578,0.023477,-0.261603,0.019986,-0.250426,0.045237,0.186430,-0.202913,-0.088452,0.129333,0.313880,0.023061,-0.143504,-0.322830,0.149146,0.448244,0.146420,-0.039822,0.003389,0.024885,0.057265,-0.023014,0.022691,0.272604,0.719048,0.005493,-0.067258,-0.269674,0.217553,-0.035356,0.935959,-0.311962,-0.164814,-0.228779,0.264715,0.126845,0.259889,-0.138709,1.041196,-0.010394,-0.868115,0.284148,-0.075331,-0.220517,-0.440887,0.068120,0.410476,-0.102930,0.146104,0.262357,-0.072449,-0.273248,-0.173327,-0.031650,0.333838,-0.277078,-0.848547,-0.405055,-0.113499,-0.098210,-0.021852,0.421298,0.234420,-0.282657,0.673522,-0.204182,0.184017,0.125709,0.754701,-0.059465,0.313881,-0.039085,0.342316,0.218482,-0.149279,-0.382417,0.482264,0.022720,0.229108,-0.338758,-0.071567,-0.161578,-0.067044,0.127327,0.015152,0.102749,-0.121094,-0.240231,-0.060304,0.152103,-0.109104,-0.196816,0.147022,0.038209,-0.032805,-0.213765,-0.054202,-0.119990
-0.078710,-0.359439,0.278061,0.411658,-0.444282,-0.043639,-0.193748,0.130738,-0.364707,-0.290130,0.341711,0.297648,0.134352,0.647657,0.188849,-0.093783,-0.193018,0.172923,0.091761,-0.104000,-0.286167,0.336125,-0.109930,0.062776,-0.318349,0.084001,-0.134884,-0.233891,0.086680,0.110796,0.604491,-0.031935,-0.153999,-0.084061,0.306098,-0.248892,0.030446,-0.414517,-0.422612,0.387253,0.026224,0.413204,-0.146394,0.126157,-0.178818,0.612660,-0.179825,-0.038738,-0.306732,0.850034,-0.483193,-0.193728,-0.081731,-0.204207,-0.254566,-0.246252,-0.150157,0.045940,0.103159,-0.097394,-0.429236,0.134751,0.101212,-0.641096,0.211244,-0.428138,0.084794,-0.196979,0.047057,0.271204,0.054650,0.467832,-0.042229,0.125628,-0.388967,-0.036445,-0.077368,-0.214400,0.028402,-0.292676,-0.356856,-0.040122,-0.157243,-0.256733,0.504037,-0.073809,0.210595,0.021026,-0.028461,-0.062376,-0.516141,-0.001983,0.013791,0.081270,-0.029656,0.046167,0.244303,0.057346,-0.060390,-0.251171,0.299647,-0.050442,-0.424706,0.145353,-0.199597,-0.442458,-0.114129,-0.062680,-0.441781,0.103154,0.140041,-0.817307,0.073838,0.263287,-0.342955,-0.237137,-0.206393,-0.057840,0.108984,-0.279938,-0.482065,0.114684,-0.015442,0.301379,-0.055918,0.681173,-0.068723,0.153863,0.079385,-0.330230,0.383539,-1.029194,-0.271134,0.413462,0.005529,0.113746,-0.095813,-0.088477,0.478821,0.611369,-0.239504,-0.139492,-0.051142,0.721537,-0.061339,-0.145696,0.111784,0.150569,0.256953,-0.100837,0.056136,0.234423,-0.801074,-0.432349,-0.061757,0.273714,0.143507,-0.423799,0.347953,0.241286,0.008427,-0.459517,-0.861418,-0.513874,-0.248579,0.316963,-0.212203,0.235539,0.018878,-0.377227,0.111102,0.065760,1.900010,-0.287267,-0.151856,0.057484,-0.109035,0.218692,0.074326,0.093266,0.297344,-0.116333,0.016881,0.331068,0.505019,-0.080357,-0.303775,0.081836,0.063628,-0.153901,0.091038,-0.053059,-0.311604,0.188444,-0.019300,0.111635,0.111052,0.129538,0.195050,0.049216,-0.360245,-0.629062,-0.526149,-0.303949,0.134204,-0.006175,0.023023,0.426253,-0.157437,-0.032109,-0.418687,-0.121898,0.058102,-0.350627,0.048484,-0.732203,-0.039880,0.042217,0.285461,-0.368803,-1.013761,0.171822,-0.497557,-0.032907,-0.252864,-0.227706,0.074156,0.391719,0.207429,0.056918,-0.000565,-0.100819,0.097154,-0.048008,0.001700,-0.280188,0.129169,0.108298,0.108831,-0.437168,0.510607,-0.718154,-0.050334,0.376669,0.438761,-0.162526,-0.140638,-0.149813,-1.633757,-0.039131,-0.027746,0.315688,0.268239,-0.008505,-0.044885,0.054500,-0.053412
-0.412122,0.011609,0.202936,0.089839,0.252995,0.264473,-0.142369,0.022367,-0.096980,-0.076277,-0.035697,0.021853,0.066580,0.901880,-0.206946,0.284892,-0.163140,-0.104033,-0.002385,-0.264699,0.137188,0.241037,-0.312219,0.611439,-0.241468,0.059630,-0.144245,-0.388275,1.184002,0.309382,0.129865,0.694696,-0.063366,-0.326187,-0.110883,-0.276147,-0.046526,-0.075595,0.385971,0.716232,-0.998066,-0.380677,-0.044684,-0.085577,-0.485091,0.193881,0.180010,0.621673,0.271070,0.992520,-0.234714,0.245324,-0.100567,-0.263629,-0.069448,-0.323256,-0.255942,-0.416170,-0.603248,0.174557,-0.270001,0.052050,0.290737,-0.453042,-0.269258,-0.358707,0.092168,0.037037,-0.115599,-1.055683,0.361999,0.459519,0.314027,-0.231233,-0.556584,-0.010132,-0.066721,-0.182927,-0.288498,-0.317649,-0.391910,-0.195356,-0.286617,-0.244178,0.232135,1.274975,0.964598,-0.136236,-0.220270,0.330723,0.129631,0.250924,-0.374789,-0.031899,-0.136290,0.509338,-0.084980,0.130995,0.827994,-0.328983,-0.065128,1.074386,0.018848,0.453038,0.083497,0.519144,-0.265125,-0.126494,-0.344598,0.398457,0.138657,0.238859,0.302598,0.475136,-0.227976,-0.126711,-0.177798,0.311002,0.090976,-0.296993,-0.470132,0.237316,-0.143290,-0.175037,0.622022,0.492090,0.006507,-0.082912,-0.133708,-0.008091,-0.686604,-0.131630,0.149264,0.245101,0.110656,-0.352163,0.083688,-0.007616,-0.995257,0.106359,-0.020849,-0.249922,-0.284599,0.303886,0.353600,-0.122789,0.065628,-0.283700,0.266719,-0.087747,0.193650,-0.052381,-0.054141,0.068110,-0.238942,0.040646,0.316055,-0.053870,0.754727,-0.019321,-0.152350,-0.422983,-0.350260,-0.148838,-0.314084,0.618309,0.022342,0.668722,0.056774,0.306494,0.366348,0.607327,1.067901,-0.408468,0.194197,0.360627,-0.111590,-0.267256,-0.036458,-0.028114,0.110285,0.249472,0.000005,0.397156,0.660680,0.015312,-0.264527,0.085896,0.190810,-0.187688,0.031409,-0.265456,-0.045975,0.539060,0.080605,-0.070347,0.021624,-0.619097,0.088265,-0.764101,0.126705,-0.602068,-0.412953,-0.333690,-0.145270,0.184347,-0.147766,-0.748181,0.254181,0.175896,-0.218434,-0.158705,0.200607,0.257640,-0.362851,-1.063086,-0.341489,-0.089766,0.043049,-0.278664,-1.332444,0.047049,-0.317698,0.033407,-0.114862,0.586477,0.194346,0.321045,-0.270275,-0.383204,0.218042,-0.094535,-0.117820,0.402955,-0.166105,-0.164006,-0.032469,-0.012681,0.201519,-0.111931,0.130541,-0.713637,-0.337005,0.146747,0.181548,-0.390111,-0.294004,-0.076961,-1.589243,-0.142920,-0.013376,0.478085,-0.250063,0.094850,-0.266242,0.169018,-0.430082
-0.178158,-0.031469,-0.248687,0.236892,-0.732488,-0.267388,0.266977,0.024052,0.132150,0.191575,-0.112598,0.260966,0.197530,0.550652,-0.635396,0.811718,0.157396,-0.117998,0.143282,-0.099249,0.213260,-0.299735,0.071705,0.047884,-0.204124,-0.001016,-0.400487,0.065597,-0.915215,0.214895,-0.439856,0.763095,-0.195266,0.239978,0.044577,-0.100953,-0.032664,0.104055,0.470265,0.044663,0.232306,0.036419,0.405957,-0.043520,0.470616,0.246084,0.355578,-0.885693,-0.516354,0.470506,0.276498,0.386199,0.094207,0.181353,-0.083807,0.529456,-0.398193,0.184860,0.341091,0.638158,0.167065,0.181277,-0.609538,-0.796751,0.191764,0.279093,-0.084850,-0.231439,0.011655,-0.200922,0.157466,1.070581,-0.032951,0.032749,-1.207072,-0.021885,-0.103560,0.172425,-0.146306,0.079775,0.561614,-0.011255,0.309799,0.568562,0.708902,-0.523334,0.239233,-0.329999,-0.624046,0.125365,-0.743991,-0.152199,0.237064,-0.191814,-0.119570,-0.325738,0.070914,0.043654,-0.824007,0.065612,0.051507,0.474312,0.282834,-0.079407,-0.036944,0.445147,-0.017907,0.389115,0.508267,-0.122408,-0.328174,-0.033084,-0.238902,0.420129,0.152438,-0.279021,0.585993,0.141180,-0.121616,-0.044220,-0.150674,-0.080631,0.376742,0.417446,0.846267,-0.219204,-0.207214,-0.250722,0.773760,0.673931,-0.572719,-0.174558,0.330215,0.464932,0.154493,0.000545,-0.111940,0.131039,0.382871,-0.309444,-0.092725,0.508590,-0.169797,0.388547,0.070563,-0.010350,0.073465,-0.417391,-0.165990,-0.154025,0.125455,-0.302256,0.263461,0.040671,0.194621,0.327885,0.139763,-0.346230,0.116749,-0.778516,-0.320293,0.132891,-0.118628,-0.025696,0.236323,-0.444264,-0.392928,-0.518191,-0.078610,0.708972,-0.518372,-0.245646,-0.588328,-0.196367,-0.168076,-0.232829,0.281370,0.075348,0.578781,0.001404,0.249407,0.058195,-0.424048,0.476487,0.691301,-0.063658,-0.372029,0.305822,0.247725,0.102460,-0.807448,0.151220,-0.207185,0.988460,-0.037283,0.233713,-0.165145,-0.237267,0.028445,-0.052504,0.065551,-0.339073,0.086436,0.336220,-0.686612,-0.403271,-0.000433,0.397469,-0.010091,0.089255,0.493127,0.196214,-0.077129,-0.155661,-0.087975,0.960061,0.124732,-0.108562,-0.498422,0.128720,0.288606,-0.122722,0.726319,0.190420,0.020604,0.187965,0.437876,0.343931,0.188747,-0.281832,-0.560858,0.010850,0.108955,-0.199195,0.145138,0.264825,0.039547,0.387496,-0.135704,-0.089763,-0.013987,0.115492,0.211812,0.269530,0.063939,0.285050,0.271132,0.027448,1.093157,0.878217,0.074078,-0.224058,-0.244814,-0.096351,0.038288,-0.218246,-0.028371
-0.243916,-0.090433,0.245364,-0.009702,0.451775,-0.183329,0.478790,-0.133328,-0.210099,-0.445719,0.256659,-0.752467,-0.013163,-0.166662,0.233341,-0.124177,0.181785,-0.150306,-0.163743,-0.418824,-0.231383,0.148077,-0.363914,-0.116168,0.539106,0.423774,-0.317432,0.081912,0.291549,0.060349,-0.160060,0.145975,-0.187196,0.216162,-0.265636,-0.170780,-0.171144,-0.836034,-0.603632,0.199752,0.145106,-0.565259,-0.241707,0.638531,0.395846,-0.023249,0.255636,0.164134,-0.262205,0.869436,-0.244132,0.455582,-0.269893,0.207679,-0.418708,-0.641533,0.321245,0.064848,0.232530,-0.823538,-0.204870,0.706652,0.292791,0.366210,-0.011598,0.480420,-0.590167,-0.314399,-0.156221,0.283868,-0.191790,1.107912,-0.377337,-0.183302,0.241953,0.562309,0.021373,-0.270374,-0.285890,-0.152091,-0.452804,-0.339747,-0.231349,0.234082,-0.472580,-0.133170,-0.664938,-0.669269,0.379695,-0.259372,-0.959035,0.110897,-0.175148,-0.033806,0.037322,0.034700,0.527984,0.038823,0.035784,-0.564973,-0.144920,-0.478329,-0.301473,-0.412966,0.161282,0.499962,0.015849,-0.426604,-0.607018,0.134491,-0.247855,-0.456414,-0.071014,-0.383411,-0.049682,0.541171,0.513560,-0.167860,0.038382,-0.329955,-0.389701,-0.505658,0.246894,0.233445,0.496108,0.036253,0.353008,-0.146861,-0.832283,-0.506335,-0.055176,-1.277510,-0.118888,0.171112,0.192011,-0.183289,-0.117388,0.221448,0.533137,0.710236,-0.502575,-0.100002,0.393663,0.465454,-0.174284,0.363019,0.469607,0.290962,0.415354,0.271181,0.046384,0.212123,-0.153831,-0.430912,0.129615,-0.212245,0.164605,-0.404521,0.353652,0.145066,-0.014021,0.059439,-1.141016,-0.543171,-0.232028,-0.322290,-0.094806,-0.301445,-0.086881,-0.925773,0.667070,-0.255030,0.667860,-0.286480,-0.117428,-0.119771,0.134561,-0.370957,0.280049,0.103416,-0.301291,-0.428079,0.643433,-0.515599,0.135484,0.336051,-0.684026,0.050842,-0.068520,-0.368978,-0.847778,-0.575706,0.078325,-0.140391,0.203915,0.251960,-0.203960,0.007139,0.181953,0.064133,0.031071,0.027584,-0.282981,-0.621267,-0.022592,0.124724,0.435950,0.542753,0.118632,-0.432858,-0.028274,-0.252618,0.207780,-0.163067,0.524477,-0.689600,-0.342575,0.385929,0.424437,-0.228514,-0.304154,-0.229991,0.181463,0.613591,0.195400,0.632829,0.611534,-0.485752,0.581157,-0.350042,0.938633,0.040976,0.267460,-0.035795,-0.107540,0.028750,0.234802,0.079704,-0.000834,0.068883,0.118489,-0.104667,0.081232,0.053028,-0.499471,-0.192738,-0.651315,-0.367037,-0.828588,0.167637,-0.372392,0.111718,-0.309474,-0.120284,-0.129104,-0.579234,0.407543
0.057900,-0.104040,-0.859070,-0.179015,0.134028,-0.119764,-0.269945,-0.745740,0.548317,-0.080456,0.090364,0.460584,-0.070267,-0.545805,-0.090386,-0.408622,0.248009,-0.033385,0.115233,-0.223448,-0.099886,0.683859,-0.300720,0.022294,-0.047209,-0.501662,-0.246681,0.241099,-0.567123,-0.007939,0.117687,-0.038617,0.011931,-0.020449,-0.031376,-0.598137,-0.175176,0.275523,0.077599,-0.061868,0.162055,0.257358,-0.332793,0.099895,0.140353,-0.472383,-0.013902,-0.400808,0.648038,0.028168,-0.371610,1.546515,-0.012901,0.239104,-0.077890,0.157621,0.169472,0.289116,0.633208,-0.575312,0.189530,-0.082465,-0.062370,1.345975,0.250656,-0.186241,-0.033476,0.021309,0.721393,-0.804474,0.283860,0.204287,0.057466,-0.159462,0.199833,0.333133,-0.107761,0.180607,0.014000,0.036090,0.175090,0.324830,-0.032648,-0.120339,0.442709,-0.836342,0.151124,-0.013063,-0.174355,0.175219,-0.646946,0.434510,0.359680,-0.075335,-0.104477,-0.286605,0.336787,-0.050622,-0.365564,0.175459,0.256910,0.016604,-0.020095,-0.490593,-0.111178,0.888586,0.076539,0.161059,0.198581,-0.170260,-0.045843,0.281940,0.082281,-0.527874,0.714320,0.237293,-0.064955,-0.260732,-0.456882,-0.058260,0.174578,0.117085,0.285957,-0.160315,0.168062,0.651799,0.007842,0.132840,0.237517,0.730849,-0.282633,0.698891,-0.089834,-0.363018,-0.167335,-0.373385,0.101315,-0.013937,0.337006,0.376187,-0.260264,-0.038449,0.157080,-0.382228,0.110812,0.267040,-0.060054,0.036244,0.032464,0.169411,-0.140048,-0.080311,0.597819,-0.037879,0.100277,-0.140768,0.053671,0.896300,-0.443216,-0.021064,0.202104,0.435981,0.119741,1.055475,0.260467,-0.396951,0.559476,-0.121144,-0.069651,-0.508704,-0.250701,-0.153494,-0.362922,-0.010117,-0.104997,-0.101697,-0.356201,0.253776,0.014717,0.135989,-0.150932,-0.190382,-0.646941,-0.467518,0.078993,0.120503,0.011064,-0.272906,-0.155064,0.634953,-0.689816,-0.010299,-0.604654,-0.815088,-0.101802,-0.056557,-0.205898,-0.303341,0.033368,0.455277,0.548001,0.446465,0.290297,0.223122,0.252224,0.080343,0.005478,0.445468,-0.538867,-0.122448,0.620377,0.211514,0.155526,-0.002073,0.092733,0.389738,0.339138,-0.086918,-0.276753,-0.330258,0.094149,0.041590,0.532068,-0.446006,-0.128401,-0.570148,0.470138,-0.292033,0.167034,0.482581,0.566179,-0.054195,0.100709,-0.344972,0.331162,0.385403,-0.171364,-0.197808,0.194177,0.140277,-0.164571,0.339882,0.086171,-0.164682,0.381846,0.503950,0.141695,-0.224074,0.007785,0.352872,0.240079,-0.184904,-0.124091,-0.028963,0.694897,-0.263592,-0.232774
0.298610,0.130164,-0.049340,-0.050160,-0.574361,0.019063,0.447096,0.247258,-0.497830,-0.040652,-0.402354,-0.243441,-0.006397,0.408009,-0.270979,-0.440993,-0.715914,-0.249006,-0.207466,-0.150931,0.633930,-0.418366,0.868907,0.218985,0.224981,-0.208132,-0.115952,-0.665857,0.165742,0.248786,0.034542,-0.117957,1.266848,0.393978,0.048509,-0.035463,-0.160073,0.147842,-0.126314,0.299739,-0.044554,0.179559,-0.203385,-0.181795,0.537502,-0.383739,0.115654,0.418527,-0.517555,-0.175150,-0.566256,0.666875,0.514390,-0.089328,0.010756,0.369544,0.618512,-0.009732,0.463481,-0.299809,-0.116386,0.203330,-0.553052,-0.191363,0.187944,0.099786,-0.494583,0.573792,0.236168,0.528901,0.538658,0.243936,0.341863,-0.179246,0.046815,0.399344,-0.436861,0.215769,-0.151874,-0.576193,-0.153867,-0.097049,0.259753,-0.291907,0.449231,-0.387763,1.038990,-0.156009,-0.181555,0.655398,-0.305612,0.696006,-0.552599,0.521870,0.286049,0.050820,0.413446,0.359429,-0.136778,0.050085,-0.572590,0.387420,0.271734,-0.399419,0.408356,-0.479953,0.371187,0.241853,-0.311320,-0.292571,-0.029255,0.019870,0.420654,0.186419,-0.057751,-0.721985,0.122153,-0.283099,-0.637171,-0.524352,-0.434772,-0.913949,-0.205923,-0.310391,-0.650481,0.144309,-0.331262,-0.252033,0.198547
0.158621,0.435970,0.366814,0.942835,0.389856,0.264603,-0.408107,0.378012,0.221478,-0.155681,-0.373928,0.035192,-0.109093,-0.756128,0.757875,0.001005,0.400891,0.004540,-0.359357,-0.029825,0.181988,1.065986,0.024430,-0.627195,0.453092,0.453170,0.258772,-0.115625,-0.113854,-0.185902,0.211329,-0.301854,-0.445253,-0.259529,-0.289151,0.104195,-0.287472,-0.001909,0.032996,0.303688,-0.276142,0.068110,-0.738955,0.219259,-0.362983,0.618660,-0.229232,0.294584,0.410757,-0.930771,-0.386797,-0.342537,-0.177070,0.467803,0.079544,-0.095729,-0.236497,0.265638,-0.163691,-0.177340,0.244909,0.000864,0.024446,0.277711,0.116597,-0.111350,1.232738,-0.234392,-0.005814,0.442453,0.704498,0.326937,-0.142665,-0.228031,0.405397,0.456639,0.347573,0.308936,-0.135020,-0.365939,-0.025534,-0.150269,0.083135,-0.278643,-0.656499,-0.120550,-1.025769,0.479394,-0.313251,-0.364180,-0.765922,-0.056833,-0.025493,-0.365001,0.064065,-0.175512,-0.715042,0.197958,0.473459,-0.472141,-0.361582,-0.606714,0.446705,0.249936,-0.266885,0.092245,-0.150609,-0.312482,0.259658,-0.443668,-0.326551,0.084078,0.275157,-0.154015,0.117700,0.622715,-0.599182,-0.541527,-0.385799,-0.395523,0.291271,0.625366,0.337588,0.041952,-0.178529,0.077693,0.446889,0.691925,0.485653
-0.494912,0.265949,-0.309228,0.799767,0.134399,0.277945,0.170179,0.166393,0.904072,0.112124,0.546879,0.213613,0.240181,-0.303222,0.366950,0.247004,-0.130870,-0.328065,-0.343047,-0.380639,0.338992,0.319904,0.157350,0.666867,-0.551493,0.036862,0.745332,-0.227974,-0.571917,0.439128,-0.167194,0.351327,-0.873795,0.045320,0.030586,0.399988,-0.424930,0.083673,0.411961,0.698115,-0.086409,0.132141,-0.168982,-0.110293,-0.220132,0.719983,0.159812,-0.668609,0.319049,0.025834,0.287810,-0.389225,0.065539,-0.430057,-0.392305,-0.072817,-0.346216,-0.362884,0.572095,-0.952529,-0.110716,0.380631,0.401239,0.108847,0.354839,0.358211,0.206216,-1.029418,0.295546,0.235234,0.268012,0.198275,0.301599,-0.391838,-0.349006,0.267035,0.448642,-0.068194,0.028351,0.537230,0.333941,0.171920,-0.136897,0.442877,-0.627906,0.484272,-0.416889,-0.788219,0.334616,-0.201752,1.158605,-0.278940,-0.091452,0.154212,0.205105,0.379349,-0.659064,-0.043308,0.482055,-0.159196,-0.079661,-0.799380,0.663654,0.290773,0.105901,0.104738,0.014269,-0.714270,0.061328,0.129516,0.001397,0.188515,0.540524,0.041381,-0.343897,-0.200542,-0.356204,-0.086635,0.133299,-0.072283,-0.244648,0.324214,0.023042,-0.475329,0.456370,0.082907,0.289237,-0.185124,0.009220
-1.329927,0.539726,-0.299587,0.100131,-0.045293,-0.509206,0.050214,0.373281,0.255545,0.270508,-0.041115,0.727707,0.881490,0.252900,0.924139,-0.574484,-0.430207,0.130449,-0.189410,0.403771,0.964214,0.445887,-0.239307,0.848447,-0.372862,-0.616894,-0.321417,-0.036387,0.970964,0.343494,-0.046934,-0.406589,-0.764730,-0.083255,-0.132860,-0.476378,0.251372,-0.120282,-0.437487,1.668038,0.271542,0.062307,0.516223,0.234076,0.809097,0.387755,-0.021948,0.317566,-0.025956,-1.397457,-0.065458,1.321959,0.695760,0.297184,-0.613527,0.257661,0.454517,0.363573,1.062203,-1.359542,0.551897,0.200609,-1.442275,-0.456080,-0.062911,0.593603,0.179202,-0.335540,0.170442,0.511389,0.592907,-0.278069,-0.247370,-0.175646,-1.293439,-0.134377,-0.039272,0.272351,-0.009787,0.156052,-0.532532,-0.340034,0.168593,0.018610,0.752594,0.322877,0.629275,-1.097536,-0.271599,-0.884346,0.447495,-0.128398,0.251203,-0.474980,-0.350593,0.568608,0.352996,0.084396,1.495195,0.045283,0.446615,-0.387556,-0.716970,0.102733,-0.408177,0.033215,0.318018,-0.331221,-0.590111,0.139911,1.107313,-0.340384,-1.278067,0.276136,-0.177978,0.508372,0.106199,0.209453,0.357914,-0.322039,-0.517813,-0.104775,0.068520,-0.059693,0.946515,-0.206937,-0.313988,0.334713,-0.322571
-0.669760,0.772247,-0.176438,-0.470156,0.153425,-0.346641,1.078087,-0.035883,0.168227,0.200860,0.340402,-0.267728,-0.072077,-1.154992,0.215627,-0.347778,0.142669,-0.306851,-0.173216,-0.148025,1.347769,0.062650,1.309387,1.529768,0.864245,-2.269389,1.007855,0.169608,-0.482828,-0.211789,0.329268,-0.199183,0.629079,-0.569225,-0.028125,0.236435,-0.205320,0.235533,2.447114,0.174459,-0.031480,-0.523557,0.386545,0.151309,-0.328071,0.598930,-0.094245,-0.091142,-0.423902,-0.766040,0.498230,0.016674,0.767264,0.417863,-0.549799,-0.173149,0.361780,0.384695,0.546205,-0.438327,-0.174837,0.003691,0.577116,0.527670,0.168731,-0.241113,0.357253,0.546569,-0.030622,-0.231937,0.067331,-0.389727,0.340440,0.208159,0.437772,0.028035,-0.543229,0.394085,0.253533,-0.208686,-0.270144,0.336488,0.154465,-0.475747,0.607351,0.454226,-0.092389,0.663741,0.136005,-0.112751,0.969394,-0.140357,0.084699,1.508080,0.458992,0.191435,-0.374537,-0.111608,0.167042,0.041178,0.314839,-0.994423,-0.628263,0.691508,-0.338593,-0.182818,-0.266519,0.770636,0.019772,0.093029,1.078692,-1.353768,-0.576557,0.680976,0.280909,-0.311643,-0.200902,0.374286,0.323453,-0.130869,0.225667,0.277648,0.423576,0.721521,0.136371,-0.309733,-0.290601,0.088107,0.448202
0.696170,0.187668,-0.401752,0.556757,-0.215604,0.388140,0.044508,0.640355,-0.557845,-0.397879,0.001984,-0.168657,0.593057,-0.489650,-0.199797,-0.373736,0.050954,-0.408700,-0.230909,0.357697,-0.190304,-0.409333,0.682959,0.202004,0.815626,0.584747,-0.517114,0.094390,-0.239438,-0.420964,0.330814,-0.280488,0.526559,-0.239655,0.166298,-0.061623,0.473967,0.220421,-0.018204,-0.422298,0.210099,-0.353375,-0.000584,-0.473760,0.096031,0.225146,-0.380996,0.379978,0.044746,-1.017608,-0.404699,0.287078,0.071134,-0.383643,-0.300320,0.241253,-0.172590,-0.400453,-0.253904,-0.750705,0.175646,0.084906,-0.844196,0.882533,-0.332885,-0.216960,-1.128900,-0.305774,0.284086,0.026953,-0.554215,-0.168360,-0.347987,0.224247,-0.104790,-0.378635,-1.085918,0.602496,0.297623,0.316446,-0.400377,-0.103289,-0.097000,-0.331598,0.238339,0.049593,0.156683,0.280357,-0.549236,0.468223,-0.459956,0.269572,0.529323,0.020327,-0.306052,-0.009614,-0.393043,-0.550342,-0.075995,-0.445317,0.641730,0.168291,-0.317573,0.720153,0.270925,0.036900,-0.036093,0.460383,-0.578802,-0.329465,-0.167310,-0.903823,0.102356,0.740565,-0.001091,0.197913,0.490198,-0.381138,0.871211,0.045013,-0.218040,0.738217,-0.282868,0.033163,-0.045357,0.050899,0.208940,0.318304,-0.057261
0.202682,-0.010055,0.309270,0.311951,0.464303,0.096988,1.089520,-0.599790,0.587710,-0.157120,-0.331592,-0.222490,0.042451,0.157307,-0.128718,-0.199485,-0.078291,0.027210,0.434133,-0.025032,0.236898,0.775265,0.904517,1.310216,0.483160,-0.432591,-0.159612,0.274819,-0.314911,-0.027618,0.437996,0.304395,1.217596,0.109656,-0.512907,0.284517,-0.091331,-0.374866,0.462966,-0.803414,0.284534,0.115274,-0.768788,-0.184751,0.514296,-0.219493,-0.026060,-0.378046,-0.051316,0.435509,-0.207909,-0.769203,-0.779393,0.342792,0.742377,0.390685,0.400120,-0.360404,-0.458510,-0.318918,-0.468849,0.139450,0.790154,0.023278,-0.469584,-0.290838,-0.092714,0.596572,-0.223633,0.418550,-0.463136,0.295056,-0.116397,0.015156,-1.042169,1.290883,-0.704131,0.040314,0.456773,0.452315,-0.437252,0.214850,-0.045555,0.366877,-0.528054,0.407208,0.650350,1.671247,-0.298401,1.023294,-0.217875,-0.414842,0.315654,0.980402,0.423019,-0.137042,0.706444,-0.395819,-0.412105,-0.301100,-0.627499,0.094621,0.438729,-0.213664,0.446725,-0.022113,-0.129210,0.114228,0.521885,-0.060694,0.741950,0.131006,0.835308,0.415204,-0.310585,-0.536963,0.445644,0.206109,-0.998677,-0.264987,0.389234,-0.759482,0.453454,-0.434162,-0.308302,0.127729,0.075680,0.189562,-0.380932
0.480185,0.571280,-0.324017,-0.015191,-0.103491,0.102977,-0.021352,0.079936,0.741397,-0.595688,-0.519557,-0.216692,-0.251059,-0.143647,0.443627,0.115235,0.028715,0.797944,-0.698983,0.201270,-0.600505,0.324465,0.772731,0.183603,0.955999,0.184648,-0.556481,-0.645189,-0.865933,0.054151,0.579292,0.084869,0.577363,-0.042239,0.190722,-0.600434,0.065645,-0.497233,0.467858,-0.569709,-0.209264,-0.530012,-0.635465,-0.180900,-0.360859,0.382408,0.154877,0.377564,-0.380127,-0.032679,-0.013726,-0.073124,0.638520,-0.029945,0.012651,-0.350009,0.158661,-0.298289,-0.777446,0.233804,0.378238,0.030510,-0.597968,0.657777,0.113077,0.622124,0.060907,-0.658770,0.196130,0.616669,0.478656,-0.302393,0.475581,0.251812,-0.070207,0.265582,-0.510381,-0.292053,0.174485,-0.486034,-0.363691,-0.192868,-0.122390,-0.491128,-0.371384,0.095769,-0.448103,0.749396,-0.188401,-0.156556,-0.111926,0.171337,-0.047063,0.689619,-0.373860,0.554777,-0.487301,0.214056,-0.520076,-0.291696,0.363769,-0.972021,1.357885,0.400101,0.356924,-0.359547,0.006828,0.087572,-0.023006,-0.105862,-0.375694,-0.242956,0.252767,-0.394367,-0.083812,1.046436,0.086926,-0.175238,-0.226865,0.193519,-0.390169,0.649591,-0.160333,0.306343,0.569772,-0.376470,0.303010,0.209495,-0.080287
-0.384892,0.149193,-0.137939,-0.076034,-0.552178,-0.283276,0.091739,0.067915,-0.496689,-0.342928,-0.042625,0.424182,-0.131067,0.948829,-0.441113,0.166273,-0.630985,0.783427,-0.156562,-0.377616,0.507093,-0.179797,0.104334,0.482227,-0.274161,0.393161,-0.137259,-0.379701,0.632132,-0.660236,-0.285439,0.628234,0.308215,0.166334,-0.274777,-0.046059,-0.478199,0.332058,-0.521194,0.442690,-0.673022,0.235806,-0.233632,-0.204502,0.436406,-0.433538,0.326114,-0.101348,-0.623798,-0.277899,-0.274432,0.658502,-0.692778,0.217602,-0.278027,0.042165,0.066194,0.651412,0.045911,0.207233,0.420441,-0.073280,-0.090659,-1.086184,0.223916,0.458617,0.319645,1.047745,0.244223,0.546914,0.180440,-0.543293,-0.151293,-0.194651,0.794773,-0.347425,-0.096292,-0.375110,0.468313,-0.185837,0.190125,0.499315,-0.282708,-0.556071,0.924772,-0.146864,-0.006853,-0.495862,0.339633,-0.487974,-0.015378,0.419941,-0.173434,0.043273,-0.519277,-0.000555,0.695684,0.183817,-0.115645,0.044764,0.266361,0.247847,0.560898,-0.318824,0.010232,0.264943,-0.085012,0.769030,0.078830,0.171507,-0.407687,0.506062,0.100108,-0.101369,-0.202338,-0.676719,-0.066597,-0.413974,0.119827,-0.539623,0.245395,0.010011,-0.342942,-0.406721,0.003571,0.286435,-0.140591,-0.246088,-0.195391
0.378824,-0.070007,0.214340,-0.337902,-0.480328,0.056798,-0.550442,-0.134224,-0.202555,-0.189787,0.414951,-0.442855,-0.397652,-0.466467,0.424037,0.166850,-0.182861,0.218527,-0.327810,-0.284764,-1.423786,0.016138,-0.161515,-0.390677,-0.563581,0.908421,0.277945,0.094618,0.120767,0.322940,0.130355,-0.236374,-1.152811,-0.165594,0.390714,-0.097851,-0.364243,-0.403141,-0.454754,0.301184,0.448124,-0.387006,0.617562,0.447842,-0.900638,0.754943,0.407865,-0.108838,0.469275,0.387891,-0.311387,-0.657141,-0.127353,-0.358785,0.537074,0.252745,-0.308502,-0.411353,-0.911298,-0.004090,-0.413236,0.282488,0.537463,0.733977,-0.006618,-0.464436,-0.236090,-1.212711,-0.300834,-0.119955,0.058130,-0.243364,-0.146857,0.206680,0.568096,0.340945,0.691181,0.397947,0.276543,0.157728,-0.195333,0.413592,-0.075152,0.291562,-0.715331,-0.386697,-1.114516,-1.060125,-0.057304,-1.320225,-0.367205,0.420971,-0.038459,-0.584822,0.452314,-0.362478,-0.730075,-0.496867,-0.214954,0.078377,0.268092,-0.416550,-0.166136,0.466842,0.108081,0.178155,-0.411924,0.156330,-0.013342,-0.402341,-0.552488,0.271248,-0.541359,-0.275015,0.194319,0.341201,0.227673,0.208692,0.847021,-0.228042,0.221934,0.649970,-0.266922,-0.522503,0.340371,-0.206581,0.387815,-0.110199,0.202061
-0.929573,-0.013414,-0.005391,0.050207,0.292919,-0.212022,-0.055406,0.002250,0.396424,0.181293,0.069225,0.310392,-0.429141,0.043299,-0.031663,-0.412588,-0.364542,0.332423,-0.214827,-0.040550,0.700835,0.159440,0.404277,0.252675,-0.337800,-0.693824,0.531748,-0.047587,-0.127163,-0.555547,0.055143,0.279417,-0.094512,0.019042,-0.077379,-0.092565,0.125130,0.081686,-0.155673,0.365408,-0.272307,0.238965,-0.356396,0.204484,0.739362,0.074999,-0.253349,0.436629,0.081899,-1.267909,-0.520220,0.665128,1.396290,-0.069023,-0.052343,-0.130869,0.121486,0.481512,1.086042,-0.372876,0.052597,-0.130435,-0.111352,-1.140207,-0.419463,-0.120999,0.238392,0.712229,0.299080,0.388954,0.075825,0.183777,-0.008852,0.088468,-0.473056,-0.727837,-0.098703,-0.031440,0.654197,-0.020038,-0.242934,0.194410,0.501145,0.137214,0.059170,-0.513205,0.055031,-0.527808,-0.114616,-0.800063,0.761117,-0.067391,-0.009994,-0.086478,0.054588,-0.129136,0.346264,0.543208,0.323182,0.156126,0.751933,0.795036,-0.503761,0.287558,0.150646,-0.439158,-0.221646,0.150941,-0.346286,-0.147903,0.071841,0.949288,-0.097165,-0.501850,-0.586164,-0.124385,-0.308748,-0.150210,-0.364890,-0.467659,-0.584062,-0.869284,-0.039730,0.931829,0.179311,-0.226494,-0.237164,-0.010588,-0.322189
-0.160041,-1.250955,0.037113,-1.272515,0.159164,0.493584,0.180842,-0.223764,-1.554131,-0.279743,-0.398443,0.046839,-0.053549,0.039717,0.589852,0.534896,0.056089,-0.091355,-0.202825,0.235701,0.400158,0.243134,1.048584,-0.435479,0.619479,0.189498,0.369394,0.093148,-0.059407,0.286945,-0.138502,0.387544,1.173354,-0.367147,-0.246692,-0.144638,0.278818,0.127276,-0.324581,-0.278889,-0.272764,0.092178,-0.132456,0.217785,-0.309508,-0.198305,0.281725,0.424289,0.371960,-0.722607,0.439158,-1.081366,-0.495687,0.337774,1.133070,-0.146580,0.095480,-0.104503,-1.172582,-0.793083,0.342209,-0.056780,0.053283,0.533038,-0.107628,-0.097995,0.681915,-0.087688,-0.304395,0.002624,-0.192447,0.221777,-0.428219,-0.160393,1.890079,0.220417,-0.225742,0.123788,-0.167246,0.219381,0.094559,0.254577,-0.412092,0.614914,-0.870256,-0.026554,-1.769731,0.801459,0.310196,-1.085386,-0.439580,-0.179664,0.459546,0.932482,0.561210,-0.158330,0.321260,0.091537,-0.421146,-0.229130,-0.095829,-0.074357,0.137326,-0.411366,-0.518306,0.176913,0.612232,1.541016,0.494277,-0.227569,-0.516841,-0.782574,0.268936,0.108035,0.316315,-0.183016,-0.158668,-0.163929,-0.640269,0.143208,0.087606,0.803684,-0.092929,0.530744,0.322937,-0.129676,0.339835,-0.548469,-0.453747
0.193289,-0.256271,-0.206129,-0.168414,0.232582,-0.166368,0.424280,-0.085970,0.148520,0.670930,-0.157221,-0.354618,-0.276187,0.262898,0.167797,-0.192981,0.162893,-0.507467,0.265785,-0.370563,-0.025541,-0.536247,-0.109157,0.088096,0.151631,-0.687184,0.141609,-0.221965,0.057623,0.559784,0.208643,-0.143373,-0.218761,-0.348395,-0.155797,-0.245214,0.725995,-0.187175,0.093736,-0.465280,0.606501,-0.107189,-0.031303,0.030509,-0.017677,0.097030,-0.246174,-0.001118,-0.233742,0.295524,0.614046,-0.564444,-0.334954,-0.273634,0.393851,-0.439591,0.087034,-0.539719,-0.397157,0.209448,0.024606,-0.194218,0.276054,-0.412254,-0.143741,-0.099591,-0.040442,0.075358,-0.505402,-0.432436,0.357855,-0.070519,-0.672613,-0.130308,-0.231789,-0.223627,0.499842,0.434659,-0.039106,-0.122209,0.480718,-0.326703,0.225672,-0.080597,-0.166454,0.566401,0.080928,0.017877,0.189671,0.265410,-0.065943,-0.166252,0.124248,-0.405326,0.509774,0.195646,-0.468394,-0.233185,-0.379709,-0.175071,0.699426,0.470640,0.550652,0.073775,-0.696743,0.687968,-0.206784,0.004737,0.061200,0.316208,-0.213997,0.306783,0.265256,0.662161,-0.169620,-0.138535,0.061707,0.370186,-0.219831,-0.037502,-0.078128,0.281219,0.000495,0.564095,0.078673,0.559497,-0.126148,-0.457812,-0.645402
0.677561,0.542200,-0.084124,0.495317,-0.121190,0.196107,-1.083255,0.627488,1.043760,0.229543,0.396362,-0.211871,-1.094616,0.119969,-0.289690,0.511428,0.604981,0.075514,0.280414,-0.060091,-0.133626,-0.806940,-0.294165,-0.447970,-0.370471,0.685464,-1.095651,-0.396547,-0.659318,0.173090,0.007028,0.193133,0.424909,0.285980,-0.317924,-0.220155,-0.100575,-0.044222,0.153208,-1.190895,0.020243,-0.418670,-0.348409,-0.164077,0.133835,-0.507962,-0.053752,0.045368,0.430945,1.176457,0.093919,0.991039,1.042099,0.131590,-0.789176,-0.292948,-0.493590,-0.433340,-0.556364,0.817063,0.076827,0.293764,-0.325040,-0.140182,-0.191183,0.201316,0.264422,0.550646,0.021026,-0.312779,-0.632760,0.457892,0.267886,0.291699,-2.094317,-0.990179,0.634493,-0.159728,-0.269890,-0.171088,-0.304107,-0.119316,-0.256813,-0.000706,0.005187,0.147623,0.233792,0.420606,0.054684,1.047817,0.349578,-0.060930,0.001746,-0.367548,0.052237,0.168651,0.339566,-0.449411,-1.240858,-0.016497,0.516991,0.226522,0.307779,0.314096,0.080819,-0.385815,-0.126227,-0.585395,-0.339081,0.314120,-0.245233,1.075272,0.759691,-0.267721,0.024624,0.496082,0.398526,0.473908,0.325081,-0.061042,-0.330155,-0.648592,-0.317087,0.807841,-1.095910,0.439067,-0.371853,-0.228745,-0.042084
0.096918,-0.944801,-0.032364,0.434473,-0.239244,-0.213040,-0.858885,-0.089364,0.908097,-0.156259,0.355920,0.308694,-0.044059,-0.683117,0.906871,0.385897,-0.178776,-0.605380,0.274001,-0.294397,-0.810613,0.247233,-0.329410,0.513816,0.401495,0.006958,-0.204794,-0.246018,-1.063099,0.125004,0.169774,0.310396,-0.561629,0.230170,0.146590,-0.050909,0.406979,-0.283822,0.445340,-0.857976,0.107020,-0.240888,-0.848159,0.414570,0.084291,1.249482,-0.483647,0.370674,-0.144308,0.989502,-0.303631,-1.407682,-0.080329,-0.517567,0.409883,-0.174162,-0.570880,-0.270963,-1.169082,0.319040,-0.276530,0.380495,0.885895,0.713488,-0.158457,0.035630,-0.334877,-1.421493,-0.618411,0.364472,-0.142458,0.118809,-0.301413,-0.095704,-0.548221,1.058216,0.165760,0.221572,0.049537,0.726515,0.013917,-0.498374,-0.182136,0.316180,-1.518930,0.419305,-0.229114,0.169608,0.008408,0.227575,0.505909,-0.442803,-0.357581,-0.444284,-0.140386,-0.482721,-1.071475,0.153478,-0.329212,0.439021,0.057540,-0.638562,-0.098928,0.488011,0.029781,0.302715,0.466892,-0.693730,-0.366099,-0.203255,-0.033496,-0.153897,0.668952,0.385351,0.071125,-0.126144,0.611928,0.264669,-0.117141,0.109011,0.372386,0.053384,-0.041160,-0.499967,0.159520,0.396926,-0.025367,0.099978,-0.589915
-0.769308,-0.175424,0.498396,-0.460578,-0.172793,-0.145409,-0.202796,-0.287453,-0.310437,0.435742,0.315538,-0.425343,0.402314,-0.160773,-0.267380,-0.345735,0.614094,0.028899,-0.231087,0.011218,0.611730,0.026221,-0.770857,0.247828,-0.247004,-0.276481,0.800043,-0.304804,-0.266406,0.317256,0.105497,-0.481909,-0.988740,-0.201041,0.077077,-0.163294,0.188801,-0.080896,0.038331,0.361846,-0.143420,-0.107243,0.841645,0.092656,0.023873,0.274904,-0.439284,-0.043942,-0.242324,-0.309482,0.282900,-0.172824,0.047108,-0.772698,0.032718,0.124124,0.182294,-0.213261,0.703969,-0.395096,-0.351363,0.392610,0.371738,0.157995,0.046890,-0.615374,0.262560,-0.452254,-0.396422,0.141522,0.160987,0.460198,0.033689,0.185567,0.277119,0.250507,0.158740,-0.346375,0.184286,0.683135,0.679499,-0.393267,-0.030338,0.054705,-0.220683,0.080480,0.478532,-0.681767,-0.099839,-0.713202,0.127385,-0.398249,-0.171989,-0.754895,0.112325,-0.676531,-0.143590,0.310592,0.970182,0.204915,-0.432598,0.094190,-0.673694,0.116233,-0.184357,0.645270,0.188532,-0.558396,0.439055,0.644342,0.267825,-0.247391,-0.820564,-0.195677,-0.110442,-0.999696,0.357186,0.010079,0.101724,0.647833,0.409611,0.108550,0.178226,-0.569718,-0.100332,0.568845,-0.066898,-0.146107,-0.419231
0.027391,0.245509,-0.257010,-0.170528,-0.310672,0.222547,-0.216078,-0.281455,-0.227193,-0.530754,-0.603747,0.310410,-0.169377,0.388846,0.005384,-0.611467,0.084311,0.180878,-0.364290,0.244202,-0.079449,-0.567135,-0.215061,-0.466191,0.027108,0.349264,0.154514,0.219248,0.543904,-0.303282,0.119461,0.180501,-0.693479,-0.379837,-0.192989,-0.104018,-0.607879,-0.687438,0.044122,0.761703,0.193671,-0.519767,0.595676,-0.724230,-0.062999,0.153565,0.592175,-0.331974,-0.530287,0.369041,-0.559832,-0.150116,-0.361386,-0.273170,-0.232499,-0.309917,0.327104,-0.251158,-0.352131,0.431663,0.684842,-0.291429,0.122689,0.374945,-0.067688,-0.090825,0.118582,-0.001608,-0.095496,0.060157,0.179188,0.005570,0.194360,-0.009210,0.757775,-0.577368,-0.027439,-0.359868,-0.096276,-0.358437,0.306111,0.139230,0.680115,-0.045249,-0.017500,-0.450158,-0.555727,0.377989,0.068442,-0.488045,-0.232527,0.293530,-0.100516,0.090367,-0.461746,0.215990,0.143679,0.067805,-0.554228,-0.009971,-0.090083,0.751205,-0.136091,-0.019645,-0.001191,0.290414,-0.232367,0.238662,-0.152303,-0.304955,0.213957,0.378850,0.309622,-0.388097,0.176979,-0.266992,0.212566,-0.094163,0.545313,-0.065697,-0.145059,0.368012,-0.025430,0.069031,-0.269086,-0.543382,0.386631,0.530202,0.473354
-0.288302,0.550826,-0.346120,0.299981,0.032154,-0.321078,0.219174,-0.655396,-0.032664,-0.071776,0.263366,-0.184854,0.429540,0.026095,0.262608,-0.028509,0.038149,0.140475,0.029522,-0.247393,-0.080050,-0.276990,-0.494647,0.193508,0.247356,-0.288105,0.002856,-0.243858,0.358576,0.080604,-0.306051,-0.062765,0.261943,-0.440063,0.132549,0.183895,-0.142874,0.186678,0.886466,0.498482,0.031352,-0.600789,-0.543986,-0.090808,0.416221,0.292348,0.102105,0.453665,0.002250,0.713709,0.460964,-0.885945,0.288646,-0.440309,-0.083098,-0.287358,0.236053,0.075170,-0.903497,0.346452,0.418733,0.278915,0.021973,0.350088,0.002624,0.462053,-0.373604,-0.178602,0.237989,-0.031631,0.858020,0.319625,0.115054,-0.120069,-0.480212,-0.006883,0.624410,-0.548686,0.396145,0.415449,-0.265255,-0.331715,-0.122442,0.235558,0.230220,0.336480,0.010265,-0.324189,-0.188938,0.051901,-0.662346,-0.171976,0.305722,0.327002,-0.129324,-0.257511,-0.298746,-0.150173,0.504106,0.144465,0.022404,0.387638,-0.042286,0.107687,0.305366,0.505027,0.275172,-0.507040,-0.406693,0.454338,-0.005102,0.017929,-0.197865,-0.198016,0.208844,-0.325301,-0.261343,0.069419,0.045166,0.081143,-0.331844,-0.301969,0.233138,-0.885883,0.214828,0.405178,-0.139898,-0.037636,-0.008392
-0.618328,0.288212,-0.006278,0.945889,0.015341,-0.356060,0.582890,0.505734,0.315973,-0.278653,-0.295885,-0.223052,0.398315,-0.027920,-0.515722,0.242886,0.330453,-0.690772,-0.252735,0.316885,-0.479986,-0.494641,-0.096709,-0.390662,0.629461,0.593867,0.302916,0.375594,-0.458401,0.351555,-0.294253,0.089715,0.197911,0.516675,-0.098559,-0.125475,-0.409953,0.493628,0.299685,-0.319997,0.061602,0.502818,-1.246862,-0.210214,-0.440498,0.920343,-0.513737,-0.277018,-0.167935,1.004363,0.222074,0.362347,1.495471,-0.113771,0.223825,-0.473827,-0.348057,-0.172747,-0.498661,-0.279213,0.195403,0.444697,0.617141,0.877840,-0.238279,0.238118,-0.279274,-0.335703,-0.226925,-0.324936,0.783557,0.605396,-0.281812,0.180980,-1.996548,0.699858,0.548981,-0.076996,0.274135,0.412166,-0.042302,-0.282586,-0.456434,0.154064,-0.997271,-0.069666,0.934988,0.717306,0.305002,0.803649,-1.042255,-0.486615,-0.023865,-0.159511,0.506642,0.178394,-0.446110,-0.543919,-0.062760,-0.197290,-0.923713,0.102465,-0.489483,0.499115,-0.434073,-0.317993,0.273745,-1.061938,-0.624138,-0.122618,-0.411616,0.299386,1.007206,-0.377111,0.386209,0.966625,-0.010067,0.448451,-0.120322,-0.221911,0.410297,-0.897139,-0.093005,-1.235219,-0.592993,0.343071,0.028690,0.094569,0.233892
0.316668,0.222210,0.260297,0.343986,0.351975,0.428210,0.436680,0.578451,0.001866,0.190602,-0.467042,-0.162578,0.677882,0.572526,-0.453817,0.453110,0.372922,-0.216461,-0.033478,0.440603,-0.547980,-0.750880,-0.246462,0.115476,-0.219478,0.212749,-0.097698,0.481913,0.323476,-0.443044,0.246685,-0.215636,-0.370828,-0.338180,-0.353284,-0.458541,-0.194729,0.111406,-0.620698,0.093653,0.115126,0.310527,0.132713,0.212502,-0.003586,0.819666,-0.235683,0.661716,0.332896,0.318383,0.309050,0.117225,0.413867,-0.179441,0.485590,-0.076586,0.336575,-0.147199,0.089239,0.058747,0.340549,-0.219394,-0.762012,0.739250,-0.047660,-0.087951,-0.576262,0.045532,0.317898,-0.573492,0.320899,0.479443,-0.230454,-0.396957,1.339733,0.365355,0.214908,0.180096,-0.293527,-0.549512,0.302458,0.123070,-0.386293,-0.187517,-0.518160,0.001618,0.108188,-0.603104,0.450656,-0.201640,-0.392958,0.214687,0.488258,-0.346032,0.082078,-0.359525,-0.775819,-0.118643,-0.046689,-0.242632,-0.339081,0.085516,1.212652,0.416831,-0.043166,-0.102812,-0.295988,-0.471999,0.068695,-0.039497,-1.108675,0.022742,-0.555348,0.582159,0.242860,0.212484,-0.357722,-0.307227,0.398889,-0.125900,0.443066,-0.556990,0.377540,-0.797016,-0.250760,0.279444,0.268892,0.573570,0.434851
0.167124,-0.553620,-0.013577,0.763456,-0.307126,-0.402331,-0.462123,0.388555,1.107452,-0.313930,0.171854,-0.347367,-0.768745,0.187631,-0.650849,0.092946,0.239949,-0.863712,0.316792,-0.231803,-1.346441,-0.989025,-1.434095,-0.774557,-0.082649,0.714955,0.174900,-0.067298,-0.591403,0.461527,-0.437875,-0.228817,-0.168975,0.781925,0.138662,0.491118,-0.278944,-0.024210,0.957110,-0.573431,0.412145,-0.290830,-0.525744,-0.050434,-0.313362,0.414278,0.155189,0.015275,-0.142767,1.968698,0.572657,0.057172,0.685835,0.428699,0.787146,-0.277742,-0.696734,0.083943,-0.945777,0.508377,-0.056318,0.425804,0.747365,0.420063,0.101394,-0.458884,0.007108,-0.059398,-0.110043,0.185190,0.623908,-0.164484,-0.281406,-0.090871,-2.290313,-0.049034,1.102078,0.296511,-0.443532,0.700283,-0.185592,-0.605969,0.206305,0.369151,-0.820015,-0.096395,-0.062612,0.085639,0.131287,0.179230,-0.252268,-0.414962,0.024135,-0.866361,0.688094,-0.266913,-0.454784,-0.268247,-1.077227,0.323941,-0.674703,0.381278,-0.360443,0.599737,-0.366768,0.345385,-0.468589,-1.779610,-0.275150,0.281560,-0.381071,0.594705,1.384270,-0.296188,-0.070554,0.456590,0.112199,0.310173,-0.015376,0.209502,0.486792,-1.028357,0.231311,-0.914883,-0.854131,0.499177,-0.375831,0.026899,-0.336790
0.598466,0.827148,0.062006,1.327030,0.097848,-0.491434,-0.010178,0.185300,1.574489,0.025454,0.044929,-0.167548,0.280099,-0.784198,0.264077,-0.014666,-0.184283,-0.064176,-0.393094,0.276721,-0.513899,0.564416,-0.170656,1.204566,0.058361,-0.819829,0.156782,-0.473187,-0.776460,-0.118881,0.168847,0.469655,0.130424,0.264854,-0.112664,-0.017552,0.240713,-0.073756,1.430601,0.155043,0.020775,0.279089,-0.430660,-0.541651,0.165552,1.250828,0.147381,-0.285771,0.238889,0.522294,-0.065775,-0.131226,0.088897,-0.249955,-0.065655,0.117422,-0.085943,-0.141983,0.750323,0.189287,-0.225842,-0.482609,0.161231,0.121000,0.181884,-0.092672,-0.180672,-1.256815,0.280827,0.034106,0.389686,-0.612328,-0.251379,0.297770,-1.233120,0.516278,-0.694847,-0.120548,0.339736,0.040098,0.035747,0.181650,-0.326659,0.218413,0.080908,-0.111859,0.719865,0.103429,-0.156444,0.456186,0.190959,0.546286,-0.416597,0.322177,-0.398281,-0.220814,-0.869728,-0.297675,0.016991,0.482653,0.389180,-1.090595,0.302077,0.395238,-0.220699,-0.300549,0.545046,-1.278294,-0.601955,-0.309181,0.828354,-0.809140,-0.618895,-0.122484,-0.291866,0.283370,-0.364575,0.032181,0.033055,0.007385,-0.528445,0.037435,-0.604048,0.111366,0.632401,0.114462,0.399916,0.495065,0.614955
0.305324,-0.421951,0.235264,-0.910272,0.315015,-0.057852,-0.385846,0.305278,-0.969405,-0.338490,-0.482599,0.206111,0.032830,-0.567187,-0.547017,-0.344669,-0.149297,0.349737,-0.255525,0.166655,-0.341144,-0.454999,0.080143,-0.929664,-0.069461,-0.392580,0.833980,-0.406000,-0.357697,-0.213572,-0.115253,-0.095646,-0.509200,-0.225215,-0.073018,0.327474,-0.071848,0.162354,-0.304810,0.462906,0.398402,0.245084,0.123649,-0.052995,-0.302940,-0.658110,0.521689,0.384206,0.109862,-0.115270,0.145975,-0.380416,-0.019900,-0.241495,0.757297,-0.404123,0.232158,-0.166351,-0.981201,0.244440,-0.338577,0.155033,0.224858,0.163212,0.037158,-0.105879,0.332005,0.663853,-0.084301,0.092170,-0.158335,0.076750,0.218168,-0.272984,0.713880,-0.420300,0.184215,-0.010652,0.140216,0.001966,-0.072525,0.107615,-0.262320,0.048786,0.027221,0.378114,-1.390481,0.369747,0.410968,-1.350456,-0.569059,0.039420,-0.281997,0.492900,0.347226,-0.137917,0.094658,-0.027936,0.007162,-0.020571,0.129402,-0.201536,-0.103662,0.149058,0.238884,0.442981,-0.106749,0.938715,0.242396,-0.422006,-0.277345,0.034957,0.107702,0.414261,0.199698,-0.448030,0.007853,0.340828,0.057800,0.158376,-0.103804,0.698437,-0.411899,0.057767,0.861528,-0.119716,0.389879,-0.112769,0.071009
-0.391959,0.417604,-0.430918,-0.375400,-0.065293,-0.498273,-0.522293,-0.205841,0.178828,-0.533832,-0.734272,-0.043621,-0.302189,-0.647712,1.305781,-0.409249,-0.202574,0.224207,-0.317230,-0.075692,0.900347,0.583904,0.882773,-0.031398,0.279982,-0.635920,0.243723,0.019958,-0.322734,-0.226155,0.207842,0.457821,0.472691,0.474914,0.450486,-0.296871,-0.524954,0.302125,0.768307,0.835525,-0.421613,-0.422701,-0.108513,-0.113392,-0.121903,0.291152,-0.364605,0.530267,0.072828,-1.185985,-0.340635,-0.431141,-0.275672,0.069443,-0.049879,0.106136,-0.359110,0.150425,-0.408492,-0.648019,0.100330,0.085018,-0.573366,-0.108145,-0.136397,0.018781,1.903317,-0.045152,0.242604,0.246834,0.012453,0.225316,0.590378,-0.436978,-0.556363,-0.553309,0.022521,0.183789,0.650740,0.057476,0.033822,0.021431,0.098950,-0.183455,0.362104,-0.602219,-1.066071,-0.343711,0.021565,-1.874716,0.241979,-0.258275,-0.092276,0.992241,-0.456926,-0.147978,0.234486,0.081007,0.625821,0.058975,1.099455,-0.423460,-0.171914,0.300761,0.498710,0.176387,0.898409,-0.138343,-0.420154,0.096482,0.382159,-0.639031,-0.160792,0.061038,-0.213936,-0.293690,-0.296768,-0.266580,-0.038445,-0.157197,-0.209698,0.842689,-0.026644,1.517606,1.010051,0.365775,0.031003,-0.253965,0.020745
0.839047,-0.186425,-0.280575,0.013279,0.491165,0.340080,-0.437528,-0.509711,-0.062951,0.529344,0.216793,-0.356227,-0.249559,-0.128827,-0.510329,0.092640,-0.219058,0.099942,0.236976,-0.296018,0.310454,-1.259364,0.023096,-0.460374,0.191151,-0.340985,-0.049025,-0.141931,0.072423,0.065946,-0.426404,0.247657,0.219720,-0.086805,-0.120636,-0.278999,-0.187312,-0.158467,0.647730,-1.185757,0.105206,0.179311,0.567645,0.494732,-0.376869,-0.397295,-0.195079,-0.438169,-0.128542,0.592233,0.699424,0.468356,-0.261842,0.432090,0.101302,-0.549895,0.098779,-0.493386,0.356916,0.854063,0.113924,0.055326,0.157982,-0.056612,0.203096,-0.155614,-0.209164,1.113672,-0.143984,-0.027693,-0.716917,-0.068937,-0.309259,0.664479,0.200096,-0.778075,0.166780,0.091836,-0.210535,-0.167774,-0.183976,-0.011901,-0.099302,-0.142093,0.440668,-0.274216,-0.197875,1.008032,-0.424028,0.416639,-0.552864,0.047935,0.170861,0.638865,-0.271758,-0.250642,0.248888,-0.005620,-0.811422,0.170482,0.113285,0.670928,-0.037085,-0.243072,-0.237797,0.365434,-0.830415,0.533693,0.344338,-0.233400,0.094636,-0.195206,-0.167419,0.644352,0.165788,-0.358251,-0.105972,0.645150,0.506495,0.705615,0.660237,0.183934,-0.009472,0.654390,-0.534494,0.018940,-0.629781,-0.558200,-0.380304
-0.556000,-0.132768,-0.106777,0.223781,-0.355136,0.302801,-0.020046,0.153060,0.163530,0.024010,-0.166186,-0.145734,0.349057,-0.113229,0.044989,-0.016522,0.054917,0.338088,0.265660,-0.299865,0.109829,-0.183585,-0.513045,0.179309,-0.306049,0.174916,-0.518520,-0.169093,0.148390,0.293119,0.183360,0.502459,-0.431231,-0.479415,0.463564,-0.478443,0.251539,0.285024,-0.256904,-0.220865,0.293741,-0.181120,-0.305644,-0.417645,0.032235,-0.270444,-0.273480,0.359164,-0.337063,0.359251,0.291723,0.104565,-0.024115,-0.351860,0.019170,-0.167767,-0.182223,0.593973,0.102347,-0.194662,0.046368,-0.260783,0.473001,0.383310,-0.288645,-0.146358,-0.298816,-0.116965,0.041229,0.570822,0.519434,-0.248268,0.630132,-0.090283,-0.457936,0.444067,-0.087273,0.013484,0.127137,-0.495317,-0.713579,0.015825,0.678605,0.047151,0.250429,-0.484668,0.505129,0.251047,-0.212056,-0.198105,0.191039,-0.142619,0.034035,0.229508,0.074451,-0.232329,0.383438,0.135733,-0.127705,0.322296,0.039142,0.367981,-0.399745,0.277562,-0.031696,-0.297475,0.281030,-0.678730,-0.481283,-0.151253,-0.115534,-0.056442,0.368020,-0.469816,-0.014109,0.429652,-0.395582,-0.591074,-0.263558,0.122760,-0.027612,0.023616,-0.319374,0.389607,-0.098681,-0.585717,-0.059194,0.575929,-0.139863
-0.210592,-0.222780,-0.644187,0.223302,0.371831,0.349372,1.204657,0.075125,0.372733,0.253403,0.119513,-0.178792,0.336637,-0.305762,0.868233,-0.167537,-0.231505,-0.582302,0.228166,0.309565,0.143279,1.281986,0.827850,1.049956,0.750801,-0.550533,0.527628,0.082976,-0.549042,0.125422,-0.258611,0.388432,0.578289,0.083813,0.557137,-0.103429,-0.592668,-0.567823,0.728445,-0.146035,-0.301880,-0.120619,-0.801943,-0.114308,0.312655,0.924906,-0.265743,0.365982,-0.637193,-0.062539,-0.436321,-0.363896,0.730721,-0.075382,0.398037,0.428108,0.025905,0.093294,0.133839,-0.105335,-0.017005,-0.065964,0.421025,0.374208,-0.065591,0.561219,-0.027220,-0.827449,-0.073536,0.660109,0.181401,-0.399547,0.085302,-0.202800,-0.999743,1.263171,-0.124483,0.238054,0.143310,-0.506291,0.072003,0.689933,-0.140910,0.277903,-0.484746,0.134012,0.974205,0.813299,0.027231,0.835873,-0.019002,0.112011,0.297502,0.765600,-0.180503,0.322539,-0.504054,0.269271,-0.018421,-0.281465,-0.387028,-0.535926,0.648674,-0.512159,0.010149,-0.215885,-0.137765,-0.856049,-0.393541,0.068820,-0.248899,-0.202731,0.672722,0.115106,0.256917,-0.353148,-0.343371,0.086423,-0.852543,0.200415,0.190122,-0.745533,-0.091804,0.059596,0.085419,-0.608985,0.605382,0.313322,0.043534
-0.055131,-0.275532,-0.402511,-0.366133,0.185141,-0.541831,0.879688,-0.347481,-0.019338,-0.037442,-0.220521,-0.419727,0.066052,0.615143,-0.625604,-0.044074,-0.100164,-0.118351,0.023622,0.126610,0.650053,0.805133,0.833980,0.345823,0.188114,-0.273793,0.065021,0.040524,0.622339,-0.231300,-0.221509,0.041304,0.755710,0.163074,-0.141044,0.090766,-0.232734,0.253707,-0.144179,-0.286768,-0.068768,-0.045337,-0.408957,-0.133895,0.713563,-1.124699,-0.254933,0.164856,-0.150277,0.501239,0.062299,-0.248607,0.084451,-0.017657,0.481104,0.449231,0.432400,-0.021312,0.452754,0.358029,0.223312,0.448195,0.805580,-0.686991,0.407112,-0.401184,-0.483405,0.134289,0.367818,0.201724,-0.090739,0.219557,-0.300747,-0.147749,0.348358,0.851504,-0.337466,0.223459,0.052370,-0.175049,-0.438594,-0.094841,-0.477200,-0.094932,-0.130779,-0.320627,1.166303,0.661086,-0.380172,0.638869,-0.322432,-0.388200,-0.432960,0.694965,0.001716,0.065990,0.853838,0.181767,-0.199655,-0.061415,-0.460529,0.403536,0.447702,-0.938429,0.107011,0.459745,-0.207975,-0.242731,0.724854,0.240958,0.498657,-0.250652,0.185400,0.094550,-0.257994,-0.710910,0.332798,-0.036807,-0.149705,-0.187470,-0.155902,-0.585101,0.246844,-0.629037,-0.860242,0.088123,0.352658,-0.172131,0.216684
0.051182,0.384942,0.481608,0.419009,0.234436,0.461241,0.287564,-0.283921,0.876498,-0.218173,0.011637,0.114962,0.128452,-1.105476,0.836703,0.301439,-0.481783,0.510593,0.438272,-0.270172,0.337111,0.372336,0.316691,1.128241,0.019954,-1.589831,0.028829,0.203156,-0.294766,0.392781,0.026238,-0.168322,-0.979452,-0.472156,-0.311284,0.127360,-0.164233,0.013433,1.011721,0.268422,-0.474199,0.341063,0.625720,0.293945,0.185656,1.524362,0.079832,-0.312168,-0.451956,-0.483608,0.409031,-0.320240,0.207533,-0.229748,-0.951082,0.085676,0.029828,-0.052104,-0.145198,-0.146248,-0.309386,0.336162,0.277269,0.738124,0.272352,0.025141,-0.241674,-1.178814,-0.392844,0.478828,-0.093821,-0.487074,0.177491,0.219012,-0.375484,0.823833,-0.199878,-0.538236,-0.303057,-0.208351,0.164760,-0.023304,0.409916,-0.406047,0.061501,0.338013,-0.080499,-0.936307,0.141882,0.126506,1.443900,-0.423467,-0.311865,0.091290,-0.016282,0.107878,-0.719995,-0.005197,0.345506,0.399242,1.566499,-1.367653,-0.079272,0.536407,0.085193,0.213135,-0.288938,-0.519290,-0.522561,0.478141,1.234120,-1.054651,-0.852584,-0.334940,0.361928,0.684828,0.051012,-0.173311,0.314873,-0.099718,0.201375,1.401145,0.232800,0.117886,0.844717,0.267024,-0.472656,0.422762,0.368586
